shape,"(6, 512)"
0.0,0.0,0.0,0.0,0.0,0.0,0.0,0.0,0.0,0.0,0.0,0.0,0.0,0.0,0.0,0.0,0.0,0.0,0.0,0.0,0.0,0.0,0.0,0.0,0.0,0.0,0.0,0.0,0.0,0.0,0.0,0.0,0.0,0.0,0.0,0.0,0.0,0.0,0.0,0.0,0.0,0.0,0.0,0.0,0.0,0.0,0.0,0.0,0.0,0.0,0.0,0.0,0.0,0.0,0.0,0.0,0.0,0.0,0.0,0.0,0.0,0.0,0.0,0.0,0.0,0.0,0.0,0.0,0.0,0.0,0.0,0.0,0.0,0.0,0.0,0.0,0.0,0.0,0.0,0.0,0.0,0.0,0.0,0.0,0.0,0.0,0.0,0.0,0.0,0.0,0.0,0.0,0.0,0.0,0.0,0.0,0.0,0.0,0.0,0.0,0.0,0.0,0.0,0.0,0.0,0.0,0.0,0.0,0.0,0.0,0.0,0.0,0.0,0.0,0.0,0.0,0.0,0.0,0.0,0.0,0.0,0.0,0.0,0.0,0.0,0.0,0.0,0.0,0.0,0.0,0.0,0.0,0.0,0.0,0.0,0.0,0.0,0.0,0.0,0.0,0.0,0.0,0.0,0.0,0.0,0.0,0.0,0.0,0.0,0.0,0.0,0.0,0.0,0.0,0.0,0.0,0.0,0.0,0.0,0.0,0.0,0.0,0.0,0.0,0.0,0.0,0.0,0.0,0.0,0.0,0.0,0.0,0.0,0.0,0.0,0.0,0.0,0.0,0.0,0.0,0.0,0.0,0.0,0.0,0.0,0.0,0.0,0.0,0.0,0.0,0.0,0.0,0.0,0.0,0.0,0.0,0.0,0.0,0.0,0.0,0.0,0.0,0.0,0.0,0.0,0.0,0.0,0.0,0.0,0.0,0.0,0.0,0.0,0.0,0.0,0.0,0.0,0.0,0.0,0.0,0.0,0.0,0.0,0.0,0.0,0.0,0.0,0.0,0.0,0.0,0.0,0.0,0.0,0.0,0.0,0.0,0.0,0.0,0.0,0.0,0.0,0.0,0.0,0.0,0.0,0.0,0.0,0.0,0.0,0.0,0.0,0.0,0.0,0.0,0.0,0.0,0.0,0.0,0.0,0.0,0.0,0.0,0.0,0.0,0.0,0.0,0.0,0.0,0.0,0.0,0.0,0.0,0.0,0.0,0.0,0.0,0.0,0.0,0.0,0.0,0.0,0.0,0.0,0.0,0.0,0.0,0.0,0.0,0.0,0.0,0.0,0.0,0.0,0.0,0.0,0.0,0.0,0.0,0.0,0.0,0.0,0.0,0.0,0.0,0.0,0.0,0.0,0.0,0.0,0.0,0.0,0.0,0.0,0.0,0.0,0.0,0.0,0.0,0.0,0.0,0.0,0.0,0.0,0.0,0.0,0.0,0.0,0.0,0.0,0.0,0.0,0.0,0.0,0.0,0.0,0.0,0.0,0.0,0.0,0.0,0.0,0.0,0.0,0.0,0.0,0.0,0.0,0.0,0.0,0.0,0.0,0.0,0.0,0.0,0.0,0.0,0.0,0.0,0.0,0.0,0.0,0.0,0.0,0.0,0.0,0.0,0.0,0.0,0.0,0.0,0.0,0.0,0.0,0.0,0.0,0.0,0.0,0.0,0.0,0.0,0.0,0.0,0.0,0.0,0.0,0.0,0.0,0.0,0.0,0.0,0.0,0.0,0.0,0.0,0.0,0.0,0.0,0.0,0.0,0.0,0.0,0.0,0.0,0.0,0.0,0.0,0.0,0.0,0.0,0.0,0.0,0.0,0.0,0.0,0.0,0.0,0.0,0.0,0.0,0.0,0.0,0.0,0.0,0.0,0.0,0.0,0.0,0.0,0.0,0.0,0.0,0.0,0.0,0.0,0.0,0.0,0.0,0.0,0.0,0.0,0.0,0.0,0.0,0.0,0.0,0.0,0.0,0.0,0.0,0.0,0.0,0.0,0.0,0.0,0.0,0.0,0.0,0.0,0.0,0.0,0.0,0.0,0.0,0.0,0.0,0.0,0.0,0.0,0.0,0.0,0.0,0.0,0.0,0.0,0.0,0.0,0.0,0.0,0.0,0.0,0.0,0.0,0.0,0.0,0.0,0.0,0.0,0.0,0.0,0.0,0.0,0.0,0.0,0.0,0.0,0.0,0.0,0.0,0.0,0.0,0.0,0.0,0.0,0.0,0.0,0.0,0.0,0.0,0.0,0.0,0.0,0.0
1.5993682,-0.38342494,-0.0010444801,0.17458479,-1.2852218,-0.7429788,0.47698727,-0.65341526,1.1018193,0.44188032,0.44354302,0.36584017,0.6291158,1.8205476,-0.018059453,-0.6388073,-1.1600747,0.03761257,0.28172055,-1.5727459,0.817707,-0.81369674,1.2243177,-0.9339147,0.8724061,1.1355407,0.49685368,-0.15726586,1.428578,-1.1506257,0.8424017,0.42319393,0.20513766,-0.14944677,2.5627162,1.7162464,-0.45110422,-0.8450565,1.5605551,0.65492004,1.2357422,0.8190871,0.12027334,-0.19420709,0.0050947163,-0.96084857,-1.0782351,0.12970099,-2.099174,-1.3857666,-0.9758943,0.16052501,-1.8999149,3.2026947,-0.11200895,0.24470077,1.115049,-0.07455942,-0.32322666,0.94293773,2.4076009,-2.9564986,-0.9044595,0.8796423,0.25437224,0.28035498,1.7407368,1.4737244,0.25947702,-0.8447491,1.3455743,0.36913437,-0.80759454,-0.7956052,-0.9808536,0.12785284,-0.15257366,1.1569582,-0.082110114,-0.17893478,-1.4276683,-0.4695879,-0.7254144,1.5962185,-0.30383387,-0.08551169,-2.2576256,1.7148616,0.0818533,-1.2093577,-0.66416496,0.4884635,1.9194349,0.4367077,-1.4674853,-1.0421895,1.6505687,-1.5944308,-0.5478992,0.29219052,-2.2629654,1.7155783,-0.023078129,0.91876584,-0.48095742,-0.1390215,-0.90023303,0.4756773,1.0488918,-1.371704,-0.87317485,0.4481948,0.23293655,-1.2879152,0.22168978,0.29883382,1.5130702,-1.1618773,0.015510632,-2.6292915,-0.73683065,1.0334437,-0.5119124,1.6812222,-2.327426,-0.7548854,0.8758034,-0.17931327,0.32682234,1.0486952,-1.0165102,0.5198584,0.5608429,0.7863564,1.1323229,-0.34763712,0.76957375,0.3214884,0.5878139,-0.22401021,0.7937395,0.20385389,0.29298043,0.3821369,-0.618971,1.5086769,-0.6544301,-0.245155,-0.090081416,-1.2118222,-0.06781816,1.3080115,-0.7499935,1.5771778,2.0731866,-1.5619711,0.41716194,-0.13391969,1.3031504,0.9118377,-0.6968174,-1.442758,2.1761863,0.6623308,-0.5672394,0.8985486,0.5497001,0.16082741,0.41587198,-0.7294379,0.4575023,-0.1184188,-1.4607904,-0.30182937,-1.0700656,-0.2875396,0.48864016,-1.9903247,0.15048636,-0.6021712,-0.5278562,-0.50091356,0.010874779,1.3766022,-2.2884488,0.8135141,0.0608946,1.407706,1.9638376,0.67685425,0.0040248116,-0.28190273,-2.3477256,1.1717091,0.0123010855,0.13018905,1.1676414,-0.40823704,-0.35848922,0.8406782,1.0905212,0.9651554,-0.037921514,-0.7643118,1.7328521,-1.1607344,-0.23076268,0.85949713,-1.4013602,1.2573982,0.9960212,0.10334604,-0.037819747,1.2415148,-1.108333,-0.093882956,2.5075643,-0.22593683,-0.67098683,0.4656181,-0.84117854,-1.0889661,1.473739,-1.0148832,-1.258147,-1.4101099,-1.1778196,1.6017945,0.6490711,-1.2560744,-1.0430243,-0.7191144,-0.3029212,0.4572307,-0.017691584,0.67464066,0.90395105,0.31350157,1.5149094,-0.12999102,-0.09101479,0.55771214,0.642467,-0.0877467,-0.50019383,0.18214074,0.27562147,-1.3561743,0.51045465,0.24364468,-1.1810936,-0.8406303,-0.54476094,0.28701153,0.15420458,-0.16390367,1.5345484,-0.9704673,-0.41563982,0.5161825,-0.06685682,0.62212765,0.36380628,-1.2744422,-0.32186946,-0.105013065,-0.7296063,-0.010833115,-0.3143336,-2.1830819,-0.5424797,-0.22735849,0.06668066,1.569396,1.1444672,0.11343159,-0.12211228,1.5963985,-1.1718293,-0.12494183,0.42507908,0.9276737,1.945909,-0.19679782,-0.6574757,-1.7494158,-1.1936615,0.4877871,-0.3129512,-0.52201265,0.29422638,-1.4184606,-2.197246,0.9466845,-1.2509553,0.55308753,-0.86524415,0.11602252,-0.66519433,-0.1516057,1.1808707,0.37538534,-0.42554718,-0.006736693,-0.39738426,-0.78420067,-0.308628,0.1200207,1.1757718,0.23219363,0.6116862,-0.3878963,1.2547714,0.38812986,-0.44675758,0.9140388,0.12653816,-0.435118,0.087652974,0.36983886,-0.5174788,-1.1771061,0.42905903,0.6317486,-0.26537105,-0.11187662,-0.6205059,-0.5521577,0.0965664,-0.35487783,1.0039939,0.0033673064,0.37576526,-0.1405829,-0.34036353,0.5997435,-1.1855885,0.95117056,0.82897705,0.40744922,-1.4552655,-1.9850378,-0.87292516,-0.99425995,-0.7439285,-0.52138937,-0.38069826,0.2399265,0.93764776,-0.29042804,-0.22117002,-0.56268686,-1.991916,0.93432707,0.22778837,2.1455495,-0.13776332,0.9694945,1.9232668,-0.2390932,-0.67565036,1.503943,-1.1990784,-1.1827679,1.5299038,1.482301,0.35339993,-1.0753665,1.4165242,-0.2517656,-0.9385157,-2.0682755,-0.26313716,1.2660047,-0.46255416,-0.6597574,0.7620657,0.10506849,-1.6516904,0.6580073,0.7841251,-1.4418792,0.9786944,-0.40682855,1.3015833,-0.8362961,-0.12493706,-0.19692901,0.08894722,0.5410985,0.26161903,-0.015472788,-0.8146837,-0.20120442,-0.3570187,-0.6583759,-0.07309994,-0.2257747,-0.9248976,1.4360397,-0.16183248,-0.47126558,0.11856966,-0.9553805,0.57938373,1.8500999,-0.4953949,-0.82035327,-1.0581673,-1.3726034,-0.48554158,-0.43163848,-0.45673132,0.23679319,1.0502754,-0.71821743,1.0434185,0.14490691,0.5543068,-1.6482452,-1.008085,0.014508429,-0.81582147,0.8994318,0.3343808,2.126919,0.12938757,0.80294603,-0.67937255,1.035396,2.771037,2.5041544,-1.0047432,0.99355495,1.2257806,-0.53006303,-0.64750046,1.0855299,-2.004413,0.41225052,0.07396651,-0.84019655,-0.97259134,0.4740362,-0.46146458,-0.06956166,-0.15369335,1.2063811,-0.1367193,0.33203572,-0.11367798,0.6122872,-0.7431013,-0.099553935,-0.95780784,-0.89673406,-0.49444497,-0.8816938,-0.6152928,0.02918577,1.2168509,0.51532185,-1.3825284,0.24609673,1.1416436,-1.3669407,0.94869184,1.2929797,1.10474,-1.192366,0.2665086,0.7855274,1.6466367,-1.7466596,0.505768,-0.7987297,-0.55209184,-0.57222605,-0.022828275,-0.310991,0.5078726,1.6181304,-0.3210348,1.5582713,-1.2358346,1.3338903,-0.5343057,0.31151703,-0.15583013,-1.5355328,1.0928423,-0.61017776,2.5231178,-0.9195234,-0.29291117,0.6480675,0.44767365,-1.4970666,0.99700516,-0.055608924,0.25816104,0.34272423,-0.86946064,2.4266338,-0.5478354,0.064390555,-0.59606904,1.2457331,1.7443304,1.628302,0.16420893,0.58754194
-0.8438382,-0.278883,1.7738973,-0.56682795,-0.2875059,-0.60742456,-0.6653242,-0.46605846,0.22997019,0.64081407,-1.0675824,-1.100039,0.44411975,1.1751322,0.04842554,0.08186217,-0.5530456,-0.84863114,-1.2760986,1.1034079,-0.96403515,-1.3432908,-0.62568986,0.5652799,-0.2801654,0.015143465,1.1403531,1.0352006,-1.014368,1.6220872,0.3169145,-0.768952,1.3849924,-0.39277044,0.9824404,-0.14846568,-1.4955975,2.0926013,0.4964621,-0.35018453,0.35771006,0.33386427,0.696696,-0.6538638,0.46941784,1.8427958,-0.2938022,0.16343287,-0.49917585,0.41110107,0.6590269,2.4207938,0.5087463,1.3146592,0.7657487,0.5342575,-0.33389553,1.2268845,-1.8852406,0.21366818,0.64498097,1.5165968,0.7500493,-0.15992029,-0.33788624,0.10065968,-0.4582047,0.6434866,-0.12463964,0.09376916,0.07891837,-0.9436555,-2.171161,1.3092029,0.13940096,-0.12028386,0.24450554,0.279558,0.50700235,0.749957,-0.3076465,1.4898174,-0.4728447,-1.5731614,0.2198686,0.3136929,0.42527655,-0.06638144,-0.06931332,-1.9467064,-0.7673684,-0.38110995,-0.01866737,2.36514,0.29054606,-0.39537108,1.0710127,-0.3233529,0.6517232,-0.4171802,0.08054744,-0.013800271,-0.32620683,1.6022391,-0.701789,0.68173224,-0.5129704,-0.9464124,-1.1914542,1.4323108,1.4370359,-0.48077002,-0.25252578,-0.12120167,-0.03961081,0.33488545,-2.3473997,0.106524445,-0.24319,-0.837454,-1.0651442,-0.0236614,-1.5109528,-0.5224568,1.1409013,1.1013572,-0.54339415,-0.26361772,0.12842868,-1.0651809,0.95576346,1.0128595,-0.8217345,-0.11023238,1.0847719,-1.4551891,-0.64465153,-1.9550436,-1.3975042,0.49952587,-0.5846561,-0.023679666,-0.35895756,1.5308968,-0.7574093,1.0718558,-2.0140412,-0.28009543,-0.13042562,0.36607796,0.57773644,-0.42809528,0.149643,-1.1807678,0.7566525,0.8478926,-0.75419927,0.33701402,0.5392989,0.5678304,-0.25328085,-1.6169043,0.092177965,-0.07602473,-1.5345229,-0.201592,0.3756441,0.47985756,1.3196591,1.0275471,1.1552399,0.29798585,2.5523324,-1.8815925,1.1506139,0.2689646,-0.37039188,-0.50866,0.24422166,-0.14024325,-0.32351133,-0.6963632,0.8438277,-0.6649152,-0.6565617,-0.04256709,-2.44597,1.2567004,-0.907584,0.9731398,-0.33611384,-0.35276276,-0.3665956,0.1678525,0.14227124,-0.17717871,-0.19350052,0.244506,-0.14578679,0.026686015,-1.5408175,2.8793416,-0.88717264,0.44324893,0.442985,0.63098884,0.5448137,-0.7442076,1.2818354,1.4420466,-0.7428127,-0.12422444,-1.5777531,-1.5318466,-0.7658131,-1.419755,-0.7212318,0.8419041,-0.9398633,0.26664597,0.8295831,-0.17794009,-0.7719739,0.55707496,0.28384042,-0.2618655,-0.6492786,-2.0136204,-0.53435576,1.470983,0.6262879,0.7386171,0.18427505,1.5052177,-0.6244351,0.21466452,-0.8544289,0.27149937,-0.8883378,1.4553006,-0.38881624,-1.1554384,0.8225888,-1.4527715,0.33438393,1.0336326,-0.85371906,1.4227566,-0.3656062,0.07121111,0.25584128,-0.19789286,-0.080516845,-1.3252962,0.80166596,1.5389066,0.7034439,0.7537383,-0.757824,0.26630583,-0.8865176,-0.20450051,0.28747717,1.1207858,-0.021192938,-0.40075082,0.5318885,0.928523,0.23403628,-0.4931087,-1.1376917,1.7298813,0.8673826,1.1000171,1.0833478,0.27291003,0.7582801,-0.9285072,-0.66264665,0.35055217,0.24980038,2.4850187,-0.48033738,0.7703826,1.775587,0.08508021,-0.54361033,-0.14874053,-1.1020278,-0.03518222,0.75288296,0.92629963,-1.0866116,-1.8035799,1.0705794,1.4251775,0.7523712,-0.045906357,0.14393823,-0.696931,-0.3741489,-0.64743274,1.1323928,0.74918544,-0.09299767,0.29011798,0.6847452,-0.14411783,-1.0777224,-0.10543777,0.75804186,0.70323014,-1.4945288,-0.26269636,-0.41840404,1.0742161,-1.5634749,0.25544766,1.8104758,-0.6785988,1.0635151,0.18348171,1.4007833,-1.1769923,0.86057895,-0.34107777,-0.57072383,-1.0909497,0.1460422,-1.1529293,1.6444682,-0.20745726,-0.84605294,-1.6573902,-1.4896963,0.0760122,-0.42269674,-0.59860104,0.54294133,0.29823384,-1.7638546,-0.23854126,-0.5776371,0.10959189,0.89613396,0.9461791,0.0054876395,-0.8943891,-0.6135663,0.039256744,-1.056102,-0.69418854,1.006305,1.1160282,-0.49584708,1.0273677,-1.3173746,-1.9842443,-0.658166,-1.0876002,-0.8207035,1.378083,-1.5203401,1.2719911,0.27100092,1.2807249,1.7157079,0.24211237,-0.88232684,-1.623448,0.452895,0.31751442,-1.250545,-1.6507213,1.1808966,0.5511985,-1.7854886,0.7498496,0.7442767,2.1126592,-1.7864698,1.0652094,0.5958085,-0.3398049,-0.3036491,0.24855022,1.9754523,-0.12612315,-0.13153808,-0.81134975,0.5039775,-0.50225735,-1.3566712,-1.6811489,-1.1952844,-0.2406934,-0.7341049,0.96915025,-0.71436477,2.8050265,1.7424809,1.4147528,-0.056180734,0.22046229,0.63755214,-1.7411554,-0.854593,0.19190384,-0.5834233,-0.9879421,1.6380682,-0.4324136,-1.124703,0.22472264,-0.84673893,1.218193,0.8779644,0.6885846,-0.09998201,-0.37662545,1.1062278,0.096773304,-0.36139205,-0.9390608,0.8928239,0.06578047,0.8776382,2.5663693,-0.89177775,-0.6854513,1.064161,-0.6586735,-0.22348095,1.6504148,-0.116525486,2.494542,0.041531246,-0.5440389,1.145773,-1.3570384,-1.0500273,0.92710453,1.920613,-1.813188,0.94645345,-0.7992177,-0.90804577,-0.6104157,0.8156024,0.16435415,-0.704292,-1.2984895,-0.48661426,-1.1495994,-0.5400938,-1.3294619,0.9935249,-0.11711697,0.10687213,-0.33074927,0.16217434,0.14871286,2.6637297,-1.128294,1.173363,0.047998093,0.09061482,-0.046001997,0.110562764,0.8517633,-0.112355,-0.5174794,0.57084906,-0.45922694,1.7398733,-0.21654631,0.37955233,-0.115648225,-1.9647328,-0.4766742,1.3377746,0.9539864,1.0181756,2.0962296,-0.08787207,2.023429,-0.68904203,0.37030163,0.8163366,-1.5690514,-2.1572216,-1.9814975,-1.2169089,-0.16325955,0.28960901,1.2548709,0.7383432,-0.41860375,0.76597595,-0.56772876,-0.22570369,-0.52107865,0.115860604,0.9541695,-0.32197985,0.19059533,-3.0056927,-0.5342115,0.22294123,-0.026675845,-0.5686998,-0.41909397
-0.11539289,-0.6357724,-0.30351064,0.31955773,0.32242376,0.62989074,0.34555146,-0.30118653,-0.88621557,1.3112663,0.29536322,-3.084812,0.82381165,0.26891372,-0.54121983,-0.52818024,0.79112387,-1.9409322,1.0733416,-0.46624163,-1.5121516,0.60721505,1.2793936,-0.33697698,-0.023290982,-2.4952276,0.7177633,0.1458633,0.96427596,-1.323541,0.6872452,-0.6344869,-0.41827622,-1.1614397,-0.6494443,-0.80583715,1.7868161,0.5689759,-0.9825367,0.0711436,0.62753236,0.8584742,-0.62805873,0.66539574,-0.45881215,1.2288465,1.472683,0.008719071,-1.4972646,-0.09944349,0.7353563,0.1452837,-1.1995778,-0.113164544,1.9950489,1.4735377,-0.49771956,-2.404261,0.5325313,-0.24967389,0.48706093,0.19991605,0.40778676,-0.9051902,-0.6070909,0.1279547,-0.47638127,-1.4099334,-0.17557053,0.61066693,-1.1463871,0.022072807,0.9287355,0.5972756,-0.33417845,0.056359377,0.74313414,2.0525475,0.41851154,-0.5276613,0.7124832,3.3032963,-0.507009,0.7643736,0.061297815,0.44718596,-1.1076311,-0.35516527,-0.45144415,0.7268567,-0.90863514,-1.0901698,0.7992449,-1.8586175,1.9460971,-1.1679845,-1.004173,0.07283982,1.0014389,-2.2332292,-1.915978,0.6867478,-0.79493284,-0.25831366,0.45973834,-1.0592738,0.5453016,-0.7877208,-0.10388196,-0.7570388,-0.16639666,0.5167782,-0.09802582,0.15953971,0.20217083,0.74464875,1.3426566,-0.81181544,0.12989692,0.9975596,-2.1295435,0.014555237,-0.6236279,-0.42080158,-0.7934543,-0.3100983,0.76350737,-0.41176233,-0.23776315,1.9686131,-0.2297875,1.8319502,-1.0836064,0.7412212,0.462376,0.98391944,0.2426937,0.8123394,-1.1819109,-2.2327442,0.1127515,0.4229247,-2.4426696,-0.56961775,-0.95497227,1.4348603,0.36942995,0.065073326,-1.0232407,-1.1435355,-0.0044817235,1.2276628,-0.44122806,0.13261108,-1.1391071,0.5004874,1.0273015,-0.37903267,-0.9415758,-0.1334254,-0.46190926,-0.28266376,0.7719853,-1.4532297,0.66866875,-1.4160129,0.23212005,1.0843315,0.31233177,1.3980902,-0.76415074,0.44865218,-0.30406398,-0.50765616,0.33084807,-0.08515255,-0.9119081,-0.015862694,-0.22042301,-0.12494579,0.28626883,0.9347145,-3.2130482,-1.487317,-0.31113684,-0.1772585,-0.82486725,1.9461075,-0.2165847,1.4943445,0.41229022,1.1461375,-0.47205153,-0.3401267,1.375497,-0.72725254,2.0322669,0.8935463,-0.57702786,-0.81758285,0.41951334,-0.25169998,-0.7147867,1.230372,0.6738194,-0.3305042,0.8049658,0.48759753,1.502847,1.0465257,0.5900955,0.3808853,-1.6082603,-1.7534386,-0.4067705,-0.10821549,0.48603594,-1.3399062,-0.1394116,-0.0709628,1.6887555,1.0657674,-0.16568834,-2.766142,0.37290314,1.5417795,-0.15027104,-0.06397197,-0.5268862,-2.5811787,-0.8553368,-0.41410646,1.6517286,-0.4581854,0.13900648,1.894257,0.13037221,0.6257752,0.54320234,-0.49861747,0.118778914,-0.037613366,-0.3362012,-1.9349058,1.9490904,-0.24597406,-0.38166267,-0.72560054,-0.8958422,-0.057758603,-1.2859321,-0.121722646,0.7884651,2.5006468,-0.32758802,-1.1910456,2.9555237,0.6863083,-1.2778988,1.0142082,-1.5629193,-0.60459816,1.1394866,-1.3895084,0.16567725,0.32093892,-0.17570439,-1.485064,0.21085222,0.55430645,0.36800307,-0.042835966,-0.71859854,2.3402946,-0.057360966,0.69753975,1.6431572,-2.2567313,0.784693,-0.35773492,-1.1799539,-1.2357838,-0.610408,-0.34312704,-0.51735246,0.47359654,-1.1934084,-1.0919123,0.8628195,0.46429583,-0.12713751,-0.1946801,-0.83466995,0.35459605,-0.7304927,0.37079316,0.5233645,1.1940895,-1.2944684,0.47014612,0.27783743,-0.660299,0.49118927,0.896289,0.0980434,-0.6475508,-1.1112267,-0.32929415,-1.0957857,-0.6912827,0.45038986,0.10756138,0.48187467,-0.82600963,0.6398181,-1.0622872,-1.0995585,-0.4050129,-0.010304788,-0.42183363,2.5638616,0.2376819,0.85962796,0.6008812,-1.313301,0.2088868,-0.40012008,1.3262838,0.3429979,-0.98091984,-0.3040196,-2.5707915,-0.47165594,0.6563666,0.23938046,-0.032237545,-1.4149595,-1.2599708,2.119163,1.8259575,-0.7640153,1.3319721,2.3820002,-0.35179937,-1.3714776,1.2283306,1.0818709,-0.96256876,-0.53230816,0.12512018,-1.3881577,-0.35010657,0.1077478,-1.2712077,-0.027167816,-1.3674542,1.382002,1.1650727,-0.13050693,0.19756319,-0.14390446,0.20257626,-0.9830413,-0.22740373,1.0913216,0.22386009,0.081282616,-0.33984366,0.6172522,0.88567275,0.88396716,0.6299839,-0.4285743,-0.5203966,0.8142166,0.43841752,0.23430942,0.4224916,0.98929596,-0.83658975,-0.23769243,0.677716,0.90792334,0.19760619,0.9222714,0.15771241,1.3079617,0.8167106,0.16464072,0.8874264,0.32986867,0.4189867,-0.047663312,1.9925761,-0.4092333,1.7522203,0.43684444,-0.834616,0.18582344,0.6785054,0.7375988,-0.82691145,-1.3774177,0.64634985,0.8725942,1.1844436,-0.22759463,-1.1513277,-1.6378092,-0.56959707,1.4932406,-0.737576,-0.4510559,-0.1306918,-1.6568264,-0.36814627,-1.6007091,1.2684902,1.4438623,1.2745513,0.68233377,-1.1013174,0.2087861,-0.44032407,-0.9748546,1.5749447,-0.04986231,0.56013644,-0.18363328,0.18963617,0.45128655,0.23385103,-0.97534716,-0.48681468,1.1012349,-1.9009563,1.4130567,-1.2616974,-0.71751744,1.3403283,-2.8691826,0.19869807,0.38874507,-0.4187417,-0.4556137,-1.9315277,-1.9936699,-1.9947461,-0.6742363,-1.2843626,0.44484434,-1.9748358,1.1462647,-0.32885566,-1.03501,-0.9445587,-0.96814,1.42882,0.5874585,0.462401,-0.040520985,1.516629,2.2762804,-0.2706266,-0.06551225,1.1135979,-0.25101355,-0.05536792,-1.0009159,-0.20385952,-0.99098164,1.0730035,0.87654525,0.2793018,0.056775726,-0.14663844,0.26642233,-1.1953843,0.40306878,-0.8807986,-2.398661,-1.0365716,-0.730002,2.3780267,-1.8526179,-2.4361305,-1.2853655,0.060685866,-2.0991192,-1.1257323,0.9500686,-0.580104,0.43802863,-0.35041046,-0.90606755,1.2468338,-1.1282309,-0.52589184,1.626716,1.5633259,-0.5147649,1.1512456,-0.6610149,0.2501155,0.9573349,-0.020061404,0.08489961,0.7431389,-0.33708498,1.0373572,-1.131723,0.28157437
0.10163906,2.0385058,0.7801823,0.25388113,1.7901775,0.39079612,-0.7405388,-0.4248051,-0.34216514,1.8273331,-0.27931947,-1.594161,-0.32421088,-0.6738699,-0.24666083,-0.4559145,1.0192379,-0.5086729,-0.7331213,3.1962223,0.50521696,0.61834276,-0.4820898,0.3995869,0.03078281,-1.6942443,-0.147337,-0.59208435,-0.70684266,1.7344992,2.4232593,0.39149916,0.83567804,0.81380814,-0.6644169,1.1156946,-0.42057523,0.24959654,-0.80942357,0.034651197,0.058602955,0.36566135,1.3008394,-1.5940588,-1.0722282,0.37285247,-0.7626955,0.68445534,1.3145621,1.4554682,-0.87067133,-1.6489958,1.0866127,-0.20165804,0.2781216,0.8339667,1.5737107,1.1084353,-0.7284681,-0.07753925,2.115945,-0.4951283,1.357914,0.35599384,-0.6046466,-0.6732518,0.8405638,1.1165513,0.67302907,-0.39229256,0.0986815,0.25889164,0.20726769,0.25930202,1.6478457,0.23947921,-0.10580221,0.66126055,-0.110963054,1.1829785,0.81221294,1.9410963,-0.38691193,-0.5413672,-0.6385743,0.5138022,-0.5084911,0.53040314,-1.2521226,0.23241787,1.6746544,0.48124996,0.93894506,0.7563096,-0.39941657,0.33977875,-0.68625367,-0.34881818,-0.8194247,1.1638064,-0.7307257,-0.09529332,-0.31395942,1.3027761,-1.1406269,0.341112,-1.9803332,-0.17108601,0.45836404,-0.09452268,1.426025,-1.372437,-0.4262797,-1.3551168,0.88214326,-1.1154478,0.6064699,0.25408557,0.6881722,-0.6064906,0.13380733,-0.10115411,0.72557884,-1.0295403,0.64776844,-0.73313135,-0.102202736,-0.9951877,0.68403214,2.287863,0.15000725,-0.028411653,0.3303225,-0.42803153,0.2724509,-0.6261058,-1.3037261,0.30964074,0.031664755,0.7740804,0.78137755,0.36676112,1.1348279,0.930183,-0.608844,0.68642443,-0.6453033,-1.7689834,0.6049454,0.97485775,1.020703,-1.0108297,0.58309925,-0.33312505,-0.46699247,-0.4597584,-1.379856,1.9928442,-0.9657893,-0.6617008,-0.002671047,-0.30360097,0.8383965,0.3036461,-0.50334847,-1.3958578,0.15936203,-1.4221888,1.074711,-1.3036106,-0.59010863,1.6752329,0.5541845,-1.4772526,-0.879381,-0.44963208,1.5674769,0.74053377,0.7208378,2.1978877,0.4592341,-0.008914053,1.2723033,1.1265405,-0.35444868,-0.8305741,0.44325766,-0.007760817,1.0454592,1.1787586,0.20416684,0.93910843,0.6997752,-0.41535676,-0.23843612,0.65592766,0.55735755,1.2002555,2.3707392,0.37366313,-0.5419289,-0.880399,0.24433272,-1.2868624,0.2511211,1.1498145,0.27726945,0.94035816,1.8970828,-0.6369161,0.71873564,0.08531582,0.34839827,-1.1355971,1.0617294,-0.29776496,0.17413367,0.58054996,-0.79332495,-0.335226,0.020255148,-2.3925965,-0.19686313,0.111044146,0.4837715,-0.18894765,-1.2270986,-0.8606343,-1.0433306,-0.2912155,-1.3972329,0.60338074,-0.9576771,0.2639529,-0.15358728,-0.70928186,1.3113387,0.77402735,-0.33962837,-0.7194049,0.92435807,0.6879246,0.23565292,-0.6373112,0.65211993,-1.7819939,1.2824541,0.41785437,0.22859593,-0.22021563,0.21831918,-0.4843168,0.24705105,-0.25620592,0.37370253,0.586651,0.021037562,-0.51076937,1.5991399,-0.10766889,0.40918598,-1.4777555,-0.23806979,2.2725887,-0.57617635,-0.3904543,0.73529494,-0.25310877,0.0026463876,0.2653234,1.0620192,-1.694118,-0.59310097,-0.67712873,1.0160353,0.7934692,0.0999612,0.59283924,0.3561682,0.38413537,0.8897934,-0.6263415,-0.3649932,-0.31627235,-0.3202145,-0.35614422,-0.8277338,-1.4446673,-0.26322353,-0.82039243,0.19896436,0.35956204,0.24159357,0.8163551,0.39918664,-1.3632305,0.18657234,1.5459088,-1.7321354,0.5934272,0.14843833,-1.5710405,0.8133119,-0.084895074,0.12424373,-1.0081798,-1.0081618,0.9432374,1.4915987,-1.4970199,0.8349521,1.9392664,0.40052688,1.1109327,1.4562439,0.48796397,-1.9274476,-0.16832556,-0.34014845,0.52253026,-1.4356431,-1.637533,-0.25102586,1.0829868,-1.4132283,-0.13377112,-0.44779027,1.2870986,1.2729106,-0.350333,-0.17278215,0.53326875,-0.9775276,0.1449123,-0.53102756,1.0591068,0.78905857,-0.043052703,2.1926796,1.913722,-1.0413042,-1.0518098,0.47010812,0.19497843,-1.4138918,-0.78986526,0.6766286,0.102428496,0.97263753,-1.7426803,-0.43784687,-1.3347584,0.31916726,1.363764,-0.11313057,-2.6627567,-0.7938932,-1.6614717,1.2444832,-0.20922458,1.1224242,-0.3975923,-0.92308074,1.3541226,-0.9034424,-0.28780764,1.5703778,0.09735834,-0.5572073,-0.618082,0.73374665,-0.056368295,1.5165894,-2.1677222,-0.6722863,-1.5231524,0.8339157,-1.5959387,0.009871072,1.7285523,-1.5646336,0.41756123,0.9033175,0.6204418,0.5043639,-0.47224745,0.09296173,-0.20149288,-1.3603656,-1.3694521,0.2686377,-0.9235418,0.550452,0.14137362,-2.2336507,-2.1006432,1.5860249,-1.1254051,1.4190955,0.78499997,-1.0089936,0.5097876,0.9169352,-0.95858145,-0.9482779,0.50377935,0.91718507,-0.91565305,1.096738,0.11518462,-0.27641082,-0.8753085,0.106549725,-0.33978042,-0.97401464,0.56151253,0.4909929,-0.08467384,-0.5469527,1.0329415,-1.060333,0.40260673,1.6730106,-1.1375756,0.124480486,0.20929031,-0.5946524,-1.4237711,-0.2752639,-0.17831163,2.3469262,-0.1600918,1.8750759,-0.8616504,1.7395769,0.69096553,-2.5752857,0.3949642,1.216057,0.28753754,1.5444976,-1.3127847,1.4438922,-0.38641277,0.6401805,1.6820886,-2.6062262,0.84881055,-1.6235874,0.33915293,-0.47400165,-0.3331324,3.5765607,-0.15532024,-0.24379118,-0.19132783,1.194993,-0.46212643,0.49619687,-0.8266984,-0.7873274,-0.42672113,2.5329514,-0.122869655,-0.62525874,0.35906857,-0.6086589,2.4701982,-0.90137655,0.5758234,-0.8658419,-1.2836603,-1.3476683,1.1001331,-0.47061834,-0.90652835,0.61429363,1.0814368,0.19721296,0.27980757,-1.9565887,-0.9251539,0.014970684,-0.07043294,-1.1512452,-1.1444032,-0.083377555,-1.338401,0.17930293,0.8312613,-1.3741016,3.375099,-0.34162477,-0.46652344,-0.16954137,-0.27015728,0.44838935,1.7593896,0.9925442,0.9053272,-0.91813475,0.102030076,2.7860725,0.3372136,0.29618075,0.04189815,0.1562655,-0.42158443,-0.5450061,-0.23897634,-0.2621496,-1.7024615
-0.62917936,-0.7132641,-0.3595515,-0.34149677,-0.36491603,-1.3485096,1.2846538,1.5506936,-1.4866074,0.5629318,-1.1863381,0.1700082,1.5977724,-0.38986394,0.507781,0.41716915,-1.1718516,-1.0359559,0.71958977,-0.04910425,0.28701732,-2.529104,-0.7819926,-0.17334442,0.42195752,-0.9109996,0.72687304,-0.8917933,0.882562,0.6477144,0.26190674,-1.9327258,-1.8402138,3.0677052,-0.6158172,-0.72553414,0.76102966,1.5084817,0.13343595,0.37549886,-0.35826758,0.28687373,-1.6553857,-1.1027231,0.9414056,-0.7475685,2.3881547,1.3278942,1.099128,-1.353937,0.5680907,1.133709,-0.605298,0.7902315,-0.90259784,0.55922854,0.81063855,0.024800392,-0.19816093,1.7353508,1.3612384,-1.6973041,2.1679666,-0.056161202,2.0555952,0.9221018,-0.44565296,-0.5695063,-0.5789461,1.1773854,0.50886214,0.6450492,-0.81344235,0.15695833,-1.7556766,1.7136483,-0.13633035,0.009428795,-0.06089832,1.9448435,-1.1356694,-0.10945515,-0.27335012,0.21734838,0.06833229,1.1441764,0.1357502,0.7040439,-0.094718106,-0.02967899,0.9775312,0.73397034,0.7903621,0.6605095,0.001616502,0.585238,-1.1822711,0.8832962,1.055205,1.7051642,0.25121203,0.40981385,0.677786,0.97706026,1.07618,-1.4729308,-0.30937192,-1.4175506,1.4358814,-0.815217,-0.45771798,0.15079114,1.0899829,-0.099574864,0.3898641,-0.4404364,0.27836058,-1.6189519,0.4480437,0.9523053,-0.3750966,-0.42946425,1.2781831,-0.635498,2.0015798,0.9126195,1.2324005,0.87013054,0.5384119,-0.5928945,0.16391222,0.80503994,-0.7543284,0.5535547,-0.6923195,-2.0760372,0.3225721,-0.69536793,1.2379858,0.39267263,-0.69443923,1.2955734,-1.3385288,-2.6488047,-1.0296918,0.15169843,0.3479825,0.2497079,0.65538806,0.8951601,-0.76083183,1.3357705,0.36614916,-0.7412375,-0.83378005,-0.17270206,0.74991846,-0.5665815,-0.90758395,0.25641885,-0.72673064,-1.7062069,0.84662724,-1.7080829,2.1483402,1.1146373,1.070939,-1.209896,-0.4136051,-1.0158596,-0.37198558,1.9294611,0.7457836,0.44907516,0.30954668,-0.13122255,1.3791705,1.5244228,0.8744602,1.7224357,-2.126372,-0.38729402,1.580334,0.23546453,-1.0259223,0.18668294,-0.28846684,-2.4191003,-1.9694688,-0.96258247,-1.1875439,0.2506653,0.73067665,-0.88392806,0.6452434,0.15682745,0.15595283,-0.46514407,-0.5364292,0.63190603,0.022677662,-1.2353971,0.9359101,-0.7220052,0.6901802,-1.0670882,-0.8029972,-0.42385492,0.8214048,-0.14772433,1.5563165,0.50426805,0.80488133,-0.43357974,1.2991847,-0.23314592,0.61120844,0.6303342,0.14811693,0.8638925,0.83818746,0.9932602,0.08749182,-0.44633326,-0.83456796,-0.8810864,-0.48142856,1.0106484,-0.4863628,1.6366401,0.6789215,1.0272262,1.7890234,-0.4069038,-1.7196879,-0.8992716,-1.0117005,-0.5755235,-0.2859582,1.1411436,0.059419695,-0.32992902,-0.74140215,-0.83625174,-1.4802327,-1.0114149,-1.0723215,-0.87540597,-0.3028583,-1.170378,0.5121996,-0.1392737,-0.84039354,-0.90348077,-0.64715075,-0.635674,1.2725384,1.3310325,-2.125302,1.3013884,0.15208669,0.58955854,-2.0967267,1.1339438,-1.5839033,0.78655934,-0.5035442,-1.4561498,0.17014678,-0.9658223,-0.96541935,-1.173642,-0.086728014,0.9379991,0.013642176,0.106045075,-0.3031043,-0.25093803,-0.48143342,0.2932141,-1.7407836,0.32039842,-0.45842,0.63257897,-0.57543844,2.8467467,-0.63985753,-0.2132962,-0.70307785,-0.58308506,0.98836476,0.7356221,0.121747866,0.30144787,0.84611315,-1.2231038,-0.89648545,1.5834705,-0.8805579,-0.8041102,-2.1836793,-0.56117666,0.68934083,-0.31541047,0.050865088,0.102895394,0.19150107,-0.13057347,1.229048,-1.3292583,-0.13148187,0.56200284,0.5571963,-2.7990344,1.1187283,0.48597464,2.114333,-1.7449709,-1.1543363,1.124926,-0.8290309,0.24931477,-0.162442,0.62221867,-0.5983377,-0.7064473,2.4373634,-0.43068376,-1.6167473,0.64985216,1.0872718,-0.81399465,0.7502618,0.12896627,-0.06453234,0.16291247,-1.7299818,-0.9178014,-1.6524557,1.2040176,-1.2919803,-1.1640196,0.2871596,2.6343646,0.14669317,-0.28123328,0.5866928,-1.0971954,-0.555643,-0.39984995,-1.0632695,0.23095028,0.29405555,1.2374487,1.0250419,0.47047302,-0.51897347,-0.69839376,-1.044071,-0.85104036,-0.65134966,-0.69931936,-0.18083401,-0.13081957,1.025544,0.23777518,0.01656024,0.6813349,-0.44737428,-1.1210886,-0.3454826,-0.4349117,0.17348376,1.4289724,0.6247704,-1.4484049,-0.9474398,0.8642148,-0.07109157,0.35962063,0.5212822,-0.22261856,1.2563953,-1.4082296,-1.295579,0.60023266,-0.28449813,1.0382206,0.5061438,1.2895666,-2.0682251,0.79087424,-0.941249,-0.51844525,-0.4211714,0.22411671,-0.4268496,0.9835169,0.6856674,0.87825507,-0.97502,0.6469215,-0.8848039,-0.39688492,0.8743747,0.73133725,1.0757133,-1.3936818,-1.9704466,-0.048001885,3.6630564,1.9361908,1.6666523,-1.7227032,0.38986242,0.4181475,1.4571557,-0.121503524,0.64245045,-0.32713756,-0.07416527,-0.96642643,-0.640528,0.51010543,0.7429247,0.044310834,0.99551463,-0.9648403,-1.9607587,0.35089317,-1.6089256,-0.22942208,-0.38141707,0.6782462,0.26167995,-0.8822908,-0.737198,-1.2496216,-0.46035504,-0.5082281,0.89946634,-0.7573195,-0.6439701,0.64287114,1.5043625,-0.45198026,0.4921869,0.38388675,-0.8065985,-0.51497304,1.1640546,1.6319162,-0.56643355,0.6619963,1.4061654,-0.40180635,0.74181557,0.7975981,0.13492784,-0.9642508,-1.291369,0.33000112,0.90053105,-0.6538127,0.6444997,-0.6277693,-0.08949314,-0.6116816,-0.18248057,-0.24077523,-1.6407447,-1.9408011,-0.22040007,0.32688892,0.015521482,-1.5270395,-0.011714408,-1.9337231,1.5783013,-0.4117032,0.13686897,0.64250493,-0.5275007,-1.2408932,0.3082046,1.1407174,1.6645184,-1.6677734,0.7476403,-1.3520609,0.65769595,-1.211911,-1.5250354,-0.48786637,-0.855754,1.3996178,-0.010183516,-0.97566307,-1.2867433,2.0186017,-2.203412,-0.42080083,-1.4488658,-1.0474365,-1.0947906,0.8312076,1.6409016,2.3105533,0.47734186,2.881329,-0.3929949,-0.19810535
