4.930793307721614838e-03,1.043839845806360245e-02,-1.862643100321292877e-02,-2.254958078265190125e-02,3.413284942507743835e-02,2.700609527528285980e-02,-2.053726837038993835e-02,-8.805864490568637848e-03,3.667543828487396240e-02,-9.784526191651821136e-03,-3.442592918872833252e-02,-3.901133313775062561e-02,-3.664572164416313171e-02,1.911848597228527069e-02,-1.714033260941505432e-02,2.473041974008083344e-02,1.581623964011669159e-02,-4.319852590560913086e-02,-2.243974804878234863e-02,-1.150180492550134659e-02,-1.373025681823492050e-02,-4.102076590061187744e-02,-2.905071713030338287e-02,4.490770399570465088e-02,7.538504432886838913e-03,2.529242821037769318e-02,1.117388159036636353e-02,4.041341319680213928e-02,-2.600929141044616699e-02,4.310799017548561096e-02,-1.339445449411869049e-02,-1.331301219761371613e-02,-3.329603374004364014e-02,7.213146425783634186e-03,2.777036651968955994e-02,3.597322851419448853e-02,4.211782291531562805e-02,-1.017573662102222443e-02,-4.362308420240879059e-03,-1.416372042149305344e-02,-2.101971767842769623e-02,-4.254651442170143127e-02,3.150594234466552734e-02,-3.960817679762840271e-02,3.930097445845603943e-02,-3.260294673964381218e-03,3.005586937069892883e-02,1.927035488188266754e-02,-9.988038800656795502e-04,3.673348948359489441e-02,1.785615272819995880e-02,-6.074676755815744400e-03,-7.232163101434707642e-03,3.440864756703376770e-02,-3.133463114500045776e-02,-1.569443941116333008e-02,1.854072697460651398e-02,-3.130320087075233459e-02,3.127519041299819946e-02,-1.745840162038803101e-02,-1.227336563169956207e-02,-3.258664906024932861e-02,-5.448565818369388580e-03,-9.036682546138763428e-03,2.485509216785430908e-02,-4.887289181351661682e-02,5.090807564556598663e-03,-3.707211092114448547e-02,3.764778748154640198e-02,-2.953757904469966888e-02,-3.740226477384567261e-02,-1.686094142496585846e-02,-1.792876236140727997e-02,-2.534515690058469772e-03,2.870304323732852936e-02,4.290859773755073547e-02,-4.500360228121280670e-03,-2.635467424988746643e-02,9.197458624839782715e-03,-2.950320765376091003e-02,-3.262840583920478821e-02,-2.584324963390827179e-02,9.173006750643253326e-03,2.073309570550918579e-02,1.970761083066463470e-02,-3.712942823767662048e-02,2.996397577226161957e-02,-4.684565938077867031e-04,5.899477284401655197e-03,1.076232641935348511e-02,-5.021077580749988556e-03,1.605961844325065613e-02,-1.011265814304351807e-02,-3.338055685162544250e-02,2.308912388980388641e-02,2.019949071109294891e-02,2.419967576861381531e-02,-3.572462871670722961e-02,-3.095895517617464066e-03,3.861897811293601990e-02,-2.762413397431373596e-02,-2.360002882778644562e-02,3.305946663022041321e-02,2.885384857654571533e-02,4.051581397652626038e-02,4.890884156338870525e-04,-1.073044491931796074e-03,3.767819376662373543e-03,-2.144736610352993011e-02,3.044971823692321777e-02,-3.600104944780468941e-03,-3.461567685008049011e-02,1.267176121473312378e-02,-1.934191025793552399e-02,-4.020814783871173859e-03,3.158827126026153564e-02,4.611299186944961548e-02,-1.153723150491714478e-02,1.089392509311437607e-02,-3.318143635988235474e-02,2.989267371594905853e-02,-3.297137841582298279e-02,-1.970211975276470184e-02,-1.432813238352537155e-02,-5.023393034934997559e-02,-3.702702745795249939e-02,-3.712674230337142944e-02,-3.153171855956315994e-03,-3.407800197601318359e-02,-1.523035205900669098e-02,-2.307046763598918915e-02,3.481137752532958984e-02,1.303275302052497864e-02,-4.995868541300296783e-03,-3.727679327130317688e-02,-2.269019186496734619e-02,-2.175545319914817810e-02,3.484753519296646118e-02,2.041069976985454559e-02,-3.352076280862092972e-03,-6.272845435887575150e-03,-1.656801323406398296e-03,1.093013305217027664e-02,-9.366784244775772095e-03,-1.327782031148672104e-02,2.822397649288177490e-02,-2.678018435835838318e-02,7.639896357432007790e-04,1.332273520529270172e-02,2.260085195302963257e-02,-8.558304049074649811e-03,-4.289406165480613708e-02,-4.512266442179679871e-02,2.200738340616226196e-02,1.128651667386293411e-02,-1.194878108799457550e-02,-6.473467219620943069e-03,1.668568886816501617e-02,-1.119044888764619827e-02,1.500059291720390320e-02,2.879194915294647217e-02,-2.691010944545269012e-02,3.413954749703407288e-02,1.421135198324918747e-02,-6.579298060387372971e-04,-1.739016547799110413e-02,-3.007269278168678284e-02,7.624177262187004089e-03,3.543985262513160706e-02,-1.586245372891426086e-02,3.951779752969741821e-02,-3.527545556426048279e-02,-4.324332624673843384e-02,-1.896965876221656799e-02,-3.749951021745800972e-03,1.979095861315727234e-02,-5.495753139257431030e-02,2.978081069886684418e-02,4.589486867189407349e-03,-2.477869857102632523e-03,2.393599599599838257e-02,-7.651720661669969559e-03,-2.047363296151161194e-02,-3.785662120208144188e-03,3.191694617271423340e-03,-1.259455922991037369e-02,4.080064594745635986e-02,3.130791941657662392e-03,3.769559040665626526e-02,-4.935142118483781815e-03,-2.137852832674980164e-02,-4.212837293744087219e-02,-2.054416760802268982e-02,-1.392120774835348129e-02,-3.064750880002975464e-02,2.159299328923225403e-02,-1.552215428091585636e-03,8.632618002593517303e-03,-5.572579428553581238e-02,-2.539197914302349091e-02,-3.670110180974006653e-02,-5.274089425802230835e-02,-3.461693227291107178e-02,4.345887154340744019e-02,2.821535244584083557e-02,3.969260305166244507e-02,-2.202523872256278992e-02,-3.000835888087749481e-02,-4.299004748463630676e-02,-2.819443866610527039e-02,-3.125765174627304077e-02,-3.634807094931602478e-02,1.962279714643955231e-02,2.880008146166801453e-02,-7.896700873970985413e-03,-2.055027149617671967e-02,4.137361049652099609e-02,-1.099058892577886581e-02,2.991929091513156891e-02,1.850759238004684448e-02,2.578952535986900330e-02,-1.634793169796466827e-02,2.743989974260330200e-02,-3.124748356640338898e-02,-3.073067963123321533e-02,-4.143659770488739014e-02,3.983386233448982239e-02,-2.953909710049629211e-02,2.710605971515178680e-02,-6.130449473857879639e-03,-3.835545107722282410e-02,1.648651808500289917e-02,-4.415927396621555090e-04,1.087685301899909973e-02,-1.283199293538928032e-03,8.441826328635215759e-03,-4.488313943147659302e-02,-1.889754459261894226e-02,2.634257264435291290e-02,4.091193433851003647e-03,-3.925802186131477356e-02,-1.605067215859889984e-02,1.961135538294911385e-03,6.022031418979167938e-03,-3.810334578156471252e-02,-1.740799099206924438e-02,-2.307871822267770767e-03,-3.453413769602775574e-02,-1.414308510720729828e-02,-1.193547621369361877e-02,-1.851021498441696167e-02,-3.206413239240646362e-02,3.719242289662361145e-03,-1.320491661317646503e-03,-2.503703348338603973e-03,-1.723978482186794281e-02,2.797015383839607239e-02,-1.670947670936584473e-02,3.433215990662574768e-02,1.774942036718130112e-03,1.584509760141372681e-02,3.377005085349082947e-02,-2.893075905740261078e-02,1.378830708563327789e-02,-1.061693020164966583e-02,3.598946612328290939e-03,3.441675007343292236e-02,-2.668011561036109924e-02,9.945319034159183502e-03,-9.646022692322731018e-03,-1.760295405983924866e-02,3.763694688677787781e-02,-5.221478641033172607e-03,-6.320222280919551849e-03,3.225162625312805176e-02,-1.698244735598564148e-02,6.617425009608268738e-03,-9.876266121864318848e-03,-4.210585728287696838e-02,5.672214552760124207e-03,-1.416913606226444244e-02,-1.372059434652328491e-02,-2.713918872177600861e-02,1.652258331887423992e-03,-2.525284141302108765e-02,4.676211159676313400e-03,2.626247331500053406e-02,2.681755833327770233e-02,-1.989375241100788116e-02,1.219469215720891953e-02,-2.844718657433986664e-02,3.411528468132019043e-02,-2.864665724337100983e-02,-3.305143490433692932e-02,-6.182631012052297592e-03,-1.405012421309947968e-02,-4.757140576839447021e-02,2.490569837391376495e-02,3.243136405944824219e-02,3.444758057594299316e-02,2.603623643517494202e-02,1.482362393289804459e-02,-3.587413206696510315e-02,1.276202034205198288e-02,-2.962291613221168518e-02,1.151926000602543354e-03,1.395768765360116959e-02,-4.260630533099174500e-02,2.120171487331390381e-02,-3.165783826261758804e-03,7.387122139334678650e-03,-3.236882388591766357e-02,4.082859307527542114e-02,-1.928172074258327484e-02,1.320920791476964951e-02,3.511669486761093140e-02,1.416044775396585464e-02,-2.017819695174694061e-02,-3.017353639006614685e-02,-2.488444186747074127e-02,-8.934247307479381561e-03,2.810592390596866608e-02,-4.409094341099262238e-03,1.286050863564014435e-02,2.999973855912685394e-02,-5.013266578316688538e-03,-2.102807164192199707e-02,4.029615595936775208e-02,6.414025556296110153e-03,-2.684198133647441864e-02,5.046514794230461121e-03,-2.394827641546726227e-02,-1.191278733313083649e-02,-2.823698893189430237e-02,7.052810396999120712e-03,-1.398058235645294189e-02,1.768464967608451843e-02,3.973801061511039734e-02,2.993401512503623962e-02,2.666762843728065491e-02,-1.146724727004766464e-02,-5.914883688092231750e-03,-1.030376739799976349e-02,-1.198983401991426945e-03,-1.371952332556247711e-02,-1.763554103672504425e-02,-4.518442973494529724e-02,-1.946814171969890594e-02,2.672315202653408051e-02,-3.480155020952224731e-02,-1.147498493082821369e-03,3.217490017414093018e-02,-4.186768084764480591e-02,-3.517828416079282761e-03,-4.680496454238891602e-02,3.074663318693637848e-02,-3.141987696290016174e-02,-5.284153856337070465e-03,-1.491263229399919510e-02,2.691796980798244476e-03,2.146694064140319824e-02,4.609191324561834335e-03,-5.625552032142877579e-03,3.121157363057136536e-02,3.788045048713684082e-02,-2.263351902365684509e-02,-2.732221782207489014e-02,1.597503945231437683e-02,-1.168863009661436081e-02,1.044477615505456924e-02,1.222378760576248169e-02,9.804594330489635468e-03,1.509356778115034103e-03,9.857162833213806152e-03,6.897411309182643890e-03,-2.470180951058864594e-02,2.461781539022922516e-02,2.981372177600860596e-03,-8.390002883970737457e-03,-3.373318165540695190e-02,-4.893337190151214600e-02,-8.527951315045356750e-03,-4.855053871870040894e-02,-4.211870580911636353e-02,-1.933636888861656189e-02,-1.442729122936725616e-02,-5.204711481928825378e-02,-5.660289898514747620e-03,1.211579423397779465e-02,-3.181256726384162903e-02,2.110866457223892212e-02,-2.168443799018859863e-02,5.977812688797712326e-03,3.104393184185028076e-02,-2.677916921675205231e-02,-1.851906813681125641e-02,3.837424889206886292e-02,-3.571324341464787722e-04,1.456165593117475510e-02,-2.357348427176475525e-02,4.461431503295898438e-02,2.164333686232566833e-02,9.881346486508846283e-03,2.654780261218547821e-02,1.135709322988986969e-02,3.372665494680404663e-02,2.190320752561092377e-02,-1.439302228391170502e-02,4.449818748980760574e-03,2.551550231873989105e-02,4.243184346705675125e-03,-3.035946004092693329e-02,-2.959588170051574707e-02,-4.132272675633430481e-03,3.500434756278991699e-02,-1.045528217218816280e-03,-4.119965434074401855e-02,-2.614857070147991180e-02,3.682686761021614075e-02,1.298523042351007462e-02,2.398426830768585205e-02,-5.211553722620010376e-02,4.200972616672515869e-02,1.099887490272521973e-02,1.314090937376022339e-02,3.608728945255279541e-02,-2.210250310599803925e-02,5.315827671438455582e-03,-7.589933462440967560e-03,1.285952632315456867e-03,-3.043142519891262054e-02,-8.327041752636432648e-03,-8.300834335386753082e-03,-3.843227773904800415e-02,1.761781983077526093e-02,-8.393963798880577087e-03,3.903147205710411072e-02,1.429390069097280502e-02,-2.833460271358489990e-02,5.441746674478054047e-03,-1.076629478484392166e-02,-9.041540324687957764e-03,9.349833242595195770e-03,3.256589174270629883e-02,-1.173212844878435135e-02,-6.363708991557359695e-03,-9.057511575520038605e-03,3.517691418528556824e-02,-1.518961042165756226e-02,1.634964905679225922e-02,-3.325249254703521729e-02,3.261473402380943298e-02,-2.199431695044040680e-02,-9.692951105535030365e-03,-3.844035044312477112e-02,-1.556446682661771774e-02,-3.648589178919792175e-02,3.858533222228288651e-03,-4.872062057256698608e-02,-4.820915311574935913e-02,-3.035604953765869141e-02,2.760851010680198669e-02,2.319756522774696350e-02,1.905774511396884918e-02,2.994247153401374817e-02,2.706277184188365936e-02,-3.571476787328720093e-02,-1.672802865505218506e-02,-2.816870249807834625e-02,1.696586608886718750e-02,4.475242644548416138e-02,3.779885917901992798e-02,4.193391278386116028e-02,1.070717698894441128e-03,-3.553375974297523499e-02,3.604759275913238525e-02,2.588800899684429169e-02,5.841767415404319763e-03,-4.117928445339202881e-02,1.889951340854167938e-02,3.716203791555017233e-04,-4.207817255519330502e-04,-2.812068350613117218e-02,1.936212368309497833e-02,-8.541192859411239624e-03,2.619573101401329041e-02,-1.616803556680679321e-02,2.225560322403907776e-02,2.321397699415683746e-02,6.662064697593450546e-03,-2.192748151719570160e-02,-3.144562989473342896e-02,1.599328592419624329e-02,-3.259599907323718071e-03,-4.241827502846717834e-02,-1.343442685902118683e-02,-1.783445710316300392e-03,-2.119855396449565887e-02,-3.342767432332038879e-02,-4.383404552936553955e-02,-3.049712814390659332e-02,-2.123689465224742889e-02,-1.944234594702720642e-02,3.521507233381271362e-02,6.135656032711267471e-03,-2.828190289437770844e-02,-7.389628794044256210e-03,-3.679600358009338379e-02,2.480474114418029785e-02,-4.027120023965835571e-02,-3.536286205053329468e-02,-2.427914552390575409e-02,9.961966425180435181e-03,-3.601059317588806152e-02,-4.407332837581634521e-02,-2.870862372219562531e-02,-2.254223451018333435e-02,4.017666447907686234e-03,-2.252875827252864838e-02,-4.521705210208892822e-02,5.493013188242912292e-03,-1.482305862009525299e-02,1.761598140001296997e-02,-3.004601411521434784e-02,3.784856060519814491e-03,3.933563828468322754e-02,1.518553681671619415e-02,-8.996846154332160950e-03,-2.625683881342411041e-02,-2.750113233923912048e-02,-9.258331730961799622e-03,-4.812818020582199097e-02,1.316575333476066589e-02,-4.874501901213079691e-04,-1.397080719470977783e-02,-1.989029534161090851e-02,1.674625091254711151e-02,-4.889593925327062607e-03,3.789984807372093201e-02,-1.704123802483081818e-02,-1.236375048756599426e-02,-3.761326521635055542e-02,3.584307804703712463e-02,3.471484035253524780e-02,2.918482013046741486e-02,-1.305292826145887375e-02,-1.866591535508632660e-02,7.880503311753273010e-03,-3.919577598571777344e-02,-4.259856045246124268e-02,-4.218273237347602844e-02,1.592722907662391663e-02,-1.714843697845935822e-02,-1.952490583062171936e-02,-4.512540251016616821e-02,6.210931111127138138e-03,-4.512472078204154968e-02,-1.675388216972351074e-02,-1.419635489583015442e-03,5.701750982552766800e-03,-3.049647808074951172e-02,3.928054124116897583e-02,-2.691346686333417892e-03,1.533168740570545197e-02,-1.847023889422416687e-02,1.280084345489740372e-02,-3.350630775094032288e-02,6.306858267635107040e-03,-4.798831418156623840e-03,-2.166527090594172478e-03,3.581136988941580057e-04,1.903250627219676971e-02,-9.485442191362380981e-03,4.003922268748283386e-02,-5.594574660062789917e-02,-2.203311771154403687e-02,-9.377542883157730103e-03,4.331164434552192688e-02,-7.097932044416666031e-03,2.897117100656032562e-02,4.270136356353759766e-02,-4.640000313520431519e-02,2.459347248077392578e-02,3.782856836915016174e-02,-9.850325994193553925e-03,-2.914227917790412903e-02,3.578866273164749146e-02,-5.338548682630062103e-03,6.347554735839366913e-03,-7.656231522560119629e-03,-2.990440092980861664e-02,2.058246359229087830e-02,2.522886730730533600e-02,-3.737329691648483276e-02,-1.210757414810359478e-03,1.863757893443107605e-02,-3.502406924962997437e-02,2.988437004387378693e-02,-3.757388144731521606e-02,4.656893387436866760e-02,-4.367543384432792664e-03,-3.304476290941238403e-02,-1.028579473495483398e-02,-3.567639738321304321e-02,-4.036567360162734985e-02,-1.269485987722873688e-02,-1.902966946363449097e-02,-2.728824317455291748e-02,2.145058847963809967e-02,-1.943005807697772980e-02,-2.547873556613922119e-02,-2.671147137880325317e-02,2.074194513261318207e-02,-2.568067423999309540e-02,2.444815263152122498e-02,-1.277220551855862141e-03,2.825405076146125793e-02,1.835499145090579987e-02,2.034465037286281586e-02,-1.533127669245004654e-02,3.253276646137237549e-02,-1.632994040846824646e-02,4.190880060195922852e-02,1.117360219359397888e-02,3.344494476914405823e-02,2.840221114456653595e-02,-2.725826052483171225e-04,-1.520681567490100861e-02,4.230275377631187439e-02,-1.415815856307744980e-02,-5.104300379753112793e-02,-3.650762513279914856e-02,-2.777178585529327393e-02,-3.686712309718132019e-02,5.535369273275136948e-04,1.136803347617387772e-02,2.168691344559192657e-02,-3.024236485362052917e-02,3.089817799627780914e-02,2.993580326437950134e-02,-3.605272248387336731e-02,3.725871443748474121e-02,-3.653781861066818237e-02,-4.178658872842788696e-02,4.095669370144605637e-03,1.840394549071788788e-02,-1.757121272385120392e-02,1.477483380585908890e-02,5.402131006121635437e-03,2.118625864386558533e-02,2.017511753365397453e-03,3.067313134670257568e-02,-9.114796295762062073e-03,1.929803751409053802e-02,-2.844889089465141296e-02,-2.450540289282798767e-02,-3.070056065917015076e-02,-4.285548627376556396e-02,-1.447554677724838257e-02,2.042557485401630402e-02,2.914177998900413513e-02,1.733604818582534790e-03,2.563428506255149841e-02,-8.969726040959358215e-03,4.250771598890423775e-04,3.131691366434097290e-02,3.645905852317810059e-02,2.980698272585868835e-02,9.029818698763847351e-03,3.940505906939506531e-02,5.802400410175323486e-03,-6.761298980563879013e-03,-3.584135696291923523e-02,-4.378331825137138367e-02,3.028380684554576874e-02,-3.079492039978504181e-02,-1.286640414036810398e-03,-2.846822887659072876e-02,-1.744553446769714355e-02,-4.487226158380508423e-02,3.902984410524368286e-02,3.683630749583244324e-02,2.339666336774826050e-02,-4.635297879576683044e-02,2.665486186742782593e-02,-9.163395501673221588e-03,7.267971523106098175e-03,2.867914922535419464e-02,3.547808527946472168e-02,2.783780172467231750e-02,-2.559260651469230652e-02,-2.107142470777034760e-02,1.069093309342861176e-02,-4.326995089650154114e-02,1.606963761150836945e-02,1.258057355880737305e-02,2.646952122449874878e-02,1.309610344469547272e-02,1.516955811530351639e-02,3.263983130455017090e-02,3.313226252794265747e-02,-4.003986716270446777e-02,-2.873775362968444824e-02,-3.029649518430233002e-02,-3.469477221369743347e-02,-1.729187928140163422e-02,-3.979370743036270142e-02,7.131493650376796722e-03,-2.342601120471954346e-02,1.703427731990814209e-02,-2.172829397022724152e-02,-2.601818554103374481e-02,-3.173216432332992554e-02,-2.194046415388584137e-02,2.032425627112388611e-02,4.203505814075469971e-02,3.885505255311727524e-03,-2.935142628848552704e-02,-5.783112719655036926e-03,1.602493971586227417e-02,-3.742450848221778870e-02,-3.048759186640381813e-03,-8.436716743744909763e-04,-8.028392679989337921e-03,-1.092383917421102524e-02,-3.231621906161308289e-02,3.368081897497177124e-02,2.630081027746200562e-02,-2.317828498780727386e-02,-5.024077743291854858e-02,-2.899885177612304688e-02,-2.430052496492862701e-02,-1.875041984021663666e-02,-2.762207994237542152e-03,1.622596569359302521e-02,-1.547212712466716766e-02,-2.815967192873358727e-03,6.608572322875261307e-03,-4.051566123962402344e-02,2.463014610111713409e-02,-8.493385277688503265e-03,-3.358305990695953369e-02,3.276561200618743896e-02,5.171014927327632904e-03,-4.531678277999162674e-03,2.728668041527271271e-02,-9.474864229559898376e-03,-5.549705401062965393e-02,1.130544953048229218e-02,-3.340118378400802612e-02,-1.071267947554588318e-02,-4.508494958281517029e-02,-1.547651086002588272e-02,-1.953399553894996643e-02,-1.294883806258440018e-02,-4.113436490297317505e-02,-2.174048498272895813e-02,-4.351899772882461548e-02,2.795721776783466339e-02,2.492067031562328339e-02,3.049867041409015656e-02,-3.836649656295776367e-02,4.579172655940055847e-02,-9.306616848334670067e-04,1.534927263855934143e-02,2.300591394305229187e-02,-2.815338782966136932e-02,-2.381715551018714905e-02,1.943619735538959503e-02,-2.441790886223316193e-02,2.086360193789005280e-02,1.652943529188632965e-02,-1.103310100734233856e-02,3.222412243485450745e-02,-2.789611183106899261e-02,1.074858475476503372e-02,-2.468146383762359619e-02,-3.683812171220779419e-02,-4.062701482325792313e-03,2.712677698582410812e-03,9.321496821939945221e-03,7.303761783987283707e-03,5.907805170863866806e-04,3.136460855603218079e-02,2.449549362063407898e-02,-2.609971910715103149e-03,-2.678285352885723114e-02,-4.718400537967681885e-02,-2.373517258092761040e-03,-3.656414896249771118e-02,-1.977159269154071808e-02,-7.882270030677318573e-03,-4.076012596487998962e-02,-2.639480226207524538e-04,-4.165760427713394165e-02,-5.100694298744201660e-02,-3.787203133106231689e-02,2.675362676382064819e-02,-4.247432202100753784e-02,-2.311117202043533325e-02,2.460032887756824493e-02,-3.013206273317337036e-02,-4.698456078767776489e-02,-2.451833523809909821e-02,-1.049339305609464645e-02,1.944471895694732666e-02,-3.667733818292617798e-02,-2.634137310087680817e-02,2.648153528571128845e-02,1.222975552082061768e-02,3.011646866798400879e-02,-4.351915791630744934e-02,-2.769134752452373505e-02,4.543148353695869446e-02,-2.138049714267253876e-02,-3.927878662943840027e-02,-1.948191085830330849e-03,2.622800879180431366e-02,-3.716957941651344299e-02,-1.680469699203968048e-02,3.096001222729682922e-03,-7.274885429069399834e-04,-7.204418070614337921e-03,-1.768717169761657715e-02,-2.235320769250392914e-02,-1.211353857070207596e-02,4.565214738249778748e-02,-9.403344010934233665e-04,1.257549133151769638e-02,3.098792582750320435e-02,-3.154163435101509094e-02,1.741426065564155579e-03,-3.128715604543685913e-02,2.658624760806560516e-02,-4.617050662636756897e-02,-1.420413609594106674e-02,2.666914649307727814e-02,5.079541821032762527e-03,-4.562047123908996582e-02,-1.392440777271986008e-02,1.607836596667766571e-02,-3.582689911127090454e-02,3.448440879583358765e-02,4.214094486087560654e-03,5.198262631893157959e-02,1.453179027885198593e-02,2.978861145675182343e-02,-5.654152482748031616e-03,-2.789923362433910370e-02,-2.993861958384513855e-02,2.988821826875209808e-02,-1.463154237717390060e-02,3.718232363462448120e-02,-2.957364171743392944e-02,-4.307766631245613098e-02,2.724143676459789276e-02,3.090633265674114227e-02,-1.903849653899669647e-02,1.402821578085422516e-02,1.213475596159696579e-02,-1.006436347961425781e-02,3.647331148386001587e-02,-2.549754269421100616e-02,3.819841146469116211e-02,1.002485863864421844e-02,2.808550745248794556e-02,-6.888603325933218002e-03,3.611748665571212769e-02,-3.949658479541540146e-03,1.665408723056316376e-02,8.930870331823825836e-03,2.073418535292148590e-02,-1.552819646894931793e-02,1.590569503605365753e-02,-3.180058300495147705e-02,2.161342091858386993e-02,-2.663317136466503143e-02,-2.982666902244091034e-02,-3.790330514311790466e-02,2.304913476109504700e-02,-1.937300525605678558e-02,-1.685052557149901986e-04,-4.367627948522567749e-02,2.442133426666259766e-02,-1.156174018979072571e-02,5.406361073255538940e-03,-8.065897854976356030e-04,1.051938068121671677e-02,2.230821736156940460e-02,-2.499187178909778595e-02,4.566452931612730026e-03,2.214869018644094467e-03,1.205385942012071609e-02,3.052544081583619118e-03,-3.186979517340660095e-02,-1.394333224743604660e-02,-2.567301690578460693e-02,2.953315712511539459e-02,3.885171934962272644e-02,3.421631408855319023e-03,1.353953406214714050e-02,-2.219951525330543518e-02,2.846209332346916199e-02,-2.772468142211437225e-02,1.808783039450645447e-03,-1.891298964619636536e-02,-3.774756938219070435e-02,2.740509435534477234e-02,1.142234541475772858e-02,1.529741846024990082e-02,-9.610848501324653625e-03,-1.573386229574680328e-02,1.004623435437679291e-02,2.457816526293754578e-02,8.455115370452404022e-03,3.277678415179252625e-02,-4.929068032652139664e-03,1.855447515845298767e-02,3.242394328117370605e-02,-3.473210334777832031e-02,4.584940616041421890e-03,-2.119368873536586761e-02,7.681524148210883141e-04,-3.350145416334271431e-03,-3.032758645713329315e-02,-2.477901801466941833e-02,3.623387962579727173e-02,-4.699640721082687378e-02,3.085024468600749969e-02,1.535875815898180008e-02,3.442321345210075378e-02,2.209499292075634003e-02,-3.701802715659141541e-02,-3.611504659056663513e-02,-1.680997549556195736e-03,-5.222131684422492981e-02,-3.157262504100799561e-02,-4.676308855414390564e-02,-5.258927866816520691e-02,2.628552913665771484e-02,8.153158123604953289e-04,1.078955270349979401e-02,-2.307143062353134155e-02,-3.977550938725471497e-02,-2.552673965692520142e-02,-1.873435452580451965e-02,7.968071731738746166e-04,-4.577584564685821533e-02,2.560249529778957367e-03,-3.435429930686950684e-02,-4.214126092847436666e-04,3.294740989804267883e-02,-6.844901479780673981e-03,2.587931975722312927e-02,2.323110215365886688e-02,1.948453485965728760e-02,-4.439818486571311951e-02,4.379158839583396912e-03,-2.075896970927715302e-02,5.533335730433464050e-03,-6.616773549467325211e-03,5.382595211267471313e-02,1.508412230759859085e-02,6.124831270426511765e-04,8.556200191378593445e-03,-1.448125205934047699e-02,2.833223342895507812e-02,2.278901264071464539e-02,-2.764178253710269928e-02,-2.794025838375091553e-02,2.375335805118083954e-02,-3.739394247531890869e-02,1.015770807862281799e-02,1.365000731311738491e-03,-3.486456722021102905e-02,-5.262685008347034454e-03,-1.806416176259517670e-02,8.078357204794883728e-03,1.325878594070672989e-02,-1.538703311234712601e-02,2.949556149542331696e-02,-1.051936484873294830e-02,2.818143554031848907e-02,-3.984609246253967285e-02,-1.616936177015304565e-02,6.955422461032867432e-03,8.411201648414134979e-03,-6.129637360572814941e-03,1.073436997830867767e-02,3.345668688416481018e-02,7.386771962046623230e-03,-1.461277343332767487e-02,1.959913596510887146e-02,1.700342446565628052e-02,3.415493294596672058e-02,-1.284068450331687927e-02,-3.688254626467823982e-03,5.864688660949468613e-03,-2.153084427118301392e-02,-9.490421041846275330e-03,-3.662581369280815125e-02,-4.058494046330451965e-02,-1.968947425484657288e-02,-1.115047466009855270e-02,-4.560979455709457397e-02,2.117079682648181915e-02,-4.143245145678520203e-02,2.762858569622039795e-02,-3.101920243352651596e-03,-9.944981895387172699e-03,7.430114783346652985e-04,-1.013124082237482071e-02,-1.746744662523269653e-02,5.970207042992115021e-03,-3.560738638043403625e-02,-1.438391488045454025e-02,-1.366584189236164093e-02,1.461790222674608231e-02,3.887746855616569519e-02,2.134461142122745514e-02,1.562764309346675873e-02,2.855459228157997131e-02,-1.768067851662635803e-02,-3.905514953657984734e-03
