6.114509887993335724e-03,1.013452070765197277e-03,-4.836185649037361145e-02,1.720261573791503906e-02,-5.797545425593852997e-03,-1.618030481040477753e-02,-1.705540344119071960e-02,-3.067910298705101013e-02,-1.844659633934497833e-02,1.643319986760616302e-02,-3.660205751657485962e-02,6.041030865162611008e-03,-5.603518337011337280e-03,5.650786682963371277e-03,2.120528556406497955e-02,-9.870908223092556000e-03,-2.543385513126850128e-02,-5.742904730141162872e-03,3.051386401057243347e-02,-1.013331301510334015e-02,-2.141644060611724854e-02,1.174467429518699646e-02,1.527244225144386292e-02,3.495862474665045738e-03,6.489298306405544281e-03,1.298551540821790695e-02,2.470583841204643250e-02,1.732987165451049805e-02,3.715688735246658325e-02,2.665915712714195251e-02,-2.175121754407882690e-02,-1.211221795529127121e-02,-8.717286400496959686e-03,-2.320498973131179810e-02,3.866954939439892769e-03,-3.436311334371566772e-02,2.938913926482200623e-02,1.552661228924989700e-02,-5.556006915867328644e-03,-3.267557546496391296e-02,1.438539847731590271e-02,-2.094102324917912483e-03,9.207256138324737549e-03,2.243954129517078400e-02,-8.922190405428409576e-03,-1.033076178282499313e-02,-3.130987519398331642e-03,1.553370058536529541e-02,8.405770175158977509e-03,2.206470817327499390e-02,3.131191246211528778e-03,-2.355670742690563202e-02,-1.318428386002779007e-02,1.911934651434421539e-02,1.356888934969902039e-02,4.218985140323638916e-02,-3.271243721246719360e-02,2.693768404424190521e-02,2.843340858817100525e-02,1.340678054839372635e-02,-1.077936589717864990e-02,2.230408973991870880e-02,-1.351088192313909531e-02,3.035309351980686188e-02,3.049215047212783247e-05,2.325980551540851593e-02,2.852742327377200127e-04,1.385175809264183044e-02,1.075672823935747147e-02,-1.872702315449714661e-02,1.376874279230833054e-02,-4.879434034228324890e-02,2.794591477140784264e-03,2.313559688627719879e-02,1.743390411138534546e-02,2.945079468190670013e-02,-9.467483498156070709e-03,1.993433199822902679e-02,3.392876312136650085e-02,2.606280148029327393e-03,3.666736558079719543e-02,-2.922265790402889252e-03,2.256494201719760895e-02,6.074807140976190567e-03,-2.127849729731678963e-03,3.104485012590885162e-02,1.259314175695180893e-02,-2.175638265907764435e-02,-2.392002061242237687e-04,-1.671633310616016388e-02,2.750861749518662691e-04,-2.365900203585624695e-02,1.652872562408447266e-02,1.300051342695951462e-02,-1.505506224930286407e-03,-9.026940912008285522e-03,-1.552968844771385193e-02,-1.985585689544677734e-02,-2.078830264508724213e-03,-3.260139375925064087e-02,2.650993503630161285e-02,-2.794903703033924103e-02,-1.944579184055328369e-02,2.473506517708301544e-02,-2.682676305994391441e-03,2.167278155684471130e-02,9.271293878555297852e-03,1.058117672801017761e-02,7.795676123350858688e-03,-3.842122154310345650e-03,-2.531255967915058136e-02,-4.522038623690605164e-03,2.256704121828079224e-02,4.220760893076658249e-03,8.710225112736225128e-03,-2.539814636111259460e-02,-1.644734293222427368e-02,-1.042065490037202835e-02,2.637007087469100952e-02,-1.207118574529886246e-02,2.420382387936115265e-02,-1.466750260442495346e-02,-6.007067859172821045e-03,1.047719083726406097e-02,3.212409093976020813e-03,5.693444982171058655e-03,1.383119076490402222e-02,-1.000880170613527298e-02,-3.992800414562225342e-02,-3.031129203736782074e-02,1.749461330473423004e-02,-2.868477255105972290e-02,8.615843951702117920e-03,1.420340407639741898e-02,4.742890596389770508e-03,-3.842306137084960938e-02,-8.317826315760612488e-03,-1.918081752955913544e-02,-1.124658994376659393e-02,2.148534730076789856e-02,1.663353480398654938e-02,-1.473274827003479004e-02,-5.855886731296777725e-03,-3.506613522768020630e-02,1.575836446136236191e-03,-2.065321989357471466e-02,-9.729123674333095551e-03,-2.787549048662185669e-02,2.358908299356698990e-03,-4.506222438067197800e-03,2.511337958276271820e-02,3.630108386278152466e-02,1.674621552228927612e-02,-1.828803867101669312e-02,-1.994420774281024933e-02,2.907653152942657471e-02,8.721961639821529388e-03,1.604879158549010754e-03,-5.435979459434747696e-03,-4.645021632313728333e-03,-3.023776039481163025e-02,-2.315658889710903168e-02,-2.911055833101272583e-02,1.013805065304040909e-02,8.472120389342308044e-03,-4.152836650609970093e-02,4.170389100909233093e-02,2.747428836300969124e-03,5.326047539710998535e-04,-3.190525621175765991e-02,-6.830723956227302551e-03,6.736066658049821854e-03,-4.798437468707561493e-03,1.565861888229846954e-02,1.253784517757594585e-03,-1.099861878901720047e-02,-1.141074392944574356e-02,-1.208660309202969074e-03,-1.137444283813238144e-02,9.517092257738113403e-03,1.292262878268957138e-02,2.753923833370208740e-02,3.052057931199669838e-03,-2.307544834911823273e-02,2.201719209551811218e-02,2.046620938926935196e-03,-5.899032112210988998e-03,1.310698688030242920e-03,-1.384701766073703766e-02,-3.104692138731479645e-02,3.983617294579744339e-03,-3.877770155668258667e-02,-3.175900503993034363e-02,1.616087183356285095e-02,-1.930333115160465240e-02,-6.366406567394733429e-03,-6.526014185510575771e-04,-2.611577324569225311e-02,-7.183897774666547775e-03,-1.699457131326198578e-02,6.078059785068035126e-03,-1.036437042057514191e-02,-3.102204762399196625e-02,-2.411121316254138947e-02,-8.754310198128223419e-03,-8.239121176302433014e-03,2.496010065078735352e-02,7.543726358562707901e-03,4.211651161313056946e-03,-4.008319228887557983e-03,-2.707986161112785339e-02,-2.037953957915306091e-02,1.026301831007003784e-02,-4.339664243161678314e-03,-2.141789346933364868e-02,-2.429571375250816345e-02,-2.028549090027809143e-02,3.123918920755386353e-02,-5.944344447925686836e-04,-9.299545548856258392e-03,2.227317355573177338e-02,9.923011064529418945e-03,2.251175232231616974e-02,-1.555003691464662552e-02,9.056318085640668869e-04,1.550563983619213104e-02,-1.071131322532892227e-02,2.438943088054656982e-02,-7.900948636233806610e-03,-4.137978330254554749e-02,5.123161245137453079e-03,1.459216233342885971e-02,-1.927774213254451752e-02,-4.044648259878158569e-02,6.082192063331604004e-03,2.684683538973331451e-02,2.758096344769001007e-02,3.005040343850851059e-04,-7.189131574705243111e-04,2.847887575626373291e-02,-8.946718648076057434e-03,7.373584900051355362e-03,-2.872363897040486336e-03,-2.376118116080760956e-02,-5.111656337976455688e-02,2.234863489866256714e-02,-3.062836080789566040e-02,8.818273432552814484e-03,-2.390946447849273682e-02,1.995608396828174591e-02,-4.722847137600183487e-03,-7.130084559321403503e-03,-2.571863308548927307e-02,8.214860223233699799e-03,-1.068544294685125351e-02,2.532503567636013031e-02,2.542888978496193886e-03,1.079619396477937698e-02,7.963182288222014904e-04,3.114091791212558746e-02,6.394206546247005463e-03,8.734442293643951416e-03,-5.290078464895486832e-03,1.658175326883792877e-02,-2.588109672069549561e-02,-9.671041741967201233e-03,2.555182576179504395e-02,-2.962875645607709885e-03,1.947049237787723541e-02,7.123025599867105484e-03,-6.388837937265634537e-03,-9.395077824592590332e-03,1.430383883416652679e-02,1.714884303510189056e-02,1.691097952425479889e-02,2.733702957630157471e-02,1.825848966836929321e-02,1.151903532445430756e-02,-2.486426010727882385e-02,-4.344057664275169373e-02,3.709668666124343872e-02,-9.139014407992362976e-03,-1.267501246184110641e-02,1.190350577235221863e-02,1.049043494276702404e-03,-3.420078754425048828e-02,-1.888154190964996815e-03,6.271264865063130856e-04,1.697878167033195496e-02,9.668821468949317932e-03,2.460579387843608856e-03,3.158539161086082458e-02,-1.471472997218370438e-02,-2.976373210549354553e-02,-1.226297114044427872e-02,2.348417229950428009e-02,-3.501718631014227867e-03,-3.012974746525287628e-02,-9.953912347555160522e-03,-2.292520180344581604e-02,-6.565925199538469315e-03,1.913365535438060760e-02,-1.777673885226249695e-02,1.681321999058127403e-03,-1.333089265972375870e-02,-3.383049261174164712e-05,-1.294077094644308090e-02,8.766710758209228516e-03,3.291362896561622620e-02,-1.489045098423957825e-02,-6.917198188602924347e-04,3.841357072815299034e-03,1.035385020077228546e-02,-1.181949861347675323e-03,-1.311438158154487610e-02,-1.893102936446666718e-02,6.100024562329053879e-03,-2.759600803256034851e-02,3.234096104279160500e-03,-5.619729869067668915e-03,-1.395290531218051910e-02,-1.544776279479265213e-02,2.016868069767951965e-02,2.561397850513458252e-03,2.797094732522964478e-02,-4.049483221024274826e-03,1.643146970309317112e-03,-6.296762730926275253e-03,-2.605783194303512573e-02,-1.530752237886190414e-02,3.658620640635490417e-02,2.233901061117649078e-02,-2.565409801900386810e-02,4.652412235736846924e-02,-1.510870456695556641e-02,-1.419439539313316345e-02,7.495797704905271530e-03,1.363938208669424057e-02,-3.400276973843574524e-02,5.091330036520957947e-03,-2.607338316738605499e-02,3.360943123698234558e-02,5.800515878945589066e-03,6.244425196200609207e-03,2.768989838659763336e-02,5.235407501459121704e-02,3.264037147164344788e-02,-8.644238114356994629e-03,-1.515187509357929230e-02,8.419827558100223541e-03,-1.579908654093742371e-02,-5.040736403316259384e-03,2.333834767341613770e-02,1.058526895940303802e-02,3.606576938182115555e-03,-2.506804838776588440e-02,1.967366971075534821e-02,3.771568834781646729e-02,2.277907729148864746e-02,-2.137698791921138763e-02,3.525689616799354553e-02,4.070233926177024841e-02,-1.548287086188793182e-02,5.568759050220251083e-03,-2.069722674787044525e-02,2.068754099309444427e-02,2.030906500294804573e-03,7.392003317363560200e-04,-1.792807504534721375e-02,-2.295887283980846405e-02,2.362154796719551086e-02,-2.677377127110958099e-02,-2.447624877095222473e-02,3.673621453344821930e-03,2.689191699028015137e-02,1.021266542375087738e-02,-2.262133359909057617e-02,-5.214795935899019241e-03,-5.257613025605678558e-03,1.107019372284412384e-02,2.053497172892093658e-02,2.811661921441555023e-02,2.343696914613246918e-02,-2.312153577804565430e-02,-4.045097902417182922e-02,1.366883609443902969e-02,-3.075477667152881622e-02,9.042874909937381744e-03,-2.006643638014793396e-02,-3.415677323937416077e-02,2.176359109580516815e-02,-2.541126310825347900e-02,-1.419443450868129730e-02,-3.097853064537048340e-02,2.500013262033462524e-02,3.022718429565429688e-02,-1.647946238517761230e-02,2.004979364573955536e-02,4.380624741315841675e-02,7.988905534148216248e-03,6.190565880388021469e-03,3.398255258798599243e-02,2.705435082316398621e-02,6.644362583756446838e-03,1.514479890465736389e-02,-1.744989491999149323e-02,3.344711288809776306e-02,1.962719112634658813e-02,-2.458094432950019836e-02,2.592363767325878143e-02,-2.208609692752361298e-02,1.837253384292125702e-02,5.471759941428899765e-03,2.438614331185817719e-02,7.422173861414194107e-03,1.004428835585713387e-03,5.192048847675323486e-02,3.059822367504239082e-03,1.761144027113914490e-02,7.989029400050640106e-03,-1.098609063774347305e-02,3.550116717815399170e-02,-1.889619603753089905e-02,6.734611466526985168e-03,2.195204049348831177e-02,4.797685425728559494e-03,-1.787992566823959351e-02,2.973776543512940407e-03,-6.030584685504436493e-03,2.447102405130863190e-02,2.696079015731811523e-02,-2.012362517416477203e-02,-3.257155418395996094e-02,1.524814590811729431e-02,-2.230983600020408630e-02,-2.160634472966194153e-02,-2.015150152146816254e-02,1.738728396594524384e-02,1.964753679931163788e-02,2.345540747046470642e-02,3.147600963711738586e-02,-9.091102518141269684e-03,-2.254490368068218231e-02,3.404050320386886597e-02,-2.563568763434886932e-02,2.178803272545337677e-02,3.445339947938919067e-02,6.135327741503715515e-03,3.193765878677368164e-02,-1.858433149755001068e-02,2.290504798293113708e-02,-1.433667168021202087e-02,-1.860784366726875305e-02,1.069359667599201202e-02,-2.123107388615608215e-02,-2.182521112263202667e-02,3.216876648366451263e-04,-2.597290091216564178e-02,-2.734705619513988495e-02,-1.099393423646688461e-02,8.242513053119182587e-03,-4.298818111419677734e-02,5.296224262565374374e-03,-2.363666892051696777e-02,-7.147541269659996033e-03,-2.340891398489475250e-02,1.605628058314323425e-02,2.897964976727962494e-02,-2.186261676251888275e-02,1.815999671816825867e-02,1.956696854904294014e-03,8.476543240249156952e-03,8.822549134492874146e-03,1.841337792575359344e-02,3.262582700699567795e-03,7.261851336807012558e-03,-2.610816434025764465e-02,-5.572773981839418411e-03,4.110063426196575165e-03,1.466563157737255096e-02,2.451307699084281921e-02,-3.139181435108184814e-02,6.729076616466045380e-03,3.815959766507148743e-02,2.912668278440833092e-03,-3.119567781686782837e-02,-1.780529133975505829e-02,-1.209326460957527161e-02,1.177443750202655792e-02,8.081634528934955597e-03,-4.788239952176809311e-03,-2.532492391765117645e-02,-1.648016087710857391e-02,-1.132703758776187897e-02,7.018097210675477982e-03,3.043925389647483826e-02,6.780738476663827896e-03,2.431613951921463013e-02,-1.070466544479131699e-02,9.369646199047565460e-03,2.244752459228038788e-02,1.729092374444007874e-02,1.631022058427333832e-02,-1.013656985014677048e-02,-1.753519102931022644e-02,-1.105065690353512764e-03,5.163201596587896347e-03,-2.843737974762916565e-02,3.253509849309921265e-02,1.064651738852262497e-02,2.745354361832141876e-02,-5.474619567394256592e-03
