1.649046898819506168e-03,2.105984650552272797e-02,1.483025867491960526e-02,-2.774634340312331915e-04,-7.524494081735610962e-03,2.634401805698871613e-02,1.059765927493572235e-02,-1.301793660968542099e-02,6.411701440811157227e-03,-2.186541445553302765e-02,-2.608805894851684570e-02,1.988798379898071289e-02,1.074822060763835907e-02,1.340886461548507214e-03,1.189260277897119522e-02,-2.845931984484195709e-02,-1.599688269197940826e-02,8.462337777018547058e-03,4.916704259812831879e-03,-7.332486566156148911e-03,2.690144069492816925e-02,-2.554047293961048126e-02,-1.361563149839639664e-02,-2.252665534615516663e-02,-1.725373230874538422e-02,-4.406917923915898427e-06,-2.000283263623714447e-02,4.221142735332250595e-04,1.916695199906826019e-02,4.697344265878200531e-03,3.384735668078064919e-03,-1.388052012771368027e-02,1.209547556936740875e-02,6.643131840974092484e-03,-2.816696651279926300e-02,2.715020626783370972e-02,8.983661420643329620e-03,6.414146162569522858e-03,-8.589768782258033752e-03,1.826140098273754120e-02,-1.257016509771347046e-02,-1.002421975135803223e-02,-1.218146178871393204e-02,-2.687333710491657257e-02,1.797787030227482319e-03,-2.655262872576713562e-02,-1.531772408634424210e-02,3.907179459929466248e-03,-2.837097086012363434e-02,7.187979295849800110e-03,3.092596121132373810e-02,-2.470878139138221741e-02,-1.200787723064422607e-02,-2.395019121468067169e-02,-1.139021478593349457e-02,-1.929825171828269958e-02,-2.843303140252828598e-03,-1.525311172008514404e-02,3.680353052914142609e-03,-2.684529684484004974e-02,1.338418759405612946e-02,1.964488252997398376e-02,1.488423347473144531e-02,-8.252200786955654621e-04,-2.313648350536823273e-02,3.079695627093315125e-03,-2.026734128594398499e-02,3.069566749036312103e-02,2.617351152002811432e-02,-2.564146183431148529e-02,-4.955088254064321518e-03,2.486589737236499786e-02,-1.053436566144227982e-02,2.179571799933910370e-02,-2.228913828730583191e-02,1.942149549722671509e-02,-2.807962708175182343e-02,-1.666083373129367828e-02,-1.614557765424251556e-02,1.433074381202459335e-02,-1.551815774291753769e-02,-6.794868968427181244e-03,6.490749772638082504e-03,2.987878024578094482e-02,-8.070872165262699127e-03,-4.997180309146642685e-03,-2.441287413239479065e-02,1.823909021914005280e-02,2.987605519592761993e-02,-1.025453326292335987e-03,-1.771168038249015808e-02,-5.436079576611518860e-03,3.111183457076549530e-02,-1.054668240249156952e-02,4.500120878219604492e-03,3.303852677345275879e-02,2.245669066905975342e-02,-2.273238264024257660e-03,-1.973101124167442322e-02,1.021292340010404587e-02,3.090020827949047089e-02,-1.177804358303546906e-02,8.393008029088377953e-04,2.910511754453182220e-02,2.642680890858173370e-02,1.468703616410493851e-02,-3.440030291676521301e-02,1.531099714338779449e-02,-7.870148867368698120e-03,1.389752607792615891e-02,1.664312556385993958e-02,3.912018612027168274e-02,-1.889953017234802246e-02,5.559056531637907028e-03,1.104055903851985931e-02,-1.967549696564674377e-02,-6.724719889461994171e-03,-1.690523698925971985e-02,-2.828352898359298706e-02,2.707090415060520172e-02,2.213214524090290070e-03,2.509789727628231049e-02,1.138704270124435425e-02,-2.773422747850418091e-02,8.953138254582881927e-03,-8.460227400064468384e-03,-3.711529448628425598e-02,-1.331773120909929276e-02,-4.433818161487579346e-03,-6.020248867571353912e-03,-4.131917376071214676e-03,2.496879547834396362e-02,6.624416448175907135e-03,2.582289278507232666e-02,1.798431761562824249e-02,2.164430730044841766e-02,-9.665683843195438385e-03,5.562554579228162766e-03,-9.527765214443206787e-03,-1.203782483935356140e-02,3.956816159188747406e-03,-2.486973069608211517e-02,1.056070439517498016e-02,2.621390298008918762e-02,-2.444647252559661865e-02,-2.005350776016712189e-02,-2.986284717917442322e-02,1.379038766026496887e-02,1.961854472756385803e-02,-6.951754447072744370e-03,2.344719320535659790e-02,1.437744032591581345e-02,-1.518892031162977219e-02,-1.444194559007883072e-02,-6.053484044969081879e-03,1.059216819703578949e-02,3.994322940707206726e-02,1.504846103489398956e-02,9.858585894107818604e-03,-2.329775877296924591e-02,-2.461004257202148438e-02,-2.865063585340976715e-02,-5.771873518824577332e-03,-1.235418394207954407e-02,-4.062487185001373291e-02,1.928470470011234283e-02,-2.374579757452011108e-02,-2.157117007300257683e-03,-6.679448764771223068e-03,-1.102965790778398514e-02,2.310772193595767021e-03,2.205817773938179016e-02,-2.977041527628898621e-03,-4.724537953734397888e-03,-6.173173314891755581e-04,-2.499905182048678398e-03,-2.546061389148235321e-02,9.990407153964042664e-03,-1.487449463456869125e-02,-1.845720596611499786e-02,-3.463839739561080933e-02,3.751992247998714447e-03,2.333425730466842651e-02,-2.294125035405158997e-02,-7.336359471082687378e-03,1.744954101741313934e-02,2.687774412333965302e-02,1.462291739881038666e-02,1.707726344466209412e-02,1.645203121006488800e-02,-1.625530980527400970e-02,-2.832700498402118683e-03,2.456487715244293213e-02,-9.938263334333896637e-03,1.154561713337898254e-02,-1.162549201399087906e-02,-2.760415896773338318e-02,9.785004891455173492e-03,1.586297713220119476e-02,8.016591891646385193e-03,-5.193615797907114029e-03,-6.224210374057292938e-03,1.399927772581577301e-03,1.469431631267070770e-02,2.558164484798908234e-02,-6.760349962860345840e-03,2.869393862783908844e-02,2.205555513501167297e-02,-8.248398080468177795e-04,1.895317807793617249e-02,-4.928559064865112305e-03,-2.131044678390026093e-02,-4.298786516301333904e-04,-1.913442974910140038e-03,1.457759551703929901e-02,-6.972927134484052658e-03,2.469799108803272247e-02,2.418619208037853241e-02,-4.108416847884654999e-03,-1.823011599481105804e-02,2.523269876837730408e-02,2.229088731110095978e-02,2.287456952035427094e-02,-8.875531144440174103e-03,-2.569476887583732605e-02,3.152175247669219971e-02,-4.931498318910598755e-02,-1.533005386590957642e-02,-1.404530776198953390e-04,2.479195594787597656e-02,-1.537863258272409439e-02,6.017795298248529434e-03,1.695192605257034302e-02,-3.597663715481758118e-02,2.780682593584060669e-02,-2.417655102908611298e-02,9.540905244648456573e-03,-7.321158889681100845e-03,-2.472951263189315796e-02,-3.441317752003669739e-02,-1.920885033905506134e-02,-2.632180973887443542e-02,-1.249780599027872086e-02,-2.084964700043201447e-02,1.493956893682479858e-02,1.923649013042449951e-02,-2.430572733283042908e-02,6.645095348358154297e-02,-3.418251499533653259e-02,-1.901897601783275604e-02,5.417788401246070862e-03,-5.191393196582794189e-03,-1.492522424086928368e-03,-2.792012644931674004e-03,-5.283566657453775406e-03,-2.159202843904495239e-02,3.247982636094093323e-02,8.928093127906322479e-03,2.591858245432376862e-02,-2.876760065555572510e-02,2.704743482172489166e-02,9.123660624027252197e-03,-1.843902654945850372e-02,5.361702758818864822e-03,-4.899492487311363220e-03,-3.354949131608009338e-02,6.577122956514358521e-02,-4.191700741648674011e-02,2.492157183587551117e-02,-9.208964183926582336e-03,-2.631857432425022125e-02,-1.228298433125019073e-02,5.409132689237594604e-02,-3.009821847081184387e-02,2.207722514867782593e-02,4.912125691771507263e-02,-2.222046256065368652e-02,2.246208675205707550e-02,-6.789459381252527237e-03,-4.029131308197975159e-02,4.899876657873392105e-03,1.034486200660467148e-02,3.663539653643965721e-03,4.617623053491115570e-03,-2.403091453015804291e-02,2.080495236441493034e-03,1.259193662554025650e-02,-6.555676009156741202e-06,7.403283379971981049e-03,2.755492366850376129e-02,1.225634291768074036e-02,1.452681142836809158e-02,2.039882540702819824e-02,-3.196145221590995789e-02,-1.271906495094299316e-02,6.026443094015121460e-02,-2.427147328853607178e-02,-2.759956009685993195e-02,1.950863748788833618e-02,-1.965708658099174500e-02,1.838654279708862305e-02,-1.448892336338758469e-02,8.824195712804794312e-03,1.649076305329799652e-02,1.662590727210044861e-02,3.973342943936586380e-03,-4.749204497784376144e-03,2.679935283958911896e-02,-1.256178319454193115e-02,-1.847535744309425354e-02,-4.873645026236772537e-03,-2.613976784050464630e-02,7.752615958452224731e-03,-2.641140110790729523e-02,2.450695447623729706e-02,-1.046308688819408417e-02,3.012608550488948822e-02,6.467298138886690140e-03,-8.533434942364692688e-03,1.729962229728698730e-02,-1.646929793059825897e-02,3.944026306271553040e-03,1.859945012256503105e-03,1.247556041926145554e-02,1.683788723312318325e-03,8.495779475197196007e-04,2.364102751016616821e-03,1.186324190348386765e-02,2.636995352804660797e-02,3.377143666148185730e-02,2.912382036447525024e-02,2.148231677711009979e-02,2.230739593505859375e-02,-1.894917525351047516e-02,-1.069498900324106216e-02,6.828699726611375809e-03,-2.560018375515937805e-02,9.743012487888336182e-03,-6.566866301000118256e-03,-3.013809025287628174e-02,-1.011094264686107635e-02,2.838381100445985794e-03,-2.014132216572761536e-03,-1.384862791746854782e-02,-3.079847898334264755e-03,-1.015887316316366196e-02,-2.771087223663926125e-03,-1.954369619488716125e-02,-3.109707729890942574e-03,-2.939677424728870392e-02,2.439877204596996307e-02,1.622963137924671173e-02,-4.357364494353532791e-03,1.789538003504276276e-02,4.188053309917449951e-03,-3.130893036723136902e-02,-2.734335511922836304e-02,8.058237843215465546e-03,2.661331370472908020e-02,3.306714445352554321e-02,-1.890847273170948029e-02,2.283503487706184387e-02,-2.928811870515346527e-02,1.412814483046531677e-02,1.875790208578109741e-02,2.527036517858505249e-02,-1.812585256993770599e-02,9.688671678304672241e-03,3.671926632523536682e-02,-3.077643923461437225e-03,-2.293209545314311981e-02,-3.720271214842796326e-02,3.194146230816841125e-02,-1.900163292884826660e-02,-5.093538784421980381e-04,-5.749948904849588871e-04,-3.820517100393772125e-03,7.700842805206775665e-03,1.436467515304684639e-03,-3.138251230120658875e-02,6.679434329271316528e-03,-3.977675363421440125e-02,2.262225747108459473e-02,-4.062636941671371460e-02,-2.622508071362972260e-02,-1.559793855994939804e-02,-2.387038804590702057e-02,5.219310987740755081e-03,-1.041400898247957230e-02,-2.340003661811351776e-02,-6.333943922072649002e-03,-3.519740700721740723e-02,-1.346571464091539383e-02,-2.073893323540687561e-02,-1.771033927798271179e-02,-7.912400178611278534e-03,-7.405734504573047161e-04,1.724587939679622650e-02,-3.767229150980710983e-03,2.662663348019123077e-02,6.399210076779127121e-03,-3.066530264914035797e-02,-2.208982035517692566e-02,-1.398738659918308258e-02,-2.994128875434398651e-02,-9.230878204107284546e-03,-1.234129630029201508e-02,1.663274876773357391e-02,2.661616774275898933e-03,-1.839646138250827789e-02,1.981385238468647003e-02,-1.579334493726491928e-03,6.091414950788021088e-03,2.822371944785118103e-02,-2.435177564620971680e-03,1.651000417768955231e-02,6.546201556921005249e-02,-1.124365255236625671e-02,2.773585356771945953e-02,-1.091354899108409882e-02,1.546092890202999115e-02,2.705743070691823959e-03,8.266280055977404118e-04,-1.136040408164262772e-02,2.003408968448638916e-02,-3.769433870911598206e-02,-1.346552837640047073e-02,8.942806161940097809e-03,1.954343728721141815e-02,-1.221941900439560413e-03,-1.500616967678070068e-02,-5.986793898046016693e-03,-6.589241325855255127e-03,-1.622150279581546783e-02,7.156183477491140366e-03,-3.412673715502023697e-03,2.912044338881969452e-02,-1.902422495186328888e-02,2.315467782318592072e-02,-2.193294651806354523e-02,2.254966273903846741e-02,2.473392151296138763e-02,-6.372442003339529037e-03,1.690740510821342468e-02,2.725037932395935059e-02,-4.173903260380029678e-03,-1.031157281249761581e-02,-4.585077241063117981e-02,6.595741026103496552e-03,1.779851689934730530e-02,-1.033344399183988571e-02,-1.486445870250463486e-02,-9.790896438062191010e-03,1.023589819669723511e-02,-1.507292687892913818e-02,-1.056541223078966141e-02,7.039093971252441406e-02,-1.042564213275909424e-02,2.829981036484241486e-02,4.471960291266441345e-02,-6.121390499174594879e-03,-2.976115606725215912e-02,-2.733256667852401733e-02,1.790129579603672028e-02,-1.884005591273307800e-02,-6.045752088539302349e-04,-1.792708225548267365e-02,3.231968358159065247e-02,-1.250330638140439987e-02,-2.706363983452320099e-02,-2.378491498529911041e-02,7.202499546110630035e-03,1.292185112833976746e-02,-1.397638767957687378e-02,-1.337115372734842822e-05,8.507286198437213898e-03,2.756966091692447662e-02,-4.124722909182310104e-03,-1.394948735833168030e-02,2.555663324892520905e-02,1.012419350445270538e-02,6.816065288148820400e-04,1.920968666672706604e-02,7.045584917068481445e-02,2.793099544942378998e-02,1.457441877573728561e-02,-1.510591804981231689e-02,-2.370432019233703613e-02,1.127390936017036438e-02,-8.515331894159317017e-03,-2.997115068137645721e-02,-1.193494442850351334e-02,1.078863744623959064e-03,7.753551471978425980e-03,1.220756955444812775e-02,-5.993852857500314713e-03,1.085170172154903412e-02,1.358223613351583481e-02,-2.223806641995906830e-02,-3.481823578476905823e-02,-1.333015784621238708e-02,1.994457840919494629e-02,1.980910263955593109e-02,-2.387562207877635956e-02,4.773809108883142471e-03,-4.263337235897779465e-03,-2.976298099383711815e-03,-2.783730812370777130e-02,-3.507574647665023804e-02,1.356610679067671299e-03,-1.856669783592224121e-02,5.405112635344266891e-03
