shape,"(512,)"
-0.024721235
0.010928538
-0.032753915
0.008284404
0.010275518
0.017757637
0.00913663
-0.021499153
0.016119817
0.02570947
-0.036113013
-0.021749767
0.002026751
-0.03587957
-0.0152871
0.018989472
0.033490133
-0.022406485
-0.01820731
0.014185545
0.005896371
0.015346611
0.010348717
-0.015037545
-0.031034105
-0.018501712
0.030746719
-0.001336941
-0.014197348
-0.026964638
-0.00043956476
0.00683362
0.0015129577
-0.0053545195
-0.014848678
-0.015171187
0.020301927
0.024510026
0.024031669
-0.007907671
-0.029573122
-0.016942784
0.0055655045
-0.0084321145
-0.006384899
-0.023796136
-0.020401519
-0.014480427
0.022024168
-0.00970568
0.009195829
-0.002801655
0.03813447
0.008621255
0.006711169
0.03475874
-0.020531405
0.03298715
-0.02341677
-0.02924411
0.011715033
0.021903528
-0.013742038
-0.012900358
-0.035304006
-0.015895957
-0.030624816
-0.0065285508
0.0163917
-0.029602252
0.012979567
0.011396604
-0.0072030867
-0.03474256
-0.0018143079
0.013586838
0.02153564
0.010175567
-0.0019055728
-0.016014658
-0.009106338
0.019997627
0.015285848
-0.010908455
-0.010863255
-0.016758319
-0.032140914
-0.016812231
-0.029172577
-0.024023185
0.015420968
-0.006851905
-0.03265516
0.006308821
0.003491344
-0.013807929
0.025268082
-0.021022175
0.0219839
-0.011835169
-0.012346009
-0.027836254
-0.0045483527
0.012279308
-0.021057962
-0.018159125
0.00376275
0.0254396
0.0030644545
-0.016344318
-0.021642374
-0.020643868
0.015307124
-0.029541962
0.017977625
0.014039732
-0.002909683
-0.031016078
0.04233822
-0.018753773
-0.0057597472
0.010197941
-0.0050542257
0.0001381862
-0.011756775
0.007963899
0.029998582
-0.0035940555
0.008319457
0.0050955075
0.021456124
-0.009606009
0.014818885
-0.016388202
0.01754029
-0.021490777
0.022881174
-0.007990079
0.01943783
-0.006485864
-0.026498262
-0.005224416
0.03195928
-0.025845218
0.031138096
0.008239679
0.0016385412
-0.015086902
-0.02609881
0.023079814
-0.0031319596
-0.03243179
-0.0018162092
-0.01132857
0.006538304
-0.015774323
0.012107044
0.020497462
-0.0063846745
0.016156724
-0.02570385
0.023759678
0.01494515
0.021277282
-0.03397595
-0.0129826795
0.025222844
0.014818266
0.0020193257
0.01970235
0.021117136
0.003923669
-0.010184732
0.02888333
0.0085112285
0.002711488
0.032195885
0.0052453377
0.0006824547
0.023748597
0.025362853
0.01677295
-0.0008751447
0.030493205
0.011093806
0.004087444
-0.016139245
-0.026828913
-0.022677401
0.004655202
-0.020603642
-0.028452784
0.042268984
0.0037227718
-0.015354404
0.009699778
0.044731166
-0.0039603994
-0.033333823
-0.028261626
-0.029598633
0.030194722
0.010860021
-0.003449761
0.010869688
-0.013080254
0.037490327
0.028185327
0.01756313
0.0132301785
-0.012468237
-0.007914298
0.04241312
0.002669119
0.0070558344
0.0293449
0.009767654
-0.018538713
0.02088324
-0.037887357
-0.0005652253
-0.025583316
-0.021476723
0.00028903232
-0.032799598
-0.02334822
0.019073235
-0.03380445
-0.023611303
-0.014446068
0.010299239
0.026681615
-0.026576018
-0.018827263
0.006840001
0.011221243
0.003995041
0.0065022977
0.0009329584
-0.012933663
-0.007340223
0.02811635
0.023629356
-0.023968635
0.014585445
0.013567702
-0.009793756
-0.023806084
-0.020128062
-0.030655121
-0.025823468
0.024640467
0.02910498
0.016899502
0.017315414
-0.029281545
0.004915924
-0.027571717
-0.019937363
0.015487542
-0.013748936
0.007954093
0.0037563164
0.0074052084
0.0058903466
0.014878832
0.037237536
-0.0048910105
0.034906756
0.021124486
0.032796636
-7.340564e-05
-0.027228564
0.0004270104
-0.002861402
-0.011901524
0.042650186
-0.0031176244
-0.028343141
0.035841435
0.011209265
-0.012077125
-0.0020434826
0.010459019
-0.034613024
-0.0032991034
0.010980317
0.013598049
0.026015943
-0.017629148
-0.028662143
0.01508157
0.02145733
-0.010682423
-0.018779429
0.011817207
-0.022427598
0.0075656325
-0.030396542
0.011982887
-0.031574044
-0.0053136046
-0.014455718
0.03526854
-0.01398967
-0.006178914
0.022811832
-0.022998117
0.0022517971
-0.0024333757
0.03442947
-0.017242666
0.0293366
-0.039663676
0.026982171
0.0250642
-0.012093378
-0.035731185
0.016267302
0.0019342452
-0.017290786
-0.012062758
0.035554707
0.041029543
-0.015508425
0.017818851
0.0045423326
0.030695857
0.0008274734
0.010971939
0.0025479512
-0.015623989
-0.023519685
-0.013861172
0.0050593014
0.03720452
-0.01860972
0.037520032
-0.0126623595
-0.01710331
-0.011714145
-0.010162561
0.017343046
0.0040668333
-0.016823165
0.014905151
-0.017510122
-0.031065954
0.018112635
0.05745456
-0.0023369535
-0.01291971
-0.02038018
0.038823087
-0.0012337131
-0.012754031
0.030627731
-0.015591772
0.0007367713
0.016237985
-0.018264322
0.0130314585
-0.03325188
0.02113606
0.033866316
-0.013069057
0.028175991
-0.028786214
0.0123857325
0.024464605
-0.005450682
0.019161735
0.015549419
-0.0051252595
-0.01303692
-0.021437481
0.024451906
-0.0136993965
0.016203448
-0.018256105
0.024054958
-0.003256927
-0.024027612
-0.026437953
-0.00305067
-0.03496325
0.02227442
0.0087203095
0.01836552
-0.022646233
0.003712152
0.020750191
-0.04926146
0.03063462
-0.04265463
-0.009670572
0.003933888
-0.024314692
-0.0069956556
-0.0324147
0.030112548
0.0031640974
0.022885198
0.00069470925
0.0038732993
0.0238582
-0.03751433
0.017349921
0.01975925
0.007072369
-0.0065423776
-0.035975292
0.0070118783
0.020965153
0.030932855
-0.017723078
0.008719127
0.03456829
0.015402345
0.0158268
0.0033715623
-0.01583956
0.03297832
-0.0028462172
0.004690546
0.0074761123
-0.0010538661
0.01042718
-0.026693692
0.022704024
-0.0070061767
-0.020092828
0.02222574
-0.004613063
-0.033191577
0.021095064
0.006068443
-0.019952614
-0.024745729
-0.00073930516
0.039157268
0.01913424
-0.023057057
-0.013409252
-0.024337001
-0.03497288
0.017576141
0.00717276
-0.004941777
-0.031779695
-0.03386709
-0.017445622
-0.03635694
-0.005153958
0.015312021
-0.027871942
0.011972037
0.0121512655
-0.0070419
0.022085886
0.020634072
-0.0061132004
-0.026656162
-0.0010967049
-0.021935122
-0.0137556745
0.0025348698
0.009623767
-0.026059158
0.005958441
-0.025020959
0.023012191
-0.016306855
-0.009327225
0.0338137
0.022600679
0.033915374
-0.040371023
-0.02943453
-0.017857706
-0.023674024
-0.0055649625
0.022909557
0.018198926
0.007904324
-0.030058024
0.015544543
0.013187824
0.004995155
-0.01909734
0.018899377
-0.024462944
0.01115279
-0.016584566
-0.032290794
-0.01541395
0.023615854
-0.0358813
0.026172927
0.044887323
-0.052081015
-0.012184272
-0.0078438595
0.00037293794
-0.0015320494
-0.007020891
0.011199092
0.011651613
0.013435741
-0.0080541605
-0.009942228
0.012887704
