2.823745645582675934e-02,9.243850596249103546e-03,-5.792499054223299026e-03,2.128004282712936401e-02,-7.199738640338182449e-03,-7.476347032934427261e-03,1.990467123687267303e-02,-8.035322651267051697e-03,3.127929940819740295e-02,-2.065126970410346985e-02,1.463671214878559113e-03,-2.100122533738613129e-02,2.447845228016376495e-02,1.584619097411632538e-02,5.723710171878337860e-03,-6.004701368510723114e-03,-2.586982399225234985e-02,2.399523183703422546e-02,7.934650406241416931e-03,3.523132065311074257e-03,2.220347756519913673e-03,2.894682809710502625e-02,9.921963792294263840e-04,2.278258278965950012e-02,2.042449079453945160e-02,-3.894258989021182060e-03,-2.560371533036231995e-02,2.378324419260025024e-02,-1.520452275872230530e-02,1.890223845839500427e-02,3.028471395373344421e-02,1.376599911600351334e-02,7.020990364253520966e-03,-2.420808188617229462e-02,6.106595043092966080e-03,1.196689531207084656e-02,-1.345359836705029011e-03,1.105460617691278458e-02,-3.392584994435310364e-02,2.978618815541267395e-02,-2.120684087276458740e-02,6.909475196152925491e-03,3.670014813542366028e-02,1.871511712670326233e-02,-1.870903745293617249e-02,-1.481957733631134033e-03,-2.432692423462867737e-02,8.644234389066696167e-03,2.832833677530288696e-02,-4.050389863550662994e-03,-1.104619633406400681e-02,1.453026547096669674e-03,-7.349829189479351044e-03,2.611994184553623199e-02,1.918495632708072662e-03,-1.546747516840696335e-03,1.318414881825447083e-02,-2.717752195894718170e-02,2.212869003415107727e-02,-2.163851819932460785e-02,-2.388765662908554077e-02,2.594616822898387909e-02,3.405668959021568298e-02,3.414593229535967112e-04,4.065485205501317978e-03,-1.186705846339464188e-02,-4.030442330986261368e-03,1.387436687946319580e-02,-1.867429167032241821e-02,2.726122736930847168e-02,-2.099945582449436188e-02,-2.857520990073680878e-02,1.953851617872714996e-02,-1.173143275082111359e-02,-4.651262424886226654e-03,-1.750038564205169678e-02,2.237660251557826996e-02,6.281662732362747192e-03,4.406754393130540848e-03,-2.037526853382587433e-02,-1.960650086402893066e-03,-2.534615807235240936e-02,-1.739190891385078430e-03,-1.593557558953762054e-02,-1.679206825792789459e-02,2.417165040969848633e-02,1.379353459924459457e-03,6.777506321668624878e-03,-1.979160308837890625e-02,4.163263365626335144e-03,-6.119215395301580429e-03,2.544805221259593964e-02,2.408463135361671448e-02,3.516341745853424072e-02,-1.615070039406418800e-03,7.968189194798469543e-03,3.110792255029082298e-03,-2.185549773275852203e-02,-2.985995635390281677e-02,-1.634699106216430664e-02,-4.683433100581169128e-03,-6.196663714945316315e-03,1.401677168905735016e-02,1.463287890857145612e-08,1.518539339303970337e-02,-3.097572550177574158e-02,-2.670504385605454445e-03,-1.771461777389049530e-02,1.252169441431760788e-02,-2.530303085222840309e-03,2.909545041620731354e-02,2.826959826052188873e-02,-4.718548152595758438e-03,2.410500496625900269e-02,1.098438911139965057e-02,-2.022356539964675903e-02,-1.031853724271059036e-02,-3.338605631142854691e-03,1.902717351913452148e-02,-6.003235001116991043e-03,-2.352485433220863342e-02,5.269926041364669800e-04,-3.504198044538497925e-03,2.748399972915649414e-02,-4.932085052132606506e-03,1.928883790969848633e-02,-2.703196182847023010e-02,1.407140865921974182e-02,3.046880476176738739e-03,1.715269312262535095e-02,1.735415309667587280e-02,1.718066819012165070e-02,-3.418665379285812378e-02,-8.756822353461757302e-05,-4.332470241934061050e-03,1.372040063142776489e-02,-3.167458996176719666e-02,2.319185063242912292e-02,7.923599914647638798e-04,1.916218549013137817e-02,-2.440174669027328491e-02,-1.664597657509148121e-03,-2.347877807915210724e-02,2.792279981076717377e-02,-1.863306947052478790e-02,-2.855980210006237030e-02,-2.446008101105690002e-02,2.460783813148736954e-03,2.083022147417068481e-02,-2.100190147757530212e-02,3.539899736642837524e-02,3.831366077065467834e-02,-1.872926950454711914e-02,2.448214590549468994e-02,-3.915657754987478256e-03,1.460153050720691681e-02,-7.932033040560781956e-04,-1.031230855733156204e-02,-1.580407842993736267e-02,2.546124532818794250e-02,1.024193316698074341e-02,2.562388591468334198e-02,-1.408125739544630051e-02,-2.461786149069666862e-03,1.237465254962444305e-02,-2.405523089691996574e-03,-1.503663975745439529e-02,5.311963334679603577e-02,7.146513089537620544e-03,1.689279824495315552e-02,-2.543964795768260956e-02,9.867585264146327972e-03,6.251687183976173401e-03,-1.051237154752016068e-02,-1.048239320516586304e-02,1.419636048376560211e-02,2.027475088834762573e-02,-7.376212626695632935e-03,-8.843206800520420074e-03,-4.161125794053077698e-02,-2.429558150470256805e-02,-2.957205288112163544e-02,-1.269942242652177811e-02,-4.702628124505281448e-03,-7.782634813338518143e-03,-3.964539244771003723e-02,-2.966462820768356323e-02,-1.554723083972930908e-02,-2.675149776041507721e-02,-3.330462053418159485e-02,-2.499054558575153351e-02,-1.650887355208396912e-02,-1.164794620126485825e-02,-4.266843572258949280e-02,-1.156093645840883255e-02,3.164213895797729492e-02,2.821613848209381104e-02,-2.189909107983112335e-02,6.038334220647811890e-03,-1.879323273897171021e-02,2.570070698857307434e-02,8.924547582864761353e-03,-2.130042202770709991e-02,2.669436158612370491e-03,-2.522365935146808624e-02,1.354900072328746319e-03,-2.234489656984806061e-02,2.310059778392314911e-02,-2.905158139765262604e-02,-4.935646802186965942e-02,2.641639858484268188e-02,-1.737028174102306366e-02,2.300539426505565643e-02,1.610498689115047455e-02,-3.584147430956363678e-03,-1.014353428035974503e-02,-9.060707874596118927e-03,-1.924957707524299622e-02,-2.048133499920368195e-02,-2.522103488445281982e-02,-1.029753964394330978e-02,-1.181119214743375778e-02,-1.830720156431198120e-02,-4.962546005845069885e-02,1.062070485204458237e-02,3.255756571888923645e-02,-7.131074555218219757e-03,2.747391164302825928e-02,2.680710330605506897e-02,-5.403544855653308332e-05,-3.616201924160122871e-03,-2.218408510088920593e-02,-3.212702646851539612e-02,-1.727633923292160034e-02,1.140778139233589172e-02,5.719181499443948269e-04,3.122239606454968452e-03,3.901536017656326294e-02,3.107479587197303772e-02,2.204706892371177673e-02,1.530330441892147064e-02,-5.344513803720474243e-02,2.963105402886867523e-02,-6.668865680694580078e-03,-1.470326445996761322e-02,1.482527703046798706e-02,3.070273995399475098e-02,2.024920843541622162e-02,-3.769886388909071684e-04,-5.485896486788988113e-03,1.991848088800907135e-02,1.577862910926342010e-02,-1.340620685368776321e-02,-2.704239822924137115e-02,2.331868559122085571e-02,-4.513434320688247681e-02,-2.649158798158168793e-02,-3.843251988291740417e-02,8.938287384808063507e-03,-6.306500732898712158e-02,7.110239937901496887e-03,-2.102961391210556030e-02,3.687723726034164429e-02,-4.335528239607810974e-02,-3.037303313612937927e-02,-4.812951199710369110e-03,-6.409154739230871201e-04,3.816805779933929443e-03,-3.426308184862136841e-02,-3.029836807399988174e-03,-1.626219972968101501e-02,-5.193629488348960876e-02,3.533019870519638062e-02,-5.257134139537811279e-02,-1.624356256797909737e-03,1.455371547490358353e-02,7.324474863708019257e-03,-1.203138567507266998e-02,-2.991548925638198853e-02,2.412358531728386879e-03,2.565136179327964783e-02,-6.640554964542388916e-02,1.366967428475618362e-02,-5.006569251418113708e-02,-7.033026777207851410e-03,-2.322390861809253693e-02,4.185233730822801590e-03,-3.308098390698432922e-02,1.829096116125583649e-02,-3.728924319148063660e-02,-3.286449611186981201e-02,4.686356056481599808e-03,-1.023148372769355774e-02,1.028299052268266678e-02,-4.401608370244503021e-03,4.699119180440902710e-02,-2.399505674839019775e-02,6.085601635277271271e-04,-1.923056133091449738e-02,-1.449934672564268112e-03,2.915196493268013000e-02,-3.431976959109306335e-02,5.988144315779209137e-03,-2.813854627311229706e-02,-1.413783337920904160e-02,-2.159279398620128632e-02,9.472034871578216553e-03,8.629984222352504730e-03,2.408670261502265930e-02,-4.749338701367378235e-02,1.268242299556732178e-02,-3.638894483447074890e-02,2.368901111185550690e-02,-5.392196401953697205e-02,-1.841125078499317169e-03,-2.658728742972016335e-03,1.744339987635612488e-02,1.193457655608654022e-02,-2.404773421585559845e-02,-2.549103461205959320e-02,-1.983040943741798401e-02,9.504975751042366028e-03,-2.921750769019126892e-02,-2.080521173775196075e-02,-1.612587459385395050e-02,-3.508728463202714920e-03,3.005265630781650543e-02,-8.575660176575183868e-03,2.066271938383579254e-02,2.692465111613273621e-02,1.651627570390701294e-02,-2.530226111412048340e-02,-1.513964496552944183e-03,8.387975394725799561e-03,2.857227623462677002e-02,1.364441774785518646e-02,4.780331254005432129e-02,-3.046600148081779480e-02,2.361457981169223785e-02,-1.334653235971927643e-02,-3.312581218779087067e-03,-2.639415673911571503e-02,1.447709742933511734e-02,-3.117564320564270020e-02,1.130721159279346466e-02,-4.731592163443565369e-02,3.915764391422271729e-03,1.844289340078830719e-02,2.976631373167037964e-02,-7.354319095611572266e-04,-3.131965408101677895e-03,-4.252560064196586609e-02,-6.323600653558969498e-03,-3.136018291115760803e-02,-1.852988032624125481e-03,-4.300534725189208984e-03,2.645869366824626923e-02,-3.446947038173675537e-02,-1.502575445920228958e-02,-1.243962742591975257e-05,-3.854134120047092438e-04,-4.988019168376922607e-02,2.176736295223236084e-02,8.402383886277675629e-03,-2.590283937752246857e-02,-1.682197209447622299e-03,-5.755951628088951111e-03,1.609894260764122009e-02,-2.391233853995800018e-02,-1.936920545995235443e-02,7.163907401263713837e-03,-4.579380899667739868e-02,-1.246576663106679916e-02,-2.893634513020515442e-02,1.312308572232723236e-02,1.765165850520133972e-02,2.534923888742923737e-02,-6.358289392665028572e-04,2.322853170335292816e-02,-4.593176022171974182e-02,1.193536818027496338e-02,-5.898545496165752411e-03,-2.795319631695747375e-02,-5.851545557379722595e-02,-4.003100562840700150e-03,-4.185780137777328491e-02,3.470985963940620422e-02,2.923203818500041962e-02,3.385159943718463182e-04,4.792314954102039337e-03,-3.451336408033967018e-03,6.222650408744812012e-03,2.160497009754180908e-02,-2.212340943515300751e-02,3.033402003347873688e-02,-3.407659009099006653e-02,-3.603483550250530243e-03,1.082339789718389511e-03,1.164129655808210373e-02,1.602797210216522217e-02,-1.485530380159616470e-02,-5.093364790081977844e-02,-2.955062687397003174e-02,-2.114998362958431244e-02,-1.159290969371795654e-02,5.723490379750728607e-03,4.286205023527145386e-02,2.025388553738594055e-02,6.286067422479391098e-03,-2.117486484348773956e-02,2.933200821280479431e-02,-2.018938213586807251e-02,-1.319372095167636871e-02,3.399829147383570671e-03,2.842949703335762024e-03,-1.396840997040271759e-02,3.752178326249122620e-02,-2.628115750849246979e-02,-2.657888643443584442e-02,-3.791236504912376404e-02,2.663719467818737030e-02,-1.929088321048766375e-04,8.073545061051845551e-03,1.841670088469982147e-02,-1.689501665532588959e-02,-4.065812006592750549e-02,-9.727858006954193115e-03,5.691661965101957321e-03,1.441168691962957382e-02,-3.497667238116264343e-02,9.181529283523559570e-03,-1.074497867375612259e-02,-1.495270151644945145e-02,-2.065556496381759644e-02,4.114073142409324646e-02,-2.749306708574295044e-02,3.191406279802322388e-02,2.260650217067450285e-04,1.783587154932320118e-03,-4.725302755832672119e-02,3.046057187020778656e-02,1.054011378437280655e-02,2.612357027828693390e-02,1.079587731510400772e-02,1.779700443148612976e-02,-1.521575916558504105e-02,3.885736316442489624e-02,9.098871611058712006e-03,5.161141976714134216e-02,-5.649770144373178482e-03,4.249264672398567200e-02,-2.445560321211814880e-02,-3.111284039914608002e-02,-4.735678806900978088e-02,3.743082284927368164e-02,-4.339769110083580017e-02,3.138881549239158630e-02,-3.067275043576955795e-03,1.200477499514818192e-02,1.437403727322816849e-02,-3.429587930440902710e-02,-1.117797475308179855e-02,-3.806946799159049988e-02,-5.231576412916183472e-02,1.336272805929183960e-02,1.435460522770881653e-02,2.641494199633598328e-02,1.925631985068321228e-02,7.481593638658523560e-02,-2.404149994254112244e-02,4.913805052638053894e-02,3.188166022300720215e-02,1.936393603682518005e-02,-4.363009333610534668e-02,1.047460734844207764e-02,2.768021076917648315e-02,1.723619922995567322e-02,-4.303431510925292969e-02,2.687111496925354004e-02,-2.648283541202545166e-02,-2.483642473816871643e-02,-3.143488615751266479e-02,2.474234253168106079e-02,-1.043940242379903793e-02,6.421330571174621582e-02,-4.080357775092124939e-02,-9.726432152092456818e-03,-2.537516690790653229e-02,6.587427109479904175e-02,-5.139427259564399719e-02,2.059920690953731537e-02,-1.015762612223625183e-02,-2.068261988461017609e-02,-1.192395668476819992e-02,6.106020882725715637e-02,1.646214909851551056e-02,1.391487661749124527e-02,-1.568642817437648773e-02,-3.436561301350593567e-02,1.050204504281282425e-02,1.326363650150597095e-03,-1.131962612271308899e-02,1.293358299881219864e-02,1.437117252498865128e-02,-9.117774898186326027e-04,-6.483997404575347900e-02,9.329328313469886780e-03,-2.038234658539295197e-02,-1.504947897046804428e-02,1.003877911716699600e-02,2.161055989563465118e-02,-3.982802852988243103e-03
