1.530416775494813919e-02,1.882081292569637299e-02,-5.487713217735290527e-02,4.078492149710655212e-02,1.798168942332267761e-02,-1.470347307622432709e-02,-1.784116378985345364e-03,-3.939750790596008301e-02,1.491902954876422882e-02,-1.897946372628211975e-02,2.558135800063610077e-02,-2.653900161385536194e-02,2.746491925790905952e-03,2.708798088133335114e-02,2.449897676706314087e-02,-3.524279594421386719e-02,2.148012630641460419e-03,-1.444303430616855621e-02,-2.869950374588370323e-03,3.350786119699478149e-02,2.784073352813720703e-02,-1.333364099264144897e-02,-8.249356411397457123e-03,-2.526853606104850769e-02,-9.599396027624607086e-03,-3.742917999625205994e-02,3.529088199138641357e-02,-3.852996742352843285e-03,-4.309033229947090149e-02,6.030466407537460327e-03,2.248656190931797028e-02,4.283051565289497375e-02,-4.841331765055656433e-02,2.185404859483242035e-02,1.367689110338687897e-03,-9.939542040228843689e-03,4.301855340600013733e-02,-4.200004413723945618e-02,-4.436216875910758972e-02,3.067170269787311554e-02,2.640874870121479034e-02,2.190778218209743500e-02,3.023443557322025299e-02,2.590978052467107773e-03,-2.827421063557267189e-03,-1.473307050764560699e-02,3.024229547008872032e-03,1.853227801620960236e-02,2.495319396257400513e-02,-3.944351524114608765e-02,2.658259868621826172e-02,4.074697569012641907e-02,-3.476355224847793579e-02,3.329521417617797852e-02,4.143249988555908203e-02,2.847249247133731842e-02,1.388883404433727264e-02,1.740742102265357971e-02,-1.864512078464031219e-02,3.571286506485193968e-04,-3.920683171600103378e-03,-1.448470633476972580e-02,3.325827792286872864e-02,2.924541942775249481e-02,5.719607230275869370e-03,7.524914108216762543e-03,-5.351794511079788208e-02,-4.546314850449562073e-02,-2.541136741638183594e-02,-1.913618482649326324e-02,3.310916945338249207e-02,-4.366165027022361755e-02,1.890328130684792995e-03,-3.140774369239807129e-02,1.484386716037988663e-02,3.900742903351783752e-02,-3.000073507428169250e-02,2.284497767686843872e-02,-3.817530116066336632e-03,-2.511331066489219666e-02,-4.269004613161087036e-02,3.953026235103607178e-02,-5.553382262587547302e-02,-4.178889503236860037e-04,-9.741263464093208313e-03,-2.372653409838676453e-02,-1.559036463731899858e-04,-3.464172780513763428e-02,4.600849468261003494e-03,-2.959644608199596405e-02,1.564805954694747925e-02,-1.781834475696086884e-02,2.098537795245647430e-02,2.001139149069786072e-02,-5.799804348498582840e-03,2.045911177992820740e-02,2.589858509600162506e-02,-2.020221902057528496e-03,1.789977587759494781e-02,3.539226576685905457e-02,2.524742484092712402e-02,-4.206435009837150574e-02,-2.989039383828639984e-02,3.212053701281547546e-02,-4.975521191954612732e-02,-1.182161644101142883e-02,-6.217193789780139923e-03,-3.157146647572517395e-02,-4.098016396164894104e-02,2.649353072047233582e-02,-1.930047944188117981e-02,-2.451761066913604736e-02,1.719245128333568573e-02,-1.341339945793151855e-02,-4.381480067968368530e-02,4.856707062572240829e-03,1.115791127085685730e-02,-1.646961830556392670e-02,-2.978525497019290924e-02,-3.123002313077449799e-02,-1.240945514291524887e-02,7.285875268280506134e-03,-4.372597113251686096e-02,7.951506413519382477e-03,3.562084212899208069e-02,-4.093714058399200439e-02,-1.601899042725563049e-02,8.099228143692016602e-03,-2.946625277400016785e-02,4.054110497236251831e-02,4.764248151332139969e-03,1.819723867811262608e-03,-1.491821650415658951e-02,-3.116646409034729004e-02,1.209538523107767105e-02,-1.066078711301088333e-02,3.497309610247612000e-02,-3.176809847354888916e-02,-4.323380067944526672e-02,2.957456931471824646e-02,-5.031056329607963562e-02,-1.552810519933700562e-02,-4.975193366408348083e-02,1.387424767017364502e-02,-4.315709695219993591e-02,-4.534039273858070374e-02,3.633330017328262329e-02,8.682635612785816193e-03,-4.150710254907608032e-02,-2.507271431386470795e-02,2.709785662591457367e-02,-1.717539690434932709e-02,-5.484427325427532196e-03,-6.301022134721279144e-03,-5.086691235192120075e-04,3.420417010784149170e-02,2.599439397454261780e-02,2.965768985450267792e-02,1.530971005558967590e-02,3.291387110948562622e-02,2.405618689954280853e-02,2.327873930335044861e-02,-2.069399692118167877e-02,1.323386002331972122e-02,4.842518828809261322e-03,1.945986784994602203e-02,-3.571747988462448120e-02,-2.017872780561447144e-02,2.099095098674297333e-02,-4.702666029334068298e-02,2.178401686251163483e-02,2.727719582617282867e-02,-3.686744719743728638e-02,2.944737439975142479e-03,-7.584938779473304749e-03,-6.586945964954793453e-04,-3.108299523591995239e-02,-2.879432775080204010e-02,4.376620054244995117e-03,-3.099954128265380859e-02,-3.754563804250210524e-04,1.612083055078983307e-02,-1.491487864404916763e-02,-2.949802018702030182e-02,-1.246717106550931931e-02,7.162630558013916016e-03,2.424896694719791412e-02,8.790732361376285553e-03,3.737818822264671326e-02,-8.069188334047794342e-03,-2.452837303280830383e-02,4.735459573566913605e-03,3.707714006304740906e-02,3.766409307718276978e-02,3.657164797186851501e-02,-4.504697024822235107e-02,3.480539098381996155e-02,1.979294233024120331e-02,1.018548617139458656e-03,2.870473824441432953e-02,-2.258870005607604980e-02,-3.691497817635536194e-02,-4.120522737503051758e-02,3.676760569214820862e-02,-2.651206590235233307e-02,-1.427067560143768787e-03,-2.805070020258426666e-02,-2.951940894126892090e-02,-4.839637503027915955e-02,1.558046974241733551e-02,1.721960492432117462e-02,2.090415358543395996e-02,3.860267251729965210e-02,3.729515150189399719e-02,-9.462914429605007172e-03,-3.327017650008201599e-02,4.894350189715623856e-03,2.251320704817771912e-02,-2.513816952705383301e-02,-3.228195011615753174e-02,-3.275915607810020447e-02,-3.010282991454005241e-03,3.104070946574211121e-02,-3.765087947249412537e-02,1.342386659234762192e-02,-1.413426175713539124e-02,2.534249331802129745e-03,-1.198709569871425629e-02,-1.403130311518907547e-02,-5.074191093444824219e-02,1.292900554835796356e-02,1.853949949145317078e-02,-4.604047164320945740e-02,-3.895896300673484802e-02,3.405824245419353247e-04,2.542922832071781158e-02,4.218128509819507599e-03,-3.821117430925369263e-02,7.293921662494540215e-04,3.931948915123939514e-02,-1.229046005755662918e-02,-2.481117099523544312e-02,-1.478769257664680481e-02,-3.889311105012893677e-02,-4.125863686203956604e-02,1.494626607745885849e-02,-1.421827636659145355e-02,-1.556685473769903183e-02,-4.479594901204109192e-02,-2.587739191949367523e-02,1.110458374023437500e-02,-3.541856771335005760e-03,9.413181804120540619e-03,8.188530802726745605e-03,-4.156464338302612305e-02,-4.599534804583527148e-05,-3.655646368861198425e-02,-1.314496248960494995e-02,3.579964488744735718e-02,-6.024926900863647461e-03,3.274262696504592896e-02,-2.700166031718254089e-02,-1.055246312171220779e-02,-2.814862411469221115e-03,-4.224104061722755432e-02,-2.416217885911464691e-02,-2.905642054975032806e-02,2.831476181745529175e-02,2.826869115233421326e-02,-2.215392328798770905e-02,2.872234582901000977e-02,-1.128598302602767944e-02,3.718528896570205688e-02,3.559758421033620834e-03,-2.327442169189453125e-03,1.144883409142494202e-02,-4.095269739627838135e-02,-1.601587980985641479e-02,4.148703813552856445e-02,2.908093482255935669e-02,-3.805952379480004311e-03,3.369598463177680969e-02,-3.565765917301177979e-02,-1.564155519008636475e-02,-3.850774839520454407e-02,-2.038090303540229797e-02,-2.496333792805671692e-02,-2.174708619713783264e-02,-1.873956061899662018e-02,3.522152826189994812e-02,3.816990181803703308e-02,-3.432874754071235657e-02,3.009522147476673126e-02,-1.397936139255762100e-02,-2.620674204081296921e-03,-3.857176750898361206e-02,3.583562746644020081e-02,-3.370345383882522583e-02,-2.011458761990070343e-02,-2.171323075890541077e-02,-4.804955795407295227e-02,-2.416298165917396545e-02,2.072425559163093567e-02,-6.167193409055471420e-03,1.155561115592718124e-02,1.976083777844905853e-02,-1.628895103931427002e-02,3.631015121936798096e-02,-5.131312087178230286e-02,6.907848292030394077e-04,-1.609382592141628265e-02,-3.749740868806838989e-02,-5.284176021814346313e-02,-3.833471983671188354e-02,1.723602786660194397e-02,3.348797932267189026e-02,-9.214602410793304443e-03,1.099356450140476227e-02,8.229326456785202026e-03,-2.460598247125744820e-03,1.062845112755894661e-04,-3.007099218666553497e-02,-2.148314937949180603e-02,2.695196866989135742e-02,-3.610748099163174629e-03,3.011523187160491943e-02,-4.874485358595848083e-02,1.935433538164943457e-04,1.553104375489056110e-03,1.295046973973512650e-02,2.616560086607933044e-02,2.015989646315574646e-02,3.319573774933815002e-02,-2.795251272618770599e-02,-4.579588770866394043e-02,7.887956686317920685e-03,3.642107173800468445e-02,-1.705107279121875763e-02,1.197965070605278015e-02,-3.750296309590339661e-02,-3.961092978715896606e-02,3.624374791979789734e-02,-3.628932312130928040e-02,-1.152133755385875702e-02,-4.319965466856956482e-02,-3.007977642118930817e-02,-2.435273677110671997e-02,-3.829475119709968567e-02,-1.176435034722089767e-02,-1.436196360737085342e-02,-5.201674997806549072e-02,1.600342243909835815e-02,-4.563741758465766907e-02,-2.789533324539661407e-02,-4.929672181606292725e-02,2.574275992810726166e-02,2.389273978769779205e-02,-1.761069986969232559e-03,-7.912635803222656250e-03,1.405964419245719910e-02,-1.565954834222793579e-02,1.547704450786113739e-02,-4.546516016125679016e-02,2.177842520177364349e-02,2.179130353033542633e-02,-2.110750973224639893e-02,4.074782878160476685e-02,3.511087503284215927e-03,3.417841717600822449e-02,-2.100114896893501282e-02,6.228689569979906082e-03,2.322982531040906906e-03,-2.699406445026397705e-02,3.074730932712554932e-02,8.662139996886253357e-03,-1.367966085672378540e-02,2.670034207403659821e-02,-2.135256677865982056e-02,-4.101780802011489868e-02,4.036515206098556519e-02,-5.329385399818420410e-02,-2.549479156732559204e-02,4.021269269287586212e-03,-3.357679024338722229e-02,1.211558841168880463e-02,1.090824371203780174e-03,-8.751392364501953125e-03,-4.450174421072006226e-02,-4.742600396275520325e-02,-1.097203977406024933e-02,2.163032069802284241e-02,1.500672660768032074e-02,-9.819392114877700806e-03,-3.807120397686958313e-02,-3.106082789599895477e-02,9.726299904286861420e-03,2.945873327553272247e-02,2.595899254083633423e-02,-1.436399668455123901e-02,-7.444678805768489838e-03,-3.721753880381584167e-02,-4.735059291124343872e-02,1.191247813403606415e-02,-2.339316552024683915e-06,3.868662193417549133e-02,-2.589096873998641968e-02,3.211995959281921387e-02,-3.905740007758140564e-02,-3.579028695821762085e-02,3.350637853145599365e-02,-6.645896472036838531e-03,-2.132994867861270905e-02,-1.100527308881282806e-02,2.917742170393466949e-02,-6.726277526468038559e-03,-1.870757341384887695e-02,2.005830034613609314e-02,-2.734228782355785370e-02,-3.726192191243171692e-02,-5.078079551458358765e-02,2.867606841027736664e-02,-4.299266263842582703e-02,3.445985028520226479e-03,-4.598280042409896851e-02,1.937797176651656628e-03,-1.044294703751802444e-02,3.619776293635368347e-02,8.454235503450036049e-04,-9.115430526435375214e-03,-5.622745957225561142e-03,2.832187153398990631e-02,3.313490375876426697e-02,-2.911230735480785370e-02,-1.316526997834444046e-02,-9.082836098968982697e-03,2.350389398634433746e-02,6.033267825841903687e-03,2.500568144023418427e-02,-5.548079032450914383e-03,1.671901787631213665e-03,-1.570105738937854767e-02,-6.739233620464801788e-03,-4.582227393984794617e-02,2.377586066722869873e-02,-1.554650533944368362e-02,-3.513111546635627747e-02,1.671909727156162262e-02,-2.782193757593631744e-02,-1.811066083610057831e-02,-4.393440857529640198e-02,2.826244756579399109e-02,-1.996643096208572388e-02,-4.225474223494529724e-02,4.471030086278915405e-02,2.000094205141067505e-02,-3.720143064856529236e-02,-1.630605943500995636e-02,1.621781289577484131e-02,1.127981767058372498e-02,-1.679099909961223602e-02,1.151361037045717239e-02,-2.462715469300746918e-02,-1.024602353572845459e-02,-3.618475049734115601e-02,1.332014519721269608e-02,1.991903409361839294e-02,6.186802405864000320e-03,2.499993890523910522e-02,3.617084771394729614e-02,-1.810889318585395813e-02,-9.428064338862895966e-03,-4.469028860330581665e-02,3.273347020149230957e-02,6.060587242245674133e-03,-9.239223785698413849e-03,-3.117035515606403351e-02,1.556210592389106750e-02,2.617901004850864410e-02,1.339976768940687180e-02,-1.660148240625858307e-02,-2.189493970945477486e-03,6.640464533120393753e-03,-3.241236880421638489e-02,2.455541118979454041e-02,-5.623121932148933411e-02,6.818877533078193665e-03,-7.841145619750022888e-03,-2.312526851892471313e-02,-1.824943721294403076e-02,6.719089578837156296e-03,-9.069564752280712128e-03,4.724523518234491348e-03,-2.191609703004360199e-02,3.120213001966476440e-02,-4.918881505727767944e-02,3.055210225284099579e-03,2.316519245505332947e-02,-2.332162484526634216e-02,-2.859154716134071350e-02,-1.596710085868835449e-02,2.754270285367965698e-02,2.136703208088874817e-02,-3.456621989607810974e-02,-1.495429128408432007e-02,-3.105225227773189545e-02,3.297234326601028442e-02,-4.157638642936944962e-03,2.933347783982753754e-02,-7.480939384549856186e-04,2.000996842980384827e-02,-5.208424478769302368e-02,-8.125025779008865356e-03,-2.897024154663085938e-02,1.409260462969541550e-02,2.678698860108852386e-03,-4.423521831631660461e-02,1.672644168138504028e-02,2.356935851275920868e-02,-3.853805363178253174e-02,4.317115247249603271e-02,9.437370114028453827e-03,-3.650688007473945618e-02,-3.072209842503070831e-02,-3.946233168244361877e-02,-4.963770881295204163e-02,-3.828655555844306946e-02,-2.180901169776916504e-02,1.418000180274248123e-02,-3.383919969201087952e-02,-2.433038130402565002e-02,1.873383857309818268e-02,3.571015223860740662e-02,-1.434400118887424469e-02,-3.058589063584804535e-02,-3.556052967905998230e-02,2.648141421377658844e-02,2.610995620489120483e-02,-4.136571660637855530e-02,1.969028823077678680e-02,6.324492394924163818e-03,-5.419447273015975952e-02,2.977010607719421387e-02,-2.778839133679866791e-02,1.165666617453098297e-02,-1.312845665961503983e-02,-1.972785592079162598e-02,-4.580172151327133179e-02,3.047378920018672943e-02,7.628555409610271454e-03,-2.196833491325378418e-02,2.245823107659816742e-02,-3.380870074033737183e-02,7.127535063773393631e-04,2.399297244846820831e-02,-2.940696664154529572e-02,-3.291916847229003906e-02,1.773615553975105286e-02,-3.871884942054748535e-02,-3.918888105545192957e-04,-3.673779219388961792e-02,-2.615944296121597290e-02,-1.950468122959136963e-02,3.340704739093780518e-02,-3.036653995513916016e-02,-2.146159764379262924e-03,1.297781988978385925e-02,-3.567908704280853271e-02,-5.007684975862503052e-02,-2.211346849799156189e-02,-4.343204200267791748e-02,3.743572626262903214e-03,-2.136627212166786194e-02,-3.010251559317111969e-02,-5.589606007561087608e-04,7.842044578865170479e-05,2.932969853281974792e-02,2.788477391004562378e-02,2.236241241917014122e-03,-5.172102525830268860e-02,2.622191421687602997e-02,1.334375236183404922e-02,-1.865623705089092255e-02,9.191816672682762146e-03,2.895367704331874847e-02,-2.066150680184364319e-02,1.780226081609725952e-02,2.518049627542495728e-02,7.719000801444053650e-03,-2.004317007958889008e-02,1.771081611514091492e-02,-1.156600005924701691e-02,-1.140904147177934647e-02,-3.038225509226322174e-02,-5.140900611877441406e-02,-4.718642309308052063e-02,1.855956017971038818e-02,-3.272532299160957336e-02,-4.069555178284645081e-02,3.905567573383450508e-03,8.283530361950397491e-03,2.155437506735324860e-02,-4.459556937217712402e-02,4.910760093480348587e-03,2.296761842444539070e-03,2.767026983201503754e-02,-3.979580849409103394e-02,-8.844728581607341766e-03,2.727029286324977875e-02,6.698864977806806564e-03,1.300618238747119904e-02,-1.851953007280826569e-02,5.183385685086250305e-03,2.465669624507427216e-02,-2.056906698271632195e-03,3.931838553398847580e-03,-2.734839357435703278e-02,-3.051173500716686249e-02,-1.889250241219997406e-02,-2.118468843400478363e-02,-3.144598007202148438e-02,-9.748050943017005920e-03,-8.633283898234367371e-03,-1.280214358121156693e-02,2.218757942318916321e-02,1.089449040591716766e-02,-2.321114391088485718e-02,2.683689258992671967e-02,-5.150435026735067368e-03,1.420792285352945328e-02,-2.985177189111709595e-02,2.801764570176601410e-02,-1.951040513813495636e-02,-3.380699455738067627e-02,-3.879734314978122711e-03,1.460489816963672638e-02,2.541068196296691895e-02,9.344448335468769073e-03,1.301958225667476654e-02,3.016637824475765228e-02,2.158828824758529663e-02,2.818907424807548523e-02,1.758793741464614868e-02,2.509607374668121338e-02,-2.204898279160261154e-03,-1.511360169388353825e-03,1.444807555526494980e-02,-8.768919855356216431e-03,-1.758958026766777039e-02,1.091090613044798374e-03,-2.940649352967739105e-02,-2.902776189148426056e-02,-5.221959948539733887e-02,2.647974342107772827e-02,-3.172023221850395203e-02,-2.427972853183746338e-02,-3.919032588601112366e-02,-3.427008911967277527e-02,2.987372688949108124e-02,-3.394764661788940430e-02,-4.910736158490180969e-02,-4.811943322420120239e-02,3.078683977946639061e-03,-1.279516890645027161e-02,2.630788274109363556e-02,-3.000685386359691620e-02,2.515878528356552124e-02,-2.989616990089416504e-02,1.608683541417121887e-02,-1.906037889420986176e-02,-4.475292563438415527e-02,1.982730254530906677e-02,-3.649682737886905670e-03,-3.665268048644065857e-02,1.955963112413883209e-02,-2.242417074739933014e-02,-3.570859506726264954e-02,-3.392240032553672791e-02,-1.650663651525974274e-02,-1.279211882501840591e-02,2.533794566988945007e-02,7.697933819144964218e-03,2.032253146171569824e-02,2.898484468460083008e-02,1.976304501295089722e-02,-8.390367147512733936e-04,-4.414523392915725708e-02,-1.512584183365106583e-02,1.980701833963394165e-02,-1.937708631157875061e-02,-6.877661217004060745e-03,-5.100657790899276733e-02,-1.923731900751590729e-02,2.677374333143234253e-02,4.604169353842735291e-02,2.055853046476840973e-02,-2.799170836806297302e-02,-2.503651566803455353e-02,3.297599405050277710e-02,4.206760972738265991e-02,3.233740478754043579e-02,2.386235259473323822e-02,-4.780020192265510559e-02,2.268340438604354858e-02,1.205859985202550888e-02,-4.347084462642669678e-02,-6.747357547283172607e-03,-1.713258959352970123e-02,-4.283709451556205750e-03,-5.166980251669883728e-02,1.450967602431774139e-02,1.836339011788368225e-02,9.296403266489505768e-03,4.939895588904619217e-03,-3.667514398694038391e-02,-2.563148736953735352e-02,1.438164804130792618e-02,1.933827414177358150e-03,-4.792191088199615479e-02,-2.186342142522335052e-02,-5.448933225125074387e-03,-4.947353899478912354e-02,-2.967533655464649200e-02,3.315281867980957031e-02,-1.147323986515402794e-03,-1.155974250286817551e-02,-1.200473587960004807e-02,2.466091513633728027e-02,1.225683465600013733e-02,4.110960289835929871e-02,-4.559186100959777832e-02,-5.664087459444999695e-02,2.844902919605374336e-03,-1.898786425590515137e-02,-4.041362553834915161e-02,1.766019314527511597e-02,-3.045409359037876129e-02,1.898645237088203430e-02,-1.140507310628890991e-02,-5.206780135631561279e-02,2.085285447537899017e-02,2.456943877041339874e-02,-4.051323980093002319e-02,4.510169103741645813e-02,1.873305998742580414e-02,-9.932158514857292175e-03,-1.861459389328956604e-02,4.323238879442214966e-02,-2.753349579870700836e-02,-1.482703629881143570e-02,-2.056112326681613922e-02,1.571387052536010742e-02,-3.507244959473609924e-02,-1.728316210210323334e-02,-3.946530818939208984e-02,-4.530804976820945740e-02,4.633693955838680267e-03,-1.228951103985309601e-02,3.033308498561382294e-02,3.295062808319926262e-03,1.396161317825317383e-02,4.026254266500473022e-02,2.057363279163837433e-02,-9.696739725768566132e-03,-3.219866380095481873e-02,1.517637446522712708e-02,6.398779805749654770e-03,-3.226510435342788696e-02,-2.672956325113773346e-02,3.613559901714324951e-02,-5.514181219041347504e-03,-1.619740575551986694e-02,-2.174261771142482758e-02,-3.416478866711258888e-03,-3.408896550536155701e-02,-1.521723438054323196e-02,-2.273109555244445801e-02,-1.606413163244724274e-02,-3.815896809101104736e-02,8.819301612675189972e-03,-2.066968195140361786e-02,-1.367558352649211884e-02,-3.085295855998992920e-02,-3.264105319976806641e-02,2.513737976551055908e-02,-1.783133484423160553e-02,-1.453980524092912674e-02,3.561325743794441223e-02,-3.036418370902538300e-02,-2.499208599328994751e-02,3.382516652345657349e-02,2.021599560976028442e-02,3.083621151745319366e-02,-3.007069230079650879e-02,-4.342752695083618164e-02,-1.001905836164951324e-02,-1.897422596812248230e-02,-4.435347020626068115e-02,-3.410889208316802979e-02,4.419370088726282120e-03,2.121203765273094177e-02,-3.390330448746681213e-02,-3.936822712421417236e-02,1.793955080211162567e-02,-4.781473055481910706e-02,3.456525132060050964e-02,4.443047940731048584e-02,-3.892447799444198608e-02,-2.164814621210098267e-02,2.794227330014109612e-03,6.051707081496715546e-03,-8.671863004565238953e-03,1.076021976768970490e-02,-2.594654820859432220e-02,-3.489083843305706978e-03,-2.479163743555545807e-02,4.114899784326553345e-02,1.436654105782508850e-02,2.157507091760635376e-02,-2.611860446631908417e-02,3.136632964015007019e-02,1.688385382294654846e-02,-2.807177416980266571e-02,8.565068244934082031e-03,4.042651504278182983e-02,-1.888178661465644836e-02,3.740679100155830383e-02,4.015695303678512573e-03,-5.485030356794595718e-03,-8.322426117956638336e-03,-4.621759522706270218e-03,3.750246251001954079e-03,3.924741595983505249e-02,9.295575320720672607e-03,-3.501464053988456726e-02,-4.940092191100120544e-02,-1.257420168258249760e-03,5.994970444589853287e-03,3.156307339668273926e-02,-4.995513707399368286e-02,2.617128938436508179e-02,-1.929201371967792511e-02,-3.818071633577346802e-02,-4.786125943064689636e-02,-1.927608996629714966e-02,1.248218584805727005e-02,1.945923827588558197e-02,3.638552501797676086e-02,2.221648581326007843e-02,-1.376785524189472198e-02,2.465152554214000702e-02,-4.586848989129066467e-02,-2.995167486369609833e-02,-3.602609410881996155e-02,-7.441712659783661366e-05,-1.634114049375057220e-02,-4.908072203397750854e-02,-1.596565172076225281e-02,2.673778310418128967e-02,-8.660621009767055511e-03,3.360462933778762817e-02,-1.132870651781558990e-02,4.116693511605262756e-03,2.362255938351154327e-03,-1.080616470426321030e-02,-2.490838617086410522e-02,-4.585013538599014282e-02,4.433894995599985123e-03,2.215054817497730255e-02,-1.386127155274152756e-02,-3.561789169907569885e-03,-3.146677976474165916e-03,3.904704749584197998e-02,2.428380958735942841e-02,-3.287059068679809570e-02,2.223251573741436005e-02,1.109616272151470184e-02,-4.356468841433525085e-02,1.190965622663497925e-02,-3.057414479553699493e-02,-3.286731243133544922e-02,-4.180166870355606079e-02,-4.127158597111701965e-02,2.683576312847435474e-04,1.736332476139068604e-02,-3.020856529474258423e-02,-2.747038379311561584e-02,-7.508262060582637787e-03,3.512496873736381531e-02,1.308004902966786176e-05,1.952587440609931946e-02,2.869877964258193970e-02,-6.108513101935386658e-03,1.899183914065361023e-02,3.108511678874492645e-02,-6.200931966304779053e-03,-1.752632111310958862e-02,-8.360481006093323231e-04,2.004960924386978149e-02,-2.584258280694484711e-02,-2.205355092883110046e-02,-1.941725425422191620e-02,-4.085438698530197144e-02,2.841734141111373901e-02,3.084888681769371033e-02,3.191360831260681152e-02,-2.808717079460620880e-02,1.297033019363880157e-02,3.098493628203868866e-02,8.974784985184669495e-03,3.381415084004402161e-02,1.805365830659866333e-02,-3.075851127505302429e-02,6.247877608984708786e-03,-3.753896057605743408e-02,1.483410876244306564e-02,-3.565320000052452087e-02,-1.666668918915092945e-03,-4.464147612452507019e-02,2.384970523416996002e-02,-2.288346923887729645e-02,1.951005682349205017e-02,-1.199624035507440567e-02,9.987859055399894714e-03,1.977367512881755829e-02,3.077671304345130920e-02,-2.984499000012874603e-02,3.182541346177458763e-03,2.386568114161491394e-02,-2.307421714067459106e-02,3.136123705189675093e-04,2.722197026014328003e-02,-3.599856048822402954e-03,-2.868131734430789948e-02,1.101175509393215179e-02,3.565685451030731201e-02,-1.940011978149414062e-02,-1.450011972337961197e-02,4.847495816648006439e-03,2.947081811726093292e-02,-1.134499628096818924e-02,1.497913058847188950e-02,-2.871055155992507935e-02,9.997468441724777222e-03,2.913784980773925781e-02,-1.115735433995723724e-02,2.120658755302429199e-02,2.676323056221008301e-03,2.068225294351577759e-02,-7.697725668549537659e-03,1.640804670751094818e-02,-2.256491780281066895e-02,-4.232728853821754456e-02,-3.788495436310768127e-02,1.295161899179220200e-02,-2.009607851505279541e-02,4.954388830810785294e-03,-3.810938820242881775e-02,-3.432462736964225769e-02,-1.017570029944181442e-02,1.329933013767004013e-02,2.794978022575378418e-02,3.390267491340637207e-02,-3.084944933652877808e-02,2.592688053846359253e-02,-3.230401128530502319e-02,3.384523466229438782e-02,1.088471338152885437e-02,-3.742079809308052063e-02,-3.120106458663940430e-02,-1.980660296976566315e-02,-1.032168162055313587e-03,-2.383658103644847870e-02,-3.071719035506248474e-02,3.068629279732704163e-02,3.143649175763130188e-02,2.690456993877887726e-02,2.454895153641700745e-02,-4.056210070848464966e-02,-3.332870453596115112e-02,-4.183612018823623657e-02,-3.260047361254692078e-02,-9.204237139783799648e-04,5.214728880673646927e-03,3.731564432382583618e-02,1.420073956251144409e-02,3.032970800995826721e-02,2.018940821290016174e-02,-3.331097215414047241e-02,5.922722048126161098e-04,-2.602519094944000244e-02,9.372975677251815796e-03,-1.363023277372121811e-02,3.568917140364646912e-02,1.789288409054279327e-02,3.308522328734397888e-02,-2.137643843889236450e-02,7.820287719368934631e-03,2.486650645732879639e-02,2.390991710126399994e-02,3.155990969389677048e-03,4.398296587169170380e-03,-3.002361580729484558e-02,3.064369224011898041e-02,-3.352653235197067261e-02,2.426654472947120667e-02,-1.774141192436218262e-02,-3.441596403717994690e-02,-4.442643374204635620e-02,-1.234381645917892456e-02,-1.976024592295289040e-03,3.629781678318977356e-02,1.448416523635387421e-02,3.960669413208961487e-02,1.100538019090890884e-02,-1.758480677381157875e-03,3.527164459228515625e-03,-4.523228108882904053e-02,-3.691653534770011902e-02,8.668773807585239410e-03,-6.965857464820146561e-03,-3.314511850476264954e-02,-2.739718928933143616e-02,4.993672017008066177e-03,1.276059821248054504e-02
