-8.766555227339267731e-03,-9.693102911114692688e-03,-1.251648087054491043e-02,2.521018963307142258e-03,2.107152831740677357e-04,-1.068195607513189316e-02,5.537982098758220673e-03,2.552107442170381546e-03,-5.369705148041248322e-03,-5.437507294118404388e-03,-6.207809783518314362e-03,1.269477978348731995e-02,-2.561726141721010208e-03,-2.898992737755179405e-03,1.146087422966957092e-02,-1.570202992297708988e-03,-2.890781965106725693e-03,2.270983532071113586e-03,5.272941663861274719e-03,4.044561646878719330e-03,7.887181709520518780e-04,4.354002419859170914e-03,1.931098522618412971e-03,-1.406491734087467194e-03,-1.469074515625834465e-03,1.354840584099292755e-03,6.838648114353418350e-03,1.174246775917708874e-03,-4.099986515939235687e-03,5.217354628257453442e-04,-7.959396461956202984e-04,5.657469388097524643e-03,-7.888058200478553772e-03,8.671946823596954346e-03,1.860680873505771160e-03,5.410875193774700165e-03,-1.098431088030338287e-02,7.758745923638343811e-03,-2.771518193185329437e-03,-1.521769794635474682e-03,6.732186768203973770e-03,9.166356176137924194e-03,9.639491327106952667e-03,6.707655731588602066e-03,-1.055746618658304214e-02,5.108291283249855042e-03,-9.653195738792419434e-03,1.131439022719860077e-02,-2.164783189073204994e-03,2.866257214918732643e-03,-4.611949436366558075e-03,3.758859587833285332e-03,-2.658099634572863579e-03,5.423205904662609100e-03,3.554257331416010857e-03,1.306954585015773773e-02,-5.565868923440575600e-04,1.179308816790580750e-02,9.851181675912812352e-05,4.300542175769805908e-03,-3.856046823784708977e-03,5.048125982284545898e-03,1.962625887244939804e-03,5.115581676363945007e-03,7.034856360405683517e-03,1.036188006401062012e-02,6.787154125049710274e-04,-4.073561169207096100e-03,-7.589218206703662872e-03,-3.252542344853281975e-03,5.481380503624677658e-03,-6.011663004755973816e-03,-5.034239962697029114e-03,-1.684866147115826607e-03,2.493228996172547340e-03,5.497431848198175430e-03,1.345241628587245941e-02,1.209876616485416889e-03,4.844496492296457291e-03,-5.687555763870477676e-03,6.618527695536613464e-04,-8.525443263351917267e-03,1.056610490195453167e-03,3.854189533740282059e-03,3.452403005212545395e-03,6.427222862839698792e-03,-7.738272193819284439e-03,2.700342331081628799e-03,-7.964202202856540680e-03,3.221087856218218803e-03,-9.501039981842041016e-03,3.298801137134432793e-03,-9.890315122902393341e-03,1.245239400304853916e-03,5.197278223931789398e-03,5.797161138616502285e-04,2.743185032159090042e-03,-1.867789309471845627e-03,-1.007699873298406601e-02,2.646990178618580103e-04,1.486266031861305237e-02,-5.535151343792676926e-03,-1.401576492935419083e-02,8.579433895647525787e-03,9.492776589468121529e-04,-3.506085835397243500e-03,-5.926867015659809113e-03,-1.768762059509754181e-02,-4.022651119157671928e-04,-1.741082407534122467e-02,2.128384308889508247e-03,6.531368009746074677e-03,6.477934774011373520e-03,9.339566342532634735e-03,-1.158606633543968201e-02,1.364097697660326958e-03,1.696496037766337395e-03,2.819767454639077187e-03,-3.021242562681436539e-03,6.728155072778463364e-03,-1.741771586239337921e-03,-9.121329057961702347e-04,-5.815431941300630569e-03,9.631948778405785561e-04,-4.042279440909624100e-03,1.186584215611219406e-02,-3.947123419493436813e-03,1.979255350306630135e-03,-4.974015522748231888e-03,-1.294893445447087288e-03,-5.156198982149362564e-03,-9.773308411240577698e-03,-6.318083032965660095e-03,-2.431726170470938087e-04,3.414565231651067734e-03,-8.143639191985130310e-03,-3.628981765359640121e-03,1.179473241791129112e-03,-2.235863124951720238e-03,3.009550971910357475e-03,-6.100811064243316650e-03,1.960282446816563606e-03,9.641832672059535980e-03,2.250957768410444260e-03,-1.723687746562063694e-03,-2.369597787037491798e-03,-9.354249574244022369e-03,-2.315927995368838310e-03,-1.949192490428686142e-03,6.826699711382389069e-03,2.162832533940672874e-03,-1.386289019137620926e-02,6.949845701456069946e-03,-2.250357065349817276e-03,4.339863546192646027e-03,-8.611061610281467438e-03,4.174126777797937393e-03,-5.895001348108053207e-03,-4.436795134097337723e-03,-2.544512040913105011e-03,-1.384944189339876175e-02,2.955914707854390144e-03,-6.505586206912994385e-03,-1.679731765761971474e-03,-4.150806926190853119e-03,-8.544092997908592224e-03,1.997493207454681396e-03,5.708821583539247513e-03,-1.495829084888100624e-03,-8.444908075034618378e-03,-7.662315852940082550e-03,-4.147909115999937057e-03,-1.339745358563959599e-03,-7.146269083023071289e-03,-1.441151369363069534e-03,9.217977640219032764e-05,7.122943177819252014e-03,8.992716670036315918e-03,-6.026875693351030350e-03,6.051052361726760864e-03,-7.882473990321159363e-03,1.425146474502980709e-03,1.149601186625659466e-03,-1.120800268836319447e-03,7.852621376514434814e-03,3.292888402938842773e-03,9.489445365034043789e-04,7.031683344393968582e-03,3.831458976492285728e-03,-1.011693198233842850e-02,-9.643794037401676178e-03,-1.249217777512967587e-03,-9.218007326126098633e-04,3.025367623195052147e-03,9.682866744697093964e-03,-6.939601153135299683e-03,1.907508447766304016e-02,-3.323046839796006680e-04,-1.702909939922392368e-03,-6.363485939800739288e-03,-6.948296213522553444e-04,-5.114066880196332932e-03,-1.405413355678319931e-02,3.384482813999056816e-03,5.875600501894950867e-03,-3.088619327172636986e-03,-9.413580410182476044e-03,8.148537948727607727e-03,4.465440753847360611e-03,4.397186916321516037e-03,-4.041122738271951675e-03,-7.507600821554660797e-03,5.800131475552916527e-04,9.554566349834203720e-04,2.405304461717605591e-03,-4.065537650603801012e-04,-5.051990505307912827e-03,-5.219288170337677002e-03,5.505354492925107479e-04,-9.392055799253284931e-04,4.747173283249139786e-03,-2.125412924215197563e-03,-1.316400244832038879e-02,7.112900726497173309e-03,4.438731819391250610e-03,-2.227981109172105789e-03,-4.825485404580831528e-03,-1.991491764783859253e-03,8.006748248590156436e-05,-4.745742306113243103e-03,6.743051111698150635e-03,-5.838673096150159836e-03,-1.538588781841099262e-03,-1.430424954742193222e-02,1.177408639341592789e-02,-5.344743840396404266e-04,9.866933105513453484e-04,-7.631662883795797825e-04,-3.307582519482821226e-04,-2.907112240791320801e-03,5.412298720329999924e-03,-4.585323389619588852e-03,-1.413628051523119211e-04,-9.502672590315341949e-03,-1.396977342665195465e-02,7.605795748531818390e-03,-8.431693539023399353e-03,-1.143295597285032272e-02,9.657086804509162903e-03,-2.930526621639728546e-03,9.803548455238342285e-03,-9.587004780769348145e-03,-6.965330801904201508e-03,-7.349081715801730752e-05,2.135970862582325935e-03,-4.091927781701087952e-03,-3.323982004076242447e-03,2.574228448793292046e-03,9.730521589517593384e-03,-3.353225765749812126e-03,-2.031267620623111725e-03,-4.797613248229026794e-03,2.962110564112663269e-03,3.705214476212859154e-03,-8.448240347206592560e-03,3.631967992987483740e-04,-9.005392901599407196e-03,1.837634830735623837e-03,1.572134345769882202e-02,9.708860889077186584e-03,9.978770976886153221e-04,-3.714461810886859894e-03,8.623261936008930206e-03,-1.839473843574523926e-02,3.575162030756473541e-03,-1.109331753104925156e-02,-1.130908168852329254e-02,-8.742372505366802216e-03,6.753833964467048645e-03,-8.670840412378311157e-03,1.194032933562994003e-02,-9.778420440852642059e-03,-4.584529437124729156e-03,4.717200354207307100e-04,6.603557616472244263e-03,-2.666781656444072723e-03,2.171182772144675255e-03,-4.109184257686138153e-03,-6.282143760472536087e-03,4.569527300191111863e-05,1.364279887638986111e-03,-1.740983803756535053e-03,7.615153212100267410e-03,2.190281404182314873e-03,-7.803396321833133698e-03,-2.322438638657331467e-03,-3.778789658099412918e-03,-3.746967064216732979e-03,2.896607154980301857e-03,6.207375554367899895e-04,1.195628196001052856e-03,-5.644358228892087936e-03,-1.041364762932062149e-02,1.097014732658863068e-02,-5.450749304145574570e-03,3.573673777282238007e-03,1.096683088690042496e-03,7.300805766135454178e-03,2.042808104306459427e-03,-2.751627238467335701e-03,2.561745932325720787e-03,8.096905425190925598e-03,-3.651599399745464325e-03,-7.398833055049180984e-03,2.636232413351535797e-03,-3.982523456215858459e-03,9.923672769218683243e-04,-5.159242078661918640e-03,-6.480300799012184143e-03,3.760011168196797371e-03,-2.978498581796884537e-03,-1.806442509405314922e-03,1.318442169576883316e-02,7.011646404862403870e-03,-2.492936560884118080e-03,-1.141945016570389271e-03,1.679807784967124462e-03,-2.538398839533329010e-04,4.230536986142396927e-03,-3.542394610121846199e-03,-3.564443206414580345e-03,5.981009919196367264e-03,9.314272552728652954e-03,1.127997785806655884e-02,4.327107686549425125e-03,-1.895962050184607506e-03,6.872218102216720581e-03,5.482020787894725800e-03,-1.528895087540149689e-02,-1.271440275013446808e-02,-6.054236553609371185e-03,3.887698054313659668e-03,9.180681663565337658e-04,9.970481041818857193e-04,-4.200317896902561188e-03,9.804191067814826965e-03,1.463384105591103435e-04,-9.178058244287967682e-03,-1.083591580390930176e-02,-6.356463301926851273e-03,7.421742775477468967e-04,-6.159930024296045303e-03,1.457755279261618853e-04,8.143098093569278717e-03,2.646885986905544996e-04,-4.129005596041679382e-03,-4.841256886720657349e-03,3.107351716607809067e-03,-2.267280127853155136e-03,4.719513934105634689e-03,1.435984391719102859e-02,-6.085612811148166656e-03,2.159191062673926353e-03,-8.677354198880493641e-04,-7.087996229529380798e-03,1.170609425753355026e-02,-7.377211004495620728e-03,-3.156173508614301682e-03,-7.435215637087821960e-03,-6.187366787344217300e-03,-1.387205626815557480e-02,-3.947009798139333725e-03,2.002010587602853775e-03,2.519729780033230782e-03,-6.950790528208017349e-03,-8.507614955306053162e-03,9.431537473574280739e-04,3.451460273936390877e-03,-9.005467290990054607e-04,9.162722155451774597e-03,5.201535765081644058e-03,-3.663737792521715164e-03,1.345219742506742477e-02,-3.029573941603302956e-03,-1.371162384748458862e-02,-1.313022221438586712e-03,-1.066653872840106487e-03,3.067048732191324234e-03,3.171914489939808846e-03,-1.181043405085802078e-02,-2.317018108442425728e-03,-6.026325281709432602e-03,3.029287909157574177e-04,8.305708877742290497e-03,-1.118648238480091095e-02,2.939859637990593910e-03,2.260057663079351187e-04,4.302159883081912994e-03,9.836300276219844818e-03,-1.557727227918803692e-04,4.730302840471267700e-03,-3.116679145023226738e-03,-2.337616402655839920e-03,2.983341226354241371e-03,-1.166342874057590961e-03,4.478568676859140396e-03,-1.169519266113638878e-03,-3.352580126374959946e-03,2.917852252721786499e-03,2.240193309262394905e-03,6.549343233928084373e-04,-4.263610113412141800e-03,4.677099175751209259e-03,3.617540001869201660e-03,6.279407534748315811e-04,-5.586956162005662918e-03,3.399654291570186615e-03,-3.854237962514162064e-03,8.570156991481781006e-03,1.974963117390871048e-03,-9.305027197115123272e-04,2.210217528045177460e-03,-2.913127653300762177e-03,-2.304912544786930084e-03,-4.562970250844955444e-03,-3.418682143092155457e-03,-9.762170520843937993e-05,-1.071834377944469452e-02,4.616518854163587093e-04,1.858741976320743561e-03,1.445387024432420731e-04,-4.008049145340919495e-03,1.399299129843711853e-03,-1.752596232108771801e-03,-2.078703837469220161e-03,-6.715212482959032059e-03,1.187775935977697372e-02,-7.800335064530372620e-03,4.361504223197698593e-03,3.655222011730074883e-03,6.158402655273675919e-03,7.163833361119031906e-03,-5.689249839633703232e-03,-4.217360401526093483e-04,-5.274559836834669113e-03,-8.163525722920894623e-03,1.002638693898916245e-02,-1.004159357398748398e-02,-1.655957894399762154e-03,3.519896185025572777e-03,1.352747669443488121e-03,3.418486565351486206e-03,2.097886288538575172e-03,-1.187591999769210815e-02,-1.827801344916224480e-03,-3.906910133082419634e-04,5.963396746665239334e-03,-2.859438303858041763e-03,-6.568764336407184601e-03,-5.553219001740217209e-03,1.100572198629379272e-02,-1.627502217888832092e-02,2.814179984852671623e-03,-2.692091977223753929e-03,-1.264439243823289871e-02,-4.369725938886404037e-03,-7.262492552399635315e-03,-6.646229419857263565e-03,-8.503620512783527374e-03,8.611244149506092072e-03,-3.818515979219228029e-04,1.075538247823715210e-02,-1.573213376104831696e-03,-2.874460536986589432e-03,6.585776805877685547e-03,8.327561430633068085e-03,-2.265927148982882500e-03,-5.247906665317714214e-04,-2.789948484860360622e-04,6.715186173096299171e-04,-4.031926393508911133e-03,-3.816338256001472473e-03,6.999280769377946854e-03,1.998969586566090584e-03,3.004465019330382347e-03,-3.664301708340644836e-03,-1.643961528316140175e-03,3.028325503692030907e-03,7.342809345573186874e-03,-7.152839098125696182e-03,1.250250381417572498e-03,1.554493210278451443e-03,1.928893761942163110e-04,-5.487168207764625549e-03,5.902436096221208572e-03,5.620196927338838577e-03,7.729952689260244370e-03,1.558629679493606091e-03,-7.015310693532228470e-03,6.455357186496257782e-03,-8.658596198074519634e-04,-4.380951169878244400e-03,-7.056426722556352615e-03,5.164238391444087029e-04,-1.160247530788183212e-02,-3.140844404697418213e-03,4.575153812766075134e-03,-5.866843275725841522e-03,8.386164903640747070e-03,5.214491975493729115e-04,-4.268672782927751541e-03,-7.346055004745721817e-03
