3.268530592322349548e-02,-2.182151749730110168e-02,2.980570867657661438e-02,-3.693544119596481323e-02,-5.350064020603895187e-04,3.543384000658988953e-02,1.432095537893474102e-03,-1.972460374236106873e-02,3.815872222185134888e-02,3.289140015840530396e-02,2.758617699146270752e-02,2.103323489427566528e-02,2.638232894241809845e-02,-5.096315219998359680e-02,2.831718511879444122e-02,-2.936887182295322418e-02,-1.957074180245399475e-02,-1.243730355054140091e-02,-6.802265532314777374e-03,-2.075336314737796783e-02,-7.622708566486835480e-03,8.095039054751396179e-03,-1.489194575697183609e-02,2.181387133896350861e-02,2.433767355978488922e-02,2.172396890819072723e-02,-3.034793026745319366e-02,6.038403138518333435e-03,2.502331696450710297e-02,-4.026458039879798889e-02,4.565312340855598450e-02,1.171795092523097992e-02,2.816696092486381531e-02,-3.355458378791809082e-02,-2.891588024795055389e-02,-3.053163876757025719e-03,-1.759439334273338318e-02,-1.620494946837425232e-02,-3.193959593772888184e-02,-5.267480388283729553e-02,3.818157687783241272e-02,-2.570865303277969360e-02,1.979816704988479614e-02,1.524152327328920364e-02,2.933875657618045807e-02,-8.471920154988765717e-03,4.829158261418342590e-02,2.101777680218219757e-02,4.239297285676002502e-02,3.468749811872839928e-03,4.149143118411302567e-03,4.169289395213127136e-02,-2.533147344365715981e-03,1.370723266154527664e-02,4.468498378992080688e-02,3.934942558407783508e-02,2.409318648278713226e-02,3.984990715980529785e-02,7.292802445590496063e-03,2.129753492772579193e-02,3.798339515924453735e-02,-3.084723465144634247e-02,-9.668976068496704102e-03,3.309429809451103210e-02,-2.530671656131744385e-02,-2.869773283600807190e-02,3.431799588724970818e-03,2.732897410169243813e-03,-3.722582757472991943e-02,-1.536449044942855835e-02,-3.677889704704284668e-02,-1.286440901458263397e-02,3.310299292206764221e-02,2.857475541532039642e-02,8.883274160325527191e-03,4.332745913416147232e-03,2.689606137573719025e-02,-3.331371024250984192e-02,-4.484684392809867859e-02,3.797823935747146606e-02,-4.220905900001525879e-02,-1.721232198178768158e-02,1.749411039054393768e-02,-3.223472461104393005e-02,-3.120573982596397400e-02,-1.817823946475982666e-02,1.723882369697093964e-02,2.889537252485752106e-03,-1.049294229596853256e-02,2.325428836047649384e-02,4.529610741883516312e-03,1.828796416521072388e-02,-4.801116883754730225e-03,3.474709764122962952e-02,3.489153087139129639e-02,3.344176337122917175e-02,-3.627572581171989441e-02,-3.471790254116058350e-02,-1.090345066040754318e-02,3.527527675032615662e-02,1.548735983669757843e-02,-3.973837941884994507e-02,-2.982636541128158569e-02,-1.469885557889938354e-02,4.707454517483711243e-02,-5.122065916657447815e-02,2.548008970916271210e-02,4.006709530949592590e-02,2.976159378886222839e-02,-3.513705730438232422e-02,-1.358493510633707047e-02,1.885406859219074249e-02,3.642421215772628784e-02,-5.425761919468641281e-03,-1.341666840016841888e-02,4.038134589791297913e-02,-4.442582279443740845e-02,-2.498625032603740692e-02,-3.192618489265441895e-02,1.810363866388797760e-02,2.606763737276196480e-03,-2.893790043890476227e-02,-2.058788202702999115e-02,-2.538163959980010986e-02,-9.245201945304870605e-03,-2.412373013794422150e-02,1.446246914565563202e-02,-8.382955566048622131e-03,-5.036381259560585022e-02,-1.461126003414392471e-02,-4.174621775746345520e-02,-3.329827263951301575e-02,-3.608153760433197021e-02,1.502167899161577225e-02,-1.784021221101284027e-02,4.353811219334602356e-02,2.324935048818588257e-02,5.932780727744102478e-02,3.343972191214561462e-02,3.062453120946884155e-02,-5.505676940083503723e-02,4.771809652447700500e-02,-3.771936148405075073e-02,6.056826561689376831e-02,-6.490983068943023682e-02,-1.148288510739803314e-02,-4.744445160031318665e-02,-2.366355061531066895e-02,3.551113884896039963e-03,-1.935123116709291935e-03,4.987660050392150879e-02,8.007862418889999390e-02,2.326576597988605499e-02,-1.704346202313899994e-02,3.008876927196979523e-03,2.224249392747879028e-02,2.436110749840736389e-02,-1.639302447438240051e-02,-6.263995915651321411e-02,-3.671302646398544312e-02,-1.414659433066844940e-02,1.914741657674312592e-02,-1.239323290064930916e-03,-2.753206342458724976e-02,-4.545048996806144714e-02,7.615047506988048553e-03,1.467675319872796535e-03,1.216753944754600525e-02,-2.820357307791709900e-02,9.064274840056896210e-03,1.334391068667173386e-02,4.275686293840408325e-02,-3.846362605690956116e-02,-1.024127285927534103e-02,-7.048000395298004150e-02,-6.221738085150718689e-02,-1.349209155887365341e-02,-1.435183174908161163e-02,-2.643826417624950409e-03,-4.736229032278060913e-02,1.700419932603836060e-02,-1.621711626648902893e-02,-1.496391370892524719e-02,3.627085685729980469e-02,5.891162436455488205e-03,-1.280207093805074692e-02,2.010373026132583618e-02,9.212522208690643311e-02,-8.555680513381958008e-03,-1.307544950395822525e-02,-2.173077315092086792e-02,1.875882223248481750e-02,-1.138586644083261490e-02,5.795221310108900070e-03,4.799126833677291870e-02,-1.985890977084636688e-02,7.289406843483448029e-03,-4.451680928468704224e-02,-2.170129679143428802e-03,-3.773515671491622925e-02,-9.575367905199527740e-03,3.763987449929118156e-03,-1.278593577444553375e-02,-1.118903607130050659e-02,1.738969795405864716e-02,5.939917638897895813e-02,6.187711842358112335e-03,5.206467956304550171e-02,-4.196207597851753235e-02,-5.007107928395271301e-02,1.163970306515693665e-02,-2.814145758748054504e-02,2.819999121129512787e-02,4.155137762427330017e-02,1.975507102906703949e-02,-9.831146150827407837e-02,-9.849177673459053040e-03,-3.018695488572120667e-02,-1.052183751016855240e-02,-2.004024758934974670e-02,-2.562453970313072205e-02,-1.425147429108619690e-02,-3.528518229722976685e-02,-3.661170601844787598e-03,2.689259313046932220e-02,1.992509514093399048e-02,-4.163479432463645935e-02,3.389639779925346375e-02,-4.639286547899246216e-02,3.921580966562032700e-03,-1.777698099613189697e-02,-2.209922112524509430e-02,-2.839433401823043823e-02,-4.877741634845733643e-02,6.147415190935134888e-02,-1.491033285856246948e-02,-1.494676247239112854e-02,-4.213978070765733719e-03,-3.918959572911262512e-02,-1.175828371196985245e-02,2.488804608583450317e-02,-6.021413952112197876e-03,-2.512572146952152252e-02,-3.031852655112743378e-02,6.310502439737319946e-02,5.086899269372224808e-03,1.039973739534616470e-02,4.058163613080978394e-02,4.985250998288393021e-03,5.789634957909584045e-02,1.059622317552566528e-02,1.879173330962657928e-02,-2.028830908238887787e-02,5.526378378272056580e-02,-3.395231440663337708e-02,-3.899570321664214134e-03,-2.259286120533943176e-02,3.245821595191955566e-02,1.697794161736965179e-02,-2.489625476300716400e-03,-1.643802970647811890e-02,-5.848112702369689941e-02,4.457079619169235229e-02,-1.085211522877216339e-03,-4.748930409550666809e-02,-2.108220942318439484e-04,1.405032584443688393e-03,-1.656480506062507629e-02,-1.430689729750156403e-02,-1.309694815427064896e-02,-1.656793430447578430e-02,1.737127266824245453e-02,-1.306314021348953247e-02,-3.176200436428189278e-03,2.350055240094661713e-02,5.012843757867813110e-02,-1.413682475686073303e-02,-1.804574741981923580e-03,-3.161231800913810730e-02,-2.328304201364517212e-02,1.215954963117837906e-02,-2.671137079596519470e-02,-3.856864199042320251e-02,-6.627231370657682419e-03,1.557915844023227692e-02,2.098936028778553009e-02,-7.304201833903789520e-03,-8.486477285623550415e-02,2.619352191686630249e-02,-4.008514434099197388e-02,3.131481260061264038e-02,7.301627099514007568e-02,-2.695289812982082367e-02,-5.827150307595729828e-03,-3.764387452974915504e-03,7.605674117803573608e-02,-6.623101886361837387e-03,-1.810028962790966034e-02,3.251411020755767822e-02,2.800503931939601898e-02,1.588668115437030792e-02,1.366312988102436066e-02,-1.475476007908582687e-02,3.007194772362709045e-02,-1.462943479418754578e-02,1.295282691717147827e-02,7.250506430864334106e-02,1.054852735251188278e-02,6.236633285880088806e-03,2.647723257541656494e-02,9.627888910472393036e-03,-7.279651612043380737e-02,-4.801724478602409363e-02,3.605723381042480469e-02,3.384218551218509674e-03,1.583014801144599915e-02,-1.465827599167823792e-02,3.327921032905578613e-02,2.187047712504863739e-02,-4.602044355124235153e-03,9.359586983919143677e-03,-1.005051471292972565e-02,-4.554207623004913330e-02,-1.504671946167945862e-02,-5.917886272072792053e-03,-1.475497963838279247e-03,-1.853033713996410370e-02,-9.353637695312500000e-03,-3.979812189936637878e-02,4.686680436134338379e-02,-3.658418357372283936e-02,3.549534454941749573e-02,-6.445799022912979126e-02,-1.914159581065177917e-02,1.934193074703216553e-03,4.166527837514877319e-02,8.029019832611083984e-02,1.898756163427606225e-04,-6.165435165166854858e-02,-1.661616191267967224e-02,-2.319420687854290009e-02,2.112683840095996857e-02,2.204587124288082123e-02,-3.302204608917236328e-02,-4.365949705243110657e-02,-7.569279056042432785e-03,-1.584601961076259613e-02,-1.302944682538509369e-02,5.575277376919984818e-03,-1.803431473672389984e-02,1.083371974527835846e-02,-2.638784237205982208e-02,3.976949676871299744e-02,-1.119433902204036713e-02,2.527189627289772034e-02,-3.456955775618553162e-02,-2.438197657465934753e-02,6.610520929098129272e-02,-2.782492432743310928e-03,-1.610743626952171326e-02,-3.596328571438789368e-02,5.452255159616470337e-02,1.893995143473148346e-02,2.256309986114501953e-02,1.403630711138248444e-02,-6.692913174629211426e-02,2.944810874760150909e-02,2.669224143028259277e-02,-8.852813392877578735e-03,5.074276588857173920e-03,5.221337452530860901e-02,-2.235172502696514130e-02,-2.455747872591018677e-02,-5.082196369767189026e-02,1.113102305680513382e-03,-3.460491821169853210e-02,-2.763540484011173248e-02,-7.911826483905315399e-03,3.792095556855201721e-02,-4.645603150129318237e-02,2.232686849310994148e-03,6.120046228170394897e-02,-5.332337692379951477e-02,-2.770565822720527649e-02,8.851199527271091938e-05,2.825176576152443886e-03,2.354927361011505127e-02,3.870420157909393311e-02,3.044584766030311584e-02,3.163620084524154663e-02,-1.842397637665271759e-02,-5.314792040735483170e-03,-5.536225810647010803e-02,-2.330364100635051727e-02,-6.773040443658828735e-02,3.292405046522617340e-03,-3.787086531519889832e-02,6.357153877615928650e-03,-3.434480866417288780e-03,3.964426368474960327e-02,-3.088739141821861267e-02,1.672989688813686371e-02,-1.999986544251441956e-02,-1.706140115857124329e-03,1.354033127427101135e-02,4.785914719104766846e-02,6.328855454921722412e-02,-2.718077041208744049e-02,-2.203785441815853119e-02,4.630826041102409363e-02,-2.292067371308803558e-02,1.672331988811492920e-02,-6.196402013301849365e-02,6.096643581986427307e-02,-1.506182458251714706e-02,2.525500766932964325e-02,1.037089247256517410e-02,-3.391464427113533020e-02,1.334884855896234512e-02,-1.585812866687774658e-02,7.738895714282989502e-03,6.201084330677986145e-02,-3.082628175616264343e-02,-1.327720563858747482e-02,-2.896387875080108643e-02,-2.456008829176425934e-02,2.010160870850086212e-02,-1.881585270166397095e-02,3.016723319888114929e-02,2.277055382728576660e-02,-9.068968705832958221e-03,-4.035406187176704407e-02,-6.227193772792816162e-02,-1.865113154053688049e-02,-1.074334513396024704e-02,3.881993889808654785e-02,4.721292108297348022e-02,-3.090205788612365723e-02,-6.768471747636795044e-02,1.389138773083686829e-02,-5.457575246691703796e-02,3.574227169156074524e-02,-5.429018661379814148e-02,5.236665718257427216e-03,-1.780788041651248932e-02,-2.879510633647441864e-02,-2.314347214996814728e-02,3.656848100945353508e-03,1.036394461989402771e-01,2.696245536208152771e-02,1.391531713306903839e-02,8.962728083133697510e-03,-4.589597508311271667e-02,-7.137105613946914673e-02,5.756959691643714905e-02,-2.580826543271541595e-02,3.552784398198127747e-02,-3.687173500657081604e-02,2.260057022795081139e-03,3.598828241229057312e-02,6.141913123428821564e-03,-4.850581288337707520e-02,3.061298280954360962e-02,1.485586352646350861e-02,-2.984796836972236633e-02,-4.094661027193069458e-02,3.738335892558097839e-02,9.230098128318786621e-02,5.873300507664680481e-02,-4.864732909481972456e-04,7.596558332443237305e-02,1.069241575896739960e-02,-3.109135478734970093e-02,-1.277329307049512863e-02,8.685157634317874908e-03,3.171458467841148376e-02,-2.224489115178585052e-02,5.252233892679214478e-02,3.817150602117180824e-03,-4.498884454369544983e-02,-3.077401779592037201e-02,4.981699958443641663e-02,1.196387596428394318e-02,-1.252192188985645771e-03,-6.047038361430168152e-03,4.290038719773292542e-02,-2.498696558177471161e-02,3.769421949982643127e-03,4.245797463227063417e-04,-3.984653204679489136e-02,-3.890094533562660217e-02,5.339867435395717621e-03,1.272986177355051041e-02,-5.996420606970787048e-02,-1.681122696027159691e-03,8.143791928887367249e-03,3.936117142438888550e-02,-2.758993580937385559e-02,-2.228830941021442413e-02,-8.553717052564024925e-04,-2.008022181689739227e-02,2.321099862456321716e-02,-1.613928377628326416e-02,-8.958282880485057831e-03,6.681624054908752441e-02,-2.271910756826400757e-02,2.770796045660972595e-02,-1.585170999169349670e-02,-1.435303944163024426e-03,-3.459101775661110878e-03,-1.674185693264007568e-02,3.648477792739868164e-02
