-2.758176624774932861e-02,1.942399889230728149e-02,1.107492391020059586e-02,3.291760385036468506e-02,2.449998818337917328e-02,2.242108806967735291e-03,1.478048413991928101e-02,-5.385255813598632812e-02,5.324187129735946655e-02,2.416749484837055206e-02,7.968785241246223450e-03,-2.157663740217685699e-02,-4.962640628218650818e-02,-3.334901109337806702e-02,-2.974647097289562225e-02,-1.982355676591396332e-02,3.065081126987934113e-02,-4.256943985819816589e-02,2.884475514292716980e-02,-4.255684465169906616e-02,2.854288183152675629e-02,-3.220343589782714844e-02,1.234373357146978378e-02,1.571082137525081635e-02,3.064111433923244476e-02,-2.579307183623313904e-02,-2.076336741447448730e-02,2.698121033608913422e-02,9.455645456910133362e-03,-9.474010206758975983e-03,-5.124209076166152954e-02,-8.973587537184357643e-04,-3.795567899942398071e-02,4.673294723033905029e-02,4.608505871146917343e-03,-8.568453602492809296e-03,2.366446144878864288e-02,-2.061029151082038879e-02,-2.476260811090469360e-02,-9.813142009079456329e-03,-1.175391022115945816e-02,-2.440501190721988678e-02,6.177082832437008619e-05,2.861850662156939507e-03,1.667623780667781830e-02,7.059981673955917358e-02,3.050867468118667603e-02,-3.499895706772804260e-02,-4.426592588424682617e-02,1.429333444684743881e-02,4.738070536404848099e-03,-2.683297358453273773e-02,-2.228800952434539795e-02,-1.702050119638442993e-02,2.851044014096260071e-02,-4.261951148509979248e-02,4.453490674495697021e-02,1.206082757562398911e-02,-1.571589894592761993e-02,-2.773871086537837982e-02,1.135588064789772034e-02,-1.273967605084180832e-02,1.778111234307289124e-02,-4.590563848614692688e-02,-5.871549714356660843e-03,-2.941793948411941528e-02,-4.304381087422370911e-02,-1.637630537152290344e-02,-5.067551508545875549e-03,-2.169436588883399963e-02,-1.722403988242149353e-02,7.011633366346359253e-03,-1.157046202570199966e-02,2.416761219501495361e-02,-3.211835026741027832e-02,-1.727879233658313751e-02,-1.180256623774766922e-02,1.741939038038253784e-02,-5.919222254306077957e-03,5.274710129015147686e-04,-3.365113213658332825e-02,3.513235226273536682e-02,-5.021434649825096130e-02,2.972011826932430267e-02,2.750600501894950867e-02,4.805928841233253479e-02,-1.187853235751390457e-02,-1.253674924373626709e-02,1.565773598849773407e-02,6.294694263488054276e-03,2.926566451787948608e-02,2.855896763503551483e-02,4.704986140131950378e-02,-2.093006111681461334e-02,-1.805043895728886127e-03,-4.022614657878875732e-02,7.811110466718673706e-02,-4.430232942104339600e-02,1.687965169548988342e-02,-3.297758847475051880e-02,-6.881097331643104553e-03,-2.952568791806697845e-02,-5.959133617579936981e-03,-6.463329307734966278e-03,-2.268435992300510406e-02,3.620323538780212402e-02,-4.753570631146430969e-02,-2.950849942862987518e-02,-3.191361203789710999e-02,-2.452365867793560028e-02,2.656911499798297882e-02,1.399093866348266602e-02,-5.018411949276924133e-02,-1.899586059153079987e-02,-7.266881875693798065e-03,3.833066299557685852e-02,1.712328940629959106e-02,1.222287584096193314e-02,2.003785036504268646e-02,1.458102371543645859e-02,-5.011074990034103394e-02,-2.130125940311700106e-04,2.448950707912445068e-02,-2.877037785947322845e-02,-4.940506070852279663e-02,-7.234502118080854416e-03,-3.542581200599670410e-02,1.459717657417058945e-02,2.231574803590774536e-02,1.072790846228599548e-02,-5.121106281876564026e-02,2.343235909938812256e-02,-3.880955046042799950e-03,-5.352307483553886414e-02,-1.199434977024793625e-02,-4.249104857444763184e-02,-2.249472402036190033e-02,-4.282326996326446533e-02,1.460376195609569550e-02,-3.814113792032003403e-03,-3.929228335618972778e-02,-2.761000581085681915e-02,-4.911778494715690613e-02,8.240204304456710815e-03,-4.725737124681472778e-02,8.017498999834060669e-03,-3.669841960072517395e-02,-2.537799626588821411e-02,-2.935134992003440857e-02,-1.926498673856258392e-02,8.547554723918437958e-03,-8.052559569478034973e-03,-4.944764077663421631e-03,-2.355216443538665771e-02,2.392110601067543030e-02,-1.604293100535869598e-02,3.798349574208259583e-02,1.207618974149227142e-02,1.301890588365495205e-03,-2.719628252089023590e-02,1.967424154281616211e-02,-4.856819659471511841e-02,-4.617626965045928955e-02,-1.156532787717878819e-03,-2.726916596293449402e-02,-1.529082655906677246e-02,2.173803932964801788e-02,-3.428258700296282768e-03,-7.986984215676784515e-03,1.048411522060632706e-02,-4.394323006272315979e-02,-3.182402253150939941e-02,-3.318335860967636108e-02,-4.310077801346778870e-02,-1.671004109084606171e-02,2.199884736910462379e-03,-4.324966296553611755e-02,-3.772927448153495789e-02,-2.629311522468924522e-03,-8.140727877616882324e-03,3.922875598073005676e-02,3.103842772543430328e-02,1.255855709314346313e-02,-1.905448362231254578e-02,-2.746781893074512482e-02,-4.373568296432495117e-02,-2.006404474377632141e-02,-2.208978682756423950e-02,-4.429316148161888123e-02,-8.770972490310668945e-03,2.544759027659893036e-02,7.194757927209138870e-03,-2.054924704134464264e-02,-5.532421637326478958e-03,-2.658723294734954834e-02,-1.018493808805942535e-02,8.592167287133634090e-04,3.547093272209167480e-02,-1.353606954216957092e-02,-3.963209688663482666e-02,-1.897226460278034210e-02,-1.721287146210670471e-03,1.323695667088031769e-02,-4.575813561677932739e-02,3.228968009352684021e-02,-4.770492389798164368e-02,2.564953267574310303e-02,-3.644119948148727417e-02,3.078469634056091309e-02,-5.025034304708242416e-03,4.461013246327638626e-03,-2.753977105021476746e-02,-1.285358797758817673e-02,-3.898403048515319824e-02,-2.322586951777338982e-04,-3.786593303084373474e-02,-3.377000615000724792e-02,-3.900916874408721924e-02,9.048113715834915638e-04,-7.347002625465393066e-03,2.168143168091773987e-02,-1.493923645466566086e-02,-4.627766087651252747e-02,-1.201414037495851517e-03,2.260408550500869751e-02,-4.672348871827125549e-02,1.053036469966173172e-02,-2.180915139615535736e-02,4.259569570422172546e-03,-2.876006253063678741e-02,2.574588172137737274e-02,-3.323013707995414734e-02,-1.571702212095260620e-02,2.079785056412220001e-02,-3.220758959650993347e-02,5.103033408522605896e-02,-5.963338539004325867e-03,2.009024657309055328e-02,-5.543132126331329346e-02,-5.642001330852508545e-02,6.029564514756202698e-02,-1.006907410919666290e-02,2.408657688647508621e-03,2.446689084172248840e-02,1.476462092250585556e-02,4.965111147612333298e-03,-4.997335746884346008e-02,4.004058428108692169e-03,-4.504590108990669250e-02,5.297302268445491791e-03,-4.652952030301094055e-02,2.140408568084239960e-02,-3.162094391882419586e-03,2.492560818791389465e-02,5.104912444949150085e-03,2.229212783277034760e-02,2.554947137832641602e-02,2.809681929647922516e-02,-3.800778090953826904e-02,5.929600447416305542e-02,-8.970567956566810608e-03,-1.811769232153892517e-02,-2.414589002728462219e-02,7.062679156661033630e-03,3.599774837493896484e-02,3.329882770776748657e-02,-3.648045286536216736e-02,2.051086537539958954e-02,3.085355088114738464e-02,9.022941812872886658e-03,-1.873552240431308746e-02,-3.841899335384368896e-02,-2.724767848849296570e-02,-3.402147814631462097e-02,-7.705962285399436951e-03,2.883355133235454559e-02,3.470812365412712097e-02,2.947264350950717926e-02,-3.686407580971717834e-02,-2.484572678804397583e-02,8.532363921403884888e-03,-5.092131346464157104e-02,2.793513238430023193e-03,5.521390587091445923e-03,3.081048466265201569e-02,2.162860892713069916e-02,-9.203339141095057130e-05,-5.130141600966453552e-02,3.396841883659362793e-02,-8.166704326868057251e-03,-6.513818632811307907e-03,-5.686806514859199524e-03,3.426698967814445496e-02,2.492232248187065125e-02,-5.203399062156677246e-02,-8.187759667634963989e-04,-1.613716594874858856e-02,-2.584605664014816284e-02,-4.004706814885139465e-02,-1.800757460296154022e-02,1.708782278001308441e-02,-4.099354147911071777e-02,1.414070650935173035e-02,3.683938458561897278e-02,-1.820614561438560486e-02,-3.902039490640163422e-03,1.549485418945550919e-02,-3.254907950758934021e-02,8.852506987750530243e-03,1.742573454976081848e-02,-1.060276757925748825e-02,2.041515521705150604e-02,-7.718152366578578949e-03,-5.553856864571571350e-02,-4.510181024670600891e-02,-3.945536538958549500e-02,1.827970705926418304e-02,1.998381130397319794e-02,-3.851402550935745239e-02,2.268268540501594543e-02,-3.589304909110069275e-02,-1.671278104186058044e-02,3.663138300180435181e-02,-2.722295746207237244e-02,-3.930583596229553223e-02,-2.904783375561237335e-02,4.064561799168586731e-02,-4.726411774754524231e-02,-4.782576579600572586e-03,-2.109378390014171600e-02,2.837801724672317505e-02,-5.060008168220520020e-02,2.933921292424201965e-02,-4.596736282110214233e-02,6.728586740791797638e-03,-2.096661925315856934e-02,-4.688277095556259155e-02,-4.621666297316551208e-02,-3.009418770670890808e-02,1.413845922797918320e-02,-1.831225678324699402e-02,-2.430591545999050140e-02,-4.194312170147895813e-02,-1.376219093799591064e-02,2.196913026273250580e-02,-4.110562056303024292e-02,-2.632804587483406067e-02,-2.922591380774974823e-02,2.420964464545249939e-02,2.835433371365070343e-02,-2.378786448389291763e-03,-3.674305602908134460e-02,-2.741449326276779175e-02,5.162273999303579330e-03,-3.542862832546234131e-02,-2.672578580677509308e-02,-1.506243279436603189e-04,-4.867993295192718506e-02,2.708658576011657715e-02,3.103433176875114441e-02,1.690758578479290009e-02,7.715990301221609116e-03,-4.263501614332199097e-02,-5.347544699907302856e-02,4.721036553382873535e-02,3.773113014176487923e-03,-3.210077062249183655e-02,1.153330225497484207e-02,-2.286438643932342529e-02,1.719033345580101013e-02,-2.092981524765491486e-02,4.578112624585628510e-03,3.226412087678909302e-02,-2.527501620352268219e-02,-4.413848370313644409e-02,1.534332614392042160e-02,5.169193446636199951e-02,-2.549763768911361694e-02,-5.612323805689811707e-02,8.192530833184719086e-03,-3.491146117448806763e-02,1.124074961990118027e-02,2.307010255753993988e-02,-2.369329333305358887e-03,-1.777622499503195286e-03,1.850297302007675171e-02,-1.924371346831321716e-02,-2.243985608220100403e-02,-5.163563787937164307e-02,-6.320646498352289200e-03,-2.400457113981246948e-02,9.739389643073081970e-03,-4.382972791790962219e-02,2.528503909707069397e-02,7.061860058456659317e-03,-1.904547773301601410e-02,-1.824890822172164917e-02,-4.155511781573295593e-02,-1.077109109610319138e-02,-1.005192287266254425e-02,-2.592764608561992645e-02,-4.164293780922889709e-02,3.683258593082427979e-02,2.318783476948738098e-02,9.724530391395092010e-03,-2.573438547551631927e-02,1.545672118663787842e-02,-1.890199608169496059e-03,-6.780035793781280518e-03,3.163117542862892151e-02,-2.184383198618888855e-02,-6.004814524203538895e-03,1.367352087981998920e-03,-3.022784180939197540e-02,-1.050456892699003220e-02,-7.203779648989439011e-03,-4.093323647975921631e-02,-3.491510078310966492e-02,3.472561389207839966e-02,-5.438643321394920349e-02,3.876547142863273621e-02,5.555127933621406555e-02,-1.828932203352451324e-02,2.943034470081329346e-02,-3.889040648937225342e-02,-3.244401887059211731e-02,2.217306010425090790e-02,-4.480309318751096725e-03,1.528766192495822906e-02,-4.940604418516159058e-02,-4.498857259750366211e-02,2.072346583008766174e-02,-2.234886027872562408e-02,4.524602368474006653e-02,-4.608282819390296936e-02,-2.680634846910834312e-03,3.246961534023284912e-02,-1.372611988335847855e-02,-4.845371842384338379e-02,8.990002679638564587e-04,-3.501437604427337646e-02,1.006116159260272980e-02,-4.573184251785278320e-02,-5.953253246843814850e-03,-1.106557063758373260e-02,2.313457056879997253e-02,-3.173685818910598755e-02,1.005796436220407486e-02,5.186165124177932739e-02,-4.525833949446678162e-02,1.645421423017978668e-02,-4.687104001641273499e-02,1.355661824345588684e-02,1.194766629487276077e-02,-2.291928790509700775e-02,-5.134043749421834946e-03,3.145903348922729492e-02,-3.193823213223367929e-04,1.187403127551078796e-02,-8.004340343177318573e-03,2.379031479358673096e-02,-2.702120691537857056e-02,-5.755082704126834869e-03,-1.139451097697019577e-02,3.303186967968940735e-02,-3.605050221085548401e-02,2.083215117454528809e-02,3.501320630311965942e-02,-3.784254193305969238e-02,-2.715720236301422119e-02,-2.549614571034908295e-02,3.700364846736192703e-03,-9.781463071703910828e-03,-2.248180471360683441e-02,-6.477753631770610809e-03,1.654326729476451874e-02,-2.431466616690158844e-02,4.548856057226657867e-03,-1.830177381634712219e-02,1.879879040643572807e-03,-1.468596421182155609e-02,3.144940361380577087e-02,3.139626979827880859e-02,3.215199103578925133e-03,2.665071003139019012e-02,2.315628714859485626e-02,-3.678883612155914307e-02,-5.503389984369277954e-02,-3.684709593653678894e-02,2.808112278580665588e-02,-3.198748826980590820e-02,2.635896950960159302e-02,1.171347126364707947e-02,-2.718863636255264282e-02,-5.783849395811557770e-03,-2.581049501895904541e-02,-1.157696545124053955e-02,3.182636201381683350e-02,-9.433074854314327240e-03,-3.680694848299026489e-02,-5.556202027946710587e-03,4.536717385053634644e-02,1.465873140841722488e-02,2.430706284940242767e-02,-3.269078209996223450e-02,2.189721167087554932e-02,-2.193763107061386108e-02,-1.382311806082725525e-02,1.216693897731602192e-03,2.295111678540706635e-02,2.075161226093769073e-02,-3.339914977550506592e-02,-4.545934498310089111e-02,-3.701958060264587402e-02,-3.919565677642822266e-02,2.054274640977382660e-02,-2.702349610626697540e-02,6.542771123349666595e-03,-3.264750912785530090e-02,-4.446585848927497864e-02,7.148053962737321854e-03,-6.136852782219648361e-03,-8.582121692597866058e-03,8.077405509538948536e-04,1.508115977048873901e-02,4.932371899485588074e-03,-8.487366139888763428e-03,6.812153384089469910e-03,2.645920962095260620e-02,-4.668469727039337158e-02,-8.187818340957164764e-03,-2.369860373437404633e-02,-2.369921654462814331e-02,2.271336317062377930e-02,-1.940492540597915649e-02,3.025260753929615021e-02,2.835179492831230164e-02,-1.830723136663436890e-02,-1.135317608714103699e-02,3.794971480965614319e-02,2.348904125392436981e-02,-2.802502550184726715e-02,1.450217515230178833e-02,-2.340381965041160583e-02,-2.367723174393177032e-02,6.620549410581588745e-02,4.176659975200891495e-03,-4.079106822609901428e-02,-4.679709300398826599e-02,1.137728895992040634e-02,2.431466616690158844e-02,-4.298806563019752502e-02,2.504934743046760559e-02,5.159260705113410950e-02,-4.240310564637184143e-02,-1.669273525476455688e-02,-4.427665099501609802e-02,2.486233226954936981e-02,8.494445122778415680e-03,-3.440794721245765686e-02,-1.411179173737764359e-02,-4.337795823812484741e-02,1.207180414348840714e-02,-3.658439218997955322e-02,-3.073214367032051086e-02,5.336134880781173706e-02,-3.618683665990829468e-03,-2.742564305663108826e-02,2.414671517908573151e-02,-8.508204482495784760e-03,-4.350313171744346619e-02,-4.242991656064987183e-02,2.927992865443229675e-02,1.122925337404012680e-02,8.408127352595329285e-03,-2.357167191803455353e-02,8.647819049656391144e-03,4.059575125575065613e-02,-2.707031555473804474e-02,-2.928727865219116211e-02,-7.046878803521394730e-03,8.314124308526515961e-03,-8.018612861633300781e-03,-3.312022984027862549e-02,-4.403559863567352295e-02,-4.592029005289077759e-02,1.503091957420110703e-02,-1.330163702368736267e-02,1.068972889333963394e-02,-4.995053634047508240e-03,2.189503796398639679e-02,-3.719228506088256836e-02,2.612684480845928192e-02,-6.018997635692358017e-03,-2.787769027054309845e-02,3.333985805511474609e-02,1.303758285939693451e-02,-1.986873708665370941e-02,2.028610184788703918e-02,3.900501178577542305e-03,-7.495719939470291138e-03,1.712027005851268768e-02,1.438902254449203610e-04,3.136665746569633484e-02,-3.512125089764595032e-02,-1.634469442069530487e-02,-3.290654346346855164e-02,2.983859926462173462e-02,-3.621370345354080200e-02,-1.825978420674800873e-02,-3.935303166508674622e-02,3.462750464677810669e-02,1.587482355535030365e-02,1.579599268734455109e-02,-3.065198659896850586e-02,-2.365078777074813843e-02,-2.606909349560737610e-02,7.761271297931671143e-02,-4.038923978805541992e-02,-2.436569146811962128e-02,-1.096174586564302444e-02,2.896389365196228027e-02,-7.589076645672321320e-03,-2.741295099258422852e-02,1.226051431149244308e-02,-5.131831020116806030e-02,-1.009747851639986038e-02,-2.594127506017684937e-02,1.639223098754882812e-02,7.481454871594905853e-03,-2.491849660873413086e-02,9.277665987610816956e-03,2.666268870234489441e-02,-2.640753053128719330e-02,-3.941265866160392761e-02,9.336302988231182098e-03,-3.326946124434471130e-02,-2.149767056107521057e-02,-4.656532406806945801e-02,2.001098915934562683e-02,2.184990793466567993e-02,-2.300336770713329315e-02,8.159875869750976562e-03,4.492860287427902222e-03,8.563011069782078266e-04,-2.354418858885765076e-02,4.222718626260757446e-02,-2.192243561148643494e-02,3.183717653155326843e-02,1.374372839927673340e-02,-2.648120746016502380e-02,3.560639917850494385e-03,-4.908929020166397095e-02,-2.865774929523468018e-02,-1.149650197476148605e-02,2.589882723987102509e-02,2.072331123054027557e-02,6.782189756631851196e-02,2.430889755487442017e-02,-3.187264874577522278e-02,2.574186399579048157e-02,-1.165976282209157944e-02,-1.295155007392168045e-02,2.418448962271213531e-02,5.158803611993789673e-02,-5.036767572164535522e-02,3.203349560499191284e-02,-2.974603511393070221e-02,3.234206885099411011e-02,-4.936119168996810913e-02,-4.832953959703445435e-02,-1.183912158012390137e-02,-4.826287925243377686e-02,-4.002195224165916443e-02,-2.023953013122081757e-02,1.016327086836099625e-02,3.565435111522674561e-02,2.360115200281143188e-02,-2.379783056676387787e-02,-6.448702421039342880e-03,-1.684731687419116497e-03,2.799503318965435028e-02,-4.644748196005821228e-02,2.090403996407985687e-02,-3.386136144399642944e-02,4.313777387142181396e-02,-1.229964196681976318e-02,-3.734557703137397766e-02,5.861181765794754028e-03,-4.311300814151763916e-02,1.668986491858959198e-02,3.740490600466728210e-02,5.897327326238155365e-03,3.397573716938495636e-03,1.679825037717819214e-02,8.006473071873188019e-03,-2.102907374501228333e-02,-1.481553073972463608e-03,-5.055218935012817383e-02,-3.226023912429809570e-02,1.533343270421028137e-02,-2.820221148431301117e-02,-3.389053978025913239e-03,2.176824212074279785e-02,9.025726467370986938e-03,1.997703127562999725e-02,2.048162976279854774e-03,9.214382618665695190e-03,-1.181931328028440475e-02,-7.246788591146469116e-03,-2.046160632744431496e-03,1.079438813030719757e-02,7.906082086265087128e-03,-3.552241623401641846e-02,3.198240697383880615e-02,-2.871786616742610931e-02,-2.114188484847545624e-02,3.045161999762058258e-02,-4.137555882334709167e-02,-4.032913595438003540e-02,-1.980699971318244934e-02,-5.569687485694885254e-02,-1.615521311759948730e-02,1.874143071472644806e-02,1.651773229241371155e-02,9.309527464210987091e-03,1.207130774855613708e-02,1.862925663590431213e-02,1.830372773110866547e-02,-5.038219038397073746e-03,-4.400304704904556274e-02,-2.834692038595676422e-02,-2.227386087179183960e-02,-9.010688401758670807e-03,2.438585273921489716e-02,-3.377472981810569763e-02,-1.041347999125719070e-02,-3.174395859241485596e-02,-1.232955139130353928e-02,-2.475688979029655457e-02,9.351562708616256714e-03,2.898772433400154114e-02,-9.885682724416255951e-03,-3.685091622173786163e-03,2.435609325766563416e-02,8.986327797174453735e-03,-1.202508993446826935e-02,4.313012957572937012e-02,2.977089770138263702e-02,-1.295465044677257538e-02,6.288275867700576782e-02,-4.313690215349197388e-02,2.565906569361686707e-02,-4.069196805357933044e-02,1.865737885236740112e-02,2.781187742948532104e-02,8.170605637133121490e-03,2.346762083470821381e-02,4.424821585416793823e-02,-1.292279828339815140e-02,-3.797960281372070312e-02,2.011498436331748962e-02,-3.103489987552165985e-02,5.373939871788024902e-03,-4.856698215007781982e-02,2.053840458393096924e-02,-2.208472043275833130e-02,2.532094903290271759e-02,5.320093780755996704e-02,-9.692323394119739532e-03,6.369584240019321442e-03,-1.772211492061614990e-02,1.320413779467344284e-02,-6.388390436768531799e-03,-5.443990230560302734e-03,-3.394966246560215950e-03,2.572780288755893707e-02,-8.677376434206962585e-03,3.338237106800079346e-02,3.945527423638850451e-04,-5.531366914510726929e-03,3.073830716311931610e-02,2.493471093475818634e-02,2.814415656030178070e-02,-2.742655808106064796e-03,-9.767876937985420227e-03,-4.453958198428153992e-02,-2.936869114637374878e-02,-3.297234699130058289e-02,-9.586039814166724682e-04,1.803557388484477997e-02,1.973586343228816986e-02,8.833110332489013672e-03,5.428661778569221497e-02,-5.293871462345123291e-02,-7.452548481523990631e-03,-1.129990536719560623e-02,-2.151960693299770355e-02,-1.199036464095115662e-02,4.090628062840551138e-04,-2.814081497490406036e-02,-1.408141758292913437e-02,-2.283645793795585632e-02,1.135451253503561020e-03,-1.701548695564270020e-02,2.962282672524452209e-02,-1.331722084432840347e-02,-1.642145775258541107e-02,-3.013228625059127808e-02,1.769008673727512360e-02,-1.780803501605987549e-02,1.704384759068489075e-02,-2.238924242556095123e-02,2.910323627293109894e-02,-8.359258994460105896e-03,4.542135074734687805e-02,-7.151991128921508789e-03,2.438952028751373291e-02,-1.062504015862941742e-02,1.097756065428256989e-02,-2.855122834444046021e-02,-1.754021830856800079e-02,7.740748114883899689e-03,-1.376191806048154831e-02,-3.649176657199859619e-02,5.348833650350570679e-02,9.507504291832447052e-03,1.443139277398586273e-03,-4.470179229974746704e-02,-5.509261786937713623e-02,-2.858037129044532776e-02,6.055387668311595917e-03,2.492699958384037018e-02,2.464620210230350494e-02,-4.132181406021118164e-02,-1.668653078377246857e-02,-2.991578727960586548e-02,1.621593534946441650e-02,-1.756862178444862366e-02,1.542007812531664968e-04,-2.643406949937343597e-02,4.584637470543384552e-03,-1.977992942556738853e-03,1.214275043457746506e-02,3.226147964596748352e-02,8.776068687438964844e-03,1.939006149768829346e-02,7.033092551864683628e-04,-2.797038480639457703e-02,-2.868776209652423859e-02,-3.317303955554962158e-02,1.492208987474441528e-02,-2.854980062693357468e-03,-3.393562138080596924e-02,-1.584253460168838501e-02,1.518678944557905197e-02,1.097690779715776443e-03,-1.136562414467334747e-02,-2.683089114725589752e-03,-5.343707650899887085e-02,-5.442056432366371155e-02,3.189862146973609924e-02,-2.996766474097967148e-03,-2.671994827687740326e-02,-8.506551384925842285e-03,3.453216329216957092e-02,1.467290800064802170e-02,-1.160122267901897430e-02,-4.791856184601783752e-02,-4.556199535727500916e-03,3.649433702230453491e-02,-2.229630015790462494e-02,2.047417685389518738e-02,2.926074899733066559e-02,4.597033187747001648e-02,-3.176467493176460266e-02,-3.185116499662399292e-02,-1.185972802340984344e-02,4.478631075471639633e-03,-7.134856423363089561e-04,-5.636115092784166336e-03,1.726054772734642029e-02,1.161296013742685318e-02,-4.930419474840164185e-02,4.313587211072444916e-03,-1.513101859018206596e-03,-3.524599596858024597e-03,-2.457407489418983459e-02,2.262507006525993347e-02,-7.121696136891841888e-03,-5.823313258588314056e-03,1.248353626579046249e-02,2.825112082064151764e-02,-2.258256264030933380e-02,-3.014233708381652832e-02,-9.311123751103878021e-03,-4.789686761796474457e-03,-2.165852487087249756e-02,-2.226822823286056519e-02,-3.925568424165248871e-03,4.402690753340721130e-02,-7.813037373125553131e-03,-1.953957602381706238e-02,1.064693834632635117e-02,-2.133722789585590363e-02,2.060096897184848785e-02,3.154375031590461731e-02,-4.107985645532608032e-02,-2.322081662714481354e-02,9.594685398042201996e-03,-1.468110457062721252e-02,4.630595911294221878e-03,3.851279616355895996e-02,4.124248027801513672e-02,-5.459998548030853271e-02,-1.641981676220893860e-02,1.100904867053031921e-02,3.753282502293586731e-02,1.995875313878059387e-02,-3.627559915184974670e-02,-1.196162961423397064e-02,4.027114249765872955e-03,2.953551523387432098e-02,-2.935232222080230713e-02,-1.683112047612667084e-02,-1.946228183805942535e-02,-1.907356269657611847e-02,-3.778640821110457182e-04,-2.979579195380210876e-02,-1.821417547762393951e-02,-1.252450607717037201e-02,2.187839522957801819e-02,-4.150551930069923401e-02,-2.293346449732780457e-02,-5.865276325494050980e-03,-4.104231297969818115e-02,3.880258277058601379e-02,5.510980263352394104e-02,-2.648371504619717598e-03,-1.084064412862062454e-02,1.750176399946212769e-02,-5.844236910343170166e-02,-2.193201519548892975e-02,-2.336961030960083008e-02,6.556646525859832764e-02,2.903468906879425049e-03,-2.654530107975006104e-02,-4.364462569355964661e-02,-4.461388289928436279e-02,2.234607003629207611e-02,4.302643984556198120e-02,2.457800321280956268e-02,-2.507873112335801125e-03,-5.530435219407081604e-02,3.094123676419258118e-02,6.814780086278915405e-02,-1.493882853537797928e-02,-1.633159816265106201e-02,-3.355072578415274620e-03,2.788167446851730347e-03,-1.903797127306461334e-02,-1.824299059808254242e-02,2.916312217712402344e-02,-2.190606854856014252e-02,3.072218038141727448e-02,1.961289718747138977e-02,-1.744006015360355377e-02,-3.232540562748908997e-02,3.086515143513679504e-02,1.424348447471857071e-02,-9.364292956888675690e-03,-2.708491124212741852e-02,-2.913112565875053406e-02,2.183248661458492279e-02,1.628040149807929993e-02,1.730523072183132172e-02,-3.727394342422485352e-02,2.303186990320682526e-02,-3.705423325300216675e-02,-2.307859808206558228e-02,2.145689213648438454e-03,-4.244195297360420227e-02,1.998174004256725311e-02,-2.699500322341918945e-02,1.359733194112777710e-02,2.349181845784187317e-02,-4.153820499777793884e-02,3.385723009705543518e-02,2.885456569492816925e-02,-7.942610420286655426e-03,4.064635373651981354e-03,4.203612450510263443e-03,2.326596528291702271e-02,-2.606926672160625458e-02,-1.083202310837805271e-03,-3.528217971324920654e-02,7.828795351088047028e-03,5.411416664719581604e-02,2.550105191767215729e-02,1.997560262680053711e-02,4.821321740746498108e-02,2.719441615045070648e-02,3.106203861534595490e-03,-6.592377088963985443e-03,2.280685864388942719e-02,-5.273408256471157074e-03,-3.887650743126869202e-02,3.789701685309410095e-02,3.319183364510536194e-02,-2.857823483645915985e-02,-1.525107864290475845e-02,-7.855873554944992065e-03,4.866439104080200195e-02,2.481831423938274384e-02,-1.858786493539810181e-02,-2.039751596748828888e-02,-4.310767352581024170e-02,-4.484464006964117289e-04,3.192465007305145264e-02,-2.138124965131282806e-02,-1.846685260534286499e-02,-3.862428665161132812e-02,-3.966179490089416504e-02,1.901649311184883118e-02
