3.136771032586693764e-03,-1.473666361562209204e-05,-2.055790461599826813e-02,5.242095794528722763e-03,1.348524261265993118e-02,7.152450853027403355e-04,1.566423103213310242e-02,8.218299597501754761e-03,2.306547947227954865e-03,4.270032513886690140e-03,-5.354039836674928665e-03,7.396735250949859619e-03,-2.679172670468688011e-03,-6.881787558086216450e-04,2.303630113601684570e-02,-8.962089195847511292e-03,-5.363381002098321915e-03,6.391778122633695602e-03,4.737257957458496094e-03,1.500288024544715881e-02,-1.090081501752138138e-02,-7.294053793884813786e-04,1.476054079830646515e-02,-6.811900530010461807e-03,-1.553696393966674805e-02,3.375150030478835106e-03,1.095962151885032654e-02,6.566069350810721517e-05,5.560417193919420242e-03,6.123226135969161987e-03,7.400827948004007339e-03,1.522330753505229950e-02,-1.037093903869390488e-02,1.231529843062162399e-02,7.554860785603523254e-03,6.985993240959942341e-05,3.616053378209471703e-03,1.347143203020095825e-02,6.835733074694871902e-03,-9.189534932374954224e-03,9.212019853293895721e-03,1.322919223457574844e-02,1.206568256020545959e-02,3.755961777642369270e-03,2.469738712534308434e-03,7.583646103739738464e-03,3.617071080952882767e-03,9.971622377634048462e-03,4.605199676007032394e-03,5.069634877145290375e-03,1.069422345608472824e-03,5.008139181882143021e-03,5.939759314060211182e-03,9.694091975688934326e-03,-1.290783286094665527e-03,1.416932418942451477e-02,-4.801047965884208679e-03,1.533490605652332306e-02,1.633562496863305569e-04,5.910987034440040588e-03,-6.974660325795412064e-03,1.077030599117279053e-02,7.057409733533859253e-03,6.155685987323522568e-03,3.269367618486285210e-03,7.493296172469854355e-03,-6.319758016616106033e-03,-6.868068157928064466e-05,-4.765655845403671265e-03,-5.337907467037439346e-03,1.103782281279563904e-02,-2.109741605818271637e-02,-4.333979450166225433e-03,6.518102250993251801e-03,-4.286304581910371780e-03,6.654418073594570160e-03,2.839892404153943062e-04,-2.997061470523476601e-03,1.690091798081994057e-03,7.530524395406246185e-03,-2.320651197806000710e-03,-3.048132872208952904e-03,-5.635883193463087082e-03,2.812005113810300827e-03,-3.472257172688841820e-03,9.158809669315814972e-03,-1.077884156256914139e-02,-2.615439938381314278e-03,-9.129159734584391117e-04,-1.594787696376442909e-03,-8.393279276788234711e-03,-2.993994166899938136e-05,-1.123992912471294403e-02,3.827445616479963064e-04,7.130613084882497787e-03,-4.315332975238561630e-03,-7.002695929259061813e-03,-6.205175537616014481e-03,-1.077053602784872055e-02,-7.045459933578968048e-03,1.390246488153934479e-02,-4.652995616197586060e-03,-8.658709004521369934e-03,-3.666578093543648720e-03,-3.500594291836023331e-03,-1.748056733049452305e-03,-7.667430327273905277e-05,-1.629333756864070892e-02,-1.055458001792430878e-02,-1.230396796017885208e-02,-3.212018869817256927e-03,-3.009998938068747520e-03,7.062493241392076015e-04,-2.003187779337167740e-03,-1.114977244287729263e-02,-2.393740927800536156e-03,-7.931929081678390503e-03,-6.455194670706987381e-03,2.665704814717173576e-03,-3.634560154750943184e-03,7.300001103430986404e-03,-5.027950275689363480e-03,-1.041048392653465271e-02,-4.060779232531785965e-03,5.842692218720912933e-03,-1.706703798845410347e-03,-8.488173596560955048e-03,-6.293918937444686890e-03,-7.872447371482849121e-03,-8.822208270430564880e-03,-1.249091234058141708e-03,-1.526919379830360413e-02,-9.681030176579952240e-03,-2.761998446658253670e-03,1.508856774307787418e-03,-1.125712413340806961e-02,-1.412507146596908569e-03,-5.631827283650636673e-03,6.575157400220632553e-03,-6.276933941990137100e-03,1.307234982959926128e-03,-5.788106471300125122e-03,1.572746410965919495e-02,-6.083011161535978317e-03,3.623839002102613449e-03,-7.274040021002292633e-03,-1.618339493870735168e-02,-9.278370067477226257e-03,7.944096811115741730e-03,-3.663884941488504410e-03,8.511165156960487366e-03,-3.070589853450655937e-03,1.180970668792724609e-02,-4.275709856301546097e-03,7.460858207195997238e-03,-8.906444534659385681e-03,-7.216519676148891449e-03,-6.392954383045434952e-03,7.873508147895336151e-03,-4.873364698141813278e-03,-1.419893465936183929e-02,-6.469754502177238464e-03,-6.780539639294147491e-03,-5.024859216064214706e-03,4.253291059285402298e-03,-1.380848512053489685e-02,5.449567455798387527e-03,-4.651420284062623978e-03,6.960715167224407196e-03,-1.234950404614210129e-02,-3.117643296718597412e-03,-7.673317100852727890e-03,4.013650584965944290e-03,-8.057345636188983917e-03,4.418235737830400467e-03,-1.063900813460350037e-02,8.948224596679210663e-03,3.119223751127719879e-03,5.350349005311727524e-03,8.703538216650485992e-03,2.400164725258946419e-03,-5.290808156132698059e-03,7.584954611957073212e-03,-1.266852393746376038e-02,8.504505269229412079e-03,-6.310452241450548172e-03,-5.529834423214197159e-03,7.149786106310784817e-04,4.460857249796390533e-03,-1.767960935831069946e-02,3.658548463135957718e-03,-3.616555128246545792e-03,-1.019428484141826630e-03,6.837262772023677826e-03,5.226945970207452774e-03,-8.476343005895614624e-03,1.162198279052972794e-02,4.220970440655946732e-03,2.898052101954817772e-03,-8.867012336850166321e-03,8.412008173763751984e-03,-7.979516871273517609e-03,-1.441338681615889072e-04,-8.639100007712841034e-03,1.061079557985067368e-02,-3.080873517319560051e-03,-3.809955203905701637e-03,2.512390259653329849e-03,6.091700401157140732e-03,-6.354076322168111801e-03,5.132490769028663635e-03,-8.959014900028705597e-03,-1.688382588326931000e-03,-3.350596874952316284e-03,9.912152774631977081e-03,-7.823963649570941925e-03,-5.031911190599203110e-03,3.443956142291426659e-03,7.834064774215221405e-03,-9.414036758244037628e-03,1.465423125773668289e-02,-7.580865174531936646e-03,7.758041610941290855e-04,2.177754417061805725e-03,4.651874769479036331e-03,-6.297754123806953430e-03,-1.554581336677074432e-02,-4.331129603087902069e-03,8.125857450067996979e-03,-1.052110549062490463e-02,8.592744357883930206e-03,5.772844888269901276e-04,-1.129152253270149231e-02,-2.022729814052581787e-02,1.764863356947898865e-02,-2.646402455866336823e-03,1.194878946989774704e-02,7.317514158785343170e-03,-5.023389123380184174e-03,-5.480200634337961674e-04,7.089327089488506317e-03,-2.653329167515039444e-03,1.697877421975135803e-03,-9.660947136580944061e-03,-1.696625538170337677e-02,1.281481143087148666e-02,-1.594454050064086914e-02,-6.899785716086626053e-03,3.489911090582609177e-03,-7.039116229861974716e-03,7.105626631528139114e-03,-2.122661564499139786e-03,4.873683210462331772e-03,-9.381768293678760529e-03,6.960619240999221802e-03,2.468353835865855217e-03,5.932739004492759705e-03,-1.018673530779778957e-03,1.372013892978429794e-02,-1.838504336774349213e-03,8.596259169280529022e-03,-1.260858122259378433e-02,-1.057033892720937729e-03,-5.624512559734284878e-04,-1.002371311187744141e-03,7.763724774122238159e-03,-3.416544059291481972e-03,6.581776775419712067e-03,1.826008222997188568e-02,1.123444363474845886e-02,1.001182664185762405e-02,-1.279969885945320129e-02,2.557756938040256500e-02,-1.529969461262226105e-02,8.404638618230819702e-03,-1.217072270810604095e-02,-4.881612490862607956e-03,-1.180819794535636902e-02,-2.488836878910660744e-03,-1.233526691794395447e-02,1.056116726249456406e-02,-2.000106126070022583e-02,2.591489115729928017e-03,4.390355199575424194e-03,7.730319164693355560e-03,-6.003287620842456818e-03,1.001036725938320160e-02,-7.242467720061540604e-03,4.565217532217502594e-03,-4.195676185190677643e-03,-2.926466288045048714e-03,-7.997536100447177887e-03,1.403706148266792297e-02,-3.045566380023956299e-03,7.637086091563105583e-04,2.385761961340904236e-02,-1.135011576116085052e-02,-1.488834712654352188e-02,-7.091214880347251892e-03,3.512308001518249512e-03,7.345050573348999023e-03,-4.895080812275409698e-03,-9.471868979744613171e-04,1.316823717206716537e-02,1.276535820215940475e-02,4.154210444539785385e-03,1.068108249455690384e-02,2.890080679208040237e-03,1.328037027269601822e-02,4.831660073250532150e-03,4.200636409223079681e-03,-2.597835846245288849e-03,1.967054232954978943e-02,-8.126327767968177795e-03,8.385094814002513885e-03,-8.504884317517280579e-03,9.784219786524772644e-03,5.132896476425230503e-04,-5.784953013062477112e-03,9.599097073078155518e-03,-5.050910171121358871e-03,-1.388330361805856228e-03,1.906358450651168823e-02,-8.456463925540447235e-03,6.295120343565940857e-03,-9.973867563530802727e-04,1.008544489741325378e-02,-7.269888650625944138e-03,7.181544788181781769e-03,-3.968283068388700485e-03,8.680043742060661316e-03,2.037117257714271545e-03,2.504713367670774460e-03,-7.158490479923784733e-04,9.459557943046092987e-03,6.397542310878634453e-04,1.183580048382282257e-02,4.736115224659442902e-03,-6.523616611957550049e-03,-2.417929470539093018e-02,-1.330896373838186264e-02,4.450615029782056808e-03,5.892982706427574158e-03,7.863821461796760559e-03,2.669104607775807381e-03,1.967481896281242371e-02,1.207716763019561768e-02,-9.362745098769664764e-03,-1.956277899444103241e-02,-1.073426683433353901e-03,7.001857738941907883e-03,-1.182448677718639374e-02,7.014023140072822571e-03,1.499125827103853226e-02,-7.530967704951763153e-03,-1.289896667003631592e-02,2.691949252039194107e-03,6.793601904064416885e-03,2.501492854207754135e-03,-3.083243733271956444e-03,1.223155949264764786e-02,1.541032921522855759e-02,9.264340624213218689e-03,-6.552379112690687180e-03,-2.745656995102763176e-03,1.354387030005455017e-02,3.268134314566850662e-03,5.050572799518704414e-04,4.768217448145151138e-03,-3.806381020694971085e-03,-5.008167587220668793e-03,-4.843096714466810226e-03,9.088256396353244781e-03,1.327083073556423187e-02,4.163817036896944046e-03,-1.004580990411341190e-03,-1.384014729410409927e-03,-2.770926570519804955e-03,4.419174976646900177e-03,-1.206471119076013565e-03,8.332654833793640137e-03,-7.556664291769266129e-03,1.331506483256816864e-02,1.425353228114545345e-03,-1.579494588077068329e-02,3.997248131781816483e-03,-4.399461206048727036e-03,2.145553007721900940e-02,9.632262401282787323e-03,-1.406506542116403580e-02,-9.711484017316251993e-05,-1.107716094702482224e-02,7.052004802972078323e-03,-2.884057117626070976e-03,-1.700478256680071354e-03,-5.702043417841196060e-03,9.980683214962482452e-03,-6.668542511761188507e-03,1.573391817510128021e-02,-1.393441227264702320e-03,-4.828163888305425644e-03,5.119810346513986588e-03,3.775867167860269547e-03,-3.571411361917853355e-03,4.848097916692495346e-03,-9.198518237099051476e-04,2.675218041986227036e-03,-6.399547215551137924e-03,2.096711425110697746e-03,7.971966639161109924e-03,7.677237968891859055e-03,-1.192448846995830536e-02,5.655630491673946381e-03,9.965532459318637848e-03,3.371570259332656860e-03,-1.800184953026473522e-03,2.175944298505783081e-02,-3.582310164347290993e-03,9.939944371581077576e-03,1.183334272354841232e-02,-8.480747230350971222e-03,-2.384318271651864052e-03,-9.291417663916945457e-04,8.985555614344775677e-04,-5.429523298516869545e-04,-5.160382948815822601e-03,6.694982759654521942e-03,-7.224636152386665344e-03,-3.319566894788295031e-04,-8.111126720905303955e-03,5.766501650214195251e-03,2.483832184225320816e-03,9.253701195120811462e-03,3.940227441489696503e-03,6.932886783033609390e-03,-4.521957132965326309e-03,1.685758680105209351e-02,-4.447578918188810349e-03,-2.585002919659018517e-03,2.137699164450168610e-03,1.145380456000566483e-02,-2.596050326246768236e-04,-5.654782988131046295e-03,-7.513835094869136810e-03,-1.105728186666965485e-02,2.858966356143355370e-03,1.840552128851413727e-02,-1.221983414143323898e-02,3.584627062082290649e-03,1.742239343002438545e-03,7.028126157820224762e-03,-1.040282286703586578e-02,1.143407821655273438e-02,-7.254307623952627182e-03,-1.057522743940353394e-02,1.290572254220023751e-04,1.566370390355587006e-02,-6.675593554973602295e-03,8.554611704312264919e-04,1.091878046281635761e-03,1.112796645611524582e-02,-3.826081752777099609e-02,7.312443107366561890e-03,-1.520732976496219635e-02,-6.762237753719091415e-03,-1.140784844756126404e-02,-1.236525457352399826e-02,-2.919384278357028961e-03,-1.387065462768077850e-02,1.606746390461921692e-02,1.638996973633766174e-02,6.152692716568708420e-03,-1.161891035735607147e-03,1.154355797916650772e-02,9.948704391717910767e-03,8.284760406240820885e-04,5.951568484306335449e-03,-4.728718195110559464e-03,6.565373041667044163e-04,-5.592546891421079636e-03,8.814459666609764099e-03,-9.523511864244937897e-03,9.643057361245155334e-03,-3.443539608269929886e-03,5.206640344113111496e-03,5.509624723345041275e-03,6.798416376113891602e-03,-9.480012580752372742e-03,1.208457536995410919e-02,-1.617247238755226135e-02,5.054120905697345734e-03,1.058134657796472311e-04,-1.711047254502773285e-02,-4.804959986358880997e-03,7.280212361365556717e-03,7.787618320435285568e-03,1.050712261348962784e-02,1.006909739226102829e-02,5.929145496338605881e-03,1.464578136801719666e-02,3.682717680931091309e-03,-1.774900779128074646e-02,-1.838339143432676792e-03,-7.675980217754840851e-03,-1.374489441514015198e-02,-6.576157640665769577e-03,9.769136086106300354e-03,-3.024423960596323013e-03,1.246995385736227036e-02,-1.599470269866287708e-03,3.343112068250775337e-03,-1.591429300606250763e-02
