-7.511585019528865814e-03,-2.766193263232707977e-02,-1.032159291207790375e-02,3.875727765262126923e-03,-1.334916986525058746e-02,4.654114134609699249e-03,3.128700330853462219e-02,9.788981406018137932e-04,-2.291684411466121674e-02,-2.263884432613849640e-02,-4.610871430486440659e-03,1.215149369090795517e-02,8.417699718847870827e-04,1.905734464526176453e-02,1.098915003240108490e-02,-2.006619237363338470e-02,-2.523149130865931511e-03,-2.450209576636552811e-03,6.649633869528770447e-03,-1.284980960190296173e-02,1.642375625669956207e-02,-1.348292920738458633e-02,-1.318501401692628860e-02,-2.926160395145416260e-02,-1.682401448488235474e-02,1.668646559119224548e-02,-2.477779798209667206e-02,-8.524598553776741028e-03,1.939625665545463562e-02,-1.084502879530191422e-02,1.311312243342399597e-02,2.523325756192207336e-02,-1.881115324795246124e-02,1.166506204754114151e-02,2.322570048272609711e-02,-7.231679279357194901e-03,-1.109922863543033600e-02,-2.465213462710380554e-02,1.451526954770088196e-02,-1.166210137307643890e-02,1.092159934341907501e-02,1.656131073832511902e-02,-2.153115160763263702e-02,-6.628187373280525208e-03,2.369941584765911102e-02,2.215105481445789337e-02,1.322734914720058441e-02,-2.094441652297973633e-02,7.024040911346673965e-03,6.141601596027612686e-03,-9.037920972332358360e-04,-1.405276264995336533e-02,-5.379800684750080109e-03,-2.966250479221343994e-02,1.850176602602005005e-02,-3.013016656041145325e-02,1.266753883101046085e-03,-2.842413261532783508e-02,6.389808375388383865e-03,1.469494961202144623e-02,-9.108386933803558350e-03,-2.377996779978275299e-02,1.100461697205901146e-03,-5.788245704025030136e-03,-2.244743704795837402e-02,2.458872087299823761e-02,-8.998509496450424194e-03,-1.085446402430534363e-02,1.102252956479787827e-02,1.985123194754123688e-02,-1.733079180121421814e-02,1.129431277513504028e-02,1.594918221235275269e-02,-2.981091104447841644e-02,-2.871852833777666092e-03,2.767595462501049042e-02,1.900934241712093353e-02,1.123425923287868500e-02,5.779089406132698059e-03,1.621354557573795319e-02,2.214250899851322174e-02,1.433037966489791870e-02,2.736948803067207336e-02,-1.322710048407316208e-02,3.680991381406784058e-02,-8.860994130373001099e-03,1.075553521513938904e-02,-4.103784915059804916e-03,-5.995796993374824524e-03,-8.490126579999923706e-03,-3.494925424456596375e-02,-1.060178317129611969e-02,9.740900248289108276e-03,5.622003693133592606e-03,-3.330378979444503784e-02,1.619295030832290649e-02,-2.902050316333770752e-02,2.223606221377849579e-02,1.017452124506235123e-02,2.799052931368350983e-02,5.312747322022914886e-03,7.255987264215946198e-03,7.543611805886030197e-03,-2.497334778308868408e-02,9.226748719811439514e-03,1.566904783248901367e-02,1.019380241632461548e-02,5.866025574505329132e-03,2.086520753800868988e-02,-2.430687285959720612e-02,2.614738233387470245e-02,2.096824347972869873e-02,2.770070545375347137e-02,7.125307805836200714e-03,-2.182026393711566925e-02,1.089930417947471142e-03,-2.680712565779685974e-02,-1.862359605729579926e-02,-6.159874610602855682e-04,1.360487472265958786e-02,2.043903246521949768e-02,-1.288237422704696655e-02,1.286764070391654968e-02,1.471953000873327255e-02,-2.540844492614269257e-02,-1.656175032258033752e-02,-1.283813454210758209e-02,-1.337719429284334183e-02,4.573138896375894547e-03,5.059697199612855911e-03,-3.142127767205238342e-02,-3.545032441616058350e-02,-9.473267011344432831e-03,2.700866386294364929e-02,2.963811717927455902e-02,-1.764970272779464722e-02,-1.322262734174728394e-02,-3.154050931334495544e-02,-4.727344494313001633e-03,-2.371698804199695587e-02,-1.378608960658311844e-02,2.093124575912952423e-02,-6.374778691679239273e-03,-1.391394715756177902e-02,-3.192574530839920044e-02,-3.164438530802726746e-02,-2.675410546362400055e-02,1.548621803522109985e-02,2.410878241062164307e-02,1.257938612252473831e-02,-7.397605106234550476e-03,4.988435283303260803e-02,-7.745440583676099777e-03,2.050533890724182129e-02,-4.885282251052558422e-04,1.616793870925903320e-02,2.399946935474872589e-02,-3.022149950265884399e-02,-1.079180277884006500e-02,-2.623188868165016174e-02,-2.369428053498268127e-02,2.232649177312850952e-02,-1.684907358139753342e-03,-7.705850061029195786e-03,1.795235089957714081e-02,-3.988204151391983032e-02,-1.609658449888229370e-02,-1.618508435785770416e-02,-2.265796810388565063e-02,-1.824347861111164093e-02,-2.843386866152286530e-02,-1.308102905750274658e-02,-3.190165758132934570e-02,-5.749487783759832382e-03,-1.124768052250146866e-02,-6.308521842584013939e-04,3.283201903104782104e-02,-1.176511216908693314e-02,-1.971548656001687050e-03,-3.898879513144493103e-02,1.016024872660636902e-02,-2.193912118673324585e-02,-2.762572281062602997e-02,-3.427552804350852966e-02,-1.732278615236282349e-02,1.636638119816780090e-02,1.032859552651643753e-02,9.379297494888305664e-03,-2.296157926321029663e-02,-2.243172749876976013e-02,1.771662756800651550e-02,-1.903498894535005093e-03,-9.668985148891806602e-04,-3.838782757520675659e-02,-3.223564362997421995e-06,-2.284765057265758514e-02,1.539392210543155670e-02,-3.681566566228866577e-02,2.097786962985992432e-02,-4.421580582857131958e-02,-2.001623995602130890e-02,-2.921457029879093170e-02,-2.858584187924861908e-02,7.730528246611356735e-03,-4.907857626676559448e-03,-2.775399759411811829e-02,1.204493455588817596e-02,7.684914395213127136e-03,-1.452657044865190983e-03,3.164901211857795715e-02,-5.826800130307674408e-03,-3.812419017776846886e-03,1.617488823831081390e-02,6.848873454146087170e-04,1.171692274510860443e-02,-3.681492805480957031e-02,-1.091085933148860931e-02,-1.474792254157364368e-03,-2.128334715962409973e-02,-2.475108578801155090e-02,-6.404874380677938461e-03,2.235332317650318146e-02,-1.401120424270629883e-02,1.245507132261991501e-02,-1.432809047400951385e-02,3.057067655026912689e-02,-2.818789333105087280e-02,-2.148878015577793121e-02,1.007942669093608856e-02,-3.876502066850662231e-02,-6.625981535762548447e-03,-2.817538753151893616e-02,1.422986271791160107e-03,-1.467805914580821991e-02,1.973456330597400665e-02,-3.463846817612648010e-02,2.761028148233890533e-02,4.198577255010604858e-02,9.645425714552402496e-03,-1.180263143032789230e-02,2.286812476813793182e-02,1.020063087344169617e-02,1.175195910036563873e-02,9.808053262531757355e-03,4.696654155850410461e-03,7.081857882440090179e-03,-2.455702982842922211e-02,3.678434714674949646e-02,-1.892945729196071625e-02,-3.448606655001640320e-02,2.289234660565853119e-03,-4.846693202853202820e-02,1.595439505763351917e-03,-3.346129879355430603e-02,-1.498026959598064423e-02,-4.281279072165489197e-02,1.799915172159671783e-02,-2.911898307502269745e-02,-1.888442970812320709e-02,1.774769974872469902e-03,-2.671352401375770569e-02,1.343585643917322159e-02,-1.181799825280904770e-02,2.189343422651290894e-02,-3.054907172918319702e-02,-2.293648198246955872e-02,7.867370545864105225e-02,-4.095602780580520630e-02,-2.601746656000614166e-02,-3.794058039784431458e-02,-1.408918667584657669e-02,-2.447119168937206268e-02,7.675120979547500610e-02,-1.186306960880756378e-02,1.863434910774230957e-02,-1.596395671367645264e-02,-2.288792282342910767e-02,-2.504724543541669846e-03,-2.318694815039634705e-02,-4.316124320030212402e-02,1.407019235193729401e-02,-4.609918221831321716e-02,1.532818190753459930e-02,-3.315468505024909973e-02,-2.656914480030536652e-02,2.274996973574161530e-02,-2.332829311490058899e-02,-2.923358604311943054e-02,-8.313670987263321877e-04,2.089096233248710632e-02,1.048146374523639679e-02,3.398375585675239563e-02,2.046360820531845093e-02,-3.030871227383613586e-02,-2.978185564279556274e-02,4.469201713800430298e-02,1.850951695814728737e-03,-1.722542382776737213e-02,2.663119137287139893e-02,-2.983248978853225708e-02,-1.769542880356311798e-02,-3.558412939310073853e-02,4.558314569294452667e-03,1.336700003594160080e-02,-1.209590490907430649e-02,-1.487255189567804337e-02,-3.240023180842399597e-02,2.375626750290393829e-02,1.368768513202667236e-02,-1.513515366241335869e-03,1.458212267607450485e-02,8.108934387564659119e-03,4.115967079997062683e-03,2.080290392041206360e-02,2.566714026033878326e-02,9.292112663388252258e-03,1.550860889256000519e-02,9.457397274672985077e-03,5.817332305014133453e-03,4.215654334984719753e-04,1.007331162691116333e-02,1.203396823257207870e-02,1.006848993711173534e-03,-6.466287304647266865e-04,-5.673166364431381226e-03,1.227474305778741837e-02,-6.303095258772373199e-03,1.510507892817258835e-02,2.693640626966953278e-02,2.931270934641361237e-02,9.450052166357636452e-04,4.046730697154998779e-02,-7.591399364173412323e-03,2.072416618466377258e-02,3.174955770373344421e-02,-2.002161182463169098e-02,3.232296323403716087e-03,1.703138463199138641e-03,-5.325388163328170776e-03,-3.997461497783660889e-02,-1.314492896199226379e-02,-2.279409207403659821e-02,-2.730078529566526413e-03,4.925949964672327042e-03,-1.047940738499164581e-02,1.654856838285923004e-02,8.828279562294483185e-03,9.116575238294899464e-04,5.221474450081586838e-03,-1.599135622382164001e-02,4.473440814763307571e-03,-2.537634037435054779e-02,1.080866903066635132e-02,1.097458694130182266e-02,-1.649484224617481232e-02,3.821072634309530258e-03,4.458643496036529541e-03,-2.577988058328628540e-02,2.510895766317844391e-02,2.521383762359619141e-02,9.565243381075561047e-04,5.430209264159202576e-02,-2.202469483017921448e-02,3.400306776165962219e-02,3.550431504845619202e-02,6.878508254885673523e-03,3.246314590796828270e-03,7.809317670762538910e-03,-3.297260776162147522e-02,-3.669285029172897339e-02,-3.307883813977241516e-02,5.158253945410251617e-03,-1.699396781623363495e-02,-1.690436340868473053e-02,1.748162135481834412e-02,-2.971076779067516327e-02,4.232101491652429104e-05,6.198347546160221100e-03,-5.397289525717496872e-03,1.435569021850824356e-02,-9.128914214670658112e-03,-2.146765962243080139e-02,-2.679405361413955688e-02,-3.317245095968246460e-02,-2.064705453813076019e-02,1.138988323509693146e-02,3.235687315464019775e-02,3.573730587959289551e-02,1.426859853381756693e-05,-3.218049416318535805e-03,-2.690223418176174164e-02,-4.802180628757923841e-04,2.184081450104713440e-02,-3.294678777456283569e-02,1.277481112629175186e-02,-1.915019378066062927e-02,-9.936175309121608734e-03,4.319734405726194382e-03,-1.589854061603546143e-02,-1.350688375532627106e-02,2.879090234637260437e-02,2.875701291486620903e-03,1.833022758364677429e-02,-1.778515055775642395e-03,1.140764262527227402e-02,-3.320585563778877258e-02,4.248007386922836304e-02,7.338813971728086472e-03,1.328586507588624954e-02,-3.251413628458976746e-02,3.654069034382700920e-03,-4.224641248583793640e-03,1.899428106844425201e-02,5.673876404762268066e-02,-2.924666926264762878e-02,3.010588698089122772e-02,3.476897627115249634e-02,9.427634999155998230e-03,-1.946983486413955688e-02,-4.971986636519432068e-03,4.776711761951446533e-02,-4.172378976363688707e-04,1.768830046057701111e-02,-3.626873716711997986e-02,2.139254286885261536e-02,3.318258794024586678e-03,1.600726321339607239e-02,-5.745867267251014709e-03,-1.799517869949340820e-02,-9.827870875597000122e-03,-1.415688637644052505e-02,-1.063789986073970795e-02,-1.593959704041481018e-02,-2.479984983801841736e-02,1.601788587868213654e-02,-4.039655625820159912e-02,3.856202214956283569e-02,1.036830991506576538e-02,7.447052747011184692e-03,3.461550455540418625e-03,-8.117535151541233063e-03,-2.011208608746528625e-02,-8.870852179825305939e-03,2.594982273876667023e-02,-2.158054150640964508e-02,-2.549235709011554718e-02,3.117978340014815331e-03,1.666802447289228439e-03,1.957673206925392151e-02,1.449291966855525970e-02,-2.306493371725082397e-02,-1.761774905025959015e-02,-2.547813206911087036e-02,-1.555355917662382126e-02,1.540681347250938416e-02,-2.478485926985740662e-02,3.100144863128662109e-02,3.562879515811800957e-03,1.484389510005712509e-02,9.332717396318912506e-03,2.260950021445751190e-02,5.665144883096218109e-03,2.478584833443164825e-02,-1.776371337473392487e-02,9.942886419594287872e-03,-3.285463899374008179e-02,-1.797908917069435120e-02,1.900881342589855194e-02,-2.678096061572432518e-03,-1.010276284068822861e-02,2.615287527441978455e-02,2.120747976005077362e-02,-2.198574505746364594e-02,3.264542436227202415e-03,-1.240314170718193054e-02,5.941370502114295959e-03,1.488004159182310104e-02,2.990514971315860748e-02,1.186561398208141327e-02,3.104243427515029907e-03,-3.144689649343490601e-02,-1.004072930663824081e-02,1.900557056069374084e-02,1.859006285667419434e-02,1.337915007025003433e-02,-4.473512992262840271e-02,2.232876606285572052e-02,-1.792415045201778412e-02,-4.739998374134302139e-03,-2.612484060227870941e-02,9.246733039617538452e-03,3.304011654108762741e-03,1.937807886861264706e-03,9.273709729313850403e-03,9.561304003000259399e-03,-9.660297073423862457e-03,2.919109910726547241e-02,2.182605909183621407e-03,-3.316177055239677429e-02,-3.118793480098247528e-02,2.538766898214817047e-02,-3.893610090017318726e-02,2.644662559032440186e-02,-2.007421851158142090e-02,4.413305222988128662e-02,-3.354845568537712097e-02,-3.841006197035312653e-03,5.246121902018785477e-03,-1.852081343531608582e-02,-3.083717264235019684e-02,-1.495572738349437714e-02,-2.461573854088783264e-02
