1.826480962336063385e-02,1.962500810623168945e-02,2.140133082866668701e-02,-5.084085091948509216e-02,-2.224065922200679779e-02,-1.590966433286666870e-02,4.643954709172248840e-02,-1.166643691249191761e-03,-1.654531620442867279e-02,-2.004452608525753021e-02,-3.059024736285209656e-02,-2.509499154984951019e-02,3.348917141556739807e-02,-4.233319684863090515e-02,-7.792775519192218781e-03,4.703972861170768738e-02,-2.793018147349357605e-02,-2.893819101154804230e-02,-4.155009239912033081e-02,1.519295759499073029e-02,-1.508312113583087921e-02,-1.846008934080600739e-02,-4.474104940891265869e-02,-1.729797013103961945e-02,3.505511581897735596e-02,-2.925315871834754944e-02,2.316868305206298828e-02,5.197855457663536072e-02,-3.722295910120010376e-02,1.176225114613771439e-02,2.948434464633464813e-02,-4.806126933544874191e-03,-8.077453821897506714e-03,-3.112749196588993073e-02,-4.726681485772132874e-02,-5.605145916342735291e-02,7.361805532127618790e-03,-2.813577279448509216e-02,2.492618001997470856e-02,2.152800932526588440e-02,-6.247669924050569534e-03,1.692098006606101990e-02,-4.431753605604171753e-02,1.466599293053150177e-02,1.830010674893856049e-02,-4.914833232760429382e-02,-5.136737599968910217e-02,3.250847011804580688e-02,-1.054150052368640900e-02,-1.323177665472030640e-02,-4.967001080513000488e-02,-1.232575997710227966e-02,-4.471400007605552673e-02,-1.223943196237087250e-02,1.238389778882265091e-02,-5.396394059062004089e-03,8.758882991969585419e-03,9.599568322300910950e-03,-3.209353983402252197e-02,-2.406228147447109222e-02,-2.432427369058132172e-02,2.063539251685142517e-02,2.426123479381203651e-03,-4.986001178622245789e-02,-7.369552273303270340e-03,-1.433135592378675938e-03,6.160692870616912842e-02,1.491786073893308640e-02,3.075700812041759491e-02,4.922407865524291992e-02,-1.808328181505203247e-02,3.172686696052551270e-02,2.504010312259197235e-02,-2.221864648163318634e-02,4.722080379724502563e-02,-1.046748645603656769e-02,4.515972360968589783e-02,-4.709901753813028336e-03,-6.785969715565443039e-03,-1.592160947620868683e-02,-1.106578507460653782e-03,-4.039271920919418335e-02,-2.732620202004909515e-02,-1.829900965094566345e-02,4.710498824715614319e-02,5.165623500943183899e-03,5.563412979245185852e-02,1.274525932967662811e-02,-1.404192112386226654e-02,1.907924655824899673e-03,1.722582057118415833e-02,-4.013119731098413467e-03,1.459550578147172928e-02,-2.581924013793468475e-02,9.307234548032283783e-03,-1.233526971191167831e-02,2.829886227846145630e-02,-1.361962500959634781e-02,4.113931581377983093e-02,1.642455905675888062e-02,2.051996299996972084e-03,2.357188239693641663e-02,-6.890280637890100479e-03,2.664255211129784584e-03,4.163871705532073975e-02,3.526972234249114990e-02,-3.912607580423355103e-02,4.093206301331520081e-02,9.525870904326438904e-03,4.265204071998596191e-02,7.678409107029438019e-03,9.876042604446411133e-03,-2.272217534482479095e-02,5.567826703190803528e-02,2.827033586800098419e-02,3.577405214309692383e-02,1.888038474135100842e-03,-1.718791015446186066e-02,-2.358700148761272430e-03,3.506953129544854164e-03,4.892829805612564087e-02,-6.042143795639276505e-03,-6.078488659113645554e-03,2.712489478290081024e-02,-6.047033518552780151e-02,-2.036625333130359650e-02,2.551105059683322906e-02,3.217087313532829285e-02,-2.302471175789833069e-02,-2.206183038651943207e-02,-5.743086338043212891e-02,-1.254585804417729378e-03,3.339832648634910583e-02,-2.748695947229862213e-02,-3.338920325040817261e-02,3.951776400208473206e-02,1.465648878365755081e-03,3.196750953793525696e-02,2.518849447369575500e-02,1.069257501512765884e-02,-1.578566431999206543e-02,-2.623586356639862061e-02,7.771609351038932800e-03,-9.268781170248985291e-03,1.613300293684005737e-02,3.924385830760002136e-02,3.439629450440406799e-02,-1.206891983747482300e-02,9.793391451239585876e-03,-3.008475340902805328e-02,2.884355932474136353e-02,3.172039985656738281e-02,1.975045353174209595e-02,1.182406395673751831e-02,5.110092926770448685e-03,4.120472446084022522e-02,4.653979465365409851e-02,4.737054184079170227e-02,-3.395242244005203247e-02,-4.125535488128662109e-02,2.055468969047069550e-02,1.929557509720325470e-02,-5.907583236694335938e-02,4.486428946256637573e-02,-4.894915968179702759e-02,-2.032526023685932159e-02,-2.342165680602192879e-03,1.081235706806182861e-02,-3.643750026822090149e-02,2.965799346566200256e-02,2.243331260979175568e-02,-2.046491717919707298e-03,-6.228075549006462097e-02,3.783721476793289185e-02,-2.584270015358924866e-02,-1.840590126812458038e-02,8.417781442403793335e-03,-6.577774882316589355e-03,-1.192370150238275528e-02,3.326231986284255981e-02,-1.460949308238923550e-03,-1.345624960958957672e-02,-1.741218008100986481e-02,4.525591060519218445e-02,-2.006380073726177216e-02,-7.677225396037101746e-03,-2.108611725270748138e-02,2.188550680875778198e-02,-6.721647083759307861e-02,-8.543088333681225777e-04,-6.100388243794441223e-02,-1.313523482531309128e-02,4.063829407095909119e-02,-4.014043509960174561e-02,2.573309093713760376e-02,-1.541038788855075836e-02,-3.690249752253293991e-03,-1.805425249040126801e-02,-2.707324922084808350e-02,-5.212897062301635742e-02,-4.778945352882146835e-03,-2.117841877043247223e-02,-2.757073752582073212e-02,1.690579019486904144e-02,-3.666286170482635498e-02,1.052822079509496689e-02,-4.001568630337715149e-02,8.363244123756885529e-04,3.399740904569625854e-02,2.777246758341789246e-02,-5.247773230075836182e-02,4.465952143073081970e-02,-2.480927854776382446e-03,3.221480548381805420e-02,-8.000599220395088196e-03,-3.258292330428957939e-03,-8.604411967098712921e-03,-9.338819421827793121e-03,1.488310284912586212e-02,2.798477932810783386e-02,-2.981827035546302795e-02,5.064971745014190674e-02,-5.464041233062744141e-02,3.235298022627830505e-02,-4.411803930997848511e-02,-2.166351117193698883e-02,-2.321506664156913757e-02,5.442517250776290894e-02,-4.650853201746940613e-02,2.786754630506038666e-03,2.616528049111366272e-02,4.895337671041488647e-02,1.674915850162506104e-02,1.763949729502201080e-02,6.419102661311626434e-03,2.820395305752754211e-02,-2.829556725919246674e-02,1.696009188890457153e-02,4.964916780591011047e-02,1.571559719741344452e-02,-3.332144394516944885e-02,-3.210021555423736572e-02,-1.785878092050552368e-02,-1.061645336449146271e-02,4.771852493286132812e-02,-2.085320837795734406e-02,1.617797650396823883e-02,1.342358719557523727e-02,4.854217544198036194e-02,-2.611133456230163574e-02,-6.059324741363525391e-02,-1.661503314971923828e-02,-2.166525833308696747e-02,8.044895716011524200e-03,-1.092741452157497406e-02,-4.575075581669807434e-02,2.560405619442462921e-02,-2.255486510694026947e-02,1.008854806423187256e-02,2.806185930967330933e-02,3.531977301463484764e-03,-1.010756706818938255e-03,-3.263770788908004761e-02,6.868970114737749100e-03,2.152632921934127808e-02,-4.907910898327827454e-02,-3.425727784633636475e-02,-4.666808247566223145e-02,-6.876642815768718719e-03,-4.927210509777069092e-02,-1.060673035681247711e-02,2.432539127767086029e-02,-1.292785257101058960e-02,-1.440422236919403076e-02,3.035727515816688538e-02,2.449788153171539307e-02,-2.984797768294811249e-02,-1.744468137621879578e-02,-3.155133873224258423e-02,-1.428032387048006058e-02,2.008617855608463287e-02,1.025343430228531361e-03,1.997667737305164337e-02,4.396908730268478394e-02,-5.798964574933052063e-02,2.685362100601196289e-02,1.384805515408515930e-02,-1.835797354578971863e-02,1.157236285507678986e-02,4.473131522536277771e-02,-4.127252846956253052e-02,5.877494066953659058e-02,-4.377798363566398621e-02,-5.370048806071281433e-02,-5.155644938349723816e-02,1.902777142822742462e-02,-8.965620771050453186e-03,-9.880523197352886200e-03,-3.566656261682510376e-02,3.887669742107391357e-02,7.878812961280345917e-03,-3.104352019727230072e-02,3.205266594886779785e-02,-1.033961959183216095e-02,5.263626947999000549e-02,-1.066530682146549225e-02,-3.868588060140609741e-02,4.652144014835357666e-02,-9.083911776542663574e-03,-2.898757532238960266e-02,6.644880771636962891e-02,-9.796196594834327698e-03,-8.831043727695941925e-03,-1.738226599991321564e-02,-4.697971418499946594e-02,2.210149541497230530e-02,-3.639962896704673767e-02,2.139660995453596115e-03,4.589279647916555405e-03,-4.687089845538139343e-02,-9.375629015266895294e-03,1.031572697684168816e-03,1.495848968625068665e-02,4.297315329313278198e-02,-5.089933797717094421e-02,1.355128455907106400e-02,8.656439371407032013e-03,2.498866245150566101e-02,2.345840446650981903e-02,5.774406343698501587e-02,-2.113280259072780609e-02,3.157746791839599609e-02,2.687985077500343323e-02,-1.094353944063186646e-02,-5.978021305054426193e-03,6.495960801839828491e-02,1.734389737248420715e-02,-3.167080134153366089e-02,-6.965656764805316925e-03,3.273263573646545410e-03,-2.330583706498146057e-02,-1.046716421842575073e-02,-4.714297875761985779e-02,2.803429216146469116e-02,-6.141158752143383026e-03,1.467622630298137665e-02,1.239248435012996197e-03,6.842117756605148315e-03,-4.838646575808525085e-02,5.312429741024971008e-03,-4.851153865456581116e-02,-5.297721829265356064e-03,-5.035526305437088013e-02,1.864811219274997711e-02,2.492404310032725334e-03,2.081799786537885666e-03,3.563521429896354675e-03,1.369824074208736420e-02,-6.414977461099624634e-02,-2.098740078508853912e-02,-3.343475237488746643e-02,-3.058729926124215126e-03,1.304600015282630920e-02,4.085163585841655731e-03,-1.228418760001659393e-02,1.342903915792703629e-02,1.757936552166938782e-02,-1.775364018976688385e-02,3.158161416649818420e-02,-3.664401127025485039e-03,-1.398085337132215500e-02,-6.811030954122543335e-02,2.724510990083217621e-02,-2.096905373036861420e-02,-2.786803245544433594e-02,-6.954086944460868835e-03,2.137488126754760742e-02,2.988721802830696106e-02,2.096728794276714325e-02,3.915989771485328674e-02,-4.532949998974800110e-02,-3.749127686023712158e-02,1.488940510898828506e-02,-1.484685484319925308e-02,2.284390293061733246e-02,-5.051248520612716675e-02,-1.988128013908863068e-02,1.858710870146751404e-02,-5.930685997009277344e-02,-5.727710947394371033e-02,3.867064043879508972e-02,-2.622606419026851654e-02,2.216897672042250633e-03,1.994598843157291412e-02,-3.778781369328498840e-02,-4.863191395998001099e-02,-1.090335845947265625e-02,3.640586044639348984e-03,-6.488494575023651123e-02,3.201412409543991089e-02,4.464456439018249512e-02,-2.314325049519538879e-02,1.283458713442087173e-02,-3.080164827406406403e-02,4.110742360353469849e-02,-4.931066185235977173e-03,1.658878475427627563e-02,-1.820409321226179600e-03,9.447665885090827942e-03,8.947035297751426697e-03,-1.618787273764610291e-02,1.449648477137088776e-02,-6.316187791526317596e-03,5.603632703423500061e-02,5.242544040083885193e-02,2.852593176066875458e-02,1.809980906546115875e-02,2.620531991124153137e-02,-4.057994484901428223e-02,1.945849694311618805e-02,-3.929249010980129242e-03,2.286538295447826385e-02,-3.227563202381134033e-02,-2.855318598449230194e-02,9.486390277743339539e-03,2.628604136407375336e-02,-6.346880644559860229e-02,-1.566461659967899323e-02,-2.136610634624958038e-02,-1.987657137215137482e-02,1.291254721581935883e-02,-4.899274930357933044e-02,-1.448135357350111008e-02,2.353571541607379913e-02,1.185944490134716034e-02,-3.043657913804054260e-02,9.032938978634774685e-04,-2.214079536497592926e-02,-2.365366183221340179e-02,-3.303601965308189392e-02,1.347620133310556412e-02,7.064171601086854935e-03,2.210674248635768890e-02,8.294725790619850159e-03,-2.483567968010902405e-02,-2.056070230901241302e-02,-2.752708643674850464e-02,-1.727925240993499756e-02,-3.785850107669830322e-02,5.174371227622032166e-02,2.382715232670307159e-02,3.996912389993667603e-02,-1.639442145824432373e-02,-5.758946016430854797e-02,-2.123305015265941620e-02,-1.714643836021423340e-02,-7.711162790656089783e-03,-1.655290275812149048e-02,3.810786828398704529e-02,-6.531248800456523895e-04,1.968754269182682037e-02,-2.086360193789005280e-02,5.022285506129264832e-02,-1.705266535282135010e-02,2.105003036558628082e-02,2.471614442765712738e-02,2.250092802569270134e-03,6.239122524857521057e-02,1.134855579584836960e-02,-1.443568617105484009e-02,-6.419959012418985367e-03,3.682331368327140808e-02,-1.947948522865772247e-02,-3.221637755632400513e-02,-3.089624829590320587e-02,-1.636375859379768372e-02,-2.467681467533111572e-02,-2.819371968507766724e-02,-7.933952845633029938e-03,1.709860749542713165e-02,-5.294456705451011658e-02,3.290970250964164734e-02,1.218506135046482086e-02,-7.897017523646354675e-03,-7.859056815505027771e-03,-2.548401616513729095e-02,5.436413921415805817e-04,4.338859021663665771e-02,-2.552854828536510468e-02,-7.735351100564002991e-03,1.035123225301504135e-02,-3.063052520155906677e-02,1.635451801121234894e-02,-3.445795178413391113e-02,1.590358093380928040e-02,-1.045677531510591507e-02,-2.918625436723232269e-02,2.102917991578578949e-02,-4.897166788578033447e-02,-1.402975060045719147e-02,-9.515454061329364777e-03,-8.678920567035675049e-03,-3.272408619523048401e-02,1.535205869004130363e-03,-2.624545618891716003e-02,-7.391040679067373276e-03,1.528883073478937149e-02,4.703341424465179443e-02,2.746220119297504425e-02,1.809043064713478088e-02,-5.378715321421623230e-02,-1.638061134144663811e-03
