6.912550423294305801e-03,1.487678615376353264e-03,7.330181077122688293e-03,-2.116909250617027283e-03,4.478456918150186539e-03,-7.407979108393192291e-03,3.388618119060993195e-03,9.663583710789680481e-03,8.405416738241910934e-04,-6.551965139806270599e-03,1.563525199890136719e-02,-1.384608563967049122e-03,2.860612468793988228e-03,1.431630924344062805e-03,1.905571669340133667e-02,4.351129289716482162e-03,2.413687063381075859e-03,-1.632513944059610367e-03,8.355986326932907104e-03,-2.891947282478213310e-03,3.743266919627785683e-03,1.553657278418540955e-02,4.688604734838008881e-03,6.654482334852218628e-03,2.261431072838604450e-04,7.532397285103797913e-03,-2.900329884141683578e-03,-2.692024689167737961e-03,1.334327098447829485e-04,-2.546767937019467354e-03,-6.161067634820938110e-03,4.063712549395859241e-04,2.687728963792324066e-03,1.072639971971511841e-02,4.974647890776395798e-03,4.041341017000377178e-04,-1.656875712797045708e-03,1.520275953225791454e-03,1.716521073831245303e-04,-1.038315473124384880e-03,-4.304615780711174011e-03,2.832479309290647507e-03,1.268584001809358597e-02,6.843082141131162643e-03,5.059376358985900879e-03,7.839502766728401184e-03,1.446374319493770599e-02,6.654785946011543274e-03,8.690595626831054688e-03,3.480404848232865334e-03,8.441916666924953461e-03,2.656369702890515327e-03,-2.583723515272140503e-03,2.311254385858774185e-03,2.491700462996959686e-03,-2.717222319915890694e-03,5.662573967128992081e-03,6.779757793992757797e-03,6.198943592607975006e-03,6.261797971092164516e-04,1.906285528093576431e-03,8.117230609059333801e-03,4.402109421789646149e-03,3.400343703106045723e-03,4.821323323994874954e-03,-2.075479133054614067e-03,1.364105287939310074e-02,7.334257941693067551e-03,-3.763741347938776016e-03,4.478877410292625427e-03,1.058208104223012924e-02,-1.999330474063754082e-03,7.300647441297769547e-03,3.358893096446990967e-03,7.136239204555749893e-03,3.502711188048124313e-03,4.904169123619794846e-03,4.490696359425783157e-03,6.481725722551345825e-03,7.174952886998653412e-03,8.891955949366092682e-03,1.885673613287508488e-03,7.688329555094242096e-03,2.746945712715387344e-03,9.531565941870212555e-03,1.534230727702379227e-02,9.557065553963184357e-03,5.989622790366411209e-03,-3.495680633932352066e-03,4.095102194696664810e-03,1.090963021852076054e-03,7.853159680962562561e-03,2.440145472064614296e-03,1.008757040835916996e-03,2.981481084134429693e-04,8.326419629156589508e-03,-3.389253048226237297e-03,1.557306386530399323e-03,-3.441960550844669342e-03,5.553131457418203354e-03,4.513408523052930832e-03,1.995537662878632545e-03,-6.819165428169071674e-04,6.945602130144834518e-03,8.879742585122585297e-03,1.017284765839576721e-02,-7.213559001684188843e-04,2.992249559611082077e-03,7.970041595399379730e-03,5.980852991342544556e-03,-2.841040259227156639e-03,1.819400303065776825e-02,1.063709426671266556e-02,5.662860814481973648e-03,1.212787115946412086e-03,6.888961885124444962e-03,4.982135724276304245e-03,8.721345104277133942e-03,-8.948171511292457581e-03,7.655928842723369598e-03,-4.099196288734674454e-03,5.841648671776056290e-03,-2.501076087355613708e-03,3.076432738453149796e-03,-8.080475963652133942e-03,8.520342409610748291e-03,-4.960754420608282089e-03,1.012220326811075211e-02,-4.575282335281372070e-03,1.268943492323160172e-02,-8.633676916360855103e-03,9.193034493364393711e-04,-1.525751431472599506e-03,3.808971261605620384e-03,-1.642634160816669464e-03,3.019324271008372307e-03,-2.455346751958131790e-03,5.109158810228109360e-03,-7.708488032221794128e-03,8.111051283776760101e-03,-1.397447567433118820e-02,1.496426179073750973e-03,-8.979260921478271484e-03,1.036221999675035477e-02,-9.293609298765659332e-03,-1.413589925505220890e-03,-7.803355343639850616e-03,-9.144425392150878906e-03,-1.011519227176904678e-02,1.986136659979820251e-03,-1.095472462475299835e-02,2.672095969319343567e-02,6.411563605070114136e-03,-1.005009934306144714e-02,-8.153805392794311047e-04,1.112304744310677052e-03,1.328435447067022324e-02,-1.566156279295682907e-03,-1.791719719767570496e-02,-1.244893856346607208e-02,2.611563773825764656e-03,-9.904263541102409363e-03,-1.311807241290807724e-02,2.779552247375249863e-03,-1.328811421990394592e-02,-1.401367224752902985e-02,-9.232927113771438599e-03,-1.167487446218729019e-02,9.011311456561088562e-03,-4.101607948541641235e-03,-7.806357927620410919e-03,-4.403909202665090561e-03,-1.310909911990165710e-02,1.694664242677390575e-03,-1.860545575618743896e-02,-6.472717039287090302e-03,9.565593674778938293e-03,-7.684912066906690598e-03,-1.215152814984321594e-02,-1.074583735316991806e-02,-9.259631857275962830e-03,-6.240155547857284546e-03,-1.136220339685678482e-02,-4.851389210671186447e-03,-2.932013710960745811e-03,-1.702452450990676880e-02,-5.909819810767658055e-05,7.401435170322656631e-03,-4.305988084524869919e-03,3.877135750371962786e-04,5.229123053140938282e-04,-2.410365035757422447e-03,2.289850264787673950e-03,-1.167781767435371876e-03,-4.874570295214653015e-03,-1.491934643127024174e-03,-2.760741394013166428e-03,-9.682600386440753937e-03,7.164335809648036957e-03,-1.301133632659912109e-02,-1.294922083616256714e-03,-9.014086099341511726e-04,-1.229843683540821075e-02,-1.558509562164545059e-02,1.564622740261256695e-03,-9.411658160388469696e-03,-2.360479906201362610e-03,2.560012415051460266e-02,-7.381573319435119629e-03,-6.463288445957005024e-04,-1.729755476117134094e-02,-1.622621156275272369e-02,-4.251135047525167465e-03,-7.766781840473413467e-03,-7.496407255530357361e-03,-5.083109252154827118e-03,-9.244333021342754364e-03,-1.314011588692665100e-02,-2.311252756044268608e-03,-5.260249134153127670e-03,-5.191458854824304581e-03,5.580178461968898773e-03,-7.713779807090759277e-03,-6.295302882790565491e-03,2.969619572468218394e-06,1.515003480017185211e-02,-3.269198536872863770e-02,-5.092780105769634247e-03,-1.190248783677816391e-02,-1.751369051635265350e-02,2.926319837570190430e-03,-6.737365387380123138e-03,-4.605257883667945862e-03,-8.900403045117855072e-04,4.851407371461391449e-03,-7.141360547393560410e-03,9.759304230101406574e-04,1.289736665785312653e-02,2.721974160522222519e-03,-5.543552339076995850e-03,1.891978643834590912e-02,-6.218848284333944321e-03,-1.566945691592991352e-03,-1.564410142600536346e-02,-4.746906459331512451e-03,-1.190961454994976521e-03,-7.665358949452638626e-03,1.478325016796588898e-02,5.820233840495347977e-03,-1.133074145764112473e-02,2.721093827858567238e-03,-2.005738951265811920e-02,-1.421572058461606503e-03,-1.251263171434402466e-02,3.612719243392348289e-03,-7.693819701671600342e-03,3.436835715547204018e-03,-1.393476221710443497e-02,-5.233863834291696548e-03,1.015761052258312702e-03,-5.489086615853011608e-04,-1.081055868417024612e-02,1.233182963915169239e-03,3.095816355198621750e-04,-6.573035847395658493e-03,-1.168148312717676163e-02,4.798304662108421326e-02,-1.354075409471988678e-02,3.958560060709714890e-03,-9.145439602434635162e-03,-3.371532773599028587e-03,-9.081906639039516449e-03,3.780180588364601135e-02,-1.458516158163547516e-02,2.098211273550987244e-02,8.912285789847373962e-03,3.314982168376445770e-03,7.959586946526542306e-05,1.291993423365056515e-03,-7.580407895147800446e-03,-1.007591839879751205e-03,-1.288831327110528946e-02,-2.076103352010250092e-03,-2.195904031395912170e-02,8.415094576776027679e-03,1.333852391690015793e-02,-2.014162484556436539e-03,-1.199602708220481873e-02,-2.161817625164985657e-03,-8.796355687081813812e-03,6.015838123857975006e-03,2.124376222491264343e-02,-4.536679945886135101e-03,3.545040264725685120e-03,1.039176806807518005e-02,4.505111277103424072e-02,7.034069392830133438e-03,-7.549668662250041962e-03,1.064671948552131653e-02,-8.487115614116191864e-03,3.677164437249302864e-03,-1.144960429519414902e-02,-8.147464133799076080e-03,-1.931554451584815979e-02,1.235935650765895844e-02,-1.160444971174001694e-02,1.899673836305737495e-03,-1.384434988722205162e-03,2.511797240003943443e-03,-1.170693617314100266e-02,5.339927040040493011e-03,-1.165158580988645554e-03,3.690810641273856163e-03,-7.598566822707653046e-03,1.041746698319911957e-02,3.444592584855854511e-04,-3.458024002611637115e-03,-6.283879280090332031e-03,4.623117391020059586e-03,1.055388711392879486e-03,-4.601067863404750824e-03,-8.781843818724155426e-03,8.082807995378971100e-03,-7.168078329414129257e-03,4.820845089852809906e-03,-2.144326642155647278e-02,7.567967288196086884e-03,-1.344814989715814590e-02,-5.424292758107185364e-03,2.098965272307395935e-02,2.089582994813099504e-04,2.022013254463672638e-02,-4.774579429067671299e-04,-4.173876717686653137e-03,5.974795669317245483e-03,-7.397338282316923141e-03,-9.943592362105846405e-03,-2.998352516442537308e-03,-1.014130935072898865e-02,-1.920187845826148987e-03,3.087182529270648956e-03,-8.819273672997951508e-03,1.809709123335778713e-03,-7.788952905684709549e-03,9.416521526873111725e-03,-7.224589120596647263e-03,6.027907133102416992e-03,-1.661274023354053497e-02,6.310932338237762451e-03,-1.385553367435932159e-02,5.193701363168656826e-04,-5.576401017606258392e-03,-1.173770613968372345e-02,-1.427099760621786118e-02,5.114913918077945709e-03,-1.107131317257881165e-02,-3.806646680459380150e-03,-2.639881568029522896e-03,1.266063540242612362e-03,2.474278211593627930e-02,6.265318952500820160e-03,1.155320741236209869e-02,-1.737202866934239864e-03,-3.048730141017585993e-04,2.210564911365509033e-03,3.068014048039913177e-03,-7.072044536471366882e-03,-8.552293293178081512e-03,1.146976486779749393e-03,-2.051888778805732727e-02,-1.583239808678627014e-02,-3.507687943056225777e-03,8.501523174345493317e-03,-9.989406913518905640e-03,-6.821798160672187805e-03,-5.551109090447425842e-03,-3.836201038211584091e-03,1.846990175545215607e-02,-4.124788567423820496e-03,-1.370617537759244442e-04,1.981749758124351501e-02,-3.192593529820442200e-02,-8.609372307546436787e-04,-6.347771268337965012e-03,-2.108713379129767418e-03,-1.548652444034814835e-02,-4.168699670117348433e-04,1.355341169983148575e-02,1.329721976071596146e-02,-1.004114095121622086e-02,2.338112826691940427e-04,-3.064703894779086113e-03,3.268132451921701431e-03,-1.941444352269172668e-02,6.451135966926813126e-03,-1.458098529838025570e-03,-7.789031369611620903e-04,1.455125492066144943e-02,2.391391666606068611e-03,6.543068215250968933e-03,-1.589738967595621943e-04,-1.861041598021984100e-02,-7.945301942527294159e-03,-1.605527708306908607e-03,7.760776206851005554e-04,-1.265178900212049484e-02,8.672633208334445953e-03,6.119425874203443527e-03,-6.362027488648891449e-03,2.088149340124800801e-04,8.545143529772758484e-03,-4.831950180232524872e-03,7.037975359708070755e-03,1.839026622474193573e-02,2.604770008474588394e-03,1.114267576485872269e-02,1.778705045580863953e-02,-3.019734984263777733e-03,4.200322146061807871e-04,-1.100328005850315094e-02,1.953826285898685455e-02,9.392568841576576233e-03,3.682841779664158821e-03,-8.114689029753208160e-03,7.343868725001811981e-03,-1.016613654792308807e-02,1.503773266449570656e-03,-1.084012817591428757e-02,-2.100885380059480667e-03,6.268425495363771915e-04,2.358435187488794327e-03,-1.237239781767129898e-02,3.429996548220515251e-03,-7.989726029336452484e-03,-3.525260370224714279e-03,-1.380931772291660309e-02,2.129458636045455933e-02,-5.742256995290517807e-03,-4.520386573858559132e-05,-3.557182382792234421e-03,8.858168730512261391e-04,-1.917527872137725353e-03,2.826729556545615196e-03,-1.875725109130144119e-03,5.159009248018264771e-03,-9.878946468234062195e-03,1.204431056976318359e-02,-1.550103817135095596e-02,-5.477465223520994186e-03,-1.823572255671024323e-02,-9.356221184134483337e-03,-4.735247232019901276e-03,3.776312340050935745e-03,-1.033836975693702698e-02,-9.500070475041866302e-03,-1.000284031033515930e-02,3.214488178491592407e-02,-8.149732835590839386e-03,-1.661150483414530754e-03,2.867713384330272675e-02,7.723543792963027954e-03,-1.039908826351165771e-02,-2.026922069489955902e-03,-1.192509289830923080e-02,2.739482093602418900e-03,-1.021535880863666534e-02,8.302875794470310211e-03,2.783015742897987366e-02,1.569021120667457581e-02,-1.065615378320217133e-02,-1.052545290440320969e-02,1.340600755065679550e-02,5.542126484215259552e-03,-1.268557365983724594e-02,4.321066953707486391e-04,-1.299172919243574142e-02,1.167738996446132660e-02,1.109160166379297152e-05,7.618308998644351959e-03,-4.923462402075529099e-03,-2.484816592186689377e-03,6.054655648767948151e-03,2.459066547453403473e-02,1.005857158452272415e-02,-2.893564058467745781e-03,-9.641083888709545135e-03,3.356952685862779617e-03,-8.680227212607860565e-03,-7.794185541570186615e-03,-3.975810948759317398e-03,2.985700848512351513e-04,2.917125588282942772e-03,-2.444211160764098167e-03,-1.767935045063495636e-02,1.601146347820758820e-02,-1.150330528616905212e-02,7.817448116838932037e-03,-7.340343203395605087e-03,-7.437166757881641388e-03,-9.799354709684848785e-03,2.415042137727141380e-03,-1.472845207899808884e-02,-4.090351052582263947e-03,-3.198719117790460587e-03,1.884320750832557678e-02,-1.137634739279747009e-02,-5.380529444664716721e-03,-6.800469476729631424e-03,-3.337580012157559395e-03,-8.727628737688064575e-03,-1.836161315441131592e-02,-7.169387768954038620e-03
