1.971966773271560669e-02,-4.929247871041297913e-02,1.193169318139553070e-02,-4.066248983144760132e-02,-3.954141587018966675e-02,-4.402987286448478699e-02,-4.800474643707275391e-02,3.808880283031612635e-04,-3.356204181909561157e-02,6.251089274883270264e-03,-1.725522987544536591e-02,1.862503029406070709e-02,3.389749675989151001e-02,3.587272018194198608e-02,-4.564275592565536499e-02,-2.017917297780513763e-02,2.842353470623493195e-02,-1.201328914612531662e-02,2.908559143543243408e-02,2.607761323451995850e-02,-5.200610309839248657e-02,1.294233743101358414e-02,-8.474397473037242889e-03,1.936148852109909058e-02,2.910631010308861732e-03,-1.283106766641139984e-02,-4.319313913583755493e-02,-1.617888920009136200e-02,-5.097741261124610901e-02,-1.035213284194469452e-02,-6.666103843599557877e-03,-8.855859749019145966e-03,-9.312363341450691223e-03,-3.661243245005607605e-02,-2.867167070508003235e-02,-4.169889166951179504e-02,-5.144735425710678101e-02,-2.040396258234977722e-02,1.626968383789062500e-02,1.617472805082798004e-02,-3.092397004365921021e-02,-1.308400370180606842e-02,4.237380996346473694e-02,-9.968568338081240654e-04,-5.262969993054866791e-03,-1.328662387095391750e-03,-7.642861921340227127e-03,-3.148408234119415283e-02,-3.994242846965789795e-02,-2.841504663228988647e-02,2.463269792497158051e-02,-2.825172431766986847e-02,2.153655886650085449e-02,2.720460854470729828e-02,1.181136909872293472e-02,2.898323582485318184e-03,3.433188796043395996e-02,3.524186462163925171e-02,1.405477803200483322e-02,4.236080870032310486e-02,1.092367689125239849e-03,-2.197154564782977104e-03,2.309554256498813629e-02,-8.457000367343425751e-03,3.161505609750747681e-02,-2.449571713805198669e-02,-2.156840637326240540e-02,6.834219675511121750e-03,-4.794754832983016968e-02,-1.154154539108276367e-03,5.125813186168670654e-03,-2.362056449055671692e-02,-4.483531787991523743e-02,2.697095274925231934e-02,-3.123594820499420166e-02,-2.418359555304050446e-02,2.716545201838016510e-02,-1.302696764469146729e-02,-4.099792987108230591e-02,3.766552731394767761e-02,-2.344006672501564026e-02,-3.655521664768457413e-03,2.735890634357929230e-02,3.509017825126647949e-02,-1.003201305866241455e-02,3.318390250205993652e-02,-1.157506252638995647e-03,-1.832668203860521317e-03,-1.832042075693607330e-02,-2.504409523680806160e-03,2.874191664159297943e-02,3.453882411122322083e-02,2.811895124614238739e-02,6.292379461228847504e-03,-5.244539678096771240e-02,-2.381749078631401062e-02,-3.900793194770812988e-02,3.722227364778518677e-02,-1.872429437935352325e-02,5.414930172264575958e-03,3.502090927213430405e-03,-2.442232891917228699e-02,-2.652438916265964508e-02,3.983695060014724731e-02,-8.185983635485172272e-03,-3.089194744825363159e-02,3.703008219599723816e-02,1.930642686784267426e-02,-1.108733378350734711e-02,-1.956279389560222626e-02,2.667370485141873360e-03,-1.671695522964000702e-02,-4.901050776243209839e-02,3.920695930719375610e-02,-1.772289909422397614e-02,-4.287508130073547363e-02,-3.785610571503639221e-02,1.620781607925891876e-02,-5.548618268221616745e-03,-3.488329425454139709e-02,-2.495069988071918488e-02,1.588672026991844177e-02,2.255314402282238007e-02,-3.428049758076667786e-02,1.354041974991559982e-03,2.408041432499885559e-02,3.707027062773704529e-02,-3.201061487197875977e-02,-2.891971170902252197e-02,-2.125040814280509949e-02,1.759449392557144165e-02,1.041948050260543823e-02,2.565826848149299622e-02,1.597533933818340302e-02,3.570799529552459717e-02,-2.312025986611843109e-02,-4.055085405707359314e-02,-2.549023739993572235e-02,9.297044947743415833e-03,-1.330794952809810638e-02,4.028427973389625549e-02,2.806855924427509308e-02,-2.196997031569480896e-02,1.136744627729058266e-03,-2.882691659033298492e-02,-1.934368722140789032e-02,3.315985202789306641e-02,-2.750601246953010559e-02,-2.749995514750480652e-02,3.935734182596206665e-02,1.602283492684364319e-02,-3.974108025431632996e-02,1.983444578945636749e-02,9.961089119315147400e-03,-4.871575906872749329e-02,-3.542803600430488586e-02,2.350509911775588989e-02,3.406158834695816040e-02,-1.867577619850635529e-02,3.337073372676968575e-03,2.390493452548980713e-02,-3.145672753453254700e-02,2.055954933166503906e-02,3.582709282636642456e-02,-4.235504195094108582e-03,1.145989284850656986e-03,-1.264737080782651901e-02,2.051173523068428040e-02,-3.235660865902900696e-02,3.258825838565826416e-02,-3.982870280742645264e-02,4.471799358725547791e-02,-1.670185476541519165e-03,-7.258590310811996460e-03,-1.204240042716264725e-02,-1.318472623825073242e-02,2.710245549678802490e-02,-9.667675010859966278e-03,-4.280264489352703094e-03,-4.869718477129936218e-02,7.743918336927890778e-03,3.618160635232925415e-02,1.890833862125873566e-02,3.768865764141082764e-02,-1.775494776666164398e-02,2.610023319721221924e-02,1.357131544500589371e-02,-1.258063130080699921e-02,-2.661234140396118164e-02,-3.891184926033020020e-02,2.161174081265926361e-02,-5.365029443055391312e-03,1.944801211357116699e-02,-4.575481638312339783e-02,-3.914283215999603271e-02,-3.376342356204986572e-02,5.131510552018880844e-03,2.341425791382789612e-02,-2.446716092526912689e-02,-6.125990301370620728e-03,-2.918378636240959167e-02,-3.153059259057044983e-02,4.820220917463302612e-02,-8.858914487063884735e-03,1.854876801371574402e-02,4.706925712525844574e-03,6.179513409733772278e-03,1.717444695532321930e-02,5.603433120995759964e-03,2.534112893044948578e-03,2.371143549680709839e-02,4.013063386082649231e-02,1.385157927870750427e-02,-2.671036124229431152e-02,-3.346290811896324158e-02,5.188857205212116241e-03,1.844400539994239807e-02,-5.105577874928712845e-03,-6.474533583968877792e-03,-2.064066939055919647e-02,-4.044722765684127808e-02,4.894017241895198822e-03,-3.417959064245223999e-02,-1.401219610124826431e-02,3.180712088942527771e-02,3.110777772963047028e-02,9.036358096636831760e-04,-5.188992246985435486e-02,-1.146076805889606476e-02,-3.265199065208435059e-02,-3.871408477425575256e-02,-2.896824153140187263e-03,-4.868188500404357910e-02,-4.542056843638420105e-02,-4.268628731369972229e-02,-1.447262824513018131e-03,9.638029150664806366e-03,3.384089842438697815e-02,1.261722482740879059e-02,-2.787311188876628876e-02,-4.756646603345870972e-02,-2.994523942470550537e-02,1.208620425313711166e-02,3.821356967091560364e-02,-4.281483963131904602e-02,1.143641676753759384e-02,3.466060385107994080e-02,5.691181868314743042e-03,-1.655187574215233326e-03,1.305579673498868942e-03,1.521191745996475220e-02,4.475103318691253662e-02,2.419363474473357201e-03,3.093620948493480682e-02,-2.562397904694080353e-02,5.682288669049739838e-03,-2.653765678405761719e-02,2.904997766017913818e-02,2.791244909167289734e-02,-3.444167599081993103e-02,3.072975017130374908e-02,-8.600589819252490997e-03,-1.842243038117885590e-02,4.035328701138496399e-02,9.256786666810512543e-03,4.607530310750007629e-03,-9.308598819188773632e-04,-4.810272902250289917e-02,-4.866126179695129395e-02,2.762447297573089600e-02,3.551101684570312500e-02,-4.524801671504974365e-02,9.961862117052078247e-03,-4.241878539323806763e-02,1.316139660775661469e-02,-2.892585471272468567e-02,9.288585744798183441e-03,-1.401661522686481476e-02,-4.610355943441390991e-02,-3.726023808121681213e-02,2.760334638878703117e-03,1.648812438361346722e-03,3.070583753287792206e-02,-3.480654954910278320e-02,-4.551254585385322571e-02,5.110506899654865265e-03,-4.183914139866828918e-02,1.419155579060316086e-02,3.046798519790172577e-02,2.596271783113479614e-02,1.020646770484745502e-03,-6.545433774590492249e-03,-8.327163755893707275e-03,3.312476351857185364e-02,3.497543185949325562e-02,4.159780219197273254e-02,-1.015599234960973263e-03,2.808622270822525024e-02,-2.551917359232902527e-02,-3.410024568438529968e-02,3.839129954576492310e-02,1.499306596815586090e-02,-3.913376852869987488e-02,-2.645758911967277527e-02,-2.819658815860748291e-02,5.150320939719676971e-03,1.521864789538085461e-03,-4.931114986538887024e-02,-4.359175637364387512e-02,8.773859590291976929e-03,3.608517348766326904e-02,-2.478429302573204041e-02,-4.907107725739479065e-02,7.657031528651714325e-03,-4.828334785997867584e-03,7.792685180902481079e-03,-6.486991886049509048e-03,-3.369183093309402466e-02,8.165418170392513275e-03,6.717232521623373032e-03,-4.200461134314537048e-02,-3.428386896848678589e-02,2.782416716217994690e-02,3.340196982026100159e-02,-3.157507628202438354e-03,1.569289900362491608e-02,-8.093412034213542938e-03,1.731830090284347534e-02,-2.404977753758430481e-02,2.847560308873653412e-02,-3.961361199617385864e-02,-6.379154510796070099e-03,-3.281437978148460388e-02,-3.574701258912682533e-03,-3.038020990788936615e-02,-2.959038875997066498e-02,-2.696797624230384827e-02,-3.758731856942176819e-02,-4.050399363040924072e-02,2.387583255767822266e-02,1.352285686880350113e-02,-1.351690664887428284e-02,-1.014087535440921783e-02,2.877331152558326721e-02,-3.194067999720573425e-02,1.347286067903041840e-02,-3.460910916328430176e-02,-4.549776017665863037e-02,-3.693943098187446594e-02,-5.388495326042175293e-02,-1.373586151748895645e-02,-8.403993211686611176e-03,-3.589448332786560059e-02,-2.601944841444492340e-02,-4.864214733242988586e-02,-5.916696041822433472e-03,1.765928603708744049e-02,-3.159057814627885818e-03,9.991781786084175110e-03,-1.431132853031158447e-02,-5.617233924567699432e-03,1.647800952196121216e-02,-4.721025750041007996e-02,1.554636098444461823e-02,3.494469448924064636e-02,-8.996075950562953949e-03,1.755039580166339874e-02,-1.550403982400894165e-02,2.168992161750793457e-02,-3.225460648536682129e-02,-2.141148783266544342e-02,3.593304660171270370e-03,-1.109128911048173904e-02,-4.557999968528747559e-02,2.066046930849552155e-02,-2.928935177624225616e-02,4.372242838144302368e-02,2.859454788267612457e-02,-3.782570362091064453e-02,2.002082765102386475e-02,-3.105062432587146759e-02,2.895602956414222717e-02,-2.454003132879734039e-02,-5.587664898484945297e-03,1.935894787311553955e-02,-3.228523209691047668e-02,-5.589854344725608826e-02,-2.353359013795852661e-02,8.145876228809356689e-03,2.014036476612091064e-02,-4.910704120993614197e-02,1.610012724995613098e-02,5.650376435369253159e-03,2.009907737374305725e-02,-2.549461321905255318e-03,-1.853039674460887909e-02,3.284855745732784271e-03,-8.198495022952556610e-03,-5.072555318474769592e-02,-2.951948717236518860e-02,-1.241208054125308990e-02,-2.133692614734172821e-02,2.159391343593597412e-02,-2.628482505679130554e-02,1.743389479815959930e-02,2.823156490921974182e-02,-4.044442623853683472e-02,-3.152501210570335388e-02,-3.961930796504020691e-02,-3.586477413773536682e-02,-2.059332281351089478e-02,3.181689232587814331e-02,-2.641509659588336945e-02,-2.420041710138320923e-03,2.438623271882534027e-02,-4.259891062974929810e-02,1.127755083143711090e-02,8.166906423866748810e-03,7.894328795373439789e-03,-3.808805346488952637e-02,2.957066521048545837e-02,3.133956342935562134e-02,-9.171378333121538162e-04,-2.797130122780799866e-02,-4.017638787627220154e-02,3.088046796619892120e-02,1.011381484568119049e-02,-4.400960355997085571e-02,-1.024898956529796124e-03,7.377016823738813400e-03,-4.025913774967193604e-02,-2.085909247398376465e-02,-1.617401279509067535e-02,-2.844989858567714691e-02,-2.867876552045345306e-02,-1.516869384795427322e-02,-3.873430564999580383e-02,2.887705340981483459e-02,3.660240676254034042e-03,8.781089447438716888e-03,-2.951448410749435425e-02,2.071570418775081635e-02,-6.980303674936294556e-03,-1.527743507176637650e-02,-3.360059857368469238e-02,-2.314449101686477661e-02,3.250268474221229553e-02,6.648329086601734161e-03,-3.151888400316238403e-02,-1.775258220732212067e-02,3.546993061900138855e-02,3.144677728414535522e-02,2.840984426438808441e-02,-3.687826544046401978e-02,7.527573965489864349e-03,1.741782762110233307e-02,-4.819953069090843201e-02,3.844482824206352234e-03,3.154012560844421387e-02,1.974497362971305847e-02,-2.816669270396232605e-02,2.825953252613544464e-02,-3.449537232518196106e-02,-7.195834070444107056e-03,-5.060381256043910980e-03,-4.720875620841979980e-02,-9.529676288366317749e-03,5.664105061441659927e-03,3.297558426856994629e-02,1.010084431618452072e-02,-3.410647436976432800e-02,4.191185534000396729e-02,-2.092329226434230804e-02,-2.960857935249805450e-02,-4.371560737490653992e-02,-3.934393450617790222e-02,2.177020721137523651e-02,-2.667512185871601105e-02,-1.416931860148906708e-02,4.133608564734458923e-02,-1.437252573668956757e-02,2.023680321872234344e-02,6.000525318086147308e-03,3.152187913656234741e-02,-3.828154131770133972e-02,-6.207699421793222427e-03,-1.286920346319675446e-02,-4.393279924988746643e-02,-4.115810990333557129e-02,1.248709019273519516e-02,-4.217452555894851685e-02,-2.306432835757732391e-02,-2.855717018246650696e-02,-2.476173080503940582e-02,-3.838296234607696533e-02,-3.213869035243988037e-02,6.512930616736412048e-03,1.427147909998893738e-02,-3.900121897459030151e-02,5.417163483798503876e-03,3.863940387964248657e-02,4.402044415473937988e-02,3.364932164549827576e-02,-4.346914961934089661e-02,-3.308161348104476929e-02,-2.440260536968708038e-02,-4.562898352742195129e-02,6.477704271674156189e-03,-1.059231231920421124e-03,-2.956390194594860077e-02,-3.298093751072883606e-02,-8.214876987040042877e-03,-4.098938405513763428e-02,-3.690005466341972351e-02,-3.863028483465313911e-03,6.493770983070135117e-03,4.060078412294387817e-02,-1.117060147225856781e-02,1.525474898517131805e-02,4.132113605737686157e-02,3.730764612555503845e-02,1.105899550020694733e-02,-3.121121786534786224e-02,1.978832297027111053e-02,3.503055078908801079e-03,2.854757197201251984e-02,-8.275629021227359772e-03,7.053731475025415421e-03,2.895102836191654205e-02,3.562969341874122620e-02,3.051945753395557404e-02,2.936493977904319763e-02,1.282789977267384529e-03,-4.461687430739402771e-02,-4.105569794774055481e-02,8.130093105137348175e-03,5.781293381005525589e-03,2.577167376875877380e-02,-3.018187358975410461e-02,-1.024207938462495804e-02,-3.009582869708538055e-02,1.848762854933738708e-02,-2.634883858263492584e-02,2.573759481310844421e-02,-4.367783293128013611e-02,-4.505820199847221375e-02,-4.774123802781105042e-02,3.414866328239440918e-02,-3.900488838553428650e-02,-2.743888646364212036e-02,3.542968258261680603e-02,-6.861178670078516006e-03,5.434450693428516388e-03,1.160952076315879822e-02,3.867143020033836365e-02,1.445626839995384216e-02,4.041300620883703232e-03,-6.642395630478858948e-03,-3.551670536398887634e-02,-5.596049502491950989e-02,3.843675600364804268e-03,-4.611106589436531067e-02,4.375518485903739929e-02,-3.171740099787712097e-02,1.370921824127435684e-02,-2.345605939626693726e-02,-4.260697402060031891e-03,-3.733026096597313881e-03,5.675894673913717270e-03,-2.827453427016735077e-02,1.170758530497550964e-02,-4.657469224184751511e-03,-1.398173067718744278e-02,3.169677779078483582e-02,-2.986476756632328033e-02,1.802827604115009308e-02,3.103435598313808441e-02,-1.363577321171760559e-03,-4.578617960214614868e-02,-3.416850790381431580e-02,-5.615503992885351181e-03,-2.440952882170677185e-02,-2.375297714024782181e-03,1.144108176231384277e-02,-1.333239581435918808e-02,-2.924203581642359495e-04,1.378257758915424347e-02,-1.119478885084390640e-02,-3.830583393573760986e-02,-3.214765340089797974e-02,-7.982412353157997131e-03,-6.996887532295659184e-05,-4.375191032886505127e-02,-4.795226827263832092e-02,1.241570222191512585e-03,2.608518674969673157e-02,2.824271656572818756e-02,1.771312765777111053e-02,2.322878874838352203e-02,2.242288552224636078e-02,2.861791476607322693e-02,-3.515053540468215942e-02,-9.945202618837356567e-03,-4.689944908022880554e-02,1.657216064631938934e-02,-1.952471211552619934e-02,-2.064276719465851784e-03,-1.725549623370170593e-02,4.045746102929115295e-02,-3.780797123908996582e-02,1.685526221990585327e-02,2.135386690497398376e-03,2.242626808583736420e-02,-4.995220154523849487e-02,-1.903200522065162659e-02,2.190904458984732628e-03,-1.085828430950641632e-02,-5.348382145166397095e-02,2.354214154183864594e-02,-2.771404758095741272e-02,-1.986357150599360466e-03,7.203902583569288254e-03,-6.136059528216719627e-04,-1.763260923326015472e-02,-9.125811047852039337e-03,2.668985910713672638e-02,-4.725932702422142029e-02,-8.524104952812194824e-03,2.873699180781841278e-03,1.708852709271013737e-03,3.339343518018722534e-02,-2.414124645292758942e-02,-3.758035600185394287e-02,-3.388244286179542542e-02,1.808304712176322937e-02,-6.225449498742818832e-03,-1.394185796380043030e-02,-2.544810436666011810e-02,2.387003041803836823e-02,-4.032567143440246582e-02,-3.375199064612388611e-02,2.430436015129089355e-02,-1.074308156967163086e-02,-8.029519580304622650e-03,2.898920327425003052e-02,1.574154570698738098e-02,3.552325814962387085e-02,1.435556728392839432e-02,-1.312099490314722061e-02,5.879375152289867401e-03,2.641279436647891998e-02,-5.044855922460556030e-02,5.104958079755306244e-03,3.680162131786346436e-02,3.558043763041496277e-02,-3.816313669085502625e-02,7.035277783870697021e-03,3.127605468034744263e-02,-1.842314749956130981e-02,1.252931635826826096e-02,-3.695894405245780945e-02,1.081744115799665451e-02,-1.430848892778158188e-02,2.709022164344787598e-02,3.046230040490627289e-02,2.682360634207725525e-02,-2.275127172470092773e-02,-5.096753593534231186e-03,4.907264187932014465e-02,-2.097368799149990082e-02,2.456921897828578949e-02,-3.699017688632011414e-02,-9.964345023036003113e-03,-3.443820774555206299e-02,-6.782164331525564194e-03,3.100074827671051025e-02,1.130296196788549423e-02,-2.462089248001575470e-02,1.379366684705018997e-02,-1.551090180873870850e-02,1.366523560136556625e-02,-1.999164000153541565e-02,-2.903905697166919708e-02,-2.869172208011150360e-02,-1.915972563438117504e-03,-4.396503791213035583e-02,1.121200248599052429e-02,3.126619383692741394e-02,1.411476172506809235e-02,-4.323361068964004517e-02,-1.390985772013664246e-02,3.825906664133071899e-02,-1.232805568724870682e-02,2.561805583536624908e-02,-5.264732055366039276e-03,1.862630248069763184e-02,-5.905428552068769932e-04,1.070024259388446808e-02,-3.403522819280624390e-02,-3.722720220685005188e-02,-1.117537822574377060e-02,-4.968516901135444641e-02,-1.915878802537918091e-02,-9.885008446872234344e-03,-3.350717946887016296e-02,-6.308315321803092957e-03,-2.727986499667167664e-02,-1.089809555560350418e-02,-4.591559246182441711e-02,1.746351271867752075e-02,3.047058125957846642e-03,-3.099109232425689697e-02,-4.166644811630249023e-02,2.760825678706169128e-03,1.045249635353684425e-03,-4.735165834426879883e-02,2.824051305651664734e-02,4.089234862476587296e-03,5.773742217570543289e-03,-4.411124065518379211e-02,4.722662270069122314e-02,4.429065156728029251e-03,-4.445011168718338013e-02,4.946776665747165680e-03,3.329972550272941589e-02,7.262607105076313019e-03,-2.023770473897457123e-02,-1.490680593997240067e-02,-2.078026067465543747e-03,2.644791640341281891e-02,-7.567931897938251495e-03,-2.062334120273590088e-02,9.849552996456623077e-03,-1.450320240110158920e-02,-2.652867883443832397e-02,-2.310064807534217834e-02,2.929134294390678406e-02,-2.504530362784862518e-02,4.335035011172294617e-02,-2.595113217830657959e-02,2.953257225453853607e-02,7.469135802239179611e-03,-1.950684003531932831e-02,-9.083638899028301239e-03,1.112489867955446243e-02,-2.327260002493858337e-02,-3.103224188089370728e-02,-4.219551011919975281e-02,-5.765998270362615585e-03,-3.458841145038604736e-02,2.605397440493106842e-02,-1.335900276899337769e-02,2.725091204047203064e-02,-2.504233038052916527e-03,5.363786593079566956e-03,-4.996257368475198746e-03,-4.673931747674942017e-02,1.527771167457103729e-02,-1.506623346358537674e-03,3.427138179540634155e-02,-1.518877688795328140e-02,3.287241607904434204e-02,2.361740358173847198e-02,-6.504680030047893524e-03,-3.591256961226463318e-02,7.164205890148878098e-03,2.414371119812130928e-03,-2.541080862283706665e-02,-1.549293380230665207e-02,3.503921627998352051e-02,2.511726692318916321e-02,-4.741839319467544556e-02,-1.180517394095659256e-02,-3.216568008065223694e-02,2.835739403963088989e-02,2.957248315215110779e-02,-2.896562032401561737e-02,-4.227473586797714233e-02,2.303832024335861206e-02,9.986193850636482239e-03,-1.058489736169576645e-02,-3.011795133352279663e-02,-1.172995101660490036e-02,1.069495570845901966e-03,-3.972143307328224182e-02,-1.654751040041446686e-02,-1.456575840711593628e-02,-3.661143779754638672e-02,-2.066569775342941284e-02,-1.792410202324390411e-02,2.156378515064716339e-02,-1.540504489094018936e-02,3.026297129690647125e-02,-2.770192362368106842e-02,-8.101499639451503754e-03,6.900785490870475769e-03,3.126547904685139656e-03,-3.078527003526687622e-02,1.688629575073719025e-02,-4.158913716673851013e-02,-7.665212266147136688e-03,-9.595316834747791290e-03,4.200737178325653076e-02,6.869006901979446411e-03,3.385643288493156433e-02,2.351296320557594299e-02,1.229510735720396042e-02,-4.165569320321083069e-02,-1.245957566425204277e-03,-3.854630142450332642e-02,2.022732980549335480e-02,4.723064776044338942e-04,3.029062598943710327e-02,2.372919581830501556e-02,-9.596493095159530640e-03,-1.062842179089784622e-02,-1.286021247506141663e-02,3.710883855819702148e-02,-1.661997288465499878e-02,-4.725319892168045044e-02,-5.499097984284162521e-03,-3.918495029211044312e-02,-5.046860501170158386e-02,2.823755703866481781e-02,4.500521812587976456e-03,-4.389635100960731506e-02,-3.645603731274604797e-02,-2.017335966229438782e-02,9.563836269080638885e-03,1.444608438760042191e-02,-4.956098645925521851e-02,3.148098289966583252e-02,-3.647515177726745605e-02,1.261341292411088943e-02,1.595385186374187469e-02,-2.184418728575110435e-03,-4.738100245594978333e-02,-3.380842506885528564e-02,4.183339478913694620e-04,-3.141973540186882019e-02,3.394416347146034241e-02,-6.619503255933523178e-04,-4.269389063119888306e-02,-4.742902703583240509e-03,-1.684891059994697571e-02,3.471717610955238342e-02,2.301018498837947845e-02,9.674936532974243164e-03,9.275368414819240570e-03,-3.800346329808235168e-02,-3.134730830788612366e-02,-2.506528794765472412e-02,2.767040580511093140e-02,1.350726559758186340e-02,-5.124210938811302185e-02,4.148348048329353333e-02,2.783937752246856689e-02,-1.423610141500830650e-03,2.664458565413951874e-02,7.142151589505374432e-04,-1.077422313392162323e-02,-3.598301485180854797e-02,2.272563986480236053e-02,-3.711634129285812378e-02,-4.877371713519096375e-02,3.937689960002899170e-02,-3.805501386523246765e-02,-1.500647142529487610e-02,-1.108474843204021454e-02,6.783572491258382797e-03,-4.281366989016532898e-02,2.729577012360095978e-02,3.314925357699394226e-02,-8.510876446962356567e-03,-6.274045445024967194e-03,-4.467699304223060608e-02,-1.467090751975774765e-02,-1.276621222496032715e-02,-4.156122356653213501e-02,1.822310686111450195e-02,3.104124963283538818e-02,-9.756701067090034485e-03,-4.298234730958938599e-02,2.852131426334381104e-02,2.456701546907424927e-02,-3.736175363883376122e-03,7.922064396552741528e-04,2.077449858188629150e-02,-4.567861929535865784e-02,-1.717425324022769928e-02,-3.883949667215347290e-02,-2.619339525699615479e-02,-1.454239804297685623e-02,-4.815430194139480591e-02,7.589992135763168335e-03,2.683595567941665649e-02,-4.456412512809038162e-03,-5.470363423228263855e-03,-2.122868783771991730e-02,-2.943955361843109131e-02,-3.088919259607791901e-02,-2.280487492680549622e-02,3.300037607550621033e-02,-2.094305865466594696e-02,-3.813760355114936829e-02,-2.662485837936401367e-02,-1.520455721765756607e-02,3.241385892033576965e-02,-3.097690828144550323e-02,3.818808123469352722e-02,-2.792146243155002594e-02,-3.363267332315444946e-02,-2.788694575428962708e-03,-8.477344177663326263e-03,-1.801604777574539185e-02,-5.971816368401050568e-03,3.633492812514305115e-02,-4.048244655132293701e-02,4.157380200922489166e-03,-3.435121476650238037e-02,-1.949364878237247467e-02,-1.764371991157531738e-02,-1.835070550441741943e-02,-1.348427496850490570e-02,3.391306102275848389e-02,-1.966050826013088226e-02,-5.037621129304170609e-03,3.314523398876190186e-02,-2.474334277212619781e-02,9.131077094934880733e-04,-2.936530672013759613e-02,3.695962205529212952e-02,-1.331006828695535660e-02,-3.029187209904193878e-03,-3.388045728206634521e-02,-4.360479116439819336e-02,-1.722717657685279846e-03,1.864217780530452728e-02,4.119013622403144836e-02,-1.391114853322505951e-02,-2.414393424987792969e-02,3.311704844236373901e-02,-6.902977358549833298e-03,-3.078156895935535431e-02,-1.813717000186443329e-02,-2.736354712396860123e-03,1.930761151015758514e-02,-4.599140211939811707e-02,-3.164103999733924866e-02,9.355239570140838623e-03,-5.058681219816207886e-02,-2.313682809472084045e-02,3.394237160682678223e-02,2.917404472827911377e-02,3.580635180696845055e-03,2.387633360922336578e-02,-3.851505368947982788e-02,-3.686807304620742798e-02,2.275316417217254639e-02,-1.988860592246055603e-02,-5.210695788264274597e-02,2.079722285270690918e-02,-9.403816424310207367e-03,-4.490406066179275513e-02,-4.161365702748298645e-02,3.005340509116649628e-02,2.531742863357067108e-02,-3.252996504306793213e-02,-2.701540291309356689e-02,-3.284404799342155457e-02,-1.932930387556552887e-02,-4.146060347557067871e-02,3.392215445637702942e-02,9.644118137657642365e-03,1.024890784174203873e-02,-9.919174946844577789e-03,-3.575636819005012512e-02,3.580108284950256348e-02,1.806582883000373840e-02,4.351018741726875305e-02,-5.050474312156438828e-03,-1.704588532447814941e-02,-1.869926601648330688e-02,6.969874957576394081e-04,-2.351757325232028961e-02,5.261730402708053589e-04,-1.851701759733259678e-03,-3.156919730827212334e-03,-3.893932327628135681e-02,-1.945125311613082886e-02,1.918560080230236053e-02,-1.182106044143438339e-02,-3.044816106557846069e-02,-1.417813450098037720e-02,-4.437316954135894775e-02,4.184997826814651489e-02,3.682602196931838989e-02,4.144589602947235107e-02,2.006378397345542908e-02,1.462926622480154037e-02,7.231452036648988724e-03,-5.082369316369295120e-04,-8.281062357127666473e-03,3.133723512291908264e-02,1.071910839527845383e-02,-1.321926433593034744e-02,-2.291641663759946823e-03,-1.823925413191318512e-02,1.205421425402164459e-02,-3.937410190701484680e-02,-3.048891760408878326e-02,-1.490936148911714554e-02,3.902350738644599915e-02,3.113421238958835602e-02,2.835787273943424225e-02,-2.720518037676811218e-02,-7.210216484963893890e-03,1.907712966203689575e-02,-3.436123579740524292e-02,1.488416735082864761e-02,-9.550645947456359863e-03,1.493041124194860458e-02,-9.995499625802040100e-03,-3.739900887012481689e-02
