-3.121967427432537079e-02,-3.916793689131736755e-02,3.457130491733551025e-02,-3.558860346674919128e-02,3.733324119821190834e-03,-4.225528240203857422e-02,-2.629443258047103882e-02,7.058743853121995926e-03,-2.868590503931045532e-02,-9.551723487675189972e-03,-4.909123759716749191e-03,-7.397853769361972809e-03,-1.259404327720403671e-02,1.405931636691093445e-02,-2.171652950346469879e-02,-2.591875148937106133e-03,3.347262274473905563e-03,-4.827644303441047668e-02,2.030785568058490753e-02,-3.471352159976959229e-02,8.510249666869640350e-03,3.313820064067840576e-02,-3.356141597032546997e-02,1.192786265164613724e-02,2.249160036444664001e-02,-1.755010709166526794e-02,4.560524597764015198e-02,-2.706576883792877197e-02,1.493872702121734619e-02,-5.175695940852165222e-02,6.102144252508878708e-03,-2.372164092957973480e-02,1.278170291334390640e-02,-3.537037968635559082e-02,4.441762715578079224e-02,-3.324596211314201355e-02,-2.223299071192741394e-02,-3.130211308598518372e-02,4.205565154552459717e-02,1.658795028924942017e-02,-6.611543707549571991e-03,-5.767016671597957611e-03,-3.400193527340888977e-02,2.224469557404518127e-02,-3.496563434600830078e-02,-1.756818406283855438e-02,3.941689617931842804e-03,3.902051597833633423e-02,5.540210288017988205e-03,-1.295779552310705185e-02,-1.104066334664821625e-02,-2.218118309974670410e-02,2.342534996569156647e-02,-1.614245004020631313e-03,1.474606525152921677e-02,-1.426202338188886642e-02,1.496729068458080292e-02,3.236974775791168213e-02,6.937165278941392899e-03,3.507224842905998230e-02,-3.112036734819412231e-02,-2.257437445223331451e-02,-7.851800881326198578e-03,3.474085405468940735e-02,7.519929669797420502e-03,1.826467923820018768e-02,1.890514977276325226e-02,3.917788155376911163e-03,3.203793615102767944e-02,-5.381712224334478378e-03,-5.738211795687675476e-03,-2.050497941672801971e-02,-3.944110870361328125e-02,2.246993966400623322e-02,-3.418667614459991455e-02,2.416684478521347046e-02,4.212772473692893982e-03,1.639569178223609924e-02,3.927937243133783340e-03,-1.120026968419551849e-02,-6.391767412424087524e-03,3.410979732871055603e-02,3.387783095240592957e-02,1.100390776991844177e-02,3.480365499854087830e-02,1.807997748255729675e-02,8.736828342080116272e-03,1.559308264404535294e-02,2.473173476755619049e-02,-3.002048470079898834e-02,2.749875932931900024e-02,-1.084324158728122711e-02,1.761227101087570190e-02,-2.432961948215961456e-02,-2.468151040375232697e-02,-2.507437765598297119e-02,2.248805947601795197e-03,-1.473578903824090958e-02,-3.641351312398910522e-02,-1.821579411625862122e-02,1.501449197530746460e-02,-3.682292625308036804e-02,1.627003028988838196e-02,3.660989180207252502e-02,-2.393997274339199066e-02,3.119770437479019165e-03,2.459040842950344086e-03,4.343464225530624390e-02,-7.593730464577674866e-03,-9.162955917418003082e-03,-2.577316947281360626e-02,4.768257588148117065e-02,-9.657781571149826050e-03,-6.385962478816509247e-03,4.351030290126800537e-02,-4.094315320253372192e-02,-3.780659660696983337e-02,9.273245930671691895e-03,1.300093997269868851e-02,2.453811652958393097e-02,-2.553845383226871490e-02,7.380561903119087219e-03,-2.014397829771041870e-02,-3.874078765511512756e-02,-1.482354942709207535e-02,1.160558313131332397e-02,2.349736914038658142e-02,-1.868011988699436188e-02,1.238770317286252975e-02,2.557205967605113983e-03,1.209483016282320023e-02,-1.727845519781112671e-02,-3.167529404163360596e-02,1.734505593776702881e-02,-1.150297187268733978e-02,3.666323423385620117e-02,1.479853875935077667e-02,-3.682101517915725708e-02,-1.575027406215667725e-02,1.753368414938449860e-02,1.525713247247040272e-03,1.251063589006662369e-02,2.432030439376831055e-02,1.154861971735954285e-02,1.459079515188932419e-02,-1.489858049899339676e-02,-3.596537187695503235e-02,-3.627285826951265335e-03,-3.563493490219116211e-02,1.627321355044841766e-02,-2.273284271359443665e-02,3.956977277994155884e-02,1.620145514607429504e-02,-4.103377088904380798e-02,2.041076123714447021e-02,6.274628103710711002e-04,4.199504107236862183e-02,2.222395502030849457e-02,-3.831000253558158875e-02,-9.206507354974746704e-03,-2.803275361657142639e-02,2.177701517939567566e-02,-5.605237558484077454e-02,1.943271420896053314e-02,-1.499505341053009033e-02,-3.962410613894462585e-02,-3.460042551159858704e-02,-1.458889897912740707e-02,-5.556691903620958328e-03,3.243741020560264587e-02,-3.786291927099227905e-02,4.137167707085609436e-02,-1.743247359991073608e-02,-5.368059966713190079e-03,-1.356809586286544800e-02,2.212128788232803345e-02,5.117506720125675201e-03,-4.084830358624458313e-02,-2.384528890252113342e-02,6.432516034692525864e-03,-2.505566179752349854e-02,-6.489510182291269302e-03,1.529927179217338562e-02,-1.156433485448360443e-02,3.273066133260726929e-02,-4.572207853198051453e-02,-2.900019474327564240e-02,2.508510649204254150e-02,8.555367588996887207e-03,-8.980540558695793152e-03,2.185528911650180817e-02,-8.183781057596206665e-03,1.337197143584489822e-02,-4.481528699398040771e-02,2.772757038474082947e-02,-2.265072427690029144e-02,-5.063794553279876709e-02,-2.302171476185321808e-02,-4.144475236535072327e-02,-3.356174379587173462e-02,-2.486660517752170563e-02,-1.605715416371822357e-02,8.644050103612244129e-04,1.927523687481880188e-02,2.099766395986080170e-02,-5.565371364355087280e-02,-2.392993681132793427e-02,4.348860122263431549e-03,3.601071983575820923e-02,2.219997346401214600e-02,-3.888553753495216370e-02,-2.616339176893234253e-02,1.707451231777667999e-02,4.402439296245574951e-02,2.391232550144195557e-02,4.411449283361434937e-02,2.665295079350471497e-02,-9.387344121932983398e-03,2.991979382932186127e-02,-1.122046611271798611e-03,-1.654728688299655914e-02,-9.661952033638954163e-03,3.069644793868064880e-02,1.162147987633943558e-02,-3.021502681076526642e-02,-1.190214604139328003e-02,-6.212030723690986633e-02,-1.922910846769809723e-02,2.932339161634445190e-02,-2.207413502037525177e-02,2.768231369554996490e-02,-1.603064499795436859e-02,1.498081069439649582e-02,9.456403553485870361e-03,3.800982609391212463e-02,-2.023011073470115662e-02,-3.335221204906702042e-03,-2.379505708813667297e-02,-6.672864401480183005e-05,-1.692171394824981689e-02,-3.196152299642562866e-02,-4.609115794301033020e-02,1.657701097428798676e-02,-8.057073689997196198e-03,8.525527082383632660e-03,-3.766659647226333618e-02,-2.251621894538402557e-02,4.876162484288215637e-02,-2.935071475803852081e-02,8.316870778799057007e-03,1.189465541392564774e-02,2.458112873136997223e-02,-8.075590594671666622e-04,1.995817199349403381e-02,-4.783814772963523865e-02,1.834406889975070953e-02,4.356440156698226929e-02,-2.324545569717884064e-02,2.530837245285511017e-02,1.621098816394805908e-02,9.923361241817474365e-03,-7.499241270124912262e-03,3.547322750091552734e-02,4.229218512773513794e-02,2.287910319864749908e-02,-3.343886137008666992e-02,3.372207656502723694e-02,1.377929467707872391e-02,-8.809907361865043640e-03,3.024174645543098450e-02,-4.164269939064979553e-02,8.602515794336795807e-03,6.655594706535339355e-02,8.311356417834758759e-03,1.931701041758060455e-02,5.646614357829093933e-02,-1.901858299970626831e-02,-2.038198988884687424e-03,2.706544473767280579e-02,2.613573707640171051e-02,3.937245905399322510e-02,-5.879422649741172791e-03,-1.593547873198986053e-02,-3.741428256034851074e-02,-4.579414799809455872e-02,5.786091089248657227e-02,-3.621017932891845703e-02,4.902046173810958862e-03,2.828338416293263435e-03,-2.082025073468685150e-02,8.180332370102405548e-03,2.949118241667747498e-02,-1.780577562749385834e-02,-5.891114845871925354e-02,-2.966664731502532959e-02,6.941383332014083862e-02,2.399421297013759613e-02,-3.979124873876571655e-02,-2.587331458926200867e-02,-2.377622574567794800e-02,-1.569351181387901306e-03,-4.352710396051406860e-02,-2.309275604784488678e-02,7.791274692863225937e-03,2.633311599493026733e-02,-1.208882499486207962e-02,-3.497617691755294800e-02,2.105336077511310577e-02,-5.787758622318506241e-03,-3.648971766233444214e-02,3.025420010089874268e-02,-4.227349534630775452e-02,-6.576559040695428848e-03,-1.141071505844593048e-02,-4.743806552141904831e-03,2.281152084469795227e-02,-5.195846408605575562e-02,-3.955005854368209839e-02,1.173378550447523594e-03,-2.899929508566856384e-02,9.754809550940990448e-03,-1.320595201104879379e-02,-1.206961553543806076e-02,-8.475523442029953003e-03,1.892581023275852203e-02,1.895267516374588013e-02,-2.572322729974985123e-03,-9.961956180632114410e-03,4.821644723415374756e-02,8.027153671719133854e-04,-3.055570647120475769e-02,1.517573557794094086e-02,-3.248730674386024475e-02,1.810369454324245453e-02,-3.901510685682296753e-02,-2.363260602578520775e-03,2.188486047089099884e-02,-2.548191137611865997e-02,-2.176240459084510803e-02,-3.948189318180084229e-02,-2.495700865983963013e-02,-3.916395083069801331e-02,-3.039322607219219208e-02,4.714357666671276093e-03,3.104974515736103058e-02,2.799209393560886383e-02,-3.947705030441284180e-02,-1.025274302810430527e-02,2.449024002999067307e-03,-2.972592040896415710e-02,1.881222054362297058e-02,7.956454530358314514e-03,1.280530262738466263e-02,3.696276806294918060e-03,3.585641086101531982e-02,2.007067017257213593e-02,-5.336811300367116928e-04,2.584360912442207336e-02,1.458111871033906937e-02,4.004925955086946487e-03,7.023121695965528488e-03,1.457019243389368057e-02,1.389712560921907425e-02,4.194115102291107178e-02,1.058926107361912727e-03,1.415013801306486130e-03,-4.088766872882843018e-03,-1.911967806518077850e-02,3.282035142183303833e-02,-2.900314889848232269e-02,-4.981408268213272095e-02,7.010419387370347977e-03,1.842228136956691742e-02,2.111217752099037170e-02,3.681150963529944420e-03,-5.047924350947141647e-03,-4.440017044544219971e-02,6.504021584987640381e-02,3.294884040951728821e-02,-9.387020952999591827e-03,-1.861814223229885101e-02,-4.530158266425132751e-02,-3.816731646656990051e-02,2.175924554467201233e-02,2.843855693936347961e-02,-4.665136337280273438e-02,1.192056387662887573e-02,5.435381829738616943e-02,-2.496445178985595703e-02,-4.415292292833328247e-02,1.790790073573589325e-02,-2.927346527576446533e-02,3.928622230887413025e-03,-4.253698885440826416e-02,1.107751391828060150e-02,-2.606307715177536011e-02,-3.596132248640060425e-02,-2.861401252448558807e-02,-3.957442566752433777e-02,-6.411277689039707184e-03,1.721595181152224541e-03,-6.537628918886184692e-02,-2.899763733148574829e-02,-3.208461403846740723e-02,1.000023726373910904e-02,-1.769191585481166840e-02,2.216408029198646545e-02,9.180652908980846405e-03,-5.282158032059669495e-02,-2.130232192575931549e-02,1.518421713262796402e-02,3.370763733983039856e-02,7.987133227288722992e-03,4.666988551616668701e-02,2.267753705382347107e-02,1.640150509774684906e-02,9.635717608034610748e-03,2.292947843670845032e-03,1.248688530176877975e-02,1.444897521287202835e-02,3.256707685068249702e-03,-4.101034719496965408e-03,1.467109099030494690e-02,2.520148642361164093e-02,-4.486531019210815430e-02,-5.272251367568969727e-02,3.389393538236618042e-02,1.339404843747615814e-02,-4.413016140460968018e-03,4.619696736335754395e-02,-2.082131104543805122e-03,-5.056877061724662781e-02,-4.388682171702384949e-02,1.421769149601459503e-02,-4.029787331819534302e-02,-1.073845289647579193e-02,2.160095423460006714e-02,-3.396281972527503967e-03,-1.773397438228130341e-02,-1.660181581974029541e-02,4.348353669047355652e-02,1.429718360304832458e-02,2.014834247529506683e-02,-1.136031933128833771e-02,-1.811867579817771912e-02,-5.886265262961387634e-02,2.895411662757396698e-02,1.870333915576338768e-03,-3.298749215900897980e-03,-4.894763603806495667e-02,-1.177841983735561371e-02,-1.505646668374538422e-02,4.191119223833084106e-02,1.047569513320922852e-02,-5.868731066584587097e-03,-1.123363897204399109e-02,7.168412208557128906e-02,1.560107897967100143e-02,2.882720157504081726e-02,9.278799407184123993e-03,-1.294046756811439991e-03,-3.193735331296920776e-02,-1.491256896406412125e-02,-1.592879369854927063e-02,1.981233246624469757e-02,-7.197417784482240677e-03,-7.309678010642528534e-03,2.179057523608207703e-02,-4.079325497150421143e-02,-4.829582944512367249e-02,-1.167138200253248215e-02,1.530040241777896881e-02,1.401869207620620728e-02,7.211297051981091499e-04,-7.988587953150272369e-03,-3.966856282204389572e-03,1.457672659307718277e-02,2.620080113410949707e-02,3.283566981554031372e-02,4.986367747187614441e-02,-7.488641422241926193e-03,-2.284829877316951752e-02,-1.818760670721530914e-02,4.624479264020919800e-02,-4.394693300127983093e-02,-4.991474747657775879e-02,-5.795220844447612762e-03,3.816168010234832764e-02,-4.073227569460868835e-02,3.432608395814895630e-02,2.238147519528865814e-02,-4.900961183011531830e-03,1.122565008699893951e-02,-4.570565745234489441e-02,2.412585727870464325e-02,-1.618029735982418060e-02,-1.366073451936244965e-02,-3.657137230038642883e-02,5.059178802184760571e-04,-2.100078709190711379e-04,-3.297173604369163513e-02,2.298316918313503265e-02,1.894451561383903027e-03,-3.359485790133476257e-02,1.720129325985908508e-02,-1.615903526544570923e-02,3.328562155365943909e-02,-5.661088228225708008e-02,-1.161520741879940033e-02,1.879349118098616600e-03,-3.608834464102983475e-03,-3.197408281266689301e-03
