5.145071446895599365e-02,2.682287432253360748e-02,7.268828805536031723e-03,-7.340554613620042801e-03,-2.823795378208160400e-02,3.079522959887981415e-02,1.958923973143100739e-02,-2.512171491980552673e-02,1.546790357679128647e-02,-5.074276775121688843e-02,4.283368214964866638e-02,3.651813790202140808e-02,5.023419111967086792e-02,-4.873671568930149078e-03,3.636324778199195862e-03,-5.130808055400848389e-02,3.704253584146499634e-02,-9.897983632981777191e-03,-2.129242196679115295e-02,2.086023986339569092e-02,-1.322155818343162537e-02,3.442821980570442975e-05,-2.232352457940578461e-02,3.584241122007369995e-02,3.132823482155799866e-02,4.087977111339569092e-02,-2.831241348758339882e-03,3.756296634674072266e-02,2.678436972200870514e-02,-4.832571372389793396e-02,-6.512367166578769684e-03,-1.094679720699787140e-02,2.979410253465175629e-02,-3.958964254707098007e-03,2.819534577429294586e-02,3.144515305757522583e-02,-1.154086459428071976e-02,-2.206265693530440331e-03,3.238749876618385315e-02,-1.754746213555335999e-02,1.019670814275741577e-02,-2.699349448084831238e-02,-6.626305985264480114e-04,-1.172588672488927841e-02,2.600696496665477753e-02,-1.158197876065969467e-02,1.428409013897180557e-02,2.934719901531934738e-03,7.619389332830905914e-03,1.452093571424484253e-02,3.102806583046913147e-02,-4.589517787098884583e-02,3.354370221495628357e-02,-2.369706705212593079e-02,-1.650937274098396301e-02,2.921854704618453979e-02,-1.814692094922065735e-02,-1.422308012843132019e-02,-2.349781617522239685e-02,1.450002286583185196e-02,9.440247085876762867e-04,4.933156538754701614e-03,-1.541940681636333466e-02,-1.299423398450016975e-03,3.332516923546791077e-02,-1.774700358510017395e-02,-1.226746756583452225e-02,-2.300387062132358551e-02,-1.195735577493906021e-02,-1.339060626924037933e-02,1.743497699499130249e-02,-5.509448051452636719e-02,4.522961005568504333e-02,1.395213231444358826e-02,1.605374738574028015e-02,2.477711811661720276e-02,1.027909293770790100e-02,4.548012465238571167e-02,2.516992948949337006e-02,2.841289155185222626e-02,-4.318566061556339264e-03,1.363809965550899506e-02,3.952462226152420044e-02,2.186842821538448334e-02,2.826656214892864227e-02,-1.234640926122665405e-02,-1.592665910720825195e-03,-1.072586886584758759e-02,-2.680678293108940125e-02,2.848244644701480865e-02,4.818484187126159668e-02,-1.341408205917105079e-04,1.703445427119731903e-02,4.254488274455070496e-02,-1.716743968427181244e-02,3.617167845368385315e-02,1.816369220614433289e-02,-2.531759813427925110e-02,-9.082840755581855774e-03,2.915364876389503479e-02,7.218181155622005463e-03,-1.707877963781356812e-02,-2.104943618178367615e-02,1.320419926196336746e-02,6.082561984658241272e-02,-3.175230324268341064e-02,1.959729008376598358e-02,1.219882164150476456e-02,3.270075842738151550e-02,-4.706253111362457275e-02,-1.947241276502609253e-02,-2.733918279409408569e-02,1.210050657391548157e-02,2.212125621736049652e-02,-6.742959842085838318e-03,-1.955880224704742432e-02,4.517460614442825317e-02,2.391437441110610962e-02,5.058711022138595581e-02,4.204341769218444824e-02,6.290033459663391113e-02,1.227989979088306427e-02,6.904641538858413696e-02,-1.142909377813339233e-02,-1.931716129183769226e-02,2.091516368091106415e-02,1.279095560312271118e-02,4.006300866603851318e-02,6.792682223021984100e-03,5.221036076545715332e-02,5.195933952927589417e-02,2.158903889358043671e-02,-2.667327597737312317e-02,1.780973933637142181e-02,1.565077528357505798e-02,1.455887220799922943e-02,4.562529549002647400e-02,4.259417578577995300e-02,3.325474634766578674e-02,2.504821494221687317e-02,-5.734679475426673889e-02,-1.691757515072822571e-02,3.282663598656654358e-02,2.977569587528705597e-02,-6.005029380321502686e-02,4.518647119402885437e-02,-7.577544543892145157e-03,-1.489584799855947495e-03,-9.035809896886348724e-03,4.508842527866363525e-02,1.263166312128305435e-02,-2.528748661279678345e-02,-1.643554680049419403e-02,4.143273830413818359e-02,7.558245677500963211e-03,1.328968442976474762e-02,-1.527211349457502365e-02,5.780862178653478622e-03,-2.022302895784378052e-02,-2.598864957690238953e-02,-6.072215735912322998e-03,4.242109134793281555e-02,-3.462955355644226074e-02,1.586398296058177948e-02,-5.528233200311660767e-02,3.157535195350646973e-02,-4.558594524860382080e-02,-2.462329342961311340e-03,6.419933587312698364e-02,5.377499759197235107e-02,1.854426600039005280e-02,-1.176209934055805206e-02,-4.269595071673393250e-02,2.015661820769309998e-02,-2.524480409920215607e-02,-2.443689852952957153e-02,-1.914993487298488617e-02,6.266048550605773926e-02,2.019522711634635925e-02,2.024546451866626740e-02,-6.625410169363021851e-02,-1.973781175911426544e-02,7.847222499549388885e-03,-3.335812827572226524e-03,-3.134027123451232910e-02,2.115350682288408279e-03,-6.537852436304092407e-02,5.507596209645271301e-02,-3.889080882072448730e-02,-1.648178324103355408e-02,-2.484424971044063568e-02,2.160401269793510437e-02,-3.929574787616729736e-02,2.941069006919860840e-02,4.443161934614181519e-02,3.206444904208183289e-02,-5.267351400107145309e-03,-2.389582991600036621e-02,-1.441401150077581406e-02,-2.431507222354412079e-02,-1.768275746144354343e-03,5.940655618906021118e-02,-1.869233325123786926e-02,-2.830780111253261566e-02,1.594689860939979553e-02,-4.699876531958580017e-02,-3.291790559887886047e-02,2.761687524616718292e-02,-4.813623055815696716e-02,4.602314438670873642e-03,-5.707184318453073502e-04,-1.237080059945583344e-02,3.215071558952331543e-02,-3.411138057708740234e-02,-3.618682548403739929e-02,-2.480664104223251343e-02,-2.756159752607345581e-03,-1.849444024264812469e-02,2.186721190810203552e-02,7.420790847390890121e-03,-3.394740074872970581e-02,-3.476932272315025330e-02,-4.880484938621520996e-02,1.181379426270723343e-02,2.422829531133174896e-02,5.696460232138633728e-02,4.408827517181634903e-03,-6.109692039899528027e-04,6.458813440985977650e-04,-2.224309369921684265e-02,-3.597459197044372559e-02,4.056543856859207153e-02,7.345924619585275650e-03,1.776404120028018951e-02,2.111796662211418152e-02,-2.728170715272426605e-02,-9.803859516978263855e-03,2.716143988072872162e-02,-3.673142939805984497e-02,-1.677726767957210541e-02,2.286535687744617462e-02,1.059621572494506836e-02,6.608509924262762070e-03,-2.952082082629203796e-02,-1.086352858692407608e-02,5.471139028668403625e-02,-5.457375198602676392e-02,3.908109292387962341e-02,-4.552297666668891907e-02,2.546394988894462585e-02,-1.849546842277050018e-02,2.733826078474521637e-02,-3.575978055596351624e-02,-1.483777724206447601e-02,4.881736356765031815e-03,2.029607258737087250e-02,-4.639282356947660446e-03,-1.038734242320060730e-02,-4.464096203446388245e-02,-1.368939643725752831e-03,-4.077920690178871155e-02,2.157386392354965210e-02,-2.617298625409603119e-02,2.480315044522285461e-02,-6.858863681554794312e-02,2.127766609191894531e-02,-1.136565231718122959e-03,5.501426756381988525e-02,-4.989660345017910004e-03,-8.688989910297095776e-04,-2.163208462297916412e-02,-3.525262698531150818e-02,3.989221900701522827e-02,-1.772438734769821167e-02,-7.455561310052871704e-02,1.936783269047737122e-02,3.418993204832077026e-02,-3.944670036435127258e-02,-6.307705491781234741e-02,1.980492146685719490e-03,-3.105422854423522949e-02,2.983679436147212982e-02,-1.897901669144630432e-02,-3.710304573178291321e-02,1.114200521260499954e-02,1.991415023803710938e-02,-1.678456738591194153e-02,-1.969296857714653015e-02,-3.485247120261192322e-02,2.382340095937252045e-02,-5.002887919545173645e-02,2.451402507722377777e-02,-5.132471024990081787e-02,1.276049949228763580e-02,-8.172200061380863190e-03,-1.406167354434728622e-02,2.569208852946758270e-02,3.071662224829196930e-02,4.048307240009307861e-02,-2.779423072934150696e-02,1.685133948922157288e-02,3.095815144479274750e-02,-5.049625039100646973e-02,5.377902183681726456e-03,5.401436239480972290e-02,1.857800176367163658e-03,-2.069838717579841614e-02,1.481282431632280350e-02,1.774306222796440125e-02,-1.161714177578687668e-02,-5.110372602939605713e-02,-2.241596207022666931e-02,1.792168058454990387e-02,-9.917403571307659149e-03,-4.561953246593475342e-02,-1.168799120932817459e-02,-2.291710115969181061e-03,-1.518204156309366226e-02,-1.770397275686264038e-02,-1.813127659261226654e-02,-3.979437053203582764e-03,-1.703790389001369476e-03,-9.883646853268146515e-03,-1.115535758435726166e-02,2.573232538998126984e-02,-4.320364445447921753e-02,2.094260230660438538e-02,5.526183638721704483e-03,5.961703136563301086e-03,-2.084830310195684433e-03,1.386861875653266907e-02,-5.788551643490791321e-03,-5.704276636242866516e-02,3.969653695821762085e-02,6.401985418051481247e-03,2.559147030115127563e-02,4.031370207667350769e-02,2.717378782108426094e-03,-2.012203633785247803e-02,4.399420693516731262e-02,-6.269379705190658569e-02,1.700956188142299652e-02,2.457622252404689789e-02,5.486877635121345520e-03,-3.032163903117179871e-02,-2.878794446587562561e-02,-3.125856816768646240e-02,1.711735688149929047e-02,4.558120388537645340e-03,-5.696442909538745880e-03,7.413316983729600906e-03,3.612519055604934692e-02,-2.798776840791106224e-03,-5.315621197223663330e-02,4.541656747460365295e-02,-3.824321925640106201e-02,2.582387067377567291e-03,1.185050047934055328e-02,6.853590719401836395e-03,2.974096871912479401e-02,-3.279571887105703354e-03,-4.234085977077484131e-02,-2.963761612772941589e-02,-1.780999940820038319e-03,4.083812236785888672e-03,1.764517650008201599e-02,2.149900048971176147e-02,3.233813866972923279e-02,-1.718464680016040802e-02,-5.116905644536018372e-02,8.000454865396022797e-03,1.120661851018667221e-02,-3.370279818773269653e-02,2.663530595600605011e-02,-4.914345592260360718e-02,2.811485528945922852e-02,-1.502660848200321198e-02,-2.501404099166393280e-02,-2.541855908930301666e-02,-1.737706921994686127e-02,-1.532163098454475403e-02,1.995364949107170105e-02,2.050475217401981354e-02,2.273011021316051483e-02,-4.425595700740814209e-02,5.569659173488616943e-03,-9.072587825357913971e-03,-2.159378118813037872e-02,-1.543247886002063751e-02,3.898531571030616760e-02,-5.222333967685699463e-02,4.186321049928665161e-02,-2.410974726080894470e-02,-7.699111104011535645e-02,1.261835452169179916e-02,4.575201496481895447e-02,2.115546539425849915e-02,4.642846062779426575e-02,-2.235333807766437531e-02,3.482517600059509277e-02,1.110016740858554840e-02,-4.396240413188934326e-02,-7.950031012296676636e-02,4.361291602253913879e-02,1.374389696866273880e-02,2.331959828734397888e-02,7.442076690495014191e-03,-2.296060323715209961e-02,-1.270845811814069748e-02,3.308441489934921265e-02,-3.914636000990867615e-02,2.970007248222827911e-02,-2.545987069606781006e-02,-2.563676610589027405e-02,-2.589834295213222504e-02,-3.286932408809661865e-02,2.646179683506488800e-02,9.526428766548633575e-03,-1.707163266837596893e-02,-1.716808415949344635e-02,-1.344502810388803482e-02,-2.979356609284877777e-02,2.397228404879570007e-02,4.766685515642166138e-02,-1.015823893249034882e-02,-7.068128790706396103e-03,-9.523661807179450989e-03,1.046212483197450638e-02,-1.939932443201541901e-02,2.408075146377086639e-02,3.180951252579689026e-02,-2.782372385263442993e-02,-5.743893608450889587e-02,-1.153584569692611694e-02,-5.725233349949121475e-03,2.164143882691860199e-02,2.865923009812831879e-02,-2.490814402699470520e-02,1.007931958884000778e-02,-3.227973356842994690e-02,-2.035091072320938110e-02,2.653397247195243835e-02,-1.236289832741022110e-02,-3.645746782422065735e-02,2.063938230276107788e-02,1.463782601058483124e-02,1.962814293801784515e-02,-2.113641984760761261e-02,1.570589654147624969e-02,-1.418209075927734375e-02,2.962187165394425392e-03,5.005876719951629639e-02,-4.729550331830978394e-02,1.816215366125106812e-02,-1.466592401266098022e-02,8.233379572629928589e-03,3.359149023890495300e-02,6.943271961063146591e-03,-1.401720941066741943e-02,3.709895536303520203e-02,1.514152623713016510e-02,1.299094315618276596e-02,-3.148571774363517761e-02,-5.291659384965896606e-02,-1.611276157200336456e-02,-3.022569697350263596e-03,4.950677230954170227e-02,-3.054697066545486450e-02,1.190483849495649338e-02,-1.567297801375389099e-02,2.432569488883018494e-02,-1.329140923917293549e-02,8.191864006221294403e-03,4.401269368827342987e-03,2.090533816954120994e-04,5.221668630838394165e-02,5.653194617480039597e-03,-2.882507164031267166e-03,-4.647851735353469849e-02,-2.501060068607330322e-02,-1.816860586404800415e-02,1.654518395662307739e-02,1.031434815376996994e-02,7.830724120140075684e-03,4.996086657047271729e-02,3.992886468768119812e-02,5.899805948138237000e-02,-2.812417596578598022e-02,6.905912305228412151e-04,1.478493027389049530e-02,1.706688781268894672e-03,-6.068292073905467987e-03,1.779709011316299438e-02,1.909385621547698975e-02,7.657850626856088638e-03,-3.119812719523906708e-02,-4.741372168064117432e-02,-1.419101376086473465e-02,-5.246846936643123627e-03,-7.606540806591510773e-03,-1.721071079373359680e-02,2.713829465210437775e-02,1.623716764152050018e-02,2.579029649496078491e-02,-4.780257865786552429e-02,-1.150628738105297089e-02,-7.821868360042572021e-02,-3.715249523520469666e-02,3.616202995181083679e-02,4.856893420219421387e-02,-3.417938202619552612e-02,5.113061517477035522e-02
