-3.311882494017481804e-03,-7.853843271732330322e-04,4.127297550439834595e-03,3.445581067353487015e-03,6.724925711750984192e-03,-9.160788613371551037e-04,5.386063363403081894e-03,1.077666599303483963e-02,-7.704287418164312840e-04,-6.802686490118503571e-03,1.208164636045694351e-02,5.196707323193550110e-03,1.173494965769350529e-03,6.224296987056732178e-03,1.759522221982479095e-02,1.134848222136497498e-03,1.886345795355737209e-03,-1.145399291999638081e-03,4.339381121098995209e-03,-6.107077468186616898e-03,3.610416082665324211e-03,4.939814563840627670e-03,-9.973687119781970978e-04,7.555132266134023666e-03,1.718362909741699696e-03,2.472381573170423508e-03,4.212521307636052370e-04,1.508801709860563278e-03,1.195261022076010704e-03,-3.528433619067072868e-03,-3.577763447538018227e-03,-3.196597332134842873e-03,6.604494061321020126e-03,6.265547592192888260e-03,-7.186462171375751495e-04,-4.079506732523441315e-03,5.289542023092508316e-03,2.404782135272398591e-04,6.866193842142820358e-03,-9.992506820708513260e-04,3.975991159677505493e-03,5.638570873998105526e-04,1.053598523139953613e-02,1.915700850076973438e-03,6.477191112935543060e-03,2.408894011750817299e-03,9.515549056231975555e-03,1.261929166503250599e-03,1.057458110153675079e-02,-3.067193785682320595e-03,4.689040128141641617e-03,-2.936637960374355316e-03,2.386287087574601173e-03,2.039991784840822220e-03,5.203268490731716156e-03,-6.399265839718282223e-05,1.589659787714481354e-02,5.527609959244728088e-03,5.984917748719453812e-03,3.052952699363231659e-03,5.544011946767568588e-03,4.658061079680919647e-03,9.756536222994327545e-03,3.133630845695734024e-03,8.876321837306022644e-03,3.650226630270481110e-03,1.695236563682556152e-02,3.930891864001750946e-03,-6.047620438039302826e-03,3.301281249150633812e-03,1.410171668976545334e-02,4.169601481407880783e-03,3.586350707337260246e-03,8.295796811580657959e-03,1.062983088195323944e-02,6.258457899093627930e-03,7.841382175683975220e-03,6.862501148134469986e-03,5.336587317287921906e-03,1.020782999694347382e-02,1.943283714354038239e-02,4.417679272592067719e-03,5.696215666830539703e-03,6.830317899584770203e-03,1.167586073279380798e-02,1.065855938941240311e-02,1.014371495693922043e-02,4.028825089335441589e-03,-4.656220786273479462e-03,8.210128173232078552e-03,5.966952536255121231e-03,7.608244661241769791e-03,3.039628732949495316e-03,3.527025692164897919e-03,7.824339903891086578e-03,8.852809667587280273e-03,5.166667047888040543e-03,1.059070136398077011e-02,3.630353137850761414e-03,8.069486357271671295e-03,1.032664254307746887e-02,3.793627489358186722e-03,-1.562297926284372807e-03,1.782596670091152191e-02,7.822662591934204102e-03,1.301871985197067261e-02,8.630338707007467747e-04,9.257080033421516418e-03,7.919415831565856934e-03,1.340472325682640076e-02,5.020567215979099274e-03,1.888384297490119934e-02,9.660021401941776276e-03,1.994649507105350494e-02,5.160543601959943771e-03,1.320497598499059677e-02,-1.278116367757320404e-03,2.282344922423362732e-02,-2.813222119584679604e-03,1.730218529701232910e-02,-2.954965224489569664e-03,1.501651201397180557e-02,-5.438766442239284515e-03,8.014814928174018860e-03,-1.835525222122669220e-02,1.199077535420656204e-02,-1.672708429396152496e-03,1.879003271460533142e-02,-1.501257531344890594e-03,1.791262067854404449e-02,-1.340606994926929474e-02,8.991445414721965790e-03,-7.896901108324527740e-03,1.446818467229604721e-02,-3.749812720343470573e-03,4.523712210357189178e-03,-1.712267473340034485e-02,1.127199269831180573e-02,-1.110273879021406174e-02,1.231708470731973648e-02,-1.041235774755477905e-02,1.037461962550878525e-02,4.723536549136042595e-04,2.738247439265251160e-02,-8.524745353497564793e-04,4.697530996054410934e-03,-1.925256662070751190e-02,9.768572635948657990e-04,-1.471622847020626068e-02,6.975125987082719803e-03,-1.901305839419364929e-02,3.132351115345954895e-02,1.070919897756539285e-04,-1.526841707527637482e-02,2.021268242970108986e-03,-3.322882112115621567e-03,2.668893337249755859e-02,-3.378520486876368523e-03,-1.647457666695117950e-02,-2.934062853455543518e-02,-7.681611925363540649e-03,-9.669465944170951843e-03,-1.845549792051315308e-02,-8.695866912603378296e-03,-1.591043174266815186e-02,-1.326269190758466721e-02,-1.856940984725952148e-02,-8.028151933103799820e-04,-8.606018498539924622e-03,-1.135567110031843185e-02,-1.984126120805740356e-02,-1.560716796666383743e-02,-1.942991465330123901e-02,-4.850423720199614763e-04,-1.809313334524631500e-02,-1.788425445556640625e-02,1.022561918944120407e-02,5.683149676769971848e-03,-1.063881628215312958e-02,-1.256265677511692047e-02,-1.014993898570537567e-02,3.166358219459652901e-04,-1.735102012753486633e-02,-1.889675296843051910e-02,-6.625609239563345909e-04,-8.966037072241306305e-03,-1.066465489566326141e-02,1.526117138564586639e-02,-9.350459091365337372e-03,-2.097326703369617462e-02,-1.171838771551847458e-02,-1.807788573205471039e-02,-9.304225444793701172e-03,-2.140396274626255035e-02,-5.118946544826030731e-03,6.861960981041193008e-03,-7.872376590967178345e-03,-2.078595571219921112e-02,1.158815342932939529e-02,-1.611264608800411224e-02,-2.086858963593840599e-03,-1.082219462841749191e-02,-1.427354663610458374e-02,-2.107539772987365723e-02,-2.711859298869967461e-03,-2.182875201106071472e-02,-1.399584114551544189e-02,2.200335822999477386e-02,-5.975789856165647507e-03,-6.265569012612104416e-03,-1.404857169836759567e-02,-2.561105415225028992e-02,-4.253351129591464996e-03,-2.037146501243114471e-02,-3.931859042495489120e-03,4.433731082826852798e-03,-1.006190013140439987e-02,-1.253698486834764481e-02,-8.729362860321998596e-03,-5.743366200476884842e-03,1.476208446547389030e-03,-6.060068029910326004e-03,-6.072080694139003754e-03,-1.878538168966770172e-02,-1.898839022032916546e-03,3.055468760430812836e-02,-6.581096351146697998e-02,-2.592832967638969421e-02,-2.553066704422235489e-03,3.658727509900927544e-03,3.453766461461782455e-03,-2.799911983311176300e-02,2.552815712988376617e-04,-2.503068186342716217e-02,1.140108704566955566e-02,-2.506632544100284576e-02,-5.564094986766576767e-03,2.471850812435150146e-02,-1.912259729579091072e-03,-1.097297389060258865e-02,1.294498145580291748e-02,-1.698411628603935242e-02,-4.027822520583868027e-03,-2.468038536608219147e-02,-7.625745143741369247e-03,-1.795729994773864746e-02,-2.837485400959849358e-03,5.366159230470657349e-02,3.209857502952218056e-03,-2.046685293316841125e-02,1.370668032905086875e-04,-2.495534718036651611e-02,-4.524606280028820038e-03,-1.403311640024185181e-02,-1.653193030506372452e-03,-1.902883313596248627e-02,3.141453722491860390e-03,-2.074272558093070984e-02,5.064119584858417511e-03,-1.840566471219062805e-02,-1.216742602991871536e-04,-1.636086218059062958e-02,1.172241754829883575e-03,-1.609023747732862830e-04,-2.408385480521246791e-04,-2.426171861588954926e-02,8.062111586332321167e-02,-1.442189235240221024e-02,7.383019197732210159e-03,-1.624767109751701355e-02,-3.228183370083570480e-03,-2.196917682886123657e-02,7.452601194381713867e-02,-3.226667642593383789e-02,4.942620173096656799e-02,4.454482719302177429e-02,1.434839912690222263e-03,1.039076712913811207e-03,1.709880889393389225e-03,-2.514995262026786804e-02,9.266179986298084259e-04,-2.971136756241321564e-02,-5.889730993658304214e-03,-2.041221782565116882e-02,1.906754798255860806e-03,-8.733271621167659760e-03,5.606295540928840637e-03,-3.058667294681072235e-02,1.553159556351602077e-03,1.361305941827595234e-03,4.192530177533626556e-03,2.774133905768394470e-02,3.306879196316003799e-03,-1.867444254457950592e-02,3.070411505177617073e-03,8.575401455163955688e-02,3.016957314684987068e-03,-1.441427785903215408e-02,4.342016298323869705e-03,-6.703371647745370865e-03,4.894942045211791992e-03,-1.959776505827903748e-02,4.452241118997335434e-04,-1.584147103130817413e-02,1.349407806992530823e-02,-1.709190569818019867e-02,3.234917297959327698e-03,-7.339118048548698425e-03,2.023273846134543419e-03,-6.529706995934247971e-03,2.593498490750789642e-02,-2.682237140834331512e-02,1.303029526025056839e-02,-4.732572939246892929e-03,1.007462479174137115e-02,1.108104083687067032e-02,5.806611385196447372e-03,-1.640536449849605560e-02,5.943201482295989990e-03,-7.102698087692260742e-03,-2.193077525589615107e-04,-2.335611917078495026e-02,5.618059076368808746e-03,-1.852160133421421051e-02,-1.655603991821408272e-04,-1.918285712599754333e-02,2.610342111438512802e-03,-2.350409328937530518e-02,2.758908784016966820e-03,2.106754668056964874e-02,3.416620427742600441e-03,4.457275569438934326e-02,1.061272900551557541e-02,3.563015023246407509e-03,6.283581256866455078e-03,-6.982962135225534439e-03,-2.838868414983153343e-03,-1.786995865404605865e-02,3.544451436027884483e-03,-1.842515729367733002e-02,2.129439963027834892e-03,-1.762117445468902588e-02,2.552989404648542404e-03,-1.918534003198146820e-02,1.285525970160961151e-02,-1.275922078639268875e-02,9.852292016148567200e-03,-2.869185246527194977e-02,1.511257723905146122e-04,-1.863208226859569550e-02,1.939698820933699608e-03,-2.078397013247013092e-02,2.017070306465029716e-03,-8.645357564091682434e-03,8.468576706945896149e-03,-2.237317338585853577e-02,-6.200882606208324432e-03,-1.508480962365865707e-02,3.698386251926422119e-03,4.339984431862831116e-02,1.983292214572429657e-02,5.450506508350372314e-02,2.474155975505709648e-03,1.690728589892387390e-02,9.915434202412143350e-05,-7.572728674858808517e-03,-1.660968549549579620e-02,-1.789712905883789062e-02,1.140213944017887115e-02,-1.601090282201766968e-02,-6.468206178396940231e-03,-2.156355977058410645e-02,3.624689066782593727e-03,-1.552028581500053406e-02,2.201473806053400040e-03,-2.324584126472473145e-02,9.216692298650741577e-03,2.844310924410820007e-02,2.342764753848314285e-03,-1.808181963860988617e-02,4.985486157238483429e-03,-3.199671208858489990e-02,7.851053960621356964e-03,-1.461910549551248550e-02,-4.348542075604200363e-03,-1.954020746052265167e-02,4.904902540147304535e-03,2.408709563314914703e-02,4.865870811045169830e-03,-1.925068721175193787e-02,-3.222436178475618362e-03,-2.249190211296081543e-02,7.668174337595701218e-03,-2.693569846451282501e-02,4.392525646835565567e-03,-1.944412663578987122e-02,1.085533387959003448e-02,6.014560767653165385e-06,1.368339546024799347e-02,1.215748023241758347e-02,1.761247403919696808e-02,-2.280998975038528442e-02,2.620626764837652445e-04,-2.398936077952384949e-02,1.635517179965972900e-02,2.323566703125834465e-03,2.151829935610294342e-02,2.546226233243942261e-02,7.150422316044569016e-03,-1.232916209846735001e-02,2.438637986779212952e-02,-2.520083263516426086e-02,7.205077912658452988e-03,2.422982640564441681e-02,1.539819873869419098e-02,3.100688196718692780e-02,3.251808509230613708e-02,-1.791747473180294037e-02,5.430849734693765640e-03,-1.843111962080001831e-02,3.291933983564376831e-02,2.467403421178460121e-03,1.288795750588178635e-02,-2.267472445964813232e-02,3.003540623467415571e-04,-1.680184155702590942e-02,4.177507478743791580e-03,-2.199311554431915283e-02,-3.245499730110168457e-02,2.040985785424709320e-02,9.021932259202003479e-03,-2.438242919743061066e-02,9.313295595347881317e-03,-1.891454868018627167e-02,-4.801651462912559509e-03,-2.952357195317745209e-02,1.064055692404508591e-02,2.839300548657774925e-03,4.962408449500799179e-03,-2.691548690199851990e-02,2.510523656383156776e-03,-1.174337696284055710e-02,4.113139584660530090e-03,2.077575586736202240e-02,8.372143842279911041e-03,-2.112706750631332397e-02,1.178542897105216980e-02,-2.540720999240875244e-02,6.932140793651342392e-03,-2.351780980825424194e-02,-3.951740509364753962e-04,-2.039780095219612122e-02,1.068617776036262512e-02,-2.198756486177444458e-02,2.636635210365056992e-03,-2.063718810677528381e-02,6.467646360397338867e-02,-8.903253823518753052e-03,-1.852639688877388835e-04,3.320208936929702759e-02,9.595929645001888275e-03,-2.188398875296115875e-02,5.422055721282958984e-03,-1.595480367541313171e-02,1.869284897111356258e-03,-2.280395664274692535e-02,9.724783711135387421e-03,5.119177699089050293e-02,1.983000896871089935e-02,-2.265269309282302856e-02,-1.792427385225892067e-03,8.243434131145477295e-03,1.690921490080654621e-03,-1.630057767033576965e-02,1.020588167011737823e-02,-2.110522799193859100e-02,1.403441838920116425e-02,-1.514737214893102646e-02,2.480917051434516907e-02,7.596404757350683212e-03,-2.692711132112890482e-04,-5.413523409515619278e-03,1.391921541653573513e-03,4.820714890956878662e-02,-6.848184857517480850e-03,-2.357235737144947052e-02,8.796225301921367645e-03,-1.953614875674247742e-02,3.779692342504858971e-04,-1.655302755534648895e-02,2.645638771355152130e-03,1.338406000286340714e-02,2.679172670468688011e-03,-3.178497031331062317e-02,2.427433989942073822e-02,-1.013634540140628815e-02,9.194014593958854675e-03,-2.331561408936977386e-02,1.272335415706038475e-03,-2.048352733254432678e-02,1.588638313114643097e-02,-1.791272312402725220e-02,6.160833407193422318e-03,-1.602969132363796234e-02,4.258650913834571838e-02,-1.344584859907627106e-02,-2.436063950881361961e-03,-1.690949127078056335e-02,-3.300388157367706299e-02,-9.551761671900749207e-03,-2.785852923989295959e-02,-1.631400361657142639e-02
