1.143992505967617035e-02,4.803827498108148575e-03,1.033469289541244507e-02,4.465067293494939804e-03,-1.053243316709995270e-02,1.246103085577487946e-02,1.240713428705930710e-02,8.635672740638256073e-03,-1.230762689374387264e-03,-3.521468490362167358e-03,3.389913961291313171e-02,5.366292316466569901e-03,4.507755395025014877e-03,1.325724530033767223e-03,1.609066128730773926e-02,1.818349026143550873e-02,9.874296374619007111e-04,6.271837744861841202e-03,-7.408080855384469032e-04,-5.472211167216300964e-03,1.572085730731487274e-02,5.803456064313650131e-03,-5.200098734349012375e-03,1.843677600845694542e-03,-3.946109674870967865e-03,3.914956178050488234e-04,-1.054696273058652878e-02,4.199125338345766068e-03,1.765790046192705631e-03,-1.239061006344854832e-03,-3.273467300459742546e-03,-1.148926187306642532e-02,1.130787283182144165e-02,1.099494379013776779e-02,5.591884255409240723e-03,6.848440505564212799e-03,3.818464279174804688e-02,-5.982005037367343903e-03,6.906864698976278305e-03,-4.210263490676879883e-03,-3.771128365769982338e-03,4.532379098236560822e-03,7.799737155437469482e-03,2.686127663764636964e-05,2.806103229522705078e-02,5.082330317236483097e-04,7.454496342688798904e-03,6.631354335695505142e-03,2.343010343611240387e-02,6.669042631983757019e-03,8.816491812467575073e-03,4.150897264480590820e-03,-1.311955694109201431e-02,1.952319871634244919e-03,3.479861887171864510e-03,5.059625022113323212e-03,-1.951032900251448154e-03,-7.437333115376532078e-04,-1.281404984183609486e-03,1.614714892639312893e-05,3.389508929103612900e-03,9.170140139758586884e-03,-5.617838352918624878e-03,1.359661389142274857e-02,2.058726735413074493e-03,3.016783390194177628e-03,9.296282194554805756e-03,4.523489624261856079e-03,-1.847486570477485657e-02,3.836941032204777002e-04,-6.079485174268484116e-03,3.520301776006817818e-03,1.259583607316017151e-02,-4.309641662985086441e-03,4.447938408702611923e-03,2.156580332666635513e-03,1.176622929051518440e-03,9.954852052032947540e-03,-9.331162087619304657e-03,1.904892176389694214e-02,-1.441615459043532610e-04,5.254930350929498672e-03,-1.121420320123434067e-02,3.299240255728363991e-03,-1.539354416308924556e-04,-1.584991253912448883e-02,-1.156532764434814453e-02,-1.903846301138401031e-02,-1.175646670162677765e-02,-1.998504390940070152e-03,-9.602019563317298889e-03,1.545402873307466507e-02,-3.670247970148921013e-03,-1.338387187570333481e-02,5.785436835139989853e-03,1.799707487225532532e-02,-3.984612412750720978e-03,-1.766539365053176880e-02,-1.629524515010416508e-03,-5.101713351905345917e-03,1.007276214659214020e-02,-3.756193444132804871e-03,-8.643626235425472260e-03,2.256427193060517311e-03,1.690387539565563202e-02,-1.806338503956794739e-02,6.065594498068094254e-03,4.365360364317893982e-03,-1.775648677721619606e-03,-1.960112946107983589e-03,2.466347813606262207e-02,1.565411128103733063e-02,9.652135195210576057e-04,-3.222758881747722626e-03,2.246663061669096351e-04,-2.396353054791688919e-03,-7.265262305736541748e-03,9.188309311866760254e-03,-3.977415617555379868e-04,3.816879913210868835e-02,-1.388332899659872055e-02,1.255108416080474854e-02,-1.299567800015211105e-02,6.261002738028764725e-03,-1.297382055781781673e-03,-1.481180731207132339e-02,-2.089658379554748535e-02,5.032926797866821289e-03,-9.918075054883956909e-03,2.558629401028156281e-02,-7.701927796006202698e-03,-1.903001591563224792e-02,-2.493214234709739685e-02,-1.496573165059089661e-02,1.031538844108581543e-02,1.605158858001232147e-02,-2.720359340310096741e-02,1.962423510849475861e-02,-5.972829181700944901e-03,-2.696385141462087631e-03,-2.959722466766834259e-02,-8.213038556277751923e-03,-1.340730767697095871e-02,2.583080157637596130e-02,-2.819452993571758270e-02,-8.125008083879947662e-03,-1.588892191648483276e-02,-8.495231159031391144e-03,-1.909216493368148804e-02,-1.301330514252185822e-02,3.343229368329048157e-02,5.521155148744583130e-02,-8.851132355630397797e-03,-8.572051301598548889e-03,2.491818740963935852e-02,9.115482680499553680e-03,1.710636727511882782e-02,-1.175123173743486404e-02,-3.007614053785800934e-02,-2.902161516249179840e-02,-5.462411325424909592e-03,-7.590178865939378738e-03,5.388800054788589478e-03,-5.387546960264444351e-03,-1.073641330003738403e-02,-2.114519290626049042e-02,4.022392630577087402e-02,3.259813413023948669e-02,1.428843475878238678e-02,-1.380622666329145432e-02,-1.324273552745580673e-02,3.870175778865814209e-02,-2.525587379932403564e-02,4.329236689954996109e-04,-2.097265236079692841e-02,-2.125968225300312042e-02,-5.128561519086360931e-03,2.025586180388927460e-02,-1.956195197999477386e-02,-2.128425799310207367e-02,-1.679512113332748413e-02,-2.597410231828689575e-02,-6.230155937373638153e-03,1.175244804471731186e-03,-1.016394887119531631e-02,-2.991678938269615173e-02,-3.753548720851540565e-03,5.362598970532417297e-02,-1.473724283277988434e-02,4.218226764351129532e-03,8.493813802488148212e-04,-1.784377964213490486e-03,-2.077073603868484497e-02,9.768802556209266186e-05,1.578414440155029297e-02,-1.220354810357093811e-02,-1.363108283840119839e-03,-3.680985048413276672e-02,-5.354308523237705231e-03,-2.122967131435871124e-02,3.860984696075320244e-03,1.559359300881624222e-02,-1.962166093289852142e-02,-3.575607016682624817e-02,3.201865591108798981e-03,1.396291237324476242e-02,-1.966587267816066742e-02,5.450517684221267700e-02,3.392181126400828362e-03,-3.369102999567985535e-02,-2.221230044960975647e-02,-1.515636313706636429e-02,-7.508338312618434429e-04,-7.218161132186651230e-03,-2.524977363646030426e-02,-3.639517351984977722e-02,-1.655458286404609680e-02,-1.978021487593650818e-02,-1.494525652378797531e-02,-2.963994257152080536e-02,8.115499280393123627e-03,-2.447476377710700035e-03,-1.929394528269767761e-02,-3.272151947021484375e-02,-3.836828283965587616e-03,3.659718483686447144e-02,-4.758829716593027115e-03,1.459441985934972763e-02,-1.900223083794116974e-02,3.786031529307365417e-02,-8.303943090140819550e-03,-9.894494898617267609e-03,-1.551258191466331482e-02,-2.375999838113784790e-02,4.008607938885688782e-02,3.762035630643367767e-03,2.600736543536186218e-02,1.968775689601898193e-02,-4.189884755760431290e-03,-1.577503979206085205e-02,-9.423113428056240082e-03,-3.138120984658598900e-03,-1.223208010196685791e-02,-1.499869022518396378e-02,3.716930374503135681e-02,6.369446869939565659e-03,5.846861284226179123e-03,2.339741215109825134e-02,-1.338982861489057541e-02,-5.214868113398551941e-03,-5.352884531021118164e-03,-2.218631096184253693e-02,-5.958425812423229218e-03,1.708142273128032684e-02,1.263865549117326736e-02,-1.363664027303457260e-02,2.908475697040557861e-03,3.879335010424256325e-03,-1.899974420666694641e-02,-1.536032930016517639e-02,-5.570780485868453979e-04,-3.693964704871177673e-02,4.292724654078483582e-02,-1.072036381810903549e-02,-1.176739297807216644e-02,-2.511431276798248291e-02,6.144379731267690659e-03,2.624109946191310883e-02,-6.015050224959850311e-03,-1.875101961195468903e-02,-6.409738678485155106e-03,-1.147004496306180954e-02,2.051203884184360504e-02,8.666723035275936127e-03,-5.431511439383029938e-03,-1.689490629360079765e-03,1.264035422354936600e-02,-1.001282129436731339e-02,-1.465649995952844620e-02,-9.489356540143489838e-03,1.223871856927871704e-02,-1.789424568414688110e-02,-1.270743366330862045e-02,-1.622799038887023926e-02,7.556597702205181122e-03,3.096617572009563446e-02,-1.273525692522525787e-02,-3.331708535552024841e-02,2.461691386997699738e-02,-2.092848159372806549e-02,1.183160301297903061e-02,4.166629910469055176e-02,-8.390293456614017487e-03,4.820932634174823761e-03,-1.687721535563468933e-02,5.673139914870262146e-02,-3.827362321317195892e-03,-2.968047047033905983e-03,3.872048575431108475e-03,-2.024352550506591797e-02,4.465863108634948730e-03,6.414677947759628296e-03,9.616089053452014923e-03,-2.378619043156504631e-03,1.409473922103643417e-02,-1.156431809067726135e-02,3.171689808368682861e-02,-7.383276708424091339e-03,-7.906936109066009521e-03,-4.443266894668340683e-03,-7.999779656529426575e-03,-3.100941516458988190e-02,-9.997040964663028717e-03,-6.006154231727123260e-03,3.551121428608894348e-02,3.076576255261898041e-02,-1.416708063334226608e-02,-3.292854409664869308e-03,-7.235250901430845261e-03,-2.474378980696201324e-02,-5.984694696962833405e-03,-2.229607105255126953e-02,-4.874362144619226456e-03,-2.657130174338817596e-02,7.731231162324547768e-04,4.102242237422615290e-04,1.045694947242736816e-02,4.731564316898584366e-03,-1.164636109024286270e-02,2.634977549314498901e-02,2.362039638683199883e-03,1.676787436008453369e-02,-2.158392034471035004e-02,6.883899681270122528e-03,-2.081488631665706635e-02,2.142542414367198944e-02,3.952322527766227722e-02,-2.110682055354118347e-02,-1.718216389417648315e-02,-2.286080829799175262e-02,-8.704826235771179199e-03,7.689369376748800278e-03,1.246034400537610054e-03,-1.150337979197502136e-02,4.109180532395839691e-03,-1.452708616852760315e-02,-1.425289362668991089e-02,-1.002858206629753113e-02,1.745674572885036469e-02,-1.029466930776834488e-02,-2.104981429874897003e-02,1.293713506311178207e-02,1.524260733276605606e-03,-1.563780754804611206e-02,3.396477922797203064e-02,-3.514236211776733398e-02,-1.967977359890937805e-02,1.871633715927600861e-02,1.182283088564872742e-02,1.176316943019628525e-02,7.950545288622379303e-03,3.125240618828684092e-04,-5.059303715825080872e-03,4.536552820354700089e-03,1.336160697974264622e-03,-2.457277476787567139e-02,-9.349275380373001099e-03,-1.366432849317789078e-02,-4.703394079115241766e-04,-2.257821382954716682e-03,1.485509146004915237e-02,-2.117910049855709076e-02,2.355103613808751106e-03,-2.307817153632640839e-02,-1.067165378481149673e-02,-1.210249867290258408e-02,-2.706052735447883606e-03,1.120374072343111038e-02,1.058086007833480835e-02,-2.259741723537445068e-02,1.315158978104591370e-02,3.713909536600112915e-02,-7.255512289702892303e-03,-2.271546237170696259e-02,2.127426490187644958e-02,-1.022765040397644043e-02,5.097037181258201599e-03,4.820017516613006592e-02,-1.851270208135247231e-03,-1.468825992196798325e-02,1.155341742560267448e-04,3.041464090347290039e-02,1.914213295094668865e-03,-3.983348235487937927e-02,-7.117444649338722229e-03,-1.603328250348567963e-02,2.457585185766220093e-03,2.694489993155002594e-02,1.516453223302960396e-03,1.566342310979962349e-03,-1.578754559159278870e-02,-1.551306247711181641e-02,-2.458439767360687256e-02,-2.732210233807563782e-02,7.157914806157350540e-03,1.204142346978187561e-02,4.262650758028030396e-02,-1.001919619739055634e-02,-9.891251102089881897e-03,-3.101327689364552498e-03,2.115376992151141167e-03,-7.183993235230445862e-03,-6.238349713385105133e-03,2.672074828296899796e-03,2.500107325613498688e-02,-1.585278287529945374e-02,1.263827551156282425e-02,-1.857791654765605927e-02,-8.880249224603176117e-03,-1.978054270148277283e-02,2.955466508865356445e-02,4.661714658141136169e-03,-1.173914130777120590e-02,1.765462383627891541e-02,6.099354010075330734e-03,-2.129817754030227661e-02,-1.544731203466653824e-03,-3.073405101895332336e-02,8.685415959917008877e-04,-2.329163067042827606e-02,2.301193401217460632e-02,-2.307542599737644196e-02,-1.078320853412151337e-02,-2.136509679257869720e-02,-3.655400360003113747e-03,-3.663796465843915939e-03,2.016691304743289948e-02,-1.287323143333196640e-02,-1.780254580080509186e-02,-2.327352203428745270e-02,-5.683511517418082803e-06,3.665912523865699768e-02,-6.140087731182575226e-03,7.824559696018695831e-03,-4.199197981506586075e-03,-9.352551773190498352e-03,9.154682978987693787e-03,-2.012981101870536804e-02,4.299805313348770142e-02,8.196055889129638672e-03,2.663408406078815460e-02,-4.592671990394592285e-03,-7.971626706421375275e-03,-3.496787697076797485e-02,2.813063375651836395e-02,-8.223313838243484497e-03,5.713485926389694214e-02,-1.545772049576044083e-02,6.517481524497270584e-03,3.741671517491340637e-02,-1.371670141816139221e-02,-3.115403465926647186e-02,-1.788013731129467487e-03,-2.498833648860454559e-02,-1.435274258255958557e-02,-3.970889840275049210e-03,1.531527470797300339e-02,5.915577337145805359e-02,4.193568229675292969e-02,-5.208737216889858246e-03,3.099757246673107147e-02,2.758716791868209839e-02,-1.840576645918190479e-03,-3.381951828487217426e-04,2.310373354703187943e-03,1.385471131652593613e-02,1.837856695055961609e-02,4.952291026711463928e-03,2.984641119837760925e-02,-3.269157558679580688e-02,-6.089329719543457031e-03,9.092656895518302917e-03,6.816402077674865723e-03,-2.538156695663928986e-02,2.236275374889373779e-02,-6.055284291505813599e-03,1.097598485648632050e-02,-2.142233960330486298e-02,3.281266987323760986e-02,-4.122407117392867804e-04,-1.307866908609867096e-02,2.803426701575517654e-03,-1.326439343392848969e-02,-3.772202879190444946e-02,2.912691794335842133e-02,1.316697522997856140e-02,-6.134488154202699661e-03,-9.233969263732433319e-03,-3.853368805721402168e-03,-2.018085494637489319e-02,1.483163423836231232e-02,-2.942120889201760292e-03,7.454310543835163116e-03,-2.836172282695770264e-02,4.397999867796897888e-02,-2.537026442587375641e-02,-1.192072499543428421e-02,-1.048334222286939621e-02,-2.086118096485733986e-03,-2.161081507802009583e-02,-7.957663387060165405e-03,1.205468084663152695e-02
