0.000000000000000000e+00,0.000000000000000000e+00,0.000000000000000000e+00,0.000000000000000000e+00,0.000000000000000000e+00,0.000000000000000000e+00,0.000000000000000000e+00,0.000000000000000000e+00,0.000000000000000000e+00,0.000000000000000000e+00,0.000000000000000000e+00,0.000000000000000000e+00,0.000000000000000000e+00,0.000000000000000000e+00,0.000000000000000000e+00,0.000000000000000000e+00,0.000000000000000000e+00,0.000000000000000000e+00,0.000000000000000000e+00,0.000000000000000000e+00,0.000000000000000000e+00,0.000000000000000000e+00,0.000000000000000000e+00,0.000000000000000000e+00,0.000000000000000000e+00,0.000000000000000000e+00,0.000000000000000000e+00,0.000000000000000000e+00,0.000000000000000000e+00,0.000000000000000000e+00,0.000000000000000000e+00,0.000000000000000000e+00,0.000000000000000000e+00,0.000000000000000000e+00,0.000000000000000000e+00,0.000000000000000000e+00,0.000000000000000000e+00,0.000000000000000000e+00,0.000000000000000000e+00,0.000000000000000000e+00,0.000000000000000000e+00,0.000000000000000000e+00,0.000000000000000000e+00,0.000000000000000000e+00,0.000000000000000000e+00,0.000000000000000000e+00,0.000000000000000000e+00,0.000000000000000000e+00,0.000000000000000000e+00,0.000000000000000000e+00,0.000000000000000000e+00,0.000000000000000000e+00,0.000000000000000000e+00,0.000000000000000000e+00,0.000000000000000000e+00,0.000000000000000000e+00,0.000000000000000000e+00,0.000000000000000000e+00,0.000000000000000000e+00,0.000000000000000000e+00,0.000000000000000000e+00,0.000000000000000000e+00,0.000000000000000000e+00,0.000000000000000000e+00,0.000000000000000000e+00,0.000000000000000000e+00,0.000000000000000000e+00,0.000000000000000000e+00,0.000000000000000000e+00,0.000000000000000000e+00,0.000000000000000000e+00,0.000000000000000000e+00,0.000000000000000000e+00,0.000000000000000000e+00,0.000000000000000000e+00,0.000000000000000000e+00,0.000000000000000000e+00,0.000000000000000000e+00,0.000000000000000000e+00,0.000000000000000000e+00,0.000000000000000000e+00,0.000000000000000000e+00,0.000000000000000000e+00,0.000000000000000000e+00,0.000000000000000000e+00,0.000000000000000000e+00,0.000000000000000000e+00,0.000000000000000000e+00,0.000000000000000000e+00,0.000000000000000000e+00,0.000000000000000000e+00,0.000000000000000000e+00,0.000000000000000000e+00,0.000000000000000000e+00,0.000000000000000000e+00,0.000000000000000000e+00,0.000000000000000000e+00,0.000000000000000000e+00,0.000000000000000000e+00,0.000000000000000000e+00,0.000000000000000000e+00,0.000000000000000000e+00,0.000000000000000000e+00,0.000000000000000000e+00,0.000000000000000000e+00,0.000000000000000000e+00,0.000000000000000000e+00,0.000000000000000000e+00,0.000000000000000000e+00,0.000000000000000000e+00,0.000000000000000000e+00,0.000000000000000000e+00,0.000000000000000000e+00,0.000000000000000000e+00,0.000000000000000000e+00,0.000000000000000000e+00,0.000000000000000000e+00,0.000000000000000000e+00,0.000000000000000000e+00,0.000000000000000000e+00,0.000000000000000000e+00,0.000000000000000000e+00,0.000000000000000000e+00,0.000000000000000000e+00,0.000000000000000000e+00,0.000000000000000000e+00,0.000000000000000000e+00,0.000000000000000000e+00,0.000000000000000000e+00,0.000000000000000000e+00,0.000000000000000000e+00,0.000000000000000000e+00,0.000000000000000000e+00,0.000000000000000000e+00,0.000000000000000000e+00,0.000000000000000000e+00,0.000000000000000000e+00,0.000000000000000000e+00,0.000000000000000000e+00,0.000000000000000000e+00,0.000000000000000000e+00,0.000000000000000000e+00,0.000000000000000000e+00,0.000000000000000000e+00,0.000000000000000000e+00,0.000000000000000000e+00,0.000000000000000000e+00,0.000000000000000000e+00,0.000000000000000000e+00,0.000000000000000000e+00,0.000000000000000000e+00,0.000000000000000000e+00,0.000000000000000000e+00,0.000000000000000000e+00,0.000000000000000000e+00,0.000000000000000000e+00,0.000000000000000000e+00,0.000000000000000000e+00,0.000000000000000000e+00,0.000000000000000000e+00,0.000000000000000000e+00,0.000000000000000000e+00,0.000000000000000000e+00,0.000000000000000000e+00,0.000000000000000000e+00,0.000000000000000000e+00,0.000000000000000000e+00,0.000000000000000000e+00,0.000000000000000000e+00,0.000000000000000000e+00,0.000000000000000000e+00,0.000000000000000000e+00,0.000000000000000000e+00,0.000000000000000000e+00,0.000000000000000000e+00,0.000000000000000000e+00,0.000000000000000000e+00,0.000000000000000000e+00,0.000000000000000000e+00,0.000000000000000000e+00,0.000000000000000000e+00,0.000000000000000000e+00,0.000000000000000000e+00,0.000000000000000000e+00,0.000000000000000000e+00,0.000000000000000000e+00,0.000000000000000000e+00,0.000000000000000000e+00,0.000000000000000000e+00,0.000000000000000000e+00,0.000000000000000000e+00,0.000000000000000000e+00,0.000000000000000000e+00,0.000000000000000000e+00,0.000000000000000000e+00,0.000000000000000000e+00,0.000000000000000000e+00,0.000000000000000000e+00,0.000000000000000000e+00,0.000000000000000000e+00,0.000000000000000000e+00,0.000000000000000000e+00,0.000000000000000000e+00,0.000000000000000000e+00,0.000000000000000000e+00,0.000000000000000000e+00,0.000000000000000000e+00,0.000000000000000000e+00,0.000000000000000000e+00,0.000000000000000000e+00,0.000000000000000000e+00,0.000000000000000000e+00,0.000000000000000000e+00,0.000000000000000000e+00,0.000000000000000000e+00,0.000000000000000000e+00,0.000000000000000000e+00,0.000000000000000000e+00,0.000000000000000000e+00,0.000000000000000000e+00,0.000000000000000000e+00,0.000000000000000000e+00,0.000000000000000000e+00,0.000000000000000000e+00,0.000000000000000000e+00,0.000000000000000000e+00,0.000000000000000000e+00,0.000000000000000000e+00,0.000000000000000000e+00,0.000000000000000000e+00,0.000000000000000000e+00,0.000000000000000000e+00,0.000000000000000000e+00,0.000000000000000000e+00,0.000000000000000000e+00,0.000000000000000000e+00,0.000000000000000000e+00,0.000000000000000000e+00,0.000000000000000000e+00,0.000000000000000000e+00,0.000000000000000000e+00,0.000000000000000000e+00,0.000000000000000000e+00,0.000000000000000000e+00,0.000000000000000000e+00,0.000000000000000000e+00,0.000000000000000000e+00,0.000000000000000000e+00,0.000000000000000000e+00,0.000000000000000000e+00,0.000000000000000000e+00,0.000000000000000000e+00,0.000000000000000000e+00,0.000000000000000000e+00,0.000000000000000000e+00,0.000000000000000000e+00,0.000000000000000000e+00,0.000000000000000000e+00,0.000000000000000000e+00,0.000000000000000000e+00,0.000000000000000000e+00,0.000000000000000000e+00,0.000000000000000000e+00,0.000000000000000000e+00,0.000000000000000000e+00,0.000000000000000000e+00,0.000000000000000000e+00,0.000000000000000000e+00,0.000000000000000000e+00,0.000000000000000000e+00,0.000000000000000000e+00,0.000000000000000000e+00,0.000000000000000000e+00,0.000000000000000000e+00,0.000000000000000000e+00,0.000000000000000000e+00,0.000000000000000000e+00,0.000000000000000000e+00,0.000000000000000000e+00,0.000000000000000000e+00,0.000000000000000000e+00,0.000000000000000000e+00,0.000000000000000000e+00,0.000000000000000000e+00,0.000000000000000000e+00,0.000000000000000000e+00,0.000000000000000000e+00,0.000000000000000000e+00,0.000000000000000000e+00,0.000000000000000000e+00,0.000000000000000000e+00,0.000000000000000000e+00,0.000000000000000000e+00,0.000000000000000000e+00,0.000000000000000000e+00,0.000000000000000000e+00,0.000000000000000000e+00,0.000000000000000000e+00,0.000000000000000000e+00,0.000000000000000000e+00,0.000000000000000000e+00,0.000000000000000000e+00,0.000000000000000000e+00,0.000000000000000000e+00,0.000000000000000000e+00,0.000000000000000000e+00,0.000000000000000000e+00,0.000000000000000000e+00,0.000000000000000000e+00,0.000000000000000000e+00,0.000000000000000000e+00,0.000000000000000000e+00,0.000000000000000000e+00,0.000000000000000000e+00,0.000000000000000000e+00,0.000000000000000000e+00,0.000000000000000000e+00,0.000000000000000000e+00,0.000000000000000000e+00,0.000000000000000000e+00,0.000000000000000000e+00,0.000000000000000000e+00,0.000000000000000000e+00,0.000000000000000000e+00,0.000000000000000000e+00,0.000000000000000000e+00,0.000000000000000000e+00,0.000000000000000000e+00,0.000000000000000000e+00,0.000000000000000000e+00,0.000000000000000000e+00,0.000000000000000000e+00,0.000000000000000000e+00,0.000000000000000000e+00,0.000000000000000000e+00,0.000000000000000000e+00,0.000000000000000000e+00,0.000000000000000000e+00,0.000000000000000000e+00,0.000000000000000000e+00,0.000000000000000000e+00,0.000000000000000000e+00,0.000000000000000000e+00,0.000000000000000000e+00,0.000000000000000000e+00,0.000000000000000000e+00,0.000000000000000000e+00,0.000000000000000000e+00,0.000000000000000000e+00,0.000000000000000000e+00,0.000000000000000000e+00,0.000000000000000000e+00,0.000000000000000000e+00,0.000000000000000000e+00,0.000000000000000000e+00,0.000000000000000000e+00,0.000000000000000000e+00,0.000000000000000000e+00,0.000000000000000000e+00,0.000000000000000000e+00,0.000000000000000000e+00,0.000000000000000000e+00,0.000000000000000000e+00,0.000000000000000000e+00,0.000000000000000000e+00,0.000000000000000000e+00,0.000000000000000000e+00,0.000000000000000000e+00,0.000000000000000000e+00,0.000000000000000000e+00,0.000000000000000000e+00,0.000000000000000000e+00,0.000000000000000000e+00,0.000000000000000000e+00,0.000000000000000000e+00,0.000000000000000000e+00,0.000000000000000000e+00,0.000000000000000000e+00,0.000000000000000000e+00,0.000000000000000000e+00,0.000000000000000000e+00,0.000000000000000000e+00,0.000000000000000000e+00,0.000000000000000000e+00,0.000000000000000000e+00,0.000000000000000000e+00,0.000000000000000000e+00,0.000000000000000000e+00,0.000000000000000000e+00,0.000000000000000000e+00,0.000000000000000000e+00,0.000000000000000000e+00,0.000000000000000000e+00,0.000000000000000000e+00,0.000000000000000000e+00,0.000000000000000000e+00,0.000000000000000000e+00,0.000000000000000000e+00,0.000000000000000000e+00,0.000000000000000000e+00,0.000000000000000000e+00,0.000000000000000000e+00,0.000000000000000000e+00,0.000000000000000000e+00,0.000000000000000000e+00,0.000000000000000000e+00,0.000000000000000000e+00,0.000000000000000000e+00,0.000000000000000000e+00,0.000000000000000000e+00,0.000000000000000000e+00,0.000000000000000000e+00,0.000000000000000000e+00,0.000000000000000000e+00,0.000000000000000000e+00,0.000000000000000000e+00,0.000000000000000000e+00,0.000000000000000000e+00,0.000000000000000000e+00,0.000000000000000000e+00,0.000000000000000000e+00,0.000000000000000000e+00,0.000000000000000000e+00,0.000000000000000000e+00,0.000000000000000000e+00,0.000000000000000000e+00,0.000000000000000000e+00,0.000000000000000000e+00,0.000000000000000000e+00,0.000000000000000000e+00,0.000000000000000000e+00,0.000000000000000000e+00,0.000000000000000000e+00,0.000000000000000000e+00,0.000000000000000000e+00,0.000000000000000000e+00,0.000000000000000000e+00,0.000000000000000000e+00,0.000000000000000000e+00,0.000000000000000000e+00,0.000000000000000000e+00,0.000000000000000000e+00,0.000000000000000000e+00,0.000000000000000000e+00,0.000000000000000000e+00,0.000000000000000000e+00,0.000000000000000000e+00,0.000000000000000000e+00,0.000000000000000000e+00,0.000000000000000000e+00,0.000000000000000000e+00,0.000000000000000000e+00,0.000000000000000000e+00,0.000000000000000000e+00,0.000000000000000000e+00,0.000000000000000000e+00,0.000000000000000000e+00,0.000000000000000000e+00,0.000000000000000000e+00,0.000000000000000000e+00,0.000000000000000000e+00,0.000000000000000000e+00,0.000000000000000000e+00,0.000000000000000000e+00,0.000000000000000000e+00,0.000000000000000000e+00,0.000000000000000000e+00,0.000000000000000000e+00,0.000000000000000000e+00,0.000000000000000000e+00,0.000000000000000000e+00,0.000000000000000000e+00,0.000000000000000000e+00,0.000000000000000000e+00,0.000000000000000000e+00,0.000000000000000000e+00,0.000000000000000000e+00,0.000000000000000000e+00,0.000000000000000000e+00,0.000000000000000000e+00,0.000000000000000000e+00,0.000000000000000000e+00,0.000000000000000000e+00,0.000000000000000000e+00,0.000000000000000000e+00,0.000000000000000000e+00,0.000000000000000000e+00,0.000000000000000000e+00,0.000000000000000000e+00,0.000000000000000000e+00,0.000000000000000000e+00,0.000000000000000000e+00,0.000000000000000000e+00,0.000000000000000000e+00,0.000000000000000000e+00,0.000000000000000000e+00,0.000000000000000000e+00,0.000000000000000000e+00,0.000000000000000000e+00,0.000000000000000000e+00,0.000000000000000000e+00,0.000000000000000000e+00,0.000000000000000000e+00,0.000000000000000000e+00,0.000000000000000000e+00,0.000000000000000000e+00,0.000000000000000000e+00,0.000000000000000000e+00,0.000000000000000000e+00,0.000000000000000000e+00,0.000000000000000000e+00,0.000000000000000000e+00
3.621749877929687500e-01,1.125369518995285034e-01,-7.670612335205078125e-01,8.892034888267517090e-01,-1.461814165115356445e+00,1.551111698150634766e+00,9.250112175941467285e-01,1.515623927116394043e+00,7.171161770820617676e-01,1.141648814082145691e-01,9.365217685699462891e-01,1.649332165718078613e+00,-1.195700407028198242e+00,8.391030132770538330e-02,-7.945880889892578125e-01,2.094147682189941406e+00,-1.115090608596801758e+00,-6.835234761238098145e-01,-7.795609235763549805e-01,1.264338046312332153e-01,3.258770704269409180e-01,2.658080339431762695e+00,-8.494207859039306641e-01,5.440749526023864746e-01,-2.989766299724578857e-01,1.261115670204162598e+00,3.372785151004791260e-01,8.055300116539001465e-01,2.675060927867889404e-01,9.370909631252288818e-02,1.285573482513427734e+00,-1.035217165946960449e+00,-3.798109292984008789e-01,1.291246265172958374e-01,-1.104448676109313965e+00,1.287472724914550781e+00,-1.887269616127014160e-01,-3.612392814829945564e-03,-2.087567895650863647e-01,-7.458366155624389648e-01,-9.354221820831298828e-01,-9.174818992614746094e-01,-4.038726389408111572e-01,-2.486800029873847961e-02,-1.379750967025756836e+00,-8.705232143402099609e-01,-1.271139234304428101e-01,1.717950820922851562e+00,2.504211425781250000e+00,-1.122399330139160156e+00,4.959385991096496582e-01,4.815212488174438477e-01,-1.284362435340881348e+00,-4.100523591041564941e-01,-1.708633601665496826e-01,5.984186008572578430e-02,-6.834953427314758301e-01,-1.148423552513122559e+00,-6.788951754570007324e-01,4.384588301181793213e-01,-1.606675535440444946e-01,-1.262027621269226074e+00,1.407944917678833008e+00,1.137295924127101898e-02,2.255567759275436401e-01,7.520958185195922852e-01,-2.857909798622131348e-01,8.059043288230895996e-01,-1.875355243682861328e-01,-1.006633281707763672e+00,-1.651191592216491699e+00,6.680453419685363770e-01,-1.498321592807769775e-01,-1.562543392181396484e+00,7.544242590665817261e-02,1.433514118194580078e+00,1.135149002075195312e+00,-5.592540502548217773e-01,-3.304270207881927490e-01,1.170148968696594238e+00,-2.418613284826278687e-01,1.372056603431701660e+00,1.301419019699096680e+00,-2.349326312541961670e-01,1.158577442169189453e+00,-3.729959428310394287e-01,-6.240905523300170898e-01,3.655613958835601807e-01,-6.966779232025146484e-01,-1.700767517089843750e+00,1.795946657657623291e-01,1.317711114883422852e+00,-5.613029003143310547e-02,4.189404845237731934e-01,3.067974746227264404e-01,5.700891613960266113e-01,-4.862203449010848999e-02,8.917735517024993896e-02,1.363940119743347168e+00,-1.389360547065734863e+00,-4.647447541356086731e-02,2.394697964191436768e-01,1.172064661979675293e+00,4.855417907238006592e-01,5.610712170600891113e-01,-1.697697639465332031e+00,1.009920597076416016e+00,6.463275551795959473e-01,-1.097965002059936523e+00,4.604828953742980957e-01,3.677829205989837646e-01,-2.730642259120941162e-01,-6.677139997482299805e-01,1.077942457050085068e-02,-1.296804547309875488e+00,1.558541417121887207e+00,-4.974036216735839844e-01,1.196325063705444336e+00,1.486630201339721680e+00,1.038972854614257812e+00,-2.399083524942398071e-01,1.156993389129638672e+00,3.254318535327911377e-01,-7.850692272186279297e-01,-5.871602147817611694e-02,-4.774448573589324951e-01,-1.910277724266052246e+00,6.626110672950744629e-01,-1.142845511436462402e+00,1.156100749969482422e+00,-2.436007410287857056e-01,-1.338793337345123291e-01,4.345134273171424866e-02,-6.471356749534606934e-01,-7.947733998298645020e-02,2.200026273727416992e+00,-6.898724436759948730e-01,-2.548168646171689034e-03,-9.847756624221801758e-01,5.512035489082336426e-01,-1.563179373741149902e+00,1.745465517044067383e+00,-2.496286183595657349e-01,-6.620376557111740112e-02,-3.929524123668670654e-01,1.257899962365627289e-02,-1.157712817192077637e+00,-1.075294390320777893e-01,-9.687210917472839355e-01,-2.049650549888610840e-01,7.153997421264648438e-01,-1.946147233247756958e-01,2.317596040666103363e-02,2.381177186965942383e+00,6.853516101837158203e-01,1.342152714729309082e+00,1.463530212640762329e-01,1.085786581039428711e+00,-1.841862320899963379e+00,-1.328842163085937500e+00,-4.819580614566802979e-01,5.130115151405334473e-01,2.303490638732910156e+00,-3.957979679107666016e-01,2.343641370534896851e-01,4.926324188709259033e-01,-1.196069359779357910e+00,-2.618789672851562500e-01,-6.816927194595336914e-01,-6.493659019470214844e-01,-3.195891901850700378e-02,3.297183752059936523e+00,-1.081066966056823730e+00,1.601209759712219238e+00,-7.060691118240356445e-01,-1.117421030998229980e+00,7.406607866287231445e-01,-5.962489843368530273e-01,-6.090337038040161133e-01,-1.134922623634338379e+00,5.337030813097953796e-02,-4.775621294975280762e-01,9.192247390747070312e-01,3.482921421527862549e-02,2.521892488002777100e-01,-7.755820751190185547e-01,-7.356846332550048828e-01,1.721717357635498047e+00,2.393465191125869751e-01,6.530883312225341797e-01,1.652034670114517212e-01,3.165982365608215332e-01,-1.897726893424987793e+00,-5.123268961906433105e-01,1.189220666885375977e+00,-1.916326284408569336e-01,3.458159267902374268e-01,-4.140275120735168457e-01,-7.690219879150390625e-01,-7.513849139213562012e-01,8.551033139228820801e-01,1.716490864753723145e+00,5.872411727905273438e-01,-1.850735545158386230e+00,1.767940282821655273e+00,6.056224461644887924e-03,5.164656639099121094e-01,3.555527329444885254e-01,1.775626242160797119e-01,3.260356783866882324e-01,-3.381563127040863037e-01,-9.764840602874755859e-01,-1.844841837882995605e-01,-1.133035589009523392e-02,2.402038276195526123e-01,-1.023222088813781738e+00,7.360386252403259277e-01,-1.223035335540771484e+00,-6.002948284149169922e-01,-6.900736093521118164e-01,1.587682604789733887e+00,-5.398064851760864258e-01,5.836423486471176147e-02,3.687117993831634521e-02,2.140014886856079102e+00,-1.414357662200927734e+00,-4.907870888710021973e-01,6.718201637268066406e-01,-4.633864164352416992e-01,7.791435718536376953e-01,2.334298640489578247e-01,-3.752369880676269531e-01,9.731279015541076660e-01,3.327313661575317383e-01,2.548252046108245850e-01,6.787738204002380371e-01,3.193729743361473083e-02,3.874040842056274414e-01,-3.005960583686828613e-01,-3.936430215835571289e-01,-2.009658366441726685e-01,-1.202187895774841309e+00,2.603717744350433350e-01,6.537776440382003784e-02,1.924688816070556641e+00,-6.960147023200988770e-01,-6.986171603202819824e-01,6.824401617050170898e-01,-5.456564426422119141e-01,-2.188892066478729248e-01,-2.120981961488723755e-01,-1.059932708740234375e+00,-1.086301088333129883e+00,1.577893972396850586e+00,5.802456289529800415e-02,2.380136102437973022e-01,4.801552593708038330e-01,2.201212048530578613e-01,-4.249442815780639648e-01,3.911772966384887695e-01,9.413320571184158325e-02,-1.109568551182746887e-01,3.163809299468994141e+00,-4.577707052230834961e-01,1.008277416229248047e+00,-3.946375250816345215e-01,-2.107197999954223633e+00,-1.467243432998657227e-01,-6.663324236869812012e-01,7.649152874946594238e-01,4.081728756427764893e-01,-2.223468422889709473e-01,1.024808645248413086e+00,4.680683016777038574e-01,-9.752107858657836914e-01,-5.319398641586303711e-01,1.618412494659423828e+00,1.032734751701354980e+00,-2.839383184909820557e-01,-5.821830630302429199e-01,1.150209665298461914e+00,-8.968497514724731445e-01,-5.374404191970825195e-01,8.657281994819641113e-01,2.409622222185134888e-01,7.882957458496093750e-01,-6.691328883171081543e-01,-1.006669998168945312e+00,8.131333589553833008e-01,-4.644172489643096924e-01,-4.215918481349945068e-02,-4.131202101707458496e-01,2.135529816150665283e-01,1.771215438842773438e+00,-1.484247088432312012e+00,7.905668616294860840e-01,-2.175544023513793945e+00,-1.827665865421295166e-01,-2.471890449523925781e-01,-7.017930746078491211e-01,-1.859580352902412415e-02,1.848472714424133301e+00,-1.871552467346191406e-01,2.140564918518066406e-01,2.585495114326477051e-01,3.147453069686889648e-01,1.273093104362487793e+00,7.702211141586303711e-01,-1.328624635934829712e-01,1.222471475601196289e+00,-3.540352582931518555e-01,-2.043271541595458984e+00,-1.322393178939819336e+00,1.673700571060180664e+00,5.912984609603881836e-01,1.056631445884704590e+00,-6.534255146980285645e-01,2.473310977220535278e-01,2.970789968967437744e-01,-5.378043651580810547e-01,1.439518570899963379e+00,-5.357660055160522461e-01,-2.612774670124053955e-01,-1.317156314849853516e+00,-4.573257267475128174e-01,1.289981007575988770e+00,1.134872287511825562e-01,-1.274636983871459961e+00,-8.623450994491577148e-01,8.072953671216964722e-03,7.458314299583435059e-01,2.629856765270233154e-01,-7.376266717910766602e-01,1.419058561325073242e+00,1.250842452049255371e+00,7.514096498489379883e-01,1.397261738777160645e+00,2.597706615924835205e-01,-8.738428354263305664e-01,-1.046888709068298340e+00,-8.404321670532226562e-01,2.835862934589385986e-01,-1.001688361167907715e+00,-9.597540646791458130e-02,1.131739377975463867e+00,1.709869503974914551e+00,3.988198637962341309e-01,3.995099961757659912e-01,2.497785806655883789e+00,4.526422023773193359e-01,-1.649934768676757812e+00,1.686053037643432617e+00,5.250217318534851074e-01,2.658945024013519287e-01,7.070560455322265625e-01,-2.096391201019287109e+00,-9.355743229389190674e-02,1.403973221778869629e+00,5.844142436981201172e-01,-1.368312239646911621e+00,1.431925773620605469e+00,-3.672938346862792969e-01,-8.535566329956054688e-01,2.516457796096801758e+00,-1.502019643783569336e+00,-3.675749301910400391e-01,6.316598057746887207e-01,1.363508343696594238e+00,7.280303835868835449e-01,1.217338562011718750e+00,-2.704222500324249268e-01,-1.007010817527770996e+00,-1.829296469688415527e+00,-4.294542372226715088e-01,-3.135385513305664062e-01,1.675570011138916016e+00,-7.960180640220642090e-01,-1.741833209991455078e+00,5.441545248031616211e-01,-2.393131703138351440e-01,1.746503114700317383e+00,-1.089046716690063477e+00,-1.284335732460021973e+00,-5.239993929862976074e-01,9.351130723953247070e-01,1.966133713722229004e-01,1.009336948394775391e+00,-2.057875394821166992e-01,-2.088772505521774292e-01,9.099349379539489746e-01,-2.401561737060546875e+00,-4.631458818912506104e-01,-9.278759360313415527e-01,-2.020273685455322266e+00,-9.672785401344299316e-01,-3.605464398860931396e-01,-4.248982071876525879e-01,-1.005137324333190918e+00,-9.779985249042510986e-02,-1.489722967147827148e+00,-1.862920165061950684e+00,1.979386359453201294e-01,-7.315337657928466797e-01,-2.183019369840621948e-01,4.501125812530517578e-01,9.153325557708740234e-01,1.458186745643615723e+00,7.007271647453308105e-01,2.337587326765060425e-01,1.346557974815368652e+00,3.139547258615493774e-02,-5.647295117378234863e-01,-4.278196096420288086e-01,-2.103876173496246338e-01,1.193304061889648438e+00,-9.658119678497314453e-01,-5.151005834341049194e-02,4.843960404396057129e-01,-7.623062729835510254e-01,-8.299576640129089355e-01,1.030122399330139160e+00,9.163919687271118164e-01,-1.580289006233215332e+00,1.321650743484497070e+00,4.389644861221313477e-01,-1.292451858520507812e+00,6.716152429580688477e-01,-1.425154209136962891e+00,-1.041665196418762207e+00,2.138125151395797729e-01,1.414461731910705566e+00,2.094360589981079102e-01,-6.370876431465148926e-01,-1.626306325197219849e-01,-1.108178615570068359e+00,7.103165388107299805e-01,7.203677296638488770e-01,-2.667078077793121338e-01,-3.849341010209172964e-04,-1.624724388122558594e+00,-5.587237477302551270e-01,2.778785526752471924e-01,9.108319878578186035e-01,-3.172816336154937744e-01,-2.192123413085937500e+00,4.368883073329925537e-01,7.226463556289672852e-01,4.273713827133178711e-01,-1.175864577293395996e+00,-1.506874859333038330e-01,1.310372710227966309e+00,-1.461554914712905884e-01,-5.654520988464355469e-01,-1.082189559936523438e+00,-8.447109907865524292e-02,7.764924168586730957e-01,6.184004712849855423e-03,1.047298192977905273e+00,-2.064249664545059204e-01,2.257102251052856445e+00,-7.886871695518493652e-02,-7.948558926582336426e-01,-1.734376102685928345e-01,9.115790128707885742e-01,-8.092414140701293945e-01,-1.711052507162094116e-01,4.897296726703643799e-01,1.467497587203979492e+00,1.108679413795471191e+00,8.990051746368408203e-01,1.390405893325805664e+00,-1.842439621686935425e-01,-4.223070573061704636e-03,1.946618914604187012e+00,9.253124594688415527e-01,-3.536576330661773682e-01,1.940302133560180664e+00,2.719875872135162354e-01,1.841207504272460938e+00,-1.540143609046936035e+00,8.571226894855499268e-02,3.018564701080322266e+00,7.713220715522766113e-01,-1.803529500961303711e+00,5.248782634735107422e-01,5.965896844863891602e-01,-7.292960286140441895e-01,-1.685078740119934082e+00,1.405920028686523438e+00,-8.017398118972778320e-01,-1.583269476890563965e+00,-7.086645364761352539e-01,-1.837526202201843262e+00,-9.678459763526916504e-01,-3.620936274528503418e-01,-6.627964973449707031e-01,-4.252730011940002441e-01,6.184382438659667969e-01,7.488299161195755005e-02,-6.565911173820495605e-01,-1.770622879266738892e-01,1.412339806556701660e+00,8.237828612327575684e-01,-1.527755856513977051e+00,7.288115024566650391e-01,-7.641856670379638672e-01,2.689760923385620117e-01,7.633463144302368164e-01,6.148070096969604492e-01,-4.572238773107528687e-02,1.827799797058105469e+00,1.052456736564636230e+00
-3.041335344314575195e+00,-2.384336441755294800e-01,6.497461199760437012e-01,-8.094297954812645912e-04,8.077711611986160278e-02,-9.272470474243164062e-01,1.722668290138244629e+00,-9.388606548309326172e-01,-5.168792605400085449e-02,1.187979936599731445e+00,-1.408284455537796021e-01,3.216781020164489746e-01,-9.052962660789489746e-01,-5.551965832710266113e-01,6.367924809455871582e-02,1.628252148628234863e+00,7.097218632698059082e-01,3.250991702079772949e-01,7.619623094797134399e-03,-6.824113130569458008e-01,-8.475343137979507446e-02,-1.665812358260154724e-02,-1.087126731872558594e+00,-1.411879062652587891e+00,-1.048558115959167480e+00,1.028938412666320801e+00,-4.974594116210937500e-01,1.599684953689575195e+00,1.202503070235252380e-01,1.324464321136474609e+00,5.851641297340393066e-01,5.039293766021728516e-01,2.246316671371459961e-01,-2.960718274116516113e-01,1.416791319847106934e+00,2.790648639202117920e-01,3.510926961898803711e-01,-8.810392022132873535e-02,-1.542276978492736816e+00,-4.592669010162353516e-01,-1.772190928459167480e+00,-1.507284164428710938e+00,-2.335653305053710938e+00,-1.074398756027221680e+00,1.132559180259704590e-01,-1.307041406631469727e+00,8.653723597526550293e-01,-5.750500559806823730e-01,-6.529535651206970215e-01,2.626498937606811523e-01,1.657717227935791016e+00,1.364942193031311035e+00,-2.206897258758544922e+00,1.369387269020080566e+00,-2.267395704984664917e-01,1.575145363807678223e+00,3.314282000064849854e-01,2.796252369880676270e-01,-1.175457000732421875e+00,-9.267634153366088867e-02,1.133249163627624512e+00,7.345629855990409851e-03,-2.821735143661499023e-01,1.328533649444580078e+00,-2.453781962394714355e-01,-1.111870050430297852e+00,7.877722978591918945e-01,-2.252352088689804077e-01,9.589637517929077148e-01,1.501163005828857422e+00,4.633375704288482666e-01,-6.507269144058227539e-01,4.195363521575927734e-01,-3.011213541030883789e-01,-2.099739462137222290e-01,6.599149703979492188e-01,-2.250830382108688354e-01,-2.722700238227844238e-01,6.556889414787292480e-01,8.968768715858459473e-01,8.008207082748413086e-01,1.207997798919677734e+00,-1.603383302688598633e+00,3.531422019004821777e-01,-2.673726677894592285e-01,4.953224360942840576e-01,6.689382195472717285e-01,-2.199475318193435669e-01,-1.568467140197753906e+00,-7.848789095878601074e-01,-1.217858672142028809e+00,1.626938939094543457e+00,1.143018126487731934e+00,-3.709180951118469238e-01,-3.294082581996917725e-01,9.968016147613525391e-01,-7.597936987876892090e-01,7.397381663322448730e-01,-6.839946508407592773e-01,-2.058750391006469727e-01,4.848413467407226562e-01,-1.148635268211364746e+00,7.506204247474670410e-01,-6.669919490814208984e-01,-1.064149141311645508e+00,-1.036428846418857574e-02,-1.036126017570495605e+00,5.606732964515686035e-01,-1.268991589546203613e+00,5.446983575820922852e-01,-7.218316793441772461e-01,5.456892251968383789e-01,2.233829498291015625e+00,6.757913827896118164e-01,-2.333426773548126221e-01,-1.793883740901947021e-01,8.437752127647399902e-01,-2.813407778739929199e-01,-1.736387014389038086e+00,1.127486109733581543e+00,4.126592874526977539e-01,-3.635463118553161621e-02,-1.559444665908813477e+00,-1.177199363708496094e+00,7.955547571182250977e-01,3.516092896461486816e-01,1.672707915306091309e+00,1.390059709548950195e+00,-1.347264885902404785e+00,2.954041361808776855e-01,-1.158341050148010254e+00,-1.899641156196594238e+00,-1.021249651908874512e+00,4.844958782196044922e-01,9.524548053741455078e-01,7.600025534629821777e-01,-4.897707607597112656e-03,4.984667897224426270e-01,2.851612269878387451e-01,-1.032602310180664062e+00,-3.348887860774993896e-01,-1.483916640281677246e+00,8.557628393173217773e-01,1.165083199739456177e-01,-2.188482731580734253e-01,-7.840866446495056152e-01,-7.443314790725708008e-01,-3.257356286048889160e-01,-2.447303295135498047e+00,-2.797955274581909180e-01,1.107382416725158691e+00,-7.053323984146118164e-01,-2.566600143909454346e-01,-1.183106064796447754e+00,1.502203643321990967e-01,-3.902054429054260254e-01,7.766125351190567017e-02,-1.264304518699645996e+00,-4.213140606880187988e-01,-2.067251205444335938e+00,1.104359984397888184e+00,-1.483411788940429688e+00,3.973102197051048279e-02,3.723320960998535156e-01,3.074942827224731445e-01,-4.668641686439514160e-01,1.213727474212646484e+00,1.257512569427490234e+00,-9.385883808135986328e-01,6.913476586341857910e-01,-1.743714928627014160e+00,2.001164674758911133e+00,2.542055845260620117e-01,-8.941098451614379883e-01,-3.440944850444793701e-01,6.892690062522888184e-01,-5.950783491134643555e-01,1.598467350006103516e+00,2.619829475879669189e-01,2.030581712722778320e+00,1.353664517402648926e+00,-6.805760264396667480e-01,-3.046590089797973633e-01,4.788505733013153076e-01,-1.525959968566894531e-01,-4.780347347259521484e-01,1.455821394920349121e+00,1.090526461601257324e+00,-1.265117168426513672e+00,-1.433032035827636719e+00,9.840730577707290649e-02,6.895793676376342773e-01,1.869349956512451172e+00,2.027892112731933594e+00,-9.503446221351623535e-01,-2.218908816576004028e-01,1.137746334075927734e+00,-9.516280293464660645e-01,-3.486733734607696533e-01,1.281666398048400879e+00,-5.356971621513366699e-01,-1.603445708751678467e-01,-1.062237739562988281e+00,8.207436203956604004e-01,-6.564519405364990234e-01,-4.556402266025543213e-01,-6.231089830398559570e-01,2.609886646270751953e+00,4.449967145919799805e-01,-2.717000246047973633e+00,-2.074652671813964844e+00,1.344050645828247070e+00,-1.796731829643249512e+00,4.307148158550262451e-01,-1.305205583572387695e+00,-1.660164475440979004e+00,-5.137622356414794922e-01,-1.807556152343750000e-01,1.179482460021972656e+00,7.509521092288196087e-04,6.765492558479309082e-01,-4.906145930290222168e-01,-3.853470385074615479e-01,-1.019217371940612793e+00,3.039023578166961670e-01,-8.885582536458969116e-02,1.007915616035461426e+00,7.941530942916870117e-01,1.722668260335922241e-01,-1.051917791366577148e+00,1.072501391172409058e-01,5.018494278192520142e-02,5.947930812835693359e-01,4.428932666778564453e-01,1.159390926361083984e+00,-3.896617889404296875e-02,2.373351752758026123e-01,-1.397216439247131348e+00,5.809378623962402344e-01,-6.591626405715942383e-01,-8.556274771690368652e-01,5.648973211646080017e-02,1.378612637519836426e+00,-5.517134666442871094e-01,-4.262655079364776611e-01,3.744304180145263672e-01,4.763412848114967346e-02,-1.486541479825973511e-01,-1.215257167816162109e+00,1.251610159873962402e+00,-9.509429931640625000e-01,-4.287571609020233154e-01,-6.658543348312377930e-01,8.231674432754516602e-01,5.282607674598693848e-01,1.304386377334594727e+00,5.685882568359375000e-01,-4.922122955322265625e-01,-4.375767707824707031e-01,-3.778769969940185547e-01,1.193383574485778809e+00,5.315588116645812988e-01,-9.659683704376220703e-01,1.025949716567993164e+00,-3.245762288570404053e-01,-1.059296354651451111e-01,4.914414286613464355e-01,1.922083020210266113e+00,-1.543853282928466797e-01,-2.191611766815185547e+00,-5.331090688705444336e-01,2.442017048597335815e-01,1.660177111625671387e+00,1.545490741729736328e+00,1.018589496612548828e+00,-3.611824810504913330e-01,1.115476131439208984e+00,-4.013569653034210205e-01,-8.689067959785461426e-01,2.143092602491378784e-01,1.085579395294189453e+00,3.376956582069396973e-01,1.144167557358741760e-01,-3.998707234859466553e-01,-7.298657894134521484e-01,-1.071532011032104492e+00,-2.122942686080932617e+00,-8.078355193138122559e-01,-3.617516756057739258e-01,-7.168055176734924316e-01,7.910100221633911133e-01,1.557174682617187500e+00,-1.154643893241882324e+00,6.540713906288146973e-01,-1.584694862365722656e+00,-1.053504109382629395e+00,9.766361713409423828e-01,-7.671073675155639648e-01,-8.650048822164535522e-02,-2.014064490795135498e-01,-4.442296922206878662e-01,-4.086064100265502930e-01,1.527896881103515625e+00,-3.275923803448677063e-02,9.305689930915832520e-01,1.443146467208862305e+00,1.629133939743041992e+00,-2.985055148601531982e-01,-1.215141654014587402e+00,-1.220991253852844238e+00,3.771418705582618713e-02,5.601570606231689453e-01,-2.175877094268798828e+00,-3.259666562080383301e-01,9.392179250717163086e-01,7.858555912971496582e-01,-3.798625767230987549e-01,2.204871922731399536e-01,-6.749481707811355591e-02,-1.008102893829345703e+00,1.031067371368408203e+00,-2.264448106288909912e-01,-7.794814705848693848e-01,6.092419028282165527e-01,-8.944512009620666504e-01,1.327853202819824219e+00,1.602234959602355957e+00,3.178735971450805664e-01,-1.619723290205001831e-01,1.625960707664489746e+00,8.385078907012939453e-01,9.603093862533569336e-01,-7.508717179298400879e-01,4.899803400039672852e-01,-1.889967918395996094e-01,-1.111631989479064941e+00,4.100568890571594238e-01,-2.717795610427856445e+00,-1.469380855560302734e+00,-8.662378191947937012e-01,-2.092329263687133789e-01,7.083988785743713379e-01,2.026441335678100586e+00,-9.912389516830444336e-01,-5.408623814582824707e-01,2.543861567974090576e-01,5.562433600425720215e-01,-2.133089900016784668e-01,1.007318735122680664e+00,1.770809441804885864e-01,5.579512193799018860e-02,9.088441729545593262e-01,1.007572054862976074e+00,-8.706857264041900635e-02,1.258420944213867188e+00,-2.088502049446105957e-01,-3.308363556861877441e-01,-8.459027409553527832e-01,-1.410954713821411133e+00,7.301357984542846680e-01,4.241760075092315674e-01,7.416440844535827637e-01,-2.472031116485595703e-01,7.825065255165100098e-01,3.247711360454559326e-01,1.764215528964996338e-01,-1.658777952194213867e+00,-1.589553356170654297e+00,1.081717833876609802e-01,6.281699240207672119e-02,3.234812989830970764e-03,-8.959846496582031250e-01,-8.773704767227172852e-01,1.671641469001770020e-01,1.535650849342346191e+00,-2.253974527120590210e-01,3.317777514457702637e-01,1.306504726409912109e+00,9.386320114135742188e-01,-2.443269491195678711e-01,4.882048368453979492e-01,2.458544224500656128e-01,5.994861125946044922e-01,-5.660938620567321777e-01,1.630967378616333008e+00,7.846599221229553223e-01,5.875741243362426758e-01,2.746569365262985229e-02,-1.098917961120605469e+00,6.976921111345291138e-02,-4.175266623497009277e-01,-4.540006220340728760e-01,-1.657183766365051270e-01,2.558937072753906250e-01,1.964229941368103027e-01,4.759970903396606445e-01,1.959298729896545410e+00,1.843123137950897217e-01,1.989202052354812622e-01,5.705196261405944824e-01,-3.926811516284942627e-01,6.584620475769042969e-02,2.468312680721282959e-01,-6.819825172424316406e-01,1.012855648994445801e+00,-1.143208265304565430e+00,4.768880307674407959e-01,-2.679083123803138733e-02,-6.364196538925170898e-01,-4.261654913425445557e-01,-7.154007554054260254e-01,3.012299835681915283e-01,-2.972895503044128418e-01,6.229752898216247559e-01,2.271848917007446289e+00,8.962528109550476074e-01,-1.471539378166198730e+00,-8.121699690818786621e-01,6.480203568935394287e-02,1.194533705711364746e+00,7.563077807426452637e-01,-1.584710121154785156e+00,-4.737721383571624756e-02,5.056029558181762695e-01,-1.291944026947021484e+00,1.284031033515930176e+00,2.764549255371093750e-01,-7.179560661315917969e-01,1.300804615020751953e+00,-2.516233026981353760e-01,-1.058132290840148926e+00,7.090387344360351562e-01,3.728754520416259766e-01,-4.499786496162414551e-01,-2.736563980579376221e-01,1.321736127138137817e-01,1.002515196800231934e+00,4.650398343801498413e-02,-1.111503601074218750e+00,6.716994643211364746e-01,-7.516944408416748047e-01,4.024821519851684570e-01,-3.103254437446594238e-01,1.464665085077285767e-01,-2.120629996061325073e-01,1.069483757019042969e+00,-5.737476944923400879e-01,2.777201235294342041e-01,1.153027296066284180e+00,-2.776578068733215332e-01,3.490243256092071533e-01,-8.825129866600036621e-01,-4.564363658428192139e-01,1.291618943214416504e+00,6.832816004753112793e-01,8.473384976387023926e-01,1.343607902526855469e-01,-6.516246199607849121e-01,-1.201857328414916992e+00,8.286971449851989746e-01,-6.143021583557128906e-01,-1.349267125129699707e+00,1.308779597282409668e+00,-3.126713633537292480e-01,-7.610105872154235840e-01,8.256984949111938477e-01,-1.861291766166687012e+00,6.234909296035766602e-01,-2.553624212741851807e-01,1.331482172012329102e+00,5.339558720588684082e-01,7.370423674583435059e-01,-1.554074764251708984e+00,-9.906824827194213867e-01,-1.927238106727600098e+00,-1.594224572181701660e-01,-1.676913350820541382e-01,-3.242345750331878662e-01,5.713670700788497925e-02,1.350171715021133423e-01,8.948175311088562012e-01,1.492160856723785400e-01,-1.646652340888977051e+00,2.145208567380905151e-01,-4.677368700504302979e-01,4.189031720161437988e-01,7.013674080371856689e-02,1.237453222274780273e+00,-7.203723192214965820e-01,3.678024113178253174e-01,4.565013647079467773e-01,4.440573751926422119e-01,-1.228355407714843750e+00,-1.531811663880944252e-03,-6.499358415603637695e-01,3.833153843879699707e-01,6.711212396621704102e-01,-2.216804981231689453e+00,6.568040251731872559e-01,6.127001643180847168e-01,1.128969341516494751e-01,8.820507675409317017e-02,-2.499739825725555420e-01,-1.607025563716888428e-01,1.016910225152969360e-01,-6.691371202468872070e-01,2.020257115364074707e-01,8.877627849578857422e-01,-3.336631953716278076e-01,-2.846879065036773682e-01,4.108096659183502197e-01,-9.081572890281677246e-01
5.682488083839416504e-01,-6.987782120704650879e-01,-5.956261157989501953e-01,-1.344178557395935059e+00,-4.277005791664123535e-02,-1.012952685356140137e+00,-5.635084509849548340e-01,-1.986310839653015137e+00,-3.643149137496948242e-01,4.967613220214843750e-01,1.776063084602355957e+00,1.783042699098587036e-01,-1.424527883529663086e+00,-3.856741189956665039e-01,2.949498593807220459e-01,1.715116649866104126e-01,2.848106808960437775e-02,-1.334826469421386719e+00,-1.126974105834960938e+00,9.224776029586791992e-01,1.045586824417114258e+00,1.166628479957580566e+00,8.504616469144821167e-02,-1.902332901954650879e+00,-2.013867139816284180e+00,-2.635433375835418701e-01,3.586110472679138184e-01,-1.148443460464477539e+00,-5.366832017898559570e-01,6.494179368019104004e-02,-1.244142055511474609e+00,1.054181814193725586e+00,3.981655538082122803e-01,-1.563126206398010254e+00,1.393798351287841797e+00,1.571879744529724121e+00,2.422004640102386475e-01,-7.640196084976196289e-01,-4.597661495208740234e-01,-1.240305423736572266e+00,-8.839132189750671387e-01,4.674649983644485474e-02,9.773146510124206543e-01,-4.514428973197937012e-01,-2.717718482017517090e-01,4.373090267181396484e-01,-1.264499902725219727e+00,8.914155960083007812e-01,-1.762539267539978027e+00,-1.794303506612777710e-01,1.119659662246704102e+00,-1.836284399032592773e-01,2.572042942047119141e-01,4.517557621002197266e-01,-9.870886802673339844e-01,-2.189715862274169922e+00,5.297416448593139648e-01,-3.380402028560638428e-01,-1.726179003715515137e+00,-1.793219089508056641e+00,-4.167923033237457275e-01,7.459581494331359863e-01,1.114966273307800293e+00,1.460953950881958008e+00,4.253924190998077393e-01,6.661066412925720215e-01,8.815110661089420319e-03,-1.573163747787475586e+00,1.754309654235839844e+00,8.994936943054199219e-01,4.276282787322998047e-01,-6.999130845069885254e-01,-4.737853109836578369e-01,2.358491718769073486e-01,1.236211657524108887e+00,1.154471784830093384e-01,8.536185026168823242e-01,-1.085969567298889160e+00,5.661652088165283203e-01,-1.105084270238876343e-01,-1.094130873680114746e+00,3.927154839038848877e-01,-1.058945536613464355e+00,1.073281764984130859e+00,2.257427930831909180e+00,-9.910733103752136230e-01,3.696339428424835205e-01,-3.897229135036468506e-01,-1.344738006591796875e-01,1.388915181159973145e+00,-5.251050591468811035e-01,-1.620182991027832031e+00,-1.884536445140838623e-01,-8.160127401351928711e-01,-1.569038867950439453e+00,2.016005963087081909e-01,6.730591654777526855e-01,-2.208038568496704102e-01,-1.028131961822509766e+00,9.291290044784545898e-01,-1.545839607715606689e-01,6.155243515968322754e-01,9.186604022979736328e-01,-2.922237813472747803e-01,1.632171511650085449e+00,-3.023972213268280029e-01,-1.122741028666496277e-01,6.873880326747894287e-02,-6.390823721885681152e-01,-4.261524677276611328e-01,1.225172504782676697e-01,7.636707425117492676e-01,1.474555253982543945e+00,5.451389551162719727e-01,8.814445734024047852e-01,-1.012270689010620117e+00,1.775830388069152832e+00,1.399738311767578125e+00,-1.050612449645996094e+00,-6.486415863037109375e-01,-1.850692033767700195e+00,1.522974133491516113e+00,3.491576015949249268e-01,-4.846826493740081787e-01,-1.693956017494201660e+00,3.360938131809234619e-01,-1.138211965560913086e+00,-3.753257393836975098e-01,-1.072051286697387695e+00,5.787544846534729004e-01,-1.127822637557983398e+00,-2.778995335102081299e-01,1.929775476455688477e+00,-3.193900585174560547e-01,2.239057540893554688e+00,7.565315365791320801e-01,-2.427279949188232422e-01,-1.921912193298339844e+00,1.471710085868835449e+00,-1.439121246337890625e+00,-7.859823107719421387e-01,9.371415972709655762e-01,-1.176486372947692871e+00,-7.458842992782592773e-01,4.248182848095893860e-02,-7.992267608642578125e-01,-5.170098543167114258e-01,9.528954625129699707e-01,4.946889877319335938e-01,-1.111840084195137024e-01,-7.791497111320495605e-01,3.394537568092346191e-01,-1.051392793655395508e+00,2.525693178176879883e+00,-9.050456285476684570e-01,1.469189971685409546e-01,-2.617648541927337646e-01,1.609694242477416992e+00,-1.251715064048767090e+00,6.993625164031982422e-01,-3.706345260143280029e-01,1.593588590621948242e+00,-2.806955277919769287e-01,-5.407050848007202148e-01,2.372432202100753784e-01,-6.557778120040893555e-01,2.458702921867370605e-01,-5.852929353713989258e-01,4.027620255947113037e-01,7.001915574073791504e-01,1.185166597366333008e+00,3.672398626804351807e-01,-1.726818084716796875e+00,4.362642168998718262e-01,6.227388978004455566e-01,-5.479060411453247070e-01,-1.777932763099670410e+00,2.274468839168548584e-01,1.014934539794921875e+00,-1.583349853754043579e-01,-3.738787472248077393e-01,1.049141526222229004e+00,-8.690920472145080566e-01,-3.969625532627105713e-01,-5.330081582069396973e-01,-4.425547420978546143e-01,-1.340630173683166504e+00,-1.031475424766540527e+00,6.357353925704956055e-01,7.155496478080749512e-01,-1.012528181076049805e+00,-1.273158550262451172e+00,-3.081727921962738037e-01,7.979229092597961426e-01,9.386131167411804199e-01,-1.011992394924163818e-01,-4.730229675769805908e-01,-6.492126267403364182e-04,-7.697775959968566895e-01,-9.170078039169311523e-01,9.608503580093383789e-01,1.688021183013916016e+00,-1.093573689460754395e+00,-1.400267362594604492e+00,-1.835212588310241699e+00,-1.592395067214965820e+00,3.374407887458801270e-01,2.638197243213653564e-01,-2.587989568710327148e-01,8.898162841796875000e-02,9.356148242950439453e-01,6.372689008712768555e-01,-1.766545414924621582e+00,1.985247969627380371e+00,1.387241959571838379e+00,-2.681727170944213867e+00,8.445705175399780273e-01,2.261755056679248810e-03,7.726922631263732910e-01,1.925396561622619629e+00,8.866407722234725952e-02,-1.299910694360733032e-01,5.253281593322753906e-01,-8.294506669044494629e-01,-1.633388400077819824e+00,2.083802938461303711e+00,3.163309991359710693e-01,7.796899080276489258e-01,-1.893287897109985352e+00,8.189878463745117188e-01,-6.616407036781311035e-01,-1.539392471313476562e-01,3.761014342308044434e-02,-6.368426084518432617e-01,2.733893990516662598e-01,-5.225520730018615723e-01,4.371119737625122070e-01,1.000302433967590332e+00,-1.407854676246643066e+00,1.463573336601257324e+00,-3.664147555828094482e-01,5.382755994796752930e-01,4.083499014377593994e-01,-7.341044545173645020e-01,1.505049318075180054e-01,6.294543743133544922e-01,6.495423316955566406e-01,6.501963138580322266e-01,-1.072347685694694519e-01,-6.216926574707031250e-01,1.050572037696838379e+00,4.561884105205535889e-01,5.706608295440673828e-01,1.113379001617431641e+00,9.785635471343994141e-01,3.101212680339813232e-01,-4.333661794662475586e-01,-1.044991254806518555e+00,-6.359811425209045410e-01,8.994057178497314453e-01,5.733497738838195801e-01,1.445292711257934570e+00,1.408061861991882324e+00,3.968025445938110352e-01,-3.314088881015777588e-01,-3.616896271705627441e-01,1.330515384674072266e+00,2.275731600821018219e-02,-8.529481291770935059e-01,-1.530482649803161621e+00,-7.813409566879272461e-01,4.410064965486526489e-02,3.135510534048080444e-02,2.045535743236541748e-01,-3.862783014774322510e-01,-6.619884371757507324e-01,1.054642558097839355e+00,-3.859836757183074951e-01,-2.163070999085903168e-02,7.006833553314208984e-01,1.993362903594970703e+00,-1.655797243118286133e+00,-6.352147459983825684e-01,1.517975568771362305e+00,-2.202238798141479492e+00,-2.659622907638549805e+00,9.218546748161315918e-01,1.281366586685180664e+00,1.855285167694091797e+00,-8.672570586204528809e-01,-6.055362820625305176e-01,-1.798398733139038086e+00,1.003342270851135254e+00,5.268817543983459473e-01,-1.474605441093444824e+00,6.865895986557006836e-01,-1.319009423255920410e+00,-7.280924916267395020e-01,1.103803873062133789e+00,-1.860400438308715820e+00,1.981378644704818726e-01,-8.044156432151794434e-01,3.842828273773193359e-01,-6.761357188224792480e-02,1.097520351409912109e+00,7.600772380828857422e-01,-1.271607518196105957e+00,4.020142555236816406e-01,1.667879670858383179e-01,-2.664133608341217041e-01,-6.476186513900756836e-01,4.466677606105804443e-01,3.660074174404144287e-01,-5.257077813148498535e-01,-5.420137047767639160e-01,-1.001177057623863220e-01,-4.289647042751312256e-01,-1.363781452178955078e+00,-6.195148229598999023e-01,1.255153417587280273e+00,-1.272345542907714844e+00,-5.391864180564880371e-01,6.933621168136596680e-01,1.484034061431884766e+00,1.171454191207885742e+00,1.698301196098327637e+00,-7.904557511210441589e-03,-2.318769931793212891e+00,-7.888444066047668457e-01,-2.468180060386657715e-01,1.201711058616638184e+00,7.814468741416931152e-01,-5.258274674415588379e-01,9.880948811769485474e-02,1.361598014831542969e+00,1.795820474624633789e+00,8.793849945068359375e-01,2.668471038341522217e-01,-8.627763986587524414e-01,-5.190811157226562500e-01,-1.030979990959167480e+00,-1.995487511157989502e-01,1.398984193801879883e+00,2.891635894775390625e-01,1.514523327350616455e-01,1.383365750312805176e+00,-3.019628524780273438e-01,-1.104117870330810547e+00,-7.768873125314712524e-02,-1.455889463424682617e+00,1.178736567497253418e+00,-8.892998695373535156e-01,1.849673748016357422e+00,-5.416593551635742188e-01,1.256169795989990234e+00,-1.564637899398803711e+00,4.362609088420867920e-01,-7.959166169166564941e-01,7.692186832427978516e-01,6.113071441650390625e-01,5.439223647117614746e-01,9.682436585426330566e-01,-4.106089472770690918e-01,-1.984262466430664062e+00,-9.799748659133911133e-01,-7.064994424581527710e-02,-1.411185711622238159e-01,2.573197185993194580e-01,8.916800618171691895e-01,8.841626644134521484e-01,-1.441928625106811523e+00,3.537127077579498291e-01,1.643872618675231934e+00,-1.995408654212951660e+00,7.432173490524291992e-01,-1.174253597855567932e-01,4.224810302257537842e-01,1.991539835929870605e+00,1.968920707702636719e+00,6.733770370483398438e-01,-2.125317752361297607e-01,-6.016396284103393555e-01,-1.678623557090759277e+00,-7.490294575691223145e-01,-1.659221649169921875e-01,-1.253056645393371582e+00,-4.777061343193054199e-01,4.471870362758636475e-01,4.056599736213684082e-01,-9.948746562004089355e-01,1.805408000946044922e-01,1.885558068752288818e-01,-4.325085028540343046e-04,1.179151162505149841e-01,-1.488724231719970703e+00,3.774672150611877441e-01,2.813871800899505615e-01,7.280493378639221191e-01,-8.543257713317871094e-01,-6.180834174156188965e-01,4.186672568321228027e-01,1.404683291912078857e-01,1.702806472778320312e+00,-1.229235082864761353e-01,-8.864501863718032837e-02,-1.982709169387817383e-01,1.241838216781616211e+00,9.011468887329101562e-01,-8.749295473098754883e-01,1.322549700736999512e+00,-9.664374589920043945e-01,-6.352128386497497559e-01,4.753204807639122009e-02,-4.601620733737945557e-01,2.101209878921508789e+00,-4.907160401344299316e-01,-3.991538882255554199e-01,1.141030073165893555e+00,7.195864319801330566e-01,1.898672103881835938e+00,1.078541755676269531e+00,1.367005705833435059e+00,-3.032721877098083496e-01,-7.242385745048522949e-01,-1.610068231821060181e-01,-8.629928529262542725e-02,-2.726652324199676514e-01,-1.405285596847534180e+00,-1.333065509796142578e+00,-4.583452641963958740e-01,-1.209807276725769043e+00,8.540783524513244629e-01,-1.787622928619384766e+00,1.817334413528442383e+00,7.914080619812011719e-01,2.773625254631042480e-01,9.111740589141845703e-01,1.028544783592224121e+00,-8.550432324409484863e-02,-5.179888606071472168e-01,-8.652329444885253906e-02,1.770318984985351562e+00,1.782402634620666504e+00,6.149999499320983887e-01,-7.298067957162857056e-02,1.155342906713485718e-01,1.241925597190856934e+00,1.934052631258964539e-02,7.580059170722961426e-01,8.538584113121032715e-01,4.156488776206970215e-01,1.231818944215774536e-01,-1.507662832736968994e-01,3.686453998088836670e-01,5.691272616386413574e-01,-2.894611835479736328e+00,-8.735656142234802246e-01,2.246765643358230591e-01,-5.573314428329467773e-01,-4.969758391380310059e-01,-1.500683069229125977e+00,-3.535369634628295898e-01,-8.662083745002746582e-01,-1.217883229255676270e+00,-2.588832616806030273e+00,6.879629492759704590e-01,-1.219187736511230469e+00,4.973600059747695923e-02,2.115779221057891846e-01,1.294754505157470703e+00,2.109638452529907227e+00,-2.739446461200714111e-01,1.750935465097427368e-01,1.464200466871261597e-01,-1.717849254608154297e+00,3.158780932426452637e-01,2.733220756053924561e-01,1.422853827476501465e+00,-1.230518937110900879e+00,-1.562139511108398438e+00,1.135106921195983887e+00,4.240047559142112732e-02,1.187027335166931152e+00,5.023885965347290039e-01,1.563737154006958008e+00,2.654083669185638428e-01,2.869266271591186523e-01,-3.339922130107879639e-01,-2.533552944660186768e-01,3.147203922271728516e-01,2.310865163803100586e+00,-4.480771720409393311e-01,4.133184254169464111e-01,-4.186691641807556152e-01,-1.464311122894287109e+00,1.021392226219177246e+00,-9.999036192893981934e-01,-2.419683188199996948e-01,-5.770076513290405273e-01,1.129347205162048340e+00,1.038313746452331543e+00,3.087501227855682373e-02,-1.239996194839477539e+00,-8.245910704135894775e-02,-2.136627197265625000e+00,-9.687117487192153931e-02,1.158155560493469238e+00,-1.169774010777473450e-01,9.095360636711120605e-01,-1.965533738257363439e-04,1.100671172142028809e+00,1.668837189674377441e+00
-1.530794858932495117e+00,-3.456009626388549805e+00,-4.982334971427917480e-01,-1.697449833154678345e-01,1.479751586914062500e+00,-4.214942753314971924e-01,2.974143028259277344e-01,8.935303092002868652e-01,-9.015145301818847656e-01,1.829532235860824585e-01,6.460332870483398438e-01,-8.551606535911560059e-01,2.227171182632446289e+00,-1.804857254028320312e+00,-8.161363005638122559e-01,-4.062091186642646790e-02,6.455788016319274902e-01,-1.572128295898437500e+00,-2.873369455337524414e-01,8.501827716827392578e-02,8.287625759840011597e-02,-1.166679978370666504e+00,3.736391067504882812e-01,1.627303838729858398e+00,2.291633784770965576e-01,-1.069869399070739746e+00,-2.412727832794189453e+00,-3.082391321659088135e-01,1.036231637001037598e+00,-4.274259880185127258e-02,1.166563272476196289e+00,1.237850069999694824e+00,1.912361383438110352e-01,-1.609628796577453613e-01,6.163715720176696777e-01,2.100058943033218384e-01,-1.776340723037719727e+00,-4.341177642345428467e-01,-1.256067752838134766e+00,2.703808844089508057e-01,-4.101245999336242676e-01,-1.108453154563903809e+00,4.316372573375701904e-01,7.474336028099060059e-01,-9.122777581214904785e-01,-4.169901311397552490e-01,2.337296009063720703e+00,-5.659748911857604980e-01,-1.006622433662414551e+00,1.261995196342468262e+00,9.646726846694946289e-01,-1.363839745521545410e+00,2.253889804705977440e-03,7.242450714111328125e-01,3.050893917679786682e-02,-8.223764896392822266e-01,-5.730666518211364746e-01,1.856081187725067139e-01,1.024056077003479004e+00,-1.147005796432495117e+00,4.881266653537750244e-01,2.311466693878173828e+00,5.200110077857971191e-01,-1.775037407875061035e+00,2.306217908859252930e+00,2.180267870426177979e-01,1.277272582054138184e+00,6.631638407707214355e-01,-2.093739509582519531e+00,3.521229326725006104e-01,3.476024419069290161e-02,-1.559679865837097168e+00,4.048056900501251221e-01,5.791029706597328186e-02,-2.782724238932132721e-02,1.362162947654724121e+00,-1.911420941352844238e+00,4.277241826057434082e-01,4.528668224811553955e-01,-6.676799803972244263e-02,-5.499852895736694336e-01,1.325409889221191406e+00,5.268022418022155762e-01,3.423113226890563965e-01,-8.237817287445068359e-01,-2.557563483715057373e-01,3.786243200302124023e-01,9.207298755645751953e-01,-2.876608967781066895e-01,7.413498759269714355e-01,-1.621289178729057312e-02,-7.342547178268432617e-01,-1.083432793617248535e+00,3.177408277988433838e-01,-9.742033481597900391e-01,4.671390950679779053e-01,1.047739624977111816e+00,2.973045706748962402e-01,-2.470870018005371094e-01,1.516186147928237915e-01,-2.982467114925384521e-01,2.018765449523925781e+00,1.138648033142089844e+00,2.903604805469512939e-01,-6.573855131864547729e-02,-2.924795746803283691e-01,7.652570009231567383e-01,-1.183799743652343750e+00,1.556113004684448242e+00,1.296175837516784668e+00,-5.488390326499938965e-01,4.304960668087005615e-01,5.731316655874252319e-02,-6.476950645446777344e-01,6.320513486862182617e-01,7.514628171920776367e-01,-7.811938524246215820e-01,3.372758030891418457e-01,-2.789719402790069580e-01,-1.077259898185729980e+00,-8.704538345336914062e-01,-6.285136342048645020e-01,1.560963273048400879e+00,1.242924690246582031e+00,2.297302007675170898e+00,-9.845935106277465820e-01,4.464878141880035400e-01,-2.711515128612518311e-01,-2.525406703352928162e-02,-1.109447628259658813e-01,-5.983759164810180664e-01,4.274271130561828613e-01,2.299463301897048950e-01,7.004948854446411133e-01,1.173313736915588379e+00,1.075574517250061035e+00,1.375900864601135254e+00,1.319068789482116699e+00,-6.480406522750854492e-01,1.615027189254760742e-01,-4.851373136043548584e-01,-3.618395328521728516e-01,-1.367596387863159180e+00,2.069197654724121094e+00,2.700545489788055420e-01,6.288387179374694824e-01,-3.890490829944610596e-01,-1.538375377655029297e+00,-1.739178776741027832e+00,3.581341803073883057e-01,-1.425636649131774902e+00,-1.136107444763183594e+00,1.277213215827941895e+00,-5.204737186431884766e-01,-3.940759897232055664e-01,-4.844236969947814941e-01,-4.089900851249694824e-01,-2.179821580648422241e-01,-4.056137502193450928e-01,5.025695562362670898e-01,-5.964716672897338867e-01,3.808156549930572510e-01,-1.270496249198913574e-01,-3.559074103832244873e-01,-1.087731361389160156e+00,-9.740446209907531738e-01,-3.489705324172973633e-01,2.293061278760433197e-02,-1.002753853797912598e+00,-5.667923688888549805e-01,-7.235772013664245605e-01,1.492156088352203369e-01,-1.175040245056152344e+00,1.147211790084838867e+00,-4.941771626472473145e-01,3.150288388133049011e-02,2.857960462570190430e-01,1.129923582077026367e+00,3.450920879840850830e-01,1.228443264961242676e+00,-5.675351023674011230e-01,7.868461608886718750e-01,-2.241205126047134399e-01,-5.373761057853698730e-01,1.603207141160964966e-01,6.490039080381393433e-02,-2.238357305526733398e+00,-3.004585802555084229e-01,9.603252410888671875e-01,7.038732171058654785e-01,-1.248338073492050171e-01,-5.662184953689575195e-01,3.992966115474700928e-01,-1.483176112174987793e+00,-1.012240409851074219e+00,1.638541817665100098e-01,-1.117771506309509277e+00,-9.419569373130798340e-01,1.964458107948303223e+00,8.544927090406417847e-02,-3.308676481246948242e-01,1.188280880451202393e-01,-6.723471879959106445e-01,-1.121912240982055664e+00,5.134949460625648499e-02,4.484730362892150879e-01,-1.082988381385803223e+00,2.479180991649627686e-01,-9.069183468818664551e-02,-8.249359726905822754e-01,-1.303010463714599609e+00,5.265344306826591492e-02,-1.102238371968269348e-01,7.577077150344848633e-01,-6.956634521484375000e-01,-1.681037247180938721e-01,8.252422213554382324e-01,-3.271740078926086426e-01,1.566372513771057129e+00,3.263890147209167480e-01,-1.261151671409606934e+00,1.414814710617065430e+00,-3.098691701889038086e-01,-1.309676289558410645e+00,5.594890117645263672e-01,-2.154249668121337891e+00,4.328882992267608643e-01,-6.374904513359069824e-01,-4.415563642978668213e-01,-2.210649698972702026e-01,-5.095838904380798340e-01,3.546244502067565918e-01,-2.210506200790405273e+00,-1.518631074577569962e-02,-1.010286733508110046e-01,-3.945485055446624756e-01,-1.507065176963806152e+00,-2.412801384925842285e-01,-6.943443417549133301e-01,6.730967164039611816e-01,-1.389181613922119141e+00,1.862065792083740234e+00,2.023069858551025391e+00,-2.056862413883209229e-01,1.302592873573303223e+00,-2.858247041702270508e+00,6.085922122001647949e-01,-3.043262064456939697e-01,1.744095087051391602e+00,-1.572836637496948242e-01,1.904733479022979736e-01,-1.504270792007446289e+00,-8.564625382423400879e-01,-1.448543787002563477e+00,2.359315901994705200e-01,-7.727083563804626465e-02,-1.517237901687622070e+00,-5.193144083023071289e-01,-5.074384063482284546e-02,3.226529061794281006e-01,1.825258284807205200e-01,-5.115216970443725586e-02,-4.568067789077758789e-01,-5.377787351608276367e-01,2.426416277885437012e-01,1.070541262626647949e+00,-1.975900650024414062e+00,-1.644319057464599609e+00,-4.374926388263702393e-01,-2.297086000442504883e+00,-9.070114493370056152e-01,2.272695541381835938e+00,5.926674008369445801e-01,9.314057826995849609e-01,1.607018709182739258e-01,3.496367633342742920e-01,-2.234829366207122803e-01,-7.655427604913711548e-02,-5.607504248619079590e-01,-4.204346239566802979e-01,1.694077730178833008e+00,1.464704155921936035e+00,1.387986302375793457e+00,1.860037297010421753e-01,2.667199969291687012e-01,8.830518722534179688e-01,-3.768157064914703369e-01,-4.563113451004028320e-01,4.057272970676422119e-01,-8.149212598800659180e-01,1.952851772308349609e+00,-1.011557459831237793e+00,-2.478008747100830078e+00,1.679549455642700195e+00,1.244469165802001953e+00,9.878630042076110840e-01,-4.489970505237579346e-01,-1.501580238342285156e+00,-8.547938466072082520e-01,-2.389561176300048828e+00,-7.652152180671691895e-01,1.229518890380859375e+00,1.257160902023315430e+00,3.569780290126800537e-01,-6.990438699722290039e-01,-2.620862126350402832e-01,6.922798752784729004e-01,-8.126686811447143555e-01,-1.044085264205932617e+00,9.295663833618164062e-01,-3.029841370880603790e-02,-4.779527783393859863e-01,-4.162134975194931030e-02,1.198540329933166504e+00,-1.226911664009094238e+00,-1.009134411811828613e+00,9.124135226011276245e-02,-7.059538364410400391e-01,2.411169260740280151e-01,5.385052412748336792e-02,9.880447387695312500e-01,-8.133636713027954102e-01,5.607243180274963379e-01,-7.399845719337463379e-01,1.291597962379455566e+00,-7.790078222751617432e-02,2.120736122131347656e+00,1.113258123397827148e+00,-1.702490746974945068e-01,7.456327676773071289e-01,-7.364400029182434082e-01,-2.029266357421875000e+00,3.154082596302032471e-01,-2.006007879972457886e-01,-1.875908523797988892e-01,-4.680876731872558594e-01,-4.004842042922973633e-01,-1.074592590332031250e+00,1.079948782920837402e+00,-1.383826136589050293e-01,1.656058430671691895e+00,-2.311095967888832092e-02,2.681317627429962158e-01,1.634768843650817871e+00,-1.292017936706542969e+00,-5.261501669883728027e-01,-3.363231718540191650e-01,1.596664041280746460e-01,-6.141676902770996094e-01,-1.474702477455139160e+00,-1.482747793197631836e+00,1.516161561012268066e+00,-1.711302876472473145e+00,3.641579449176788330e-01,-2.501099407672882080e-01,-1.159294843673706055e+00,-1.032330393791198730e+00,3.595357388257980347e-02,-5.005844235420227051e-01,-6.683184206485748291e-02,-5.402418375015258789e-01,-1.390740126371383667e-01,-9.895432591438293457e-01,1.407269597053527832e+00,-3.387987613677978516e-01,6.979818344116210938e-01,6.806889176368713379e-01,4.625836908817291260e-01,-4.062261283397674561e-01,-9.506220817565917969e-01,-1.864908188581466675e-01,7.777411490678787231e-02,1.187750816345214844e+00,-4.545017182826995850e-01,-7.699721455574035645e-01,2.745405435562133789e-01,2.236142873764038086e+00,1.073016643524169922e+00,-1.777341723442077637e+00,-5.785385370254516602e-01,5.623539090156555176e-01,9.483900070190429688e-01,-5.217871665954589844e-01,7.276021838188171387e-01,2.174195498228073120e-01,-1.809764057397842407e-01,5.221161246299743652e-01,-9.109330177307128906e-01,-1.657274246215820312e+00,5.024135708808898926e-01,-3.953977525234222412e-01,-7.449553161859512329e-02,1.173799484968185425e-01,-5.563582181930541992e-01,-6.257073879241943359e-01,-1.668538331985473633e+00,1.555779483169317245e-02,1.286717295646667480e+00,2.288952827453613281e+00,-7.390604615211486816e-01,-1.584870457649230957e+00,6.447123885154724121e-01,2.712770998477935791e-01,2.380040436983108521e-01,-5.931330919265747070e-01,5.021173357963562012e-01,1.715187430381774902e-01,1.353672742843627930e+00,9.067711830139160156e-01,-1.986662596464157104e-01,6.082005500793457031e-01,4.629213511943817139e-01,-1.835624575614929199e-01,-3.271785676479339600e-01,-4.905665814876556396e-01,-2.102025151252746582e-01,-1.508737355470657349e-01,3.927588760852813721e-01,-1.152898311614990234e+00,7.093393802642822266e-01,-8.580871224403381348e-01,3.336760997772216797e-01,-4.846374094486236572e-01,1.393021345138549805e+00,3.912899196147918701e-01,-9.930077195167541504e-01,-1.166813254356384277e+00,-2.746376991271972656e-01,7.334719896316528320e-01,-1.088391184806823730e+00,-8.012439310550689697e-02,-1.977163195610046387e+00,-1.437128901481628418e+00,1.455552220344543457e+00,5.354924798011779785e-01,-7.334061264991760254e-01,-7.365999817848205566e-01,3.861339390277862549e-02,-2.363249510526657104e-01,-1.977011263370513916e-01,1.539764285087585449e+00,7.227255105972290039e-01,-6.048436760902404785e-01,-9.947673082351684570e-01,-1.352262139320373535e+00,-8.436548709869384766e-01,-1.897175431251525879e+00,-4.429183602333068848e-01,-7.578296661376953125e-01,-9.242001771926879883e-01,-7.302632927894592285e-01,-1.152851358056068420e-01,-8.183905482292175293e-01,-8.966525644063949585e-02,-1.144449591636657715e+00,-1.956719756126403809e+00,-1.016352534294128418e+00,3.200630247592926025e-01,-5.076096057891845703e-01,-1.395599722862243652e+00,-1.051427483558654785e+00,3.840989470481872559e-01,-1.453085064888000488e+00,9.663302898406982422e-01,1.176193952560424805e+00,-2.324543714523315430e+00,1.348176360130310059e+00,4.337880313396453857e-01,-2.932132780551910400e-01,-8.776072859764099121e-01,7.575129866600036621e-01,-2.397865802049636841e-02,5.153833031654357910e-01,2.294930666685104370e-01,-1.028358936309814453e+00,1.096759915351867676e+00,1.252179741859436035e+00,-3.180156648159027100e-01,-5.529145598411560059e-01,1.216818332672119141e+00,-4.226296767592430115e-02,1.357991456985473633e+00,1.361880064010620117e+00,-8.726591467857360840e-01,-1.518434286117553711e+00,1.079507827758789062e+00,-1.809308052062988281e+00,8.103527873754501343e-02,-1.178134083747863770e+00,1.152733683586120605e+00,1.003994941711425781e+00,1.771606087684631348e+00,9.552862048149108887e-01,-1.078757524490356445e+00,2.161095440387725830e-01,-2.425099462270736694e-01,-9.671939611434936523e-01,-1.808371990919113159e-01,2.801923453807830811e-01,-4.831797480583190918e-01,2.309154510498046875e+00,-4.320558011531829834e-01,-5.443509817123413086e-01,1.808644056320190430e+00,-2.188126444816589355e-01,-4.391097724437713623e-01,-1.144167065620422363e+00,-1.395420581102371216e-01,-1.656855344772338867e-01,-7.798227667808532715e-01,-1.010184526443481445e+00,1.768616586923599243e-01
-8.178506493568420410e-01,9.969162754714488983e-03,-1.398405671119689941e+00,-8.841271400451660156e-01,1.040753126144409180e+00,-1.518462777137756348e+00,2.059259891510009766e+00,4.500897228717803955e-01,2.953782379627227783e-01,-7.046878933906555176e-01,-1.588360428810119629e+00,2.098919391632080078e+00,-6.372612714767456055e-01,-4.894412755966186523e-01,3.689369857311248779e-01,1.171494722366333008e+00,7.812147736549377441e-01,4.024283587932586670e-01,-2.213266938924789429e-01,-4.968150556087493896e-01,1.200487613677978516e-01,1.383346468210220337e-01,5.988554358482360840e-01,-5.639470815658569336e-01,1.136209011077880859e+00,-1.888818383216857910e+00,1.531866431236267090e+00,8.309902995824813843e-02,-1.393437743186950684e+00,1.894863247871398926e+00,-8.444359302520751953e-01,4.312920570373535156e-01,-1.721103191375732422e-01,-1.162786006927490234e+00,9.186884760856628418e-01,8.186334967613220215e-01,2.034859806299209595e-01,8.318710327148437500e-02,1.547016739845275879e+00,2.756048738956451416e-01,-4.650337100028991699e-01,4.590994715690612793e-01,-1.660736501216888428e-01,8.262687921524047852e-01,-1.113561511039733887e+00,-5.704704523086547852e-01,-1.920221932232379913e-02,4.234602749347686768e-01,-1.699179053306579590e+00,-5.239158868789672852e-01,9.067320227622985840e-01,1.748281598091125488e+00,-1.756248354911804199e+00,-9.397072792053222656e-01,-2.726299166679382324e-01,1.529191255569458008e+00,-1.725502610206604004e+00,-5.468236207962036133e-01,2.384565353393554688e+00,-1.312709569931030273e+00,-8.705032467842102051e-01,1.085935711860656738e+00,-2.284930348396301270e-01,-1.228711605072021484e+00,-2.032422304153442383e+00,2.505466938018798828e-01,-1.310894608497619629e+00,1.807580351829528809e+00,7.255553007125854492e-01,-1.001746535301208496e+00,2.076507806777954102e+00,-1.003140926361083984e+00,2.475260257720947266e+00,-4.205195978283882141e-02,6.333502531051635742e-01,1.980882883071899414e+00,4.640343189239501953e-01,-7.441239356994628906e-01,4.533024132251739502e-01,4.554915428161621094e-01,-2.602376937866210938e+00,1.811870187520980835e-01,-1.193472221493721008e-01,1.487999558448791504e-01,3.544603586196899414e-01,-1.150075435638427734e+00,-1.090227127075195312e+00,5.061762332916259766e-01,7.310036420822143555e-01,2.173317363485693932e-03,-1.196796819567680359e-01,-1.904585808515548706e-01,-8.082540631294250488e-01,-1.100032478570938110e-01,-1.189977288246154785e+00,5.385242700576782227e-01,1.084894761443138123e-01,1.106216460466384888e-01,-1.953230857849121094e+00,-5.133846998214721680e-01,7.846042513847351074e-01,-1.944589614868164062e-01,-4.176958799362182617e-01,2.241499900817871094e+00,-5.110802054405212402e-01,-7.752166390419006348e-01,-5.871458649635314941e-01,1.513651609420776367e+00,2.242477387189865112e-01,-1.789724946022033691e+00,2.453486472368240356e-01,1.224024176597595215e+00,6.110457777976989746e-01,-3.294737637042999268e-01,2.784991741180419922e+00,-3.686662912368774414e-01,2.014961004257202148e+00,-2.117584466934204102e+00,-8.658884763717651367e-01,4.564052224159240723e-01,1.244838833808898926e-01,-1.180004358291625977e+00,1.668869890272617340e-02,1.846206784248352051e+00,-1.679489761590957642e-01,3.118166467174887657e-03,8.178327679634094238e-01,-2.315994977951049805e+00,1.539480388164520264e-01,3.460128605365753174e-02,1.845281869173049927e-01,1.421487182378768921e-01,-1.714139938354492188e+00,1.277254581451416016e+00,6.966649293899536133e-01,7.510159015655517578e-01,-4.614127334207296371e-03,-8.089651465415954590e-01,-6.565046310424804688e-01,-3.611101210117340088e-01,1.107594966888427734e+00,4.484252035617828369e-01,-9.896405935287475586e-01,1.406672745943069458e-01,-9.499951601028442383e-01,4.233156740665435791e-01,-8.450114130973815918e-01,-1.277555942535400391e+00,-5.033423006534576416e-02,8.227801918983459473e-01,1.113163352012634277e+00,-1.041498064994812012e+00,-6.007679104804992676e-01,-9.377015829086303711e-01,2.499888181686401367e+00,-1.475457429885864258e+00,-1.782768666744232178e-01,1.081511601805686951e-01,-2.984384000301361084e-01,-1.013594746589660645e+00,-6.532812118530273438e-01,-3.035261332988739014e-01,-1.320101737976074219e+00,9.616786241531372070e-01,1.023778557777404785e+00,-2.076127290725708008e+00,3.192684352397918701e-01,6.318633556365966797e-01,7.444084286689758301e-01,-1.140899583697319031e-02,3.929250538349151611e-01,-3.921870887279510498e-01,2.327120006084442139e-01,6.101898550987243652e-01,1.531568646430969238e+00,1.432353258132934570e+00,1.090200990438461304e-01,-7.330855727195739746e-01,9.536473751068115234e-01,-1.257960319519042969e+00,-6.786000728607177734e-01,-8.533078432083129883e-02,-1.206386387348175049e-01,1.395050764083862305e+00,-8.169129490852355957e-01,-3.974973261356353760e-01,8.324326276779174805e-01,1.479847133159637451e-01,-2.133041858673095703e+00,1.013032197952270508e+00,-7.112305164337158203e-01,7.045453786849975586e-01,-6.552253961563110352e-01,-1.828878819942474365e-01,1.347943067550659180e+00,9.015105962753295898e-01,6.951882243156433105e-01,1.168126910924911499e-01,6.133335232734680176e-01,-6.005162373185157776e-02,3.033168315887451172e-01,7.747771739959716797e-01,7.011010050773620605e-01,-1.555545210838317871e+00,-1.293116807937622070e+00,-1.622462719678878784e-01,-1.742206960916519165e-01,1.358497023582458496e+00,-1.160415053367614746e+00,7.639251947402954102e-01,5.232744216918945312e-01,1.407637476921081543e+00,2.387678027153015137e-01,-7.650350332260131836e-01,-1.261062979698181152e+00,4.053972363471984863e-01,-2.952561378479003906e-01,7.198327779769897461e-01,2.039019465446472168e-01,-5.373206138610839844e-01,-1.051896452903747559e+00,9.094901084899902344e-01,-1.263698339462280273e+00,8.407164365053176880e-02,-3.192379176616668701e-01,-7.715074419975280762e-01,-4.063332378864288330e-01,6.342564225196838379e-01,-9.802056550979614258e-01,2.426682263612747192e-01,-1.139846220612525940e-01,-1.007726430892944336e+00,1.460464000701904297e+00,1.167957663536071777e+00,1.323960781097412109e+00,1.053987622261047363e+00,2.763753235340118408e-01,-1.268234372138977051e+00,-3.608918488025665283e-01,1.336324691772460938e+00,-2.727319896221160889e-01,4.767961502075195312e-01,-7.387104630470275879e-01,-2.019446641206741333e-01,7.621647715568542480e-01,2.588424086570739746e-01,8.805797696113586426e-01,-8.603494167327880859e-01,5.590167269110679626e-02,2.588097155094146729e-01,7.560738921165466309e-02,9.468264579772949219e-01,2.045040484517812729e-03,-1.970145106315612793e-01,7.419784069061279297e-01,-6.072264909744262695e-01,-8.764917254447937012e-01,6.072795391082763672e-01,-1.723521113395690918e+00,-1.363331198692321777e+00,-7.325930893421173096e-02,2.883807420730590820e-01,5.705382823944091797e-01,4.142201244831085205e-01,-1.044591963291168213e-01,-1.068554162979125977e+00,1.649761438369750977e+00,1.431584507226943970e-01,9.440519809722900391e-01,1.307459115982055664e+00,-2.275117874145507812e+00,-5.427789688110351562e-01,-9.345186948776245117e-01,-9.093999862670898438e-01,-9.259386658668518066e-01,-3.999028503894805908e-01,2.245294332504272461e+00,-8.526585102081298828e-01,1.066539287567138672e+00,1.911501139402389526e-01,8.502634763717651367e-01,3.034026622772216797e+00,8.268674612045288086e-01,-1.622748970985412598e-01,-1.240757226943969727e+00,-3.375618159770965576e-01,-1.473554372787475586e+00,-9.599480628967285156e-01,5.557472705841064453e-01,7.246703505516052246e-01,-7.762640118598937988e-01,8.192719817161560059e-01,1.360964894294738770e+00,-4.735262691974639893e-01,4.895419478416442871e-01,-4.434092938899993896e-01,7.362490147352218628e-02,6.763544678688049316e-01,1.043066143989562988e+00,1.301356196403503418e+00,-2.623989582061767578e-01,-4.883466660976409912e-02,6.175863742828369141e-01,1.220700442790985107e-01,1.170912623405456543e+00,-6.058880686759948730e-01,-2.999926507472991943e-01,1.986494898796081543e+00,-7.027021050453186035e-01,2.460036613047122955e-02,7.761598229408264160e-01,-1.335110068321228027e-01,-1.418586015701293945e+00,-8.681930601596832275e-02,2.187824249267578125e+00,1.002633810043334961e+00,-5.478327870368957520e-01,-9.436010122299194336e-01,-7.493582367897033691e-01,-3.460739180445671082e-02,-1.197788119316101074e+00,7.487920522689819336e-01,-5.095527768135070801e-01,-8.713470697402954102e-01,5.369857549667358398e-01,-1.282206535339355469e+00,7.364624738693237305e-01,-1.094708561897277832e+00,-2.011263510212302208e-03,1.301336288452148438e+00,6.698301434516906738e-01,2.223991155624389648e-01,-8.398126363754272461e-01,4.798480570316314697e-01,1.294361948966979980e+00,2.568392992019653320e+00,1.948694944381713867e+00,-6.806086301803588867e-01,-3.001719415187835693e-01,-1.739516735076904297e+00,2.684482932090759277e-01,-7.883008718490600586e-01,5.114973783493041992e-01,-5.713289380073547363e-01,4.127117097377777100e-01,9.287325143814086914e-01,-1.802915930747985840e-01,3.206230103969573975e-01,1.245394274592399597e-01,-1.268731832504272461e+00,-1.081578254699707031e+00,3.346753120422363281e-01,-4.698257520794868469e-02,1.540568321943283081e-01,-3.717993795871734619e-01,1.196074008941650391e+00,-8.816798329353332520e-01,-5.456253290176391602e-01,1.442602634429931641e+00,-2.309822291135787964e-01,-1.028836369514465332e+00,-1.123896360397338867e+00,1.430285573005676270e-01,2.785510569810867310e-02,-3.158513084053993225e-02,3.872969448566436768e-01,-2.143083333969116211e+00,-2.848393917083740234e+00,1.730987310409545898e+00,-2.228464931249618530e-02,-1.253443956375122070e+00,1.010692477226257324e+00,3.654274642467498779e-01,-1.983883529901504517e-01,-7.650775909423828125e-01,2.285948753356933594e+00,-6.036200001835823059e-02,-6.683721542358398438e-01,-9.723038077354431152e-01,-8.043044805526733398e-01,-5.079114437103271484e-01,-4.868906736373901367e-01,-3.077930808067321777e-01,8.161930441856384277e-01,8.833963423967361450e-02,3.637126088142395020e-02,-9.558025598526000977e-01,1.699388265609741211e+00,-1.166634202003479004e+00,-6.688202023506164551e-01,6.942466497421264648e-01,2.596512436866760254e-01,-2.113010734319686890e-01,7.756569385528564453e-01,-4.922095686197280884e-03,6.449793577194213867e-01,-4.138469696044921875e-01,4.618826806545257568e-01,-5.092642903327941895e-01,8.873679637908935547e-01,-9.491512179374694824e-01,8.171341419219970703e-01,-3.368530869483947754e-01,5.588195323944091797e-01,9.153237342834472656e-01,-9.613422155380249023e-01,1.526193499565124512e+00,7.898155450820922852e-01,-6.948508322238922119e-02,1.380722880363464355e+00,3.584171831607818604e-01,-1.166431069374084473e+00,2.858637273311614990e-01,5.016514658927917480e-01,3.871011734008789062e-01,9.471534490585327148e-01,9.373626112937927246e-01,-4.979372620582580566e-01,1.372274041175842285e+00,4.605694413185119629e-01,7.646445035934448242e-01,-2.192174494266510010e-01,-5.672364234924316406e-01,-6.395051479339599609e-01,3.473187685012817383e-01,-9.132349491119384766e-01,-1.401858869940042496e-03,-1.902914196252822876e-01,-6.515896320343017578e-01,4.137472212314605713e-01,-8.922951221466064453e-01,1.874944925308227539e+00,4.884623363614082336e-02,-1.172849535942077637e+00,-1.022899031639099121e+00,1.321313738822937012e+00,7.214521616697311401e-02,-6.116439104080200195e-01,2.912768162786960602e-02,-1.505156606435775757e-01,1.531691104173660278e-02,2.167845726013183594e+00,2.195206433534622192e-01,4.594119191169738770e-01,-3.350268900394439697e-01,-3.653789162635803223e-01,-3.035713732242584229e-02,-8.508921861648559570e-01,-6.048048734664916992e-01,-3.999618887901306152e-01,1.562083721160888672e+00,2.550117373466491699e-01,-8.994634151458740234e-01,-1.526433348655700684e+00,8.014486432075500488e-01,-3.289466723799705505e-02,7.423934340476989746e-01,-2.348453253507614136e-01,-1.392683237791061401e-01,-7.529423236846923828e-01,1.683432221412658691e+00,-9.461402893066406250e-01,1.911387443542480469e+00,2.522116303443908691e-01,-8.808871358633041382e-02,4.364109337329864502e-01,9.669008851051330566e-02,-3.482355773448944092e-01,7.066660523414611816e-01,-3.958770930767059326e-01,-1.630437970161437988e-01,1.721809625625610352e+00,-1.849968791007995605e+00,4.018846750259399414e-01,-1.055397987365722656e+00,-1.785980343818664551e+00,-5.680170655250549316e-01,-2.608060538768768311e-01,-1.078887935727834702e-02,8.220030069351196289e-01,-2.144088029861450195e+00,2.242291867733001709e-01,2.997835399582982063e-03,-1.927436232566833496e+00,-1.701074957847595215e+00,-1.780798137187957764e-01,-7.971194386482238770e-02,-1.530428886413574219e+00,-1.362396359443664551e+00,5.214563012123107910e-01,1.821925878524780273e+00,-3.539596498012542725e-01,-2.503951311111450195e+00,-1.160487413406372070e+00,-5.424028038978576660e-01,-1.856746524572372437e-01,5.667220056056976318e-02,-1.330632209777832031e+00,-1.077457189559936523e+00,-4.617972373962402344e-01,1.466176062822341919e-01,2.088219821453094482e-01,1.022880196571350098e+00,4.481974840164184570e-01,-3.384463191032409668e-01,9.831085205078125000e-01,-1.518099784851074219e+00,4.490270316600799561e-01,-1.275643557310104370e-01,-9.490959346294403076e-02,-2.173550367355346680e+00,-6.656259298324584961e-01
