1.079113855957984924e-01,-1.501863002777099609e-01,-2.802391536533832550e-02,1.023350097239017487e-02,1.148800253868103027e-01,9.386480599641799927e-02,-1.010059341788291931e-01,-4.411980882287025452e-02,-1.211033910512924194e-01,-3.014063462615013123e-02,-2.488991618156433105e-02,2.164022065699100494e-02,1.505104005336761475e-01,-1.155805028975009918e-02,2.114980109035968781e-02,1.134513095021247864e-01,-3.127060830593109131e-02,1.280640065670013428e-01,-7.866332679986953735e-02,-8.945862948894500732e-02,8.103300631046295166e-02,2.205216735601425171e-01,-7.535027712583541870e-02,-3.590776771306991577e-02,7.277278602123260498e-02,-2.046706229448318481e-01,-1.241772472858428955e-01,1.164085492491722107e-01,-1.105536371469497681e-01,3.070350177586078644e-02,-6.276094913482666016e-02,2.529023028910160065e-02,-7.878588140010833740e-02,1.170073673129081726e-01,-3.294976893812417984e-03,2.692936360836029053e-02,-1.018053442239761353e-01,-5.931854248046875000e-02,-2.843026071786880493e-02,9.302856028079986572e-02,2.475911751389503479e-02,-1.373908370733261108e-01,1.457196772098541260e-01,8.713798224925994873e-02,8.253026753664016724e-02,-3.047500550746917725e-02,-7.158870249986648560e-02,1.363840252161026001e-01,-2.591064199805259705e-02,-6.920713186264038086e-02,9.865868836641311646e-02,-6.192218884825706482e-02,-2.343352884054183960e-03,6.710308045148849487e-02,9.303854405879974365e-02,3.533097729086875916e-02,-1.027191355824470520e-01,-9.471895545721054077e-02,7.083475589752197266e-02,5.892588570713996887e-02,-1.134153753519058228e-01,-2.351265400648117065e-01,-5.408546328544616699e-02,7.409673184156417847e-02,8.165329694747924805e-02,1.896599680185317993e-01,-1.049212440848350525e-01,-1.011102423071861267e-01,5.701142922043800354e-02,3.868462145328521729e-02,-8.450009673833847046e-02,-1.148576103150844574e-02,5.994581803679466248e-02,1.905774581246078014e-03,-9.976582229137420654e-02,-3.813299536705017090e-02,-1.083911061286926270e-01,-9.917590767145156860e-02,-3.243597224354743958e-02,1.269378066062927246e-01,-1.765221655368804932e-01,6.019305065274238586e-02,5.470726266503334045e-02,-6.525821238756179810e-02,3.679720452055335045e-03,4.873761534690856934e-02,1.116373669356107712e-02,1.441987603902816772e-01,2.880233712494373322e-02,-2.376250363886356354e-02,-1.008085981011390686e-01,-5.599958077073097229e-02,-2.466047927737236023e-02,-1.849053949117660522e-01,-2.103360742330551147e-02,2.586447633802890778e-02,1.698742806911468506e-02,-6.817954778671264648e-02,1.290032826364040375e-02,2.315897494554519653e-01,9.727688133716583252e-02,-1.431794762611389160e-01,3.579133749008178711e-02,-9.700839966535568237e-02,1.564829349517822266e-01,-9.589634090662002563e-02,3.440744057297706604e-02,5.968861654400825500e-02,-1.154989376664161682e-01,-2.416279725730419159e-02,-9.550748765468597412e-02,4.732361808419227600e-02,1.527176201343536377e-01,-3.258036449551582336e-02,4.161272943019866943e-02,-3.936791047453880310e-02,-1.852574348449707031e-01,5.645303055644035339e-03,3.213520720601081848e-02,5.468876659870147705e-02,7.222912460565567017e-02,3.465498331934213638e-03,6.398000568151473999e-02,2.581119723618030548e-02,-1.366869360208511353e-02,4.380420595407485962e-02,-1.365627348423004150e-01,1.445057690143585205e-01,-9.486859291791915894e-02,-3.782373666763305664e-02,-3.378115594387054443e-02,1.020016297698020935e-01,-6.987895350903272629e-03,-4.589843004941940308e-02,-1.014268621802330017e-01,6.886568665504455566e-02,-6.767523288726806641e-02,-2.381283417344093323e-02,1.321859806776046753e-01,1.401749998331069946e-01,-7.952884584665298462e-02,9.465646930038928986e-03,-3.014601767063140869e-02,-1.642359793186187744e-01,2.310726419091224670e-02,-3.181803226470947266e-02,-9.686564095318317413e-03,9.136436879634857178e-02,1.090440973639488220e-01,-5.962100625038146973e-02,2.357816882431507111e-02,-9.389369189739227295e-02,1.138232275843620300e-01,-1.121648028492927551e-01,-3.980881348252296448e-02,4.725722968578338623e-02,2.388082444667816162e-02,-8.739884942770004272e-02,-5.578268319368362427e-02,6.026154011487960815e-02,-6.408505886793136597e-02,3.412916883826255798e-02,6.635104119777679443e-02,4.851226881146430969e-02,1.616848260164260864e-01,1.136047765612602234e-01,-8.066909015178680420e-02,1.288137631490826607e-03,8.967600762844085693e-02,-4.832034558057785034e-02,-2.111960761249065399e-02,8.491859585046768188e-02,3.546661138534545898e-02,-2.695633657276630402e-02,-2.057479694485664368e-02,4.353210702538490295e-02,-9.317699819803237915e-02,6.536225229501724243e-02,-1.320050656795501709e-02,-1.143532246351242065e-01,1.942832022905349731e-02,8.740858733654022217e-02,-7.331766188144683838e-03,-1.366655826568603516e-01,-1.119679957628250122e-01,-8.373136073350906372e-02,1.006435230374336243e-02,3.366784751415252686e-02,8.836493641138076782e-02,-9.107922762632369995e-02,-1.089255586266517639e-01,-1.620235592126846313e-01,3.363099694252014160e-02,8.423379808664321899e-02,2.227448299527168274e-02,1.320202201604843140e-01,-8.758956938982009888e-02,1.210869401693344116e-01,9.781653434038162231e-02,-5.736186355352401733e-02,-3.881319984793663025e-02,7.775573432445526123e-02,-6.273140758275985718e-02,1.109837815165519714e-01,3.499044477939605713e-02,8.133563399314880371e-02,1.029944643378257751e-01,-7.969720661640167236e-02,-5.615220591425895691e-02,-4.648960381746292114e-02,-1.211593300104141235e-02,-1.857718825340270996e-01,9.643141180276870728e-02,-1.741494536399841309e-01,-7.444772124290466309e-02,-1.858605444431304932e-01,4.939680546522140503e-02,-8.654494583606719971e-02,-2.031624764204025269e-01,9.386242181062698364e-02,-9.351939894258975983e-03,-1.014607027173042297e-01,-1.702914386987686157e-01,-1.347999423742294312e-01,4.375514388084411621e-02,1.810219883918762207e-01,-5.849146470427513123e-02,1.645106449723243713e-02,5.643630027770996094e-02,-3.510649502277374268e-02,-9.126654267311096191e-02,1.010388731956481934e-01,1.265442818403244019e-01,1.113878190517425537e-02,4.889533296227455139e-02,-7.386977970600128174e-02,-5.309396982192993164e-02,-9.444657713174819946e-02,-1.325146108865737915e-01,8.032105118036270142e-02,-1.296814382076263428e-01,-5.282043665647506714e-02,-5.568615347146987915e-02,9.323561191558837891e-02,-1.613186448812484741e-01,-1.627009734511375427e-02,-3.898651525378227234e-02,8.769856393337249756e-02,-9.532281756401062012e-02,-8.870818465948104858e-02,-8.307990431785583496e-02,2.553427359089255333e-03,9.130679816007614136e-02,3.417829051613807678e-02,-6.881895661354064941e-02,1.133726984262466431e-01,9.724105149507522583e-02,1.419427096843719482e-01,1.211699694395065308e-01,-1.277546286582946777e-01,-1.104652881622314453e-01,4.779385402798652649e-02,-4.922060668468475342e-02,1.294896602630615234e-01,8.807995915412902832e-02,1.209642514586448669e-01,6.814534217119216919e-02,5.581912398338317871e-02,5.329162999987602234e-02,-4.151063784956932068e-02,-1.107173785567283630e-01,-1.058247759938240051e-01,-8.949561417102813721e-02,-4.406107217073440552e-02,-7.779419422149658203e-02,-1.997378766536712646e-01,-4.803074523806571960e-02,5.762910470366477966e-02,9.302945435047149658e-02,-8.752647787332534790e-02,7.798977196216583252e-02,2.300823032855987549e-01,6.134939566254615784e-02,-5.924778059124946594e-02,3.812292218208312988e-02,6.485670059919357300e-02,-7.107461243867874146e-02,5.899770557880401611e-02,-8.234243094921112061e-02,-6.227572262287139893e-02,1.380241066217422485e-01,8.966416865587234497e-02,8.183503895998001099e-02,-9.675700217485427856e-02,1.998542547225952148e-01,-7.028931286185979843e-03,2.945425920188426971e-02,-5.415168777108192444e-02,-4.078079015016555786e-02,-6.484484672546386719e-02,-3.341519832611083984e-02,-3.693013638257980347e-02,4.304005578160285950e-02,-4.431230202317237854e-02,-5.969204381108283997e-02,-2.642909437417984009e-02,-1.541598588228225708e-01,1.229727524332702160e-03,2.970350906252861023e-02,-4.249728098511695862e-02,-1.797504872083663940e-01,5.883914604783058167e-02,7.372006773948669434e-02,1.024474576115608215e-01,3.778968006372451782e-02,-1.259295344352722168e-01,-5.243339762091636658e-02,7.225270569324493408e-02,3.384481417015194893e-03,7.888451218605041504e-02,8.149308711290359497e-02,4.637538455426692963e-03,6.289222091436386108e-02,-5.043971166014671326e-02,1.350997686386108398e-01,-5.931748822331428528e-02,-1.021375432610511780e-01,-4.736537486314773560e-02,-5.230873823165893555e-02,-7.349680364131927490e-02,-1.345803588628768921e-01,-7.772337645292282104e-02,2.114350050687789917e-01,-7.373654097318649292e-02,1.555976271629333496e-01,5.849293246865272522e-02,1.935934275388717651e-02,3.359882906079292297e-02,6.710848957300186157e-02,-8.173241466283798218e-02,-1.457689609378576279e-02,9.170927852392196655e-02,-9.759817272424697876e-02,3.696809336543083191e-02,-7.488701492547988892e-02,-1.186274811625480652e-01,6.381516158580780029e-02,-1.161666810512542725e-01,3.789987415075302124e-02,2.230025082826614380e-02,-1.927112340927124023e-01,-8.095625042915344238e-02,-8.905987441539764404e-02,7.000423967838287354e-02,-8.442821353673934937e-02,-7.554265111684799194e-02,-8.510688692331314087e-02,9.969178587198257446e-02,4.976062476634979248e-02,9.033424407243728638e-02,2.931945584714412689e-02,-5.557220056653022766e-02,-1.112215127795934677e-02,-3.391860425472259521e-02,-7.047273218631744385e-02,-1.073117628693580627e-01,2.461268752813339233e-02,-1.089248582720756531e-01,-1.946459710597991943e-02,2.998566068708896637e-02,-2.759025432169437408e-02,-8.337663114070892334e-02,1.362685114145278931e-01,-2.102247998118400574e-02,4.170028865337371826e-02,5.140368640422821045e-02,6.266213208436965942e-02,-1.468356102705001831e-01,-2.207497656345367432e-01,2.328673936426639557e-02,-5.548319220542907715e-02,1.824988126754760742e-01,8.404328674077987671e-02,4.821371659636497498e-02,-4.411204904317855835e-02,-3.664161264896392822e-02,-3.180283680558204651e-02,8.126779645681381226e-02,-2.320550568401813507e-02,1.644912809133529663e-01,5.283827707171440125e-02,1.507138013839721680e-01,6.565644592046737671e-02,-1.171512156724929810e-01,9.959781169891357422e-02,4.346609115600585938e-02,-1.784063689410686493e-02,3.989794105291366577e-02,-6.320787966251373291e-02,-4.831507802009582520e-02,-8.886558562517166138e-02,-7.415026426315307617e-02,-1.110900714993476868e-01,-2.743744477629661560e-02,-2.711313404142856598e-02,5.686300341039896011e-03,1.071108207106590271e-01,1.428092718124389648e-01,-2.980660274624824524e-02,-3.894409909844398499e-02,1.069785561412572861e-02,-8.347893506288528442e-02,-8.065474033355712891e-02,-4.736788570880889893e-02,-2.419981546700000763e-02,-1.588364094495773315e-01,4.560621455311775208e-02,-7.185388356447219849e-02,3.716158866882324219e-02,3.024847246706485748e-02,-6.079620867967605591e-02,-5.342606455087661743e-02,-2.611133642494678497e-02,8.568836003541946411e-02,-5.635845288634300232e-02,1.716869920492172241e-01,-5.737178400158882141e-02,4.558325931429862976e-02,8.062768727540969849e-02,9.056604653596878052e-02,9.798387438058853149e-02,-6.997585296630859375e-02,1.364684998989105225e-01,8.531258255243301392e-02,-5.588570609688758850e-02,7.591254264116287231e-02,-8.865696936845779419e-02,4.938910156488418579e-02,7.766486704349517822e-02,6.842570006847381592e-02,7.645968347787857056e-02,4.593444522470235825e-03,2.918325178325176239e-02,6.693590432405471802e-02,-8.179009705781936646e-02,-7.501036673784255981e-02,-3.685690090060234070e-02,-8.571702241897583008e-02,4.473681375384330750e-02,-1.605730056762695312e-01,-2.692403830587863922e-02,1.027596369385719299e-01,1.876588761806488037e-01,1.027555167675018311e-01,2.517536655068397522e-02,3.361924365162849426e-02,6.945678591728210449e-02,2.896586991846561432e-02,-8.154227398335933685e-03,-3.684965521097183228e-02,-1.241121292114257812e-01,-4.796632006764411926e-02,-8.593163639307022095e-02,-5.589634180068969727e-02,1.056701764464378357e-01,-3.342374786734580994e-02,1.457009743899106979e-02,-1.457911580801010132e-01,9.908030182123184204e-02,-1.356470137834548950e-01,1.187650486826896667e-01,6.099402531981468201e-02,-9.589699655771255493e-02,-1.050241291522979736e-01,-4.736191406846046448e-02,4.057478159666061401e-02,-6.112524494528770447e-02,1.952259242534637451e-02,-8.038407564163208008e-02,-2.183984778821468353e-02,3.157251700758934021e-02,-3.994542732834815979e-02,9.025060385465621948e-02,1.401170715689659119e-02,-3.533286508172750473e-03,-1.072558537125587463e-01,1.634021252393722534e-01,-4.063451290130615234e-02,-1.249458491802215576e-01,1.989828944206237793e-01,1.139621734619140625e-01,5.060814693570137024e-02,-1.677736341953277588e-01,5.687722936272621155e-02,5.344010144472122192e-02,-9.298097342252731323e-02,-1.847686618566513062e-02,-1.446620002388954163e-02,-2.052300982177257538e-02,-7.410997152328491211e-02,-4.108268395066261292e-02,-1.043387576937675476e-01,-9.014049917459487915e-02,-7.003608345985412598e-02,1.564232856035232544e-01,6.346587557345628738e-03,-3.392563760280609131e-02,-9.718890488147735596e-02,-1.130939424037933350e-01,-8.791425824165344238e-02,-6.114028394222259521e-03,-1.181547269225120544e-01
1.686142832040786743e-01,-1.435552388429641724e-01,-2.443680539727210999e-03,-5.587963014841079712e-02,9.928037226200103760e-02,1.049839183688163757e-01,-1.055656000971794128e-01,-4.895404726266860962e-02,-1.173517256975173950e-01,-2.427487820386886597e-02,-6.190772354602813721e-02,-4.085910040885210037e-03,1.528346538543701172e-01,-8.847028948366641998e-03,-3.010154329240322113e-02,1.073652952909469604e-01,-9.106335043907165527e-02,1.269075423479080200e-01,-8.787206560373306274e-02,-4.843823239207267761e-02,7.858248800039291382e-02,1.697744429111480713e-01,-6.355804949998855591e-02,-6.720370054244995117e-02,5.648480728268623352e-02,-1.283373087644577026e-01,-6.187582015991210938e-02,8.621484041213989258e-02,-8.160548657178878784e-02,7.757756114006042480e-02,-7.363902032375335693e-02,-3.679078817367553711e-02,-5.461222305893898010e-02,5.252228304743766785e-02,-7.788094878196716309e-02,5.538454651832580566e-02,-3.005779534578323364e-02,-8.621102571487426758e-02,2.826059795916080475e-02,1.119921356439590454e-01,6.495758146047592163e-02,-1.209822595119476318e-01,1.191559880971908569e-01,1.841560937464237213e-02,6.325345486402511597e-02,-3.203282132744789124e-03,3.998029511421918869e-03,1.244988963007926941e-01,2.639423497021198273e-02,-1.478050351142883301e-01,1.247227042913436890e-01,-4.285012558102607727e-02,-6.093845516443252563e-02,7.666055858135223389e-02,9.077045321464538574e-02,9.631604701280593872e-02,-1.440183967351913452e-01,-3.306574374437332153e-02,8.851307630538940430e-02,1.035087034106254578e-01,-5.969608947634696960e-02,-1.942287236452102661e-01,-5.062249675393104553e-02,6.770882755517959595e-02,1.040215883404016495e-02,1.341713517904281616e-01,-5.347011983394622803e-02,-7.185795158147811890e-02,6.783181335777044296e-03,7.062977552413940430e-02,-1.082816570997238159e-01,1.380662620067596436e-02,6.490051746368408203e-02,2.863798104226589203e-02,-1.587668955326080322e-01,-2.508386783301830292e-02,-9.873338043689727783e-02,-5.014429613947868347e-02,-4.329318553209304810e-02,8.282721042633056641e-02,-1.591490209102630615e-01,1.551210787147283554e-02,2.826042473316192627e-02,-9.937046468257904053e-02,4.664578288793563843e-02,8.861979097127914429e-02,-4.124697297811508179e-02,9.732363373041152954e-02,-8.110743947327136993e-03,-2.100015245378017426e-02,-1.084162592887878418e-01,-9.255877882242202759e-02,-7.621970027685165405e-02,-1.909846663475036621e-01,-4.057254642248153687e-02,-8.282610215246677399e-04,-4.380125179886817932e-02,-6.535297632217407227e-02,3.724597394466400146e-03,1.601955741643905640e-01,1.234614923596382141e-01,-1.230277717113494873e-01,-1.915380917489528656e-02,-9.437970072031021118e-02,2.021837085485458374e-01,-1.229926869273185730e-01,6.258291006088256836e-02,1.203182563185691833e-01,-6.854581087827682495e-02,-3.526626154780387878e-02,-9.746119379997253418e-02,1.051505208015441895e-01,1.145414486527442932e-01,-9.849552065134048462e-02,1.499629300087690353e-02,-5.849291384220123291e-02,-1.377283632755279541e-01,4.604397341609001160e-02,2.844380587339401245e-02,9.242656826972961426e-02,7.917436212301254272e-02,7.309325039386749268e-03,4.424945265054702759e-02,5.099845305085182190e-02,2.575039397925138474e-03,7.833256572484970093e-02,-1.489844620227813721e-01,1.262211948633193970e-01,-1.154200881719589233e-01,-5.733218789100646973e-02,-5.359135568141937256e-02,9.574476629495620728e-02,-6.333159655332565308e-02,-4.369596391916275024e-02,-8.630570769309997559e-02,2.011756598949432373e-02,-5.495470762252807617e-02,6.291225552558898926e-03,1.241413280367851257e-01,1.626921147108078003e-01,-7.682111114263534546e-02,8.939056098461151123e-02,-8.010167628526687622e-02,-1.531841158866882324e-01,1.608679257333278656e-02,-7.641427218914031982e-02,-1.213154196739196777e-02,1.186855360865592957e-01,6.880410760641098022e-02,-4.920027405023574829e-02,4.008721560239791870e-02,-1.242046728730201721e-01,8.758730441331863403e-02,-1.350855082273483276e-01,-4.600996896624565125e-02,8.145023137331008911e-02,-1.901445910334587097e-02,-9.673175960779190063e-02,-4.010888189077377319e-02,4.652288183569908142e-02,-9.037233144044876099e-02,6.823240965604782104e-02,7.466557621955871582e-02,4.556793719530105591e-02,1.959644705057144165e-01,8.344785124063491821e-02,-9.108979254961013794e-02,9.919475764036178589e-03,9.191299974918365479e-02,5.978277418762445450e-03,2.802655845880508423e-02,1.291600018739700317e-01,8.557780832052230835e-02,-7.130085676908493042e-02,-1.018372271209955215e-02,-1.658842526376247406e-02,-1.336519569158554077e-01,9.503111243247985840e-02,6.553243845701217651e-02,-1.143228784203529358e-01,5.695818364620208740e-02,1.031238883733749390e-01,1.947375945746898651e-02,-1.590840071439743042e-01,-7.381569594144821167e-02,-1.970960944890975952e-02,4.343604086898267269e-04,-4.495293833315372467e-03,1.330640166997909546e-01,-1.370580196380615234e-01,-1.064472496509552002e-01,-1.363855153322219849e-01,1.030243840068578720e-02,7.036976516246795654e-02,-9.794593788683414459e-03,1.387565135955810547e-01,-6.622425466775894165e-02,7.317596673965454102e-02,1.118431016802787781e-01,-7.859386503696441650e-02,-8.146157115697860718e-02,1.160455122590065002e-01,-4.427606984972953796e-02,1.090576723217964172e-01,3.299265354871749878e-02,4.101378098130226135e-02,1.306775361299514771e-01,-2.426877990365028381e-02,-3.975677862763404846e-02,-8.774970471858978271e-02,5.264721810817718506e-02,-1.192639693617820740e-01,9.587752819061279297e-02,-1.486531943082809448e-01,-2.130358666181564331e-02,-1.780198812484741211e-01,4.146656766533851624e-02,-1.098769605159759521e-01,-1.810072958469390869e-01,5.086941272020339966e-02,-4.147135838866233826e-02,-9.824252128601074219e-02,-1.931484043598175049e-01,-1.360609382390975952e-01,2.225232683122158051e-02,1.229554265737533569e-01,-1.075993012636899948e-02,-2.299939095973968506e-02,4.844786971807479858e-02,-7.614982873201370239e-02,-4.689979180693626404e-02,1.006406396627426147e-01,1.781791150569915771e-01,7.975081354379653931e-02,8.574508130550384521e-02,-3.846924751996994019e-02,-4.467336833477020264e-02,-1.022893115878105164e-01,-7.316088676452636719e-02,1.248609125614166260e-01,-1.484115570783615112e-01,2.889106282964348793e-03,-6.220921501517295837e-02,1.232765987515449524e-01,-1.766291260719299316e-01,1.250701583921909332e-02,-1.232538372278213501e-01,1.222098395228385925e-01,-8.507483452558517456e-02,-7.537219673395156860e-02,-9.173294156789779663e-02,2.390389796346426010e-03,1.319414377212524414e-01,1.004706472158432007e-01,-5.259927362203598022e-02,5.785053223371505737e-02,7.701745629310607910e-02,1.503861248493194580e-01,7.906412333250045776e-02,-8.690650761127471924e-02,-9.270098060369491577e-02,3.842270001769065857e-02,-5.130052193999290466e-02,1.354902386665344238e-01,3.972124308347702026e-02,7.419717311859130859e-02,1.933170855045318604e-02,8.772408217191696167e-02,7.054359465837478638e-02,-7.191751152276992798e-02,-1.148407682776451111e-01,-1.525601297616958618e-01,-8.124286681413650513e-02,-5.235582590103149414e-02,-9.124512970447540283e-02,-2.261041700839996338e-01,-5.525399744510650635e-02,1.315390169620513916e-01,5.342559143900871277e-02,-4.610023275017738342e-02,4.060208424925804138e-02,2.377340495586395264e-01,-6.374215707182884216e-03,-1.916899904608726501e-02,4.112511500716209412e-02,9.314235299825668335e-02,-7.957027852535247803e-02,7.859274744987487793e-02,-7.100116461515426636e-02,-7.615727186203002930e-02,1.284235566854476929e-01,5.833749473094940186e-02,1.211775839328765869e-01,-6.486423313617706299e-02,1.849013566970825195e-01,3.009624965488910675e-02,4.806876555085182190e-02,-7.011277973651885986e-02,-1.054112538695335388e-01,-4.678774252533912659e-02,-4.188805446028709412e-02,1.170222368091344833e-02,3.147991746664047241e-02,7.159738801419734955e-03,-8.805855177342891693e-03,-5.318818986415863037e-02,-1.342159360647201538e-01,-1.005939673632383347e-02,3.001979738473892212e-02,-5.066992715001106262e-02,-1.938472092151641846e-01,7.441393285989761353e-02,6.341062486171722412e-02,1.392507255077362061e-01,4.461545124650001526e-02,-1.532412022352218628e-01,-5.969727039337158203e-02,5.611361935734748840e-02,1.526213530451059341e-02,1.720421388745307922e-02,1.056584119796752930e-01,4.108576849102973938e-02,-9.974429383873939514e-03,-5.425151064991950989e-02,1.040152460336685181e-01,-4.408293589949607849e-02,-1.023752391338348389e-01,-1.325581781566143036e-02,-4.233633168041706085e-03,-6.384809315204620361e-02,-8.995049446821212769e-02,-8.771366626024246216e-02,1.523330956697463989e-01,-1.013739779591560364e-01,1.534379869699478149e-01,8.492631465196609497e-02,7.645232230424880981e-02,6.462783366441726685e-02,5.151740834116935730e-02,-7.144862413406372070e-02,-5.086302012205123901e-02,8.833814412355422974e-02,-8.549197018146514893e-02,7.219927757978439331e-02,-9.640306979417800903e-02,-5.268142372369766235e-02,1.015330627560615540e-01,-5.379733815789222717e-02,2.927416237071156502e-03,9.398563764989376068e-03,-2.193881124258041382e-01,-7.769443839788436890e-02,-8.281785994768142700e-02,2.461410313844680786e-02,-9.528049081563949585e-02,-9.370017051696777344e-02,-5.124667286872863770e-02,7.803416997194290161e-02,1.208455786108970642e-01,9.013468772172927856e-02,3.198011592030525208e-02,-1.284161023795604706e-02,-8.409012109041213989e-02,-2.176530472934246063e-02,-8.971105515956878662e-02,-7.722979784011840820e-02,-1.963634788990020752e-02,-1.238567978143692017e-01,-2.402101829648017883e-02,4.245911538600921631e-02,-1.514342427253723145e-02,-5.321399122476577759e-02,1.750767379999160767e-01,-3.091161325573921204e-02,2.064376836642622948e-03,-7.819884456694126129e-03,5.423429980874061584e-02,-8.572219312191009521e-02,-2.050177305936813354e-01,2.294649370014667511e-02,-4.514206945896148682e-02,1.380333304405212402e-01,8.848029375076293945e-02,-6.375068915076553822e-04,-8.798239380121231079e-02,2.725490741431713104e-02,-6.499827653169631958e-02,1.575817726552486420e-02,-5.883212760090827942e-02,2.005391418933868408e-01,4.412293899804353714e-03,1.484568715095520020e-01,9.736134856939315796e-02,-1.076709479093551636e-01,1.522642523050308228e-01,1.105565726757049561e-01,-6.262619793415069580e-02,1.049420088529586792e-01,7.297554519027471542e-03,-2.957121655344963074e-02,-6.004231050610542297e-02,-5.556530505418777466e-02,-1.113728359341621399e-01,-1.546007953584194183e-02,-1.333793997764587402e-02,-2.981777861714363098e-02,1.017573177814483643e-01,1.413575261831283569e-01,-6.314358860254287720e-02,-5.257476493716239929e-02,5.498573929071426392e-02,-4.088704660534858704e-02,-5.019159615039825439e-02,-6.045860424637794495e-02,-7.718218863010406494e-02,-1.273433715105056763e-01,4.209789261221885681e-02,-6.555144488811492920e-02,1.067109927535057068e-01,9.894097596406936646e-02,-1.209140196442604065e-02,-2.754482440650463104e-02,-4.907657578587532043e-02,8.877997845411300659e-02,-2.100337482988834381e-02,1.628013551235198975e-01,-6.912341713905334473e-02,6.423484534025192261e-02,6.930307298898696899e-02,9.824253618717193604e-02,1.160919293761253357e-01,-6.899963319301605225e-02,1.210576593875885010e-01,1.245207637548446655e-01,-1.308799237012863159e-01,4.723062738776206970e-02,-1.074592098593711853e-01,-5.748429801315069199e-03,1.384812593460083008e-01,9.816422313451766968e-02,5.666027590632438660e-02,1.559231150895357132e-02,3.666139021515846252e-02,1.980257034301757812e-02,-6.936434656381607056e-02,-4.309098795056343079e-02,-1.440676581114530563e-02,-1.043755933642387390e-01,-1.360494177788496017e-02,-1.751399785280227661e-01,-5.976422876119613647e-02,1.162819564342498779e-01,2.305727601051330566e-01,1.155415773391723633e-01,-1.622354425489902496e-02,-3.426489606499671936e-02,3.562036156654357910e-02,3.761041909456253052e-02,-3.645299375057220459e-02,-5.044203251600265503e-02,-7.499456405639648438e-02,-6.928058713674545288e-02,-7.123550027608871460e-02,-9.391511976718902588e-02,9.588858485221862793e-02,-4.248830676078796387e-02,-1.046843826770782471e-02,-1.918563991785049438e-01,9.433086961507797241e-02,-1.556530594825744629e-01,7.450122386217117310e-02,2.551728114485740662e-02,-9.071699529886245728e-02,-5.633118748664855957e-02,-6.251399964094161987e-02,7.402662932872772217e-02,-6.235291808843612671e-02,5.395741760730743408e-02,-7.564502954483032227e-02,-6.487018615007400513e-02,1.032597385346889496e-02,-5.313637480139732361e-02,1.173680797219276428e-01,5.986731965094804764e-03,-6.701599061489105225e-02,-6.119462847709655762e-02,1.217004954814910889e-01,-6.675583869218826294e-02,-8.323359489440917969e-02,2.072521597146987915e-01,1.235300078988075256e-01,6.994558870792388916e-02,-1.309649050235748291e-01,4.788703843951225281e-02,7.982709258794784546e-02,-9.515405446290969849e-02,-3.648396953940391541e-02,-2.643175981938838959e-02,-4.779319465160369873e-02,-1.153160780668258667e-01,-7.919370383024215698e-02,-9.073799103498458862e-02,-5.333874374628067017e-02,-1.276934742927551270e-01,1.118350103497505188e-01,9.009256213903427124e-02,-4.181528091430664062e-02,-1.224560588598251343e-01,-1.642754077911376953e-01,-1.091241613030433655e-01,3.651177883148193359e-02,-1.224272325634956360e-01
1.750321686267852783e-01,-1.423552483320236206e-01,-8.502081036567687988e-02,-3.879958763718605042e-02,1.523432880640029907e-01,8.125557005405426025e-02,-6.614653021097183228e-02,-2.189639583230018616e-02,-1.251177787780761719e-01,-3.930442407727241516e-02,-1.882669515907764435e-02,6.949378550052642822e-02,1.114148497581481934e-01,-1.674384437501430511e-02,-1.475640013813972473e-02,1.064062118530273438e-01,-2.493384480476379395e-02,1.125095188617706299e-01,-8.235798031091690063e-02,-8.886668831110000610e-02,7.351285964250564575e-02,1.293509900569915771e-01,-7.174539566040039062e-02,-4.660788923501968384e-02,1.586945541203022003e-02,-1.471058130264282227e-01,-1.253229230642318726e-01,4.578243196010589600e-02,-1.294313371181488037e-01,1.048686355352401733e-01,-6.343217194080352783e-02,-4.907260090112686157e-02,-5.626244470477104187e-02,3.431555628776550293e-02,-7.873238064348697662e-03,1.144026219844818115e-02,-4.389181360602378845e-02,-5.871046707034111023e-02,1.485206373035907745e-02,9.908615052700042725e-02,6.068354845046997070e-02,-1.525419950485229492e-01,1.019998490810394287e-01,5.175669118762016296e-02,4.123582318425178528e-02,-6.178155913949012756e-02,-3.062480688095092773e-02,9.810962527990341187e-02,1.526087429374456406e-02,-1.496222317218780518e-01,1.089121848344802856e-01,-7.066505402326583862e-02,-5.835675448179244995e-02,2.869269251823425293e-02,1.302413195371627808e-01,6.120860949158668518e-02,-1.473113298416137695e-01,-1.098824739456176758e-01,7.601116597652435303e-02,6.368559598922729492e-02,-1.078764200210571289e-01,-1.774686723947525024e-01,-4.659226536750793457e-02,7.423621416091918945e-02,2.838873490691184998e-02,1.269505172967910767e-01,-6.299628317356109619e-02,-9.002988785505294800e-02,7.365956157445907593e-02,4.703754186630249023e-02,-5.017265304923057556e-02,3.671065904200077057e-03,-2.020052168518304825e-03,-1.123732142150402069e-02,-1.293594837188720703e-01,-1.671382971107959747e-02,-1.181413605809211731e-01,-7.537115365266799927e-02,-3.245119005441665649e-02,6.928575038909912109e-02,-1.434727460145950317e-01,1.164828892797231674e-02,4.289111867547035217e-02,-3.634228929877281189e-02,1.286649983376264572e-02,1.475518941879272461e-01,2.055560424923896790e-02,1.151353940367698669e-01,-2.082255482673645020e-02,-6.276293657720088959e-03,-1.024141386151313782e-01,-2.215545624494552612e-02,-1.490132790058851242e-02,-1.885975003242492676e-01,-4.831461608409881592e-02,-1.372627075761556625e-02,1.686444133520126343e-02,-2.475317195057868958e-02,2.631133655086159706e-03,2.208562344312667847e-01,9.450589865446090698e-02,-1.495146453380584717e-01,4.982459917664527893e-02,-7.807067036628723145e-02,1.706698387861251831e-01,-1.055478453636169434e-01,9.559894353151321411e-02,1.512555927038192749e-01,-9.252198785543441772e-02,-4.634605720639228821e-03,-6.685195118188858032e-02,1.159653589129447937e-01,1.417026668787002563e-01,-4.156879335641860962e-02,5.034846067428588867e-02,-9.048658609390258789e-02,-1.727012395858764648e-01,3.898780420422554016e-02,-5.974750500172376633e-03,1.092181205749511719e-01,1.169794052839279175e-01,7.267740555107593536e-03,7.284064590930938721e-02,2.427902445197105408e-02,3.477444127202033997e-02,3.919550776481628418e-02,-1.367920190095901489e-01,1.318754851818084717e-01,-6.862496584653854370e-02,-1.214362774044275284e-02,-6.387051194906234741e-02,9.623821824789047241e-02,-3.678135201334953308e-02,-7.660415023565292358e-02,-6.460504978895187378e-02,2.275474555790424347e-02,-9.526947885751724243e-02,2.029681578278541565e-02,8.390685170888900757e-02,1.037643998861312866e-01,-9.516273438930511475e-02,8.306474238634109497e-02,-7.987933233380317688e-03,-1.740586310625076294e-01,4.387157037854194641e-02,-5.790959298610687256e-02,-2.988991513848304749e-02,1.053408905863761902e-01,1.110664680600166321e-01,-9.436918795108795166e-02,-6.297479383647441864e-03,-9.150433540344238281e-02,1.460376232862472534e-01,-5.203573033213615417e-02,-5.030145496129989624e-02,1.011929064989089966e-01,1.905286684632301331e-02,-1.212060004472732544e-01,-3.567631915211677551e-02,7.316655665636062622e-02,-4.511880502104759216e-02,1.359542924910783768e-02,5.514372885227203369e-02,4.642879217863082886e-02,2.158411741256713867e-01,5.672790110111236572e-02,-7.975344359874725342e-02,6.218262761831283569e-02,1.183045804500579834e-01,-5.975330621004104614e-02,-1.023152656853199005e-02,1.279032975435256958e-01,9.845726191997528076e-02,-4.007680714130401611e-02,-2.934290794655680656e-03,-2.384224347770214081e-02,-1.310853511095046997e-01,9.220668673515319824e-02,1.447187829762697220e-02,-8.958235383033752441e-02,6.175633892416954041e-02,8.275641500949859619e-02,6.515448912978172302e-03,-1.206716224551200867e-01,-1.210583895444869995e-01,-6.049121730029582977e-03,2.464504912495613098e-02,3.175099939107894897e-02,1.407406330108642578e-01,-1.516828536987304688e-01,-1.273731440305709839e-01,-1.656289547681808472e-01,4.153572767972946167e-02,8.724889904260635376e-02,-2.608484961092472076e-02,1.385441422462463379e-01,-1.316326260566711426e-01,1.428238600492477417e-01,8.445093780755996704e-02,-5.017580091953277588e-02,-1.144652888178825378e-01,1.235245093703269958e-01,-8.037686347961425781e-02,1.268748044967651367e-01,8.208952099084854126e-02,4.821662604808807373e-02,1.163736432790756226e-01,-2.105305157601833344e-02,-5.814289208501577377e-03,-9.624432027339935303e-02,4.627254232764244080e-02,-1.085960865020751953e-01,1.038262397050857544e-01,-2.104355841875076294e-01,-7.813399285078048706e-02,-2.009795904159545898e-01,-2.347479388117790222e-02,-1.332871913909912109e-01,-1.764995902776718140e-01,8.688943088054656982e-02,-4.816689714789390564e-02,-8.366546779870986938e-02,-1.462955325841903687e-01,-1.832328885793685913e-01,2.455446310341358185e-02,1.498977243900299072e-01,-3.236272372305393219e-03,-3.207616275176405907e-03,6.447405368089675903e-02,-4.994364455342292786e-02,-1.273409426212310791e-01,5.899090692400932312e-02,1.546170413494110107e-01,1.711324602365493774e-02,1.008466184139251709e-01,-1.341374777257442474e-02,-2.725884318351745605e-02,-3.511625155806541443e-02,-1.200644001364707947e-01,7.825960963964462280e-02,-1.223828047513961792e-01,1.911907829344272614e-02,2.083485014736652374e-02,1.073698550462722778e-01,-1.523440033197402954e-01,1.905575953423976898e-02,-1.139703094959259033e-01,7.083629071712493896e-02,-1.161818802356719971e-01,-9.802483767271041870e-02,-1.493014097213745117e-01,1.201976835727691650e-02,8.022306114435195923e-02,8.637161552906036377e-02,-6.462983042001724243e-02,1.055306196212768555e-01,1.217790395021438599e-01,1.398961693048477173e-01,1.028809398412704468e-01,-1.368530988693237305e-01,-1.306118816137313843e-01,3.995554894208908081e-02,-9.226394444704055786e-02,9.754455089569091797e-02,1.149309128522872925e-01,9.289956837892532349e-02,7.773333787918090820e-02,7.723837345838546753e-02,4.969685524702072144e-02,-2.716872096061706543e-02,-1.033912077546119690e-01,-1.390750706195831299e-01,-1.220617368817329407e-01,2.168859355151653290e-03,-3.384836018085479736e-02,-2.368671000003814697e-01,1.235185097903013229e-02,1.063128560781478882e-01,1.125407516956329346e-01,-6.510365009307861328e-02,6.885177642107009888e-02,2.104778885841369629e-01,3.338118270039558411e-02,-7.792088389396667480e-02,3.121447563171386719e-02,7.616643607616424561e-02,-1.014356315135955811e-01,9.013195335865020752e-02,-6.067354604601860046e-02,-9.954014420509338379e-02,1.203411445021629333e-01,9.549146145582199097e-02,1.279824376106262207e-01,-1.301246136426925659e-01,1.190303936600685120e-01,8.157258853316307068e-03,-2.663881145417690277e-02,-6.742586847394704819e-03,-1.291247606277465820e-01,-7.241566479206085205e-02,2.805985137820243835e-02,3.319847164675593376e-03,6.686075031757354736e-02,-5.284469202160835266e-02,-6.318953633308410645e-02,-3.013842180371284485e-02,-8.953745663166046143e-02,-7.740753144025802612e-02,1.862148637883365154e-03,-4.874933138489723206e-02,-1.430940777063369751e-01,4.242325946688652039e-02,7.220245152711868286e-02,1.310527473688125610e-01,4.031386971473693848e-02,-1.502804160118103027e-01,-4.661649838089942932e-02,4.923799633979797363e-02,-3.340930864214897156e-02,7.302787154912948608e-02,8.201421052217483521e-02,4.736526403576135635e-03,4.757692664861679077e-02,-1.611376740038394928e-02,1.231343969702720642e-01,-6.253094971179962158e-02,-1.213673725724220276e-01,-7.723321020603179932e-02,-4.629844799637794495e-02,-8.131407201290130615e-02,-1.796135008335113525e-01,-7.448333501815795898e-02,1.845576763153076172e-01,-1.454351544380187988e-01,1.271783262491226196e-01,1.431595087051391602e-01,6.375146657228469849e-02,7.719141989946365356e-02,-1.328404340893030167e-02,-1.108932867646217346e-01,-3.385308384895324707e-02,1.261721849441528320e-01,-9.519230574369430542e-02,1.131310984492301941e-01,-7.607699930667877197e-02,-1.161360293626785278e-01,5.041675269603729248e-02,-1.127950474619865417e-01,9.052435308694839478e-02,2.345231361687183380e-02,-2.210636436939239502e-01,-4.294923692941665649e-02,-5.423174798488616943e-02,6.067816913127899170e-02,-9.758552908897399902e-02,-6.509391963481903076e-02,-9.827555716037750244e-02,9.743651002645492554e-02,1.405165344476699829e-01,1.073119267821311951e-01,3.591967746615409851e-02,-4.654682800173759460e-02,-8.074416220188140869e-02,-2.484628930687904358e-02,-4.653452336788177490e-02,-1.111838147044181824e-01,4.967174679040908813e-02,-9.983345121145248413e-02,4.152364097535610199e-03,4.303668811917304993e-02,-5.772244557738304138e-02,-9.624542295932769775e-02,1.394126117229461670e-01,-1.291757915169000626e-02,2.632852643728256226e-02,1.959316059947013855e-02,7.032226026058197021e-02,-1.311565488576889038e-01,-1.917111724615097046e-01,1.184748485684394836e-02,-5.875188857316970825e-02,1.314616501331329346e-01,4.089479520916938782e-02,8.723511360585689545e-03,-7.751106470823287964e-02,-4.963765386492013931e-03,-7.407501339912414551e-02,8.776735514402389526e-02,-4.217410460114479065e-02,1.863210052251815796e-01,6.613942980766296387e-02,8.497973531484603882e-02,6.119084730744361877e-02,-1.453949213027954102e-01,7.991967350244522095e-02,6.031392887234687805e-02,-8.122561872005462646e-02,1.061384230852127075e-01,2.541775815188884735e-02,-3.216223791241645813e-02,-9.445248544216156006e-02,-1.011646017432212830e-01,-1.272590905427932739e-01,-5.581476911902427673e-02,-2.806249633431434631e-02,4.573260247707366943e-02,6.761518865823745728e-02,1.363592445850372314e-01,-7.497946918010711670e-02,-8.868704736232757568e-02,6.429907679557800293e-02,-6.787696480751037598e-02,-4.939358681440353394e-02,-1.035563573241233826e-01,-5.506774038076400757e-02,-1.518445312976837158e-01,2.875555306673049927e-02,-7.865589112043380737e-02,1.113783419132232666e-01,8.242449909448623657e-02,-6.466524302959442139e-02,-5.694157630205154419e-02,-6.326231360435485840e-02,7.034535706043243408e-02,-6.928329169750213623e-02,1.225564628839492798e-01,-5.798166245222091675e-02,6.570070236921310425e-02,4.053706303238868713e-02,5.262041464447975159e-02,6.821423023939132690e-02,-7.213623076677322388e-02,8.479885011911392212e-02,1.251614838838577271e-01,-1.192409843206405640e-01,6.339101493358612061e-02,-9.443999826908111572e-02,5.317360162734985352e-02,1.011259034276008606e-01,6.710768491029739380e-02,5.656240880489349365e-02,2.147018536925315857e-02,2.530808094888925552e-03,1.658991165459156036e-02,-1.186057925224304199e-01,-3.080983646214008331e-02,-7.428300380706787109e-02,-8.809937536716461182e-02,8.590993471443653107e-03,-2.115025818347930908e-01,-3.320810943841934204e-02,1.022034510970115662e-01,2.170137017965316772e-01,1.261357218027114868e-01,6.173862889409065247e-02,1.266184356063604355e-02,7.242865860462188721e-02,7.522440701723098755e-02,-7.017493713647127151e-03,2.230056561529636383e-02,-8.272571116685867310e-02,-8.337085694074630737e-02,-1.816709898412227631e-02,-8.837959170341491699e-02,7.921778410673141479e-02,-6.635641306638717651e-02,1.849567145109176636e-02,-1.353784501552581787e-01,1.350206583738327026e-01,-1.903014630079269409e-01,9.712202847003936768e-02,1.238347496837377548e-02,-8.179408311843872070e-02,-1.057267785072326660e-01,-3.930247947573661804e-02,8.347969502210617065e-02,-1.190924346446990967e-01,7.713271677494049072e-02,-9.817875176668167114e-02,-3.222391754388809204e-02,-1.227064803242683411e-02,-1.031872555613517761e-01,8.989946544170379639e-02,-2.338022366166114807e-02,1.328555122017860413e-02,-1.029985174536705017e-01,1.899165660142898560e-01,-1.239855810999870300e-01,-8.523413538932800293e-02,1.560248434543609619e-01,9.221426397562026978e-02,1.107986867427825928e-01,-1.236294656991958618e-01,1.028496026992797852e-01,9.541255980730056763e-02,-1.199520453810691833e-01,-3.861809521913528442e-02,-4.802830889821052551e-02,-4.456570371985435486e-02,-8.211125433444976807e-02,-2.883282303810119629e-02,-9.003151953220367432e-02,-1.015192568302154541e-01,-1.484393477439880371e-01,8.741483837366104126e-02,2.011743187904357910e-02,-2.248258329927921295e-02,-1.436523199081420898e-01,-1.392801553010940552e-01,-4.473999515175819397e-02,-2.274196967482566833e-02,-9.387551993131637573e-02
1.624733954668045044e-01,-1.324310004711151123e-01,2.161912154406309128e-03,-6.271426379680633545e-02,1.033181101083755493e-01,9.498472511768341064e-02,-1.111520454287528992e-01,-6.890857219696044922e-02,-1.072536408901214600e-01,-5.181451328098773956e-03,-6.610229611396789551e-02,5.710921064019203186e-02,1.290876567363739014e-01,-1.802540011703968048e-02,2.534422650933265686e-02,7.846755534410476685e-02,-6.843232363462448120e-02,8.114810287952423096e-02,-9.500506520271301270e-02,-1.092214882373809814e-01,7.509324699640274048e-02,2.098353803157806396e-01,-7.709639146924018860e-03,-7.372496277093887329e-02,4.853827133774757385e-02,-1.701419651508331299e-01,-1.026274487376213074e-01,1.260441541671752930e-01,-1.114698126912117004e-01,6.124240532517433167e-02,-6.443368643522262573e-02,1.330505032092332840e-02,-5.095524340867996216e-02,5.960283055901527405e-02,-6.389627605676651001e-02,9.939718293026089668e-04,-6.215388327836990356e-02,-3.170029446482658386e-02,-4.704252630472183228e-02,7.238034158945083618e-02,4.629864916205406189e-02,-1.512500941753387451e-01,8.933842182159423828e-02,5.004995688796043396e-02,1.078156009316444397e-01,-4.539085552096366882e-02,-6.290397793054580688e-02,1.426716446876525879e-01,-2.085234224796295166e-02,-1.032079681754112244e-01,6.305939704179763794e-02,-4.333226382732391357e-02,-5.026040226221084595e-02,9.238564968109130859e-02,1.268476694822311401e-01,6.227282807230949402e-02,-8.235229551792144775e-02,-4.684682935476303101e-02,9.030365943908691406e-02,1.264103204011917114e-01,-1.232941597700119019e-01,-2.263544797897338867e-01,-7.805900275707244873e-02,6.789967417716979980e-02,3.694176301360130310e-02,1.823777407407760620e-01,-8.940416574478149414e-02,-1.400824934244155884e-01,2.637226600199937820e-03,7.326322793960571289e-02,-5.905652791261672974e-02,4.104192554950714111e-02,5.622265394777059555e-03,-6.635148893110454082e-04,-1.333360224962234497e-01,-4.876255057752132416e-03,-5.633992701768875122e-02,-1.101323440670967102e-01,-8.823086321353912354e-02,1.123373359441757202e-01,-1.709381341934204102e-01,-4.235870204865932465e-03,3.922986239194869995e-02,-2.474980801343917847e-02,4.565734416246414185e-02,1.472912877798080444e-01,1.454817224293947220e-02,9.954172372817993164e-02,3.883345797657966614e-02,-5.139195919036865234e-02,-1.296521276235580444e-01,-7.501499354839324951e-02,-5.572675727307796478e-04,-1.576582342386245728e-01,-4.769622813910245895e-03,-2.325179427862167358e-02,-5.479985475540161133e-02,-1.808806695044040680e-02,-2.077890001237392426e-02,1.920991241931915283e-01,9.538955241441726685e-02,-1.077890470623970032e-01,6.564819812774658203e-02,-1.154863610863685608e-01,1.251206248998641968e-01,-1.706596463918685913e-01,9.273687005043029785e-02,1.152374595403671265e-01,-1.275267153978347778e-01,4.343283071648329496e-04,-4.951082170009613037e-02,1.018360629677772522e-01,1.417053341865539551e-01,-8.733367174863815308e-02,3.438865765929222107e-02,-7.420678436756134033e-02,-1.957291364669799805e-01,5.532334558665752411e-03,3.248329833149909973e-02,9.866379946470260620e-02,5.350589379668235779e-02,3.911476954817771912e-02,2.146580815315246582e-02,7.147280033677816391e-03,4.370757564902305603e-02,8.585388958454132080e-02,-1.273962557315826416e-01,1.137407124042510986e-01,-4.759837687015533447e-02,1.685699098743498325e-03,4.488004837185144424e-03,3.348979353904724121e-02,-8.104283362627029419e-02,-7.395387440919876099e-02,-4.422841221094131470e-02,6.645350903272628784e-02,-9.080659598112106323e-02,2.256861329078674316e-02,1.456509083509445190e-01,1.609106510877609253e-01,-1.169490516185760498e-01,1.362292189151048660e-02,-4.645530506968498230e-02,-1.551824212074279785e-01,-9.369448758661746979e-03,6.940064486116170883e-03,-2.439521998167037964e-02,3.687741607427597046e-02,1.114685684442520142e-01,-1.024393588304519653e-01,1.952026598155498505e-02,-1.415785849094390869e-01,1.404398679733276367e-01,-1.182425171136856079e-01,-3.378305211663246155e-02,3.936059400439262390e-02,4.499095305800437927e-02,-7.052577286958694458e-02,-8.227322995662689209e-02,5.594732239842414856e-02,-3.311683237552642822e-02,4.041192308068275452e-02,7.667067646980285645e-02,6.512825191020965576e-02,2.091033160686492920e-01,8.444737643003463745e-02,-9.307001531124114990e-02,1.210044696927070618e-02,8.263018727302551270e-02,-3.708153218030929565e-02,-2.154583483934402466e-02,1.259321719408035278e-01,6.176746636629104614e-02,-6.501813232898712158e-02,-7.801643759012222290e-02,-2.522400580346584320e-02,-1.246364116668701172e-01,1.026930361986160278e-01,5.933243781328201294e-02,-1.194679737091064453e-01,5.175736919045448303e-02,1.124434322118759155e-01,-4.100042395293712616e-03,-1.609432399272918701e-01,-8.929699659347534180e-02,-4.418683052062988281e-02,6.183695048093795776e-03,2.591984905302524567e-02,1.345373094081878662e-01,-1.112645491957664490e-01,-7.489340752363204956e-02,-1.318067312240600586e-01,2.939642407000064850e-02,7.762009650468826294e-02,-1.314032077789306641e-02,1.432427614927291870e-01,-1.205529421567916870e-01,1.108060330152511597e-01,6.816048175096511841e-02,-1.069204509258270264e-01,-1.085087135434150696e-01,1.351834833621978760e-01,-3.443290665745735168e-02,1.171205341815948486e-01,3.735811263322830200e-02,7.598730921745300293e-02,1.199113875627517700e-01,-7.807784527540206909e-02,1.631855592131614685e-02,-8.083487302064895630e-02,4.860989004373550415e-02,-1.928728371858596802e-01,4.202219471335411072e-02,-2.223926484584808350e-01,-6.375014781951904297e-02,-1.985248774290084839e-01,-4.906645417213439941e-02,-1.234796568751335144e-01,-1.473170965909957886e-01,7.132176309823989868e-02,-6.123402714729309082e-02,-4.672611132264137268e-02,-1.283199340105056763e-01,-1.393454521894454956e-01,6.013818457722663879e-02,8.871816843748092651e-02,7.421628572046756744e-03,2.290099672973155975e-02,3.916449099779129028e-02,-1.563807949423789978e-02,-1.203411668539047241e-01,6.638237088918685913e-02,8.893003314733505249e-02,4.325975105166435242e-02,9.704573452472686768e-02,-4.658495262265205383e-02,-1.021577566862106323e-01,-2.533746697008609772e-02,-5.270380899310112000e-02,1.415009945631027222e-01,-1.105033457279205322e-01,1.418467983603477478e-02,-4.676790907979011536e-02,8.313531428575515747e-02,-1.523107737302780151e-01,-3.422175347805023193e-02,-5.801530182361602783e-02,6.385666877031326294e-02,-9.141100198030471802e-02,-1.044755578041076660e-01,-1.296951770782470703e-01,-2.504032664000988007e-02,6.563775241374969482e-02,6.873419880867004395e-02,1.966483891010284424e-02,1.027107089757919312e-01,1.139371022582054138e-01,1.364515423774719238e-01,7.715117931365966797e-02,-1.390777230262756348e-01,-1.303781270980834961e-01,-9.532184340059757233e-03,-8.017450571060180664e-02,1.200801804661750793e-01,5.669838935136795044e-02,7.468415796756744385e-02,4.732608422636985779e-02,3.689037635922431946e-02,2.864253334701061249e-02,-5.670185759663581848e-02,-1.245269551873207092e-01,-1.454555094242095947e-01,-1.373046189546585083e-01,-7.411096990108489990e-02,-3.467879444360733032e-02,-1.822827905416488647e-01,-6.413050740957260132e-02,9.772658348083496094e-02,1.071743965148925781e-01,-6.306476891040802002e-02,5.027162656188011169e-02,2.447059303522109985e-01,-2.055567316710948944e-02,-2.731799148023128510e-02,4.399624839425086975e-02,1.180984899401664734e-01,-1.111542657017707825e-01,1.192918270826339722e-01,-1.117884591221809387e-01,-9.151554852724075317e-02,6.533859670162200928e-02,9.723625332117080688e-02,6.048269942402839661e-02,-1.068123281002044678e-01,1.520396620035171509e-01,-1.254461705684661865e-02,-3.983271121978759766e-02,5.087753757834434509e-03,-9.671589732170104980e-02,-3.239441290497779846e-02,-1.478972379118204117e-02,-3.796558454632759094e-02,1.860844716429710388e-02,-1.723018661141395569e-02,9.821532294154167175e-03,-1.196605786681175232e-01,-1.508367657661437988e-01,-8.834016323089599609e-02,-4.317097365856170654e-02,-6.534085422754287720e-02,-1.486992537975311279e-01,6.071259826421737671e-02,6.871253252029418945e-02,1.235123202204704285e-01,6.413765251636505127e-03,-1.384908258914947510e-01,-1.036303862929344177e-01,1.064741015434265137e-01,-2.790345577523112297e-03,3.888641297817230225e-02,6.329134851694107056e-02,-8.441779762506484985e-03,1.765703596174716949e-02,-6.784057617187500000e-02,1.197414174675941467e-01,-6.888624280691146851e-02,-1.240942031145095825e-01,-7.668726891279220581e-02,1.626892015337944031e-02,-4.826331883668899536e-02,-1.408046633005142212e-01,-6.027505546808242798e-02,1.372584253549575806e-01,-1.046745404601097107e-01,1.521122455596923828e-01,1.252425462007522583e-01,9.497083723545074463e-02,-5.571689689531922340e-04,4.156574606895446777e-02,-1.372252255678176880e-01,5.231342511251568794e-04,1.040835455060005188e-01,-8.789547532796859741e-02,7.808084040880203247e-02,-7.623632252216339111e-02,-7.111360877752304077e-02,2.911561727523803711e-02,-6.723850220441818237e-02,8.385938405990600586e-02,-3.854862973093986511e-02,-1.445822864770889282e-01,-6.662693619728088379e-02,-4.501181468367576599e-02,5.979945510625839233e-02,-1.016195565462112427e-01,-1.100112274289131165e-01,-8.706001192331314087e-02,1.434353590011596680e-01,7.964543998241424561e-02,1.518708914518356323e-01,-3.256038203835487366e-02,-3.456192556768655777e-03,-7.827784866094589233e-02,-2.129654213786125183e-02,-4.469220712780952454e-02,-8.101923763751983643e-02,5.064998567104339600e-02,-1.322654485702514648e-01,-7.868824154138565063e-02,8.694219589233398438e-02,-9.449080377817153931e-02,-6.225178763270378113e-02,1.416267603635787964e-01,-5.969687551259994507e-02,1.239978149533271790e-02,-8.977540768682956696e-03,3.267591819167137146e-02,-9.803424030542373657e-02,-2.169520258903503418e-01,1.429859176278114319e-02,-5.287299677729606628e-02,1.545801460742950439e-01,3.366710245609283447e-02,-7.908937986940145493e-04,-1.085511520504951477e-01,3.982970118522644043e-02,-8.818498998880386353e-02,5.214592441916465759e-02,-1.016737967729568481e-01,1.520099937915802002e-01,9.042621590197086334e-03,1.356056630611419678e-01,7.775721698999404907e-02,-1.325574070215225220e-01,3.150301054120063782e-02,1.194451600313186646e-01,-9.332193434238433838e-02,1.208839341998100281e-01,2.982124686241149902e-03,-3.851906582713127136e-02,-9.869894385337829590e-02,-5.629941448569297791e-02,-5.856860056519508362e-02,-3.664334490895271301e-02,2.102734893560409546e-02,1.984423026442527771e-02,1.040105670690536499e-01,1.250921934843063354e-01,-1.975943334400653839e-02,-5.103055015206336975e-02,5.752075091004371643e-02,-9.471517056226730347e-02,-3.859249874949455261e-02,-1.086326912045478821e-01,-5.661758407950401306e-02,-1.264938563108444214e-01,8.368799462914466858e-03,-3.938941285014152527e-02,7.503014057874679565e-02,4.416448995471000671e-02,-3.479633480310440063e-02,-9.521328657865524292e-02,-8.049267530441284180e-02,3.494887799024581909e-02,-6.727070361375808716e-02,1.211075559258460999e-01,-6.633233278989791870e-02,9.934792667627334595e-02,7.484949380159378052e-02,4.514879360795021057e-02,5.827363207936286926e-02,-6.826250255107879639e-02,9.235958009958267212e-02,4.456472769379615784e-02,-1.097031086683273315e-01,1.056669726967811584e-01,-1.514935195446014404e-01,1.206385344266891479e-02,7.786080986261367798e-02,1.224157586693763733e-01,6.315653771162033081e-02,5.505502596497535706e-02,-2.062593027949333191e-02,4.851516336202621460e-03,-1.336372047662734985e-01,-6.352131813764572144e-02,-4.764629155397415161e-02,-8.389669656753540039e-02,2.531789243221282959e-02,-1.608900427818298340e-01,-1.190226525068283081e-02,8.676661550998687744e-02,1.423565894365310669e-01,8.134425431489944458e-02,-2.224178751930594444e-03,-5.428387783467769623e-03,3.395342454314231873e-02,6.020247191190719604e-02,4.443562775850296021e-02,1.277138385921716690e-02,-1.124586164951324463e-01,-5.129260942339897156e-02,-2.850836515426635742e-02,-4.325744137167930603e-02,1.100174188613891602e-01,-5.806446447968482971e-02,4.298815131187438965e-02,-1.673522144556045532e-01,1.214173957705497742e-01,-1.584135740995407104e-01,1.375175714492797852e-01,5.670962855219841003e-02,-5.737736821174621582e-02,-1.108108386397361755e-01,-6.455564498901367188e-02,3.845489770174026489e-02,-8.482549339532852173e-02,6.979256123304367065e-02,-9.668687731027603149e-02,-7.199044525623321533e-02,4.360178112983703613e-02,-7.313784211874008179e-02,6.643240898847579956e-02,-2.887112088501453400e-02,-1.331712584942579269e-02,-9.583789110183715820e-02,1.582439094781875610e-01,-8.480519056320190430e-02,-1.220446154475212097e-01,1.246213614940643311e-01,1.264916360378265381e-01,1.036709919571876526e-01,-1.119191944599151611e-01,9.278911352157592773e-02,1.017050966620445251e-01,-1.123707741498947144e-01,3.269505919888615608e-03,-2.968326397240161896e-02,-6.526008248329162598e-02,-4.931897297501564026e-02,-2.370435558259487152e-02,-7.553000003099441528e-02,-6.414871662855148315e-02,-8.648024499416351318e-02,7.751368731260299683e-02,2.317283116281032562e-02,1.153501030057668686e-02,-1.406482458114624023e-01,-8.824301511049270630e-02,-5.674687400460243225e-02,3.109749779105186462e-02,-1.468436419963836670e-01
1.235143169760704041e-01,-8.782627433538436890e-02,8.367223665118217468e-03,-5.965147539973258972e-02,1.015809103846549988e-01,7.922659069299697876e-02,-1.028914973139762878e-01,-2.364893816411495209e-02,-9.147506952285766602e-02,-1.572437211871147156e-02,-7.640023529529571533e-02,5.412950646132230759e-03,1.085274592041969299e-01,7.435420528054237366e-03,3.317862004041671753e-02,6.663665920495986938e-02,-9.153562784194946289e-02,1.310838460922241211e-01,-1.028452813625335693e-01,-3.822191432118415833e-02,3.169542923569679260e-02,2.143692523241043091e-01,-5.274581909179687500e-02,-1.312305126339197159e-02,5.011250451207160950e-02,-1.944824308156967163e-01,-5.582080036401748657e-02,1.033135429024696350e-01,-1.225748658180236816e-01,1.119668632745742798e-01,1.080389949493110180e-03,-2.707091718912124634e-02,-2.594971284270286560e-02,1.077795252203941345e-01,-7.782893627882003784e-02,1.106086187064647675e-02,-9.081094712018966675e-02,-4.856002703309059143e-02,7.859675213694572449e-03,1.017844155430793762e-01,4.267573356628417969e-02,-1.051605865359306335e-01,7.039177417755126953e-02,1.846305653452873230e-02,1.047963276505470276e-01,-3.415114432573318481e-02,-4.876518994569778442e-02,7.339677214622497559e-02,-5.025597754865884781e-03,-9.750252962112426758e-02,1.028024256229400635e-01,-1.614537648856639862e-02,-2.953385747969150543e-02,2.971624769270420074e-02,1.232084333896636963e-01,7.368243485689163208e-02,-8.917303383350372314e-02,-5.397135391831398010e-02,9.579943120479583740e-02,6.379299610853195190e-02,-7.127700001001358032e-02,-1.985140740871429443e-01,-1.858300901949405670e-02,1.105574145913124084e-01,6.623395532369613647e-02,1.706574410200119019e-01,-6.330183893442153931e-02,-1.314260363578796387e-01,6.136195361614227295e-02,9.226199239492416382e-02,-8.360063284635543823e-02,-2.088350302074104548e-04,2.828932739794254303e-02,4.179687052965164185e-02,-1.447959840297698975e-01,-2.486508712172508240e-02,-1.331568360328674316e-01,-5.950208753347396851e-02,-4.970568791031837463e-02,8.927568793296813965e-02,-1.546584218740463257e-01,6.141281872987747192e-02,2.610669285058975220e-02,-9.249781817197799683e-02,3.574938699603080750e-02,8.528436720371246338e-02,-1.794991642236709595e-02,1.391635537147521973e-01,-4.306938871741294861e-02,-2.865005098283290863e-02,-7.432658225297927856e-02,-1.392731443047523499e-02,-1.376330107450485229e-02,-1.212275251746177673e-01,-5.355496704578399658e-02,-1.013960782438516617e-02,-2.813873440027236938e-02,-5.521276965737342834e-02,4.321418330073356628e-02,2.044044435024261475e-01,1.181714311242103577e-01,-7.868881523609161377e-02,-1.584697701036930084e-02,-8.399213850498199463e-02,1.910048723220825195e-01,-1.610534191131591797e-01,3.542545437812805176e-02,1.432043015956878662e-01,-1.229497790336608887e-01,-1.919304631883278489e-04,-5.521730333566665649e-02,3.956896439194679260e-02,9.925500303506851196e-02,-4.422248154878616333e-02,7.931557297706604004e-02,-6.734012626111507416e-03,-1.826060414314270020e-01,2.010947652161121368e-02,-3.713640943169593811e-02,1.231547892093658447e-01,1.162038370966911316e-01,1.864662952721118927e-02,9.533320367336273193e-02,2.549997717142105103e-02,-1.519063673913478851e-02,5.665965005755424500e-02,-1.167385801672935486e-01,1.409110426902770996e-01,-1.064139381051063538e-01,-5.976921692490577698e-02,-2.807100862264633179e-02,5.957528576254844666e-02,-4.940987378358840942e-02,1.021281257271766663e-02,-9.074532240629196167e-02,6.139128655195236206e-02,-6.268621981143951416e-02,1.966406032443046570e-02,7.131411135196685791e-02,1.128100156784057617e-01,-1.327130794525146484e-01,5.044473335146903992e-02,-2.929027378559112549e-02,-1.628868281841278076e-01,1.185169070959091187e-02,-5.684494599699974060e-02,-1.664153859019279480e-02,8.876084536314010620e-02,4.684938862919807434e-02,-4.149973392486572266e-02,-3.554191067814826965e-02,-8.323443681001663208e-02,1.125449761748313904e-01,-6.625276803970336914e-02,-3.847322240471839905e-02,2.708223462104797363e-02,2.060434781014919281e-02,-7.685850560665130615e-02,-3.781792148947715759e-02,6.265676766633987427e-02,-6.963501125574111938e-02,4.367161542177200317e-02,6.173743680119514465e-02,8.130245655775070190e-02,1.613192111253738403e-01,1.143864169716835022e-01,-7.202845066785812378e-02,3.933148086071014404e-02,3.565722331404685974e-02,-5.860291421413421631e-02,-2.244498580694198608e-02,1.205330118536949158e-01,2.865256555378437042e-02,-5.005826801061630249e-02,-5.615441873669624329e-02,1.304695755243301392e-02,-5.194789171218872070e-02,4.582696780562400818e-02,6.893467903137207031e-02,-1.262514591217041016e-01,7.022266089916229248e-02,6.976029276847839355e-02,4.972336813807487488e-02,-1.442389339208602905e-01,-9.604387730360031128e-02,-1.608606614172458649e-02,-5.262868362478911877e-04,2.347284369170665741e-02,1.221683695912361145e-01,-1.722698062658309937e-01,-1.259657293558120728e-01,-1.311212778091430664e-01,3.958470374345779419e-02,1.279737353324890137e-01,-4.300146922469139099e-02,1.340742409229278564e-01,-1.289398223161697388e-01,1.263836622238159180e-01,9.087779372930526733e-02,-5.746794864535331726e-02,-1.029385849833488464e-01,9.714492410421371460e-02,-8.115372806787490845e-02,7.656355947256088257e-02,8.560106158256530762e-02,4.154516384005546570e-02,1.108116358518600464e-01,-2.338811941444873810e-02,-8.748315274715423584e-03,-5.802627652883529663e-02,5.176328867673873901e-02,-1.662009060382843018e-01,1.071926504373550415e-01,-1.843645572662353516e-01,-9.136962890625000000e-02,-1.798776239156723022e-01,-3.629778325557708740e-02,-1.214379295706748962e-01,-2.050313949584960938e-01,6.604677438735961914e-02,8.842663373798131943e-04,-5.757232755422592163e-02,-1.144472137093544006e-01,-1.315008103847503662e-01,7.043257355690002441e-02,9.014607965946197510e-02,-1.943034864962100983e-02,-3.183661401271820068e-02,9.526693820953369141e-02,-1.985895633697509766e-02,-1.150040179491043091e-01,1.319451183080673218e-01,1.474015563726425171e-01,4.326077178120613098e-02,6.796586513519287109e-02,-7.146845757961273193e-02,-2.005925402045249939e-02,-6.874756515026092529e-02,-1.402218490839004517e-01,8.776439726352691650e-02,-1.297008246183395386e-01,1.500110956840217113e-03,6.539856549352407455e-03,1.006829664111137390e-01,-9.556811302900314331e-02,4.980779811739921570e-02,-3.676477447152137756e-02,1.026929765939712524e-01,-1.189870387315750122e-01,-8.526356518268585205e-02,-1.047926172614097595e-01,3.767836093902587891e-02,8.525023609399795532e-02,8.855459839105606079e-02,-4.828305169939994812e-02,6.292439252138137817e-02,7.520030438899993896e-02,8.660792559385299683e-02,1.111589372158050537e-01,-1.340426206588745117e-01,-1.191934719681739807e-01,1.183992717415094376e-02,-9.450633823871612549e-02,1.211643740534782410e-01,7.042326778173446655e-02,9.505345672369003296e-02,7.013107836246490479e-02,9.309071116149425507e-03,5.301966518163681030e-02,-4.493845626711845398e-02,-1.234327405691146851e-01,-1.435304880142211914e-01,-8.414777368307113647e-02,-6.370364129543304443e-02,-6.239141896367073059e-02,-1.790868043899536133e-01,-2.700195647776126862e-02,1.179535835981369019e-01,5.034654214978218079e-02,-7.418547570705413818e-02,2.823788300156593323e-02,2.171747833490371704e-01,3.853782638907432556e-02,-7.282059639692306519e-02,-5.920043587684631348e-02,6.232965737581253052e-02,-9.037881344556808472e-02,9.816748648881912231e-02,-5.578698590397834778e-02,-8.486253768205642700e-02,9.807582199573516846e-02,3.338965028524398804e-02,1.348526477813720703e-01,-7.367177307605743408e-02,1.412573456764221191e-01,4.010075703263282776e-02,-1.943205855786800385e-02,-6.202694401144981384e-02,-1.194570437073707581e-01,-2.906585857272148132e-02,-2.081442996859550476e-02,1.612342335283756256e-02,7.138366997241973877e-02,-4.072245210409164429e-02,-3.360190987586975098e-02,-9.483386576175689697e-02,-1.131830364465713501e-01,-2.338692545890808105e-02,-2.963166125118732452e-02,-7.530205696821212769e-02,-1.561211049556732178e-01,2.888647094368934631e-02,4.887393116950988770e-02,1.300494223833084106e-01,5.566150322556495667e-02,-1.737806648015975952e-01,-9.949844330549240112e-02,7.448063045740127563e-02,1.858208701014518738e-02,6.900361180305480957e-02,7.546708732843399048e-02,7.898726500570774078e-03,3.908425569534301758e-02,-5.180896073579788208e-02,9.281288832426071167e-02,-6.497440487146377563e-02,-9.844138473272323608e-02,-3.545879572629928589e-02,3.620920004323124886e-03,-8.525961637496948242e-02,-1.688568741083145142e-01,-4.951997846364974976e-02,1.639713943004608154e-01,-9.442900121212005615e-02,9.303107857704162598e-02,1.341485530138015747e-01,2.280191518366336823e-02,1.236985158175230026e-02,5.470067262649536133e-02,-1.186410635709762573e-01,-5.779400840401649475e-02,1.123834475874900818e-01,-7.903262227773666382e-02,1.001930832862854004e-01,-6.775006651878356934e-02,-7.798819988965988159e-02,9.853986650705337524e-02,-1.171333417296409607e-01,6.375103443861007690e-02,3.796269651502370834e-03,-1.809939891099929810e-01,-9.603980183601379395e-02,-4.681655019521713257e-02,6.154381483793258667e-02,-1.354949176311492920e-01,-8.098908513784408569e-02,-6.735190749168395996e-02,1.361689418554306030e-01,1.117228046059608459e-01,1.397337913513183594e-01,-1.984972134232521057e-02,-3.595129027962684631e-02,-6.299360841512680054e-02,-2.991752326488494873e-02,-1.425522752106189728e-02,-4.306941479444503784e-02,3.427145630121231079e-02,-1.526454240083694458e-01,-7.171683758497238159e-02,6.414577364921569824e-02,-4.504707828164100647e-02,-8.683378249406814575e-02,1.556024104356765747e-01,-1.132609788328409195e-02,-2.419774234294891357e-02,5.506253242492675781e-02,1.168341562151908875e-01,-1.389628201723098755e-01,-1.917424052953720093e-01,5.007135216146707535e-03,-8.015284314751625061e-03,1.359637826681137085e-01,4.115383699536323547e-02,3.643508628010749817e-02,-7.819577306509017944e-02,2.451462484896183014e-02,-2.895805612206459045e-02,5.131688714027404785e-02,-4.457863420248031616e-02,1.669017970561981201e-01,4.047897458076477051e-02,1.486661732196807861e-01,8.322984725236892700e-02,-1.043600738048553467e-01,5.837519094347953796e-02,1.015992537140846252e-01,-6.268129497766494751e-02,6.536219269037246704e-02,-3.403246030211448669e-02,-4.691097512841224670e-02,-8.920153230428695679e-02,-1.090824306011199951e-01,-6.550131738185882568e-02,-2.879365719854831696e-02,8.830564911477267742e-04,2.093276567757129669e-02,5.747428908944129944e-02,1.255074441432952881e-01,-5.134154926054179668e-04,-1.961246877908706665e-02,3.489896189421415329e-03,-5.671055614948272705e-02,-3.739737672731280327e-03,-8.345855772495269775e-02,-1.801317371428012848e-02,-1.455738395452499390e-01,5.717549473047256470e-02,-6.063017621636390686e-02,8.001033216714859009e-02,6.799387186765670776e-02,-1.255008950829505920e-02,-9.733593463897705078e-02,-7.086611539125442505e-02,2.927624247968196869e-02,-5.274548754096031189e-02,1.561567187309265137e-01,-6.067756563425064087e-02,7.472140341997146606e-02,8.996648341417312622e-02,8.706872910261154175e-02,6.956806778907775879e-02,-8.359303325414657593e-02,1.229852959513664246e-01,9.657920897006988525e-02,-1.107613518834114075e-01,2.575198188424110413e-02,-1.664144545793533325e-01,3.539800643920898438e-02,1.020923331379890442e-01,9.289737790822982788e-02,5.283348634839057922e-02,3.500476479530334473e-02,1.443093735724687576e-02,-7.707098498940467834e-03,-1.331501156091690063e-01,8.343348279595375061e-03,-2.456866391003131866e-02,-4.168475791811943054e-02,-4.615464713424444199e-03,-1.888330280780792236e-01,-1.593264378607273102e-02,1.491206884384155273e-01,1.880420446395874023e-01,9.347733110189437866e-02,6.512397527694702148e-02,2.514287456870079041e-02,4.440935328602790833e-02,-3.243003040552139282e-03,-1.315211411565542221e-02,3.228510916233062744e-02,-1.337357014417648315e-01,-4.262562841176986694e-02,-8.717129379510879517e-02,-3.625873476266860962e-02,1.001904606819152832e-01,-2.610417827963829041e-02,-3.935959935188293457e-02,-1.626317352056503296e-01,8.001356571912765503e-02,-1.668876111507415771e-01,8.807697892189025879e-02,3.222764655947685242e-02,-5.920653790235519409e-02,-5.574493482708930969e-02,1.246289443224668503e-02,6.768357008695602417e-02,-6.548954546451568604e-02,8.582997322082519531e-02,-6.693082302808761597e-02,-2.160765603184700012e-02,4.980957508087158203e-02,-1.069355085492134094e-01,1.029617339372634888e-01,1.620603492483496666e-03,-1.821046881377696991e-02,-9.088839590549468994e-02,1.607301086187362671e-01,-5.848773568868637085e-02,-1.375717520713806152e-01,1.247983053326606750e-01,7.689777016639709473e-02,1.167334094643592834e-01,-1.222967281937599182e-01,1.138213276863098145e-01,1.056929603219032288e-01,-5.799597874283790588e-02,-3.709584707394242287e-03,-2.299471013247966766e-02,3.972154576331377029e-03,-1.026220917701721191e-01,-4.315494745969772339e-02,-1.037506610155105591e-01,-9.046173095703125000e-02,-1.190144345164299011e-01,8.570419251918792725e-02,7.852394133806228638e-02,-3.560423478484153748e-02,-1.429479271173477173e-01,-1.475981920957565308e-01,-5.162673443555831909e-02,-3.926400095224380493e-03,-1.368840783834457397e-01
