shape,"(5, 512)"
-0.09767382,-0.06189033,0.09068311,0.046886466,-0.018059991,0.06417072,0.016850926,-0.03230119,-0.064306155,-0.07914371,0.089777835,0.12708482,-0.016511986,-0.20322134,-0.15621524,0.113522165,-0.059759036,-0.14504057,0.06053233,-0.083938055,0.09427045,-0.049991872,-0.0069460245,-0.06244024,0.11879361,-0.010927451,0.009816813,0.07290881,0.018069062,0.027472094,-0.13173671,-0.13446382,0.03959788,0.046757273,-0.019546084,0.15911421,0.11947776,-0.11084723,0.022961771,-0.055580482,0.038184248,-0.12556538,-0.053187218,0.1467299,-0.1416487,0.032892104,0.10212388,-0.046477694,0.03682355,-0.06485715,-0.025468048,0.11422256,-0.07810786,-0.12932625,0.083174914,0.017728541,0.10147955,-0.11578439,-0.0002360592,-0.12745689,-0.10357301,-0.012225467,0.13192445,0.022186095,-0.13934839,0.101560265,-0.087671325,0.09806508,-0.06253385,-0.06510766,0.06586847,-0.12716226,0.096953526,-0.0058726314,-0.09067004,-0.03423727,0.12095678,-0.13511771,-0.04158737,-0.12401739,-0.09258167,0.104713105,-0.11836861,-0.05661802,-0.025550527,0.087153755,0.07979277,-0.02950939,0.09098506,-0.06732597,0.061893135,-0.07511391,-0.12822565,-0.18094093,0.118966945,-0.06618279,-0.19683336,-0.0781885,0.07668953,0.018628497,-0.07375912,-0.053619713,-0.06363245,0.062974416,-0.15530041,0.013417631,-0.058930222,-0.026441589,0.1631292,-0.09829245,-0.077915736,-0.10569122,0.047421753,-0.11072813,-0.04073873,0.008247007,0.014653246,-0.09680438,0.06506963,0.15547682,0.09241071,0.02644975,0.07086082,0.0728812,-0.10426331,-0.11380752,-0.042152144,-0.026023895,0.059440006,0.09102116,-0.057683334,-0.01418613,0.14441958,0.08847902,0.062581085,-0.15509985,0.05566166,0.08218996,0.05938044,0.1270113,0.10518247,-0.0812525,0.17409678,1.920152e-05,0.0366574,-0.00911797,0.042843208,-0.06835763,0.021771643,-0.13979562,0.14579311,0.0074008172,0.0814414,-0.055191737,-0.011234879,0.073280185,-0.09964057,-0.110806845,-0.061542895,-0.021284454,0.05992555,-0.249107,0.10517163,-0.059904773,-0.068958595,-0.110595345,0.10246669,-0.021221396,0.06899943,0.10471958,-0.060177095,0.045627236,0.0694059,0.0664435,0.034814924,0.081791066,-0.101331554,-0.037053395,0.07457707,0.054244444,-0.037154935,-0.035246562,-0.11232881,0.10653121,-0.022174867,-0.077210635,-0.10808137,-0.07580389,-0.0460141,-0.06154847,-0.11164788,-0.12070324,0.013827476,-0.02614376,-0.018916555,-0.071851805,-0.012548698,0.09097271,-0.043705303,-0.0865804,-0.046118606,0.034823418,-0.061927635,0.025719902,0.114242524,-0.006733042,0.098294996,0.032258403,-0.006152006,-0.09760323,-0.09774629,0.1804116,-0.053118277,-0.1332612,-0.07500117,-0.04284555,0.106169105,-0.13668258,-0.10020977,-0.13978983,-0.099256225,0.15308775,-0.10141234,-0.17230037,0.108141474,0.04133322,0.19425261,-0.025912942,-0.120236464,-0.06233708,-0.019975703,0.03190894,-0.11163248,-0.019869348,-0.057159305,-0.13372634,0.06497015,-0.014622829,-0.17468786,-0.03310508,-0.014596398,0.013335707,0.0022549543,-0.07179057,0.03745546,0.14659527,-0.18563117,0.007448689,0.08059043,-0.016594037,-0.1733017,-0.044313982,0.045491736,0.026656074,0.10741336,0.01282277,0.02614616,0.053862914,-0.130279,0.103189565,-0.1361648,-0.080281064,0.13150905,0.039751843,-0.055371325,-0.16791609,0.072618715,-0.16414884,-0.08731705,-0.11170091,-0.046790954,0.1597116,-0.1032463,-0.07569925,0.013798847,-0.13540623,-0.10231021,0.038679715,0.037060782,-0.022392934,-0.08468618,0.09488231,-0.16544923,0.09495841,0.038849212,-0.13878447,-0.11370586,0.11853705,-0.035320252,0.042124797,-0.20405616,0.09330563,0.21794672,-0.093444765,6.958257e-05,0.025388561,-0.063073464,0.15512097,0.0020772628,-0.0735145,-0.056448005,0.08627613,-0.122912966,0.04617914,0.07797349,0.05969919,-0.040081907,-0.2656817,-0.10882939,-0.05959174,0.0048034587,-0.056084886,-0.00813658,-0.014105572,-0.12054407,-0.036521163,0.11592271,0.13619348,-0.03223549,0.028279109,-0.07135977,-0.14283827,-0.17964953,0.048824493,-0.06708471,-0.037652496,-0.03157195,0.12811042,0.1010051,-0.028360724,0.028836727,0.057325732,-0.1508324,-0.067246504,-0.07101669,0.06485339,0.112263866,-0.045046583,0.12627143,-0.20045763,-0.06567349,0.0071624783,0.06919301,0.05625507,-0.08566524,0.035610396,0.122905806,0.05966529,-0.01033349,-0.07741192,0.04257301,-0.01756889,-0.0045692916,-0.019257063,0.0773617,0.014326045,0.14351968,0.0057519455,0.1108395,0.1392737,-0.056679796,0.032521855,0.029884031,0.07882024,-0.0630369,0.095594436,-0.10767474,0.062669605,-0.17195004,0.10574691,-0.018826399,-0.2186606,0.069721505,0.14249241,-0.076700866,-0.11406362,-0.027748674,0.054402288,0.049318574,0.102018476,-0.06367738,0.114866935,0.1171766,0.12095623,0.14008306,-0.17796716,0.11664653,-0.048399612,-0.01811866,0.044712666,-0.123590544,0.03724137,0.076753885,0.068702295,-0.16071337,-0.022595588,0.110499404,0.023178864,-0.06172547,-0.050227195,0.011291472,-0.07855158,-0.022505244,0.06139427,-0.031303953,-0.11277976,-0.023426611,0.062764205,0.06653694,-0.09749466,0.13844915,0.08886157,-0.17767303,-0.030806156,-0.10098882,-0.12151761,0.07963789,0.031765815,-0.14341266,0.0065937303,-0.013169699,-0.11830966,0.04290705,-0.07431443,-0.0075715813,0.0045460653,-0.025247443,-0.09676208,0.06189543,-0.08217647,-0.0592121,-0.26126,-0.06020212,-0.023747018,0.021569813,-0.030257931,0.09699673,-0.101405226,0.00021580915,-0.12610438,-0.004288744,-0.057912894,0.049215112,-0.066626824,-0.021912394,-0.14480683,-0.0763466,-0.07252136,-0.027836561,-0.09633303,0.0069201384,0.044075377,-0.053622093,-0.05700631,0.0831436,0.03983186,-0.10258462,0.080196396,-0.056754466,0.06451904,0.020018816,-0.07987066,-0.06554386,0.11352734,-0.028939107,-0.10771028,-0.08873799,0.038361624,-0.06262333,-0.099391736,0.024964945,0.03288427,0.11859232,0.13175565,-0.021324536,-0.09272626,-0.024644412,-0.20989308,0.10296369,-0.010537762,-0.022107463,-0.15072304,-0.025203772,-0.018309457,0.0068779914,0.17029016,-0.20087688,-0.08153492,0.1541074,-0.104717135,0.04019081,-0.019395228,-0.13388002,0.08994898,0.09724699,0.015761163,-0.04804448,0.08725091,0.0951228,0.06540199,0.01642677,-0.091497794,0.095563084,0.11756717,0.026016599,0.15468651,0.19563355,0.17299667,-0.038400184,-0.018310644,-0.11778586,-0.16342835
-0.094697766,-0.08622727,0.059456207,0.10112375,0.038669873,0.13737692,-0.004445253,-0.016749492,-0.068401724,-0.09254265,0.06417522,0.11682388,0.05448629,-0.18898606,-0.086194426,0.14453484,-0.09249792,-0.14128916,-0.007404639,-0.12201014,0.06513795,-0.08583757,-0.044180736,-0.037085637,0.17250451,0.030835558,0.03760339,0.08837111,0.026138742,0.027159838,-0.07840361,-0.10544414,0.09811486,0.015605027,0.01976628,0.16117428,0.1214051,-0.12631093,0.09801063,-0.08734855,0.032280654,-0.13083966,-0.10402474,0.09843748,-0.10733471,0.06311727,0.11239403,-0.009431525,0.030103888,-0.07994544,-0.06272739,0.14825192,-0.06474264,-0.13514967,0.1444993,0.049559265,0.026182882,-0.11659353,-0.056006923,-0.11177952,-0.10572619,0.045770366,0.13143037,0.053556014,-0.0771161,0.13387863,-0.072758675,0.04982764,-0.027041603,-0.035903987,0.075497754,-0.08690979,0.12398157,-0.00083789724,-0.10961734,-0.019444907,0.13261151,-0.09261205,-0.02432893,-0.11897038,-0.098179884,0.040327143,-0.14314869,-0.06751611,0.002347143,0.012543014,0.062212147,-0.101908125,0.039209,-0.07253384,0.052701734,-0.021461988,-0.07758996,-0.1622352,0.06615711,-0.08756682,-0.17318015,-0.03577597,0.109750934,0.07613036,-0.07552925,-0.10560274,-0.05475726,0.061830096,-0.16126794,0.010966262,-0.1301273,-0.03041231,0.13385579,-0.08662418,-0.123671405,-0.11362615,0.062435467,-0.04110786,-0.08864048,0.012018874,0.059375774,-0.08738181,0.06704814,0.14114688,0.10499922,-0.004751554,0.08556938,0.0824434,-0.05530148,-0.06012677,0.014682058,-0.017677823,0.10310917,0.1336177,-0.06496189,-0.04665719,0.11952974,0.06642936,-0.014842154,-0.17497557,0.008195551,0.024662316,0.11980149,0.13896269,0.0727194,-0.042062648,0.1186904,-0.046263795,0.042373966,0.011620139,0.11182227,-0.0040245103,0.10092117,-0.11510563,0.1640093,0.047123663,0.09918982,-0.037364524,-0.059962805,0.063299775,-0.0998959,-0.0952613,-0.09230886,-0.04525191,0.066781595,-0.20805612,0.11955314,-0.110869385,-0.050560977,-0.11778204,0.05942187,-0.051521562,0.09463303,0.053616367,-0.070871234,0.09723062,0.07500164,0.0269856,0.02539115,0.046125762,-0.12403627,-0.062236007,0.09031061,0.03184495,0.065578565,0.0013127789,-0.12202925,0.13129708,-0.0024382877,-0.14246686,-0.078457825,-0.036615856,-0.1025841,-0.017152203,-0.13884288,-0.09904835,0.039406862,-0.01125016,-0.054505903,-0.10173465,-0.0058840835,0.14610836,-0.08368685,-0.0931203,-0.060774732,0.10221879,-0.049795,0.0007391466,0.15160921,-0.04640495,0.046337254,0.022356432,0.04447086,-0.06386475,-0.14062174,0.18165961,-0.0176471,-0.16610889,0.001755871,-0.044216525,0.12133254,-0.15085506,-0.10005935,-0.068664,-0.061299305,0.12950227,-0.14042841,-0.15323633,0.1273415,0.089571595,0.13827659,-0.00055694475,-0.06671129,-0.088941865,-0.049833637,0.02715094,-0.11390791,0.013069933,-0.036025822,-0.10222518,0.096509255,0.070606254,-0.17719162,-0.030151842,-0.025245583,0.06754192,0.016436586,-0.012031299,0.0056024045,0.12809472,-0.13236065,-0.017801732,0.12965514,-0.06350386,-0.11420907,-0.08791962,0.11933213,0.07584255,0.090443626,0.052894898,-0.00026355742,0.052193042,-0.1505944,0.11153512,-0.1117957,-0.0395888,0.08101552,0.007943283,-0.043355055,-0.116311416,0.01245553,-0.09971811,-0.07179491,-0.110344686,-0.115272276,0.17207713,-0.0776659,-0.11035825,0.07758058,-0.12970719,-0.09337505,-0.025619872,0.02738044,-0.12014671,-0.082434535,0.09917977,-0.13447168,0.11751303,0.004443593,-0.06753169,-0.12616353,0.094846204,-0.031504035,0.020526879,-0.20212545,0.051825646,0.18749766,-0.13642488,0.0139996195,-0.033146866,-0.065268785,0.068300165,0.0067892186,-0.108563766,-0.118976794,0.02901299,-0.101379946,0.072397746,0.082027346,-0.00022501276,-0.041192677,-0.23754403,-0.051755972,-0.04846004,0.048489287,-0.030769408,0.054219734,-0.024114406,-0.15982527,-0.06844616,0.059123173,0.108222485,0.0379816,0.052864004,-0.04803866,-0.12296236,-0.167569,0.051025596,-0.09404133,-0.114596486,-0.009502817,0.12344317,0.078344494,-0.0150170205,0.12221569,0.12300626,-0.16880223,-0.09095626,-0.0501366,0.010413659,0.14354718,-0.04801511,0.08149151,-0.20035768,-0.10642529,0.09712479,0.06432498,0.09488129,-0.038376745,0.07736992,0.121878296,0.08305275,-0.03237113,-0.05535863,-0.0005033805,0.00519497,0.06265901,-0.012617519,0.0766511,0.07709275,0.10787693,0.034418326,0.106521785,0.107948296,0.010704499,-0.003504791,0.0031401063,0.14360934,-0.053300053,0.10546958,-0.11929693,-0.004339021,-0.16100971,0.1385175,-0.008742341,-0.14219089,0.0074725645,0.11668581,-0.13932583,-0.147045,-0.056656234,0.12622057,0.03155019,0.1125168,-0.060966134,0.14214349,0.10169078,0.10666256,0.061794385,-0.17455035,0.1272423,-0.058579233,-0.039418906,0.05161807,-0.055344924,0.0042613153,0.094491675,0.058275715,-0.13789839,0.045330457,0.081000194,0.027668525,-0.025967581,0.0015392682,0.05061873,-0.06264689,-0.0004417153,0.045969173,-0.06370964,-0.053636715,0.020243328,0.03339759,0.061614707,-0.08592775,0.12122007,0.12789801,-0.168976,-0.014197629,-0.11122055,-0.06403656,0.07266418,-0.021647515,-0.113919474,0.024122963,0.022397945,-0.11310892,0.05166679,0.00159757,-0.029543838,0.023600584,-0.04910598,-0.061332736,0.10082977,-0.0952726,-0.00074109546,-0.23093891,-0.01232722,0.046294603,0.05183536,-0.05580428,0.116224185,-0.17382228,-0.0030924336,-0.07517432,0.09480574,-0.13452001,0.10484271,-0.035474364,-0.030166825,-0.08742121,-0.12040632,-0.058281474,-0.046293523,-0.113953404,-0.0007532032,0.046344973,-0.029593753,-0.05739561,0.08287036,0.005831316,-0.054732013,0.10522543,-0.0152295325,0.09047442,0.0025783386,-0.06637818,-0.07051811,0.063539594,-0.08689586,-0.09536049,-0.13264513,0.005730833,-0.032645125,-0.06036318,-0.039558265,0.11238032,0.13830927,0.12167925,-0.0313503,-0.02954428,-0.08351078,-0.19339746,0.083688416,0.006813076,-0.10539848,-0.14643016,-0.044650733,-0.027694643,0.032410875,0.117888816,-0.17112744,-0.083892375,0.13994944,-0.07484283,0.11956343,0.029038532,-0.12258022,0.0263028,0.12425349,-0.023027327,-0.035501983,0.04488851,0.08574499,0.041776355,0.043820277,-0.10838474,0.11173972,0.12661082,0.06732692,0.15114057,0.11662156,0.114887156,-0.09642764,-0.074687526,-0.111195855,-0.12588924
-0.09281498,-0.08512941,0.08935352,0.08158099,0.029707108,0.052036274,0.045217708,-0.011918763,-0.06415312,-0.028515153,0.06797253,0.12128669,-0.003691377,-0.1549147,-0.1623688,0.09797285,-0.062143054,-0.10695382,-0.0047341487,-0.097219475,0.10953731,-0.044643965,0.013073602,0.0011246895,0.15284006,-0.0067797895,-0.013664676,0.107991606,0.027590038,0.08559339,-0.115367174,-0.13558017,0.095425114,0.00379148,0.047537573,0.106189504,0.054009315,-0.12213379,0.09220101,-0.06911168,-0.013292274,-0.124696635,-0.059804246,0.15705432,-0.15450862,0.084417224,0.10596207,0.016071858,0.06859536,-0.053622283,-0.13465385,0.11196164,-0.03617878,-0.117385924,0.115437314,-0.00035252754,0.039915588,-0.08058635,-0.058191482,-0.111527815,-0.08595814,0.05784539,0.11698986,0.06232683,-0.15667656,0.117397875,-0.0973945,0.1082269,-0.04997431,-0.047757383,0.05751577,-0.048253156,0.11992687,0.08820887,-0.10314666,-0.04113433,0.14202134,-0.08070644,0.011203595,-0.14008817,-0.08082843,0.09652735,-0.13424388,-0.034783676,-0.010320877,0.05879655,0.028900806,-0.10993749,0.10163303,-0.12459097,0.022909412,-0.079314135,-0.14576516,-0.1467834,0.122376405,-0.07076267,-0.15902041,-0.01927876,0.05541851,0.07571599,-0.030506905,-0.062459838,-0.070869885,0.024895012,-0.1551952,-0.019702783,-0.12793072,-0.086086676,0.11296918,-0.04386019,-0.09078564,-0.1351788,0.04369963,-0.08958281,-0.050422553,0.06357689,0.03737255,-0.08215482,0.06019919,0.08216171,0.048868675,-0.021732688,0.051552914,0.1332376,-0.09586106,-0.08571329,-0.009502942,-0.02087171,0.038953327,0.13520364,-0.031116694,-0.05005298,0.16233087,0.09914194,0.028434705,-0.119804084,-0.0322452,0.09414186,0.12884891,0.10646096,0.10726006,-0.05279489,0.13889344,-0.029512938,0.05500827,-0.0034631134,0.04033926,-0.066279955,0.063835524,-0.118526064,0.16187471,0.00015514305,0.0774914,-0.012856645,-0.07171904,0.014338689,-0.054540895,-0.11544629,-0.07387197,-0.031506285,0.10269839,-0.22801603,0.0981607,-0.10143625,-0.07108026,-0.103393935,0.060712285,-0.021444542,0.06878843,0.09517462,-0.026912242,0.10184038,0.014954637,0.03171512,0.044715572,0.026918063,-0.14070424,-0.020072024,0.12941152,0.0775575,0.03954891,0.044933643,-0.16821133,0.06435781,-0.029995235,-0.09714178,-0.10259539,-0.09390111,-0.121294186,-0.016011173,-0.12500769,-0.1107894,-0.009388998,-0.006070894,-0.07083596,-0.13326319,0.06591023,0.1441579,-0.074070156,-0.07482985,0.00855454,0.0945265,-0.053919956,-0.03530645,0.14649479,-0.032235384,0.113409996,0.056275416,0.05336319,-0.1057189,-0.13756269,0.13087201,-0.051495135,-0.15168554,-0.011497267,-0.005968894,0.13223474,-0.14153567,-0.042632937,-0.09060966,-0.113335006,0.077999696,-0.15679666,-0.2007829,0.13568434,0.020840574,0.11961445,-0.040856734,-0.12992278,-0.09189157,-0.09508205,-0.008102044,-0.13856135,0.011876064,-0.0864088,-0.14344041,0.034069195,-0.0058961916,-0.13540833,-0.03446214,-0.05936526,0.055039495,-0.006141424,-0.004176629,0.054389212,0.092129536,-0.08144133,-0.036218688,0.08724886,-0.034931272,-0.12559165,-0.08665645,0.07658197,0.06604952,0.06269418,0.056418784,0.015637401,0.07024895,-0.13437769,0.14439687,-0.11028008,-0.016255543,0.10487931,0.03603665,-0.006580018,-0.098285355,0.052907303,-0.14221859,-0.0706798,-0.10103958,-0.091520876,0.07285198,-0.114737324,-0.07915636,0.09508112,-0.09648894,-0.150495,-0.010869035,0.071658544,-0.12100596,-0.09892357,0.06298419,-0.09345574,0.09779976,0.03574529,-0.10784339,-0.09875052,0.14316477,-0.090288386,-0.034299776,-0.22671577,0.09707686,0.18742102,-0.120217614,0.036320858,-0.04356926,-0.014479795,0.08612661,-0.02488666,-0.11180711,-0.116401374,0.09234669,-0.050801758,0.09367012,0.04981087,0.021622626,-0.034575343,-0.17613803,-0.11420131,-0.04481074,0.058391128,-0.06541551,-0.008692565,-0.01911395,-0.12131929,-0.041840848,0.06227296,0.06871171,0.0003672059,0.055082895,-0.10406864,-0.12964718,-0.15090242,0.11813635,-0.066282235,-0.09091469,-0.036013674,0.12855484,0.09062751,-0.08086214,0.07706101,0.1370989,-0.16725779,-0.08873074,-0.015420574,0.05488448,0.12946193,-0.071672626,0.09708496,-0.19860584,-0.035516873,0.08798986,0.10943602,0.09712368,-0.10759695,0.1103322,0.12164816,0.060240716,-0.012531689,0.0040738834,0.0734519,0.017487852,0.019092541,-0.05722836,0.12251044,0.07357546,0.10175687,-0.002919393,0.05382725,0.16575003,-0.032698303,-0.023777306,-0.035491385,0.12282702,-0.05679306,0.11646712,-0.12398836,-0.0058384407,-0.15505488,0.08350161,-0.06843079,-0.16948268,0.075432405,0.12195578,-0.15641855,-0.10238105,-0.07793571,0.08814173,0.050392725,0.10360383,-0.035242576,0.10584421,0.11973918,0.04685954,0.079691425,-0.2053322,0.14348303,-0.04087544,-0.095856465,0.088973604,-0.081502765,0.008373148,0.111897096,0.059788242,-0.15189058,0.0027251479,0.11452956,0.026494918,-0.087006144,0.0132903345,0.07277417,-0.11786375,0.019915052,0.06580541,-0.06195047,-0.08878096,0.019474072,0.07607851,0.028927563,-0.09916392,0.10066801,0.053174663,-0.15413728,0.04384084,-0.07821328,-0.05829926,0.11003113,0.026557991,-0.08507919,0.075087555,-0.018726109,-0.10911238,0.075331986,0.0014579003,-0.016611459,0.075323544,-0.026051663,-0.14864916,0.09177658,-0.06410141,-0.06694825,-0.18923546,-0.026483422,0.018390486,0.10524323,-0.058828108,0.11764544,-0.13243125,-0.016503543,-0.11581411,0.08615387,-0.14241467,0.12605743,-0.026800426,-0.01726115,-0.13527547,-0.12077881,-0.040927824,-0.063445866,-0.07033776,0.07365825,0.023666417,-0.0029471794,-0.04125677,0.044898104,-0.013037308,-0.10430664,0.061637618,-0.04321538,0.09509003,-0.05693658,-0.12792581,-0.041077737,0.033430327,-0.062523246,-0.10640772,-0.14729734,0.039238032,0.019283269,-0.09267171,-0.002509958,0.10443063,0.1457617,0.15052465,0.0072136605,-0.042642884,-0.06132942,-0.19069226,0.06283829,-0.05498918,-0.026969917,-0.15855163,-0.008019369,-0.0052883164,0.045058817,0.09470143,-0.18979529,-0.14225458,0.16974814,-0.13029625,0.11314941,-0.019499768,-0.10447027,0.068376005,0.11030236,0.032797687,-0.09917018,0.10067044,0.16718727,0.036568467,-0.016970064,-0.10328067,0.0890807,0.07591097,0.069952,0.16610114,0.1383968,0.12865104,-0.060045328,-0.09250084,-0.07916308,-0.1319628
-0.111430906,-0.08871709,0.10953148,0.09227313,-0.00057579024,0.09332406,0.0550214,-0.052639227,-0.050311714,-0.025744768,0.098546915,0.054556955,0.050138272,-0.18668911,-0.13103893,0.0687831,-0.06681917,-0.11356651,0.019832399,-0.11780741,0.12848595,-0.054740086,-0.0325503,-0.05693177,0.16568792,0.057126947,-0.00694628,0.043068584,-0.03642039,0.09218827,-0.11397529,-0.088450596,0.01995755,0.034821406,0.044045735,0.08512207,0.100288145,-0.09339113,0.057632558,-0.12913696,0.004074553,-0.14944027,-0.07740266,0.10680554,-0.14202565,0.046480417,0.066447124,0.0035265237,0.017231047,-0.0757662,-0.07219236,0.107329406,-0.10066191,-0.08652664,0.1428298,-0.01875239,0.105300196,-0.105762,-0.018102711,-0.10451043,-0.09656267,0.05942797,0.14865741,0.04863711,-0.10767652,0.09170715,-0.030631829,0.06598862,-0.037007365,-0.06839445,0.05434366,-0.0400859,0.10037032,0.06719647,-0.11356686,-0.0742603,0.14344755,-0.11411558,0.011594867,-0.12831992,-0.09671485,0.08731612,-0.1168062,-0.02969475,-0.0027009414,0.076187186,0.109166384,-0.07540702,0.10206925,-0.083011426,0.06113297,-0.057125818,-0.10932539,-0.1509643,0.12829632,-0.085558034,-0.20949103,-0.029023794,0.11387738,0.07303181,-0.052360006,-0.10096871,-0.08816173,0.039110284,-0.09435437,-0.029227234,-0.13295814,-0.07036076,0.08386492,-0.063136384,-0.107237205,-0.09400916,-0.0026974252,-0.08042428,-0.013355235,-0.008571372,0.029508766,-0.07563117,0.07812375,0.14530627,0.031477336,-0.02880335,0.137581,0.12685235,-0.058973543,-0.08828311,-0.047184054,-0.000306817,0.039639078,0.12785906,-0.013822109,-0.08524214,0.0801688,0.12865984,0.0050138477,-0.113473244,0.014643421,0.07256598,0.061912104,0.086828195,0.08936752,-0.026466798,0.16379482,-0.051717684,0.06238421,-0.048421487,0.09867951,-0.023317333,0.10341105,-0.09200565,0.17965156,0.0029962917,0.06379109,-0.081130736,-0.04105976,0.04347973,-0.079765745,-0.1508447,-0.08763592,-0.054100525,0.05848214,-0.21737002,0.10235758,-0.09744717,-0.08822476,-0.05220087,0.050414667,-0.06529868,0.0643872,0.091506705,-0.0071636047,0.09381799,0.080630444,0.09582985,0.031299252,0.11524179,-0.14508072,0.010880096,0.13840383,0.090270504,0.029374594,0.050877213,-0.18124895,0.0836298,0.016212072,-0.10853,-0.061967272,-0.07495691,-0.1121836,-0.057792313,-0.08600202,-0.07472363,0.04928101,-0.0012835802,-0.040052652,-0.13130584,0.0561011,0.115442924,-0.07885984,-0.11084097,-0.057488065,0.107357256,-0.041927036,-0.010802513,0.09044889,-0.08867998,0.1113124,0.027455017,0.010114206,-0.096878104,-0.095677994,0.16972914,-0.012297641,-0.15349363,-0.015928067,-0.04717574,0.112610355,-0.14657056,-0.084558606,-0.081166305,-0.115928724,0.09641436,-0.13041274,-0.21122591,0.09602866,0.063531674,0.114998,0.00021891815,-0.098591015,-0.02118403,-0.055858023,0.025915392,-0.11595256,0.045193095,-0.08046695,-0.10191181,0.08739729,0.045378156,-0.13455963,-0.083600566,-0.0096637625,0.01374652,0.0002623256,-0.015865317,0.045125518,0.13106844,-0.08580124,-0.04206229,0.09310168,-0.030496497,-0.13998517,-0.08638403,0.10382891,0.029515909,0.11086824,0.060924172,-0.029430019,0.068319105,-0.124836184,0.08139204,-0.11605129,-0.046861645,0.07271973,0.060126673,-0.0355441,-0.08027223,0.020256292,-0.14684899,-0.112446666,-0.07560701,-0.07901927,0.14094186,-0.10661289,-0.075027,0.0609105,-0.13057064,-0.122875586,-0.041217804,0.077821136,-0.111880265,-0.09328557,0.085649796,-0.14760914,0.09280361,-0.010791354,-0.14792149,-0.09257526,0.15122537,-0.09901066,-0.023804052,-0.21218546,0.11521026,0.16925639,-0.11044238,0.026618004,-0.05166429,-0.055087227,0.1367922,0.032380015,-0.06884443,-0.0396042,0.07864482,-0.09342556,0.048019424,0.07578725,-0.0031840096,-0.05012294,-0.21565136,-0.10361712,-0.087588854,0.0929952,-0.0195892,0.051499195,-0.062267408,-0.13997504,-0.076130934,0.041315608,0.060906272,0.019411283,0.043069933,-0.11067322,-0.15700687,-0.13520819,0.095271304,-0.08014541,-0.079899766,0.009930496,0.16445602,0.080366984,-0.09077873,0.067695476,0.15673442,-0.104678914,-0.08187636,0.004279007,0.0548568,0.10976207,-0.06413222,0.09264035,-0.14516938,-0.044967033,0.079625204,0.0576745,0.106819645,-0.11152052,0.09184041,0.11562736,0.06617984,0.0032154205,-0.01720059,0.021776244,0.014985777,0.017859254,-0.033059575,0.07515853,0.06755654,0.13439739,0.008950468,0.1069449,0.14572029,0.012547923,-0.029462598,-0.02641539,0.101561934,-0.054821756,0.11998748,-0.09809239,0.040544268,-0.10698384,0.09987377,-0.039567586,-0.14190133,0.08287145,0.110701166,-0.08424262,-0.1180274,-0.04488742,0.10416308,0.015776822,0.073642924,-0.05965488,0.12586752,0.1366071,0.04948803,0.096148945,-0.19863622,0.067595534,-0.02692733,-0.0073629958,0.11074149,-0.03898904,-0.00075877237,0.051510993,0.0795965,-0.10184249,-0.012625165,0.1298634,-0.02002428,-0.0634715,-0.00907729,0.07939255,-0.11157833,0.021055117,0.09615621,-0.015916958,-0.05573325,-0.019483335,0.0335639,0.022976937,-0.042243917,0.14686431,0.12591282,-0.17211466,0.028412346,-0.09100585,-0.038753327,0.137261,0.005507239,-0.16338009,0.033568677,0.0073954915,-0.073735334,0.08192382,-0.003002347,0.009403823,0.017424531,-0.030829765,-0.107907265,0.119219735,-0.03635954,-0.02642302,-0.20528953,-0.07548354,0.0077053206,0.099609196,-0.059966136,0.090909705,-0.13932924,0.026905585,-0.1423495,0.068114966,-0.080237664,0.045075055,0.0067042653,-0.049230546,-0.13450603,-0.05421095,-0.019993775,-0.004650155,-0.10333434,0.023192475,0.035972446,-0.02719909,-0.07173275,0.08306414,0.004525453,-0.057464503,0.11978394,-0.08373543,0.06817719,-0.06351929,-0.116214104,-0.07817791,0.057462692,-0.058109943,-0.067159235,-0.14195925,-0.0075283973,-0.04251949,-0.0999295,-0.015088441,0.0557189,0.146195,0.12071752,-0.010144137,-0.023000056,-0.07734387,-0.18496144,0.09279646,-0.015416421,-0.06593673,-0.18242592,-0.041252818,0.054139808,0.026002154,0.08984619,-0.1994155,-0.10049902,0.15225534,-0.1153984,0.04792684,0.031532448,-0.11144692,0.10178878,0.0871046,0.053721618,-0.081064455,0.102548145,0.113794506,0.04665285,0.06146705,-0.073668554,0.12564875,0.1071174,0.11240147,0.093394764,0.1631914,0.18040995,-0.06245151,-0.044151213,-0.1607473,-0.08369641
-0.07719962,-0.09883556,0.10218779,0.05454763,0.018039672,0.11379808,0.04530988,0.0029416347,-0.055598736,-0.02706706,0.042506963,0.08914753,0.02822403,-0.14039655,-0.10455696,0.07897093,-0.085440814,-0.11669078,0.06416553,-0.13656051,0.10874763,-0.06288292,-0.017276041,-0.02908317,0.11611221,0.06447049,0.06020923,0.10345645,0.031077331,0.077153325,-0.114906296,-0.0698581,0.089720674,0.01920028,0.050202403,0.15936592,0.043308202,-0.1027259,0.019676792,-0.11106875,-0.012827462,-0.13642529,-0.10981587,0.08566935,-0.069631115,0.107487515,0.08743079,-0.06685486,-0.0034272904,-0.005296205,-0.056042194,0.1267927,-0.11293761,-0.1633921,0.11305161,0.031720094,0.07565585,-0.054328766,-0.04985524,-0.11501263,-0.07991493,-0.0008910995,0.11228593,0.009013266,-0.14156488,0.11565793,-0.107924156,0.11172067,-0.016154727,-0.013220315,0.031690232,-0.10698906,0.13747191,0.009064449,-0.1038937,-0.03664516,0.12124968,-0.118098535,0.024273753,-0.14211048,-0.06820218,0.079463676,-0.15486388,-0.0133192865,-0.024275314,0.060235545,0.03276236,-0.07692772,0.08955969,-0.12432366,0.052168217,-0.042298388,-0.12246941,-0.19075601,0.07031574,-0.07596482,-0.1784943,-0.05025712,0.124911964,0.030641252,-0.05748652,-0.032872435,-0.08722921,0.017723328,-0.11162391,-0.008576469,-0.10183428,0.0009324822,0.10084109,-0.036263824,-0.11808698,-0.110399365,-0.016853219,-0.09850526,-0.081006624,-0.0136781875,0.038959417,-0.11781317,0.035767224,0.12365706,0.04705581,-0.006173893,0.1342943,0.06753782,-0.13943674,-0.11470924,0.021567106,-0.012887545,0.058816362,0.14179754,-0.0029987406,-0.036642425,0.10781933,0.0929956,0.0074160174,-0.13438766,0.04329083,0.057374526,0.07450331,0.0795821,0.087381795,-0.09052339,0.15374625,0.03463083,0.08434185,0.04841202,0.045354847,-0.05463,0.03026637,-0.06771154,0.16640326,0.07095228,0.10455938,-0.0414167,-0.04413173,0.093090124,-0.114581294,-0.11575594,-0.0730775,-0.057930056,0.12692769,-0.23359859,0.0638721,-0.06969703,-0.09851787,-0.11482034,0.04723575,-0.008102229,0.00800356,0.11026747,-0.03798579,0.060573563,0.011357865,0.0690367,0.031036131,0.10701607,-0.095732376,-0.013793224,0.09014634,0.060817007,-0.03284376,0.025725199,-0.16403954,0.071391545,0.021436425,-0.13659357,-0.09390322,-0.058518767,-0.1345363,-0.010669971,-0.16244355,-0.12920538,0.051611297,0.036548994,-0.014201924,-0.046328094,0.038772993,0.09377172,-0.0601215,-0.10802638,0.008708437,0.050403483,-0.06257443,-0.021843005,0.14786234,-0.08759002,0.09534672,0.016718091,-0.0017880644,-0.069632985,-0.11469769,0.17596902,-0.007485096,-0.12162036,-0.034275312,-0.042289052,0.10254286,-0.13236056,-0.07869756,-0.12697907,-0.07926199,0.096181706,-0.10423778,-0.21206534,0.14154665,0.054871928,0.17203607,-0.04903737,-0.11070979,-0.06710274,-0.08751876,0.02322951,-0.09389288,-0.025006874,-0.05414781,-0.12176525,0.041215852,0.05467224,-0.16550435,-0.09883281,-0.05250264,0.042473566,-0.02283657,-0.0844967,-0.007191683,0.15740941,-0.13354348,-0.040315717,0.09091485,-0.01840305,-0.1813352,-0.02215414,0.11872961,0.061776906,0.05765291,0.031711247,-0.004420915,0.050954763,-0.13695355,0.10025927,-0.17526099,-0.078838885,0.123615086,0.053453002,-0.041487746,-0.08670584,0.023466872,-0.105338335,-0.08908207,-0.12668617,-0.06493369,0.12819523,-0.06494861,-0.07085664,0.070550695,-0.104895785,-0.11361758,-0.008829502,0.023818018,-0.08033682,-0.054894563,0.06641772,-0.16294548,0.10620575,0.058307797,-0.09557069,-0.08417125,0.114095084,-0.08066115,0.05164197,-0.24260256,0.08725209,0.12968893,-0.12518863,0.018058104,-0.026962642,-0.037587333,0.14608185,0.027598176,-0.05799253,-0.058934428,0.058161102,-0.12119893,0.073455825,0.054083873,0.03192197,0.015424701,-0.24645068,-0.12767881,-0.117828555,0.0882697,-0.059157506,-0.010697084,-0.052983247,-0.12505656,-0.09122093,0.09840092,0.100048095,-0.030853366,0.02095045,-0.06469311,-0.13539304,-0.10896826,0.062550396,-0.08850332,-0.1108946,-0.00026944984,0.17096707,0.05195444,-0.062442973,0.06827732,0.06707255,-0.14110304,-0.10166083,-0.02786616,0.016924346,0.14055794,-0.107672624,0.14127398,-0.15163991,-0.10617427,0.08080875,0.10292989,0.046106514,-0.039807025,0.02766743,0.13606767,0.033582486,-0.01887258,-0.079371594,0.008914878,0.023516903,0.0082209585,-0.0012096904,0.09082226,0.030955063,0.13238369,0.012998149,0.03647577,0.15889363,-0.045760654,0.022120317,0.020862164,0.13782424,-0.080361925,0.11435256,-0.109152645,0.061865278,-0.14245752,0.098047316,-0.011321919,-0.18883635,0.0493319,0.14701256,-0.08716343,-0.097319335,-0.039621852,0.03249606,-0.006616836,0.06857709,-0.10415103,0.10526811,0.16581504,0.116599075,0.14960924,-0.21589456,0.14652513,-0.020963402,-0.026013752,0.0547902,-0.122494526,0.02049538,0.08837594,0.055714566,-0.2103839,0.03450826,0.15635693,-0.0043468946,-0.05096256,-0.00769173,0.0017047487,-0.07917022,0.0076823425,0.03745001,-0.03911238,-0.053737316,-0.040716026,0.0049995794,0.047415055,-0.03190848,0.13458933,0.12265057,-0.16277276,0.017002633,-0.06423608,-0.12949736,0.12238093,0.030042563,-0.16042347,0.07294241,0.02924585,-0.11836974,0.037701532,-0.046765007,-0.018185753,0.058616485,-0.08033073,-0.075417645,0.053281877,-0.12069273,-0.049593102,-0.2337944,-0.0705683,0.0052291774,0.06199454,-0.05989656,0.13725972,-0.14735992,0.024651246,-0.13864546,0.025240991,-0.1385381,0.0617154,-0.007399564,-0.0051850807,-0.14762892,-0.089951634,-0.015591549,-0.02671706,-0.122940496,0.053696815,0.04356546,-0.037222996,-0.087711826,0.048855525,0.043521628,-0.06706616,0.12313065,-0.09281661,0.07708167,0.010595078,-0.094688214,-0.03814002,0.11142541,-0.08135823,-0.104981884,-0.09123659,0.065228775,0.026487917,-0.041994866,-0.051449087,0.12489021,0.13414982,0.16945657,0.03244051,-0.0643947,0.0036715474,-0.22676496,0.05270423,-0.06379183,-0.047718894,-0.19224024,-0.07413795,-0.02096365,-0.021878151,0.16213082,-0.19072844,-0.09498855,0.15002656,-0.10460299,0.05314229,0.00036552438,-0.12327859,0.04921656,0.049617596,0.026209854,-0.054257516,0.020647625,0.12966833,0.026906116,0.0137675805,-0.056190837,0.08052658,0.09226101,0.10034169,0.15856606,0.17296517,0.16599111,-0.06765047,-0.065414675,-0.16189572,-0.14803948
