-6.731736660003662109e-02,1.403697729110717773e-01,-5.029318854212760925e-02,-6.507657468318939209e-02,-1.084011234343051910e-02,6.928113847970962524e-02,-2.916254289448261261e-02,-2.502641268074512482e-02,1.099240630865097046e-01,-5.413820967078208923e-02,-3.371584415435791016e-02,7.564183324575424194e-02,-1.045474410057067871e-01,7.206701487302780151e-02,-7.934867590665817261e-02,7.632170338183641434e-03,3.577522002160549164e-03,-2.094011195003986359e-02,-9.354576468467712402e-03,-2.059299871325492859e-02,3.926956653594970703e-02,-2.209757454693317413e-02,-1.395739018917083740e-01,-8.044607937335968018e-02,-3.463780879974365234e-02,-1.314550340175628662e-01,-6.163218617439270020e-02,1.546430736780166626e-01,-5.110622197389602661e-02,-2.205356396734714508e-02,9.477362036705017090e-02,-1.192993670701980591e-01,-1.234324425458908081e-01,1.016246452927589417e-01,8.162521570920944214e-02,-7.841945439577102661e-02,-4.177408665418624878e-02,-1.071351841092109680e-01,3.714615106582641602e-02,1.147481054067611694e-02,1.341249495744705200e-01,9.401511400938034058e-02,-1.782403141260147095e-02,1.274718046188354492e-01,3.132306411862373352e-02,-3.885661810636520386e-02,7.465901225805282593e-02,-5.573093518614768982e-02,9.170446544885635376e-02,1.420220285654067993e-01,-2.261172514408826828e-03,-1.136457780376076698e-03,1.408223658800125122e-01,9.537831693887710571e-02,-3.641268610954284668e-02,-7.826440036296844482e-02,-1.002518832683563232e-01,2.389800921082496643e-02,1.532423794269561768e-01,-6.444012373685836792e-02,1.163343563675880432e-01,-8.573894202709197998e-02,9.865327924489974976e-02,3.274840116500854492e-02
-4.394742473959922791e-02,-1.591440886259078979e-01,5.206904187798500061e-02,6.050371378660202026e-02,4.304242134094238281e-02,1.461966056376695633e-02,6.892107427120208740e-02,-1.253289729356765747e-01,-1.643589586019515991e-01,1.264909058809280396e-01,6.725873798131942749e-02,1.705617606639862061e-01,1.983060687780380249e-02,1.502491980791091919e-01,-9.199438989162445068e-02,-1.101255863904953003e-01,-6.453585345298051834e-03,-3.557840362191200256e-02,-1.421109139919281006e-01,-4.033677279949188232e-02,5.099615827202796936e-02,6.814958900213241577e-02,1.775940656661987305e-01,-1.570565402507781982e-01,-9.417168051004409790e-02,7.406900078058242798e-02,8.969890326261520386e-02,-3.343905322253704071e-03,9.316714853048324585e-02,4.888152703642845154e-02,3.696571290493011475e-02,7.389083504676818848e-02,4.296829551458358765e-02,-1.477872431278228760e-01,6.736826151609420776e-02,-1.017529219388961792e-01,1.846736520528793335e-01,1.283888965845108032e-01,2.314103022217750549e-02,3.714998019859194756e-03,-2.095749229192733765e-01,1.021309755742549896e-02,3.009963221848011017e-02,-7.016194611787796021e-02,-3.226727247238159180e-02,3.798657283186912537e-02,3.987186402082443237e-02,7.569294422864913940e-03,1.079858615994453430e-01,-7.791674882173538208e-02,-8.911538124084472656e-02,-1.053832992911338806e-01,1.206290326081216335e-03,-1.721150875091552734e-01,-5.185776576399803162e-02,-6.307529658079147339e-02,-5.508942157030105591e-02,6.369072198867797852e-02,-2.173866704106330872e-02,-9.193324297666549683e-02,-9.564157575368881226e-02,2.170635573565959930e-02,-7.818417996168136597e-02,5.539814010262489319e-02
-5.827269703149795532e-02,2.679649181663990021e-02,-1.782551594078540802e-02,9.111395478248596191e-02,7.434191554784774780e-02,8.069291710853576660e-02,1.597412303090095520e-02,2.399433171376585960e-03,1.206094399094581604e-01,4.691354930400848389e-02,6.619027256965637207e-02,6.773200631141662598e-02,-9.118069708347320557e-02,8.726097643375396729e-02,-6.963478773832321167e-02,6.980497390031814575e-02,1.594413444399833679e-02,9.777780622243881226e-03,-2.714984305202960968e-02,-2.060778439044952393e-02,-8.356065303087234497e-02,3.569815680384635925e-02,3.369040042161941528e-02,7.340572029352188110e-02,-4.102741926908493042e-02,-1.186560932546854019e-02,-3.073151968419551849e-02,-1.113191097974777222e-01,1.983239687979221344e-02,-5.112455412745475769e-02,1.120360642671585083e-01,2.955825813114643097e-02,3.804360330104827881e-02,-1.143945828080177307e-01,-1.482575386762619019e-02,-5.721758306026458740e-02,1.077601090073585510e-01,1.035205945372581482e-01,-5.714280158281326294e-02,3.745941445231437683e-02,5.785165727138519287e-02,-8.180686831474304199e-02,2.438080124557018280e-02,-9.073754400014877319e-02,-7.934712618589401245e-02,-6.522858142852783203e-02,1.892203278839588165e-02,6.827807426452636719e-02,1.208029463887214661e-01,-7.792503386735916138e-02,-8.341059088706970215e-02,-4.736953228712081909e-02,-1.202898398041725159e-01,-8.900555782020092010e-03,-1.248571276664733887e-02,1.162264570593833923e-01,-2.560129761695861816e-02,1.087148040533065796e-01,9.953096508979797363e-02,-5.503391847014427185e-02,-1.545542478561401367e-02,-5.908729508519172668e-02,1.179867759346961975e-01,1.030594334006309509e-01
7.449115812778472900e-02,-1.341061443090438843e-01,7.940933108329772949e-02,5.586031451821327209e-02,9.923546761274337769e-02,1.045710146427154541e-01,1.950938999652862549e-02,7.751624286174774170e-02,-5.741035938262939453e-02,3.223278000950813293e-02,-3.612664341926574707e-02,-3.474325314164161682e-02,1.331967953592538834e-02,-4.599389620125293732e-03,-3.006633929908275604e-02,-1.182286739349365234e-01,-8.947561681270599365e-02,4.307702928781509399e-02,2.074753306806087494e-02,3.414560854434967041e-02,-6.621710490435361862e-03,1.089325770735740662e-01,1.068854406476020813e-01,1.057253852486610413e-01,-7.301902770996093750e-02,-2.356706373393535614e-02,6.804153323173522949e-02,-1.377506703138351440e-01,-5.123504996299743652e-02,6.196605786681175232e-02,-8.650933951139450073e-02,4.986973479390144348e-02,-2.155546098947525024e-02,-6.308258324861526489e-02,1.200086027383804321e-01,-1.035467684268951416e-01,5.822741985321044922e-02,-2.962906099855899811e-02,-8.443797379732131958e-02,8.276560157537460327e-02,9.371061623096466064e-02,-5.243270471692085266e-02,-9.584952145814895630e-02,8.943770825862884521e-02,1.239823773503303528e-01,-1.229994818568229675e-01,1.093177497386932373e-01,-1.241244897246360779e-01,-6.616372615098953247e-02,3.250484913587570190e-02,9.782143682241439819e-02,-1.189736425876617432e-01,-4.667794331908226013e-02,-4.757919907569885254e-02,-4.042997211217880249e-02,-9.872819483280181885e-02,1.249302551150321960e-02,-5.813678260892629623e-03,2.055450528860092163e-02,3.765167668461799622e-02,5.746604502201080322e-02,-2.109377086162567139e-02,1.196356490254402161e-02,8.789843320846557617e-02
-1.383327543735504150e-01,1.733770072460174561e-01,-1.166592910885810852e-02,-7.182931900024414062e-02,7.134977728128433228e-02,-1.290829926729202271e-01,2.193409949541091919e-02,4.160293191671371460e-02,1.202875226736068726e-01,-4.277225956320762634e-02,1.995544880628585815e-02,-1.665898114442825317e-01,1.231173798441886902e-02,-8.656026329845190048e-04,1.129681468009948730e-01,1.997116953134536743e-01,1.187735125422477722e-01,-5.397451575845479965e-03,-2.904758043587207794e-02,1.432170569896697998e-01,-2.158730849623680115e-02,-3.179292753338813782e-02,-1.928114742040634155e-01,1.562269032001495361e-01,1.560193300247192383e-01,-1.356752705760300159e-03,-6.603723159059882164e-05,2.316274642944335938e-01,3.748489916324615479e-02,-2.794080600142478943e-02,-5.847809836268424988e-02,-1.085822731256484985e-01,-9.933280944824218750e-02,2.088255137205123901e-01,9.327669627964496613e-03,-1.012086495757102966e-01,-9.637077897787094116e-02,-2.503492310643196106e-02,2.369614131748676300e-02,6.203870754688978195e-03,4.662735387682914734e-02,-6.745465844869613647e-02,-1.045518368482589722e-02,2.256534993648529053e-01,-1.484766602516174316e-01,1.150369569659233093e-01,-5.199801921844482422e-02,6.234319880604743958e-02,9.766332805156707764e-02,1.851530969142913818e-01,-4.719203338027000427e-03,1.474229395389556885e-01,-4.849717393517494202e-02,1.354712545871734619e-01,4.637310281395912170e-02,1.680947490967810154e-03,8.337889611721038818e-02,-9.786792844533920288e-02,5.878926813602447510e-02,-4.558445513248443604e-02,2.310750335454940796e-01,-7.287848740816116333e-02,7.794309407472610474e-02,3.867767006158828735e-02
-1.288313865661621094e-01,-2.135240472853183746e-02,1.160754039883613586e-01,1.150021702051162720e-01,9.375263750553131104e-02,8.677051961421966553e-02,2.167296409606933594e-02,-6.159728020429611206e-02,1.288656592369079590e-01,-2.337316237390041351e-02,7.692054659128189087e-02,2.670970745384693146e-02,-8.093172311782836914e-02,-1.127218529582023621e-01,7.371146976947784424e-02,-2.696925401687622070e-02,-8.818326145410537720e-02,7.497045397758483887e-02,-4.761916399002075195e-02,-9.573896974325180054e-02,-8.102953433990478516e-02,5.200378224253654480e-02,5.542912334203720093e-02,4.603372141718864441e-02,2.198183536529541016e-02,-8.594805002212524414e-02,-3.653555735945701599e-02,3.288659267127513885e-03,-2.305663935840129852e-02,-2.534089423716068268e-02,6.924751400947570801e-02,9.865069389343261719e-02,-1.075180023908615112e-01,9.115886688232421875e-02,-7.858745008707046509e-02,-3.674944490194320679e-02,-2.295038104057312012e-02,-6.540184468030929565e-02,8.635201491415500641e-03,-3.338212147355079651e-02,1.181969419121742249e-01,1.340606361627578735e-01,-1.541179716587066650e-01,-7.972319424152374268e-02,-9.665884077548980713e-02,9.978731721639633179e-02,8.819981664419174194e-02,1.942862756550312042e-02,-1.005045697093009949e-01,1.022939607501029968e-01,-6.185025349259376526e-02,6.554358452558517456e-02,5.652995035052299500e-02,9.093483537435531616e-02,-6.554905325174331665e-02,-8.833343535661697388e-02,-2.493499778211116791e-02,8.674026280641555786e-02,-3.822426497936248779e-02,-1.021923944354057312e-01,7.151931524276733398e-02,-2.559984102845191956e-03,4.939139634370803833e-02,-1.126276850700378418e-01
-5.256892740726470947e-02,3.214918076992034912e-02,8.819493651390075684e-02,5.643588304519653320e-02,-1.407089084386825562e-01,2.644438110291957855e-02,1.665737926959991455e-01,5.872454121708869934e-02,8.753332309424877167e-03,1.143847852945327759e-01,3.274940699338912964e-02,-1.913741044700145721e-02,-2.848232910037040710e-02,1.006884053349494934e-01,6.359669566154479980e-02,-1.531166732311248779e-01,-4.617023840546607971e-02,1.024738997220993042e-01,-1.054879277944564819e-01,-4.822678118944168091e-02,1.952921301126480103e-01,-1.431702077388763428e-02,2.990267612040042877e-02,-8.985669165849685669e-02,2.277124905958771706e-03,5.663857236504554749e-02,3.002401627600193024e-02,-8.817553520202636719e-02,1.371790617704391479e-01,3.368411213159561157e-02,-6.950549036264419556e-02,-5.261479318141937256e-02,1.301675736904144287e-01,-1.286470741033554077e-01,1.420046538114547729e-01,6.796149909496307373e-02,1.172525212168693542e-01,6.538286805152893066e-02,-7.763048261404037476e-02,-1.334887444972991943e-01,-1.761488020420074463e-01,4.063383862376213074e-02,4.692183341830968857e-03,-1.375726759433746338e-01,1.327916681766510010e-01,-2.879929170012474060e-02,5.692375823855400085e-02,-1.349904537200927734e-01,2.939400728791952133e-03,-5.178169533610343933e-02,-7.632397115230560303e-02,-1.322324424982070923e-01,-2.157599665224552155e-03,3.364872559905052185e-02,-6.141006201505661011e-02,-1.211251541972160339e-01,-1.310562193393707275e-01,1.226803287863731384e-01,-5.516107380390167236e-02,-1.204264983534812927e-01,-1.454569548368453979e-01,2.541293762624263763e-02,-3.355766460299491882e-02,1.450083702802658081e-01
-9.319291263818740845e-02,9.460441768169403076e-02,-1.016563624143600464e-01,8.823327720165252686e-02,-9.787120670080184937e-02,5.672632902860641479e-02,1.397672481834888458e-02,3.214782802388072014e-03,-8.833324909210205078e-02,-4.608602449297904968e-02,4.940748959779739380e-02,-4.969605803489685059e-02,-5.617951601743698120e-02,-5.945401266217231750e-02,9.100806713104248047e-02,-8.590734004974365234e-02,-6.768742948770523071e-02,-2.651576325297355652e-02,-9.831348806619644165e-02,-1.109096556901931763e-01,4.058877378702163696e-02,1.106991320848464966e-01,-5.738557875156402588e-02,-4.161407798528671265e-02,-7.370938546955585480e-03,-9.107822552323341370e-03,-7.749533653259277344e-02,-9.821489453315734863e-02,-6.850399076938629150e-02,-1.849400624632835388e-02,-3.393487259745597839e-02,7.138023525476455688e-02,6.386461108922958374e-02,-1.179765239357948303e-01,7.645877450704574585e-02,8.012530952692031860e-02,-3.586561977863311768e-02,7.315971702337265015e-02,-2.848386764526367188e-02,-4.765555635094642639e-02,-1.126620918512344360e-02,9.706970304250717163e-03,1.168989613652229309e-01,8.049747347831726074e-02,4.598471522331237793e-02,-7.614095509052276611e-02,-9.815099090337753296e-02,-8.630085736513137817e-02,1.101017370820045471e-01,4.694040864706039429e-02,5.321435257792472839e-02,5.648611485958099365e-02,2.730189450085163116e-02,1.625577546656131744e-02,1.044168472290039062e-01,-9.723419696092605591e-02,6.462284177541732788e-02,-1.575586572289466858e-02,3.100142814218997955e-02,-9.407625347375869751e-02,-6.708111613988876343e-02,-8.139213174581527710e-02,-1.176797226071357727e-01,9.562297165393829346e-02
-5.152805522084236145e-02,-1.226315274834632874e-01,-4.929929599165916443e-02,5.308431386947631836e-02,-4.712102562189102173e-02,-7.272393256425857544e-02,1.004128381609916687e-01,-1.305858045816421509e-01,-9.374780207872390747e-02,1.730302907526493073e-02,-3.934083878993988037e-02,-7.954394817352294922e-02,1.056495532393455505e-01,-8.706311136484146118e-02,-3.647048491984605789e-03,-3.581892326474189758e-02,-1.251467913389205933e-01,1.153505966067314148e-01,-1.339002549648284912e-01,-1.734415441751480103e-01,1.476662419736385345e-02,1.340944021940231323e-01,1.390674561262130737e-01,-4.316874220967292786e-02,-9.824109077453613281e-02,7.366771250963211060e-02,1.196153163909912109e-01,-5.069629475474357605e-02,3.391623904462903738e-04,-6.479483097791671753e-02,7.344940304756164551e-02,-8.368735015392303467e-02,-3.709318488836288452e-02,1.014902628958225250e-02,-5.802882835268974304e-02,-3.457899438217282295e-03,1.620841920375823975e-01,-5.890376493334770203e-02,7.342286407947540283e-02,8.553501218557357788e-02,-5.900591239333152771e-02,3.646036982536315918e-02,9.676448069512844086e-03,-2.160662412643432617e-01,1.400711834430694580e-01,1.344373449683189392e-02,-4.688572883605957031e-02,-5.144866555929183960e-02,-5.977583676576614380e-02,-2.115087807178497314e-01,-8.946303278207778931e-02,2.384467981755733490e-02,4.160609841346740723e-02,3.351437672972679138e-02,-4.994553327560424805e-02,-1.301584839820861816e-01,-1.517778337001800537e-01,7.370921224355697632e-02,-4.223797470331192017e-02,-7.819896936416625977e-02,-7.587011158466339111e-02,3.908076509833335876e-02,-7.929334044456481934e-02,-1.796627417206764221e-02
6.513378769159317017e-02,3.326409310102462769e-02,-1.008523777127265930e-01,1.107660587877035141e-03,-1.028060391545295715e-01,9.624626487493515015e-02,-7.678507268428802490e-02,2.933070994913578033e-02,1.019834429025650024e-01,2.555143833160400391e-02,1.014517769217491150e-01,-8.118171244859695435e-02,9.472132474184036255e-02,9.256436675786972046e-02,-1.003620028495788574e-01,2.949842624366283417e-02,5.124994739890098572e-02,-2.327550016343593597e-02,-1.003953292965888977e-01,-4.551132395863533020e-02,-6.646168231964111328e-02,-5.583872273564338684e-02,-9.972297400236129761e-02,-1.164877191185951233e-01,-7.936099916696548462e-02,-2.641282975673675537e-02,8.301055058836936951e-03,-5.742982029914855957e-02,7.286374270915985107e-02,9.506195783615112305e-02,-7.933441549539566040e-02,6.680451333522796631e-02,-1.594792306423187256e-02,5.855366587638854980e-02,4.081361927092075348e-03,6.893258541822433472e-02,5.736592039465904236e-02,6.993427872657775879e-03,1.143858432769775391e-01,4.515770077705383301e-02,-5.968257784843444824e-02,-5.506264045834541321e-02,-7.146643847227096558e-02,-5.852772295475006104e-02,3.634064644575119019e-02,-6.721097975969314575e-02,-1.339017301797866821e-01,-8.127618581056594849e-02,1.237136349081993103e-01,8.361136913299560547e-02,-7.812494412064552307e-03,1.045719161629676819e-01,-1.950263045728206635e-02,8.174679428339004517e-02,-3.370555862784385681e-02,1.019096896052360535e-01,-1.333886981010437012e-01,-1.039507891982793808e-02,-8.326917141675949097e-02,-3.218150138854980469e-02,-4.382683709263801575e-02,-2.241542376577854156e-02,6.491621583700180054e-02,-7.845637388527393341e-03
1.215097457170486450e-01,-1.209042817354202271e-01,2.689467556774616241e-02,-7.076723873615264893e-02,7.423152029514312744e-02,6.134838238358497620e-02,1.221207678318023682e-01,-4.157059267163276672e-02,-3.188375383615493774e-02,-6.219856441020965576e-02,-1.168130412697792053e-01,-8.395173586905002594e-03,3.822157904505729675e-02,1.093323379755020142e-01,-2.557945251464843750e-02,-3.046775050461292267e-02,5.418306961655616760e-02,6.836818158626556396e-02,-6.507710367441177368e-02,3.300224244594573975e-02,-4.307773895561695099e-03,-5.794298835098743439e-03,-7.285869680345058441e-03,2.875859662890434265e-02,-6.246114149689674377e-02,1.294828653335571289e-01,7.091783732175827026e-02,-1.010236740112304688e-01,-4.620827361941337585e-02,8.781203627586364746e-02,-8.690338581800460815e-02,4.367975518107414246e-02,3.033927083015441895e-02,9.480228275060653687e-02,9.072380512952804565e-02,-5.933207273483276367e-02,2.812706492841243744e-02,-2.088543027639389038e-02,-9.439410269260406494e-02,6.595956534147262573e-02,-9.918563812971115112e-02,-2.328153140842914581e-02,5.112630873918533325e-02,-3.838087245821952820e-02,-4.744006320834159851e-03,5.932052806019783020e-02,1.214632168412208557e-01,-3.826045989990234375e-02,1.157328262925148010e-01,-1.278607174754142761e-02,3.671909123659133911e-02,9.591895341873168945e-02,-7.824867218732833862e-02,1.134296064265072346e-03,2.223291993141174316e-02,6.559645384550094604e-02,2.171931555494666100e-04,1.606363244354724884e-02,6.485729664564132690e-02,1.080104112625122070e-01,-1.082531511783599854e-01,-6.236699596047401428e-02,-1.610051281750202179e-02,1.049738228321075439e-01
-4.327193275094032288e-02,7.433322072029113770e-02,3.413779661059379578e-02,-1.185580939054489136e-01,9.974779188632965088e-02,-9.573337435722351074e-02,9.752655029296875000e-02,9.878952056169509888e-02,2.296620421111583710e-02,-1.228821501135826111e-01,6.767496466636657715e-02,-3.287615999579429626e-02,-1.195708438754081726e-01,-3.730742260813713074e-02,-4.203296732157468796e-03,4.742103815078735352e-02,-9.183622151613235474e-02,9.328860044479370117e-02,-3.626178950071334839e-02,-5.449772626161575317e-02,7.994152605533599854e-02,-1.247822493314743042e-02,1.057080924510955811e-01,5.595600232481956482e-02,1.016631647944450378e-01,1.025442928075790405e-01,2.055881358683109283e-02,-8.895630389451980591e-02,-1.073976233601570129e-01,1.133442074060440063e-01,1.929524727165699005e-02,1.195014175027608871e-02,9.208714589476585388e-03,-7.088273297995328903e-03,-9.063974022865295410e-02,-5.118949338793754578e-02,2.227997779846191406e-02,-4.413525015115737915e-02,-1.173500623553991318e-02,1.106346175074577332e-01,8.888003230094909668e-02,6.313010305166244507e-02,-6.280157715082168579e-02,-9.962104260921478271e-02,-1.027668789029121399e-01,-1.039335504174232483e-03,7.365500926971435547e-02,1.339609771966934204e-01,5.780822783708572388e-02,-3.669795393943786621e-02,9.033333510160446167e-03,-1.188419237732887268e-01,9.034210443496704102e-02,8.685676753520965576e-02,1.063300520181655884e-01,2.871835790574550629e-02,-7.454795390367507935e-02,-1.226437538862228394e-01,-2.953227981925010681e-02,4.027529060840606689e-02,7.633140683174133301e-02,-1.046459227800369263e-01,1.752202399075031281e-02,1.062775328755378723e-01
4.328863322734832764e-02,-8.131010085344314575e-02,-3.853094205260276794e-02,6.813676655292510986e-02,2.871198812499642372e-03,4.104043357074260712e-03,-1.428042054176330566e-01,6.596978008747100830e-02,-3.577691316604614258e-02,9.639894415158778429e-05,-1.633601486682891846e-01,6.707176566123962402e-02,-4.054888710379600525e-02,2.455170825123786926e-02,-6.705164443701505661e-03,1.426361203193664551e-01,-7.424011826515197754e-02,-8.026960305869579315e-03,1.072402819991111755e-01,-5.276600271463394165e-02,-1.177569478750228882e-01,3.148227557539939880e-02,-1.292998492717742920e-01,-1.273615006357431412e-02,-2.116059139370918274e-02,-1.355336010456085205e-01,-1.310990564525127411e-02,-4.501312598586082458e-02,-6.909376475960016251e-03,7.506711781024932861e-02,-1.291507631540298462e-01,-1.166382879018783569e-01,-6.608656048774719238e-02,5.971388146281242371e-02,5.536095798015594482e-02,8.095425367355346680e-02,-1.372042447328567505e-01,8.020108193159103394e-02,-1.280008405447006226e-01,1.254789233207702637e-01,2.815463114529848099e-03,8.497557044029235840e-02,-1.028847768902778625e-01,6.973675638437271118e-02,-9.306861460208892822e-02,4.595165327191352844e-02,-2.024182677268981934e-02,1.021269634366035461e-01,-1.304275263100862503e-02,1.237052306532859802e-01,-4.315283149480819702e-02,-4.099308326840400696e-02,-1.010768115520477295e-01,7.183933258056640625e-02,7.552304118871688843e-02,-9.421343356370925903e-02,3.018972650170326233e-02,-2.663883008062839508e-02,1.297876387834548950e-01,-8.536472171545028687e-02,2.278836816549301147e-02,-1.131018027663230896e-01,-4.542240500450134277e-02,-1.336776316165924072e-01
1.055991873145103455e-01,-6.714311987161636353e-02,8.698919415473937988e-02,2.573599480092525482e-02,-7.526665460318326950e-03,-2.710457891225814819e-02,-1.123263239860534668e-01,1.064819470047950745e-01,9.859507530927658081e-02,7.125925738364458084e-03,8.799650520086288452e-02,1.000229269266128540e-02,8.538723737001419067e-02,-8.887485414743423462e-02,8.267980068922042847e-02,-1.862547174096107483e-02,-6.095865368843078613e-02,-8.234646916389465332e-02,5.203254520893096924e-02,2.854013629257678986e-02,-1.203415170311927795e-01,-5.234293267130851746e-02,-1.949408906511962414e-03,3.499709442257881165e-02,5.771968886256217957e-02,1.201227232813835144e-01,1.775689609348773956e-02,-5.752800777554512024e-02,-4.770741611719131470e-02,8.720963448286056519e-02,4.587450250983238220e-02,-4.091340303421020508e-02,6.443596631288528442e-02,-1.046700868755578995e-02,2.388732321560382843e-02,4.548872634768486023e-02,-1.594888605177402496e-02,1.189313977956771851e-01,5.664821714162826538e-02,-3.022917918860912323e-02,2.704139612615108490e-02,-4.919029772281646729e-02,1.192373856902122498e-01,-5.131826549768447876e-02,7.644877582788467407e-02,2.458982355892658234e-02,-1.179371029138565063e-01,-8.762738853693008423e-02,-1.141167208552360535e-01,8.530902117490768433e-02,2.932729944586753845e-02,3.306084126234054565e-02,7.150372862815856934e-02,-1.025851070880889893e-01,9.115192294120788574e-02,2.437090501189231873e-02,5.618572980165481567e-02,-3.748189657926559448e-02,2.953934250399470329e-03,-6.859811395406723022e-02,-7.843040861189365387e-03,-3.809861093759536743e-02,1.393268629908561707e-02,4.802996292710304260e-02
8.076189458370208740e-02,7.207164168357849121e-02,-8.805195242166519165e-02,-5.355949327349662781e-02,-8.868400752544403076e-02,1.314043998718261719e-03,-4.716573283076286316e-02,-8.124704658985137939e-02,1.199322491884231567e-01,2.588939666748046875e-02,1.135891526937484741e-01,-6.290920078754425049e-02,-4.666154459118843079e-02,3.651965036988258362e-02,-7.627500593662261963e-02,-6.855106353759765625e-02,1.073035299777984619e-01,2.470652386546134949e-02,8.629467338323593140e-02,-3.756396844983100891e-02,-1.214599311351776123e-01,8.070331066846847534e-02,-1.248905882239341736e-01,-3.417024016380310059e-02,6.524583697319030762e-02,-7.568304240703582764e-02,2.083402127027511597e-02,-1.074765622615814209e-01,-1.192603707313537598e-01,-1.008880585432052612e-01,-4.850405454635620117e-02,1.007088795304298401e-01,-8.494258671998977661e-02,-1.185952648520469666e-01,-6.048154830932617188e-02,1.214055046439170837e-01,7.903694175183773041e-03,1.792485825717449188e-02,1.138682812452316284e-01,-3.090894408524036407e-02,-6.354540586471557617e-02,1.265758182853460312e-02,1.942517049610614777e-02,-8.154612034559249878e-02,8.577363565564155579e-03,9.262910485267639160e-02,-8.170799911022186279e-02,8.614654093980789185e-02,-7.634101063013076782e-02,-9.888008236885070801e-03,-7.301728427410125732e-02,5.225072428584098816e-02,2.176787704229354858e-02,3.342151176184415817e-03,1.064059287309646606e-01,-7.346273213624954224e-02,1.282578259706497192e-01,1.050978973507881165e-01,1.207599267363548279e-01,6.683387607336044312e-02,4.194960743188858032e-02,-2.153119258582592010e-02,8.644921332597732544e-02,-1.131495907902717590e-01
-2.652748487889766693e-02,-1.621509157121181488e-02,1.393546015024185181e-01,5.070938915014266968e-02,-1.187503244727849960e-02,6.193769164383411407e-03,-1.417884379625320435e-01,8.720476925373077393e-02,8.667356520891189575e-02,-1.295241117477416992e-01,-1.787848956882953644e-02,6.619640626013278961e-03,9.519557654857635498e-02,-7.079984992742538452e-02,-1.095416545867919922e-01,1.164927482604980469e-01,-8.858975768089294434e-02,-2.366551570594310760e-02,6.426555663347244263e-02,-1.529426779597997665e-02,-5.719672143459320068e-02,9.159769117832183838e-02,-8.426260203123092651e-02,-5.596110224723815918e-02,8.259421586990356445e-02,7.225883752107620239e-02,-6.118629127740859985e-02,7.159019261598587036e-02,2.923650667071342468e-02,3.695567697286605835e-02,2.451523393392562866e-02,-2.836215682327747345e-02,-5.192836374044418335e-02,1.177721396088600159e-01,-1.307894587516784668e-01,-6.454512476921081543e-02,1.522229798138141632e-02,1.818736456334590912e-02,-9.684258140623569489e-03,2.649861387908458710e-02,-7.961887121200561523e-02,9.039905667304992676e-02,-1.692244559526443481e-01,8.737238496541976929e-02,4.470388963818550110e-02,8.121743798255920410e-02,7.242257893085479736e-02,6.382603943347930908e-02,5.024065077304840088e-02,1.103444844484329224e-01,-1.159801483154296875e-01,1.020056605339050293e-01,4.466233402490615845e-02,1.017724648118019104e-01,1.948532834649085999e-02,-7.998114824295043945e-02,-7.212148606777191162e-02,-5.398739129304885864e-02,1.168619468808174133e-01,-9.284891712013632059e-05,-7.933168113231658936e-02,-1.097283512353897095e-02,9.108084253966808319e-03,-2.731509134173393250e-02
-1.873009279370307922e-02,2.849131822586059570e-02,7.430188357830047607e-02,-1.338535249233245850e-01,5.163347721099853516e-02,6.835795193910598755e-02,-5.698231235146522522e-02,1.211180631071329117e-02,-6.801452487707138062e-02,8.474899828433990479e-02,-1.049971729516983032e-01,4.140952974557876587e-02,5.301254242658615112e-02,7.195222377777099609e-02,3.801355138421058655e-03,-2.266464196145534515e-02,1.792688108980655670e-02,-2.498117275536060333e-03,-1.003735736012458801e-01,-1.296862959861755371e-01,2.085104025900363922e-02,-9.510999917984008789e-02,-6.936979293823242188e-02,-9.536183625459671021e-02,-1.140245571732521057e-01,-1.086544804275035858e-02,1.390555948019027710e-01,-2.221992611885070801e-02,5.586909502744674683e-02,6.562658399343490601e-02,-9.607155621051788330e-02,3.329047933220863342e-02,1.849446073174476624e-02,-7.130498439073562622e-02,9.682544320821762085e-02,2.576849609613418579e-02,-6.590873748064041138e-02,-2.326049252587836236e-05,-9.502046555280685425e-02,5.835821479558944702e-02,-4.304162412881851196e-02,-6.835273653268814087e-02,3.328277915716171265e-02,3.046630322933197021e-02,-7.260259240865707397e-02,6.097412109375000000e-02,-7.883822917938232422e-02,7.183394581079483032e-02,-9.066384285688400269e-02,-1.282937973737716675e-01,7.298035919666290283e-02,-6.496608257293701172e-02,-8.703666180372238159e-02,-1.228976324200630188e-01,8.874912559986114502e-02,-8.950689435005187988e-02,-6.383722275495529175e-02,-7.076772302389144897e-02,-8.041081018745899200e-03,1.117636635899543762e-01,-7.161412388086318970e-02,2.193757891654968262e-02,6.573182344436645508e-02,3.052206244319677353e-03
-4.059188067913055420e-02,4.053224250674247742e-02,1.095853969454765320e-01,-7.230006903409957886e-02,-7.032208889722824097e-02,8.476700633764266968e-02,-1.339915245771408081e-01,-9.161707945168018341e-03,4.344920814037322998e-02,6.362434476613998413e-02,-6.356267631053924561e-02,-1.393410265445709229e-01,-1.992395520210266113e-02,-1.259617209434509277e-01,1.243241280317306519e-01,4.351519420742988586e-02,-4.175849258899688721e-02,5.072456970810890198e-02,8.513470739126205444e-02,7.489123940467834473e-02,8.122136443853378296e-02,4.001977294683456421e-02,-1.371347457170486450e-01,-2.465291693806648254e-02,1.452051252126693726e-01,-6.967423111200332642e-02,-7.837104797363281250e-02,1.107994243502616882e-01,-2.259950898587703705e-02,-8.464379608631134033e-02,-1.227330137044191360e-02,-5.127862095832824707e-02,-5.108007043600082397e-02,1.110671088099479675e-01,-8.251908235251903534e-03,7.407239824533462524e-02,-8.611994236707687378e-02,-7.436152547597885132e-02,2.806085348129272461e-02,3.879054635763168335e-02,5.210845917463302612e-02,-7.648530416190624237e-03,-1.008885819464921951e-02,-1.703020744025707245e-02,-8.300230652093887329e-02,-5.522519722580909729e-02,1.508022099733352661e-01,1.351169347763061523e-01,-1.126013323664665222e-01,1.302010715007781982e-01,5.262796580791473389e-02,9.845931828022003174e-02,4.142885655164718628e-02,4.633073136210441589e-02,-2.704362012445926666e-02,-1.082746610045433044e-01,7.396619766950607300e-02,-1.373867988586425781e-01,-4.472810775041580200e-02,-5.964104831218719482e-02,-4.032963141798973083e-02,-1.344188302755355835e-01,8.207295835018157959e-02,-9.617367386817932129e-02
9.361966699361801147e-02,-1.358986794948577881e-01,-9.304349124431610107e-02,3.647488355636596680e-02,-9.215132147073745728e-02,-7.074885815382003784e-02,4.105997458100318909e-02,5.363677069544792175e-02,-1.346558928489685059e-01,3.045857883989810944e-02,1.437925696372985840e-01,4.083497449755668640e-02,5.280360206961631775e-02,8.820950239896774292e-02,-4.023385047912597656e-02,1.720386557281017303e-02,-7.057585567235946655e-02,1.212213337421417236e-01,7.439659535884857178e-02,-9.055500477552413940e-02,8.957707905210554600e-04,2.953214012086391449e-02,1.434407532215118408e-01,-1.350526064634323120e-01,-8.078411966562271118e-02,-7.551146298646926880e-02,1.136882528662681580e-01,9.982677176594734192e-03,4.791809245944023132e-02,-1.315318793058395386e-01,4.417304694652557373e-02,1.362935155630111694e-01,7.800181210041046143e-02,-1.190396547317504883e-01,3.051645867526531219e-02,1.109988167881965637e-01,1.328401733189821243e-02,1.852761954069137573e-02,-1.655303314328193665e-02,6.447269767522811890e-02,-1.057661920785903931e-01,4.967400059103965759e-02,4.727265611290931702e-02,4.023597389459609985e-02,3.061175346374511719e-02,9.556891769170761108e-02,5.708094313740730286e-02,-1.355019509792327881e-01,9.080439060926437378e-02,4.131371155381202698e-02,4.490720853209495544e-02,-1.371434181928634644e-01,-2.614552341401576996e-02,-7.257913053035736084e-02,4.219560325145721436e-02,1.046764999628067017e-01,-1.257331669330596924e-01,6.379552930593490601e-02,-3.663963451981544495e-02,1.078753024339675903e-01,-7.022051513195037842e-02,-5.441704299300909042e-03,5.651107057929039001e-02,-7.980930805206298828e-02
1.676293835043907166e-02,-8.779851347208023071e-02,1.038491353392601013e-01,-5.098020285367965698e-02,9.843000210821628571e-03,6.367979198694229126e-02,1.460339277982711792e-01,-5.387686938047409058e-02,5.230086669325828552e-02,4.227271303534507751e-02,-3.800983354449272156e-02,-1.057964190840721130e-01,1.161787584424018860e-01,1.029470115900039673e-01,4.118546843528747559e-02,-1.101291626691818237e-01,9.302391670644283295e-03,8.634437620639801025e-02,-1.048016101121902466e-01,6.554004549980163574e-02,1.090589538216590881e-01,1.681858487427234650e-02,6.308580935001373291e-02,8.953028917312622070e-02,1.020422801375389099e-01,9.208355844020843506e-02,8.005084097385406494e-02,-9.971281141042709351e-02,-7.109627872705459595e-02,3.793779760599136353e-02,-1.059701219201087952e-01,1.333053112030029297e-01,3.890060633420944214e-02,-1.255380362272262573e-01,6.433743983507156372e-02,-5.456858873367309570e-02,6.239141337573528290e-03,6.508980691432952881e-02,9.860989451408386230e-02,4.887082800269126892e-02,4.949669539928436279e-02,7.627972960472106934e-02,1.217871531844139099e-02,-7.245944440364837646e-02,3.929834067821502686e-02,1.217134017497301102e-02,-1.364966034889221191e-01,7.798319309949874878e-02,-7.985013723373413086e-02,3.146343678236007690e-02,2.591621503233909607e-02,-3.659028559923171997e-02,-1.128887087106704712e-01,-2.839356847107410431e-02,4.073807224631309509e-02,-1.142180636525154114e-01,8.891376852989196777e-02,1.538804266601800919e-02,-8.793752640485763550e-02,-2.746712602674961090e-02,7.264933735132217407e-02,-1.002674107439815998e-03,-9.271906316280364990e-02,1.272127032279968262e-01
-4.317376762628555298e-02,8.457601815462112427e-02,5.024555698037147522e-02,8.434759825468063354e-02,-6.479442864656448364e-02,1.615407131612300873e-02,-3.359016403555870056e-02,-1.156763522885739803e-03,-4.821619391441345215e-02,5.164361000061035156e-02,-6.989712268114089966e-02,-2.130877599120140076e-02,-8.959203213453292847e-02,-2.525668963789939880e-02,-1.314087361097335815e-01,-8.830697089433670044e-02,6.363871693611145020e-02,-1.234992295503616333e-01,4.896574839949607849e-02,6.940203160047531128e-02,6.634545326232910156e-02,-3.176769986748695374e-02,3.047377243638038635e-02,-5.426427349448204041e-03,6.686461716890335083e-02,-1.187274456024169922e-01,6.713704019784927368e-02,1.391773694194853306e-04,-4.795159026980400085e-02,-1.393683161586523056e-02,8.781827241182327271e-02,1.019758358597755432e-01,4.384847357869148254e-02,8.230929821729660034e-02,-7.750050630420446396e-03,-7.265013456344604492e-02,-1.062298193573951721e-01,-1.609853468835353851e-02,-5.001422762870788574e-02,7.070005685091018677e-02,-3.692717989906668663e-03,-5.511939898133277893e-02,2.187019214034080505e-02,1.159347370266914368e-01,-3.650133684277534485e-02,5.279161408543586731e-02,-1.033191978931427002e-01,2.237161621451377869e-02,6.559198349714279175e-02,-3.960585594177246094e-02,5.479355156421661377e-02,-1.281089615076780319e-02,5.385338515043258667e-02,-3.946134075522422791e-02,2.771515399217605591e-02,-1.133967470377683640e-02,2.589220739901065826e-02,5.825440585613250732e-02,-1.404280308634042740e-02,-8.510542102158069611e-03,8.101720362901687622e-02,-4.713723808526992798e-02,8.376666903495788574e-02,1.052101608365774155e-02
9.259451180696487427e-03,1.121912822127342224e-01,1.319455653429031372e-01,-2.629195153713226318e-02,-5.782254785299301147e-02,4.520231392234563828e-03,2.545363456010818481e-02,9.047587960958480835e-02,1.284530013799667358e-01,-1.575509645044803619e-02,-8.826730400323867798e-02,-1.234138682484626770e-01,-1.196406781673431396e-02,-1.146474629640579224e-01,-6.237071007490158081e-02,1.216929629445075989e-01,2.179578877985477448e-03,4.826909303665161133e-02,6.028999388217926025e-02,2.060930430889129639e-01,-1.860593706369400024e-01,-1.269351691007614136e-01,-1.697636693716049194e-01,1.436923593282699585e-01,1.279087811708450317e-01,-7.741634547710418701e-02,-1.252151876688003540e-01,9.811135940253734589e-03,-1.146398112177848816e-01,1.526688635349273682e-01,-3.888704255223274231e-02,-3.217948833480477333e-04,-6.899842619895935059e-02,5.424080789089202881e-02,-7.111016660928726196e-02,-4.057319834828376770e-03,-1.666642874479293823e-01,8.282807655632495880e-03,2.326493524014949799e-02,7.516901195049285889e-02,1.293212771415710449e-01,5.551969259977340698e-02,-4.266051575541496277e-02,1.449934691190719604e-01,3.823240846395492554e-02,1.613218039274215698e-01,-6.955388933420181274e-03,1.890710443258285522e-01,1.015310287475585938e-01,1.760848015546798706e-01,1.650841534137725830e-02,3.892537578940391541e-02,4.739068821072578430e-02,2.109366059303283691e-01,-6.275583058595657349e-02,9.100891649723052979e-02,1.103624776005744934e-01,-6.004284694790840149e-02,1.963482201099395752e-01,-9.982163459062576294e-02,2.112968564033508301e-01,7.115232944488525391e-02,1.700713634490966797e-01,6.124023720622062683e-02
-3.942706063389778137e-02,-3.142660111188888550e-02,-8.265160024166107178e-03,1.180494669824838638e-02,9.531895071268081665e-02,4.546418413519859314e-02,-1.089193392544984818e-02,9.074526280164718628e-02,6.448011845350265503e-02,8.400267362594604492e-02,-5.509062483906745911e-02,8.785851299762725830e-03,-5.175818502902984619e-02,-3.000151552259922028e-02,-7.140490412712097168e-02,-2.594702132046222687e-02,3.644270822405815125e-02,1.206574663519859314e-01,-1.035338938236236572e-01,-1.157786548137664795e-01,1.410923991352319717e-02,4.554075002670288086e-02,-7.854451984167098999e-02,-4.401935264468193054e-03,-1.991702988743782043e-02,1.403294801712036133e-01,-9.041194804012775421e-03,-1.748380810022354126e-02,6.317739188671112061e-02,-7.074161618947982788e-02,1.216770038008689880e-01,8.451974391937255859e-02,1.164053156971931458e-01,-1.796042770147323608e-01,-2.272641658782958984e-02,1.179953813552856445e-01,1.015206947922706604e-01,1.901234872639179230e-02,1.081556975841522217e-01,-3.278490155935287476e-02,7.878323644399642944e-02,3.049524687230587006e-02,4.519945383071899414e-02,-9.063518047332763672e-02,3.786579240113496780e-03,1.032091826200485229e-01,-9.064263850450515747e-02,3.286456316709518433e-02,8.096793293952941895e-02,-1.220790147781372070e-01,-6.204868853092193604e-02,7.870548218488693237e-02,-7.420328259468078613e-02,3.734880313277244568e-02,7.006661593914031982e-02,-6.674312055110931396e-02,3.822946920990943909e-02,-3.644075244665145874e-02,-1.568751633167266846e-01,2.399999089539051056e-02,4.773790016770362854e-02,-5.693407263606786728e-03,-3.657296998426318169e-03,4.476882517337799072e-02
1.309583336114883423e-01,7.382121402770280838e-03,-9.930496662855148315e-02,5.619997531175613403e-02,6.999772787094116211e-02,-7.238051295280456543e-02,-4.242462664842605591e-02,7.558026909828186035e-02,-1.142913028597831726e-01,4.228173568844795227e-02,9.569773823022842407e-02,3.467489778995513916e-02,5.580819025635719299e-02,-8.195538073778152466e-02,1.053863316774368286e-01,-4.829472675919532776e-02,-3.848536312580108643e-02,-9.536373429000377655e-03,-9.314370900392532349e-02,3.899390622973442078e-02,5.846911296248435974e-02,1.131873130798339844e-01,4.926799610257148743e-02,7.325661182403564453e-02,9.419525414705276489e-02,1.036696359515190125e-01,8.780227601528167725e-02,-1.323641277849674225e-02,7.942656427621841431e-02,7.944080978631973267e-02,-8.435723185539245605e-02,9.373034536838531494e-02,1.293904483318328857e-01,-7.095436099916696548e-03,-2.752453275024890900e-02,1.087010130286216736e-01,1.101063713431358337e-01,-4.651949927210807800e-02,-3.699961304664611816e-02,7.224072515964508057e-02,4.964270070195198059e-02,2.167027443647384644e-02,7.616885006427764893e-02,1.065345946699380875e-02,1.029530242085456848e-01,-9.075354784727096558e-02,-2.810425870120525360e-02,-1.014389842748641968e-01,-1.010530889034271240e-01,8.719152212142944336e-02,-3.649146854877471924e-02,7.066729664802551270e-02,4.997318238019943237e-02,-1.248801946640014648e-01,-1.083633899688720703e-01,4.815956950187683105e-02,7.662365585565567017e-02,5.195605754852294922e-02,6.774875521659851074e-02,-7.349708676338195801e-02,7.440897077322006226e-02,3.523094207048416138e-02,-1.174040362238883972e-01,-5.467714369297027588e-02
-1.205320060253143311e-01,-9.350968152284622192e-02,-1.127919107675552368e-01,3.555642813444137573e-02,-2.673953399062156677e-02,-3.827162459492683411e-02,-1.396570205688476562e-01,8.036135137081146240e-02,1.200500130653381348e-01,-9.185943007469177246e-02,5.156420171260833740e-03,9.336188435554504395e-02,-1.066557541489601135e-01,-3.818209283053874969e-03,-8.023056387901306152e-02,-4.500583559274673462e-02,5.440181866288185120e-02,9.730885177850723267e-02,9.891772642731666565e-03,9.447968751192092896e-02,4.002688825130462646e-02,8.353249728679656982e-02,-4.303940758109092712e-02,1.157752200961112976e-01,6.545595079660415649e-02,9.862104803323745728e-02,-2.754559740424156189e-02,-5.891518294811248779e-02,-9.474617242813110352e-02,1.224909052252769470e-01,-7.139475643634796143e-02,4.612495377659797668e-02,-1.108950525522232056e-01,4.719750583171844482e-02,1.501040067523717880e-02,5.581118166446685791e-02,-4.050548747181892395e-02,-7.921460270881652832e-02,-7.167342305183410645e-02,1.428561750799417496e-02,8.052340894937515259e-02,-6.368852406740188599e-02,-1.349193006753921509e-01,5.119815003126859665e-03,-1.351211518049240112e-01,-4.206492006778717041e-02,-3.362944722175598145e-02,2.298206323757767677e-03,6.135712563991546631e-02,3.139284253120422363e-02,9.010452777147293091e-02,6.956458091735839844e-02,-5.631181225180625916e-02,3.637494519352912903e-02,-2.021488547325134277e-02,-5.088992789387702942e-02,-7.221334427595138550e-02,8.937533944845199585e-02,1.173620969057083130e-01,9.546012431383132935e-02,1.044223271310329437e-02,1.012176871299743652e-01,-4.044034052640199661e-03,3.509686514735221863e-02
4.326073825359344482e-02,2.007205598056316376e-02,-1.170070618391036987e-01,-1.030329465866088867e-01,-6.789287179708480835e-02,6.287769973278045654e-02,1.743395328521728516e-01,-6.841801106929779053e-02,-3.737431764602661133e-02,1.344744116067886353e-01,-3.251424292102456093e-03,5.837384611368179321e-02,-5.760493502020835876e-02,-5.510240793228149414e-02,-6.718046497553586960e-03,-1.260132938623428345e-01,-7.661236077547073364e-02,-2.619727142155170441e-02,-1.067911535501480103e-01,-1.942909061908721924e-01,7.611599564552307129e-02,-1.023136004805564880e-01,1.690614670515060425e-01,1.769113913178443909e-02,-5.648091807961463928e-02,9.063439071178436279e-02,2.301344089210033417e-02,2.239990979433059692e-02,-6.324610114097595215e-02,7.188175618648529053e-02,8.561983704566955566e-02,-3.694899380207061768e-02,-6.378198415040969849e-02,-2.065332680940628052e-01,3.239514678716659546e-02,-6.782616674900054932e-02,9.044411778450012207e-02,1.386886686086654663e-01,5.441976338624954224e-02,6.179874180816113949e-04,-8.856280148029327393e-02,1.603000983595848083e-02,1.836957335472106934e-01,-1.368430703878402710e-01,1.650461368262767792e-02,-1.272830665111541748e-01,3.198520839214324951e-02,-4.549442231655120850e-02,-1.679579354822635651e-02,-1.913548707962036133e-01,-5.209087394177913666e-03,5.188557133078575134e-02,-9.944697469472885132e-02,-1.628982275724411011e-01,-9.165539592504501343e-02,-1.250563375651836395e-02,1.000638827681541443e-01,1.299959570169448853e-01,-1.744419485330581665e-01,9.932946413755416870e-02,-2.479541813954710960e-03,1.319402307271957397e-01,3.524466976523399353e-02,-7.830543071031570435e-02
-4.791757464408874512e-02,-1.424784213304519653e-01,-1.208135038614273071e-01,-7.287041842937469482e-02,-1.095159202814102173e-01,-2.087657898664474487e-02,8.016844838857650757e-02,-2.985977940261363983e-02,2.055308967828750610e-02,1.986552029848098755e-02,1.353296637535095215e-01,-8.143703639507293701e-02,-9.426977485418319702e-03,-6.815275549888610840e-02,-3.470063954591751099e-02,-1.977496221661567688e-02,-4.176916088908910751e-03,-1.121232658624649048e-02,-1.136374175548553467e-01,-1.333247423171997070e-01,1.664404124021530151e-01,-2.438620897009968758e-03,-3.190733119845390320e-02,2.579840645194053650e-02,-1.297549307346343994e-01,9.333926718682050705e-04,-5.812805145978927612e-03,-3.179596364498138428e-02,-5.980812013149261475e-03,-6.192836910486221313e-02,8.688723295927047729e-02,1.091874167323112488e-01,-3.346979990601539612e-02,-1.650015451014041901e-02,-8.536362648010253906e-02,-2.073660865426063538e-02,1.243522986769676208e-01,-6.014089658856391907e-02,1.010006666183471680e-01,-1.321092434227466583e-02,7.391097396612167358e-02,1.128099393099546432e-02,8.597476780414581299e-02,4.907973855733871460e-02,5.269723758101463318e-02,-5.296247452497482300e-02,-3.697537258267402649e-02,6.055336073040962219e-02,-1.096736341714859009e-01,-8.889412879943847656e-02,-5.793493613600730896e-02,8.457420766353607178e-02,-8.531288802623748779e-02,4.134262353181838989e-02,-2.855008468031883240e-02,4.745505005121231079e-02,-9.231731295585632324e-02,3.807701915502548218e-02,-4.229833558201789856e-02,-1.106832921504974365e-02,-6.549263745546340942e-02,-5.419531837105751038e-02,-6.584157049655914307e-02,-5.165229365229606628e-02
-1.466963589191436768e-01,-7.224428933113813400e-03,-6.898189336061477661e-02,3.147113323211669922e-02,-7.717756181955337524e-02,6.599644571542739868e-02,-2.777930349111557007e-03,-6.287380307912826538e-02,1.955093070864677429e-02,-5.210670083761215210e-02,-1.416052877902984619e-01,4.753630980849266052e-02,-9.180067479610443115e-02,8.807051926851272583e-02,-7.106691598892211914e-02,1.164272874593734741e-01,-3.720887377858161926e-02,-1.071171313524246216e-01,-1.390979974530637264e-03,3.386247530579566956e-02,-4.373426362872123718e-02,5.883187055587768555e-02,3.197644650936126709e-02,-1.108675822615623474e-02,4.854883998632431030e-02,5.287468060851097107e-02,-9.033033996820449829e-02,1.151891797780990601e-01,-1.393575519323348999e-01,1.046679764986038208e-01,-6.418371945619583130e-02,-9.742403775453567505e-02,3.954695910215377808e-02,1.433493643999099731e-01,3.814027458429336548e-02,-5.711476877331733704e-02,6.783442944288253784e-02,6.568144261837005615e-02,4.284821823239326477e-02,-4.449354857206344604e-02,1.481031924486160278e-01,9.996101260185241699e-02,3.272358700633049011e-02,1.712509244680404663e-01,-1.411673426628112793e-01,-5.670253303833305836e-04,1.410013139247894287e-01,6.456809490919113159e-02,1.042108833789825439e-01,-4.198191687464714050e-02,-7.703509926795959473e-02,-9.419577568769454956e-02,1.315443664789199829e-01,1.646481454372406006e-01,1.072599664330482483e-01,2.146074734628200531e-02,-2.904830686748027802e-02,-4.687105491757392883e-02,-2.220779284834861755e-02,-3.178567066788673401e-02,1.406308114528656006e-01,-1.109240725636482239e-01,1.468916684389114380e-01,-1.457936018705368042e-01
1.078207194805145264e-01,-1.023453176021575928e-01,-4.216067609377205372e-04,7.056796550750732422e-02,-7.408139854669570923e-02,-5.718470737338066101e-02,1.030284017324447632e-01,-7.031176984310150146e-02,-1.294578909873962402e-01,1.280376221984624863e-02,6.358742713928222656e-02,1.473716646432876587e-01,-3.384764865040779114e-02,-5.136660858988761902e-02,-1.214212272316217422e-02,-7.181965559720993042e-02,-4.564440250396728516e-02,1.181401778012514114e-02,-1.349329054355621338e-01,-1.517692804336547852e-01,-1.124765258282423019e-02,-1.138424724340438843e-01,1.735822297632694244e-02,-4.290938377380371094e-02,4.832955822348594666e-02,-2.211627736687660217e-02,-6.237108260393142700e-03,-1.376412659883499146e-01,-1.059720944613218307e-02,-5.069073662161827087e-02,1.435142308473587036e-01,-2.666244283318519592e-02,-6.904150545597076416e-02,-1.518124788999557495e-01,1.362186819314956665e-01,1.197894662618637085e-01,5.201559886336326599e-02,1.162846107035875320e-02,-9.896914660930633545e-02,-5.762063711881637573e-02,-1.162979900836944580e-01,8.286576718091964722e-02,9.652923792600631714e-02,-3.893535211682319641e-02,5.945065990090370178e-02,-2.913678251206874847e-02,1.548830140382051468e-02,-1.014034301042556763e-01,8.412913978099822998e-02,-4.270426556468009949e-02,-2.072939835488796234e-02,-4.761039093136787415e-02,-1.441435143351554871e-02,-6.461627036333084106e-02,1.146376356482505798e-01,-5.041583999991416931e-02,-1.200924217700958252e-01,1.564078615047037601e-03,-1.155169755220413208e-01,6.528834253549575806e-02,-1.281775385141372681e-01,-8.655064553022384644e-02,2.398613654077053070e-02,-1.055872905999422073e-02
5.224946513772010803e-02,4.413975775241851807e-02,6.726883351802825928e-02,1.224194243550300598e-01,1.217845361679792404e-02,1.955324970185756683e-02,-6.019034981727600098e-02,1.212520375847816467e-01,1.248504295945167542e-01,4.579788818955421448e-02,3.520386666059494019e-02,-1.131720244884490967e-01,3.623864799737930298e-02,2.553039230406284332e-02,2.358768135309219360e-02,-2.471892721951007843e-02,9.332746267318725586e-02,-1.222446933388710022e-01,-1.242476142942905426e-02,9.029921144247055054e-02,-9.132854640483856201e-02,3.126161918044090271e-02,-8.074013888835906982e-02,6.555077433586120605e-02,-6.539968773722648621e-03,-4.643724858760833740e-02,-7.139559835195541382e-02,-3.892100229859352112e-02,-1.065639555454254150e-01,-3.084653988480567932e-02,5.632368475198745728e-02,8.011502772569656372e-02,-5.101039260625839233e-02,1.239980310201644897e-01,-3.080721385776996613e-02,1.236630603671073914e-02,8.393222093582153320e-02,-1.069106087088584900e-01,-3.302524983882904053e-02,5.507933348417282104e-02,9.884743392467498779e-02,2.734713256359100342e-02,4.737224802374839783e-02,-1.063577011227607727e-01,5.568845197558403015e-02,8.115728199481964111e-02,-5.795284733176231384e-02,5.736029148101806641e-02,-1.227299422025680542e-01,-1.296447589993476868e-02,4.940497223287820816e-03,-3.153875097632408142e-02,-1.025452315807342529e-01,5.251701176166534424e-02,3.804064914584159851e-02,4.866846278309822083e-02,1.857901550829410553e-02,5.771572887897491455e-02,-7.749034464359283447e-02,9.586668014526367188e-02,6.541819125413894653e-02,8.726440370082855225e-02,-4.328432679176330566e-02,7.052575051784515381e-02
-2.648016810417175293e-02,-9.447612613439559937e-02,-7.592105865478515625e-02,-3.542028740048408508e-02,-8.127045817673206329e-03,1.255378574132919312e-01,1.495178937911987305e-01,1.862533576786518097e-02,-9.397038817405700684e-02,6.649778038263320923e-02,-6.189882010221481323e-02,-9.663800150156021118e-02,9.712465852499008179e-02,-1.021360605955123901e-01,3.541001677513122559e-02,2.127991057932376862e-02,-5.094684660434722900e-02,8.476483076810836792e-02,2.244406938552856445e-02,-6.723310053348541260e-02,-7.032456248998641968e-02,6.804563850164413452e-02,1.286645531654357910e-01,-1.158990189433097839e-01,-1.328517049551010132e-01,1.135088875889778137e-01,1.851395703852176666e-02,-7.829788140952587128e-03,1.343133598566055298e-01,2.273812144994735718e-02,2.342382445931434631e-02,9.070663899183273315e-02,1.007523387670516968e-01,4.278619587421417236e-02,1.077408567070960999e-01,-5.656873807311058044e-02,-3.715609014034271240e-02,4.675182700157165527e-02,1.398346275091171265e-01,-6.660382449626922607e-02,6.971979886293411255e-02,-9.136495739221572876e-02,-5.995883792638778687e-02,-4.030821099877357483e-02,-8.262794464826583862e-02,-5.322055518627166748e-02,3.356882557272911072e-02,-3.037461638450622559e-02,4.154122248291969299e-02,6.257762759923934937e-02,-1.294661313295364380e-01,-5.174853280186653137e-02,5.255985632538795471e-02,-5.964877456426620483e-02,-2.271040342748165131e-02,1.795948483049869537e-02,-3.637185087427496910e-03,-7.641701400279998779e-02,9.081074036657810211e-03,7.324402034282684326e-02,-7.174682617187500000e-02,6.713903695344924927e-02,-9.185037016868591309e-02,1.439597308635711670e-01
6.858661770820617676e-02,3.578106639906764030e-03,-4.468511417508125305e-02,-7.452576607465744019e-02,3.103674203157424927e-02,1.166314352303743362e-02,-9.380068629980087280e-02,-5.412749201059341431e-02,1.317645460367202759e-01,2.870749309659004211e-02,-5.318697541952133179e-02,1.001555398106575012e-01,8.726174384355545044e-02,8.901767432689666748e-03,-1.578771509230136871e-02,-8.188251405954360962e-02,9.053379297256469727e-02,9.624561667442321777e-02,1.100925505161285400e-01,4.615191742777824402e-02,7.784233242273330688e-02,-5.260290950536727905e-02,-9.150706231594085693e-02,8.766346424818038940e-02,1.197320520877838135e-01,3.215209394693374634e-02,5.949011445045471191e-02,-1.214339435100555420e-01,-4.766725376248359680e-02,-5.816389340907335281e-03,3.059042850509285927e-03,-6.435504183173179626e-04,-7.685314863920211792e-02,-1.086358875036239624e-01,-6.534049659967422485e-02,1.056556962430477142e-02,-8.947037160396575928e-02,-1.005344837903976440e-01,2.922892570495605469e-02,1.240402534604072571e-01,7.881492376327514648e-02,-8.514169603586196899e-02,-8.972210437059402466e-02,-2.812160365283489227e-02,-8.250094205141067505e-02,-3.425966203212738037e-02,-3.197414800524711609e-02,3.781239688396453857e-02,-4.833415895700454712e-02,-9.706981480121612549e-02,-4.540556669235229492e-02,-3.195239230990409851e-02,-9.646482020616531372e-02,1.124104484915733337e-01,1.464052684605121613e-02,5.660949647426605225e-02,5.831949785351753235e-02,-5.149680376052856445e-02,-6.645973026752471924e-02,2.327793743461370468e-03,-7.796645164489746094e-02,1.166929956525564194e-03,-1.029905900359153748e-01,6.254300475120544434e-02
9.516496211290359497e-02,7.227449864149093628e-02,5.523036420345306396e-02,-7.408273965120315552e-02,4.417718201875686646e-02,7.219715416431427002e-02,4.919268935918807983e-02,-2.690463140606880188e-02,5.656434223055839539e-02,3.918666765093803406e-02,1.300086975097656250e-01,3.620598092675209045e-02,1.104346383363008499e-02,-7.494546473026275635e-02,8.394906669855117798e-02,9.907005727291107178e-02,-4.268741607666015625e-02,1.132331490516662598e-01,-7.832255214452743530e-02,6.514481455087661743e-02,8.237962424755096436e-02,9.314580261707305908e-02,-5.259518045932054520e-03,-6.776035577058792114e-02,9.489827603101730347e-02,5.781653150916099548e-02,-5.711106210947036743e-02,-4.246803373098373413e-02,-5.109890364110469818e-03,-6.556522566825151443e-03,4.951518774032592773e-02,-1.066720578819513321e-02,1.218322198837995529e-03,-1.174334511160850525e-01,-1.396004110574722290e-02,-5.082507058978080750e-02,1.960537396371364594e-02,6.486934423446655273e-02,-3.203863650560379028e-02,-5.101118609309196472e-02,-6.723894923925399780e-02,-1.276864409446716309e-01,1.358279436826705933e-01,4.476810619235038757e-02,1.158993467688560486e-01,3.387952223420143127e-02,5.717587471008300781e-02,9.725456684827804565e-02,4.725459963083267212e-02,-5.298659950494766235e-02,-7.968986034393310547e-02,1.083841994404792786e-01,3.767662867903709412e-02,-8.442008867859840393e-03,-1.761168241500854492e-02,-8.667610585689544678e-02,-6.520427018404006958e-02,1.225686669349670410e-01,-9.096209891140460968e-03,-1.047184690833091736e-03,-2.490904554724693298e-02,-2.808559127151966095e-02,9.161868691444396973e-02,-8.278697729110717773e-02
-1.769727654755115509e-02,1.502052228897809982e-02,-3.993961960077285767e-02,7.250739634037017822e-02,7.811260223388671875e-02,8.616085350513458252e-02,-4.025305807590484619e-02,1.225742995738983154e-01,1.089415606111288071e-02,7.084219716489315033e-03,-5.530885234475135803e-02,3.651174530386924744e-02,-9.173890948295593262e-02,1.864076405763626099e-02,9.318437427282333374e-02,3.424081578850746155e-02,-9.338195621967315674e-02,-1.178362146019935608e-01,-8.390601724386215210e-02,-1.001672446727752686e-02,4.032274708151817322e-02,6.001165136694908142e-02,-7.843232154846191406e-02,-6.234981119632720947e-02,9.375662356615066528e-02,-1.295803338289260864e-01,1.833450980484485626e-02,1.426647976040840149e-02,-7.690514624118804932e-02,4.720548633486032486e-03,3.182864561676979065e-02,-1.394594907760620117e-01,-1.399522367864847183e-02,8.906270377337932587e-03,-1.759119518101215363e-02,1.681580208241939545e-02,1.121684256941080093e-02,-2.995849214494228363e-02,-9.871996939182281494e-02,3.519389778375625610e-02,-9.060055017471313477e-03,4.445460624992847443e-03,-1.974711008369922638e-02,5.574268847703933716e-02,-5.659687891602516174e-02,1.033566743135452271e-01,1.176267117261886597e-01,4.969494044780731201e-02,7.980667054653167725e-02,4.438738338649272919e-03,-8.183446526527404785e-02,-9.759696573019027710e-02,-3.111702762544155121e-02,1.523487418889999390e-01,1.153459995985031128e-01,-7.525631785392761230e-02,1.143574714660644531e-01,8.367811143398284912e-02,-5.838285665959119797e-03,-5.816726014018058777e-02,9.039440006017684937e-02,-8.114832453429698944e-03,1.287610232830047607e-01,-9.293246269226074219e-02
4.874588921666145325e-02,-5.485158786177635193e-02,8.440131694078445435e-02,-1.730980537831783295e-02,1.169934049248695374e-01,3.175906464457511902e-02,-4.372910410165786743e-02,-3.352680802345275879e-02,-7.748679816722869873e-02,-2.607710100710391998e-02,-6.053347513079643250e-02,-1.371656893752515316e-03,6.664454936981201172e-02,-3.666350245475769043e-02,3.123074583709239960e-02,-1.458199173212051392e-01,-1.050320193171501160e-01,5.308832600712776184e-02,-7.774800062179565430e-02,-1.196068450808525085e-01,6.889956444501876831e-02,1.090216934680938721e-01,1.174933463335037231e-02,5.391731113195419312e-02,-1.832325942814350128e-02,8.081314712762832642e-02,1.148081645369529724e-01,-2.430340740829706192e-03,-5.546367540955543518e-02,-1.096839904785156250e-01,-1.004307642579078674e-01,-2.476679906249046326e-02,-2.979800850152969360e-02,-9.251525998115539551e-02,8.550025522708892822e-02,1.211048066616058350e-01,-4.318183660507202148e-02,1.375536322593688965e-01,6.427191197872161865e-02,-9.973827749490737915e-02,5.571598187088966370e-02,-7.159554958343505859e-02,-5.804217234253883362e-02,7.152277231216430664e-02,9.663306176662445068e-02,7.781172543764114380e-02,2.136862091720104218e-02,-1.210756376385688782e-01,-1.570006273686885834e-02,7.965862005949020386e-02,-1.196040660142898560e-01,6.687400490045547485e-02,-9.085543453693389893e-02,4.483682289719581604e-02,-8.544832468032836914e-02,-1.152267307043075562e-01,-1.087913960218429565e-01,3.184131532907485962e-02,-1.030540093779563904e-01,1.140415593981742859e-01,2.491124905645847321e-02,-4.060173779726028442e-02,6.811672821640968323e-03,-6.343654543161392212e-02
-1.174696460366249084e-01,-1.132501810789108276e-01,6.912054959684610367e-03,7.533366233110427856e-02,-8.863914757966995239e-02,7.526105642318725586e-02,-1.158082336187362671e-01,-1.484312117099761963e-03,2.947994135320186615e-02,-1.141028031706809998e-01,-7.591602206230163574e-02,-4.116133973002433777e-02,3.561949357390403748e-02,9.848254173994064331e-02,3.730925917625427246e-02,-1.832701638340950012e-02,-4.677588865160942078e-02,-1.599623262882232666e-02,8.018056303262710571e-02,1.230069696903228760e-01,7.149352878332138062e-02,1.434637699276208878e-02,-1.055456772446632385e-01,-4.197689890861511230e-02,7.682672888040542603e-02,4.017703607678413391e-02,-5.888650938868522644e-02,-7.404023408889770508e-02,3.620623052120208740e-02,-9.865694493055343628e-02,-7.660619169473648071e-02,5.287629738450050354e-02,-1.170650273561477661e-01,-9.998922795057296753e-02,9.615772962570190430e-02,-5.747089162468910217e-02,-1.278820484876632690e-01,3.399333916604518890e-03,1.007536575198173523e-01,-5.623830482363700867e-02,1.022617146372795105e-01,-9.010081738233566284e-02,-7.265523821115493774e-02,-1.006980612874031067e-01,9.378658980131149292e-02,-5.549613013863563538e-02,1.009574159979820251e-01,1.152044385671615601e-01,-8.591249585151672363e-02,7.575818896293640137e-02,6.777161359786987305e-02,-2.167330496013164520e-02,4.216325655579566956e-02,3.177486732602119446e-02,4.234000295400619507e-02,-9.216545522212982178e-02,-1.033673807978630066e-01,-4.497068468481302261e-03,9.510555863380432129e-02,4.482179880142211914e-02,-1.037014946341514587e-01,-2.789767831563949585e-02,-6.238250993192195892e-03,7.690624147653579712e-02
6.245964020490646362e-02,-3.406867012381553650e-02,2.829256281256675720e-02,-1.001828685402870178e-01,-6.632736325263977051e-02,-1.761440001428127289e-02,2.484399825334548950e-02,-5.501601099967956543e-02,5.475084856152534485e-02,1.081245094537734985e-01,1.009883359074592590e-01,4.073931276798248291e-02,9.188988059759140015e-02,4.247391223907470703e-02,4.259668290615081787e-03,-1.724546588957309723e-02,-8.632202446460723877e-02,9.107197821140289307e-02,1.002921313047409058e-01,6.252456456422805786e-02,-1.308633014559745789e-02,1.925673149526119232e-02,1.125817671418190002e-01,-1.111315339803695679e-01,4.416823387145996094e-02,-1.017442122101783752e-01,4.988272115588188171e-02,-1.295465975999832153e-01,-1.228286046534776688e-02,-7.422564178705215454e-02,-7.035124301910400391e-02,-7.570571452379226685e-02,-6.207831203937530518e-02,-4.540787637233734131e-02,1.024359762668609619e-01,-3.375924378633499146e-02,-4.602782800793647766e-02,3.605560958385467529e-02,5.721839889883995056e-02,4.778069257736206055e-02,9.785587899386882782e-03,9.093388915061950684e-02,9.188631922006607056e-02,-5.757519230246543884e-02,-4.503635317087173462e-02,2.925108186900615692e-02,-5.157228931784629822e-02,-7.924836128950119019e-02,-7.691039890050888062e-02,-2.250208519399166107e-02,-1.224610805511474609e-01,-1.186516061425209045e-01,2.260687202215194702e-02,8.313162624835968018e-02,5.218891892582178116e-03,6.008073687553405762e-02,6.002508103847503662e-02,8.911211043596267700e-03,-1.287667304277420044e-01,1.067517548799514771e-01,4.385137185454368591e-02,4.673776216804981232e-03,1.048223450779914856e-01,1.051240041851997375e-01
3.270602598786354065e-02,-7.332748919725418091e-02,8.563867211341857910e-02,-3.382746875286102295e-02,8.818519115447998047e-02,-5.255557596683502197e-02,-6.822228431701660156e-02,-2.715221047401428223e-02,-5.472737364470958710e-03,1.098059713840484619e-01,5.416274070739746094e-02,2.947005070745944977e-02,8.599137514829635620e-02,1.263918876647949219e-01,1.019406467676162720e-01,-6.924719363451004028e-02,9.997494518756866455e-02,1.385468393564224243e-01,2.915247110649943352e-03,-6.828895211219787598e-02,5.831584334373474121e-02,9.702139534056186676e-03,-8.869385719299316406e-02,-4.058632999658584595e-02,9.125623852014541626e-02,8.791622705757617950e-03,-6.293421983718872070e-02,1.013081297278404236e-01,1.373591572046279907e-01,7.498813327401876450e-03,-4.887838382273912430e-03,9.818395227193832397e-02,8.114342391490936279e-02,-8.960064500570297241e-02,1.233124360442161560e-01,-8.805301040410995483e-02,-9.557355195283889771e-02,-3.378049284219741821e-02,5.091337487101554871e-02,-9.113280475139617920e-02,3.731749951839447021e-02,-2.429896593093872070e-02,1.052647307515144348e-01,-8.422797173261642456e-02,-1.158152800053358078e-02,-4.554358124732971191e-02,2.901652827858924866e-02,-2.217921661213040352e-03,8.344092965126037598e-02,-5.556630343198776245e-02,-5.381157249212265015e-02,-1.333497613668441772e-01,9.091348387300968170e-03,-9.759366512298583984e-02,-7.772313058376312256e-02,4.707043245434761047e-02,-9.253055788576602936e-03,-1.143490821123123169e-01,2.903652377426624298e-02,-3.828597813844680786e-02,-1.276388298720121384e-02,3.277548775076866150e-02,8.859402686357498169e-02,8.831134438514709473e-02
-7.738091982901096344e-03,7.299544662237167358e-02,-7.045865803956985474e-02,-1.263730041682720184e-02,2.248939685523509979e-02,1.071665287017822266e-01,1.202995702624320984e-01,-7.696291804313659668e-02,5.265858396887779236e-02,9.516113996505737305e-02,-1.077672913670539856e-01,1.023173257708549500e-01,8.481434732675552368e-02,1.125286426395177841e-02,-1.451228745281696320e-02,-1.070792898535728455e-01,8.322906494140625000e-02,-4.765994101762771606e-02,-1.248728334903717041e-01,7.323570549488067627e-02,1.874133385717868805e-02,-1.070844233036041260e-01,-1.193472072482109070e-01,7.318449020385742188e-02,1.105564907193183899e-01,8.615323901176452637e-02,-6.252309679985046387e-02,-2.496626600623130798e-02,1.764284097589552402e-03,8.015422523021697998e-02,7.078371196985244751e-02,-1.204198449850082397e-01,6.252227723598480225e-02,7.003799080848693848e-02,-6.544826924800872803e-02,5.204985849559307098e-03,7.005161792039871216e-02,-7.710304111242294312e-02,-1.617005653679370880e-02,-6.103296205401420593e-02,-4.981341585516929626e-02,-1.068864315748214722e-01,-3.420108556747436523e-02,-4.985721036791801453e-02,4.571516066789627075e-02,-9.817933291196823120e-02,-4.999283328652381897e-02,-7.853063195943832397e-02,8.872802555561065674e-02,6.358457356691360474e-02,-4.270658269524574280e-02,-9.157963097095489502e-02,8.520238101482391357e-03,9.481973201036453247e-02,2.087551169097423553e-02,6.144180893898010254e-02,-8.000170439481735229e-02,-5.295211821794509888e-02,-6.798310577869415283e-02,7.360723614692687988e-02,8.960843831300735474e-02,-1.171355545520782471e-01,-8.639948815107345581e-02,7.443693466484546661e-03
-2.583143301308155060e-02,4.345923289656639099e-02,8.939232677221298218e-03,4.670211672782897949e-02,-2.867061644792556763e-03,-1.037013381719589233e-01,2.991881221532821655e-02,9.392309188842773438e-02,-5.269204080104827881e-02,-3.277532383799552917e-02,1.417640037834644318e-02,-1.293608993291854858e-01,-8.421006053686141968e-02,-7.061820477247238159e-02,-4.970769956707954407e-02,1.550739854574203491e-01,9.956179559230804443e-02,8.536741882562637329e-02,1.088767945766448975e-01,1.676812171936035156e-01,-3.081079944968223572e-02,6.025365088135004044e-03,7.251391559839248657e-02,9.495116770267486572e-02,-6.552503257989883423e-02,-3.852253034710884094e-02,-2.286260947585105896e-02,1.529460549354553223e-01,-2.215340547263622284e-02,5.733841657638549805e-02,-1.802138518542051315e-03,7.874468713998794556e-02,6.396531313657760620e-02,-4.503922164440155029e-02,7.460209727287292480e-02,-2.317739650607109070e-02,-1.442885249853134155e-01,-1.397061906754970551e-02,-1.232287809252738953e-01,1.215404868125915527e-01,-3.108190558850765228e-02,7.079115509986877441e-02,-6.381934881210327148e-02,9.250380098819732666e-02,-4.617412015795707703e-02,-4.841434955596923828e-02,-7.329766452312469482e-02,-4.918619990348815918e-02,5.304927006363868713e-02,1.691212654113769531e-01,-5.008019134402275085e-02,-9.576513431966304779e-03,-3.168471530079841614e-02,1.179888844490051270e-01,-6.327507644891738892e-02,1.047965511679649353e-01,1.092084348201751709e-01,-1.133714802563190460e-02,-1.999567262828350067e-02,6.860698014497756958e-02,1.305349767208099365e-01,-8.135773986577987671e-02,1.184132099151611328e-01,-1.091138571500778198e-01
-1.455488987267017365e-02,1.030933484435081482e-01,-2.833184972405433655e-02,3.048712201416492462e-02,-5.547482892870903015e-02,-8.643309772014617920e-02,8.368366956710815430e-02,-7.596080005168914795e-02,2.090237848460674286e-02,-1.270099729299545288e-02,-5.905236676335334778e-02,2.359820716083049774e-02,1.041224747896194458e-01,-8.767405524849891663e-03,2.931402251124382019e-02,-1.771031506359577179e-02,4.410591721534729004e-02,-1.248266100883483887e-01,9.687019884586334229e-02,9.084842354059219360e-02,-1.096918582916259766e-01,9.946655482053756714e-02,3.321466967463493347e-02,-8.588115125894546509e-02,9.471926838159561157e-02,1.099057123064994812e-01,-2.173599228262901306e-02,1.331944763660430908e-01,5.386652424931526184e-02,1.261497437953948975e-01,6.011275947093963623e-02,-1.067926958203315735e-01,1.542572677135467529e-02,1.024012938141822815e-01,-9.246730059385299683e-02,-5.909337848424911499e-02,8.950029313564300537e-02,1.027983427047729492e-01,2.502684853971004486e-02,-1.389968767762184143e-02,9.748315066099166870e-02,4.521374404430389404e-02,9.669274836778640747e-02,-6.254481524229049683e-02,-8.613748103380203247e-02,1.613700948655605316e-02,9.623928368091583252e-02,5.529221612960100174e-03,7.097158581018447876e-02,5.248690722510218620e-04,7.140366733074188232e-02,-5.356618762016296387e-02,-3.951791301369667053e-02,1.044584140181541443e-01,6.188500672578811646e-02,9.510659426450729370e-02,-1.035194694995880127e-01,-1.321664899587631226e-01,-1.058930382132530212e-01,-2.375750802457332611e-02,2.748980745673179626e-02,-4.909844603389501572e-03,1.251934766769409180e-01,1.057163774967193604e-01
1.066549494862556458e-01,-2.096099555492401123e-01,-1.480259187519550323e-02,-1.013836115598678589e-01,-9.765017777681350708e-02,-4.137625545263290405e-02,1.029900088906288147e-02,-1.330152451992034912e-01,-1.560141593217849731e-01,7.352796196937561035e-02,2.659284695982933044e-02,1.159275770187377930e-01,1.724932789802551270e-01,6.993175949901342392e-03,-1.447520554065704346e-01,-1.642427444458007812e-01,-1.209512352943420410e-01,-3.941546007990837097e-02,-5.808770656585693359e-02,-4.953531175851821899e-02,2.117745727300643921e-01,-2.779111452400684357e-02,1.512617468833923340e-01,7.039954513311386108e-02,1.721307262778282166e-02,-4.036463797092437744e-02,1.350784301757812500e-01,-6.330586969852447510e-02,-3.108792006969451904e-03,-4.480412974953651428e-02,1.314161270856857300e-01,1.033634692430496216e-01,4.053522273898124695e-02,-2.751749157905578613e-01,8.318501710891723633e-02,3.745662793517112732e-02,1.928730458021163940e-01,-2.777923643589019775e-02,4.676411673426628113e-02,8.716344833374023438e-02,-6.709090620279312134e-02,6.574551761150360107e-02,1.590382456779479980e-01,-1.616929918527603149e-01,1.274771839380264282e-01,-1.461837291717529297e-01,-8.057521283626556396e-02,-2.033120989799499512e-01,-1.050218567252159119e-01,-3.674368187785148621e-02,7.951903343200683594e-02,-7.962960749864578247e-02,-7.181818783283233643e-02,-1.922996789216995239e-01,8.297668397426605225e-02,-1.343984156847000122e-01,-1.333852559328079224e-01,-2.138783410191535950e-02,-1.958774626255035400e-01,2.775892801582813263e-02,-1.628172546625137329e-01,-7.028430700302124023e-02,-1.244501955807209015e-02,4.093623533844947815e-02
-6.899777054786682129e-02,6.248918920755386353e-02,1.475744228810071945e-02,1.231095492839813232e-01,3.037460334599018097e-02,7.101575285196304321e-02,-6.633426249027252197e-02,8.028244972229003906e-02,-6.845527887344360352e-02,-2.752576395869255066e-02,7.891877740621566772e-02,-3.722209483385086060e-02,6.257878988981246948e-02,1.216084323823451996e-02,-5.714853480458259583e-02,-6.404025852680206299e-02,1.002348288893699646e-01,-8.170765638351440430e-02,-7.316491752862930298e-02,1.060705855488777161e-01,-3.989663720130920410e-02,-5.194543302059173584e-02,9.841372817754745483e-02,-7.206657528877258301e-02,-1.103188991546630859e-01,3.582120314240455627e-02,-7.545983791351318359e-02,1.147112771868705750e-01,-5.224721878767013550e-02,6.069763004779815674e-02,-1.300442963838577271e-01,-1.146396845579147339e-01,-8.960074931383132935e-02,-4.605410620570182800e-02,7.204323541373014450e-03,8.789148926734924316e-02,-1.917893998324871063e-02,3.368588909506797791e-02,3.639341145753860474e-02,9.503335505723953247e-02,6.797097623348236084e-02,1.240251027047634125e-02,-1.004861071705818176e-01,8.260343968868255615e-02,1.133037451654672623e-02,-1.057804822921752930e-01,1.137897670269012451e-01,9.944404661655426025e-02,-9.486168622970581055e-02,1.299421340227127075e-01,1.231020875275135040e-02,8.652896434068679810e-02,9.742112457752227783e-02,6.885740906000137329e-02,8.310493081808090210e-02,-5.091023072600364685e-02,5.625862255692481995e-02,-1.040498390793800354e-01,6.091712787747383118e-02,-7.868251204490661621e-02,4.750064760446548462e-02,-1.028479784727096558e-01,2.193996217101812363e-03,-7.381123304367065430e-02
-8.183543384075164795e-02,1.331308931112289429e-01,-6.794039160013198853e-02,5.678022652864456177e-02,3.906252980232238770e-02,-6.415565311908721924e-02,-4.303630907088518143e-03,-4.581557586789131165e-02,2.517719008028507233e-02,-2.210120856761932373e-02,5.600161105394363403e-02,-7.926951348781585693e-02,-1.278636306524276733e-01,-8.862192928791046143e-02,-1.553814858198165894e-02,1.119186580181121826e-01,-9.217777848243713379e-02,5.207517370581626892e-02,-2.068491838872432709e-02,1.287155598402023315e-01,6.062341481447219849e-02,3.667871654033660889e-02,-1.004141345620155334e-01,2.944892831146717072e-02,-6.195914000272750854e-02,4.911635443568229675e-02,-4.010185971856117249e-02,-5.022026016376912594e-04,-7.974962890148162842e-02,-7.857329212129116058e-03,-1.313328742980957031e-01,-4.969154298305511475e-02,1.812347956001758575e-02,7.903540879487991333e-02,-9.399772435426712036e-02,2.728345245122909546e-02,-1.002290397882461548e-01,8.840478956699371338e-02,-2.712042629718780518e-02,-7.532477378845214844e-02,-1.596939191222190857e-02,-6.962598115205764771e-02,6.601320952177047729e-02,-9.277483820915222168e-02,2.982418611645698547e-02,-8.006814867258071899e-02,-1.660422421991825104e-02,4.867982864379882812e-02,6.917729973793029785e-02,4.427953809499740601e-02,-1.193215399980545044e-01,2.368149580433964729e-03,6.858604494482278824e-03,5.969275161623954773e-02,1.168359369039535522e-01,7.028470933437347412e-02,5.527805909514427185e-02,-6.723912805318832397e-02,-8.538315445184707642e-02,3.482511639595031738e-02,1.233554929494857788e-01,-1.403276324272155762e-01,6.755725294351577759e-02,5.474131554365158081e-02
-1.061513274908065796e-01,-8.283560723066329956e-02,6.846728269010782242e-03,-5.991080403327941895e-02,1.042175665497779846e-01,2.212263084948062897e-02,-1.301603913307189941e-01,2.352689765393733978e-02,-9.271832532249391079e-04,-8.212067931890487671e-02,4.460720345377922058e-02,-3.962455689907073975e-02,-1.450063008815050125e-02,9.899609535932540894e-02,-1.624851860105991364e-02,-1.664121635258197784e-02,-2.664190530776977539e-02,1.838183589279651642e-02,1.166069433093070984e-01,5.018085986375808716e-02,-1.259420216083526611e-01,-1.213675811886787415e-01,-1.321802884340286255e-01,5.405006185173988342e-02,1.917436905205249786e-02,-4.121083393692970276e-02,1.023914963006973267e-01,1.969198323786258698e-02,1.902500540018081665e-02,2.922243438661098480e-02,-2.491099573671817780e-02,-8.884218335151672363e-02,-8.068143576383590698e-02,-3.028026223182678223e-02,-7.163973897695541382e-02,-2.600475400686264038e-02,-5.337019264698028564e-02,-2.671527490019798279e-02,-8.782459050416946411e-02,9.385861456394195557e-02,1.302947700023651123e-01,3.441664204001426697e-02,6.819976866245269775e-02,1.435144096612930298e-01,9.760078787803649902e-02,-3.044991381466388702e-02,-6.406151503324508667e-02,7.586666941642761230e-02,7.274022698402404785e-02,1.146071851253509521e-01,-4.356029629707336426e-02,8.382615633308887482e-03,-6.970724463462829590e-02,1.111122667789459229e-01,2.355273813009262085e-02,-5.515910312533378601e-02,2.832559868693351746e-02,7.048441469669342041e-02,1.276699304580688477e-01,-1.288984622806310654e-02,8.075769245624542236e-02,5.459765717387199402e-02,3.367620334029197693e-02,5.917620658874511719e-02
7.056756317615509033e-02,2.608059532940387726e-02,1.190107315778732300e-01,7.567322999238967896e-02,-8.950354158878326416e-02,-6.712148338556289673e-02,1.219344064593315125e-01,2.615861222147941589e-02,2.958640456199645996e-03,1.038312092423439026e-01,-5.706553565687499940e-05,-4.777349159121513367e-02,6.714388728141784668e-02,3.174578025937080383e-02,-9.120451286435127258e-04,1.951359584927558899e-02,-9.602958709001541138e-02,2.986639365553855896e-02,-5.511082708835601807e-02,6.985229998826980591e-02,1.050226092338562012e-01,7.410805672407150269e-02,1.027471125125885010e-01,-9.286461025476455688e-02,4.351168125867843628e-02,-1.426806952804327011e-02,1.557836029678583145e-02,-7.783772051334381104e-02,5.206395871937274933e-03,-4.892429709434509277e-02,3.698611259460449219e-02,1.302251219749450684e-01,-4.817266482859849930e-03,1.290693432092666626e-01,5.335946008563041687e-02,-3.590988740324974060e-02,1.076507866382598877e-01,-1.047896146774291992e-01,-4.248978570103645325e-02,-5.547828227281570435e-02,-6.288792937994003296e-02,-8.520725369453430176e-02,1.254356559365987778e-02,-1.221619173884391785e-01,1.177648827433586121e-01,-6.275502592325210571e-02,-5.015392974019050598e-02,1.929694972932338715e-02,-3.434868156909942627e-02,1.203508153557777405e-01,7.054202258586883545e-02,-1.052054464817047119e-01,-2.347126603126525879e-02,2.567744255065917969e-02,8.481410145759582520e-02,-1.908453367650508881e-02,1.047691553831100464e-01,4.874006286263465881e-02,3.579153120517730713e-02,-3.229935839772224426e-02,-6.290281563997268677e-02,7.911299355328083038e-03,5.009976029396057129e-02,4.972212016582489014e-02
1.032133921980857849e-01,5.607816949486732483e-02,-8.410844206809997559e-02,-1.298828125000000000e-01,-4.667839035391807556e-02,1.734082400798797607e-02,1.358640789985656738e-01,8.134124428033828735e-02,4.627107456326484680e-02,6.716199219226837158e-02,5.904061347246170044e-02,-6.191208586096763611e-02,5.456702411174774170e-02,-3.753812238574028015e-02,-9.057144820690155029e-02,-3.685434907674789429e-02,-4.487980529665946960e-02,1.071432903409004211e-01,-3.976349160075187683e-02,-5.546222627162933350e-02,1.389602720737457275e-01,-1.046634837985038757e-01,-1.686353608965873718e-02,-8.296115696430206299e-02,-4.947700351476669312e-02,-6.907874345779418945e-02,7.537226378917694092e-02,2.657565288245677948e-02,-1.145660132169723511e-01,-1.175159811973571777e-01,9.640507400035858154e-02,-3.853774070739746094e-02,7.982593774795532227e-02,-2.057424932718276978e-02,-2.080964855849742889e-02,-8.238290250301361084e-02,-1.495581213384866714e-02,-5.724708735942840576e-02,-6.273759901523590088e-02,-1.168021745979785919e-02,-9.034089744091033936e-02,7.804901152849197388e-02,6.251850165426731110e-03,-1.283360123634338379e-01,4.723014310002326965e-03,6.196408718824386597e-02,-5.219848826527595520e-02,2.864314429461956024e-02,-6.250666081905364990e-02,2.667125500738620758e-02,-1.091130599379539490e-01,1.061979457736015320e-01,-6.350170820951461792e-02,5.171700194478034973e-02,-1.196707636117935181e-01,4.464322328567504883e-02,7.231418788433074951e-02,9.991277754306793213e-02,-1.038991063833236694e-01,-8.730385452508926392e-02,-3.857297077775001526e-02,1.073925867676734924e-01,3.358758240938186646e-02,4.731182008981704712e-02
-9.536664187908172607e-02,3.558832034468650818e-02,-6.875553727149963379e-02,-7.205723971128463745e-02,-6.872290372848510742e-02,-4.967832192778587341e-02,2.585517615079879761e-02,-6.072062999010086060e-02,1.195570528507232666e-01,1.067730411887168884e-01,3.128499165177345276e-02,-5.762244388461112976e-02,-1.234663557261228561e-02,-1.182954162359237671e-01,1.118716299533843994e-01,1.040226146578788757e-01,9.492036886513233185e-03,-1.046781465411186218e-01,1.159650906920433044e-01,3.202882828190922737e-03,-5.399632081389427185e-02,-7.411748915910720825e-02,-7.864792644977569580e-02,3.811273723840713501e-02,-2.239213325083255768e-02,3.859043121337890625e-02,-2.510346472263336182e-02,-3.883533179759979248e-03,-9.076865017414093018e-02,-5.805185064673423767e-03,3.036570549011230469e-02,5.084637925028800964e-02,-5.504141002893447876e-02,9.351924061775207520e-02,-1.332301497459411621e-01,-1.235271245241165161e-01,5.748510360717773438e-02,-1.082596257328987122e-01,-7.655220478773117065e-02,5.758843570947647095e-02,5.758120492100715637e-02,2.939767576754093170e-02,-1.720660626888275146e-01,1.772397458553314209e-01,1.013822332024574280e-01,8.877352625131607056e-02,8.538636378943920135e-03,-5.236423574388027191e-03,-1.143851280212402344e-01,1.368158459663391113e-01,5.283895414322614670e-03,1.368079036474227905e-01,2.604505792260169983e-02,1.181799396872520447e-01,3.278040885925292969e-02,-7.165828137658536434e-04,-6.801391392946243286e-02,8.254648000001907349e-02,2.768759801983833313e-02,4.920802265405654907e-02,1.202170327305793762e-01,-6.683601438999176025e-02,-6.728692352771759033e-02,9.495931118726730347e-02
6.209008023142814636e-02,-1.134122908115386963e-01,1.253074705600738525e-01,-3.870799019932746887e-02,-1.189224421977996826e-01,4.456890746951103210e-02,9.937421232461929321e-02,5.777823552489280701e-02,-3.062583506107330322e-03,3.446988295763731003e-03,-3.935436159372329712e-02,-9.340019524097442627e-02,-8.342248201370239258e-02,-1.292040012776851654e-02,-7.721950858831405640e-02,-5.539844185113906860e-02,-5.619249865412712097e-02,-4.036945104598999023e-02,-4.884381778538227081e-03,1.305624246597290039e-01,1.090404689311981201e-01,1.023994982242584229e-01,2.382650971412658691e-02,-6.907424330711364746e-02,1.259696185588836670e-01,7.568093389272689819e-02,-1.344572659581899643e-02,-8.760184980928897858e-03,-8.099497854709625244e-02,-6.825999170541763306e-02,5.356930941343307495e-02,1.151292994618415833e-01,-1.210751608014106750e-01,-5.978668481111526489e-02,6.322085857391357422e-02,-3.885143622756004333e-02,-2.358217164874076843e-02,1.321934256702661514e-02,-5.030477792024612427e-02,-1.014763303101062775e-02,-1.243207417428493500e-02,-8.272374980151653290e-03,-9.205425158143043518e-03,-7.666724175214767456e-02,4.639989696443080902e-03,-6.619215011596679688e-02,6.180681288242340088e-02,-4.397185519337654114e-02,6.969527155160903931e-02,8.306305110454559326e-02,6.236160174012184143e-02,-7.196540385484695435e-02,4.337089136242866516e-02,8.866603672504425049e-02,-3.257535025477409363e-02,1.150915981270372868e-03,9.633962810039520264e-02,-1.093622446060180664e-01,4.531054198741912842e-02,-6.296309083700180054e-02,5.764145404100418091e-02,-4.993796721100807190e-02,-8.517667651176452637e-02,6.026603654026985168e-02
1.163501739501953125e-01,-9.421903640031814575e-02,1.210261695086956024e-02,-1.230317279696464539e-01,-9.864223189651966095e-03,-2.803740650415420532e-02,1.346044242382049561e-01,-1.064942404627799988e-01,6.262042373418807983e-02,-5.516535788774490356e-02,9.853763878345489502e-02,7.129801809787750244e-02,-9.640476852655410767e-02,-4.083806648850440979e-02,1.166145317256450653e-02,-1.962822489440441132e-02,-6.318022031337022781e-03,6.636619567871093750e-02,-2.561584115028381348e-02,-7.536747306585311890e-02,1.468590833246707916e-02,7.482058554887771606e-02,3.284609178081154823e-03,-1.163873896002769470e-01,6.989960372447967529e-02,5.775994807481765747e-02,9.765858948230743408e-02,-4.317027982324361801e-03,-3.554681316018104553e-02,9.417789429426193237e-02,-8.263023197650909424e-02,-2.452690713107585907e-02,7.797240465879440308e-02,-1.419122964143753052e-01,7.430692762136459351e-02,-7.256032433360815048e-03,1.249244883656501770e-01,5.887533724308013916e-02,9.664559364318847656e-02,-7.023163139820098877e-02,-6.173861399292945862e-02,-6.853838264942169189e-02,1.101026535034179688e-01,-5.326093360781669617e-02,-2.206207625567913055e-02,-2.514541149139404297e-02,3.464185399934649467e-03,-5.901128426194190979e-02,3.369586542248725891e-02,-1.537269800901412964e-01,-4.137598723173141479e-02,-1.286047399044036865e-01,-7.418853044509887695e-02,2.663926966488361359e-02,2.564759738743305206e-02,3.444662317633628845e-02,7.434351742267608643e-02,6.223451718688011169e-02,-5.485020205378532410e-02,-5.716691166162490845e-02,-1.425849348306655884e-01,7.471275329589843750e-02,7.839584350585937500e-02,4.780583828687667847e-02
-1.315545737743377686e-01,-1.784683763980865479e-02,9.313770383596420288e-02,4.988599568605422974e-02,-1.034411415457725525e-01,2.139152400195598602e-02,7.245200127363204956e-02,1.209922358393669128e-01,9.552139043807983398e-02,-1.281199157238006592e-01,3.077140077948570251e-02,1.017424389719963074e-01,-8.542992174625396729e-02,-3.535173833370208740e-02,-3.272620961070060730e-02,-4.044748097658157349e-02,1.023344621062278748e-01,-6.056344136595726013e-03,-7.235810160636901855e-02,1.122139245271682739e-01,2.386083506280556321e-04,3.476054221391677856e-02,-1.499691307544708252e-01,-2.590230852365493774e-02,5.370399728417396545e-02,7.361816614866256714e-02,-1.860765367746353149e-02,1.216961350291967392e-02,9.486759454011917114e-02,1.205944940447807312e-01,-7.179398834705352783e-02,-4.817090556025505066e-02,1.709244959056377411e-02,-5.036400631070137024e-02,7.297839969396591187e-02,-5.677419155836105347e-02,-9.350936114788055420e-02,-1.096829921007156372e-01,-1.234627664089202881e-01,6.772991269826889038e-02,-3.073264099657535553e-02,-6.748557835817337036e-02,-4.444504156708717346e-02,1.396852880716323853e-01,9.750635921955108643e-02,4.396557807922363281e-02,9.588421136140823364e-02,5.960823968052864075e-02,-6.870609521865844727e-02,6.732109002768993378e-03,1.020390614867210388e-01,5.102716758847236633e-02,7.659655809402465820e-02,-7.655702531337738037e-02,3.833973035216331482e-02,7.341700792312622070e-02,-3.648035600781440735e-02,-1.343058794736862183e-01,1.015050485730171204e-01,-7.875183224678039551e-02,6.779712438583374023e-02,6.445558369159698486e-02,4.821873083710670471e-02,-8.469116687774658203e-02
-2.515387348830699921e-02,1.846270449459552765e-02,6.244674697518348694e-02,1.142299547791481018e-01,-9.623536467552185059e-02,1.940009370446205139e-02,8.874067664146423340e-02,2.681579440832138062e-02,9.624865651130676270e-02,1.104035004973411560e-01,1.191892921924591064e-01,1.067844629287719727e-01,1.104017496109008789e-01,-6.660815328359603882e-02,1.230792328715324402e-01,-1.115880832076072693e-01,-1.144262924790382385e-01,7.099054008722305298e-02,4.752521216869354248e-02,-1.042276471853256226e-01,9.221972525119781494e-02,-5.303557217121124268e-02,3.221866209059953690e-04,7.362114638090133667e-02,9.724642336368560791e-02,1.035076305270195007e-01,-7.208493351936340332e-02,-1.930379308760166168e-02,6.834062188863754272e-02,-1.239867657423019409e-01,-1.749588758684694767e-03,-6.398217380046844482e-02,1.297294255346059799e-02,-2.856993814930319786e-03,1.194447055459022522e-01,1.819544658064842224e-02,1.459964364767074585e-01,9.216843545436859131e-02,-2.126204967498779297e-02,-8.863698691129684448e-02,-3.327451646327972412e-02,3.501300886273384094e-02,1.132279857993125916e-01,7.744923233985900879e-02,4.014455247670412064e-03,4.577064514160156250e-02,2.378676319494843483e-03,-6.326462328433990479e-02,3.453432768583297729e-02,-3.485082089900970459e-02,2.066581510007381439e-02,-8.640042692422866821e-02,-8.073244243860244751e-02,-2.114999294281005859e-02,8.661273121833801270e-02,6.713157892227172852e-02,4.351922497153282166e-02,-6.626384705305099487e-02,6.165408063679933548e-03,8.550082892179489136e-02,-2.772898785769939423e-02,3.735577687621116638e-02,9.461432695388793945e-02,-1.367747876793146133e-02
4.062702134251594543e-02,-1.325834356248378754e-02,6.024271249771118164e-02,-5.164775997400283813e-02,4.555867612361907959e-02,-2.512006321921944618e-03,4.542886838316917419e-02,-1.077941134572029114e-01,-7.613746821880340576e-02,-5.270618945360183716e-02,8.443829417228698730e-02,-1.724024489521980286e-02,1.209148690104484558e-01,1.026519611477851868e-01,5.744348838925361633e-02,-1.147846225649118423e-02,-5.984687805175781250e-02,-2.007885836064815521e-02,-3.928010165691375732e-02,-1.166179194115102291e-03,-1.776317507028579712e-02,-2.363486215472221375e-03,5.965223908424377441e-02,-1.021504998207092285e-01,1.799201220273971558e-02,2.144869603216648102e-02,-8.664008229970932007e-02,6.011030171066522598e-03,1.531401649117469788e-02,-7.459709048271179199e-02,-1.179672405123710632e-01,-6.302268803119659424e-02,-1.279636472463607788e-02,1.130758225917816162e-01,-2.105640945956110954e-03,-7.452122122049331665e-02,2.298199944198131561e-02,-5.989748612046241760e-02,9.939337521791458130e-02,-9.358413517475128174e-02,5.911113694310188293e-02,-1.905285380780696869e-02,1.094275265932083130e-01,-1.460775174200534821e-02,-4.773845523595809937e-02,8.280847221612930298e-03,5.324195697903633118e-02,2.236487343907356262e-02,-6.629183888435363770e-02,-9.095364063978195190e-02,-9.566873311996459961e-02,-5.118944868445396423e-02,8.315372280776500702e-03,-8.231303840875625610e-02,3.733714297413825989e-02,1.668925583362579346e-02,-5.668414756655693054e-02,-1.206234693527221680e-01,-1.252219229936599731e-01,-8.454637974500656128e-02,1.048419922590255737e-01,7.932864129543304443e-03,-5.430038645863533020e-02,-5.440142005681991577e-02
9.847543388605117798e-02,5.217613652348518372e-02,1.095012500882148743e-01,5.235045403242111206e-02,4.573676269501447678e-03,1.002582460641860962e-01,-8.976562879979610443e-03,-6.141855195164680481e-02,5.805496871471405029e-02,-9.700638800859451294e-02,8.447983860969543457e-02,-5.032417178153991699e-02,-1.006846949458122253e-01,3.818719461560249329e-02,8.049672096967697144e-02,-3.087505884468555450e-02,1.376053094863891602e-01,-4.098909348249435425e-02,-1.308450102806091309e-02,6.816338747739791870e-02,-1.506408024579286575e-02,7.220556586980819702e-02,3.525430709123611450e-02,3.468954563140869141e-02,-1.442269980907440186e-02,9.406229108572006226e-02,-1.283198297023773193e-01,-3.229127451777458191e-02,3.105434123426675797e-03,2.059864252805709839e-02,1.570370979607105255e-02,9.630923159420490265e-03,-6.465448439121246338e-02,-3.965411335229873657e-02,-2.281954884529113770e-02,-1.109214425086975098e-01,-4.151444137096405029e-02,-4.286907613277435303e-02,3.776547964662313461e-04,8.839665353298187256e-02,9.686994552612304688e-02,-6.179994344711303711e-02,7.420624047517776489e-02,-2.490694820880889893e-02,-1.226998940110206604e-01,6.908021867275238037e-02,-2.735292725265026093e-02,-2.292500343173742294e-03,5.351854860782623291e-02,9.748323261737823486e-02,-7.041075080633163452e-02,6.582159548997879028e-02,4.954652115702629089e-02,9.037113189697265625e-02,6.752992514520883560e-03,-5.299523845314979553e-02,-1.110112592577934265e-01,-2.938685566186904907e-02,7.911890745162963867e-02,1.400440372526645660e-02,3.249622881412506104e-02,-1.051241755485534668e-01,8.354087173938751221e-02,3.867517411708831787e-02
-4.606758058071136475e-02,1.862702518701553345e-02,1.241274829953908920e-02,-3.506029769778251648e-02,-5.582446604967117310e-02,5.281392857432365417e-02,4.086114838719367981e-02,-2.252163179218769073e-02,1.874150126241147518e-03,1.101206317543983459e-01,-1.016322970390319824e-01,9.689404070377349854e-02,-8.121138811111450195e-02,9.585467725992202759e-02,-6.885815411806106567e-02,1.981088519096374512e-02,2.683092094957828522e-02,-1.330777257680892944e-01,5.951199308037757874e-02,-6.527949124574661255e-02,-4.637203738093376160e-02,4.560718312859535217e-02,-7.414939254522323608e-02,1.231716647744178772e-01,9.889547526836395264e-02,5.091047659516334534e-02,-5.157608538866043091e-02,5.743404477834701538e-02,-1.235695853829383850e-01,-1.684857346117496490e-02,-4.544059559702873230e-02,1.179984062910079956e-01,-5.765251815319061279e-02,-2.738147042691707611e-03,-1.366424709558486938e-01,-1.300059407949447632e-01,-1.345534473657608032e-01,3.507435321807861328e-02,-1.433342099189758301e-01,-1.157267391681671143e-02,1.478504389524459839e-01,6.853537261486053467e-02,-1.294328272342681885e-01,-1.878294162452220917e-02,-1.929836533963680267e-02,5.515655130147933960e-02,-2.329584769904613495e-02,6.173046678304672241e-02,-1.002030353993177414e-02,-7.396570593118667603e-02,-4.126560315489768982e-02,-4.509675130248069763e-02,9.407661855220794678e-02,5.508033931255340576e-02,9.699444472789764404e-02,3.151752799749374390e-02,-2.075044624507427216e-02,-1.694308966398239136e-02,1.697567477822303772e-02,1.267930269241333008e-01,1.051205545663833618e-01,6.139278039336204529e-02,1.343279480934143066e-01,1.045390143990516663e-01
-2.127523347735404968e-02,2.698224037885665894e-02,1.321027334779500961e-02,-2.722059004008769989e-02,1.189733073115348816e-01,-1.025073081254959106e-01,1.604735665023326874e-02,1.505692023783922195e-02,-1.246668305248022079e-02,-2.626028656959533691e-02,-1.095592826604843140e-01,-1.094046533107757568e-01,-9.078306704759597778e-02,5.709469690918922424e-02,-6.694315373897552490e-02,-3.226274624466896057e-02,5.273396149277687073e-02,-1.000172197818756104e-01,1.813924871385097504e-02,-8.911805599927902222e-02,-9.776110202074050903e-02,-6.930114328861236572e-02,-1.176673844456672668e-01,1.020288839936256409e-01,1.970867067575454712e-02,-1.213418915867805481e-01,-1.135879531502723694e-01,1.012111008167266846e-01,-1.043568849563598633e-01,-3.284386172890663147e-02,-1.135077998042106628e-01,-2.898016758263111115e-02,2.688967250287532806e-02,-6.393146235495805740e-03,6.785181909799575806e-02,1.212703064084053040e-02,-1.604105718433856964e-02,4.848099872469902039e-02,-1.209975108504295349e-01,2.557326853275299072e-02,4.036491271108388901e-03,-3.708485513925552368e-02,-1.416023522615432739e-01,5.793862044811248779e-02,1.446134597063064575e-02,-9.119307622313499451e-03,1.060984581708908081e-01,3.309807181358337402e-02,-1.198059618473052979e-01,1.079095751047134399e-01,3.747190535068511963e-02,1.361002027988433838e-01,1.232820376753807068e-01,-2.434977144002914429e-02,-6.461378186941146851e-02,-1.167710348963737488e-01,6.128158792853355408e-02,4.487746953964233398e-02,-1.852129818871617317e-03,5.513512343168258667e-02,7.265879213809967041e-02,-7.421065866947174072e-02,1.335052773356437683e-02,-3.058976260945200920e-03
1.383503377437591553e-01,1.125516742467880249e-02,-1.076441332697868347e-01,-2.255117334425449371e-02,7.172032445669174194e-02,1.118348389863967896e-01,-5.831826711073517799e-04,4.011981561779975891e-02,8.173841238021850586e-02,6.434538215398788452e-02,-5.592829361557960510e-02,-1.016613543033599854e-01,-3.060904145240783691e-02,-7.960993796586990356e-02,-5.000047385692596436e-02,-7.966398447751998901e-02,7.584628462791442871e-02,3.492932021617889404e-02,-1.267861127853393555e-01,-9.616469033062458038e-03,1.269477456808090210e-01,7.854857295751571655e-02,8.204029500484466553e-02,-7.140456140041351318e-02,-8.521352708339691162e-02,5.540923774242401123e-02,3.373098792508244514e-03,5.471293628215789795e-02,8.023968897759914398e-03,2.230558358132839203e-02,-4.885498434305191040e-02,-1.721535250544548035e-02,4.093736410140991211e-02,-6.456712633371353149e-02,-5.480696633458137512e-02,-9.032878279685974121e-02,7.389392703771591187e-02,3.228762373328208923e-02,-5.831418186426162720e-02,2.355060540139675140e-02,-8.520655333995819092e-02,9.518404304981231689e-02,1.393165886402130127e-01,-1.483625173568725586e-01,1.252709627151489258e-01,-1.051543653011322021e-01,2.663835510611534119e-02,-1.096989735960960388e-01,1.031354740262031555e-01,-9.823538362979888916e-02,9.905339777469635010e-02,8.905991911888122559e-02,7.153648766689002514e-04,1.930761896073818207e-02,1.108723059296607971e-01,-1.028183549642562866e-01,8.549446612596511841e-02,1.207035928964614868e-01,-1.591544747352600098e-01,5.275111645460128784e-02,-7.452406734228134155e-02,9.525167196989059448e-02,-2.198244072496891022e-02,8.671271800994873047e-02
-7.717969361692667007e-03,-9.142404049634933472e-02,1.188706159591674805e-01,7.295030634850263596e-03,9.382518939673900604e-03,8.552630245685577393e-02,6.283392757177352905e-02,5.010859295725822449e-02,5.024937167763710022e-02,4.205039888620376587e-02,1.251912862062454224e-01,5.584911629557609558e-02,1.198409944772720337e-01,-4.343686625361442566e-02,2.374071814119815826e-02,-4.482586681842803955e-02,-1.255492866039276123e-01,5.177943408489227295e-02,-2.431096509099006653e-02,-8.182471990585327148e-02,1.287927925586700439e-01,3.186975046992301941e-02,5.591890215873718262e-02,-7.533329725265502930e-02,-1.131010204553604126e-01,5.357497930526733398e-02,-4.313339293003082275e-02,7.321538776159286499e-02,7.541754841804504395e-02,1.048116385936737061e-01,-2.226563729345798492e-02,1.015295833349227905e-02,4.072063602507114410e-03,3.149631619453430176e-02,4.442834109067916870e-02,-7.535375654697418213e-02,-5.790408700704574585e-02,-1.123918443918228149e-01,1.387856900691986084e-01,-4.663027450442314148e-02,-1.361791789531707764e-01,-1.094601228833198547e-01,4.778998345136642456e-02,-1.949798874557018280e-02,5.474760383367538452e-02,7.614295929670333862e-03,8.885557949542999268e-02,-8.401035517454147339e-02,-8.411968499422073364e-02,-1.187770664691925049e-01,-4.151619225740432739e-02,4.038433730602264404e-02,4.197463765740394592e-02,4.404686391353607178e-02,-2.884157560765743256e-02,7.831141352653503418e-02,9.524942934513092041e-02,1.827845722436904907e-02,3.612798452377319336e-02,-9.130923449993133545e-02,-1.604424417018890381e-02,-2.791327796876430511e-02,-8.279383182525634766e-02,7.908414304256439209e-02
3.183778002858161926e-02,-8.363107591867446899e-02,1.475193817168474197e-02,6.502266973257064819e-02,-2.035542763769626617e-02,-6.701862066984176636e-02,1.392740756273269653e-02,-9.285282343626022339e-02,-4.083794355392456055e-02,-3.931932151317596436e-02,-1.030216440558433533e-01,3.992143552750349045e-03,5.877645313739776611e-02,8.239021897315979004e-02,-6.370726227760314941e-02,-2.771069295704364777e-02,1.318234391510486603e-02,-1.155514046549797058e-01,3.810749202966690063e-02,3.103932552039623260e-02,4.799873754382133484e-02,-5.585347115993499756e-02,-8.645354956388473511e-02,6.275162845849990845e-02,1.178214102983474731e-01,-1.501592397689819336e-01,-1.158696189522743225e-01,1.292650401592254639e-01,-2.918366342782974243e-02,-6.805354356765747070e-02,-1.179430261254310608e-01,4.645563662052154541e-02,1.350197754800319672e-02,1.808602809906005859e-01,-4.382831603288650513e-02,-6.486527621746063232e-02,-1.449723094701766968e-01,-1.383041888475418091e-01,-1.383603960275650024e-01,-5.821111425757408142e-02,8.614701777696609497e-02,7.972580194473266602e-02,-1.116396039724349976e-01,6.103265564888715744e-03,-5.782227590680122375e-02,4.060542676597833633e-03,1.476422604173421860e-02,-2.205646596848964691e-03,4.909839481115341187e-02,5.780881270766258240e-02,-2.287346124649047852e-02,1.022332627326250076e-02,2.293927967548370361e-02,7.249030470848083496e-02,5.981155484914779663e-02,1.089036464691162109e-01,6.036363542079925537e-02,-3.707748651504516602e-02,-4.946415126323699951e-02,-6.925599277019500732e-02,1.394089609384536743e-01,-6.714448332786560059e-02,1.312168240547180176e-01,-1.182947307825088501e-01
-4.596037417650222778e-02,1.328556686639785767e-01,1.247714310884475708e-01,5.133445188403129578e-02,-4.762365296483039856e-02,1.221057586371898651e-02,-6.441554427146911621e-02,9.330853074789047241e-02,6.960462778806686401e-02,-3.347910195589065552e-02,5.385285988450050354e-02,6.028311327099800110e-02,3.717755526304244995e-02,-7.643897086381912231e-02,-1.087061539292335510e-01,1.043457835912704468e-01,-2.796494401991367340e-02,-7.349573075771331787e-02,1.525678206235170364e-02,1.247159857302904129e-02,9.596517682075500488e-02,-1.023783907294273376e-01,3.952065482735633850e-03,-4.605339467525482178e-02,-4.040459170937538147e-02,-1.120034009218215942e-01,-9.364815056324005127e-02,9.593218564987182617e-02,1.223955885507166386e-03,-8.278827369213104248e-02,7.864237576723098755e-02,5.414945259690284729e-02,1.199939660727977753e-02,6.177068874239921570e-02,-1.234333068132400513e-01,8.691671304404735565e-03,-1.207891032099723816e-01,-8.455882966518402100e-02,-8.660139888525009155e-02,-6.038750987499952316e-03,-6.837059557437896729e-02,-4.573504254221916199e-02,-7.972363382577896118e-02,7.011053711175918579e-02,-9.932136535644531250e-02,-7.757750153541564941e-02,1.181185841560363770e-01,-9.021147340536117554e-02,1.088491082191467285e-01,1.138167157769203186e-01,4.420066252350807190e-02,8.496946096420288086e-02,6.444878131151199341e-02,-4.335760138928890228e-03,-3.831711784005165100e-02,-3.650456666946411133e-02,2.130741626024246216e-02,-5.700484663248062134e-02,-1.085846424102783203e-01,-1.035016104578971863e-01,3.598379343748092651e-02,-9.967633336782455444e-02,-1.114584282040596008e-01,-2.330348640680313110e-02
1.039282009005546570e-01,-1.598964780569076538e-01,8.356213569641113281e-02,-1.386082321405410767e-01,-4.257712513208389282e-02,8.088139444589614868e-02,1.206398233771324158e-01,-1.499531269073486328e-01,-1.894153952598571777e-01,-6.864749640226364136e-02,-5.365008115768432617e-02,2.759936638176441193e-02,5.001172795891761780e-02,7.278081029653549194e-02,5.313586443662643433e-02,-1.742674112319946289e-01,-1.255042105913162231e-01,5.820403620600700378e-02,-1.413627415895462036e-01,1.681404747068881989e-02,3.604021668434143066e-02,8.484461903572082520e-02,4.794311150908470154e-02,-1.333894114941358566e-02,7.579156756401062012e-02,9.618809074163436890e-02,-7.012501358985900879e-02,-2.411362901329994202e-02,-7.702716439962387085e-02,-5.173913389444351196e-02,-4.042428359389305115e-02,4.958064481616020203e-02,1.330875456333160400e-01,-1.402418129146099091e-02,7.086289674043655396e-02,-7.919011265039443970e-02,5.797270685434341431e-02,6.379737984389066696e-03,1.018021777272224426e-01,-9.908353909850120544e-03,-5.643977224826812744e-02,-7.002438604831695557e-02,1.991707682609558105e-01,-1.105056852102279663e-01,1.404920816421508789e-01,8.732939511537551880e-02,-1.479987949132919312e-01,-1.438924670219421387e-01,-4.737389739602804184e-03,-7.706399261951446533e-02,-1.646088436245918274e-02,-2.069747447967529297e-02,-1.508178859949111938e-01,-1.021667495369911194e-01,1.316552516072988510e-03,3.723661974072456360e-02,5.314777046442031860e-02,1.555686295032501221e-01,-1.068879589438438416e-01,-4.339626431465148926e-02,-2.095214650034904480e-02,1.858213171362876892e-02,-7.598500698804855347e-02,4.433552268892526627e-03
