6.321763992309570312e-02,-1.155638620257377625e-01,-1.175274401903152466e-01,1.333213597536087036e-01,6.699229776859283447e-02,-8.503663539886474609e-02,1.408852189779281616e-01,-8.996510505676269531e-02,-6.240647286176681519e-02,-1.638193428516387939e-02,1.128252074122428894e-01,-4.762315656989812851e-03,-8.998920768499374390e-02,8.156434632837772369e-03,6.314802914857864380e-02,5.161934345960617065e-02,-9.354584664106369019e-02,-7.501989603042602539e-02,8.055900782346725464e-02,-2.205768367275595665e-03,2.124000713229179382e-02,9.976783394813537598e-02,1.101711913943290710e-01,5.010784789919853210e-02,-1.032221913337707520e-01,-2.977542579174041748e-02,-1.225891187787055969e-01,5.899463221430778503e-02,-5.949745327234268188e-02,1.444201916456222534e-02,1.122321411967277527e-01,-5.948820710182189941e-02,3.745951876044273376e-02,8.276548981666564941e-02,-5.201948806643486023e-02,3.207828477025032043e-02,8.319082111120223999e-02,-8.533672243356704712e-02,-2.401567436754703522e-02,1.089948788285255432e-01,4.555112496018409729e-02,1.018608361482620239e-01,2.451989240944385529e-02,3.792200982570648193e-02,7.939140498638153076e-02,-2.492165565490722656e-02,1.286039799451828003e-01,1.048499941825866699e-01,1.315182149410247803e-01,7.295453920960426331e-03,-1.088652163743972778e-01,-6.187967583537101746e-02,5.650131776928901672e-02,8.690757304430007935e-02,-1.021832972764968872e-01,-4.373330250382423401e-02,-1.483376044780015945e-02,-7.958249747753143311e-02,-4.284159094095230103e-02,-7.709077745676040649e-02,-9.953974932432174683e-02,-2.386612258851528168e-02,-5.022847652435302734e-02,1.348316967487335205e-01,3.943764790892601013e-02,7.288942486047744751e-02,1.153852697461843491e-02,-4.078194126486778259e-02,-1.563934236764907837e-02,7.099732756614685059e-02,2.081707864999771118e-02,-1.154108904302120209e-02,-7.491766661405563354e-02,9.604825079441070557e-02,4.348262026906013489e-02,3.527284041047096252e-02,-3.749955445528030396e-02,-1.072640866041183472e-01,3.061436582356691360e-04,-8.571612834930419922e-02,1.550154876895248890e-03,1.008306220173835754e-01,-2.732967259362339973e-03,4.468399286270141602e-02,5.875767394900321960e-02,-1.180551350116729736e-01,-4.904532060027122498e-02,9.732209146022796631e-02,-6.680618226528167725e-02,-3.915542364120483398e-02,-5.547037720680236816e-02,1.192962452769279480e-01,-1.183815002441406250e-01,-7.801956683397293091e-02,-1.197739467024803162e-01,-7.716377079486846924e-02,-1.143893152475357056e-01,6.026600021868944168e-03,-7.521419227123260498e-02,-1.045501604676246643e-01,2.026861347258090973e-02,1.046805381774902344e-01,6.787288933992385864e-02,1.205258369445800781e-01,1.038654670119285583e-01,-3.246413171291351318e-02,-9.787290357053279877e-03,8.191981911659240723e-02,4.443043097853660583e-02,3.643076121807098389e-02,-1.009365543723106384e-01,1.230951771140098572e-01,-9.055089950561523438e-02,1.465830300003290176e-02,-3.628319129347801208e-02,6.367008388042449951e-02,4.606824740767478943e-02,8.115499466657638550e-02,8.703194558620452881e-02,6.559758633375167847e-02,-4.051902145147323608e-02,5.933684855699539185e-02,7.713873684406280518e-02,-2.363226003944873810e-02,7.405292708426713943e-04,-5.079251155257225037e-02,-5.624851584434509277e-02,7.610259205102920532e-02,-1.349349170923233032e-01,1.038796082139015198e-01,5.567079409956932068e-02,4.544950649142265320e-02,-2.178139425814151764e-02,-4.357038810849189758e-02,-8.500307798385620117e-02,1.039302796125411987e-01,-6.686680018901824951e-02,-7.546932250261306763e-02,8.703239262104034424e-02,1.663517020642757416e-02,9.535660594701766968e-02,-9.971492737531661987e-02,6.104431115090847015e-03,8.428862318396568298e-03,-8.164674788713455200e-02,-1.098967492580413818e-01,-8.897013217210769653e-02,1.294681876897811890e-01,9.867694228887557983e-02,2.122620493173599243e-02,4.021785408258438110e-02,6.343216449022293091e-02,-1.408127043396234512e-02,3.624337911605834961e-02,-7.760164141654968262e-02,6.657252460718154907e-02,4.163201525807380676e-02,-9.375081211328506470e-02,-1.376491039991378784e-01,7.449937518686056137e-03,1.145791076123714447e-02,2.206431701779365540e-02,8.015665225684642792e-03,-7.569171488285064697e-02,-4.998646327294409275e-04,-1.156592518091201782e-01,-1.049410849809646606e-01,-8.703377097845077515e-02,1.597806066274642944e-02,1.935900887474417686e-03,8.469986170530319214e-02,7.582895457744598389e-02,-4.974142648279666901e-03,-8.649086952209472656e-02,5.789151042699813843e-02,-6.090725306421518326e-03,9.038864076137542725e-02,8.753076940774917603e-02,7.343210279941558838e-02,-4.957127571105957031e-02,-6.556801497936248779e-02,-9.421125799417495728e-02,1.131208911538124084e-01,-6.442936509847640991e-02,-4.498503357172012329e-02,8.408996462821960449e-02,5.787198990583419800e-02,1.072688922286033630e-01,-8.318632841110229492e-02,7.578894495964050293e-02,4.913041368126869202e-02,-6.911244709044694901e-03,-8.978774771094322205e-03,2.395247481763362885e-02,-4.200679808855056763e-02,5.593056231737136841e-02,-3.956049308180809021e-02,-9.154473990201950073e-02,1.639468595385551453e-02,3.261042002122849226e-04,1.015253141522407532e-01,-3.127998113632202148e-02,9.725182503461837769e-02,1.016696840524673462e-01,-4.520390648394823074e-03,8.807292580604553223e-02,1.503988355398178101e-01,-1.043092086911201477e-01,-7.680727541446685791e-02,6.659360229969024658e-02,-1.126601547002792358e-02,2.925630472600460052e-02,6.689091771841049194e-02,-8.017941378057003021e-03,-1.231737062335014343e-01,2.843194641172885895e-02,1.038734242320060730e-01,-7.275073230266571045e-02,-5.764453113079071045e-02,4.340915381908416748e-02,-1.091919466853141785e-01,-6.263572257012128830e-03,-8.006873726844787598e-02,1.173479259014129639e-01,-5.376197397708892822e-02,1.232433170080184937e-01,1.055902913212776184e-01,-1.136487163603305817e-02,5.381546914577484131e-02,-1.547233480960130692e-02,1.052712947130203247e-01,1.030597537755966187e-01,-1.145157739520072937e-01,6.502559781074523926e-02,-3.075620904564857483e-02,8.282724022865295410e-02,9.867030382156372070e-02,-9.409181773662567139e-02,7.096788287162780762e-02,6.539529561996459961e-02,4.121309891343116760e-02,-9.933615475893020630e-02,-2.429664880037307739e-02,7.937627285718917847e-02,-7.872682064771652222e-02,-3.187588229775428772e-02,1.042266339063644409e-01,7.543878257274627686e-02,3.251164779067039490e-02,1.196939870715141296e-02,1.111795231699943542e-01,7.977786660194396973e-02,-9.347201883792877197e-02,3.608784824609756470e-02,4.151167720556259155e-02,-4.200465604662895203e-02
