shape,"(512,)"
-0.050720073
-0.032354288
-0.037164703
0.110733084
0.0677072
0.052200984
0.122269146
0.0016479953
-0.008260933
-0.015273684
-0.038776748
-0.04351543
0.048336063
-0.071578436
0.081691526
0.095704444
0.00034025192
0.058947764
-0.09634469
0.104297176
-0.008722241
-0.06391156
0.04415406
-0.0336136
0.08428719
0.02486753
0.09516185
0.103457786
-0.075313866
0.052336518
-0.11692112
-0.095207594
0.11504877
-0.035271384
-0.057587534
-0.0055988515
0.030505927
-0.10685795
-0.0872738
0.021276124
-0.009295785
-0.01765456
-0.11937352
-0.099240854
-0.021176266
0.04610619
0.058090102
0.0070863725
-0.04854073
0.038698047
-0.07975301
0.014468762
0.06054972
0.062320173
-0.095343344
-0.09910819
0.07460852
-0.038356666
-0.059782792
0.12885794
0.10258002
0.09460188
-0.01091801
0.12829444
0.09008699
0.12134069
-0.10147483
0.11589574
0.100131154
0.00873639
0.009773908
-0.03363175
0.03243818
-0.03178949
-0.10577262
-0.039011963
-0.028920064
-0.10937401
0.03741251
0.03746696
-0.004939384
-0.046123132
-0.082615435
0.043623034
-0.07013351
0.09153217
-0.049452327
0.10648237
-0.026381167
0.109681465
-0.07317425
-0.028317792
0.06058366
-0.0015366535
0.0055831377
-0.13015349
0.0023361081
0.11092916
0.07634375
-0.049181823
-0.10088259
0.01591113
0.104708016
0.058827147
-0.081160545
0.042510185
-0.14262095
0.095237374
-0.030906344
-0.090699986
0.010636137
-0.1254445
0.120982856
-0.12219374
0.06846216
-0.12123318
-0.043894783
-0.026001427
0.022775406
-0.07777768
-0.052571103
0.09500846
0.03536988
0.018000748
0.03151133
-0.122560956
0.034475636
-0.08736874
-0.10156699
-0.07093237
-0.09763922
0.005449058
-0.004153938
0.011720729
-0.0022266132
0.04415113
-0.029219534
0.105245225
0.09291139
0.07706114
-0.095360965
0.026819048
0.04110669
0.031873308
-0.010629063
-0.030606095
0.10087704
-0.06573032
-0.06253274
0.04191449
-0.006995991
-0.08568331
0.117157154
-0.049590804
-0.022650028
0.124487996
-0.034175996
0.0959292
0.021954332
0.10832744
-0.013347743
0.032665763
0.014601197
0.08392736
-0.05791521
0.107611
0.076588556
0.054127954
0.13252842
-0.039060816
0.029010957
0.005182046
0.02652722
0.052912176
-0.09599731
-0.0019522104
0.022920437
-0.07061075
-0.10955855
0.03230273
0.010775408
0.039761607
-0.016964747
0.044725645
-0.026459157
-0.014073237
-0.018249828
0.042467196
-0.012644569
0.0050946083
-0.090625286
0.1015187
0.05063901
-0.044103336
-0.089052595
0.08337546
0.053178664
-0.10789471
-0.031952653
-0.0061706123
0.028809154
-0.10545215
-0.049454965
-0.09532926
-0.072461285
0.10139538
0.0907912
-0.008325001
-0.04705046
0.042235672
0.08652706
-0.08517576
0.014217646
-0.052117903
0.019043487
-0.0861209
0.054727864
0.070878185
-0.096807
-0.085315645
0.094378956
0.05016776
-0.02279674
-0.022508107
0.117321305
0.07159522
0.023090899
0.044244204
-0.08653288
-0.08317202
-0.040783994
0.057414547
-0.05984919
-0.08876458
-0.111569166
-0.08664561
0.07568974
0.00080786686
0.051697135
-0.094034605
0.024716802
0.11639474
-0.07638695
-0.06808817
-0.0069701397
-0.056751397
0.041508775
-0.087179445
-0.050243884
0.029599063
-0.11675085
-0.012228958
-0.11837781
-0.07548344
-0.035433255
0.09256338
-0.05564421
-0.037846293
-0.019492809
-0.04289202
0.09968007
-0.03826278
0.07517787
0.026376856
0.09674252
0.06600023
0.071886376
-0.055225782
0.10499993
0.07563723
-0.058967527
-0.09250943
0.06741158
-0.09854639
0.08421246
-0.024552008
-0.1062808
-0.11933037
0.015025675
-0.10988288
0.10021841
0.012926723
0.03023652
-0.08053375
-0.03070932
0.030945705
-0.024087429
-0.09702502
0.07151723
-0.0066307946
0.045160513
0.09161591
0.118342206
-0.12479263
-0.10290322
0.06652824
0.11874854
0.11442242
-0.03715312
0.047829803
-0.047845177
0.015772076
0.10592847
-0.0233355
-0.029217537
0.024737196
0.028661767
0.0105666425
-0.013283994
-0.09001168
0.12370234
-0.018194174
0.09820656
-0.073968545
0.09524654
0.07637455
-0.03820235
-0.12237573
0.0510948
0.03627773
-0.02513299
-0.07040465
0.01864136
-0.046351135
0.0110768005
-0.06285839
-0.053326465
-0.006511304
0.13790964
0.011307428
0.09168812
0.056500215
-0.048757426
-0.11319135
0.018945493
-0.09286841
-0.06094257
0.04662449
-0.07133597
0.082200155
0.0151563855
0.061865877
0.022396205
-0.05053463
-0.022140322
0.034427788
-0.02232494
0.068702586
0.08719714
0.020970702
-0.043690532
-0.066122755
0.12075515
0.10963743
0.01676373
-0.040309828
-0.043381996
-0.11544517
0.0513528
0.05813132
-0.11834952
0.09351936
-0.091146715
0.059689213
-0.10916028
-0.11047385
-0.026545092
0.12125532
-0.027336497
-0.0036324412
-0.091363035
0.060579255
0.04102837
-0.10331577
0.07809927
-0.07354982
-0.10191671
0.013765372
-0.0030157494
0.02814353
-0.015251095
0.02145411
0.070541516
-0.05842416
-0.016516997
-0.058985777
0.019273128
-0.0407351
0.04179817
0.11488923
-0.053997654
0.10084487
0.0138703305
-0.0743109
-0.11690697
-0.0076384726
-0.016830636
-0.01514878
-0.06458427
0.026429078
-0.064151965
0.038717378
0.031210179
0.12880886
0.028258968
-0.074658714
-0.034948338
-0.12783466
0.10189299
-0.013876688
0.08443846
-0.025195753
0.054474305
-0.10020121
0.04083938
-0.076514296
0.09612262
0.12063749
0.019933881
0.009915554
-0.048997063
-0.033903662
0.043289755
0.037257183
-0.07809708
-0.029457012
-0.057381704
-0.099749796
0.0577172
-0.08779144
-0.11221095
0.055112164
-0.070463665
-0.05183038
0.03391826
0.10271152
0.042634577
0.08165852
-0.022944046
0.024220275
0.04318893
0.11191959
0.04703914
0.01668172
0.048962455
0.011546961
-0.036441743
-0.09347682
0.105246946
-0.101743
0.018393474
-0.04808829
-0.13262667
-0.04176357
-0.061037872
0.010002519
-0.07279229
0.03206507
-0.12775214
-0.0459015
0.00518023
-0.023064418
-0.12849474
-0.09197881
0.06124613
-0.03695549
-0.094065435
0.1299156
0.075545266
-0.110295884
0.100081116
0.09902465
0.074328884
-0.06567046
0.089275606
-0.016180802
-0.07801157
0.074455515
0.0949764
-0.042177394
-0.013556289
-0.022150092
-0.108958736
0.04915599
-0.0007696829
0.09331034
0.018537935
0.04947318
0.11090267
-0.10291095
-0.07357624
-0.0055414755
0.03525636
0.097336635
0.003508148
0.1214009
-0.06791434
0.0071748802
0.09498
0.12688787
-0.010914327
-0.028976155
-0.013198877
0.09256978
-0.091957256
0.12911378
0.034665074
0.07246014
-0.06861522
0.07987403
0.08443684
-0.120571874
