shape,"(256, 64)"
-0.05602854,-0.04308965,-0.16541544,-0.061591975,-0.035230715,0.017964417,-0.03700332,-0.11741047,-0.12966025,0.16235863,0.09572976,-0.16052447,-0.18405974,0.010209506,0.0048957313,-0.090532936,-0.085415766,0.024345938,-0.032439116,-0.038485065,0.13071707,-0.069011346,-0.13245085,0.0037926736,0.04630216,0.11434212,-0.06837568,-0.07864274,-0.013865615,-0.14948367,0.060531016,0.12853013,0.02433465,0.047214694,-0.13154364,0.06439061,0.12266018,-0.06719829,-0.1213768,0.11156357,0.072227396,-0.1078962,-0.049501244,-0.036232963,-0.15077323,0.09624074,0.005803767,0.07919275,-0.100793876,-0.051210795,-0.0020551367,0.026373494,-0.10284513,-0.09831708,-0.078283034,-0.0628757,-0.054687314,-0.086164616,0.12041985,0.047840994,-0.0116238,0.0023308601,0.13487758,-0.0038352106
-0.00504034,0.13608417,-0.03742848,0.1128249,0.14039935,-0.06454377,-0.13737981,0.096576914,-0.043058973,0.14530557,0.06619084,-0.06517495,-0.06285735,-0.08490117,0.048821025,-0.00028236932,-0.045178615,-0.012968554,0.013519802,-0.09171875,-0.09350651,-0.026535867,0.101037346,-0.031939078,-0.1245493,-0.086232156,-0.03370415,-0.0025948675,-0.1338619,-0.08751951,-0.1157763,-0.13021035,0.02233178,0.013749715,0.07385403,0.09804508,0.09756585,0.086033896,0.048022624,0.0027468519,0.108980626,0.08924843,0.0871968,0.06815674,-0.0038237998,0.07444187,0.0541012,0.08519248,0.060646106,0.060284384,-0.024981644,0.101181634,0.12591887,-0.044276133,0.010584118,-0.025279546,-0.066828705,-0.057499815,-0.025782939,0.036582924,0.06278332,-0.11251323,-0.0343169,0.108763546
0.18193549,-0.048704773,-0.13875677,0.04109742,0.1414542,-0.087266065,-0.091321185,0.02291155,0.047678154,0.073655136,0.080096364,-0.11087414,-0.23175722,0.010183758,0.092415,0.13340122,-0.06835439,-0.07877585,-0.10889069,0.09156957,-0.09573949,-0.00902876,-0.053306762,-0.22477955,0.0065858173,-0.11632037,-0.045500897,-0.021330712,-0.100865126,-0.09429789,-0.08813752,0.07988652,-0.117139965,-0.10124592,0.07560907,-0.12913501,0.020506471,-0.059071843,-0.1497872,-0.044737,0.07391974,0.05443005,-0.01202996,-0.123242326,-0.017548092,-0.12120474,-0.085284986,0.1255165,0.09838657,0.017741248,-0.16066705,0.15358911,-0.08203927,-0.1467368,0.08054408,-0.105488904,0.069662385,0.10917736,0.120667085,0.046349593,0.058580965,0.13231698,0.012377698,-0.02455882
0.048952058,0.00659508,-0.052678872,-0.09438002,0.15446286,0.029410927,-0.09569904,-0.15290347,0.10797959,0.18239653,-0.051396597,-0.14487346,0.02496747,0.07485659,-0.05260184,0.05389459,0.15161036,-0.017428396,0.07294752,-0.061376404,0.09067045,0.011867925,-0.059163846,-0.08304995,0.00852333,-0.08987118,-0.072956964,0.12754144,-0.0050476217,-0.094835006,-0.11588606,0.11428431,-0.13039504,-0.1651588,0.021277092,0.074788235,0.04659969,0.03639215,0.06605149,0.14079204,0.1486577,-0.13350242,0.06343257,-0.02152351,-0.1336521,-0.05653341,-0.11986393,-0.010528485,-0.04092409,-0.03412681,-0.12313146,0.10512937,0.09974854,-0.20055947,0.16606879,-0.005156243,-0.12588689,-0.042174034,-0.055358414,0.06525223,-0.14037779,-0.1513102,0.01783433,-0.079970986
-0.021562343,0.081279375,-0.08214873,0.042001918,-0.05543293,-0.10283053,-0.08957927,-0.11604615,0.02097754,0.029425059,-0.08397324,-0.16416621,-0.028249588,0.10251589,-0.008463741,-0.0734261,-0.027713431,-0.09128358,-0.055884026,0.08855931,0.115601785,0.028624732,-0.013466909,-0.12301765,0.007067276,0.09370277,0.04459309,-0.003778922,0.050103966,-0.11375774,0.019136572,-0.06925311,-0.10845117,-0.08405568,0.065792166,0.02003267,-0.083644934,0.13229838,-0.09172218,0.042122476,0.009761426,-0.1395661,-0.03078645,0.056791868,-0.11493229,-0.03992439,0.10572633,0.07294344,-0.04629275,0.082754016,-0.1331251,-0.05125523,0.07864336,-0.15442243,0.023079943,-0.037313376,-0.06260278,-0.14552762,0.043574516,-0.07906185,-0.046076655,-0.0130193485,0.13821162,0.021506289
0.02126712,-0.021397566,-0.14786425,0.025001336,-0.085677005,0.0895205,0.07755705,-0.012521748,0.002442946,0.06635317,-0.00722694,-0.0711974,0.02649552,0.040936347,-0.033834174,0.11129638,0.010911965,0.008685053,-0.0984854,-0.09202661,-0.014540008,0.0581246,0.014483333,-0.043695677,0.016428044,-0.048906177,0.04168445,-0.057369307,-0.006274885,-0.063191935,-0.08037876,-0.020319602,0.029952329,0.058836967,0.083292075,0.056988187,0.079019435,-0.061766285,0.06567299,-0.009142443,-0.039113168,-0.102765895,0.107238136,0.04116636,-0.06640846,0.07019567,0.03186297,-0.053059645,0.03594578,-0.12990509,-0.10477637,-0.09374263,0.122332595,0.03754754,-0.012490272,0.06676868,-0.025283577,-0.097660094,0.116297334,0.067856096,0.058445554,-0.051543258,0.11102474,-0.048452962
0.28673527,0.041249085,-0.16074657,0.13738133,0.14863107,0.08345625,-0.20618309,-0.114889465,-0.081215836,0.27301368,-0.05659378,-0.102964014,-0.31026253,0.103591226,-0.0411296,0.08118769,0.1313686,0.0637352,-0.08051926,0.10756628,0.18594201,-0.12979415,0.06362389,-0.37152028,0.013468724,-0.04830996,-0.14303572,0.039156128,-0.18521595,-0.05600718,-0.1927315,0.040181566,-0.13456957,0.049883507,-0.031052187,-0.26002887,0.036397114,-0.10331514,0.021829778,0.16868982,-0.07915523,-0.07274352,0.09952117,-0.09636896,-0.2539814,-0.1789698,-0.05188859,0.060671657,-0.025854014,-0.0011224904,-0.11897723,0.050103992,0.013726721,-0.2652695,0.14127707,-0.036862507,-0.003920751,-0.12417107,0.08845754,-0.19257744,-0.08996399,0.049177103,0.12355416,-0.11071075
0.08410639,-0.022310464,0.06437096,0.05700483,-0.059798207,-0.0062593585,-0.06597293,0.110091776,-0.10101164,-0.057142027,0.06238265,0.12832539,-0.017262448,0.07617266,-0.06760109,0.11206779,0.05274526,0.10618756,0.080513716,0.070729665,0.03919771,0.11858464,-0.0069233747,-0.053629234,-0.09565518,0.0029653802,0.086013585,0.07874196,-0.10106388,-0.046484996,-0.082248166,0.057780925,0.09949781,0.013966626,-0.01921215,-0.05444895,-0.107829146,-0.08781789,0.09890647,-0.15056346,-0.085350946,-0.0029473756,0.00760219,0.09979645,-0.1701015,-0.08757208,-0.028748745,-0.07682665,-0.13036944,-0.061472245,0.024416953,-0.10944027,-0.13412927,0.022299552,-0.07694137,0.11856144,0.050866585,-0.009301758,0.08953633,0.032460526,0.071331754,-0.08625307,-0.094386026,-0.07026185
-0.08760328,0.02505711,0.040325254,0.09490959,-0.038606636,0.10988788,-0.085452154,-0.074497715,-0.092687644,-0.070782244,0.04585504,-0.004413041,0.03433712,0.056804795,-0.065566234,-0.067222856,0.09890895,0.13404134,0.012546384,0.068513714,-0.005667827,0.116839595,0.08377207,-0.011107897,-0.118320376,-0.041462224,0.001161025,0.108420804,-0.0067945076,-0.07550951,-0.00035443986,-0.07951824,0.121100344,-0.07959284,-0.0053392225,0.06943968,-0.04787529,-0.056575455,-0.0466774,0.012456873,-0.0007858946,-0.021757517,0.06357613,0.018023811,-0.10346197,-0.06138577,-0.02803812,-0.08006811,0.086665496,-0.11755756,0.01796318,0.019086407,-0.033775236,-0.14126621,-0.11750657,-0.030533362,0.09459836,-0.009058235,-0.06863789,-0.0437974,0.08443264,0.10249397,0.028180225,-0.054714363
0.12662794,0.11445624,0.017794589,-0.06347194,0.12360724,0.1265826,0.07411033,-0.10887146,0.09135148,-0.04939176,0.12431776,-0.14356771,-0.11515582,-0.038786698,-0.05798248,0.0001569645,-0.064056255,0.0053224512,0.024430498,-0.06198442,-0.07470817,-0.1298535,-0.006691551,-0.10295578,-0.044602536,0.013269254,0.043146618,-0.06829746,0.0220534,0.0432138,0.03519234,0.07823561,0.09205283,0.008558987,0.12631187,-0.029163284,0.074859716,0.103849314,-0.03019582,0.14038925,-0.032857172,-0.09933928,0.0059999824,0.057687264,-0.06155293,-0.08008549,-0.011602498,-0.015545895,-0.021364465,-0.083454475,0.007506542,-0.06899922,0.06996239,0.06426774,0.0020795264,-0.09681132,-0.049538173,-0.020971335,-0.029346125,0.024296524,0.067611225,-0.055936478,-0.033794202,-0.043228947
0.23555501,0.18098168,-0.2617592,-0.00041727826,0.065450706,-0.054047614,-0.049238607,-0.08091465,0.040856477,0.21373667,0.14613822,-0.10212515,-0.27809644,0.002133987,0.061529115,-0.022998406,0.043440897,0.19130486,0.0345826,0.015871827,0.07673063,0.08723961,-0.08383134,-0.27259794,-0.16506727,0.06855289,-0.08890307,0.10864733,-0.28098756,0.110494606,-0.19820751,-0.06517162,-0.19168112,-0.15793297,-0.039011143,0.028310305,0.003067126,0.064523414,-0.08622054,0.1373202,-0.0010526458,-0.0002727168,-0.09332671,-0.19413269,-0.11843608,-0.18876241,0.050237454,0.041225925,0.14817107,0.07181968,-0.21259855,0.031848982,0.11503331,-0.16401693,-0.018169735,-0.0842819,-0.118765436,-0.09686938,0.16835926,0.004669735,-0.12313991,0.030846402,0.15639797,-0.14527173
0.09430145,0.11268309,0.041817702,0.093906164,0.015355999,-0.05187512,-0.11762815,0.010228239,-0.011893714,0.022874197,-0.012396818,-0.025726682,-0.06726559,0.036675695,-0.07889798,0.110398725,0.14416109,-0.08066091,0.010795532,0.13558897,-0.10422849,-0.011282044,0.13219838,-0.06829515,-0.1089516,0.06686208,-0.1175014,0.075744934,-0.06013272,0.047502045,-0.13630038,0.24049595,-0.03509093,0.047680646,0.0553568,-0.2001554,-0.09227891,-0.068688616,-0.05418717,-0.08831851,-0.07844435,-0.01354658,-0.11995349,0.09758336,-0.14692234,-0.03633749,0.09327873,-0.085664526,-0.05368192,-0.03404619,0.044303592,0.12176419,0.07329392,-0.15321414,-0.08335994,-0.076091975,-0.01803927,-0.011210997,-0.034232017,0.0898442,0.10808883,0.08074476,0.102145344,-0.109125376
-0.05595228,-0.038266394,-0.11471783,-0.0012784533,0.08322152,-0.0044012056,-0.12017482,-0.08279672,0.010400702,-0.056172755,0.116382755,-0.07854868,-0.16951858,0.1574532,0.03500651,-0.059629653,-0.035195872,-0.0051850574,0.015421894,-0.0069049164,0.04195072,-0.06245528,-0.03166529,0.03163927,-0.14742562,-0.09787721,0.05813067,-0.022169515,0.016400166,-0.13794482,0.03842735,0.0299552,-0.09470532,-0.10829077,-0.024182593,-0.0867583,-0.007998269,0.10770756,-0.037908792,-0.0644413,-0.04033825,0.024024427,-0.07108939,-0.035336766,-0.0227473,-0.08469369,0.027168022,0.056011945,-0.09546811,-0.07288914,-0.06996133,-0.052010234,-0.069022894,-0.111693054,0.019258987,0.021989396,0.08167341,-0.015131798,0.030919433,-0.056964636,0.09513902,-0.103079714,0.037272576,-0.006906207
0.021682238,-0.06313167,0.067402944,0.04505805,-0.080378845,-0.008602961,0.053245764,0.03618097,-0.07050064,0.13383578,-0.09201975,-0.07690351,-0.073197104,-0.07898861,0.059747133,0.12563811,0.07541898,0.0032172876,0.10667447,-0.03933468,-0.053086575,0.06291079,0.030589433,0.020148389,0.08682575,-0.05648153,0.12682512,-0.012211353,0.027802205,-0.013028045,0.0042128894,-0.014567026,-0.098244116,0.079050824,0.12886694,0.014190726,-0.11793463,0.0037107382,-0.02525542,-0.007953368,0.11015525,0.12482593,-0.08127291,-0.021666363,-0.024630807,-0.049368285,-0.0014932106,0.0334838,-0.13364929,0.13338049,0.022897689,0.0486791,-0.12184347,0.060384136,0.06549016,-0.008430541,-0.097353704,0.123680204,0.07505762,0.0055264914,0.021106271,0.11254513,-0.04090778,0.10171643
0.07417097,0.06777863,-0.047733534,0.08514799,0.09088564,0.07921144,-0.06954503,-0.1511662,0.09540845,0.15572636,0.04132113,-0.12936415,-0.17219856,0.16268489,-0.07351113,-0.121065825,0.07705975,0.18519907,-0.009053631,0.015934044,0.04963733,-0.02025054,-0.1096243,-0.16167705,-0.0186835,0.0588867,-0.044764627,-0.01597522,0.016447634,0.0114162145,0.011325888,-0.06697149,-0.15960225,-0.060151394,-0.15986727,0.08725638,0.17686898,-0.03594857,-0.013695491,0.14643797,-0.09091062,0.02957108,0.08797786,-0.14076744,-0.0969377,-0.04467611,0.050051264,-0.028693682,0.03913993,0.06679554,-0.0091550285,0.16386834,0.18249929,-0.021003466,-0.05716369,0.1430365,-0.03408141,-0.045476105,0.05156142,0.034869473,0.092623495,-0.089558326,0.13883542,0.025197567
0.113105774,0.1547062,0.012030492,0.028024556,0.12899965,0.083206125,-0.13945276,0.065390825,0.08820601,-0.030180067,0.04696183,-0.1612687,-0.14450587,0.06612487,-0.031572744,-0.074762605,0.09648374,-0.06748589,-0.050574865,-0.13260314,-0.07831392,-0.06419979,0.10521659,-0.07073118,-0.08621191,-0.012817465,-0.08189714,0.018855058,0.016626189,0.03897702,0.049572896,0.111248516,-0.0678213,-0.09961775,-0.031400613,-0.03986729,0.07647482,0.022498444,-0.06248,0.16181007,0.12729818,0.05271611,0.109713204,-0.061789565,-0.17551376,-0.12536022,-0.08213134,-0.07096222,0.123018555,0.028999288,-0.15629186,-0.040007953,0.012680666,-0.15679099,0.051357318,0.10978929,-0.040100038,0.08508938,-0.02554316,0.07806124,-0.040765677,0.06421557,0.047371928,-0.022641646
0.057649687,0.024998792,-0.09724151,0.09257898,0.16221881,0.038443603,-0.1155461,0.03276608,0.026352683,-0.03338684,0.07662967,-0.22376154,-0.13444553,0.092268996,0.083470784,-0.0009296515,0.010211914,-0.09963153,-0.011169164,-0.116345644,-0.020746045,-0.06912181,-0.04008159,-0.23445445,0.02500099,-0.040840626,0.08469974,0.014682431,-0.19369999,-0.068057105,-0.14775011,-0.14488268,0.08389671,0.04652598,-0.09352887,-0.072450235,-0.07268628,0.068854384,-0.094333895,0.061986484,-0.04829407,0.07329948,0.050589964,-0.050017796,-0.07646318,0.06830534,0.06525009,0.043350186,-0.07068853,-0.13795848,-0.05267547,0.10187521,-0.088872865,-0.091137834,-0.102166995,0.038957123,-0.11243506,-0.10840749,-0.07139637,-0.029335143,0.098423734,0.07180323,0.12669104,0.08312593
-0.14275247,0.012919548,0.04748732,0.021128435,-0.14275771,0.03300946,0.16490424,-0.038267255,-0.07403262,0.012881133,-0.05604059,0.040394522,-0.035577755,0.039158847,-0.11678994,0.080407955,-0.06808034,-0.15766726,0.01464133,-0.028062848,-0.1455632,0.10784413,-0.1111452,0.07977664,-0.11750367,0.17497836,0.12660892,-0.14824522,-0.013905268,-0.031190328,0.05832174,0.021276442,0.16777219,0.00949501,0.0599288,-0.04557479,-0.014013574,-0.108006336,0.07771588,-0.080317914,-0.04929291,0.101217106,0.11808617,-0.010775874,0.07622452,-0.06933977,0.06299602,-0.024409583,0.029952735,0.06625503,0.079892755,-0.027036,-0.044705063,0.15991262,-0.0489826,-0.018069148,0.14044584,-0.0008355041,0.030538267,-0.04156176,-0.016758531,-0.033071846,-0.07386677,-0.006079778
-0.06759084,0.023569994,0.0010672901,0.023842804,0.043191355,-0.09697443,-0.080076836,-0.031068983,-0.08288793,-0.0016312809,-0.0040013585,-0.06238874,0.070034996,0.0015956492,0.08779342,-0.095183976,0.04710743,-0.06383327,-0.08732153,-0.09642395,0.0064238156,0.08046192,0.07480301,-0.12394846,0.03421443,-0.07137982,0.11181453,0.028622493,-0.018197648,0.07462921,-0.011437438,0.03147864,-0.09860434,-0.03532737,-0.031289846,0.038914084,-0.011804295,-0.10747027,-0.082924455,-0.056919955,0.04290009,0.12339375,0.037189685,0.08762274,-0.094247706,-0.042104114,0.076526016,0.013483772,0.08613452,-0.11201509,0.11800989,0.046918456,-0.06641307,0.097189754,0.07796757,-0.110000186,-0.073107794,0.12479677,0.035104442,-0.10286869,-0.0008026541,-0.025225053,-0.11678312,-0.00052853016
0.07946771,0.027159348,-0.03864378,0.10592472,-0.11025038,-0.07361427,0.013341157,-0.08895083,-0.060186077,-0.101031706,0.07774094,-0.11612994,0.01804011,-0.037279088,-0.09139961,0.09821066,0.1168898,0.043862667,0.07712976,0.04129515,0.011244456,0.097821,-0.0956816,0.081613034,0.0028881084,-0.093252085,0.0015222074,0.105113015,0.003843238,-0.0057097003,0.053555667,-0.06486738,-0.10990816,-0.02364899,-0.064629234,0.008014,0.12601724,-0.086017825,0.042321987,-0.047572482,-0.10816767,-0.08302982,-0.0924267,0.11514034,-0.078663856,0.017351827,-0.11573248,0.0663356,-0.08367663,-0.07631562,-0.102681205,-0.02495162,-0.016930168,-0.07391626,-0.01498787,-0.003586495,0.097182795,-0.0463665,-0.0015179828,0.083741575,0.08982009,-0.11427732,-0.107223585,0.016565364
0.017659139,-0.028144851,-0.057906676,0.0016766514,-0.1063408,-0.039999843,0.065450996,0.08155197,0.055934653,0.02168347,-0.048305262,0.10613088,-0.11461763,0.045352172,0.106293835,0.036257915,0.065403625,0.06754331,0.06460097,0.046224948,-0.097688526,0.03048483,0.11568407,-0.015087659,-0.100840695,-0.11053586,-0.11136948,0.110922135,0.086351715,-0.07219335,0.0991735,-0.06410831,-0.039150678,0.07931147,0.113894604,-0.029407931,0.100104675,0.028905934,-0.08177576,-0.046704974,0.115118854,0.111175016,0.07012827,0.052582867,-0.092918254,-0.04830832,-0.008890396,-0.027067771,0.013698085,-0.088142335,-0.052338906,-0.079695866,0.12698472,-0.025596637,-0.01791901,0.07359853,-0.0220664,0.12006402,0.007703961,-0.07261438,-0.051681772,-0.12348125,0.10169398,0.00020640285
0.1451969,0.060119405,-0.12903711,-0.06822932,0.08044815,0.12125609,-0.011022271,-0.22589724,0.07820972,0.0693011,0.04167006,-0.0126800835,-0.16961391,0.14256823,0.18932277,-0.08831964,-0.009028397,0.017614685,0.07015189,0.029884541,0.069925785,-0.018594315,-0.034251347,-0.06542974,-0.14321357,-0.14943023,-0.09684609,-0.061316565,-0.17894344,-0.16143686,-0.020500999,0.1747271,-0.022904608,-0.009998186,0.059652366,0.07141518,0.05552465,0.07597805,-0.086720414,0.008854545,0.11245562,-0.17198813,0.081614226,-0.11781277,-0.1723013,-0.037802197,-0.101506375,0.15277252,0.18159255,0.0012959263,-0.2087426,0.07679374,0.06469777,-0.21962611,0.15047085,0.003636282,-0.06446837,-0.055952173,0.037109092,-0.09299319,-0.07778451,-0.15140676,0.004036398,-0.15382507
0.016644035,0.05760541,-0.147061,0.101634115,0.1384261,0.014535631,0.017621718,-0.036667876,0.05644126,0.15211545,-0.050354663,-0.011134043,0.07689029,-0.07443698,-0.11770372,-0.023561252,-0.014867183,0.098874845,0.04456688,-0.00096645876,0.064833865,-0.1407858,-0.012390367,0.029422855,0.048488066,-0.08901812,-0.12947024,0.111310616,0.11238054,-0.10107092,-0.1284389,0.11865581,-0.122899994,-0.08315528,-0.11069203,0.040594418,-0.012039868,0.027386801,0.05215094,-0.06322559,-0.075575955,-0.08996386,-0.06527757,-0.07354594,-0.14039427,-0.05075989,0.06306821,0.13993391,-0.08915987,-0.04697741,-0.12217523,0.07356929,0.058312237,-0.023462543,0.15245616,0.05898894,0.058075022,0.007617495,-0.046998847,0.032713085,0.06340647,0.07081267,0.058386356,-0.015664794
0.037241515,-0.041360106,0.052691754,-0.08708208,-0.12409755,-0.017448133,-0.018426497,-0.05344536,-0.07282254,-0.06271669,-0.0015591293,0.07733084,0.043962907,0.020161683,0.018206758,-0.039679553,0.0047988547,-0.16068564,0.04565767,0.11901207,-0.09055002,-0.060493577,0.10884032,-0.016275968,-0.060792316,-0.080906734,-0.04634349,-0.024110999,-0.021847762,-0.08649732,0.080758244,-0.089344844,0.04979745,0.109779604,-0.05650939,0.03997174,0.085537575,-0.12408533,0.07594201,-0.06530925,0.079361595,-0.057622846,0.017222706,0.01333682,0.067036055,-0.09529577,-0.11062353,-0.069155276,0.05537217,0.041679848,0.026526235,-0.09400301,-0.027783006,-0.072481014,-0.09950938,-0.04424066,-0.12581694,-0.048571266,-0.03184094,0.10538992,-0.019582592,0.048891995,0.00028429407,-0.055086304
-0.12675783,0.044232402,0.21995467,-0.05171864,-0.014916426,-0.12221254,0.20802271,-0.017549347,0.08402804,-0.03845,-0.14322467,0.15386732,0.0682347,-0.06819923,-0.05124106,-0.08911127,-0.03451193,0.08097104,-0.083195776,-0.11317584,0.066020206,-0.08623413,0.12500738,0.212267,0.10493886,-0.05975177,0.065737836,-0.09502011,0.18766445,0.081482984,0.01023653,0.026198925,-0.056690242,0.007556691,0.11815019,0.12955904,-0.07401238,0.10452379,0.14616373,-0.08801917,-0.0026167552,-0.037624866,0.19833516,0.079490855,0.15630837,-0.02237574,0.060977858,-0.017756708,0.08202541,0.14098309,0.035055887,-0.0726169,0.056937657,0.03800255,-0.09577543,-0.14127626,0.022430297,0.13965203,-0.006517364,0.07922947,0.04862433,0.052688845,-0.11404517,-0.053543746
0.047255132,0.0069884066,-0.12605466,-0.006182855,0.12617144,0.05131422,-0.19133335,-0.14076665,0.045521166,0.10801141,0.05045723,-0.19358462,-0.14831656,0.0033150981,-0.007993396,0.03806484,0.108343035,0.11561596,0.11206685,-0.06170014,0.04640146,-0.014306969,-0.071516134,-0.14673008,-0.10826396,-0.123876125,-0.126268,0.18862316,-0.041734196,0.037654344,-0.10313768,0.10870703,-0.14410757,-0.021814568,0.06274068,-0.013819811,0.14412671,0.124012575,-0.06809993,0.15677091,0.0925506,-0.01212226,-0.04763965,-0.057734,-0.06631192,-0.03927438,-0.028217435,-0.05894982,-0.041015733,-0.12114046,-0.03582814,-0.0053188326,-0.039880797,-0.20604467,0.17477426,0.12903143,-0.057306167,-0.046125278,-0.07504347,-0.12467485,-0.14692393,-0.107168645,0.082291365,0.015228928
0.093840964,0.06455458,0.040493354,0.013521166,-0.046859123,-0.09329352,-0.111367986,0.10070985,0.03441236,0.081374824,-0.07146133,0.05612525,0.023061173,-0.03530602,-0.116889395,0.06359775,0.04943976,0.10477353,0.03415901,0.006427621,0.10490545,0.08136513,-0.013492336,-0.11856544,0.023372242,-0.052442335,0.07340343,0.09057434,-0.080356024,-0.082082815,-0.10547385,0.09326788,-0.073618144,0.024274321,-0.07972562,0.11216749,-0.035773806,0.05730784,0.10034262,0.012147566,0.056827776,-0.10348532,-0.062410384,-0.042069945,-0.11880046,-0.016834619,0.047091268,0.0498815,0.11780738,-0.04342492,-0.104881376,0.11611084,0.026522584,0.0645289,-0.06150309,-0.03360615,-0.0046539987,-0.111709714,0.039981388,0.015891338,0.117210455,-0.06457589,-0.12000304,0.10540665
0.044513874,0.007548712,0.06898672,-0.015901526,0.06932822,0.11686863,0.089698724,-0.081124805,-0.06518774,-0.09391841,0.05717859,-0.074778,-0.052912842,0.047284283,-0.022856254,0.11530659,0.097835004,-0.0012557352,-0.13891453,-0.084450915,-0.056707762,0.02244782,0.048477497,-0.07512174,-0.054742754,0.0681363,0.13629635,-0.038335472,0.007719195,0.016070375,-0.006640988,0.019506067,0.057507306,-0.032517377,-0.082402654,-0.15563282,-0.0137159005,0.086332865,0.034236703,0.0774648,0.0952288,0.09272122,0.06130707,-0.00024281204,-0.07462476,-0.09580378,0.08267905,0.04696071,-0.06795762,-0.07766493,0.028504249,-0.11809006,0.097409554,-0.130857,0.091662295,0.06026069,-0.119046964,0.027013645,0.0034473434,-0.07164392,0.13961546,-0.08982024,-0.04801968,-0.10291678
0.15947688,0.0031630187,-0.0077103344,-0.089750245,0.09868218,0.07192196,-0.0043169768,0.1013844,0.09018284,-0.088661686,-0.04937339,0.11747876,0.109120786,-0.014849156,-0.0017176535,0.022273934,-0.05831569,-0.13021311,0.07538558,0.033421606,0.024693718,0.04145728,0.024615739,-0.060912136,0.0014914812,-0.12141049,0.004541383,-0.07877355,0.03654856,-0.10683625,-0.105322026,0.07681727,0.04606373,-0.10542749,-0.111469075,0.056725305,0.056236565,0.0023378853,0.010340547,-0.024716511,-0.08801142,0.10113423,-0.113639034,-0.0431248,-0.11146111,0.063123666,-0.10153621,-0.10250448,-0.057562083,-0.123157725,0.045834485,0.121594205,0.101150624,0.060239885,-0.040877536,0.10723439,0.08043438,0.085680805,0.08589154,0.034779776,-0.04240352,-0.044048645,-0.06324721,-0.04785027
0.14135419,0.017319879,-0.033627573,-0.027495423,0.12650473,0.038481742,-0.08768972,-0.11398352,-0.033530623,0.029098958,-0.01399702,-0.2169374,-0.15096773,-0.03843481,0.12012549,-0.10415569,0.05168758,-0.03260126,0.073080584,0.0020603929,0.13109808,-0.09925781,0.03540671,-0.25811812,-0.103243664,0.054761574,-0.088785104,0.11279309,-0.25788984,-0.024636323,-0.097612426,-0.052179754,-0.030364297,-0.075463235,0.005956559,-0.092902824,-0.03833683,0.0912527,-0.16653398,-0.01002907,0.03126631,-0.0024991632,0.041707482,-0.15351215,-0.02907641,0.016927239,-0.10356521,0.10334685,0.059131887,-0.097877905,-0.0064004497,0.12456512,-0.013692114,-0.15323414,0.12367445,0.10420704,-0.12422594,-0.18046203,0.12590243,-0.09404587,0.012163236,-0.022565736,0.013376385,-0.015890323
0.0021976756,0.04968194,0.005225436,0.04912739,0.06516872,0.05542438,-0.067190126,0.011497002,0.016677886,-0.048614975,0.10069349,-0.15374559,0.022896998,0.06827243,0.13594213,0.038404252,-0.09131198,-0.056647107,0.09506328,-0.08717723,0.013781645,0.09288166,-0.010658464,-0.13481216,-0.04756275,0.0026437314,-0.06798269,0.0026991945,0.014408263,0.1117233,-0.11914321,-0.1301197,-0.14792408,-0.054524247,0.019629823,-0.014399435,0.12238363,0.068726294,0.04398157,0.102239445,0.030215355,-0.005425594,-0.046374686,-0.10945373,0.060576446,-0.1404318,0.0039497344,-0.0006598779,0.02754527,-0.052089613,-0.0051268544,-0.01124666,0.12917145,-0.10721588,-0.0064902757,-0.017897269,-0.023404034,-0.057628904,0.028861566,-0.11990896,0.069475695,0.047531035,0.13747728,-0.06278344
0.05660704,0.11504741,-0.14136718,0.07334847,0.20181158,0.050483588,-0.14334776,-0.021976627,-0.07700285,0.07311571,0.10495279,-0.18669245,-0.13038926,0.03964645,0.1008554,-0.08785821,-0.020515012,0.122190334,0.18059126,0.0441575,-0.044542428,0.0005383613,-0.014565011,-0.27192408,0.060535386,0.03976984,-0.097878836,-0.010708708,-0.2323084,0.069237955,-0.054634694,0.08334667,-0.038583104,0.08218289,-0.038807124,0.026838003,-0.04413802,-0.0014165061,0.01441246,0.1558495,-0.13050689,0.074726,-0.2048457,-0.09177342,-0.05030939,-0.10257119,-0.00040304635,0.0015961209,0.017794542,-0.16620553,-0.093536265,0.18674777,0.080166474,-0.18386059,0.1392343,0.08810757,-0.027789848,-0.13714994,0.20356539,-0.010932464,-0.17512092,0.07932393,0.061054748,-0.039279666
-0.061429705,0.045080636,0.004702493,0.12828864,0.09454513,0.08781363,-0.04613705,-0.016033862,-0.033831026,-0.03919447,-0.011864279,0.06943722,-0.05241693,-0.02865296,-0.12478529,0.010343003,-0.040352188,0.006733553,-0.10579055,-0.08454387,0.06480312,-0.07266815,0.084764704,-0.050704215,0.011328415,-0.11359278,0.0070766844,0.13765596,-0.14583975,-0.04003491,-0.046578206,-0.06912232,0.066878736,0.098717675,-0.0654195,-0.0028736955,0.08854823,-0.13545737,-0.0016708059,-0.09474513,0.003996726,-0.109725714,0.062952995,-0.155329,-0.09525053,-0.07310085,-0.042574365,-0.11153972,0.08433537,-0.069099635,-0.12785609,-0.044427454,0.01482346,-0.09402658,0.06590285,-0.1181881,0.06794868,-0.051960543,0.07216461,-0.037202053,-0.06463309,-0.11211689,-0.0018242323,-0.02769997
0.047780838,0.1009259,0.0377299,0.08159249,0.051309887,0.07145009,-0.05639636,-0.057012927,-0.060660794,0.15437758,-0.06432606,-0.011639924,-0.20041022,0.0048989085,0.032101944,0.0766898,0.033336386,0.058438342,0.13664438,-0.04347058,-0.06442701,-0.068556115,0.06389275,-0.034283087,0.051226836,0.04128394,-0.03649924,0.05448863,-0.13724135,-0.09212455,-0.015899213,-0.08349964,-0.05798935,-0.06561613,0.011314968,0.031861644,0.003020874,-0.006858877,-0.024313826,0.026730947,-0.06767133,-0.097301304,-0.057510097,-0.17458838,-0.1729479,0.072022185,-0.013216278,-0.03785302,0.07968115,0.07055653,-0.086594656,-0.044129305,-0.026787758,-0.19224124,0.13339892,-0.08839722,-0.0029677858,-0.12032355,0.0377087,0.07450537,-0.043461625,-0.08309064,0.011222632,-0.033606123
-0.0003974919,0.08615273,-0.122246265,-0.00980022,-0.013091377,-0.003192482,-0.086527325,0.0635651,0.0799902,0.0660402,-0.078993134,0.05202726,-0.117857456,-0.042327184,0.06604937,0.007389926,0.10211194,0.09920944,0.13137913,0.05868874,0.018184865,-0.120054826,-0.0915357,-0.060623907,0.11143631,-0.025200443,0.008166273,0.10615003,-0.15962325,0.02544295,-0.025178289,0.096173316,-0.12195747,-0.022761732,0.03938929,-0.08351471,-0.09251389,-0.09302258,-0.13071036,-0.08775265,0.07635428,0.038609605,-0.098397836,-0.07902608,-0.100032955,-0.082456164,-0.12817386,-0.013206176,-0.05627277,0.089352116,-0.050692152,0.0127512,-0.05949363,-0.12065522,-0.062788755,0.08368397,-0.12177322,-0.11817854,-0.027812768,0.024651831,0.05230128,0.024480665,0.03518434,0.11281725
0.092631795,0.008534766,-0.07641235,0.06340618,-0.040474713,0.08342464,-0.08283411,-0.06337218,-0.08354165,-0.03823137,-0.13250846,0.09914321,0.12193063,0.07854492,-0.07499166,0.031826507,-0.09481384,-0.08670983,-0.0066140844,0.071371846,0.11872362,0.011616204,-0.09807135,0.060295608,0.09926109,-0.11154442,0.04342934,0.12863316,-0.0848272,0.042515352,0.020659663,-0.08167817,-0.060084328,-0.121998325,-0.022228125,0.11042534,-0.042475168,0.019949133,0.019726025,-0.08983459,-0.06024982,-0.03341638,-0.00019282414,0.11341361,0.08551964,0.0028673224,0.00019217675,0.10426331,-0.023672977,-0.0127280075,0.05945232,0.1056224,-0.04345214,-0.012540908,0.06101905,0.007298073,-0.049575195,-0.0126509275,-0.11553387,0.15187018,0.032396443,0.09814293,-0.038973004,-0.024064263
0.04166701,-0.025158169,-0.017414525,-0.0015526765,0.14482713,0.07179299,0.038377877,0.068592586,-0.1352999,0.119037494,0.02174209,-0.13966693,-0.10895265,-0.020805635,0.13449991,-0.007099443,0.12768203,-0.0013246131,0.17399272,-0.030711927,0.04657636,-0.07158415,-0.07386284,-0.16340785,-0.010773441,-0.09119558,-0.071049765,-0.06779194,-0.09570116,-0.07295994,-0.12720868,0.09054524,-0.07438087,0.036552858,0.041349236,0.08124839,0.13347754,-0.025454268,-0.06728743,0.07441998,0.01828875,0.09088392,0.1362019,0.0477189,-0.0032164175,-0.114895284,0.040124707,-0.090686105,0.121668905,-0.101160474,-0.050242096,0.0105053475,0.15510195,-0.028309332,-0.028841414,-0.03014539,0.014458484,0.07926752,0.026565507,-0.07096179,-0.112001956,-0.08353303,0.028640069,0.041885752
-0.0043810504,0.05176963,-0.1674271,0.024789821,-0.0005139634,0.014191918,-0.095333144,-0.0788587,0.07494024,-0.04493264,-0.084000215,-0.013439823,-0.077003665,-0.011806737,0.012050335,0.01723642,-0.11230842,-0.03305944,-0.07570335,0.05297623,0.12188981,0.06448995,0.1234854,0.049336504,-0.10326309,0.08147462,0.07508662,-0.060820084,0.06711408,-0.11608977,-0.11760884,-0.12072495,0.05130221,-0.08525542,0.012786146,0.1002506,-0.0400271,-0.07310534,0.038458537,-0.04703468,-0.070698895,0.009996372,0.0347424,0.002928161,0.032363553,-0.08692368,0.015707823,-0.057330087,-0.017257271,0.013662396,-0.11045086,-0.11206293,-0.1142531,-0.045877807,-0.039397802,-0.038628496,0.111265466,0.1182463,0.016803613,-0.07663294,0.0063996976,0.055499867,0.048145536,-0.114966035
0.06023963,-0.0870801,0.009027516,0.060283333,0.001161532,0.09734293,-0.04574105,-0.04876261,-0.03467801,-0.010523499,-0.083807096,-0.017304515,-0.12126789,0.13521342,-0.12567821,-0.15106566,-0.07225751,0.1896845,0.07670456,0.09528728,0.042417683,-0.009201292,-0.10848631,-0.096620284,-0.14016399,0.014929145,-0.025837805,0.10962878,-0.023653612,-0.018807357,0.13052587,0.012801229,-0.107848614,-0.109851845,0.06628697,-0.016631557,0.0007853963,0.03420526,-0.04394739,0.03688374,0.067538716,0.032703187,-0.049281057,-0.0011772661,-0.00505001,-0.079617195,0.07818831,-0.008768657,-0.08774788,0.015531907,-0.0872731,0.11785454,-0.07278975,-0.2067618,0.11414103,0.038713355,0.07675555,0.03555942,0.07460474,-0.06829245,-0.152215,-0.10192047,-0.10909271,-0.11624186
0.02633657,-0.05061813,-0.14192489,-0.019839156,-0.056067865,-0.07892374,-0.034239054,-0.120404,0.11123522,0.0012276588,0.079911925,-0.014592017,0.023608522,0.05933907,-0.053660683,0.05816247,0.0020738116,0.0074245865,0.0097340485,0.07972605,-0.030275157,0.120426364,-0.009287489,-0.18918239,-0.07820211,-0.1386864,-0.10669886,-0.074181,-0.043346025,-0.07584155,0.012424978,-0.024364132,-0.04303327,-0.12248138,-0.08208858,-0.017780846,0.03896963,0.022527855,-0.1491311,0.118941404,0.06315474,-0.026551703,-0.067056395,0.040418345,-0.043743186,-0.1298529,0.080499224,0.028304525,0.017995443,-0.059612375,-0.103309125,0.08444473,0.08855565,-0.10707671,-0.025512204,-0.03649341,-0.07334775,0.04494843,0.087461926,0.06298254,0.014057711,0.03807911,0.084721945,-0.05271661
-0.024806183,0.0495957,0.042670816,0.09650891,0.0026937297,0.08144557,-0.11593394,-0.15729783,-0.056009352,0.04233824,-0.03585151,-0.15428245,-0.115665756,0.11092179,0.115369305,0.01393177,0.14238736,0.1224216,0.10682745,0.038203448,0.045563426,-0.08751012,0.10179639,-0.16751707,-0.09616357,-0.076396614,-0.048662167,0.04341911,-0.015537809,0.033564173,0.068447486,0.018800424,-0.07049966,0.006112673,-0.036147024,-0.10215206,-0.05949143,-0.08088631,-0.027113235,-0.04469899,-0.10345652,0.05714492,0.006192403,0.029470846,0.039410155,-0.0051036417,0.05371088,0.00403623,-0.03568793,0.089142606,-0.020831248,0.07989549,0.07167921,0.0842787,-0.03689416,0.13682772,-0.061583128,0.05314564,0.024925051,-0.013803589,0.08767474,-0.121957794,0.007851341,0.07091671
0.09537282,0.046971988,0.057298005,0.052771635,0.029038616,0.096991114,0.018069454,0.06588891,0.015185924,0.018418094,0.12084304,0.047676016,0.040335976,0.09509447,0.108040564,0.061188165,0.039893214,0.01650129,-0.021638766,0.08378884,0.106116466,-0.044606235,0.02305513,-0.18379106,-0.09112961,-0.12862264,-0.005972983,0.07534291,-0.13794322,-0.050671726,0.068847135,0.045660652,0.09326126,-0.10860014,0.113072656,0.046013996,-0.07314465,0.08376206,-0.048234742,-0.003190843,0.06309024,-0.06702776,0.00984864,0.031156033,-0.088355154,0.06295601,0.08192918,-0.019680662,-0.01243874,-0.1081186,-0.06442765,-0.09907904,-0.07101488,0.01694083,-0.015594062,-0.1046286,-0.084666766,0.09069904,-0.123828754,-0.053952415,0.061715864,0.036838084,0.1255324,-0.14415832
0.0252628,0.0029667823,0.112981156,-0.06353007,-0.123539284,-0.023335671,-0.11322329,0.0793387,0.07270295,-0.048725978,0.08668678,0.21744634,0.10032825,0.048798047,-0.0051947357,0.029446512,0.044770412,-0.13036814,-0.03817317,-0.018557144,0.112029105,-0.11481941,-0.04863225,0.0918469,-0.0668581,-0.11055584,-0.016719474,-0.13663086,0.09254767,0.1038203,0.040267073,0.02724526,-0.074163556,0.10908123,-0.13619177,0.012203174,0.04284814,-0.074564874,-0.016762098,-0.14245194,-0.041913114,0.092399,0.0458152,-0.05225324,0.15265329,-0.05199356,-0.013132449,-0.11981821,0.13518408,0.040670592,-0.06910655,-0.070228584,-0.060780197,0.112918295,0.0950625,0.06354535,-0.06322183,0.01210927,-0.044194233,0.040394187,-0.12454086,0.08730877,-0.02216926,-0.12357343
-0.015071416,-0.053222902,0.07150253,-0.06046602,-0.06215938,-0.01168526,0.12773281,-0.042139597,-0.0067121084,0.03976226,-0.09935763,0.06679561,-0.067495026,0.108649634,-0.046408568,0.11612531,-0.1317556,-0.037708074,-0.0043493486,-0.016253974,0.06914,-0.11743221,-0.026650526,0.12924594,0.107807264,-0.05775446,0.0561674,0.015180624,0.03719993,0.14579411,-0.055830956,0.025395818,-0.089869194,0.15591544,0.012237612,0.105133675,-0.1113878,-0.10537258,-0.06696308,-0.085313424,-0.04595354,-0.033080198,0.026674235,0.07380269,0.009031976,0.013398363,-0.08406776,0.02597891,0.09941001,0.08513385,0.039015625,-0.0004019501,0.07364896,0.031979248,0.12546723,-0.001660419,0.04173581,0.08149944,0.02178551,0.07933264,0.092243575,-0.08134664,0.060214996,-0.048352603
0.0057028006,-0.00804523,-0.01518535,0.0017051459,-0.047856785,0.10589287,0.07989492,-0.120440006,0.018344456,-0.04244845,-0.05876874,-0.07560907,-0.056993637,0.08019285,0.050138723,-0.03390255,-0.0043962873,-0.056489863,-0.070268676,-0.07793822,0.04352706,0.023855962,-0.026651416,-0.044370737,-0.09716197,0.12678592,-0.04570434,0.114507735,0.04192077,0.01451837,0.009026766,-0.107884,-0.111146815,0.10259207,0.097029366,-0.087984234,-0.021796662,0.073596634,-0.06237694,0.028250251,-0.032092106,-0.103937425,-0.2198511,-0.03277342,-0.1469089,-0.02608911,0.025315847,-0.07868138,0.06361109,-0.041600995,-0.00060728774,0.11981971,-0.06411728,-0.0710654,-0.042880774,0.10345727,0.05568687,0.039242636,0.07755855,-0.057071373,0.031419303,0.12735274,0.029311564,0.031265456
0.20271479,0.105405815,-0.2570635,-0.056666404,0.1352483,-0.018124705,-0.015436599,-0.18873996,0.030372877,0.232943,0.0031965661,-0.08126527,-0.21136218,0.074496165,0.058428705,-0.07617218,0.13948433,0.016425528,-0.04410379,0.062523276,0.109322235,-0.07287646,0.08181559,-0.019083664,-0.09488163,-0.030907197,-0.00275913,0.15071611,-0.17606275,0.12600979,0.028832784,-0.12448246,-0.14305373,0.08940953,-0.08910049,0.014190205,0.035984628,-0.035106238,0.028868236,0.16422924,-0.040676422,-0.12887844,0.07882057,-0.14663976,0.027285976,0.039470915,-0.04498011,0.058020476,0.114964984,-0.01248718,0.037782434,0.10410398,-0.054310318,-0.21615385,-0.08280507,-0.06327586,-0.014059204,-0.080404125,0.023694,0.046210386,0.10083934,0.085908316,-0.0728952,0.05916706
-0.040499028,-0.019337129,0.012519989,-0.117752485,-0.02791035,0.077938125,-0.012018804,-0.07720495,0.048362765,-0.012689796,0.01900072,0.050126817,-0.11971406,-0.11101766,-0.09054539,-0.0065218667,-0.06203003,0.1309559,0.036482092,-0.011695303,0.033757985,0.10668286,-0.044536985,0.019317087,-0.106205314,-0.058784463,-0.03322347,0.0544126,0.012960612,0.112038024,-0.10010127,0.080669604,-0.102856316,-0.04622735,0.115849905,-0.15059234,-0.122626945,-0.06355844,0.0024695292,-0.08296932,0.036419496,-0.0068416805,-0.01938657,-0.01986232,0.0041950354,-0.009976541,-0.09155065,0.018978901,0.051369708,-0.03966624,0.05156718,0.024301115,0.053333502,0.07619379,0.07147135,-0.013827734,-0.11049382,-0.035543904,-0.01753899,0.051941898,0.1118769,0.1154327,-0.012864703,0.11629643
-0.008345204,-0.071735315,-0.20999265,0.0957513,0.037739478,0.034302007,0.034480467,0.18452871,-0.007821676,0.10372604,0.01013897,-0.06280773,-0.063130066,-0.062723234,0.082459114,-0.06656196,-0.1493964,-0.082726546,0.09048528,-0.080706246,0.11712374,0.07253113,0.0025533447,-0.07324113,-0.030012656,-0.13979067,0.015514555,0.049883895,-0.17437823,-0.003887964,0.13275121,0.034647927,-0.1344139,-0.12683584,-0.11867649,-0.14781311,0.0067412374,-0.09563942,-0.02729756,0.085630596,-0.08434131,-0.0018580846,-0.00080220116,-0.07431338,-0.12262103,0.087365195,-0.122809,-0.12082538,-0.09346029,0.0020156268,0.13675866,0.025027439,-0.10564306,-0.06709227,-0.12358315,0.034080345,-0.061562087,0.09318809,-0.15802711,0.0068907714,-0.055043522,0.023406245,0.032206018,0.069064155
-0.101729825,-0.065838575,-0.042863663,0.063035615,-0.10652236,-0.08548619,0.029996594,0.1023438,-0.03446976,0.0084879175,0.015735157,0.10125084,0.07405557,0.08169902,-0.088082895,-0.025266904,-0.01945168,0.0035121893,0.03755971,0.10653499,0.0023786586,-0.08254118,0.007468155,-0.16820174,-0.10959828,-0.095957026,-0.059017383,-0.06628163,0.055024233,-0.034827646,0.12840211,-0.060184516,-0.06659486,-0.08709378,-0.04206046,-0.05968752,0.033942495,-0.07115046,0.024636948,-0.035012934,0.14065365,-0.0956148,0.12139298,0.03141837,-0.11691416,0.089034736,-0.024750715,-0.05839134,-0.084337875,0.08926814,0.079573825,-0.06517307,0.12086953,-0.03707076,0.09719174,0.08738971,0.05034269,0.011900231,-0.04972918,0.057031836,0.042441495,-0.0010990151,-0.111041486,0.10462713
0.0323981,0.10792309,-0.13093656,-0.09579413,-0.002372162,0.069543205,-0.03513229,-0.1186765,-0.12419139,0.18623745,0.037565738,0.052573077,-0.06090986,0.055562317,0.101972654,0.056243055,-0.076498784,-0.0320839,0.06313528,0.046535455,0.104679726,0.010826923,0.06731681,0.051990297,0.051336862,-0.122029185,-0.079480365,-0.012419617,-0.029444315,-0.08538978,0.029804418,0.08276016,0.065307975,0.07743908,0.042289928,0.048842143,0.06941738,0.00400922,-0.14483814,-0.018318014,0.12233363,0.079648584,-0.035773646,-0.11916312,-0.18443668,-0.0843071,0.11308262,-0.05782433,0.032930065,-0.07047542,-0.13365458,-0.080100276,0.0005450121,-0.10747906,0.133097,-0.06833932,-0.117417045,-0.11882362,0.024492348,0.06288311,0.06892648,-0.04445314,0.057840433,-0.09071426
-0.001799012,0.04800912,-0.1697223,0.0998892,0.15518889,0.014242898,-0.016728997,-0.02188155,0.046047293,0.14570838,-0.024352215,-0.06855235,-0.14952746,0.012722061,-0.10990757,0.101896696,0.027170202,-0.1001171,-0.10044384,0.09549452,-0.03495037,-0.06903438,-0.005812563,-0.24931824,-0.07363502,0.11306498,0.06592699,-0.014616544,0.0100622345,-0.05680403,-0.050591733,0.10583122,-0.026685433,0.059181195,-0.08817247,-0.12685189,0.12138525,-0.033116683,-0.021986004,0.16441044,0.0021392202,-0.017531224,0.08170884,-0.07474086,-0.12085398,0.03488445,-0.11050353,-0.12871294,0.0043164473,0.0013802265,-0.13066594,-0.008031394,-0.0815763,-0.05596248,0.068010256,0.09121131,0.09341933,-0.049456794,0.105095066,0.017856035,0.009296393,0.010227239,0.12867987,0.09490358
0.14479266,0.019029044,-0.3494832,0.13738716,0.09731697,-0.046659943,-0.26177385,-0.07345349,-0.024878072,0.2768807,-0.004571122,-0.14184552,-0.26468593,0.05792226,-0.10061589,-0.10026551,-0.0082192235,0.08580416,0.01679611,0.109763205,0.043937404,-0.10213673,-0.1494003,-0.19466731,-0.20633759,0.016717613,-0.006447666,0.049805976,-0.3482435,-0.069879934,-0.19556247,-0.10928578,-0.17507386,-0.15237589,-0.0024332518,-0.13939226,0.1512463,0.11872133,-0.008281987,0.05473247,-0.03892368,0.047663346,0.09429932,-0.03253246,-0.33065307,0.037704512,-0.051895335,-0.06437899,-0.032435108,-0.08872311,-0.22195007,0.22696961,-0.007982699,-0.30139607,-0.00022475234,0.05181547,0.017336352,0.005572505,0.12103041,-0.27365878,-0.014885685,0.02746772,0.1006631,-0.07133204
0.07954764,0.06416097,-0.07757367,0.0096659325,-0.033780966,0.100946695,-0.039661054,-0.15437558,-0.0798686,-0.032298077,0.09351131,0.10316726,-0.25425503,-0.052778564,0.094088845,0.11406291,-0.014160231,-0.105380215,-0.013854054,-0.059092887,0.072342485,-0.024614599,0.06254227,-0.19018938,0.10704769,0.09206707,0.08397124,-0.000681944,-0.1305307,0.12979174,-0.16274002,-0.0155562395,0.014189014,0.04309461,0.036922377,-0.066367894,0.09157107,-0.004170496,-0.037408873,-0.008691484,-0.051573094,-0.00033135645,0.06189105,-0.07493974,0.10916355,0.056714613,0.044453934,0.075408705,0.10568342,-0.026398387,0.0069076596,0.072581574,-0.0713779,-0.08539722,-0.017102443,-0.033451293,0.03164055,0.056946535,0.050883617,-0.09925268,0.03229214,0.057065625,0.112189166,0.02211002
0.02176164,0.035604347,-0.14735685,-0.11992451,0.061480243,0.12839025,-0.110314935,-0.09392437,0.04729995,0.05201206,0.11826342,-0.13813747,-0.16205615,0.041713342,-0.03397134,0.04565751,0.11779865,0.14108974,0.0328924,0.0011549358,-0.058023326,-0.06116971,0.07446542,-0.071324795,0.08710648,0.0068498724,-0.122069255,0.004715174,-0.17827313,-0.10870594,0.004803725,0.07848843,-0.014944792,-0.123321585,-0.026611868,0.049040902,0.12913038,-0.04908617,0.009263123,0.101525664,0.086266555,0.09312122,-0.06564345,0.02658368,-0.006902934,0.063756585,0.033935275,-0.10530532,0.033735413,-0.10437578,-0.15541878,0.065502204,0.11998784,0.122883156,-0.02632407,0.10686876,0.028295375,-0.10923656,0.008123857,0.066666536,0.009312422,0.067832135,-0.058383986,0.0976839
-0.039470844,-0.007283494,-0.19572702,-0.12300299,0.09475625,0.10150126,-0.09120953,-0.07546638,-0.042347115,0.0027966255,-0.07737678,-0.19076338,0.018183867,0.02713957,0.01494922,0.029222611,-0.13224515,-0.02443878,-0.059713256,0.0687697,0.14730814,-0.087328374,0.10026625,0.01636107,0.09080668,0.059479337,0.044059955,0.01153021,-0.08538041,0.037484758,0.06286603,0.07846576,-0.006183042,0.062283307,0.06542634,0.064757235,-0.094596714,-0.051124394,-0.011471936,-0.025599696,0.036560014,-0.029663483,0.0781329,-0.12084114,-0.051122915,-0.12610099,0.025207516,0.034387775,-0.03347352,-0.14698167,0.075378664,-0.08127158,0.00429977,-0.1431216,0.084951065,-0.079266675,0.031657603,-0.0044070003,-0.11139399,-0.06651493,-0.04768275,-0.13072863,-0.04194786,-0.05356726
0.16629283,0.1765352,-0.2290018,-0.08771629,0.28644028,0.015538264,-0.035762243,-0.16309074,0.022125667,0.16743779,0.09314229,-0.20619975,-0.29506552,0.029227175,0.109271616,-0.20030864,-0.06287857,0.049452983,0.13660364,-0.10156412,0.23437753,-0.14921288,-0.033805326,-0.17840846,-0.04148119,-0.15459518,-0.19423789,0.17987841,-0.2498597,-0.12984212,-0.19361156,-0.09139961,-0.14914058,-0.094259895,0.042413615,-0.061402235,0.13177907,0.10226135,-0.100905545,0.09017595,0.07015085,-0.10717894,0.058945533,-0.21646889,-0.1400247,-0.060808677,0.0868402,0.048320122,0.10753479,-0.04826377,-0.07475113,0.034148425,0.11135786,-0.08411301,-0.02744149,0.14453623,0.08179488,-0.1539279,0.059829973,-0.07290814,-0.18518269,-0.05769937,0.008521725,-0.18378192
-0.089074396,0.108959235,0.0658754,-0.10940121,0.09658663,-0.029222349,0.048090048,-0.03918829,0.012950969,-0.02767775,-0.1288854,0.012328242,-0.134045,-0.10999489,-0.025590474,0.08806491,-0.07832693,0.12102798,-0.09920727,0.067659274,-0.033415463,0.01626811,-0.030205157,-0.1220951,0.089663245,-0.076132275,0.015317916,0.12642924,-0.047988184,-0.016244614,0.060314626,0.08927925,-0.07234677,0.07601596,-0.10480115,0.02747189,0.049728986,0.025277903,-0.02748694,0.022183966,-0.04787968,0.06495709,-0.11660648,-0.06257075,-0.06856015,-0.026943577,0.059269678,0.007176499,-0.05434747,0.10790226,-0.090166494,0.108490765,0.09004862,-0.066226244,0.078957744,-0.06725246,0.07197471,0.076392405,0.0527655,0.012110467,0.079975285,0.022896884,-0.07227149,0.09860669
0.06084113,0.015292291,-0.11189981,-0.11784573,0.0013872199,0.083177894,-0.058647137,0.015345318,0.085383624,-0.07368615,0.0014565748,0.039910648,-0.00941651,-0.011594634,-0.11944221,-0.081058234,-0.07391526,0.07450275,0.008559951,0.052872322,-0.09723574,-0.10170479,-0.0015453853,-0.14060423,0.041312907,0.004966415,0.1138293,0.024144795,0.048929937,-0.07825553,0.10994882,-0.0031843593,-0.07416957,0.1121716,0.058725663,0.09516316,-0.0749838,-0.09108526,-0.09345855,0.091040306,0.07284755,0.0730517,0.13971786,0.081490435,0.031518873,0.06398998,0.048729647,0.076314956,0.017147003,-0.008455527,-0.083237745,-0.09920648,-0.0344816,-0.18101658,0.05880624,-0.026861163,-0.09554423,0.07159191,0.10869907,0.040480573,-0.06370901,-0.010589193,-0.11497973,-0.12251296
-0.122288026,0.06434492,0.07585356,0.04976982,0.011760346,-0.10162936,0.038460884,0.15923359,-0.02397408,-0.15243694,-0.029545736,-0.08223374,0.16923672,0.10812797,0.074270174,-0.08913768,-0.061631188,-0.1092478,0.13600925,-0.017864821,-0.050180644,-0.019485952,0.0793798,0.17673561,-0.14093207,0.05480549,0.035817493,-0.025621153,0.009974976,0.045134958,-0.005806576,0.05194111,-0.061971225,-0.023427773,0.092986204,0.106577665,0.121461175,0.14847104,0.063508525,0.04294693,0.096083194,-0.08091122,0.086824715,0.12108398,0.20265195,0.0036336265,-0.021412086,-0.097635545,-0.09025716,0.10395403,0.08468613,-0.13784784,0.070140384,0.16493288,0.0043868273,-0.10868045,-0.07945373,-0.10973998,-0.02991465,-0.065589696,-0.0006974982,0.08344739,0.035843678,0.117798835
-0.11082618,0.15725267,0.07668387,-0.019632159,-0.0721757,0.010845927,-0.05342081,-0.20176604,0.102625005,-0.12581004,-0.053494368,0.12714532,-0.20997201,0.13869561,0.05777494,0.04321643,0.10290755,0.017558835,-0.044264615,0.02692086,0.017850818,0.12415216,-0.06586872,0.04645431,-0.09687828,0.17094237,0.0028810103,0.08162648,-0.07749703,-0.004454957,-0.21728139,-0.09599666,0.017931217,0.14247428,-0.108642824,0.05609389,0.04824211,-0.05247135,-0.007996181,0.1359247,0.06598743,-0.061051216,0.15839118,0.004957987,-0.030482069,0.037844073,-0.07125677,0.111012466,0.062194042,0.11025013,-0.17979844,0.0078679,0.13971902,-0.0121459095,0.043667533,0.050666105,-0.12006573,-0.01000283,0.029744048,0.1539466,-0.03028031,0.061334804,0.17114194,-0.14397459
-0.022264857,0.03869759,-0.18958251,0.032240894,0.20876719,-0.019758841,-0.09962447,-0.00080139155,-0.10196523,0.2197897,-0.04082404,-0.19506389,-0.23630041,-0.04577266,0.049646202,-0.16300073,0.14562233,-0.047089275,0.10053918,0.06959738,0.09826029,0.07829131,-0.004125327,-0.24440698,0.090441436,-0.07123381,-0.049915034,0.08061755,-0.12148592,-0.037385657,0.0054931547,0.03728054,0.06090867,-0.017673716,0.081380345,-0.12863742,0.083803155,0.15841977,-0.044161387,0.04784534,-0.070666045,0.0063800234,0.025495512,-0.020513851,-0.23464489,0.024081333,-0.061294194,0.038168155,0.08114512,-0.104133174,-0.088716686,-0.0237919,0.01791804,-0.03845834,0.108274855,0.12459438,0.06761305,0.012954694,-0.04236933,-0.05053037,-0.15414809,0.06697736,0.12299358,-0.15284702
0.11950187,-0.08284288,0.08318102,-0.020107428,-0.019825624,-0.07211159,0.055535946,-0.13389511,0.024304878,0.11055902,0.111209504,-0.12532806,-0.060596067,0.058192354,0.053255025,-0.0071854377,-0.12097947,0.02426904,-0.06614423,-0.10169207,-0.08624892,-0.11543385,0.12692171,-0.041891947,-0.12454696,-0.03702293,0.108623326,0.0017092065,-0.103579186,-0.017134883,0.046282884,0.10242625,0.09489978,0.03691464,0.041891493,-0.0623771,0.03758696,0.08723335,0.028867133,-0.09090536,-0.0016409043,-0.10496224,-0.08492742,0.06005377,0.01244638,0.064723976,0.088968135,-0.060853966,0.1086815,-0.04662969,-0.002489059,0.10337124,0.047761433,0.023689045,0.003427297,-0.029923806,0.06840264,-0.086296715,0.04682204,-0.091995254,-0.027765248,-0.102760695,-0.0112164095,0.08577405
-0.07440061,-0.088324904,-0.1208562,0.03072352,0.05830234,-0.026275896,-0.046023097,-0.04587549,-0.12327933,0.09336299,0.041992527,0.04097182,-0.048165288,0.112120435,0.013610003,-0.13372913,0.075043626,0.031679783,0.124395736,0.069370024,0.0730585,0.032412294,-0.011760315,-0.015567523,0.10105918,-0.0064038304,0.004731807,-0.010435892,-0.00016196407,0.04114235,0.009350251,-0.05168483,-0.017995067,0.05553447,-0.017506061,-0.0047770264,-0.06303121,0.11800994,-0.0757375,-0.03947879,-0.06022433,-0.036048494,0.10728538,-0.049198985,-0.09491356,7.619789e-05,0.045071498,-0.05546071,0.07910489,0.006318004,-0.017764447,0.13264897,0.14368506,-0.048196964,0.09302338,9.696274e-05,0.025479835,-0.14203374,-0.067615904,0.11467046,-0.054936703,-0.09458861,-0.02393765,-0.017852806
0.124312714,0.21739511,-0.13410904,0.05861936,0.25294474,-0.06645154,-0.21927947,-0.20859882,-0.0712779,0.1537822,-0.020869238,-0.1653489,-0.2690172,0.10689575,-0.03197061,-0.19298637,0.11891428,0.1823873,0.047013745,-0.08631991,0.10966519,-0.059507474,0.08375081,-0.1934587,-0.061871536,0.013776989,0.035702012,0.1652788,-0.13680658,0.021409763,-0.06361989,-0.09066801,-0.12567326,-0.025378285,-0.037653636,-0.05749443,0.1454598,-0.021281019,-0.21835889,0.04379188,0.1283572,0.09253226,-0.00015940127,-0.11619282,-0.07035222,-0.1517769,-0.15068541,0.054810643,0.22776332,-0.109576024,-0.22451644,0.27178997,-0.056504045,-0.09762474,-0.044875365,-0.049104854,0.0780203,0.02586541,0.016433047,-0.12598002,0.038297392,-0.12566838,0.031499784,-0.10392259
0.03417618,-0.018662892,-0.094463095,0.1521894,0.114698514,-0.08138978,-0.069928296,0.082933456,0.05562064,0.021439562,0.04148211,0.01956882,-0.042131655,0.0109636495,-0.14956526,0.10741736,0.080763966,-0.10365128,0.08174388,0.022400666,0.016883219,-0.01195893,-0.015473228,-0.10714088,0.07435202,-0.019619063,0.07721997,0.097549364,-0.100668706,0.10186373,0.014143947,0.037255697,-0.08235075,0.03888765,0.16261378,-0.019256549,-0.043458316,-0.019372417,0.08886898,-0.004756237,0.06251152,0.17431627,0.068036325,-0.04670552,-0.023340035,0.07437107,0.10945045,0.0053463685,-0.1390579,-0.06844302,0.08330738,0.006579302,0.033447675,-0.19602004,-0.13603404,-0.15423514,-0.024618302,0.037280552,-0.11403719,0.06261422,0.15691788,0.10959099,0.051634453,-0.003068212
0.050039943,-0.07294488,0.06113981,-0.038002245,-0.10873514,-0.11671895,0.11972996,0.009947159,0.03562076,0.048352737,-0.060662344,-0.008192816,-0.036546525,-0.049923018,0.011125503,0.091660984,0.113178045,0.06777053,-0.10856585,0.12788823,-0.12216998,0.11071469,0.081835516,-0.09817297,0.07449918,-0.034496322,-0.09574055,0.053026147,-0.082048275,-0.06480386,0.11375544,0.0749154,-0.109879434,-0.024773292,0.038191088,-0.11038602,-0.04108826,-0.08356314,-0.08248003,-0.102764174,-0.08278681,0.061436612,0.09043316,0.0361969,-0.115331255,0.112501614,-0.081018664,0.043211937,0.09028521,0.09613471,-0.09086969,-0.10530265,0.11403892,0.05455025,0.069999464,0.016111035,0.11766201,0.02452768,-0.0052980264,-0.04529216,0.06474967,-0.022728171,0.03523415,0.055454478
0.032552477,0.0036658726,-0.1660483,0.08276224,-0.09441189,-0.047871426,-0.091949895,-0.03344793,-0.038342647,0.15243804,0.11105848,-0.041991346,0.0011515053,0.08855288,-0.09804257,-0.109808594,-0.01086015,0.01338481,0.009468347,-0.086185224,-0.102762215,0.10662298,-0.11985005,-0.0057288785,-0.028939266,-0.065005004,-0.12207789,-0.010336344,-0.004683475,0.101524085,0.021534137,-0.085757904,-0.040228285,-0.07886328,-0.1295054,0.053383157,-0.07673549,-0.036293432,0.03822442,0.09659696,0.10416426,-0.07285634,-0.041233435,-0.01995821,0.027824583,0.1053737,0.006825779,0.046037477,-0.019234532,-0.009915449,-0.06077278,0.1373428,0.1342502,0.022806015,0.062112693,0.10453616,-0.04674104,-0.10188888,-0.039658297,0.08438994,-0.07557938,0.010391573,0.036059458,0.08090427
-0.0008186723,0.029464958,0.060095258,-0.057652775,-0.027222427,-0.09491253,-0.029315615,-0.07511543,0.010236084,0.14952315,0.03042744,-0.018567486,-0.10621189,-0.06983979,-0.007955378,-0.061562225,0.02648774,0.09898043,0.03308532,-0.12588881,0.014142453,0.020763619,0.025649738,-0.07709445,-0.14811306,0.10141195,0.095417656,0.050044153,-0.070681915,0.08106554,-0.06735673,0.09042943,-0.004556476,0.00016400657,-0.06123021,-0.110833526,-0.103594996,-0.05416265,0.02659513,-0.09369728,-0.037920352,-0.05427991,0.08981948,-0.012370413,0.03917655,-0.055689037,-0.04362908,-0.12739237,-0.07222739,0.117842205,0.064314045,0.03397245,-0.058587275,-0.0875947,-0.022664553,-0.042564057,0.12592411,0.09623591,-0.023421135,-0.07942791,-0.047302,-0.08591915,0.15251704,0.032877386
0.088317476,0.025167402,0.112696625,0.045471333,-0.07604299,0.11024645,0.023934474,0.06893089,-0.08368157,0.15976858,0.05778702,-0.09588509,0.07170157,-0.036966812,0.06800492,0.07516724,-0.012511248,-0.06632781,0.08280883,-0.0734543,0.039080787,-0.023078667,-0.038560662,-0.06335994,0.056683064,-0.0067464565,0.11138795,-0.02504404,0.03446601,-0.004930449,0.08223514,0.0646502,-0.093058564,0.0030696874,0.07219964,0.050804276,0.034081426,-0.101967715,0.00026264187,0.026530536,-0.023683412,0.036485646,0.14494959,0.031364005,-0.078735664,-0.07486025,0.083396904,0.018909277,-0.047638748,0.13180059,0.061654627,0.010402375,-0.057524633,-0.08569684,-0.09810461,-0.12177705,-0.02722871,0.040558156,-0.083319284,-0.017350005,0.045647442,0.024176124,-0.062585734,0.056154024
0.13801546,0.03688578,-0.16116314,0.124144875,0.06787783,-0.033146072,0.06857793,-0.059732836,-0.021506334,0.13315979,-0.0978573,0.049521778,-0.113926545,-0.04762753,0.08168964,-0.074043244,-0.012891465,0.103338234,-0.013121707,0.0980983,0.07205848,0.12558359,0.013787687,-0.15689006,-0.09030508,-0.033345133,-0.043950383,-0.08734927,-0.04520185,0.09796974,-0.0005897422,-0.08648106,0.05599384,-0.0458609,-0.03605573,0.061828762,-0.11701715,0.08122007,-0.028963968,-0.102767855,0.1055215,-0.0635296,-0.103271216,-0.21393092,-0.12216792,0.0031723084,-0.030240223,-0.018889502,0.004712781,-0.076451026,0.099678546,0.10934082,0.021187434,-0.068945505,-0.08664102,0.04165597,-0.077449195,-0.09728808,0.07865167,-0.08094885,0.005616724,0.031517446,-0.053815003,0.11465632
0.03960592,0.059909105,0.01577237,-0.062213615,0.0039517237,0.10104462,-0.11485835,0.03137453,0.03221496,0.029550388,0.157779,0.08703814,-0.16644688,0.14138652,-0.08712171,0.057040405,0.02667331,0.21453957,-0.0075578983,-0.029264346,0.1273407,0.124330305,-0.05518644,0.009543135,-0.051767237,0.0026381603,0.060560204,-0.042802013,-0.0024020427,0.079793915,-0.020361735,0.08601819,0.0025489517,-0.059962023,-0.0841983,-0.1024854,0.051790208,0.03136662,0.009756463,0.123663396,0.13189954,0.008398576,0.004212995,-0.09010808,-0.0059388094,-0.0026748762,-0.025831984,-0.0039146165,0.0590672,-0.030788945,-0.083907135,-0.061350018,-0.08109272,-0.16962813,0.08871737,-0.052488774,0.11564068,0.08047232,0.09835428,-0.063089386,-0.08366621,-0.0116758095,-0.057739407,-0.052864455
0.093702935,0.1342606,0.030449957,-0.04716758,0.10159373,-0.1027604,-0.04807315,-0.020065444,-0.07147528,0.099725135,0.030094566,-0.07969795,-0.039672587,0.15759198,-0.011023976,-0.07507956,0.11731832,0.079646036,0.11844214,0.060648832,0.07713698,-0.053180307,0.002749765,-0.11336515,-0.042251527,0.09035568,0.00033817504,0.022536762,-0.009603886,0.10378989,0.032594558,-0.13030033,-0.024134368,0.020909375,-0.04495664,0.08658706,-0.075421646,0.08875881,-0.17348845,0.009165636,0.058412775,0.031738866,0.0711603,-0.122632295,-0.0066642156,-0.07877874,0.074122705,0.038236603,0.04092264,-0.001660617,-0.10632108,0.03943219,-0.058357555,-0.02555571,-0.014170912,0.0425574,-0.021396989,-0.0095887445,0.06935459,-0.016416106,0.065389894,-0.0038775192,0.1417015,-0.00015614946
0.14988999,0.11923389,0.027573904,-0.046484474,0.09513296,0.06469696,0.082992606,0.049272776,-0.112106934,-0.036166444,0.09832763,-0.05168503,-0.007868818,-0.045322187,-0.07686778,0.045729656,-0.08816239,-0.0471969,0.049123723,-0.029095007,0.1068238,0.013699577,0.053721074,-0.119222336,-0.14459041,0.08432554,0.067940354,-0.0061305994,0.062362038,-0.037760496,0.099573284,0.09814827,-0.037647013,0.12006841,-0.06608886,-0.027783057,0.06457117,0.10782567,0.021341847,-0.008552346,0.04337873,-0.05486461,-0.05269044,-0.07088382,0.04968289,-0.078520514,0.10060197,0.10387462,0.05766186,0.026946127,-0.074471995,-0.088840395,-0.10242522,-0.065547355,-0.06877472,-0.03811327,0.012579168,-0.026846481,0.14873108,-0.043681808,-0.0593477,0.10515698,0.13434954,-0.054877173
0.028138528,-0.085692145,-0.015472616,0.022980116,0.019969074,-0.056850944,0.12147316,0.09828245,-0.080809504,0.030997945,-0.07946249,-0.10211344,0.013000962,-0.048137214,-0.15980542,-0.07773783,-0.13886124,0.0005555647,-0.10322145,-0.03697651,-0.06722244,-0.026430702,-0.064134784,-0.07179064,0.020807352,0.050442528,0.014714704,-0.1070576,0.016237479,-0.035025325,-0.002214115,0.018911572,0.14269403,-0.06620037,0.08901645,0.09571187,-0.0065682633,-0.17420638,-0.062239382,0.105943784,-0.07460388,0.13039768,-0.042256642,0.065082446,0.008089532,0.14181122,0.10017523,-0.1510346,-0.06312707,-0.098161325,-0.06328848,-0.057403177,-0.11277536,0.008330368,-0.102989085,-0.12047305,0.03807892,0.045558203,0.019977136,0.020675141,0.088163115,0.06831624,-0.025648385,0.07424547
-0.019770235,0.0030149096,0.04568818,-0.092696525,0.05232261,0.11416103,0.021116244,0.05258467,0.064473175,0.13687406,-0.020190738,0.0049465564,-0.15929297,-0.03743299,0.018916607,0.08285958,0.0031040034,0.0038342117,0.14416055,-0.11943339,-0.03917231,0.110005595,-0.16212943,-0.056490052,-0.041219674,-0.11880258,-0.11164113,-0.0923065,0.061011177,0.03181142,-0.13498807,0.06227182,-0.013201016,-0.031539477,0.03133534,-0.13357161,0.12423833,0.14435388,-0.12958385,-0.0020526075,-0.014071966,-0.011200419,0.014941638,0.013199455,-0.0054816944,0.018745717,0.074915834,-0.0038977861,0.118652575,-0.073700376,-0.040299617,-0.0025201482,-0.026147677,-0.051160995,0.08435007,0.037251808,0.11863274,-0.07234889,0.074930154,-0.094711535,-0.051150393,0.1096721,0.065546334,-0.070435636
0.10817302,0.12099134,-0.0074782656,-0.0879219,0.098360956,-0.037996273,-0.0040633683,0.003703747,0.058311105,0.07781754,-0.07553979,-0.10659398,-0.10040619,0.014984956,0.043242138,0.0628122,0.052617885,0.18174143,-0.0986429,0.048124604,-0.049123626,0.093948975,-0.039182313,-0.0757021,-0.12264825,-0.13547441,0.07186096,-0.15415439,-0.03786974,0.097933725,-0.0065838443,-0.022655224,0.0075660995,0.06764911,-0.108584315,-0.104523756,0.08535194,-0.018167855,0.12517957,-0.030530704,0.119296685,-0.11427811,-0.096340686,-0.13695095,0.08151175,-0.032995306,-0.071360156,0.06443875,0.019929234,-0.087899156,0.07909628,-0.10560483,0.05150699,-0.056262985,-0.08412111,0.10920176,-0.07836489,0.00503356,-0.06020244,-0.16039386,0.1484844,-0.1033186,-0.0982804,0.049147192
-0.049856395,-0.007429787,-0.09084088,0.12201372,-0.07242091,0.030827267,-0.011911154,-0.07848527,-0.05704442,-0.043820854,0.055154063,-0.062216517,-0.123284,0.06926993,-0.067784734,0.020806555,-0.0883008,-0.093726814,-0.05820367,0.0885443,0.07724113,-0.01680031,-0.06266336,-0.05487289,0.009648348,0.093350604,-0.06869394,0.0316147,-0.099049956,0.014377591,-0.1023293,0.0802327,0.121307515,0.061419513,-0.0045273546,-0.110621184,-0.08335129,0.0062029785,0.101355225,4.575661e-05,0.09391726,-0.016736181,0.083914466,0.12849624,0.124092236,0.06844264,0.033937197,-0.1311476,-0.011827104,0.045133635,0.09739405,-0.012259648,0.10811095,-0.08803966,-0.054636642,-0.007002394,0.07562356,-0.1151159,0.08155198,0.11605244,0.05325444,-0.039472643,-0.061534885,0.1123966
0.045083407,0.11251854,-0.08815168,-0.10417245,-0.11498038,-0.07860236,-0.049633175,0.082495734,0.13344225,0.18921393,-0.048386894,0.043360718,0.012512697,-0.058347452,-0.06495433,-0.08303531,0.09642926,-0.032987956,0.039879605,-0.019214725,-0.0008041366,-0.00055879046,0.1062104,-0.012372547,-0.023493225,0.08050411,-0.01647891,0.06293551,-0.07378113,0.005880476,-0.017661657,-0.11585016,0.015414207,0.045551933,-0.097858734,-0.0053509315,0.053114526,0.045498755,0.07934568,-0.05717133,-0.03183802,0.08633212,0.0716742,-0.07094507,0.09583903,-0.031686507,-0.11545362,-0.017607573,-0.07944955,-0.101520896,-0.117585726,-0.08673968,0.10902755,-0.100545146,-0.063828014,-0.0733262,0.08771967,-0.101071395,0.0002537882,-0.016287128,0.07499305,0.12781467,-0.037246786,0.08399237
0.10999122,-0.055484693,-0.04821245,-0.10887462,-0.03757283,-0.037918076,0.006584029,-0.06774086,-0.11377534,-0.034447502,-0.001002044,-0.1310493,0.0043847426,0.17140599,0.06353992,-0.07251976,0.011794864,0.09977389,0.17325069,0.07744075,0.16766775,0.011988651,-0.18283097,-0.036203958,-0.22799933,-0.11121399,-0.12738842,-0.0062083886,-0.07258277,-0.10564385,0.05123171,0.10910418,-0.08767905,-0.094731145,0.014195271,-0.083335206,0.03806295,0.0927553,0.007409959,0.13776071,-0.055017777,0.06395476,0.08004263,-0.029222548,0.04110519,-0.0671724,-0.0009962806,0.11009575,0.17257014,-0.121180095,-0.09603459,0.03466134,0.014130192,-0.105917044,-0.058768775,-0.019446138,0.011417976,-0.0751066,0.10579728,0.00078755314,0.110588625,-0.045123372,0.03763758,-0.027683219
0.12386024,0.044588458,-0.16897103,-0.07956081,0.037297517,-0.09321453,-0.070503235,0.06852254,-0.022655074,0.16548257,-0.12896538,0.0013546998,-0.16127457,0.1357438,-0.08646031,0.09988871,-0.10580704,0.04387081,-0.044499528,-0.032321066,-0.078016266,0.14233062,0.067725286,-0.13474648,0.024969,0.022817101,-0.11572034,-0.054022066,-0.18451685,-0.06281452,0.030794937,-0.016175978,-0.065132596,0.060365926,-0.072843,0.07231858,7.218792e-05,0.008094841,0.08421287,0.031957522,0.1193717,0.019744202,0.03176004,-0.009247455,-0.032333154,0.044024497,0.12656409,0.08636842,0.11154652,0.04998864,0.11027268,0.10473818,-0.0074307257,-0.07300027,0.06327798,-0.10357531,0.12978429,0.010794882,-0.08912248,0.016846187,0.09278609,0.02413985,0.10771707,-0.01653108
0.1372212,-0.005153645,-0.008502408,-0.12088754,-0.019401142,0.10449435,0.084937975,-0.10117178,-0.10590514,0.092523694,0.12578209,-0.06697695,-0.17397486,0.036110688,0.10484272,-0.124139264,-0.09000144,0.08975912,0.07372355,0.045916818,0.13008876,-0.1068527,-0.038467456,-0.06878229,0.07693373,0.10872689,-0.0031206568,-0.098773256,-0.013392077,-0.12287942,-0.015525811,0.016700283,0.07718804,0.076715656,0.11145817,-0.057456285,0.019436764,0.14007746,-0.119670264,-0.05936837,-0.017044725,0.08252309,-0.14132842,-0.067424305,0.003066631,-0.05273307,-0.036239505,0.11432407,-0.06470297,0.040445402,-0.06967685,-0.032325417,0.024417797,-0.060617704,-0.06175639,0.030743973,0.11297413,-0.09644276,-0.077055424,-0.025285231,-0.04234691,-0.016531555,0.108807296,-0.051176887
-0.041244373,0.07014245,0.055267055,-0.1478638,0.110859334,-0.101593204,0.03394482,-0.10431393,0.013283201,-0.10963302,0.20222984,0.12546374,-0.12694494,0.04980959,0.115966424,-0.1631028,0.1287548,-0.052280385,0.090906546,-0.095158204,0.19999045,0.01672523,0.0038155648,0.1181113,-0.06937157,-0.002398982,-0.07037901,-0.13989185,-0.03691604,0.017710913,-0.082962565,0.12715335,0.055303574,0.050760083,-0.0036644523,0.19969177,0.2091209,0.16012736,-0.16961586,-0.024571508,0.09855245,-0.115722425,0.083338566,0.14118777,0.123379506,-0.024384908,-0.1269787,0.03307233,0.048410155,0.14392449,-0.17394194,-0.080230586,0.1754289,0.026631944,0.13918711,0.1337203,-0.040208545,-0.09665856,0.12923613,0.06257568,-0.027110731,0.03242197,0.08167994,-0.13361861
0.10948594,-0.054464046,-0.07496278,0.11060291,-0.10363101,-0.101115145,0.119473845,-0.025509179,0.012660151,0.14915761,-0.048186433,-0.016497586,-0.017952202,-0.10462786,0.09795914,-0.03444354,0.03705577,0.041295324,0.09732364,0.090096086,-0.061129,-0.09378672,-0.07810186,-0.13280785,-0.03607881,0.09031077,-0.084426075,0.11159214,0.055492174,-0.038235806,0.09738928,0.08579486,0.077555835,-0.0422032,0.095658645,0.09277488,0.0331779,-0.020104878,0.11027438,-0.103409894,-0.0056057684,-0.115266256,0.074241646,-0.00478137,-0.082967184,0.07421448,0.036964133,-0.069472216,0.017431566,0.065111145,-0.03311669,-0.11363466,0.07441682,0.053030945,-0.0010749606,0.06131315,0.08680061,-0.12008378,0.08673648,0.008169931,0.04480129,-0.06135382,0.074135706,0.04764794
-0.03838994,-0.02097613,-0.12176149,0.07531038,0.071921185,-0.061872758,0.011918023,0.101213805,-0.06616719,-0.00054451905,-0.11472055,-0.043895192,0.07617588,0.07110285,-0.0015512815,-0.11988131,-0.09953057,0.027442086,-0.057675824,-0.0004834882,0.061263867,0.029814316,0.05341845,-0.12151658,-0.14663203,-0.07814614,-0.093570344,-0.021083191,-0.098838136,-0.07258767,0.037824832,-0.077548735,-0.0967812,-0.07287205,0.09773769,0.11581527,-0.07991087,-0.025513388,0.065003596,0.04145233,0.010121612,-0.021461742,0.12478776,0.04962646,0.10274741,0.0636294,-0.11274148,0.00075412315,-0.0038019395,-0.11532502,-0.05502239,0.0505623,0.122973055,-0.07157924,-0.014667956,-0.04051678,-0.06449314,-0.09010213,0.0659938,0.013519661,-0.017899692,-0.097785816,-0.010966817,-0.050165817
-0.08656598,0.0497068,0.040759444,0.092201844,-0.022394173,0.026903933,0.099696584,-0.085334495,-0.09539048,0.15816958,0.07335612,0.008983881,-0.035026968,0.021112826,0.100334175,0.03811108,-0.048301715,0.02759886,0.010386034,-0.05250076,-0.07850458,0.074308485,-0.14237016,-0.09905102,-0.06338916,-0.0002731423,0.080287494,-0.07697999,0.005353249,0.09285596,-0.0121146,0.08507399,-0.05294266,-0.09028417,-0.08539111,-0.011600281,-0.085776,-0.06504598,0.0049402127,-0.054726098,-0.056537613,0.03168719,0.07400544,-0.12848727,-0.08651093,0.048229903,0.0980852,0.015429451,0.060525842,-0.08016764,-0.00037498906,0.120757125,-0.076040395,-0.16830392,-0.0056334077,0.06709223,-0.025698949,-0.092274584,0.06663852,0.007420576,0.117944136,0.05440181,0.09748614,0.056548595
0.046211842,-0.01876069,-0.006952857,-0.08696657,0.015060036,0.033214774,-0.0428769,-0.119898625,-0.01785309,0.185666,0.07347547,-0.1731391,-0.1664716,0.13526037,6.1640145e-05,0.08979465,0.13628124,0.21701801,0.12657543,-0.02363517,0.004516158,0.10592385,0.00061925565,-0.043277115,-0.0813374,0.07192299,0.0016069398,-0.11345123,-0.047778293,-0.018999701,-0.02308473,0.06669625,-0.0726503,-0.004701648,-0.104764186,0.04544411,0.06677743,-0.050660085,-0.06907539,-0.07180276,-0.08174192,-0.019151589,0.047664434,-0.10072924,0.055020273,0.0515454,-0.089776635,-0.032577712,0.084899455,0.040247332,0.09104539,0.07120929,0.026635122,-0.14266953,-0.07561238,0.037604287,-0.075201996,-0.07095406,0.16579932,-0.09483441,-0.08141004,-0.010674169,0.03497208,-0.09463933
-0.054863922,-0.009857891,0.12101094,0.06436711,-0.025814895,0.07094557,0.13301799,0.06618079,0.0063372594,0.08705632,0.07809955,-0.052299254,-0.06998036,0.01292627,0.008539536,-0.00042208753,0.0027566974,0.038608562,-0.113525935,-0.025785848,-0.032184273,0.07996495,-0.046212886,0.038733296,-0.043725625,0.10132884,0.0694952,0.078160994,0.11987589,0.06807459,-0.052698024,0.025482548,-0.06734232,0.12091417,0.014002003,-0.026744943,0.043074254,-0.11464588,-0.04083158,0.08165145,-0.004159351,0.04896948,0.027129576,0.079344615,0.08089936,-0.06375312,-0.0004565468,0.050453078,0.07071685,0.089072615,-0.073391125,-0.13263491,0.041468177,-0.010190059,-0.03560261,0.0061260494,0.033190332,-0.043007333,0.050029,-0.024315553,-0.078830376,0.08571365,0.05589989,-0.098129645
-0.03813115,-0.04517891,-0.08863137,-0.065447636,0.0070129517,-0.013457836,0.04831099,0.05914361,-0.009014226,0.14557353,-0.1158311,-0.0032718692,0.09050368,0.060451344,0.07392157,-0.06413812,-0.13687415,0.037467655,0.09868438,0.033711225,0.008567868,0.114030816,-0.038544424,0.08579732,0.05158718,-0.055241264,0.045969483,-0.0077949557,-0.086250156,0.048308674,0.03429344,0.11251171,-0.060208578,-0.068959154,0.056877665,-0.100951605,0.105502576,-0.13077408,-0.020478012,0.07630164,-0.011778595,0.054269813,-0.02302091,-0.009903537,-0.116714016,-0.084817946,-0.054923948,-0.08611973,-0.14266612,-0.024897914,-0.075350806,0.06529931,-0.08804081,-0.14642052,-0.031223264,-0.008587921,0.07414483,0.13110723,-0.08401557,-0.05526823,-0.044341344,0.077601545,0.045290302,-0.04217582
0.008814918,-0.100866206,-0.0059118397,-0.0315882,-0.08125392,0.10260054,-0.072023004,-0.1105771,-0.11324124,0.04032958,0.14513904,0.12912185,0.08024564,0.018779092,-0.036860738,-0.061066065,0.023867495,0.05317615,0.09956895,0.008012576,0.046098385,0.035773892,0.017401958,-0.0008153803,-0.06462308,-0.0024887926,-0.047329627,0.0102838725,-0.045299497,0.13480282,-0.016200917,0.005313495,-0.023047686,-0.0007936242,-0.078821994,0.03210258,-0.101731144,0.12910186,-0.061878722,-0.0014372845,0.109795526,-0.00081963476,-0.061837383,0.09330129,0.06497449,-0.118724056,0.058235034,-0.0126744835,0.106257595,-0.05369835,0.06590254,0.099540256,0.14392476,0.011508898,0.08655611,0.0143537475,-0.1234879,0.09149041,0.08628151,-0.0121089155,0.104179114,0.065597504,0.06331916,0.06219346
-0.011406061,0.07142339,0.048993703,0.00980654,-0.055733506,0.089664355,0.045493733,-0.118278466,-0.0058752545,0.14991796,0.009285376,-0.11540265,-0.12833501,0.1276319,-0.02166664,-0.0031280864,-0.044672627,0.21405695,0.013209748,0.0997078,0.032872356,0.100885354,-0.027019015,0.036013294,-0.020391202,0.044787724,0.0779119,-0.03158636,-0.07043698,-0.04107371,0.1043285,0.023685278,0.07366795,0.06613337,-0.08785213,-0.032616,0.078981325,0.06418253,0.03486492,-0.02811019,0.106953435,0.044208754,-0.047194026,-0.043016616,-0.12653343,-0.03598506,0.008737635,0.13840248,0.1398193,0.0601047,-0.10066782,0.08693664,-0.034379687,0.035803564,-0.070354275,-0.010497057,0.04028464,-0.0034354196,-0.04360052,-0.08957587,0.093060695,-0.10415081,0.019918764,0.006370136
0.0090655675,0.015662039,-0.0803339,0.06637714,-0.0029685511,0.028002134,0.12626901,0.044052105,-0.082303,0.0052025886,-0.14609957,0.07462549,-0.08539345,0.09076794,-0.09711803,0.112075225,0.0441351,0.15331459,0.03869462,-0.052384797,-0.07945757,0.09379255,0.01002316,-0.034132652,0.06933628,0.04229888,-0.08443889,-0.1040036,0.010387223,-0.075342745,-0.07914333,0.0029882004,-0.06982186,0.13667843,0.04333285,-0.12621677,-0.10536079,-0.018319001,-0.078352824,-0.08389905,0.050748765,-0.029934708,0.14637828,0.008499578,-0.021303538,0.12396459,0.097749785,-0.037248734,0.04516131,-0.022042612,0.029044813,-0.0012912342,-0.087051496,-0.06800129,-0.0319216,0.078873776,0.061764263,-0.05247349,-0.009849368,0.0544277,0.027535671,0.092640236,-0.06299649,-0.06578401
0.11416451,-0.13981722,0.05830253,0.06325708,-0.05518668,0.077905886,-0.09933525,-0.013803266,-0.002694944,-0.04765248,-0.0847692,0.058575578,0.023099039,-0.035632845,-0.11716058,0.09756777,0.014296289,7.072234e-05,0.0613809,0.026786532,0.027268812,0.044796515,-0.012048368,-0.08717417,0.030785043,0.09505078,-0.02739945,-0.10776826,-0.071969435,-0.006900144,-0.07485241,0.12493541,0.060955524,-0.035934333,0.11477607,-0.05768669,0.07251723,-0.041591186,-0.051165313,0.099114,-0.07294254,0.024675833,0.09577496,-0.012228002,-0.0352078,0.100346714,-2.2711345e-05,0.06283466,-0.0988443,0.023280645,-0.120899625,-0.0462587,-0.11236019,-0.0020153185,0.10136446,0.03755423,0.0912176,-0.014007739,-0.12928666,0.08324472,-0.102604575,0.15160249,-0.08427527,0.12877339
0.020725394,-0.12512422,0.042154144,0.14616756,-0.028849235,-0.115352616,-0.09167069,-0.09600023,0.019888192,-0.07142377,-0.027378492,0.023991503,0.02750987,-0.04396547,-0.07434905,0.086213455,0.05013115,-0.15135139,-0.13815719,0.11616685,-0.09619062,-0.076444656,0.10635476,0.04876145,0.120642,0.12993549,-0.09024757,0.04455914,-0.036924355,0.08799257,0.0782677,-0.07150517,-0.06844788,-0.012876127,0.12271175,-0.040888544,-0.033856384,0.08532072,0.046747994,-0.09822631,0.0044534444,0.0105832,0.101003796,-0.10970535,0.04271418,-0.08084908,-0.03246088,-0.02196353,-0.08828415,-0.08475253,-0.026241852,0.033379007,0.043917596,0.0035036781,-0.13635224,-0.14631389,0.07850169,-0.016994055,-0.04670906,-0.013886176,0.08147113,0.111947626,-0.0459934,-0.009967686
-0.05904813,-0.07068419,0.025446143,0.09923189,0.07280486,-0.08543743,-0.026922023,0.06376239,0.08014928,0.18800232,0.098427415,-0.08676201,-0.0029677518,0.04575702,0.07550145,0.077549554,-0.01538852,0.13934094,-0.05330973,0.046185184,-0.07170336,0.05063532,-0.13492812,-0.19295497,-0.11676602,-0.038809594,-0.06405833,-0.043728955,-0.08764878,-0.0017047363,-0.07009677,0.021136217,0.0065076137,-0.06464305,-0.073328,-0.10500159,0.09628424,0.057853274,-0.13957602,0.14082082,0.020544006,-0.12902872,-0.1303725,-0.070844345,0.010550806,-0.047774162,0.05569186,-0.034136076,0.0996247,0.047225524,-0.004201832,0.08182197,-0.069143064,0.061873384,0.05713305,0.09260073,0.109288245,-0.040053386,-0.039084964,0.08155224,0.0057877144,0.012491924,-0.019339373,-0.08113633
0.049565077,0.13869849,-0.07241145,-0.03373884,-0.006005443,-0.09862812,-0.022093318,0.10486049,0.059030738,0.08460204,0.02468572,-0.16092998,-0.13630432,0.014215804,-0.007967744,-0.015052731,-0.112545945,0.009632831,0.007987446,0.11005293,-0.08982761,-0.027363595,0.014334142,-0.10783132,0.03421152,-0.0065903794,0.091817796,0.076921575,-0.01691533,0.052651804,0.095773816,0.053261656,-0.049368937,-0.07607369,-0.032730818,0.08666391,0.063716084,-0.06096353,-0.08299762,-0.040392727,-0.0056264014,0.032543488,0.11264639,-0.08930008,-0.10298168,-0.020772612,-0.0069009545,-0.0036369988,-0.0016693232,0.07416975,0.016640045,-0.09675533,-0.016681002,-0.13649878,0.11803471,-0.058527775,0.055663344,0.023127927,0.02869978,-0.11134483,0.0381124,0.095206164,0.02892814,0.011749823
-0.008727901,0.031620998,0.028415605,-0.06278495,0.0534301,0.040992975,-0.13261342,-0.05602031,0.02850595,0.14040342,0.1342629,-0.17336076,-0.10626049,-0.057252426,-0.099004745,-0.11582908,0.012530881,-0.026870612,0.14312929,0.043968458,-0.07306523,-0.0126926815,-0.10611041,-0.069004886,0.042181462,0.10708876,-0.00026144617,-0.10553091,-0.068448596,-0.023589984,-0.094102785,-0.019591948,0.07466016,-0.09516584,0.04632934,-0.02733448,0.13632587,0.04736914,-0.033477344,0.065619916,0.0034009134,-0.11233694,-0.16550498,-0.12868173,-0.04613529,0.05842797,-0.005302023,0.13838303,-0.064872324,-0.0024083669,0.09230748,-0.02682884,-0.031095557,-0.15514821,0.03174977,0.08030607,-0.0808445,-0.10929997,0.09770611,0.09424131,0.056073185,0.05481761,0.13129726,-0.12535575
0.08330839,0.031743027,-0.09253122,-0.10809919,0.06705942,-0.023959657,0.11486425,0.02019488,-0.0684752,0.13339317,-0.0674728,-0.08815271,-0.15454985,-0.07039109,0.031553335,-0.09615146,-0.025244446,-0.070920825,-0.059374716,0.038977724,0.06916681,0.08783632,0.103966184,-0.01681748,0.043905452,0.05889298,-0.098351344,-0.04796818,-0.03685933,-0.09935407,0.092670225,-0.08625796,-0.08081176,-0.10746335,0.017007522,-0.042107496,-0.06605835,-0.033888325,0.08538009,-0.063326016,0.091084264,-0.069545195,-0.0663822,-0.102864124,0.06097447,-0.0967098,-0.10346138,-0.05969786,-0.06992425,-0.08785817,0.10372175,-0.026144436,-0.07415957,-0.034554075,0.022068031,-0.08847873,0.015400438,-0.058917277,-0.09066616,0.0034830635,-0.10969711,0.106654555,-0.05675645,-0.06363491
0.08721644,0.08172426,-0.003856491,-0.0222981,-0.005680612,0.11724556,-0.03625771,-0.034418453,0.09876935,-0.013544127,0.0038590226,-0.16828744,-0.06552413,0.02633888,0.10431161,-0.02941669,0.05826499,0.09003037,-0.010911537,-0.02566278,-0.063546024,-0.023560304,-0.030652216,-0.17000756,0.040581256,-0.12329296,-0.038321905,-0.05235745,-0.078219734,-0.0041271625,0.0045150984,0.054573134,0.009188157,0.09624357,-0.11557953,0.0022320275,0.067145444,0.057614617,-0.11596732,-0.0022778008,0.13578704,-0.13295363,-0.047815856,-0.107735015,-0.03940836,-0.12380915,-0.076157056,0.00065129367,0.07542228,0.011533079,-0.0099077625,0.07999526,-0.0026875,-0.16973789,0.09099367,0.1123045,0.021205984,0.109061144,0.021802463,-0.14553456,0.048136897,0.100820564,0.14250259,-0.019079946
0.06874857,0.14680368,-0.008521108,-0.11491,0.115423776,0.036604468,0.042283744,-0.07848368,0.056296743,0.15190804,-0.046325818,-0.09034066,-0.1450786,-0.040454507,0.13152681,-0.07033071,0.040482964,-0.02880549,-0.074796066,-0.01422475,0.07102393,0.087255746,-0.10476915,-0.10956512,-0.0034811473,0.032362368,0.03310122,0.008821795,0.015299828,0.03612191,-0.010239536,0.052463446,-0.12923197,0.08635113,0.07586927,0.0070701283,0.041497014,-0.09910205,0.02317628,-0.089177676,-0.045701284,-0.016156295,0.08650209,-0.09499333,-0.025000203,-0.082295805,-0.059171163,-0.0122462185,-0.028246563,0.06647461,-0.08162828,0.02950242,0.09797111,-0.17613776,-0.035936967,-0.08068639,-0.07159191,0.005660242,-0.08003032,-0.0116477255,0.074115716,0.007287732,0.041885164,0.058948547
-0.061673705,-0.0028790606,-0.011065079,0.123958655,0.07521198,-0.020887861,0.07657912,0.08930279,0.028766358,-0.058792304,-0.11788166,0.031941477,0.069055185,-0.060917426,-0.12987998,0.012415692,0.0547137,0.07167431,-0.086751714,0.042972125,0.08133142,0.006710146,0.027822677,-0.026441284,0.0016983188,-0.04865732,-0.024852837,0.048810255,-0.0011712627,-0.0073332805,0.020756843,0.0075133555,0.05747726,-0.09430455,0.09623475,-0.03872437,-0.04644243,-0.044297818,-0.0014943465,0.08713444,-0.04756973,-0.11051926,-0.00947054,-0.025391726,-0.08371775,0.11471911,0.030509265,-0.075606674,-0.061770957,-0.1119289,-0.033057205,-0.03403433,-0.100029595,0.07103669,-0.07082232,-0.06487471,0.091779575,-0.090247914,-0.005329831,0.13531862,-0.07450342,0.13221362,0.063208036,0.13156074
0.041911293,0.14840706,-0.07003885,0.040560666,0.12961215,0.10729453,-0.058232307,-0.046602115,0.028660085,0.016337862,-0.07198905,-0.060722984,-0.07930067,0.1120044,0.03146423,0.015443399,0.06898692,0.016318409,0.10265516,0.06386821,0.047495194,-0.08693715,-0.05772305,0.06563703,-0.0008808705,-0.029614167,0.0771597,-0.08441191,-0.047350805,0.123524025,-0.095962,-0.014649535,-0.07335308,-0.052497428,-0.10430536,0.0092579285,0.02584905,0.09040701,-0.02261419,0.014371121,0.15347177,0.01871839,0.14346468,-0.054528654,-0.0048398995,0.076147534,0.004221756,-0.118631944,-0.013602011,-0.021214794,-0.09600191,0.14061993,-0.06576775,-0.16087146,0.0928358,-0.08187897,0.029929953,-0.09062612,-0.083390854,0.06749549,-0.038225796,-0.11334957,-0.07917171,-0.08008199
-0.03730797,-0.04655478,-0.11241597,-0.06294957,-0.0648495,0.06400205,0.0035822035,-0.039756197,-0.062437717,0.07957491,0.038463958,-0.054919638,0.02238731,-0.016565211,-0.11035301,-0.0026766274,0.12325953,0.1852527,-0.039153803,0.09218506,-0.02224771,0.02091933,-0.14461198,-0.13817412,-0.1003879,-0.119434975,0.11432059,-0.11727897,0.059301283,-0.023169743,-0.06614193,0.11871942,0.056201134,0.010770984,-0.0434906,0.06612776,-0.08099552,-0.024041353,-0.1375156,-0.087128036,-0.092368215,-0.033935644,0.051623926,-0.032910176,-0.022507839,-0.12775505,0.13177021,0.060217444,-0.081604086,0.037097927,0.07422556,-0.029155137,-0.120241836,0.039822496,0.054121114,-0.021993179,-0.07544552,-0.100476414,-0.06320335,0.08892699,-0.08152502,-0.067233466,0.086859286,0.013778767
0.13099822,0.0115136495,-0.1200522,-0.025770742,0.010688528,-0.005402063,-0.11467335,0.111407116,0.09958272,-0.057415403,0.12747212,0.012172044,-0.041086443,0.015468182,-0.021532334,-0.08510697,0.089482516,0.10813661,-0.07003429,-0.04861069,-0.10892407,0.12330005,-0.007045733,-0.005430422,-0.14805059,-0.10437574,0.08935417,0.047242798,0.07966232,-0.10872899,-0.09181509,-0.11414966,0.03150304,0.0012940883,-0.13178453,-0.016618758,-0.059865717,0.08017963,0.10351645,0.1366547,0.0057593468,0.01728506,0.09389276,0.023467317,-0.06834283,-0.010591715,0.08705178,0.09867943,0.010041498,-0.058088798,-0.04796515,0.014643291,0.12931025,-0.034398206,-0.103348054,0.019574039,-0.059107423,0.050419364,0.047513247,0.06844502,-0.03895469,0.018897505,0.13009359,0.048888296
0.024846504,0.040798772,-0.086033426,0.031691764,0.08250348,-0.051643144,-0.011376834,0.038913112,0.11134422,0.04967073,-0.047285087,-0.030369222,-0.100916095,0.11286824,-0.09923144,0.044360463,-0.031972732,0.19785297,-0.09174814,0.062981665,-0.05975888,-0.05883983,-0.14267781,-0.095555395,-0.046814427,-0.10647485,0.060093105,0.020380292,-0.059553463,-0.11840833,0.090467766,-0.084029935,0.09835353,0.10562108,-0.015813842,0.070684604,-0.06829513,0.062049203,-0.040418364,0.08538577,0.08779758,-0.12317411,0.007537805,-0.119596675,-0.0069387523,0.08735641,-0.062403835,-0.09488123,-0.077992864,0.10271777,0.085397795,-0.04980653,-0.023588479,-0.12818436,0.091438286,0.13886961,-0.107350245,0.007396396,-0.07298912,-0.14403501,0.035163052,0.07366964,-0.08126811,0.053965658
-0.071718834,0.041213155,-0.08069734,0.11582186,-0.01790378,-0.012925211,0.00071895437,0.111654595,0.08048374,-0.053925578,0.0015549116,-0.05997262,0.08023323,-0.114551395,0.007504174,-0.11025266,-0.038291674,0.08540444,-0.07344264,0.08432692,0.10019586,-0.0968253,0.035389714,0.038278166,-0.0006214042,0.068021,0.05624422,0.022344159,0.09977295,0.13583805,0.09132261,-7.331047e-05,-0.075756915,0.008771771,0.11350632,0.039423205,-0.11409263,-0.0009981557,-0.100718774,0.063454844,0.046328746,-0.06507775,0.007979468,0.07663123,0.028554207,-0.061693683,0.005150206,-0.03568401,-0.09573212,-0.06998385,0.12043301,-0.0969882,-0.0049648066,-0.09875888,0.07345463,0.032757115,-0.0029488793,0.02902816,0.09929027,-0.12915997,-0.012529504,0.051823042,-0.025054412,-0.1059435
0.054352492,0.10547641,0.08132225,-0.0937428,0.12543574,0.06874581,0.019690568,-0.07303338,-0.014617448,-0.037305683,0.089889176,-0.036901943,-0.15216242,0.07059708,0.08566971,-0.00011753328,0.07171483,0.16669133,-0.018961882,-0.0974491,0.13684799,-0.05349934,-0.089784905,0.035599373,0.071823224,0.05885641,-0.074736565,0.05284345,-0.13338453,0.094433084,-0.035643183,-0.119758345,0.030464398,0.006906263,0.09774248,0.014887936,0.05434514,0.021137707,-0.038847182,0.06824163,-0.09593012,0.02175729,0.038951445,0.04749398,-0.13594271,0.005364182,-0.08201266,-0.06385356,0.0041000247,0.0016531734,-0.10182484,-0.07108294,0.12900695,-0.12370459,-0.033496767,-0.070236266,-0.01959466,-0.026917042,0.018926898,-0.064192235,-0.058967248,0.032933444,-0.0008702076,0.039552394
0.018837424,0.114798374,-0.13318746,0.017617648,0.09536123,-0.09037852,-0.013300013,0.013064916,-0.03738999,0.02273112,-0.04279498,0.072348885,-0.15640274,-0.039303716,-0.1254831,-0.09081001,0.014192095,0.1409436,-0.01598153,-0.02708878,0.086755596,-0.063349545,0.0635262,0.087264694,-0.11875663,-0.13218734,0.075376704,-0.08217044,-0.11388368,0.046149828,0.07847732,0.059750717,0.046377413,-0.033988886,0.033056006,-0.12530749,0.0010421326,0.020653114,-0.029146692,0.022520315,0.10709602,-0.024602719,-0.0018393681,-0.05177711,0.09377216,-0.11100169,-0.021388212,0.1249431,-0.013139037,-0.09395903,-0.12053379,0.09170437,0.02973268,0.0016549367,0.005997264,0.15724395,0.08668476,0.0031606236,0.025200922,0.062841274,-0.1237479,-0.07324872,0.113667026,-0.10227465
0.061743017,-0.10889556,0.014576761,-1.0900017e-05,-0.090131216,0.029816318,0.14343219,0.092910014,-0.031552117,0.054187287,-0.04982874,0.017990423,0.014777362,-0.12261987,0.013043867,-0.06254098,-0.059483632,-0.10996301,0.069755755,-0.07600701,0.111118995,0.118807405,-0.0758118,0.113556,0.084883705,0.11544056,0.03241862,0.015123852,0.0542684,-0.036574133,0.13675708,0.03984681,0.06315377,0.043345913,0.07577066,-0.08957006,-0.12555234,0.07498444,0.04430568,-0.124854416,-0.004050863,-0.10763509,-0.019469634,-0.057139166,0.020984199,-0.09358401,0.07319425,-0.053832937,0.029852832,-0.08222425,0.078680485,-0.13126026,-0.013711488,-0.12624621,-0.027179878,-0.11087356,-0.082536474,-0.056939878,0.042603277,0.15622994,-0.06624342,-0.06347412,-0.071012735,0.1288083
0.051919423,0.12986477,0.00067710347,-0.020089963,-0.05503246,0.04896655,-0.088246875,0.07044457,0.018331872,0.06438169,-0.10770203,0.022621626,-0.012887677,-0.11611205,-0.04846404,-0.0031146554,0.011626969,0.09649791,-0.06666126,0.051110372,0.07655888,-0.12226881,0.08047148,-0.05456326,0.091269225,-0.12217586,0.05456193,0.07410006,-0.14295192,0.08221078,0.033668235,0.03558481,0.019974524,0.052471265,0.10705028,0.068707205,-0.05920235,0.12127585,-0.051097058,0.020354355,0.05163226,-0.11482424,-0.052211635,-0.028698497,-0.0039666477,-0.023160428,0.002635396,0.10578242,-0.06376746,-0.097713135,0.0077024037,-0.08582386,-0.11502945,-0.115786426,0.08908712,0.006990648,0.018959735,0.0019991784,0.09836207,-0.04251895,0.11054091,-0.09437103,-0.049147367,0.040652953
0.030028863,-0.02659362,-0.10040572,0.10193815,0.0035140482,-0.04075269,0.11169528,-0.08594789,-0.068851575,0.122752465,0.046665862,0.060178563,-0.17067729,0.10735814,-0.10615682,0.11088802,-0.042351495,-0.024699418,0.0048273006,0.017977111,-0.11419658,0.05520952,-0.10047717,-0.14205164,-0.00780705,0.11329515,-0.05861405,0.118453026,-0.14904909,0.059894625,0.033189256,0.07238166,-0.081404075,-0.051156543,0.0526474,-0.017276267,0.017814208,0.07549966,0.07105627,0.10548832,-0.05268875,0.11040667,0.05859559,-0.09778159,-0.12680313,0.10113221,0.03365689,-0.06415226,-0.07760907,-0.058459565,0.05859217,-0.08651649,-0.025179636,-0.18383548,0.012696948,0.017032122,-0.058227327,-0.07533589,-0.013606653,0.015301881,-0.012051154,0.13648117,-0.03488904,-0.12028057
0.05274108,0.07034828,0.051308785,0.11356216,0.15432897,0.06804539,0.038459554,-0.035167146,0.07176916,0.006712557,0.062673844,-0.100329325,-0.074288145,-0.002426795,0.03838592,0.06865805,-0.021248667,0.12988898,0.012604291,-0.11189522,0.13080692,0.054756645,-0.026118107,-0.01775161,-0.089802615,0.06838603,-0.07883809,-0.013986385,-0.10257324,0.07153538,0.040768232,-0.01190122,-0.13737406,0.0849703,0.07079764,0.03094034,0.100053,-0.0025878786,-0.12303527,0.036918405,0.03752507,-0.006319602,-0.04691475,-0.14350536,0.0093592545,0.039308835,-0.08025156,0.13158265,0.08853166,0.0022990603,0.061255377,0.095817804,0.1176825,-0.022468273,0.017070487,0.037565734,-0.050324336,0.028241111,-0.10035922,-0.12059016,-0.07920974,0.054477174,0.021164618,-0.111010574
0.10379243,0.084125444,-0.12350491,-0.003735361,0.105357684,-0.019368961,-0.06411985,-0.11313216,0.10746975,0.083886854,-0.029862484,-0.042010333,-0.1319703,0.093433745,-0.051958777,-0.13384056,0.09119933,0.2187002,0.070616506,-0.030908858,-0.034570433,-0.022326622,-0.04109898,0.025763229,0.003698547,-0.015266822,-0.024765404,-0.10319082,-0.11061307,-0.041089986,-0.046937454,-0.008477156,-0.12360332,0.016060997,-0.13106327,-0.035940364,-0.02230451,-0.073860586,-0.13539565,-0.087967984,-0.04735201,-0.11494404,-0.07663201,-0.068779044,0.064756095,0.03867111,-0.07102049,0.14343306,0.03308617,0.0024376377,-0.11904168,0.07066077,0.15212992,-0.012430911,0.06589153,-0.05060795,-0.09717842,0.03415308,0.17988206,0.008158611,-0.1048684,-0.14474183,0.16166681,-0.1241019
0.010013757,-0.008281166,0.043334942,0.014243775,-0.081536785,0.08375924,0.015503239,-0.0012523046,-0.015232239,0.037087824,0.08173422,-0.16603091,-0.06587468,-0.10974338,-0.035161972,0.014796634,0.105753615,-0.011927051,-0.10273277,0.05641784,-0.025221823,0.0034682034,-0.018432744,-0.14966097,0.046497915,-0.025002148,0.096859075,0.038445424,-0.19876648,0.03819956,0.071413726,0.08449792,-0.05082767,-0.040929593,0.058300667,0.04633276,-0.07124731,-0.0341305,-0.11790854,0.11710195,0.11664124,-0.03918237,0.10241274,-0.042294845,-0.018610684,-0.07673521,0.119635746,-0.10666199,-0.08142345,0.046678107,-0.0128945345,0.036007747,0.029748376,-0.16993351,-0.013105147,0.0743269,0.054388814,-0.033550855,-0.097127914,0.08202414,-0.05684496,0.10119883,-0.09908017,-0.05989634
-0.029821834,0.08135852,-0.09302179,0.090503,-0.051339816,0.06501742,-0.044417698,0.058443923,0.0031996453,0.08105479,0.009127161,-0.053579826,-0.022793183,0.085609965,-0.018328927,-0.00021559426,0.047911,0.035443418,0.036736637,0.07169237,-0.061250146,0.13723879,-0.027972672,-0.14713575,0.02549877,-0.034477804,-0.021104397,0.09106414,-0.15195985,-0.12371886,-0.12002238,0.0217553,-0.07421905,0.006218652,0.10247652,-0.004916637,0.06213258,0.02394938,0.11053107,0.15114911,-0.03594931,0.14475253,0.035454385,0.058941748,-0.16676171,0.09088073,-0.053665772,0.056859046,-0.040365715,-0.06411414,0.10549616,-0.013856165,-0.016575122,-0.022326881,-0.11846874,0.02420652,-0.07646158,-0.0039131125,0.03654047,0.026192049,0.022318562,-0.043024473,0.09480599,-0.01511463
0.043385096,-0.01743607,-0.10194747,0.11080266,0.06611693,0.066194825,-0.024770886,-0.009591938,0.08033007,-0.043489084,-0.07051925,-0.09339561,-0.21231748,0.11851018,-0.045033425,-0.105204724,0.022877825,0.1094037,0.07209477,-0.010256338,-0.096994,-0.08290714,-0.01127136,-0.09139893,-0.07540585,0.03155987,0.09485135,-0.054255657,-0.002205616,0.009305389,0.00051443063,0.010322319,-0.09749494,0.12141733,-0.070421234,-0.0781745,0.10038479,0.075953014,0.051836193,0.022202041,0.10713029,0.06945861,0.014641868,-0.14055412,-0.060392622,0.01103297,-0.006928512,0.097182,0.062557116,0.10094946,0.05599266,-0.0973494,-0.045341514,-0.0042556906,0.010036344,-0.023377677,0.021555161,0.11907515,0.12201461,-0.014993173,-0.021926092,-0.011539952,0.037744537,0.06425482
0.020313725,-0.013253179,-0.13371293,-0.14513254,0.085201204,0.12036964,-0.0018713601,-0.14720434,-0.10907781,0.034869857,-0.0142122265,0.041266564,-0.08310875,0.087372944,-0.017231463,-0.094899416,-0.028206348,0.016985672,-0.028202718,-0.027298793,0.025692062,0.10358232,-0.10405084,0.08078588,-0.1066694,0.0589203,-0.10322633,0.061874237,0.01787768,-0.004036983,-0.026820295,-0.023697868,-0.108585835,-0.0833351,0.02497203,-0.008413165,0.07949112,-0.0668596,-0.16451111,0.075566195,0.04509882,-0.07928643,-0.089628406,-0.022540407,-0.074820966,-0.047042545,-0.07029397,0.022441508,0.11589716,-0.039691787,-0.02524887,-0.019750567,0.15670072,-0.20613481,0.06899525,-0.05950125,0.030965794,-0.14376378,0.13509755,-0.00036870365,-0.07325218,0.077695474,0.04226472,-0.0649319
0.041426178,-0.0055021155,0.026991293,-0.09187456,0.04822703,-0.0840707,-0.12539582,-0.043598175,0.074008845,-0.03352856,-0.0810324,-0.05071658,-0.0043847496,0.019294504,-0.0152064795,0.024557093,-0.0911307,0.07079258,-0.038177293,0.0983065,-0.08636454,-0.03073406,-0.13999937,0.008815742,-0.16964646,0.0035189013,0.062481213,-0.029567335,-0.09893712,-0.015886426,-0.016986966,0.057577424,-0.14461273,0.07893891,0.104211085,-0.06410111,0.099666886,0.13021776,0.06748899,0.08979111,-0.06274257,-0.057328224,0.000875586,-0.017123546,0.040070303,-0.052089524,-0.07929308,0.0049582263,0.06686638,-0.05195374,-0.018548034,0.029223068,0.14372168,-0.12949517,-0.03783374,-0.09751095,0.100611895,0.02271177,-0.020217093,0.02238126,-0.020284269,-0.06686724,-0.039010268,-0.08055082
0.060705625,0.0136498725,0.073261924,0.13644712,-0.01217212,0.040874254,0.06917514,0.032291282,-0.04372165,0.13163632,-0.15632217,-0.0079896785,-0.010653563,-0.14713866,-0.1198961,0.015891839,-0.10314491,-0.041206896,-0.06212097,0.078935035,0.032715164,0.025573455,0.1137312,0.011480015,0.095098965,-0.0028098559,0.063863456,0.09832625,-0.12373112,-0.008664984,0.011571089,0.031450033,0.039655793,0.12770136,-0.03322803,-0.12404271,-0.08779933,-0.13895546,-0.05657576,-0.013010228,0.041059326,0.13767172,0.07219568,-0.0675689,0.11738489,0.16648461,0.014756655,-0.000865082,-0.05670827,0.020557258,-0.08073037,-0.043807663,-0.13086595,-0.085272625,0.022597803,-0.08245321,0.10694659,0.15451467,-0.07705882,0.10311985,0.0019439383,-0.022028022,-0.06316121,-0.03852916
-0.07409343,0.10453048,-0.049843926,-0.014808071,0.054258663,0.013617812,-0.059071865,0.08332076,-0.06967045,-0.025875764,0.14560659,0.052755974,-0.1751161,0.10989791,0.010661396,-0.05679471,0.035690773,0.18351354,0.10300344,-0.11919851,-0.0058464804,-0.018049214,0.059458353,-0.113905184,-0.15397067,0.012771844,0.018699095,-0.021765886,-0.18247603,0.017653959,0.02028719,-0.12817262,-0.064683214,-0.025060046,0.06705616,0.04849606,-0.09420283,0.09702541,-0.05321068,0.14436364,0.08968405,0.07870294,0.007746446,0.0077727153,0.034781948,0.07497307,0.110810034,-0.015425741,-0.057981864,-0.00064879324,0.029749626,-0.093659274,0.001843229,-0.1496161,0.0025884716,0.023990452,-0.10977988,0.033123568,0.07792691,-0.005352726,-0.13654241,-0.004312376,0.07558554,0.0555742
0.11484977,-0.05719714,-0.15243788,0.120656915,0.11335441,0.02752223,-0.060372762,0.011391444,-0.030766577,0.15476839,-0.1049356,-0.22370367,-0.027591964,0.035694703,0.06296909,-0.11985922,-0.017271943,0.17533043,-0.051324133,0.088013224,0.07016372,-0.048221778,-0.005903042,-0.18134749,-0.13053182,-0.025774075,-0.0025670386,0.059337825,-0.032295737,0.09420598,-0.05727292,0.08414525,0.10861099,0.02466479,0.10385294,-0.07704001,-0.06579642,0.005108887,-0.079015255,0.041392893,-0.027386112,-0.08874989,-0.08196225,0.0055285166,0.046676185,0.10038042,0.021254769,-0.08789058,0.0076402356,-0.11851542,-0.10364533,0.10108629,0.06164542,-0.22629386,0.08839917,0.031852067,0.025518145,-0.07809211,-0.090277314,0.024020495,-0.10993857,-0.092510395,0.0022953548,-0.13836388
0.0122457035,0.049370386,-0.09631513,0.03886483,0.08664104,0.03840158,0.012186533,0.10278525,0.12955719,0.034855105,-0.096854955,-0.109371364,-0.15656236,-0.007581378,0.087797046,0.116310105,-0.0025549321,0.042800795,-0.004441196,0.09995609,0.06533732,0.0333924,-0.0005797661,0.06606648,-0.052822243,-0.07637433,0.019312313,0.016822262,-0.029895851,0.017614676,-0.055334207,-0.08267991,-0.04693865,-0.08844038,-0.06727117,-0.12018335,-0.028383497,-0.11443937,0.0143246,0.017267784,0.11472152,0.06706127,0.008818276,0.017987305,-0.044205297,0.03407316,-0.037196342,-0.033866253,-0.081888765,-0.108765595,0.013516441,0.04246345,-0.037820082,-0.15543914,-0.12456783,0.10639875,-0.06630402,0.11676944,0.034514308,0.04283528,-0.11450768,0.016494222,0.024103751,-0.12129549
0.02058717,-0.03710038,-0.07764544,0.027216893,-0.032463245,-0.07209634,0.08961086,-0.03394987,0.0048973938,0.11736584,-0.04426807,-0.028939417,-0.12289307,-0.015407535,-0.06002232,0.023822268,-0.04227225,0.011294178,-0.027590793,-0.06193503,0.11191366,-0.060627326,-0.053141866,-0.122897066,-0.13548218,-0.038188618,0.056537613,-0.06880903,0.012319224,-0.08748058,-0.110449575,0.095427245,-0.11669273,0.09906122,-0.05950553,-0.032166097,-0.11625497,0.058136895,-0.030524442,0.004520836,-0.02202612,0.044484433,0.018138465,-0.053395133,0.025132818,-0.075527765,-0.030609997,-0.016517255,0.033830658,-0.086812176,0.013440616,0.11963685,-0.08567176,-0.07061732,-0.10709888,-0.11684463,0.12638885,0.08222058,-0.04268911,-0.03496305,-0.035165105,-0.028028814,0.14658426,0.043553818
0.037422985,-0.015063376,0.021767702,0.027831217,-0.02693361,0.01766467,-0.18298121,0.019889971,-0.12774703,-0.11930623,0.076656036,-0.012492922,-0.028603168,0.1436247,-0.03576853,0.04233842,0.071801744,0.09308037,0.019872388,0.014421187,0.094444595,-0.112813644,-0.084164605,0.07376794,-0.21993652,-0.015097207,-0.0026266042,-0.019181909,0.112291045,0.06313987,-0.1836481,0.021019863,-0.09925931,-0.1108544,-0.04829654,-0.0764267,0.14244309,0.1557812,-0.014147139,-0.0050247973,-0.0002872701,0.014855644,-0.08498843,0.16717497,-0.05677719,-0.0730007,-0.05376038,0.16505702,-0.0095095,0.118058994,0.0063684615,0.08477228,0.09702538,0.14218463,0.07647273,0.15284252,-0.023517625,-0.09073087,0.09723037,0.052164674,-0.070978686,-0.15849328,0.15738222,-0.1471161
0.15254214,0.05062064,-0.12230831,-0.0978005,0.07095384,0.0155841485,-0.08949033,-0.043921005,-0.08286973,-0.04216671,0.025354287,-0.100060314,-0.14340983,0.10266223,0.0768086,-0.12062596,-0.006985155,0.05135756,0.027941551,0.047543254,0.13280377,-0.06339209,0.0024438037,-0.067328475,-0.04680568,-0.19623798,-0.13499017,-0.061654065,-0.12973516,-0.103304185,0.031410806,0.12501839,-0.0615141,0.051250078,-0.007961954,-0.10849428,0.050498847,0.16255,-0.16067822,-0.057155594,-0.07666133,0.015545819,-0.1450618,-0.13227586,-0.13866189,-0.057377093,-0.07376484,-0.009369951,0.004830256,0.0013974498,0.07781331,0.06952203,0.1353974,0.060055822,0.05164871,0.07772487,0.07976546,-0.10263289,0.0050344225,-0.24635345,0.04560439,-0.1211191,-0.03778387,-0.13296029
-0.04773551,-0.014365662,-0.067585826,0.05654066,-0.00073949486,-0.08666741,-0.07044476,-0.028969182,-0.0067796265,0.21408644,-0.047940094,-0.007966623,-0.03985003,0.037070386,-0.029388398,-0.0012891011,0.09059353,0.1440179,0.009392513,-0.05903477,0.04335718,0.027838461,-0.08183717,-0.11953006,-0.1294148,0.04891781,-0.011534165,0.11661521,-0.027712401,0.107988305,-0.10333982,0.11476039,-0.009397341,-0.039251767,0.0018965069,0.041075863,-0.05818635,-0.02623791,-0.100174434,-0.07889297,0.10745696,0.0878012,-0.06330334,-0.13766779,-0.1692384,-0.14482848,-0.09178641,0.031135378,-0.0463327,-0.025503408,0.06568154,0.09806871,0.058406763,-0.15914094,0.10413279,0.017811868,0.1027658,-0.12220575,0.038183056,-0.14842363,0.0970739,-0.046885703,0.1818903,0.058819387
0.00808604,0.11607264,-0.010484842,-0.064399414,0.12789036,0.10995287,-0.10117051,-0.11215409,-0.09124011,0.04008081,-0.090024896,-0.027829275,-0.1458818,0.0143352095,-0.091867715,0.03066947,0.04912656,-0.021940326,0.10867708,-0.056054763,-0.016047316,-0.0779371,-0.015011785,-0.06477239,-0.14690669,-0.040921316,0.00034451773,-0.1211475,0.059912086,-0.05396849,0.017920734,0.06268541,0.1002517,-0.05190646,-0.07210392,-0.06738792,-0.05592483,-0.022146482,-0.077130124,-0.00033706008,-0.05871224,0.09186772,-0.1147109,-0.14926921,-0.11070261,0.010580743,0.045954995,0.00892737,-0.019298619,-0.08689728,0.07791431,0.107356384,-0.09118953,-0.15154983,0.062130023,-0.066822805,0.0016955917,0.10875179,-0.050373625,0.060791712,0.040579397,0.061753206,0.03687819,0.09825013
-0.008804022,0.09801621,-0.03840897,-0.033047397,-0.0025458003,-0.05142745,-0.056287386,0.08491764,0.048605673,-0.06696586,0.0060761864,-0.004894635,-0.110498786,-0.032162007,-0.061631363,0.07075052,0.065673575,0.1638372,0.1328241,-0.014406453,-0.11428273,0.11112586,0.006540124,0.026317708,0.03852507,-0.036805533,0.06490164,-0.04464468,-0.074698105,0.073670186,0.07391921,0.13371302,-0.042085923,0.11361905,0.10919535,0.006816281,-0.10644145,0.09986563,0.073860124,0.13040979,0.11833559,-0.109868325,0.00021195137,-0.1113311,0.032329664,0.11262782,0.052955125,0.007492072,0.11069754,0.11247768,-0.09451512,0.10250584,-0.09890651,-0.083204895,-0.043637358,-0.034391318,-0.0011560959,-0.09338802,-0.045314603,-0.09205847,0.021488957,0.025792096,0.11625934,-0.115708634
0.006923162,0.15825857,-0.13760693,-0.07264232,0.040041644,0.110618055,-0.03595829,0.0539203,0.090034455,0.1352755,-0.080232605,-0.010022205,-0.06882604,-0.008187767,-0.054777082,0.033863705,0.084213704,0.15604107,0.12427981,-0.071854815,-0.027343625,0.074809864,0.02761197,-0.08467838,-0.058034446,0.061955012,0.049839146,0.011145011,-0.015923768,0.10927632,-0.07124195,0.08876368,0.08466131,0.03349521,-0.040947214,0.0027100863,0.1282712,0.12403991,-0.13479252,0.06157096,-0.11118194,-0.0888737,-0.063954055,-0.05134266,-0.007729005,-0.028442465,-0.13417271,0.029698556,0.05478046,0.10188716,0.02191184,-0.03558534,0.056854255,-0.05241268,-0.097727194,-0.05376591,0.0653022,0.0834418,0.0651985,-0.023308286,-0.007856979,-0.1206438,-0.024593478,-0.050054654
-0.00581454,0.0501054,0.08457706,-0.08205462,0.10370942,0.13191654,0.033601955,-0.057597857,0.0140576465,-0.057086237,0.100000225,-0.010087692,-0.079870164,-0.08164407,0.012602189,0.003863659,-0.02432157,0.0038900096,0.024079584,-0.08487963,0.11358343,0.03550702,0.020296957,-0.011214089,-0.08945996,0.01659837,-0.099892,-0.041603316,0.019607447,-0.004115861,-0.056534432,-0.009768824,0.079424694,-0.05840021,-0.08148324,0.029324317,-0.07755367,0.030516602,0.052512135,0.034135178,-0.06163557,-0.018620918,0.026740251,0.0826334,0.075862415,0.05444982,0.04003817,0.060227316,-0.04842036,0.049886715,0.11573194,0.12448685,0.08213569,0.013491348,-0.09328152,0.10937044,-0.115274236,-0.12365928,0.0072764256,-0.056302264,-0.11129207,0.09238567,-0.09478621,0.030524278
-0.06582819,0.03307556,0.02148032,0.06637577,0.099887244,-0.07695333,0.05705736,-0.019911708,-0.05910196,0.06951817,-0.108937554,0.07886527,0.028331272,0.09921657,-0.020478593,0.08130756,0.05271604,-0.06404042,0.0791964,0.077230826,0.05594569,0.035979234,-0.030917471,-0.06626109,-0.041539427,0.029237874,0.006310944,0.055502214,-0.021045053,0.036393754,-0.09372669,0.06563717,0.050634585,0.09706478,0.007541455,-0.06269037,-0.1003228,0.030204436,0.022641806,0.017909206,-0.08167765,-0.08837775,-0.0245688,0.04144173,0.04284739,0.118428946,0.08086219,-0.014082867,0.04237311,0.05355324,0.05848652,-0.03378092,-0.033865925,0.08936239,0.12170622,-0.029995577,0.082597286,0.027272033,-0.09701333,-0.11977069,-0.017179308,-0.04110125,0.11398363,-0.022021366
