shape,"(512, 64)"
-0.066165544,0.1325242,0.028904447,-0.013266733,0.10652544,0.08925084,-0.028652105,0.005648078,-0.0024330404,-0.023362253,0.1014704,-0.019714834,-0.15703425,-0.035410456,0.10333536,-0.10556865,0.05879432,0.081857316,0.08863958,0.051608376,-0.010519936,0.047419503,0.016648982,0.017412687,-0.019193731,0.042025253,-0.09989912,0.006005574,-0.14135176,0.0011893156,-0.11064325,-0.008895889,-0.08468062,-0.054358166,-0.12792969,0.03762813,-0.023646992,0.012285392,0.051714502,0.13586798,-0.10872304,0.030509269,-0.17134535,-0.037834074,-0.09233647,0.05363304,-0.1349615,-0.048146743,0.1867982,0.013888373,0.0021460874,-0.033862256,0.14813225,-0.0072195507,0.15143776,0.14802548,-0.030952686,0.07165035,0.104285166,-0.017773652,-0.007749411,-0.032748885,0.041848477,-0.1347442
0.12518136,0.08568954,0.037914205,-0.11854412,0.09259112,-0.117644146,0.06456565,-0.04247796,-0.1256645,-0.007298568,0.09466237,0.05996559,0.0662445,0.005234056,0.05736246,-0.04862829,0.014586348,0.03928793,0.0074662473,0.056766693,0.056207526,0.07285218,0.08430771,-0.017252877,-0.12786117,-0.038712133,-0.08450999,-0.07784497,-0.020901628,-0.09324889,0.024119385,0.02672965,-0.08731614,-0.053360246,-0.012744133,-0.037845448,0.124953195,0.067512706,-0.09589334,0.11267807,-0.077912375,0.056998525,-0.011642029,-0.11937707,-0.12222906,0.025111828,0.06691107,0.033934485,0.06635503,-0.11705981,0.031092558,0.10459736,-0.016118247,0.04212428,-0.10662536,0.049509116,0.08448129,0.05675727,-0.0012870771,-0.123398155,0.08083209,-0.13387437,-0.037519757,0.0678552
-0.025953956,0.043258168,0.083727665,0.026063902,0.05021389,-0.026633494,-0.008544832,0.08026825,0.07776621,0.070963115,0.06220678,0.082909234,-0.040730868,-0.09962192,-0.10904202,-0.042643253,-0.04190744,-0.059896577,0.015768228,0.094176255,-0.08220952,-0.062529214,0.10643479,-0.08341211,0.029644087,0.09676929,0.030700943,-0.08816411,0.027589412,0.045038037,0.1088407,-0.14250913,0.12018157,0.11543733,0.08494707,-0.014066949,0.03948095,-0.0031756065,0.021544948,-0.115473405,-0.008258614,0.10634583,-0.038334697,0.010568642,0.0069822096,0.10282991,-0.06539553,-0.14040321,-0.052545898,-0.0069609736,0.10110914,-0.068981856,0.07098619,0.098642975,-0.02105291,-0.048479665,0.12343343,0.06125596,-0.08512136,0.13283457,0.08861098,0.07307757,-0.14614306,0.039217647
-0.014930032,-0.13757682,0.15836762,-0.0117902355,0.011391159,-0.105294816,0.16776352,-0.0100348815,0.13789986,-0.09548244,0.030997802,0.15759465,0.029165458,-0.15987822,0.032517243,0.17861903,0.05775804,-0.04100603,0.009131825,0.09727822,0.0472446,-0.0281482,-0.016058346,0.08662634,-0.024078058,0.13765004,0.12978919,0.09602976,0.12050188,-0.08714223,0.07050111,-0.09671055,0.025930397,0.06321417,0.13234575,0.053591512,-0.050593533,0.017675947,0.09284489,-0.025514929,-0.055946045,0.12465959,0.15981491,-0.010416861,0.08546617,0.12715647,0.014754491,-0.1305902,0.013239674,0.038205747,0.017388731,-0.1516837,-0.07771009,-0.07870354,-0.09487918,-0.07841551,0.11913814,-0.043145753,-0.10044296,0.14344716,0.118696526,-0.018440085,-0.15802838,0.18426377
0.008343171,-0.08136781,0.05928915,0.04473406,0.01251425,0.121205,-0.06081961,-0.010518135,-0.0026765463,0.11078675,0.06495313,-0.032336216,0.10262773,0.072114736,0.0640111,-0.055881623,-0.07418655,0.08986761,-0.033657454,0.08720865,0.039189834,0.037269644,-0.039821953,0.101619385,-0.07902954,-0.05678021,0.06697259,-0.09331182,0.048583705,-0.052576084,-0.025091264,0.057252914,0.022811467,-0.052998602,0.03661058,-0.02696116,-0.056781918,-0.01326224,0.06742372,-0.0026382688,-0.12115572,-0.05775787,-0.029050903,0.0841161,0.102968335,0.09165161,-0.00674841,0.03968308,-0.104240395,-0.03502693,0.07292463,0.08112487,-0.005271532,-0.09677,0.0479708,-0.016585652,0.11077992,0.115380816,-0.096588336,-0.11405455,0.09555949,-0.1074864,0.09520125,0.05077507
-0.089779526,-0.05408762,0.021936186,0.093588896,-0.06578684,-1.3259472e-05,0.10761216,-0.028545797,0.113144,0.014443856,-0.029738916,0.11257587,-0.095447466,0.003958844,-0.08153754,0.02790568,0.07000563,-0.0023040697,-0.11275395,0.07125484,0.091352046,0.058977105,0.013946498,0.018640246,0.13338575,0.0731174,-0.081299596,0.12027677,-0.091804005,0.054399885,-0.08859967,0.10539386,0.0020537064,0.08560943,0.06587784,-0.0016178384,0.04019712,-0.084809706,-0.10153352,-0.04374917,0.054248396,-0.047656685,0.07736803,-0.052643564,0.017724589,0.02720485,-0.12579131,-0.109617814,0.013716033,0.023279985,-0.030323742,-0.12296534,0.02890764,-0.11047817,-0.03450757,-0.056144428,-0.12551345,0.09206522,-0.022430757,0.0019554526,0.09783211,-0.061045777,-0.052485332,0.04171956
0.05409589,0.07160158,0.111639254,0.07519973,-0.05195234,0.015424835,0.015795557,0.09272628,0.027771557,0.008080666,0.034339797,-0.1128755,-0.08974346,0.06653727,0.107648306,0.00095633033,0.09759699,-0.051294092,-0.044262435,0.12079628,0.010211133,0.018768644,-0.10906581,-0.0009614088,-0.024324793,0.09052059,-0.05039683,0.052800454,-0.016494988,-0.0734855,0.029528964,-0.0033571234,0.055257816,0.03050193,0.10834091,-0.04962951,-0.085394464,-0.024350803,0.068425775,-0.017048214,-0.037652392,0.09270867,0.066347346,-0.12591353,0.05515519,-0.102842025,-0.10309916,-0.04922106,-0.08733121,-0.09018386,0.04971076,-0.098253064,0.06901093,-0.09200123,-0.015053571,0.08177848,-0.040759236,0.021231106,0.049195904,0.12218701,-0.053526174,-0.055668667,-0.055949632,-0.06710729
-0.09812782,-0.026560798,-0.028960325,-0.12693596,0.09182109,0.05247308,0.074446,0.005304151,0.0050274143,-0.12844397,0.0763604,0.04577065,-0.04554479,-0.081647895,-0.049714066,-0.0002976786,0.026539054,-0.090119384,0.020122243,0.12543125,-0.09208961,0.027770832,0.10291944,-0.035657838,0.025328474,-0.006905454,0.0133651225,-0.08759903,-0.11644334,-0.034209646,-0.12826417,-0.0249604,-0.0022094972,-0.06547434,0.0031214964,0.04729542,-0.037416153,0.025014574,0.014256669,-0.0630858,-0.101388805,0.035093524,-0.13463482,0.013650108,0.056745924,-0.10686681,-0.023552945,0.078433104,0.028506571,0.007860618,0.08293344,-0.03918568,0.04132192,0.0070632123,-0.002919224,-0.10195103,-0.08702126,-0.12337572,0.0775762,-0.060062457,0.04294883,0.025968121,-0.04045546,-0.088705115
-0.03572238,-0.06498031,-0.04903283,-0.08254251,0.0007161469,0.013544383,0.032801047,-0.12919149,0.015829124,-0.083781965,-0.003751863,-0.037977394,-0.004589133,-0.034489423,0.03916402,-0.053126603,0.10803439,0.00030198443,0.060617454,-0.05334254,0.05403192,0.09946334,-0.06740035,0.058219235,-0.01913423,0.055519648,0.05787027,0.026150506,0.06776399,-0.1220573,-0.108370304,-0.05795307,0.037263025,-0.10712233,0.030942483,-0.08968089,-0.09302559,-0.097342834,-0.08535858,0.069817565,-0.046134476,0.033157613,-0.07014687,0.048813175,-0.122741506,0.0010828013,-0.118399374,0.1245229,0.125653,0.01707736,0.0641655,0.048662446,0.115626074,0.08081486,0.024500404,0.02078007,-0.10605905,0.0370337,-0.0780646,-0.13967185,0.061514806,-0.12620932,0.13166156,0.022485308
-0.027316002,-0.1147915,-0.013765537,-0.050026506,0.10145879,-0.11845591,-0.12384975,-0.09908876,-0.101646505,0.08630127,0.004601542,0.060473267,0.10979298,-0.07049117,-0.070134476,-0.031092169,-0.060441263,-0.09992604,0.09576946,0.07923507,0.12018401,-0.130409,0.06843924,-0.009861154,-0.04259322,0.09517009,-0.09817222,-0.0012447783,0.05034846,0.05916986,-0.043043397,-0.020269139,-0.09925915,-0.08304983,-0.034790765,-0.07336467,0.092352115,-0.10022512,-0.07753914,0.020476619,0.09123945,-0.11653404,0.092167206,0.101978205,0.07810001,0.015121833,0.1092429,-0.014415378,-0.035471704,-0.11174428,-0.09489049,0.12873957,-0.0328632,-0.05614156,0.03764539,0.11432365,-0.07447546,0.037588995,0.073427334,-0.11639444,-0.060447015,-0.08708834,0.03855033,-0.12675923
0.059759706,-0.08761404,0.021843115,-0.041448127,0.0065403166,0.0051633385,-0.093850166,-0.009439341,0.015405407,0.113239415,0.020932017,0.1206217,-0.019240012,0.0111912545,0.021678887,-0.053839743,-0.015962774,-0.089941815,0.0678645,0.12757154,-0.004787102,0.07507165,-0.05898601,0.09166204,0.14612566,0.08866596,0.04676295,-0.032770373,0.11760515,0.0076226634,-0.09933089,-0.12113579,0.09646727,0.13182186,-0.10311408,-0.056459207,-0.039701253,-0.065749064,0.037903108,-0.013922941,0.13607709,-0.013796828,0.11143263,0.03082164,0.12343689,-0.05160219,0.08657363,-0.137322,0.05705521,-0.034287643,0.045161378,-0.015083305,-0.050421067,-0.13860618,-0.071184374,0.042734753,-0.011504109,0.04665577,-0.045245737,-0.061264735,-0.0992974,0.018829897,-0.08988915,0.022229942
-0.032200783,0.089609355,0.039983645,0.03928274,0.08849751,0.08959366,0.02420055,0.015339847,-0.037664697,0.08664434,0.018337348,0.012562648,-0.04921857,0.033860516,0.058024917,0.14176162,0.020482004,0.025116362,0.008825083,0.1202731,-0.08183963,-0.019668559,0.0037136099,-0.050001856,0.0023195287,-0.028023986,0.029418472,-0.06535117,0.09037416,0.025029566,0.016904067,-0.03795564,0.13671346,0.09496943,0.12654664,-0.05777411,0.022823721,0.076990195,0.034894586,-0.119759195,-0.011876219,0.108973354,0.074694745,-0.02731968,-0.06469802,0.04537944,-0.11151485,0.007067852,-0.086307496,0.072235286,0.14240439,-0.07467807,-0.12647791,-0.13801944,-0.02847295,-0.066788025,-0.1140735,-0.048977435,0.057060666,0.10417328,-0.0205264,-0.023148118,-0.076803334,0.004279992
0.09783057,0.027397428,-0.1107301,0.043396223,-0.074506424,-0.05303411,0.11533637,0.124634564,-0.1009827,0.072104946,-0.08900603,0.032797907,-0.037499055,-0.07174232,0.037131663,-0.0005409759,0.10707396,0.008539355,-0.11218984,0.051367912,0.001373737,-0.036071457,-0.078148,0.094258465,0.03028865,-0.020249346,0.103630126,0.022694062,0.1241134,-0.082612224,-0.10889699,0.024734143,0.027465254,-0.0032967052,0.07765078,0.107503384,-0.064123556,-0.03516804,-0.061669327,-0.054418497,0.062228814,0.10834158,0.015640885,0.07272825,0.057060406,0.008410744,-0.06680381,0.03440822,-0.009251026,0.012631822,-0.11407087,0.10381323,0.062775634,0.013937006,-0.06442513,-0.033130135,-0.06210748,-0.08364917,-0.081312634,-0.08716783,-0.035799533,-0.06446135,0.09170666,-0.064504445
0.046527047,0.07413097,-0.1474456,-0.08022594,0.10437779,0.10390538,-0.16959421,-0.16438992,-0.06085361,-0.04507301,0.1332973,-0.12796165,0.0030182884,0.06601615,-0.07157882,0.0040401556,0.06121462,0.1274531,-0.05646749,0.06383514,0.14180435,0.07168776,0.0011585115,0.04353821,-0.18968628,0.024436934,-0.13891156,-0.07250142,-0.09625604,0.05034575,0.041172083,0.0603821,-0.0024982376,-0.062036294,-0.13373172,-0.013666331,-0.046317562,0.14003885,-0.03871203,-0.0038987817,-0.048983313,-0.05431858,-0.036985643,-0.07404954,0.07270959,0.04517346,0.014659623,-0.069812536,0.14069095,0.014846808,-0.08025083,0.13253936,0.02224916,0.008003409,0.10828772,-0.07790945,-0.10527582,-0.11763662,0.10040977,-0.110168956,0.0878979,-0.09768303,0.16722184,0.034444593
0.02450803,-0.052015953,0.034148797,-0.045909952,0.100158416,-0.0631349,-0.08212945,-0.117038965,-0.05464099,0.0042615654,-0.061249882,-0.10785804,0.06623898,-0.04365483,0.10462388,-0.13785282,-0.05373949,0.07730721,0.057287537,-0.10498708,0.05357558,-0.12447305,-0.11368922,0.025081057,-0.12465437,0.074044704,0.081411034,0.019458827,-0.007517194,-0.042651594,-0.016270801,0.077206485,0.050229736,0.0023903484,-0.032409728,-0.104972914,0.03580152,0.1281096,-0.028339803,0.017797738,-0.07852248,-0.029364206,-0.14148404,-0.09223191,-0.0384913,-0.013829915,-0.0806665,-0.011922007,-0.006422761,0.0038408765,0.0009869599,0.058312234,0.010476895,0.021965325,-0.05475846,0.106417626,-0.0074569373,-0.1338165,0.116119325,-0.12466693,0.04681565,0.08286211,0.11487341,0.0022606952
0.06423516,0.06018687,0.07429011,0.13621612,-0.00937948,0.099910855,-0.019307852,0.03035589,0.023200577,-0.1000173,-0.06089333,0.13444914,-0.074675426,-0.08625153,-0.1203492,0.119201675,0.09708036,-0.14371498,5.6001816e-05,0.1449381,-0.010047564,-0.109554395,-0.08074428,0.12196621,0.11882742,0.12489095,0.13713634,0.113231905,0.013454115,-0.027739927,0.103801794,-0.04340669,0.05187905,-0.042726878,0.022452706,-0.049592428,-0.10173528,0.060902722,0.10739185,-0.12709351,-0.0782357,-0.039840195,0.035982776,-0.100335434,0.044902433,-0.018251523,0.08626398,-0.11755616,-0.003203506,-0.08356687,0.006595661,0.019517267,-0.022681996,-0.017433528,-0.13070565,-0.05003266,-0.014193832,0.09181744,0.051572647,0.071379475,0.06113668,0.14378345,-0.1383521,0.080625996
-0.10417074,-0.0025741148,0.05996032,-0.09346781,0.009276028,0.05501697,-0.09087973,-0.009762253,0.051134147,-0.05655888,0.10107175,-0.078993484,-0.10395114,0.06987734,0.06151592,-0.028119985,0.10216914,-0.041918125,-0.08668149,-0.114413686,-0.009708845,-0.11235201,0.10029563,0.043235328,-0.119953506,-0.054723177,-0.09732389,0.086735465,-0.06566918,-0.094087996,-0.118688345,-0.0660609,0.041548736,0.13350014,-0.016982561,0.015688932,-0.11549056,-0.04937365,-0.026173895,-0.030852994,-0.03608021,-0.061220184,-0.073034346,-0.05535627,0.120781094,-0.12499328,-0.09822171,0.10708617,-0.00202085,-0.090678565,0.015764691,0.10562463,0.12388541,0.046739608,0.0190109,-0.07126982,0.0925877,-0.112962805,0.047713898,-0.06531873,-0.075744316,0.0084751,0.11668667,0.056725193
-0.055766307,0.031821728,0.057638876,-0.11024305,-0.03797922,0.07153229,-0.109091565,0.08226706,0.07940528,0.109395854,-0.04355221,-0.108224615,0.09521475,0.027365088,0.12503214,-0.067090206,-0.09251061,0.044548493,0.024457674,-0.0033235317,0.03414451,-0.08498571,0.00043073966,-0.14050737,-0.07476792,0.060016938,0.034037575,-0.08521398,0.065385394,0.10150877,-0.097359486,0.09185166,-0.10210387,0.023018131,-0.095248,-5.9528513e-05,0.10531049,0.089065835,0.09021343,0.08773224,0.082878426,-0.09754743,-0.08733061,-0.0016330966,-0.103313684,0.043310016,-0.049141273,0.10040671,0.14185533,-0.06075056,0.039946347,0.076806,0.052303206,-0.000953953,0.08053962,-0.021287933,-0.044597045,0.07625612,-0.06632581,0.049315464,-0.055560518,0.006461615,0.09344549,-0.048807133
0.0949359,-0.055194974,0.025814496,0.08025244,0.03571365,0.11516754,-0.0490351,-0.06112131,0.08591731,0.06426015,0.061943743,0.05554043,-0.05366233,-0.007547075,-0.11661093,0.05817891,0.106106296,-0.07702403,-0.10010982,-0.10189062,-0.059647776,0.103251114,-0.034674507,-0.039592084,0.0077271843,-0.04269051,0.042085487,-0.03675736,-0.091391265,-0.06467391,-0.10602918,-0.124645285,-0.11425209,-0.008102563,0.111781195,-0.07494987,-0.01247618,-0.094278954,0.061412815,-0.06233911,-0.102337256,0.02458484,0.034321148,0.06773507,0.03721566,-0.025847772,-0.105360866,-0.03000722,0.060705934,-0.06303683,-0.05561541,0.014978406,-0.10766196,-0.106933504,-0.038954582,-0.018394087,0.030074256,0.0002301733,0.07320349,0.086834125,0.03495273,0.12736468,-0.08391239,-0.04706585
0.09078713,0.10820301,-0.013140805,-0.13807674,0.14703624,-0.06330666,-0.0010806619,0.0269821,0.0425414,0.0068067843,0.048994537,0.054742403,-0.04319078,0.027310984,0.09355362,-0.0035521789,0.0106269205,-0.043213215,0.15513039,-0.01774155,0.017077997,0.042993713,-0.12462071,-0.0055514486,-0.022213684,-0.08151938,-0.0340055,0.04175386,0.012316818,0.022271566,-0.14325085,0.017245622,-0.13898847,-0.055244774,-0.06593754,0.055614773,-0.08678588,-0.022450441,-0.08883547,0.107690506,-0.041465424,-0.009526705,-0.025693253,0.08784976,-0.053762473,-0.025662355,0.08192217,-0.0123629,0.07119564,0.0827124,-0.09959679,0.115215406,-0.010056849,0.0036619552,0.10684981,0.01634244,0.026923778,-0.107920356,0.04095668,-0.16156115,0.02344801,0.025021069,-0.091571346,-0.15025501
-0.11431716,0.032550696,0.034696594,0.016255975,-0.0054151625,0.01962658,0.031336907,-0.081765406,-0.06247073,0.09279736,-0.010306175,0.004173289,0.00012310647,-0.11630219,-0.09695477,0.023012128,0.01831454,-0.097805426,-0.092915304,-0.01937844,0.055559613,0.06028713,0.05177373,0.1558418,0.12418272,0.049099132,-0.01664905,-0.10566728,0.13173416,0.09458019,0.14010783,-0.0332083,0.041273575,0.025481224,0.010403276,0.09810054,0.052405052,-0.0025070002,0.030352296,-0.042579077,0.07072878,-0.011399473,0.03367288,-0.0013623658,-0.085249014,-0.07025704,-0.023759408,-0.11281555,-0.013309452,-0.049079295,0.061483786,-0.119861215,0.01564953,-0.07974045,0.02668926,-0.013142548,0.06299661,0.12007639,-0.06796878,-0.04532943,0.13710472,-0.016302241,0.04843703,0.14020333
-0.018381275,0.1315887,-0.04992034,-0.013446049,-0.014003781,0.06816669,-0.0337647,-0.1122529,0.103186965,-0.08597093,-0.075821996,0.037245646,0.06723107,-0.0758035,0.12554485,-0.01599234,-0.081152886,0.057932276,0.084228314,0.002378378,-0.09954734,-0.12602897,0.110246554,0.006002139,-0.14575242,-0.027959207,-0.13121486,-0.017864725,0.037033487,-0.032773055,-0.01856107,-0.035972048,-0.034205064,0.09758561,-0.09582546,0.09984306,0.13344613,-0.1092275,0.04899497,0.020016726,-0.07696445,0.017735591,0.09956848,0.09957582,-0.021292318,-0.07589614,-0.028919913,-0.09821844,0.076742865,0.05271019,0.042718366,-0.08766851,-0.048022017,-0.035158128,-0.007240372,-0.0007592338,-0.005685586,-0.094694726,0.004002702,0.012435816,0.08908894,0.055235293,0.07034988,-0.111484356
0.08965645,0.034536894,-0.027611028,0.08399393,-0.0697816,0.10060159,0.021258332,0.02780628,0.1114717,-0.114121094,-0.08908919,0.11415597,0.1113116,0.02295839,-0.047503475,0.010932858,-0.08024889,-0.002483655,-0.013734494,-0.022893371,0.026030872,0.052850775,0.1264854,-0.015842577,-0.11497511,0.018818052,-0.079983,0.07803281,0.081171125,-0.095115356,-0.12756677,-0.004597228,-0.046999063,0.018003203,-0.039131377,0.058686744,0.017997485,0.10486109,-0.10034185,0.09291166,0.10770346,0.09182403,-0.040080264,0.0046144505,-0.0034483217,0.07400488,0.10715908,-0.07235915,0.070190385,0.11896964,-0.01561401,0.07702297,0.029385464,-0.023667132,0.098465405,-0.0060825883,-0.02542062,-0.009293723,0.07508121,0.042545546,-0.00022508366,0.0057326695,0.004905155,-0.062892035
0.090335995,-0.036371216,0.10335733,-0.0149949305,-0.11854919,0.045639463,-0.12895459,0.0109760435,0.03115196,-0.07768163,-0.08760975,0.018701268,0.057993967,0.0833899,0.120233,0.07405249,0.0060096,-0.0042043915,-0.071373306,0.0061448696,-0.009106907,-0.070920296,0.093682386,-0.057960365,-0.12328418,0.008410134,-0.0007607252,-0.020475373,-0.007804902,0.013592531,-0.04540328,0.090465814,-0.12173809,-0.0007043767,0.07104167,-0.09688278,0.07689898,0.12655653,-0.12614453,0.05474979,-0.12037579,0.046035796,-0.022894867,-0.1224183,-0.066685885,-0.059824575,-0.09842903,-0.09090821,-0.047876284,0.016590592,0.092745796,0.06321695,-0.031356208,-0.009902144,0.020165259,-0.030160863,0.12726195,0.09481786,-0.05671676,0.09734354,0.060746618,0.05327505,0.010734264,-0.04943339
-0.06328549,-0.13726883,-0.013333929,-0.080189094,-0.11636677,0.101144314,0.16127343,0.009753371,0.053873375,0.030183703,-0.042775083,0.13515668,-0.030719921,0.012155337,-0.11848552,-0.055236787,0.041472405,-0.03548768,0.05708722,0.063214906,-0.022979077,0.05459718,0.099106066,0.08408389,0.08551946,0.010441312,0.11142218,0.09162222,-0.08441922,-0.06706493,0.14882034,0.046064027,0.0994425,-0.0022351055,0.007738799,-0.10947078,-0.111713134,-0.15309577,0.0365581,-0.005234157,0.11802666,-0.074435174,0.15223786,0.07292105,0.16178535,0.061447375,0.07740008,-0.019439775,-0.14667165,0.098371744,0.0037288393,-0.08065676,-0.026592845,0.0015052244,-0.058141373,-0.037019797,-0.028501766,0.13229698,-0.086954676,0.11375845,0.045677118,0.104257405,0.0010911139,0.087509386
0.015286476,0.03836037,0.016957324,-4.835977e-06,-0.13584729,-0.10087135,-0.022075452,0.0679793,0.11903634,0.099886954,-0.0069351178,0.036645055,0.10354989,0.10130719,0.04994823,-0.07271054,-0.06842769,-0.05171464,-0.05500447,-0.10855768,0.057087764,-0.1206939,0.12068419,-0.098900266,-0.09699482,-0.07986017,-0.084959544,-0.064129695,0.07240161,-0.057644084,0.120454475,-0.13004829,0.0030603085,-0.07577757,0.0067492938,-0.006886238,0.10067628,0.03856912,0.10259447,-0.005708172,0.10821463,0.04607835,0.026141228,0.10294355,0.01685528,0.04103369,0.0007103845,0.03779332,-0.090203635,0.078063905,0.05554802,-0.034560226,0.120435424,-0.0128323315,0.02049288,-0.024616249,0.03957088,-0.014313529,0.071473435,0.07883307,0.058403898,0.110173136,-0.076801226,-0.073232986
0.077167064,0.110791855,-0.051840052,-0.104143664,0.057202198,-0.08980995,-0.093596585,0.002406548,-0.04266383,0.09565834,0.11378563,0.015332722,-0.045454234,0.08115399,0.031504463,0.06701836,-0.07801875,0.11487021,-0.054251093,0.032206174,0.066053785,0.116455555,0.112511024,0.05969576,0.03897718,0.03756864,-0.09238988,-0.11051299,0.09899653,-0.049658883,0.027637852,-0.121725805,-0.094551705,0.020831743,0.05754348,-0.124483295,-0.02938921,-0.048381753,0.05179291,-0.03328498,0.12067089,0.11452341,0.06585964,-0.026075609,0.12024923,-0.10303809,0.051544588,0.09857662,-0.08834807,0.07420924,0.090998344,-0.10549387,-0.1159055,-0.03883813,-0.1066538,-0.069465615,0.07084148,0.023380684,0.060945842,-0.06691154,-0.08964299,-0.05561198,0.052235078,0.1013368
-0.04621981,0.114997044,0.08847801,0.060497977,-0.037125424,0.07614956,0.070144154,-0.07163024,0.029462337,0.058249228,-0.042973015,0.12599808,0.056196686,0.035605464,0.062443934,-0.09227185,-0.05633463,-0.1246561,-0.08785806,0.109576866,-0.07523973,0.06985214,-0.08765978,-0.086571515,0.118137494,0.026473047,0.059474297,-0.004342134,-0.021036297,-0.0715749,0.08210855,-0.10648994,-0.008273361,0.12859583,0.09651672,0.011753342,0.043144416,0.045289937,-0.0902532,-0.106004626,-0.047742464,0.120027184,0.061247423,0.031306375,0.081042215,-0.02162786,0.07264047,0.023936553,-0.084270045,-0.036856435,0.10696515,-0.029528264,-0.0060446425,0.09205043,-0.08043538,-0.11252824,0.04845867,0.052018832,0.08226284,0.0448493,0.07855535,0.090597294,-0.045559857,0.050650284
0.06458161,0.03309765,0.060995273,0.080556646,-0.055761997,0.009623457,0.118960425,-0.033501673,-0.011687023,-0.106693424,-0.06743442,-0.06885386,0.08705852,0.03650234,-0.034865305,-0.04074629,0.061501347,0.059691325,0.022581711,0.12290592,0.10607812,-0.049030647,0.08128295,-0.08348075,-0.014279243,-0.10698463,-0.07102902,-0.0107651,0.095255055,-0.0010689079,0.1057027,0.0574703,0.11402942,-0.07088623,-0.0058969264,-0.1265201,0.08176458,-0.093556106,0.052011833,0.088740006,0.08343703,0.04179258,0.05037931,-0.044413924,-0.071641065,0.02050151,-0.049082283,0.03776564,-0.118584946,0.074250706,0.0043626497,-0.06506946,-0.008197968,0.006469411,-0.034837376,-0.08341217,0.025038881,-0.08587162,-0.001010132,-0.091316074,-0.07708561,-0.072787724,0.08963512,0.11148907
0.013422619,-0.10711505,-0.06796147,0.06490325,0.102454424,0.09264743,-0.016520027,0.032344438,-0.029792607,-0.029016098,-0.042723905,-0.089409314,0.099733435,-0.105660684,-0.009625985,-0.058296338,-0.032192074,0.040403824,-0.03084135,0.043443516,-0.11940933,0.030692954,0.07633173,-0.079920106,0.058012158,-0.014566834,-0.0048560454,0.1167565,0.12757231,-0.08708263,-0.08722714,0.07894451,0.13147569,-0.10362769,0.021999042,-0.097219236,-0.0652314,-0.060297478,-0.013881526,-0.006813757,-0.042071555,0.07807977,-0.03747917,0.074443474,0.07440645,-0.02477445,0.13015346,0.07143168,0.08798253,0.08099303,0.06687385,-0.014379075,0.046138376,-0.11438874,0.011128374,-0.010220093,0.014749243,0.108221665,0.04368283,0.031570505,0.0250446,-0.008806865,0.028517244,0.022177296
0.09266239,0.074058615,0.0069286157,-0.08653813,-0.011541668,-0.04737599,-0.08399458,-0.08679685,0.020452837,0.08452082,0.09194495,-0.005339819,0.042079218,-0.040363587,-0.008159554,-0.11321145,0.09665524,-0.028578185,0.019840434,0.09520653,0.035334025,0.10418337,-0.10768546,-0.0219314,-0.08503006,0.03487205,0.03525037,-0.015086016,-0.0643162,0.0053854934,-0.058378298,-0.09375788,-0.11741386,0.061506186,-0.1002243,0.018222237,-0.11172048,0.09895758,-0.004523027,-0.0005744636,-0.14238662,0.105081625,-0.070365354,-0.03902731,-0.10199602,-0.07654431,0.09708638,-0.0754989,0.13342947,-0.041791417,0.09310522,0.09403035,0.124084,-0.030616513,0.07047352,-0.05343431,0.023088202,0.11353218,-0.08440486,-0.1407814,-0.044606965,-0.11860971,-0.007739286,0.075904116
0.124073476,0.052240077,-0.089726605,0.029893879,0.111197986,0.019762337,-0.002060967,0.014376747,0.00904499,-0.09824477,0.07417293,-0.033726633,-0.123119965,0.013492105,0.09092144,-0.023069208,0.08113559,0.10214407,-0.064606585,0.025557557,-0.06153723,-0.112870865,-0.016407574,0.09885355,-0.16193217,-0.054295957,-0.14196037,0.11740409,0.010958324,0.041235708,-0.0038451974,-0.046902552,0.0957211,-0.05876975,-0.054834303,-0.03221492,-0.06866969,-0.08298483,-0.07399514,0.07565665,-0.0650996,-0.13035616,0.051441576,-0.08089006,0.020861287,-0.019148003,0.09245307,0.09328744,-0.07468661,0.096386015,-0.067422464,-0.020506116,0.014295599,-0.09962727,0.058109682,0.14414053,-0.0286811,-0.082435496,0.095190376,-0.10600333,0.07981202,-0.019162705,0.021257099,-0.059348814
-0.14097475,0.0313942,0.023676548,0.004985868,-0.0058503393,0.0062110815,-0.0650377,-0.053309195,-0.008035291,0.12642336,-0.10807356,0.15256378,0.15527295,0.0027422856,0.038849976,0.11655815,-0.053071823,-0.053212307,0.066988185,0.045059055,-0.00056280295,0.099481665,0.09471521,0.0142144505,0.050110277,0.13297017,0.12779519,0.09862112,0.04619872,-0.006966905,0.079983614,-0.11916724,0.0023750097,0.024119662,-0.0293811,0.077028975,-0.034809258,0.02424267,-0.07187747,-0.13082078,0.10314237,-0.096882194,-0.0023055186,-0.067413494,0.07563172,0.009444409,0.12994763,-0.028404234,-0.019157846,0.12814608,0.0107585285,-0.06607367,-0.1122217,0.060661558,0.005883147,-0.15583254,0.06390955,-0.04268158,-0.04884404,-0.0210684,0.028189166,0.15476924,-0.12582904,0.06649071
0.014233152,-0.009550127,0.027772972,0.047390707,-0.105601415,-0.025429327,-0.006621765,-0.086754486,-0.03426442,0.10640746,-0.0173819,-0.08940882,-0.11828019,0.028203955,-0.10171033,-0.06144645,0.053873643,0.09166841,0.09834797,0.10336018,-0.031265154,-0.09327495,0.031941034,0.01391166,-0.034026593,0.055604443,-0.022762883,-0.11427489,0.02085728,0.0344229,0.08136943,0.0663238,-0.035801183,0.009807719,0.1239208,0.03028365,0.03838369,-0.09383651,0.1266074,0.10655796,0.0993625,0.0060844976,0.026043594,-0.09629034,0.0069569848,0.11424975,0.11862626,-0.07962073,-0.07301076,-0.07704942,-0.059120044,-0.058128938,0.049655426,-0.09972377,0.077483915,0.06253152,-0.01781396,0.019411407,0.03446593,0.035463247,0.09385448,0.06360221,-0.089871824,-0.05000496
0.04495664,-0.120632306,-0.02063537,-0.10711158,-0.07469755,0.03603759,0.12321089,-0.033207368,0.04228843,-0.06809738,0.011335864,0.024794046,0.11711865,-0.057732865,0.05309792,-0.099433616,0.0030290235,0.046941224,-0.072126515,0.020491157,-0.03697061,0.059889734,-0.054239407,-0.091463104,-0.081018336,0.04947255,-0.069293424,-0.115099214,-0.02882955,0.072708346,0.12422131,0.08093892,0.050070718,0.053703785,0.056502182,0.020197533,-0.08693968,0.11390373,-0.02358919,-0.063515656,0.081330955,0.040086042,0.048878573,0.08164189,-0.07000056,-0.045425843,-0.0061749066,-0.046135023,0.015086983,0.0447226,-0.024290854,0.037186164,-0.08663122,-0.0601,-0.026600916,-0.0043682028,-0.09761907,0.08492022,0.02313419,-0.043873116,0.045580428,-0.067719705,0.009256718,-0.083598346
-0.010703158,0.022834083,0.07533036,0.08168996,0.020547487,0.033396807,0.059843272,0.03400417,-0.007099013,-0.08350844,0.011005472,0.109225355,-0.0003387043,-0.0734192,0.04914133,0.016745722,-0.06376314,-0.053885195,-0.017142083,-0.060875997,-0.08101303,0.029220462,-0.086929545,-0.08638298,0.11699521,0.13816503,0.090270765,-0.08227764,0.07498753,0.14001793,0.017052474,-0.15751739,0.08505469,0.1483677,0.0007252214,0.0075984914,-0.10167618,0.0438027,0.026258904,-0.052030027,-0.07898441,-0.08586571,0.13688713,0.12180782,-0.019158436,0.01981978,0.06929515,-0.14231648,0.02858734,-0.03980602,0.08876721,0.016763188,-0.14088356,-0.03393894,-0.05517738,-0.05385982,-0.06912588,0.1509558,-0.1639318,0.15664323,0.10240733,0.1612463,-0.09233482,-0.04514108
0.11600835,0.045657523,-0.089714624,-0.09472555,-0.04480552,-0.1027162,-0.029692208,-0.08775393,-0.098958984,0.06279778,-0.13571239,-0.06498112,0.09695719,-0.070234664,0.026727831,0.1218192,-0.13462597,0.019371616,0.040087212,0.07547089,0.06604646,-0.08644988,-0.054848038,-0.093710266,0.1274249,0.06230936,0.056998514,-0.12276504,-0.047886174,-0.0073736655,0.007885103,0.041561697,-0.03650409,0.06726674,0.0868191,-0.10728452,0.010266668,-0.05212592,0.061069008,-0.012429637,0.09121229,-0.012521321,0.010981433,-0.022039685,0.11356195,0.0631802,-0.092521705,-0.046291687,-0.040764015,0.049986973,0.016616426,-0.027795678,-0.06368398,-0.11646396,-0.03746992,0.015459878,0.050939407,0.05719901,-0.052279282,0.040902123,-0.081439726,0.080263056,-0.11104674,-0.08574863
-0.03583121,0.13082305,-0.11249807,-0.027061654,-0.055584934,-0.08891796,0.029207626,0.034875676,-0.041363657,0.052407935,-0.014845911,0.010613466,-0.016476322,0.10522355,-0.030072827,0.06368527,0.13390747,-0.07526527,0.0060832235,-0.051322326,0.118464135,0.01442576,-0.0724452,-0.086609855,-0.105497144,-0.12295326,-0.15965863,0.0022170777,-0.14173435,-0.089140296,-0.019451456,0.12011497,-0.13457656,-0.07262412,-0.065159425,-0.021388007,0.11986245,0.1001808,-0.124755256,0.057684034,-0.075287506,0.04557994,-0.06603426,-0.009820367,-0.032007795,-0.015155086,-0.08986095,0.097288586,0.18517898,-0.03564173,-0.14813358,-0.06785299,-0.038125463,-0.058488414,-0.00035796853,0.14746606,0.09356042,-0.15027851,0.013419654,-0.11216759,0.044021506,-0.04116218,0.1162269,-0.01326004
0.059925225,0.051560696,-0.024747713,0.11009575,-0.011752914,-0.119676374,-0.0044823806,0.038562458,0.014619323,-0.0045157205,-0.07563692,-0.072847694,-0.09363173,0.042353526,-0.09602944,0.05157733,-0.014591788,0.089306265,-0.06376155,-0.059817784,-0.03793972,-0.06331174,0.12282933,-0.076763496,-0.027871517,0.016719498,-0.0044558747,0.041098554,-0.049313117,0.108478904,0.033145566,-0.040438287,-0.10481321,0.07362543,-0.085086755,-0.109156616,-0.10955271,-0.06740531,0.0007921843,-0.11472754,-0.08813901,0.018370515,0.107852004,-0.037556805,0.13308685,-0.03821919,0.006743305,0.0546912,0.025055073,0.036882643,0.025868602,-0.10214902,-0.059679862,0.011551828,-0.0934313,-0.0004266327,-0.010145527,0.12219451,0.09624872,0.056121707,-0.017868796,0.02745688,-0.04729992,0.11892269
-0.073681325,-0.09011329,-0.10053264,-0.08172161,0.088220194,0.08899991,-0.080753274,0.031132318,0.06510832,0.052620914,0.053071864,0.017654017,0.04592768,0.1280061,0.022733746,0.04220104,0.076866165,-0.037488922,-0.070030764,-0.108743384,0.1201948,-0.08344667,-0.09778845,-0.11005102,-0.07624973,-0.01629479,0.08503638,-0.011920594,0.11258767,-0.13299748,0.07279543,0.056929298,-0.117193796,0.07993433,-0.04739908,-0.045797516,0.023635909,0.0036374598,0.057749074,0.020375954,-0.09068504,-0.016854493,-0.0014755863,0.08529233,-0.08601358,-0.04327695,0.024825128,-0.011799145,-0.06206435,0.118919626,-0.07260915,-0.08843552,0.11809649,-0.033591997,-0.066048436,0.052215107,0.06284556,-0.047538795,-0.027412713,-0.009738064,-0.052834194,0.04492877,-0.018959139,-0.070143126
-0.060707986,-0.008734763,-0.07040513,-0.0528861,-0.039903946,-0.112922534,-0.094816834,-0.088988885,0.07803818,0.025903273,0.0017161522,0.11008938,0.0034133086,0.08410717,-0.09916146,-0.1195642,-0.05495689,0.09566164,-0.03649723,0.12544708,0.11602023,0.076936156,0.081158035,0.114906795,0.016731763,-0.10144009,-0.059478316,0.093504645,0.09825709,0.11277564,0.057690017,0.00055889983,0.108487286,0.108218566,-0.025651846,0.09699114,-0.056292463,0.04287115,-0.01317754,-0.064404935,0.0456152,-0.056081712,0.0687401,-0.0062404056,0.06417174,0.036228865,0.045914013,0.11592978,0.12407908,-0.056902535,-0.056526616,-0.09912676,0.11926627,-0.10000645,-0.061910607,0.05429341,-0.121036455,0.0631518,0.019034429,0.08099728,0.07130768,-0.090385914,-0.032650243,-0.019092537
0.012253769,0.14528848,0.048543215,-0.007858647,0.013114039,0.0444686,-0.020685948,-0.056104247,-0.074428596,-0.08997368,0.08261831,-0.011883593,-0.06094488,0.032942485,0.06958596,0.0047270334,0.009510589,-0.041620363,0.018671663,-0.116949104,0.0010543119,-0.014949482,-0.12614797,-0.07834173,-0.16925949,0.04607542,-0.04250955,0.023461733,-0.095351525,-0.035851046,0.004641334,-0.04314959,-0.051889908,-0.07071954,-0.050326817,-0.07808383,0.08639884,0.15771885,-0.122849956,-0.06352063,0.0017337624,0.010004434,-0.14779095,0.01767461,-0.14611302,0.021183673,0.06661994,0.14555523,0.042984914,-0.12916417,-0.09842723,0.040628467,0.10985541,0.08895849,0.0934705,0.1273404,-0.14209564,-0.04069089,0.15314998,-0.17406988,-0.050118316,0.05521925,0.064536706,-0.029837826
-0.084638536,-0.014673802,0.04437584,-0.038046483,0.07841727,-0.0720492,-0.06990329,-0.041826215,-0.040965453,-0.10783049,0.009850443,0.026950149,-0.06419154,-0.08176549,-0.10376451,-0.10453075,0.08692327,0.0674669,0.063575976,0.10462169,-0.06277499,-0.07660621,-0.05773709,-0.14108215,0.07983268,-0.03590033,-0.08295734,-0.0990023,0.05351721,-0.02808688,-0.054856706,-0.099312365,-0.01542619,0.05442867,-0.07354477,-0.03043398,0.06523573,0.060378414,-0.065755345,-0.0113461,-0.099092655,0.112146296,-0.0480142,-0.09405139,-0.0886886,-0.10086619,0.12113406,0.071736105,0.05508675,-0.02146178,0.096738756,-0.019222604,0.005016534,-0.046744466,-0.013105729,0.08484439,0.10707388,-0.01004193,-0.07567301,0.010679524,0.06236481,-0.09535419,0.07395697,-0.04401169
-0.10626886,-0.15881398,0.024649873,0.08532501,-0.07993975,-0.13071433,0.047407463,0.0017575528,-0.09223311,-0.063571006,-0.10428719,-0.0055888123,0.15671256,-0.021129047,-0.083457746,0.085440725,-0.13563576,0.07958161,-0.0706897,-0.073023364,-0.13053918,0.1285996,0.08741299,-0.06253994,0.03969153,0.066604465,-0.04765305,0.021992628,-0.06093753,0.025475387,0.0035995098,0.061355498,0.065503046,0.018718095,0.02075654,0.03756936,-0.12119043,0.03943329,0.05349532,0.08699836,0.14267533,0.12384334,0.14818525,-0.038059533,0.018475233,0.051503424,-0.09778411,0.039832655,-0.085596345,0.016429737,0.046004295,-0.12681958,-0.03244687,0.05237609,0.01219892,-0.116953485,0.051961645,-0.009769283,0.0122427065,0.14771867,0.09149826,0.064753875,0.023934903,0.06402182
-0.06195938,-0.044803903,-0.020293524,-0.110720925,-0.068097316,0.086860806,0.016778102,-0.14062315,0.0362714,-0.0065757902,-0.059850454,-0.16277122,-0.09790002,0.14907768,0.1331005,0.027151462,0.12917252,0.13281102,-0.04253522,-0.048731443,0.140211,0.013412265,0.037775893,-0.029974049,-0.043925654,0.074428186,-0.08246552,0.09516197,0.058112018,0.00075011863,0.0628853,0.070832506,0.018570859,-0.0032103371,-0.022352986,0.12517683,0.052428603,-0.018498493,0.004258459,0.14166012,-0.089228936,0.048093133,-0.006381968,-0.074799016,-0.016392695,0.042500723,-0.050039764,-0.017550616,0.103143,0.031627603,0.053080816,0.17537399,0.14080569,0.1292053,0.009783154,0.12385385,0.083573505,-0.06458986,-0.037018515,-0.038480427,-0.029829316,-0.1654375,0.16622666,-0.08909905
-0.112332605,-0.021904252,0.1279946,0.08944994,-0.03154587,0.04072103,0.008087011,-0.052911293,0.10802908,-0.10491654,0.027961684,0.096418664,-0.09959417,-0.096727796,-0.061222948,0.11389203,-0.14289108,0.00093775784,-0.05334842,0.11338017,-0.025629912,0.100150056,0.008789872,0.056387518,0.0950446,0.12480951,0.08199309,0.07261639,0.050428543,0.12785806,-0.0635065,-0.00086405466,0.021001395,0.06339777,0.06933586,0.12986493,-0.075742684,-0.11594538,-0.06797296,-0.010467473,-0.02547931,0.017549949,0.049570262,-0.128496,-0.037003502,0.09348843,0.068029754,-0.11803353,0.029424349,-0.03381692,0.08101888,0.025196718,-0.120628804,0.03866789,-0.08714675,-0.12550656,-0.08755391,-0.052504513,-0.09344776,0.08672606,0.1303038,0.028559543,-0.011744315,-6.753343e-05
-0.02610201,-0.002942261,0.015643116,0.13986835,-0.118670285,0.011148422,0.18148202,0.055207584,0.079227686,-0.061201032,-0.15770867,0.0052606575,0.07420272,-0.1361306,-0.123823784,0.1058169,-0.047938045,0.0083268825,-0.07198558,-0.050345134,-0.029205523,0.07938212,0.020482386,-0.022804778,0.10596089,0.117221266,0.06828248,-0.11664842,0.00620582,0.051377214,0.08838779,-0.0981689,0.026006795,0.024872309,0.0088472385,-0.043170854,-0.071827196,-0.11140016,0.049507774,0.06383385,0.01832405,0.027050285,-0.033467628,-0.085370906,0.11245513,0.049804688,0.063057885,-0.0075498135,-0.015104664,0.111215346,0.14240752,-0.034672465,-0.14402816,0.09519272,-0.12610245,0.015728168,-0.079187185,0.091118835,-0.11143248,0.07473491,0.03186862,0.020996602,-0.010005147,-0.03679113
0.03193659,0.006391307,0.07354167,0.057367872,0.014045599,0.024620173,0.014360537,0.08371397,-0.10504962,-0.034411117,0.011500006,-0.030307094,-0.08454684,-0.07546146,0.10660035,0.066826634,0.09604388,0.05192746,-0.0012364825,-0.03116117,0.009123661,-0.062413353,0.0063991835,-0.03432272,0.006046189,-0.112654835,0.09705032,0.10651224,-0.105919376,-0.07255822,0.11667083,0.041765347,0.07953062,0.09136388,0.0534463,-0.08044616,0.05146075,0.0719284,0.033601943,-0.027173195,0.007840607,0.07146445,-0.021253573,-0.017425233,0.017078675,0.09577487,-0.048523992,0.10811815,0.011410339,-0.029505102,0.087971695,0.03222998,0.08620014,-0.064768635,-0.01862769,0.029179068,0.10531744,0.12299168,0.05000247,-0.07923428,-0.10975774,-0.031542793,-0.101516545,-0.093808636
0.04889838,0.106105044,-0.11348946,0.09552031,0.00011836965,0.11286567,-0.0021633494,0.09750715,0.0752708,-0.06995307,0.0014248422,0.048533496,0.10841969,0.00907365,-0.11671887,-0.06294831,-0.06673077,0.022841621,0.009294802,0.10954946,0.041570388,-0.08606026,0.009804919,-0.044146962,-0.028825598,0.0056343903,0.08975123,0.012748067,0.03633951,0.018797904,0.0030374927,-0.11082908,0.012573348,-0.089225285,-0.08033703,0.05524701,-0.07077595,0.04076639,-0.09115995,-0.030729042,0.013399278,0.018476978,0.051886637,-0.09224262,0.0234534,0.072939225,-0.036648992,-0.023431234,0.0199562,0.059017934,-0.027549388,-0.026555516,0.03311747,0.0906086,0.04568846,0.11575529,0.068962716,0.00028522793,-0.051115207,-0.009728676,0.11332491,0.0967647,-0.11164303,-0.020396942
0.07203224,-0.028089607,-0.1130006,-0.12579957,0.07920227,0.12177819,0.059809834,0.0117817,0.03989837,0.09996935,-0.017169135,-0.1287015,-0.10945454,-0.053023927,-0.07864075,-0.09258522,0.04326668,-0.0702222,-0.07405903,-0.066957004,-0.001959132,-0.008251089,0.109123595,0.013670004,0.029509861,-0.0670678,0.09947972,0.10419838,0.090990424,0.09196202,-0.13439699,-0.094303206,-0.04824635,-0.07473048,-0.11535146,0.085274935,0.11985331,-0.085302815,-0.029210791,0.09806912,0.0369961,0.024586888,-0.10682653,-0.1043396,-0.10204411,0.0123195,-0.05154991,-0.090006776,0.08302442,0.029919775,0.069835894,0.01551504,0.010170271,-0.057396572,-0.049389318,-0.07117688,-0.08767932,0.007909213,0.004289598,0.036776382,-0.005768915,-0.011659265,0.09520216,-0.111427315
-0.0031464107,0.0035746559,-0.10077212,-0.00300837,-0.055617057,-0.07933943,0.0008671447,-0.09268343,-0.026477084,-0.062103827,-0.06940294,0.035759315,-0.017156482,0.09436765,0.03398912,-0.10161075,0.1082294,0.01012442,0.037394762,-0.086946845,0.1264413,0.05943569,-0.015989665,0.05815049,-0.109984614,-0.099816926,-0.034712486,0.005478656,-0.029959965,0.08156379,0.07946023,-0.012352645,-0.11131616,0.00910284,-0.046305757,0.018262284,0.024415605,-0.1092649,-0.11230337,0.09436293,-0.023130987,-0.10047977,0.08560147,-0.084641024,-0.033753894,0.019824909,0.022027835,-0.004472291,0.06064229,0.10151684,0.041264888,-0.054388247,0.008043545,0.11555391,-0.06214586,-0.038503237,0.097727336,0.06725381,-0.004026143,0.07740896,-0.054425985,-0.1031521,-0.063629225,0.057807267
0.07141285,-0.014274409,0.021554295,0.12751123,0.005927204,0.010792181,0.15033005,0.12793334,-0.095143706,0.058964998,0.024930092,-0.090550646,-0.04951428,0.039098483,-0.09400351,0.076785736,-0.12395834,0.07047324,-0.09873977,0.061565615,-0.1214132,0.09257406,0.055761945,-0.0232463,0.035577714,0.07216479,0.003585274,0.08980593,0.055807646,-0.033500046,-0.02816381,0.03456306,0.015447272,0.116284065,0.008122121,0.06872191,0.08732413,-0.13932005,0.051726792,-0.013665222,0.08509714,0.11490362,0.010076924,0.08606479,-0.018107107,0.03342693,0.1188144,0.050780438,0.017865159,-0.1078696,0.119100496,-0.124510586,0.08648916,0.0014238474,-0.03076116,0.06948603,-0.101986565,-0.00066510256,-0.13056481,0.15758032,-0.04465564,0.12731649,-0.07450953,-0.06405994
0.10821041,0.018637199,0.06002751,0.08004928,-0.025105672,0.011952316,-0.016825559,0.0012974548,-0.123286545,0.010665605,0.09836906,0.014970985,0.072470784,0.08429803,-0.0757902,0.040935088,0.11846147,-0.099199355,-0.06385463,-0.08978072,0.07589842,-0.1293486,0.046748973,-0.0795386,-0.12790167,0.04788393,-0.0712846,0.02376457,0.0076356255,0.11596703,-0.10818666,0.05363073,-0.09080363,-0.049711946,0.089708164,0.10785796,0.0802788,0.040728252,-0.07647122,0.062321886,0.06640019,-0.069920614,-0.017927011,0.08412444,-0.052085754,0.0240404,0.029894784,-0.08469394,0.06816205,0.018607339,0.043041,-0.022542967,0.1276806,0.031548943,0.06664497,0.037686393,-0.03185109,-0.023404218,0.13020797,0.047618285,0.091150016,-0.049383573,0.0053024837,-0.08542055
-0.08089605,-0.021573316,-0.11646176,-0.06665648,-0.036029197,0.12337846,-0.054998163,0.06832714,-0.08126747,-0.119260445,0.0065772715,-0.09935549,-0.01262077,0.049911212,0.09604745,-0.12128403,0.03964329,-0.052949306,0.12861536,0.051375665,-0.010642917,0.015923088,-0.09564291,-0.044629056,0.024991909,-0.031461947,-0.052165307,0.033674527,-0.05585105,0.08499454,0.018010948,0.08724757,-0.013297227,0.06924336,-0.11016785,0.046130057,0.027875537,0.06428843,-0.055652812,0.03997603,0.083841145,0.017018376,-0.03673402,-0.014670657,-0.13151737,-0.1411638,0.09362718,-0.0017003083,-0.007848538,0.032059528,-0.11378869,-0.07601158,0.032656882,0.089328825,-0.01879893,-0.032206308,0.109444045,-0.0017021821,0.0045552514,-0.0130828535,-0.07179459,0.010048137,0.07138198,0.04770324
-0.05577831,-0.006434798,0.111420795,0.029921003,0.10525475,-0.062041745,0.020110257,0.07788973,0.118084095,-0.119598664,-0.112717174,-0.05863198,0.013751214,-0.08499225,-0.053420976,0.06721592,-0.1192412,-0.1302217,0.050384235,0.08012784,0.052090175,0.0029077642,0.12276916,0.06100491,0.10996232,0.0317066,0.09000975,-0.0072901268,0.048705425,-0.046250228,-0.0770337,-0.128651,0.0854587,-0.08362882,-0.017228685,-0.12901363,0.07390396,-0.13534956,0.12357842,-0.054396875,0.07081221,0.13360976,0.039373334,0.10932957,-0.058555618,0.07132541,0.09419954,-0.03454775,0.07475269,0.04831826,-0.08654494,0.05556747,0.10519252,-0.12834196,-0.029294364,-0.00029546104,0.09373526,0.08619112,-0.097137064,-0.037388623,-0.06393518,0.15081069,-0.14438653,-0.026746437
-0.018619174,-0.06165161,0.017678889,-0.06545669,0.12334504,-0.11205343,0.12137731,-0.11174334,0.12033596,0.06318842,0.05281534,-0.004686405,-0.099294245,-0.12520881,-0.08804878,0.04858147,-0.10194304,-0.10361337,0.037506625,0.033105712,-0.013602491,-0.106534764,-0.12425839,0.105873056,0.028492853,0.0471744,-0.090954244,0.105975114,-0.016046321,-0.052596305,0.086948685,0.08577174,-0.026508395,-0.09058218,-0.03996692,0.068717435,-0.04501159,-0.08964225,0.050565466,-0.09343828,0.02950208,-0.020488622,-0.09384093,-0.12424222,-0.020361694,0.06693941,0.007578218,-0.06933343,-0.08179435,-0.071896955,-0.10152682,-0.11783335,-0.045375895,-0.05781029,0.09816325,0.07038467,-0.02919776,0.034265023,-0.056462016,0.06494919,-0.03688278,-0.06879919,-0.10618311,-0.12264201
0.10129859,0.016403392,0.08271097,0.12962306,0.032875903,-0.11903896,0.029352024,0.052290216,-0.04005833,-0.07642388,-0.030857071,-0.01244578,0.095989436,0.027354214,0.041166935,-0.019332185,0.020003738,0.0735254,0.01667331,-0.032391354,0.024315031,0.052344315,0.06014669,0.097188175,-0.08324671,-0.050728958,0.08267534,-0.045673106,0.026723934,0.07505858,0.034927383,-0.06998804,0.10817693,-0.105664045,0.00022150483,-0.09204539,-0.069935806,-0.079772934,0.06620721,0.032727193,0.052887302,0.071333624,-0.08201049,0.0423346,0.08805752,-0.064703524,-0.005078764,-0.046562087,-0.13954495,-0.05668016,-0.010633527,-0.11916182,-0.12790811,-0.055301726,-0.1263303,0.031687077,0.026849242,0.13244817,-0.08063684,0.03966331,0.020286337,-0.09133285,-0.06994698,0.07834992
0.12986772,-0.030533917,-0.014175435,-0.11708599,0.11631902,0.088167146,-0.12873079,-0.11297091,-0.083286576,0.049624234,0.068231314,0.036164787,-0.1467653,-0.020943565,0.060856123,-0.10426899,-0.016659874,-0.007464067,0.09355424,0.024488356,0.14858851,0.04853436,-0.10268166,-0.11505796,-0.16455603,-0.088012576,0.029610815,0.14129952,-0.1338247,-0.13156714,-0.09049545,-0.02617348,-0.12588726,-0.009823596,0.06653823,0.004675615,-0.027113847,-0.08065265,0.082256876,0.1329669,-0.0468916,-0.123935655,0.034609035,-0.079752795,0.02407664,-0.14123546,0.05873067,0.08198284,-0.00152078,-0.02958422,0.04906257,-0.083649434,-0.015750349,0.07378003,0.05650703,-0.08709555,0.05550748,-0.065745175,-0.016856486,-0.051165123,0.08593524,-0.047204684,-0.020176882,-0.095328115
0.088840045,0.115786515,-0.09032344,-0.051869497,0.09795753,0.02236445,0.029105417,-0.012458633,0.124398425,-0.04953598,-0.054712832,0.072764106,0.006361511,-0.121097356,0.037332866,0.040917195,-0.11088221,0.09987093,-0.06436352,-0.062912814,0.01164387,0.11377521,-0.020020213,0.047653906,-0.057389658,-0.098447554,-0.037308242,0.033319924,-0.118021235,-0.08660624,-0.12390558,0.056891378,0.11838384,0.034173604,0.111275874,-0.025267351,-0.021341791,-0.08516616,-0.1138692,-0.013927666,0.04692841,-0.02090619,0.083213575,-0.11845665,-0.12034333,-0.07831621,-0.018267794,0.090019815,0.007450147,-0.08721672,0.039256483,-0.016269961,-0.10137734,0.07439919,-0.045809016,0.05084741,-0.073610425,-0.08220683,0.020694071,-0.02954452,0.10390797,-0.03570896,-0.10395959,-0.0038428304
0.06858841,0.10482352,0.016937928,-0.017004076,0.049489286,-0.025901243,-0.0050151637,0.015305078,0.06529725,-0.054131933,0.0515725,-0.07836077,0.09920393,0.12020359,0.006146999,0.034183685,-0.050793555,-0.035387244,-0.020247463,-0.060166996,-0.0164434,0.06983685,-0.124237165,-0.13197246,-0.11087039,0.008431091,-0.046106454,0.003089601,0.03873928,0.04082382,-0.041871753,0.061457157,-0.11862288,-0.01802359,-0.06447276,-0.044462178,0.05208871,0.11944945,-0.045338485,-0.055129915,-0.13592684,-0.07777173,0.031872183,-0.08378258,0.00012922517,0.069424,-0.107681066,0.016225673,0.12344795,0.05782179,0.07525009,-0.084889285,0.074107185,-0.021020379,-0.01018996,-0.027532673,-0.09056322,-0.1269907,0.003994683,-0.16699187,-0.031111512,-0.01700107,0.15182231,-0.025842665
-0.07528298,-0.044030543,0.08484226,-0.14686342,-0.011972226,0.08843992,0.010078758,-0.012342024,-0.030286953,-0.027962966,0.0037237946,-0.0068598664,-0.021062417,-0.009679243,-0.088279836,-0.042654827,0.056516282,-0.101464815,0.11160026,0.0973025,0.13427405,0.0025868209,-0.12218324,0.06641911,-0.02763972,0.032418385,-0.008241202,0.027329672,0.005433444,-0.041923285,-0.047254555,-0.023822488,-0.030060478,-0.056701995,-0.11248197,0.0019218302,-0.10797524,0.09425545,-0.004735099,0.12870313,-0.11182,-0.0667954,-0.026224444,-0.11276186,0.00974861,-0.1359183,0.04763706,-0.093917996,0.07270887,0.014356997,0.014735043,0.073822305,-0.014725493,0.010676339,0.015081541,-0.030244054,-0.05589951,0.05047816,-0.056114443,-0.019567233,-0.12134283,0.0265138,0.1154354,-0.0883373
-0.067091495,0.040273875,0.073962316,0.103278905,0.059785068,0.051381566,0.052749496,-0.01887425,-0.058225732,-0.05728105,-0.12360171,-0.11791574,-0.022761999,-0.031730935,0.08834928,0.09573812,-0.0018881594,0.032968562,-0.100300565,0.014324814,-0.13009498,0.03102685,-0.06551737,-0.009644103,-0.026246995,-0.055495393,0.101937,-0.08502715,0.031222476,-0.09816613,0.09518929,-0.037128907,0.058242355,-0.10177428,-0.07031282,0.044702195,0.027294626,0.0644044,-0.04860354,0.0013728122,-0.012513584,0.021255258,-0.025401691,0.029977472,-0.07585254,0.11922283,0.019602058,-0.004043178,0.042267907,0.09217169,-0.026454445,-0.13346434,-0.030520808,-0.02056914,-0.028075362,0.012393573,0.07072208,0.067895174,0.056917228,-0.06642638,-0.017718012,0.074473225,0.027372165,-0.05672591
0.03579237,-0.04863057,0.12886317,0.0642573,0.09006409,-0.03930301,0.046498112,0.15489323,-0.050084185,0.08867069,-0.10986568,-0.0056204717,-0.01104694,-0.10433546,0.02011203,0.08998718,-0.10372392,-0.1320832,0.03460644,0.11827394,-0.11401147,0.020353166,0.09574445,0.08019733,0.09558753,0.12697475,-0.07087919,-0.07026991,0.10338456,0.13288066,0.13579339,0.004589169,0.09523167,0.049911704,0.059490226,0.07228684,0.062873,0.0064575607,0.017917253,0.08758285,0.018474055,-0.024988003,0.12107606,0.038293473,0.06296955,0.08655614,-0.011931921,-0.038296316,0.032316968,-0.0042065307,0.07896129,0.003825809,-0.055468637,0.022605224,-0.051490925,-0.08421006,-0.051161237,-0.033686105,-0.1643336,0.00987435,-0.037296347,-0.06428079,-0.11455165,0.16091037
-0.069718875,0.03152068,0.077078685,-0.0076909503,0.024305744,0.11161329,0.09394651,-0.10109383,0.06997564,0.014602103,0.07288833,0.11199942,-0.01780995,-0.008293698,0.008004563,-0.0055722045,-0.044712093,-0.1350172,-0.050992448,-0.06810215,-0.12555994,-0.027978396,-0.060534112,0.1159589,-0.08734175,-0.09877799,-0.07411713,-0.037527446,-0.07568532,-0.03106683,0.08067893,-0.066325836,0.10458651,0.101044826,0.044414945,-0.054924164,-0.0055493736,-0.12306588,-0.0363983,-0.10815859,-0.049864866,0.030349534,0.07727433,-0.0055764974,-0.05134829,0.11953494,-0.008408145,0.08718442,0.06764202,0.10214479,-0.051284183,0.055421337,0.024433168,-0.027746413,-0.039951593,-0.08941358,0.0843268,0.084282875,-0.047431897,-0.05714591,0.0315917,0.102050185,0.09540063,-0.1036904
0.055648375,-0.022952793,-0.025509877,0.07413649,0.120386265,-0.086526774,-0.18064086,-0.13952589,-0.06431811,0.022134887,0.115394585,-0.04234925,-0.042669144,0.11669484,-0.07057194,-0.07081964,-0.015044261,0.018111814,0.14312163,-0.12690605,0.083206534,-0.11504398,-0.13407166,-0.17124642,0.013247463,-0.07656114,-0.05159703,0.09895577,0.07344567,0.02821181,-0.13297331,-0.020164646,-0.15374549,-0.008449957,0.05550829,0.0069071716,0.119336806,0.038471032,-0.14328837,0.013834066,-0.04881612,-0.15002568,0.021211123,0.039426144,-0.06679596,-0.09228431,-0.13649984,0.17048769,0.19683371,-0.029602015,-0.038257718,-0.028411234,0.16453469,-0.013986633,0.029756483,-0.021573137,0.08978781,-0.025847714,0.20301372,-0.024547713,0.01791771,0.0040500904,0.06637909,-0.12511279
-0.053853445,-0.09147307,-0.011353818,0.022378042,0.03921754,-0.001585663,0.14757472,-0.07661426,-0.08969649,-0.08070704,0.057333656,0.15054372,-0.06914213,-0.0005354337,-0.060040385,-0.07819114,-0.018930696,0.027877362,-0.018541083,0.015618265,-0.017291225,0.055780955,0.080337636,-0.09194356,0.083665304,-0.017428594,0.050049968,0.031120002,0.028182995,-0.059751038,0.085741565,-0.13393778,0.0010569638,-0.03007478,-0.026059048,0.117705256,-0.0068707024,-0.10834291,0.11814114,-0.066768646,0.13773109,0.11761232,-0.048494104,-0.043814458,0.09058742,-0.04174472,0.102228224,-0.10056257,-0.11640467,-0.058890376,0.08220692,-0.111422226,0.038395256,0.008557151,0.06834965,-0.111835755,0.13595636,0.009554119,-0.072880745,0.1693477,0.02371873,-0.05093558,-0.15097982,-0.06356866
0.06273491,0.060550798,-0.019060908,-0.037941914,-0.093169145,-0.026674878,0.014930434,-0.057106998,-0.08955653,-0.00012801096,-0.060927317,0.019640457,-0.09796776,-0.07759686,0.10728713,-0.056067213,0.07042164,0.07625639,-0.035554927,-0.14302677,0.110236354,-0.0058858246,0.033057954,0.04264472,-0.06770976,-0.015477867,-0.07037203,0.13217264,-0.12973545,-0.09782336,-0.04868226,0.10407358,0.021198515,-0.048770506,-0.0045091105,-0.026545422,-0.07334907,0.03698332,0.08537818,0.008847961,-0.061685562,0.10245769,-0.081251144,-0.07670691,-0.13334692,0.06508415,0.080662765,-0.018327756,0.03354837,-0.053437464,0.023222448,0.055618614,-0.0047827964,0.124541946,0.08888118,0.12626885,0.0051825847,-0.12784152,0.06025631,-0.102720134,-0.07137249,0.03903159,0.11321433,0.0052617854
-0.08297824,-0.032991547,-0.019287834,0.08669687,-0.108346984,-0.0754975,-0.014296539,0.044666115,0.07210367,-0.09976541,0.046768676,-0.0075560017,0.08851355,-0.025006305,-0.16563186,0.043525796,-0.12633775,-0.169589,-0.117155045,-0.0792468,-0.05456607,0.0780279,-0.038930815,0.023755383,0.110258274,0.033849802,-0.020952685,0.06263714,0.08901025,0.13036631,-0.075694114,0.041497078,0.116551675,0.12226057,0.06410845,-0.06925318,-0.1029292,0.03902618,-0.06447199,-0.14550902,-0.0073655397,0.12671211,0.048243046,0.048833653,-0.01584941,0.02352421,-0.011345348,-0.08921539,-0.1221931,0.007859247,0.1578578,0.047753524,0.031897172,0.0028022395,-0.025325272,-0.09378391,0.018914554,0.07125462,0.020237144,0.0590639,-0.04706156,0.07220316,0.038334545,0.156821
-0.06953462,0.034427613,0.057436123,0.040807255,0.094212405,-0.11770349,-0.122351214,-0.03324806,0.053477135,0.10287017,0.055900596,-0.08447006,-0.0095176995,0.05185976,-0.06383938,0.070125856,-0.023980452,0.11069623,-0.06143552,-0.08127264,0.032238193,0.030225407,0.03893945,-0.1014763,0.002208012,0.022479784,0.07232272,0.09701758,0.010077934,-0.042187948,-0.06475206,0.002569763,0.09718598,0.04487597,0.08692207,0.020209307,0.126207,-0.0917384,-0.063978575,0.051286526,-0.100491405,0.09869264,-0.10419417,0.0070060724,-0.05742373,-0.080548204,0.09869664,0.11025498,-0.07629827,0.027430477,-0.044468176,0.12558903,-0.0021470822,0.09239289,-0.031982645,0.10273918,0.11020827,-0.018004112,0.048947405,0.09429993,-0.06759568,-0.039362643,-0.07152104,-0.036870107
0.12403978,-0.010580269,-0.019996412,-0.009763801,0.043262474,-0.026231008,-0.12716481,0.09464768,0.070147455,0.07231033,-0.017344538,-0.0049177613,0.0051838052,-0.05357295,-0.10182768,-0.06415313,0.043132834,-0.043501418,-0.034538265,-0.059223335,-0.10997552,-0.04982337,-0.07016371,0.11015676,0.069496624,-0.07738705,-0.078078225,-0.10371473,-0.06787084,0.008122164,-0.054866336,0.12611869,0.039097935,-0.06891428,-0.08614484,-0.042289004,0.036499437,-0.047702517,0.011578456,0.09588069,-0.10198195,0.056019712,-5.0546478e-05,-0.11742249,-0.013657115,0.059795205,0.07839245,0.047950726,0.09118543,-0.11198505,-0.111616485,0.029102486,-0.0044352403,0.009752635,-0.064491,-0.08590837,-0.06740202,0.016262691,-0.053785004,0.099588424,-0.030190246,-0.113262676,-0.10186262,-0.09235563
0.060077775,-0.051961202,0.13207595,0.040697917,0.020291843,0.02149323,-0.0064165215,-0.05239841,0.11577254,-0.07275955,0.08057378,0.10754892,0.04992822,-0.053080782,0.061470367,0.1183866,-0.07135064,-0.09234291,0.059096415,-0.08839818,-0.0142801525,0.036937963,-0.012521592,-0.094256066,0.12607285,0.0028341818,-0.0738071,-0.020492908,0.056835044,0.13289404,-0.017470658,-0.08487499,0.113175444,-0.03994305,0.03276691,-0.08555788,0.043147285,-0.06623612,0.05846789,-0.08335221,0.022305308,0.02757505,-0.049932394,0.00394662,0.09330329,0.10662131,-0.11195941,0.0002901797,-0.011801028,0.048403032,0.06638388,-0.09158929,0.051137682,0.011959991,-0.061449558,0.10437656,0.10666704,-0.04888251,0.07757878,-0.0842347,-0.019810308,-0.041519124,-0.028413648,-0.080936305
-0.008054931,0.08108214,0.066832714,-0.09402867,-0.026546508,-0.016196387,-0.09696122,0.009919586,-0.10870685,-0.12570111,0.006727394,-0.13305087,-0.07400553,0.13275304,0.04439988,0.011012069,0.14027703,0.11322966,0.12190537,0.0019763326,0.026413372,0.027529882,0.06368417,-0.110631816,0.02527434,0.102013774,-0.038914017,-0.06188293,-0.09202968,0.08000399,0.016619556,0.13246347,0.09372822,0.11174196,-0.10775498,-0.006000973,0.11357858,0.10549178,-0.13906851,-0.020038486,-0.05611474,0.08964402,-0.035132315,-0.012894715,0.09132128,0.08531255,-0.0975029,-0.042355474,0.15378988,-0.12796132,0.034657367,-0.0009442881,-0.08612993,-0.0026842938,-0.081815355,0.10275263,-0.03418323,-0.13814558,0.15155093,-0.06285838,-0.08496242,-0.00033868072,0.13738307,-0.079975635
0.09115283,-0.14909506,0.024801673,0.07220342,-0.08999904,-0.01873273,-0.009178014,-0.05295845,-0.004996918,-0.011996727,-0.08131253,-0.020242905,-0.022684941,0.01916976,-0.118570395,0.08323456,-0.10813025,0.013517743,0.055146463,0.096713126,0.06476292,0.13688146,0.11894289,0.04062845,0.03675052,0.085728854,0.030211242,-0.064678475,-0.024259586,-0.090502955,-0.01568527,0.053611435,0.046278775,-0.054021098,-0.08942138,0.06827078,-0.07444724,0.0013785298,0.058566365,0.07216897,0.010155735,0.08445815,-0.006015912,0.058890156,0.011542792,0.09907937,-0.07897191,-0.12949492,-0.12123622,0.1308926,0.064196885,-0.077554256,0.021446154,-0.0023521571,0.08329381,0.06391623,0.12806046,0.14579174,-0.11265697,0.046507727,0.008404708,0.0151997525,-0.06929207,0.03686355
-0.04881927,0.09987844,0.01674992,-0.10683579,-0.10091715,-0.07949703,-0.078775086,0.059313383,-0.10921332,-0.06669488,-0.009448247,0.039239943,-0.08256504,0.10588615,-0.040401347,-0.016121738,-0.108048655,0.0005327434,0.10653704,0.04981071,-0.09306674,-0.011100496,0.037788868,0.116979346,0.0058403625,-0.055224508,-0.090586916,0.060959138,0.08202795,0.014742031,0.036088843,0.113508545,0.10321485,-0.10811204,-0.041721825,0.1062964,-0.012983082,-0.10597479,0.050350152,0.09539841,-0.011710152,0.097231485,-0.07315185,-0.0036037818,0.11332254,0.062143475,-0.055482987,-0.03426837,-0.11356347,-0.06282917,-0.05511995,0.014417166,-0.042501207,-0.10334726,-0.11698528,-0.11464393,0.06487446,0.12345759,-0.093124874,-0.07895889,0.036036555,-0.101058975,0.006304855,-0.0003448494
0.04743064,0.0302224,-0.011346494,-0.074972965,-0.09718454,-0.096637815,0.07736014,-0.12099105,0.014697156,-0.028826468,-0.09258655,0.066315934,-0.10860988,-0.022057362,-0.07545172,0.092893876,-0.07888803,0.066167384,0.067266144,0.040768057,0.13045341,0.105579026,-0.065882206,-0.10291888,-0.105839714,-0.0009184027,-0.08531726,-0.09190928,-0.04979438,0.09664123,0.07760564,0.11445986,0.008292035,0.025888639,0.027552532,0.08523598,0.10153088,0.12991188,0.056305416,0.12279328,-0.00044486974,-0.12726818,-0.04045158,0.03797315,-0.11422223,-0.13092658,-0.0828257,0.08907152,-0.057284914,0.034253765,0.06039271,0.009177885,0.06320041,0.110509805,-0.032141246,0.08910169,-0.021671824,0.0009955184,-0.023742355,0.013940887,0.06209604,-0.088742435,0.075413905,-0.07379193
-0.078402534,-0.07402546,-0.05598218,0.029832637,-0.045832474,-0.008382364,-0.053707983,0.074083544,-0.06211326,-0.068369016,-0.095012546,0.09707525,0.055315953,0.116626754,0.015848864,0.059816126,-0.09081967,-0.081168085,-0.033908043,-0.070950784,0.09787561,-0.010365694,0.07036421,0.08544233,-0.07455284,-0.12696184,0.010653708,0.0704927,-0.08577943,-0.027925331,-0.08170428,0.049867686,-0.13419348,-0.048662372,0.0708302,0.038943097,0.14267713,0.095431544,-0.08539492,0.10014811,0.11373617,0.027268024,0.08572769,-0.062777236,0.08192651,0.010416145,-0.102841906,-0.0144746,0.004057918,0.11150832,0.0012545475,0.123474665,0.10184455,0.0022957562,0.0654191,-0.014972623,0.042253412,0.08011019,-0.052068822,0.06613697,-0.0036770387,-0.11066932,0.14478792,-0.04191724
0.027333427,-0.08348717,0.0943425,0.0064394837,0.01831304,0.0029059306,-0.006182307,0.041023158,-0.053601936,-0.06683633,0.038434017,-0.08336481,-0.05394101,0.035912257,-0.058010906,-0.027434323,-0.03643875,-0.12684762,-0.15041073,0.13501085,0.029325038,-0.028477607,-0.08982071,-0.063923225,0.16819987,-0.08593827,0.064163715,-0.119889714,-0.09353482,0.06445894,0.11079001,0.010665848,0.037295215,0.026862664,0.09535456,0.029474892,0.048836302,-0.14307941,0.113884576,-0.021431843,-0.06222925,0.039671957,0.022070426,0.07342434,0.099401,-0.03394995,-0.034170587,-0.13654028,-0.024768747,0.07300514,0.09724407,-0.1386129,-0.072579175,0.023004614,-0.06806226,-0.12164062,-0.0018666887,-0.0019843415,-0.08875021,-0.010290866,0.053788386,0.14993562,-0.15019973,-0.0312769
0.056244295,0.037665874,-0.0032217011,0.04832884,0.10492723,-0.013729736,-0.122185886,0.09466504,-0.0658985,0.05979199,-0.026513034,0.006793806,-0.006175955,0.078867525,0.08772409,-0.14944515,-0.0733272,-0.025077961,0.06667592,0.021076195,0.12441696,-0.09863265,-0.10313812,-0.067397974,-0.15401147,-0.07847228,-0.053899005,-0.1078596,-0.10965719,0.08664308,0.041018315,0.03171219,0.03297123,-0.037514746,-0.077687986,0.13212994,-0.007038461,-0.07335028,-0.13982223,0.12088711,-0.06672342,-0.057028342,-0.05791292,0.04596647,-0.002374926,-0.04572394,0.023813058,0.0039518448,0.030102627,-0.1115864,-0.11340888,-0.048633777,-0.030455073,0.08979759,-0.0073816665,-0.025349444,0.079537116,-0.09747893,0.014292924,-0.0071040536,-0.07746897,0.0860204,0.15344384,-0.002974653
0.114355266,0.0074664764,-0.044258457,0.01187246,-0.01317707,-0.105548866,0.1261716,-0.051786285,0.045259997,-0.06950908,0.06055083,0.0735783,0.056007545,0.063125625,-0.10976838,-0.049585,-0.06327846,0.052654758,-0.0054988004,-0.01129649,-0.08583632,-0.12686566,-0.11845487,0.042601515,0.016593426,-0.054473802,0.04034218,0.060431242,0.06470914,-0.0032950465,0.098335564,-0.041347325,0.047449745,0.022060713,-0.11777818,0.05072341,0.054460928,-0.112086535,0.124394424,0.016621193,-0.05740279,0.11257207,-0.02382816,-0.08823909,-0.07309034,-0.031289298,0.05365088,0.060650215,0.10435028,0.118717,0.11771027,0.10814456,-0.018060906,0.054037154,-0.04488072,0.071525194,0.023698833,0.075696066,0.101697445,-0.103711866,-0.1202962,0.016652219,0.023870397,-0.014959203
0.04482421,0.024449836,0.040115256,-0.11853277,0.07125693,0.10950604,-0.06829277,0.044497516,-0.10226076,0.010448431,0.08385309,0.017424727,-0.1463216,0.011363255,0.033757634,0.016319089,-0.007948339,0.06192642,0.14424635,0.014211598,0.046881836,-0.072800785,0.080324456,-0.0012991687,-0.24250856,0.020416828,-0.06307196,0.01474432,0.050617203,-0.045896072,-0.1694907,0.110505186,-0.1123584,0.009669455,-0.11407562,-0.086292356,-0.011802115,0.13374531,0.03307816,0.040037084,-0.13269968,-0.15047455,-0.026859974,-0.01853859,-0.035857636,0.051950064,0.09109233,0.08392056,0.115646325,0.070465125,-0.136205,0.026487496,0.06713358,0.029520096,0.12321199,0.102386884,-0.13539957,-0.06673396,0.10665615,-0.0066665467,-0.1159804,-0.12288683,0.15468816,0.0022878635
-0.076839775,-0.02715356,0.0034507797,-0.019512206,0.0869867,-0.046975277,-0.016393006,-0.10132407,0.036378063,0.092910215,-0.079691656,0.056269683,-0.09459405,0.050103396,0.1438848,-0.051107425,0.11153245,0.08358846,-0.020425681,0.072090805,-0.058451608,0.05865679,-0.0690421,-0.043675974,-0.10779557,-0.11744418,-0.07590511,0.05344148,-0.10419176,0.02632868,-0.119740725,0.14288172,-0.06064334,0.02167403,0.03138503,-0.04626755,0.05228621,0.06607371,-0.020032203,-0.01325201,0.027292598,0.004468848,0.03528692,-0.07230454,-0.121633664,-0.13286646,0.08495915,-0.054727457,-0.05501416,0.083832204,0.058595333,0.09296089,5.104298e-05,-0.0446757,0.016422931,0.12622899,-0.01141878,-0.027770685,-0.0077468255,-0.025900088,-0.14092903,-0.09411133,-0.018946521,0.036952104
0.11844391,0.004020361,0.04734464,0.100115456,-0.021967143,-0.006407415,0.066041626,0.040420745,0.042674676,0.036547508,0.022519533,-0.013125947,-0.07164083,-0.11730959,-0.059692137,0.13268237,-0.13846502,-0.10664793,0.10854422,0.12977971,-0.09339204,0.11792672,0.04711542,0.120415114,0.10302279,0.10853877,-0.03558667,0.00708314,-0.0990246,0.082338005,-0.08391428,0.059872027,-0.087792896,-0.021552075,0.08778892,0.053251516,-0.023361929,-0.09181791,-0.011710666,0.10729481,0.13164958,0.027935278,0.022658894,0.060754817,0.094754405,0.035147503,0.069914326,0.09075345,-0.1502844,0.11868139,-0.10320352,-0.11315084,-0.027192246,-0.09442481,-0.036266953,0.07951249,0.107452475,-0.012781463,0.050869897,0.14333293,0.032613892,0.024587909,-0.0384643,0.0151128275
-0.05765612,0.12063027,-0.076692596,0.0617482,-0.0466837,0.04755444,0.0063250414,-0.12413101,-0.022065328,-0.13050409,0.010279556,-0.12804803,-0.10070093,-0.065377675,0.15736957,0.04665458,0.11926708,-0.060311656,0.061304044,0.04234392,0.113716155,-0.0049202982,-0.009553849,-0.008500472,-0.12607732,0.04852101,0.0033371989,0.13805293,-0.12525287,-0.1045223,-0.13709754,0.15861358,-0.1402789,0.07465148,-0.15889952,-0.0441874,-0.018222999,0.10556425,0.062092405,-0.08826129,-0.08634781,-0.12166825,-0.13258427,-0.031746536,0.07051414,-0.12963268,0.07882328,-0.048211027,0.14944093,-0.08415835,-0.12102835,-0.066599846,0.14866687,-0.031123249,0.009762453,-0.030518344,0.021658529,-0.16381128,0.17417592,-0.16069236,-0.08275471,-0.08838793,0.10883213,-0.038924374
0.033972178,0.025803844,0.017284084,0.05541553,0.056173336,-0.06678565,0.026100302,-0.029196681,0.058190636,-0.08937352,-0.0071547325,-0.08556532,-0.021024805,-0.113579735,0.09140654,-0.0039576767,0.07502065,0.10764424,-0.08764082,0.10711069,-0.061003964,-0.10481238,-0.0712755,0.09605208,-0.0019484559,0.12386185,0.013268822,0.0957271,-0.016724087,0.033116996,-0.0119528575,-0.04952555,-0.013251818,-0.09866363,-0.014863838,0.11550838,0.08669235,-0.032154933,-0.07621725,-0.0013122774,-0.011298127,-0.02325735,-0.12213189,0.043782845,0.120120145,-0.023877379,-0.06330509,-0.05101948,-0.018286908,-0.11124103,-0.111123525,0.034647,0.119502455,-0.0793585,-0.10299456,0.119447574,-0.1196628,-0.10565565,0.060920108,0.09133598,0.103249975,0.077864945,0.0102504855,-0.042848665
-0.047751233,0.022340467,0.049034007,-0.05659292,0.0084208585,-0.00070393883,-0.08756077,0.04566505,0.03726381,-0.073843166,0.02899395,-0.05913208,0.11254585,0.105922565,0.03443585,-0.07852745,-0.12669078,-0.041430704,0.006495902,0.12704892,0.017451506,-0.042163845,-0.021127023,-0.008519668,-0.07992352,-0.060725376,-0.079418875,0.0075630224,-0.005492841,-0.10750979,0.02384875,-0.0044634775,-0.09250719,0.08803245,0.10216205,-0.051608503,-0.09619209,0.07706514,-0.027607348,0.07490438,-0.084309004,-0.03154654,0.0007337858,-0.0151796285,-0.053120654,0.049693335,0.08056841,0.035670456,0.008562132,-0.003994727,0.014353351,0.0063878912,-0.06613516,0.109132655,0.034389075,0.11199742,0.02196816,0.056327373,-0.04544227,0.082866855,0.10486733,0.019104894,-0.011208254,0.08279804
-0.0959742,-0.013963211,-0.04386625,0.129828,-0.10698548,0.05534685,0.053748883,-0.07525712,-0.045811523,-0.10909466,0.109359756,-0.061537836,0.12942983,0.021836104,-0.0064866636,-0.022499165,0.087944865,0.114555486,-0.04165589,0.02245715,0.05017031,0.12854423,0.09935339,0.071096726,0.1006902,-0.049854964,0.10570399,-0.10661419,-0.05850953,-0.0138952425,0.00663801,-0.09217921,0.052793875,0.060134687,0.02740358,0.07469293,-0.09908206,-0.0859795,-0.03322989,0.11372301,-0.04302982,-0.11302068,-0.02773203,-0.026670216,-0.072129205,0.034562636,-0.079128064,-0.053761203,0.032459516,-0.016893243,0.08723565,-0.13331279,-0.043992903,0.06150975,-0.042375974,0.039131403,-0.045978267,0.097008556,0.024387738,0.040675066,0.050147668,0.09164037,-0.12407321,-0.10144342
-0.029114697,-0.09822934,0.011111002,0.06809523,-0.051918212,0.032316007,0.012810166,0.058488395,0.036640428,-0.07591857,-0.08470727,0.1200894,0.047878668,0.03869248,-0.02936988,-0.049205434,-0.053015042,0.10314661,-0.0801903,-0.025226237,0.044562213,0.06789151,-0.0003190828,0.08668747,0.08812837,0.0065802853,0.07190237,0.036413588,-0.00054009893,0.12074652,-0.028478764,0.09157697,0.03727791,0.104166046,0.09280252,-0.08626897,-0.0905946,-0.10283232,0.063744545,0.01203116,0.08252153,0.069806054,-0.026678154,0.04541491,0.10774057,0.08466655,-0.023688858,-0.079444684,0.0053669983,-0.016653966,-0.077061065,0.048658323,-0.094135985,-0.0054709623,0.06868986,-0.1125842,0.0093913525,-0.118254736,-0.06440909,-0.037602723,0.09386502,0.11897135,-0.11563451,0.0051545682
-0.07720495,-0.019933114,-0.019117206,-0.035981946,0.13334002,0.04738475,0.03886175,-0.10551215,0.018813495,-0.11114225,-0.06078526,-0.04948751,0.04207515,0.021525092,-0.072837114,0.038260177,0.005206423,-0.07448428,0.0029533785,-0.058990415,0.099523716,0.0039094,-0.0064692725,-0.09518723,-0.020143198,0.011193562,-0.0009735476,-0.08836903,-0.13739765,-0.021038156,-0.008439313,0.01722247,-0.113868624,-0.03911529,-0.07765566,0.0020954802,-0.040998224,0.056612108,-0.0271191,0.02709629,0.0635308,0.022989541,-0.017748881,0.10428437,-0.10985707,0.0024068598,-0.024721863,-0.06385552,-0.09396922,-0.084958546,-0.09127256,0.06949745,0.06516386,0.09596498,-0.10153164,-0.04513201,0.07954246,-0.11730783,0.0832203,0.06182914,-0.0073572756,-0.01774654,0.041599765,-0.056966886
-0.043116733,-0.041167587,0.022734176,-0.01523167,-0.11668029,-0.06559181,0.029301472,-0.024908042,0.019004397,0.036422342,-0.054217342,0.0057793944,0.005304201,0.0639339,-0.044200197,0.14563462,-0.046290576,0.084041454,-0.0061026188,-0.06358496,0.07237815,-0.02645187,-0.0037489005,-0.06036413,0.0015692271,-0.07092239,0.049984604,-0.016463853,0.106519744,-0.07490266,0.0059580086,0.05889074,0.088856235,0.13840462,0.08895584,-0.047626838,0.042160597,0.020636357,0.114949144,0.016578099,0.08965742,-0.08358091,0.1227711,0.04478574,0.12935215,0.10652159,0.123236395,-0.12583032,-0.07414067,0.010368078,0.028972775,-0.033834666,-0.010504881,-0.0492015,0.046045646,-0.07968863,0.13520195,0.011824233,-0.14775883,0.10837789,0.10521545,0.13112131,-0.15601891,0.09519377
0.121404976,-0.01801463,0.037011463,0.0066834623,-0.034445196,0.009610094,-0.012124364,0.0950428,0.11035342,-0.088770755,0.020580472,-0.11047162,-0.07124514,-0.018281369,0.075303495,0.08369039,0.04227303,0.03536513,0.1305643,-0.059068415,0.076110534,-0.07177556,0.026752766,0.055272818,-0.037948754,-0.12691414,0.07081577,-0.083065964,0.0961598,0.0810524,0.077068835,-0.03211859,-0.09373571,-0.08211902,-0.09007516,0.009703387,-0.015208795,-0.0883958,-0.04876293,0.12611838,-0.12358788,-0.059170496,-0.12118795,-0.093429916,0.042315718,-0.11629198,0.017171636,0.022521447,-0.027711894,-0.025136966,-0.13719118,0.09384425,0.098244034,0.082707085,-0.09113556,0.11572226,-0.11612039,-0.12498979,0.120823376,0.02524005,-0.05298203,-0.1254102,-0.10687175,0.0024414465
-0.06673612,-0.06973145,-0.030820824,-0.040603723,-0.004665331,-0.08567899,0.016465345,0.112933725,0.031681214,-0.0033008186,-0.10059146,0.012939468,-0.09677665,0.02962722,0.01701495,0.073015526,-0.10259698,0.024385707,0.047230203,-0.013297059,-0.056680217,0.018949011,-0.06680718,-0.11911567,-0.026303068,-0.05878675,0.06690282,-0.039104924,-0.11782239,-0.049831513,0.036794163,-0.032216087,0.029604027,0.094352625,-0.1005569,0.09811755,-0.12294391,-0.11027877,0.05621239,0.069716595,0.07624223,0.09719663,-0.04778727,0.11792206,0.045341264,0.0019397822,0.040210087,-0.043028023,-0.038391884,0.037409816,-0.018763853,-0.1026156,0.015111291,0.047572218,0.099354945,0.0022518535,0.07766706,-0.005652045,-0.120008826,0.10355596,0.10241907,-0.120740905,-0.090634614,0.071897574
0.025396429,0.009002635,0.019250048,-0.020455496,0.0028688079,0.02740832,0.07243712,-0.07841944,-0.07723609,0.10181585,-0.07867775,-0.028332682,0.072947994,0.10710269,0.038221024,0.07762528,0.08990677,-0.034553546,-0.035192065,0.07070038,-0.05258791,-0.12841539,-0.10976732,0.006885893,-0.047170445,-0.09580102,-0.07735934,0.04872652,-0.051129334,-0.06452034,0.0063468926,-0.122207835,0.099341795,-0.104791045,-0.12974565,0.06604402,-0.014355693,0.13301538,0.0048278356,0.11223452,-0.004851192,-0.047762845,-0.052584957,-0.041409,-0.05644661,0.0134174265,0.04244464,0.113300584,-0.10220328,0.09719385,0.08455145,0.04713096,-0.0046067564,-0.007995809,-0.09133797,0.118739806,-0.11761181,-0.034584,0.08913468,0.02450793,-0.05702444,0.086443275,0.12925223,0.022811431
-0.014461428,-0.06758485,-0.0903124,0.02470704,0.040108174,0.12001334,-0.13238265,0.06536676,0.101274736,0.009583883,0.14253224,-0.027758408,0.019219292,0.05411425,-0.094197184,-0.11060154,0.12378255,0.0989727,0.05597489,-0.026192276,0.058903586,0.09439089,-0.058075093,0.018641429,-0.022729885,0.020183463,-0.06144965,0.1303641,-0.11041085,-0.06375893,0.034427088,0.03621483,-0.02175782,-0.11006248,-0.08584901,0.11251338,-0.019811675,0.15044354,0.026501345,-0.07964332,-0.0625071,0.01866271,0.08809205,0.061325636,-0.041369706,0.08936138,0.117966264,0.07126975,0.1492463,0.06793702,-0.053582676,0.08499779,0.048634253,-0.027641997,0.077059306,-0.023445906,-0.101122245,-0.039069105,-0.06316173,-0.11555948,0.06777611,-0.11514836,-0.0651836,-0.009748377
0.1328032,0.10121134,-0.09274416,-0.109752774,-0.086451925,0.061604198,-0.14018944,-0.042189486,-0.06760998,-0.03547949,-0.037665274,-0.082319565,-0.06952295,0.14207336,-0.030643683,-0.13142496,0.032938655,0.015333455,0.1026937,0.010185821,0.13080838,-0.0030573576,-0.06668595,0.030913893,-0.18380602,0.069957174,0.044154838,0.05360222,0.039370902,-0.057331327,0.012774924,0.11103827,-0.016340597,-0.12864417,0.07175572,0.007943271,-0.068336226,0.13809295,0.03708979,-0.02916655,0.09313372,-0.09656958,0.037047457,-0.11023357,-0.09884291,0.03911859,0.11689599,-0.035761386,0.14861551,0.03481795,-0.112181455,0.016568838,-0.023545908,0.05632198,0.08333574,0.12147807,0.0933012,0.041329633,0.12335444,-0.12566277,-0.01067039,-0.13352212,0.032594327,-0.11880563
-0.022234343,0.0019887264,0.12395107,0.0978068,0.10822767,0.016464802,-0.036206808,0.048747476,-0.11191148,0.13648894,0.056503877,0.043618705,0.0848321,-0.10641495,-0.053130135,-0.014395124,-0.062179293,-0.05315819,0.053777616,-0.08102355,-0.13301533,0.09777072,-0.09892694,-0.017184786,-0.017086467,0.08812501,-0.0017766985,0.0015368869,-0.041904483,0.067695275,-0.06795506,0.09058399,-0.0010640866,0.08075329,-0.0040651555,0.10292701,0.050278526,-0.014326831,0.14206305,0.026069893,0.11798518,0.13520625,0.116949424,-0.06701098,-0.103147015,0.13150322,0.0037814686,-0.029182903,-0.026214255,0.050117753,-0.09548331,-0.068410136,0.052673306,0.07907927,-0.08242091,-0.12952594,0.04668931,-0.02834593,-0.09108663,0.08665269,0.05234633,0.12821333,-0.11285247,0.023593945
-0.006088891,-0.042599488,-0.1431143,0.10121927,0.046066005,-0.033893876,-0.10282478,-0.024456704,-0.08400079,0.0037132045,0.05625214,0.0803969,0.102508396,0.10410639,-0.09902535,-0.09708209,0.09051071,0.126755,0.102622144,0.038751975,0.08514142,-0.1268681,0.048174046,0.036193904,0.004998031,-0.12889344,0.09727113,-0.106836975,-0.069184974,-0.10485325,0.010677091,-0.0016895476,-0.02323899,0.107706636,0.011100321,-0.083136976,0.13475782,0.024794197,-0.061395243,-0.08455994,-0.08030163,-0.032770913,-0.12889504,-0.09975425,0.05711477,-0.0052098143,-0.018876167,0.08361712,-0.013673263,-0.006220977,-0.13522406,0.07382478,0.1255155,0.1402592,-0.048196737,-0.009471994,-0.0424669,0.051441126,0.16351488,0.07649055,-0.13026905,-0.11574416,0.11029356,-0.11974003
-0.049070936,-0.011810834,0.012819132,-0.15404062,0.10450152,0.06884256,-0.17589335,0.06658269,0.06512506,-0.013676008,0.047593635,-0.18176506,-0.020765148,0.16364221,0.11241392,-0.1299356,0.00091181544,0.055581667,0.1270121,-0.032702986,0.02999607,-0.16342603,0.010729636,-0.07164004,-0.11279301,-0.084408484,-0.09250748,-0.06327665,0.057968557,-0.099139445,0.026462793,-0.003520301,-0.09187293,0.09470254,-0.08988547,0.1167388,-0.06365263,-0.0016943293,-0.14637403,-0.05564843,-0.13430832,0.024774175,0.046458058,0.085897125,0.027880164,-0.17851466,0.07682853,0.12641335,-0.035802636,0.05180015,-0.14578247,-0.010121666,0.06271436,-0.08291823,0.12373645,-0.045201655,-0.11564869,0.037284464,0.19954231,-0.104802124,-0.13925181,-0.14737798,0.13770933,0.00821933
-0.019621784,0.018304937,0.12820844,-0.026220018,0.054664686,0.09641548,0.11244566,0.0881881,0.007540656,-0.059975542,0.09128251,-0.08569594,0.002918203,0.067077585,-0.0977421,-0.049988177,0.12660241,-0.08485195,-0.00808645,-0.09342748,0.06713827,-0.04091695,-0.028879484,-0.022431942,-0.042994287,0.012532297,0.044280082,-0.087082095,-0.098757386,-0.0463812,-0.029529396,0.1041843,-0.07227654,0.035492286,-0.092399284,0.07617077,0.076432705,0.11739991,0.013052541,0.05051817,0.07004528,-0.089513056,0.03673078,0.030857995,0.08257472,-0.012397121,0.089827,0.10664079,-0.080758795,0.1170497,-0.028522277,0.041798566,0.04549649,-0.004709451,0.064641275,0.022370493,-0.047157828,0.06956512,0.02925846,0.01998678,0.028251648,-0.006387815,-0.003978811,0.0045033977
-0.08046463,-0.05152885,-0.057187323,-0.05624639,-0.123527706,0.014803953,-0.067752674,0.0406843,0.02692617,0.11368798,-0.12905438,0.14166513,0.030809548,-0.029903183,-0.1134992,0.035651736,-0.023749376,-0.09937511,0.109319106,0.092903726,0.01254648,0.10138847,-0.074109495,-0.0036257564,0.1662657,0.07694367,-0.10468909,0.10360968,0.07703773,-0.030605316,-0.08991459,-0.03653179,-0.05359149,-0.0042639077,0.13192207,0.089223675,-0.118638866,0.09446373,0.12679783,-0.051460333,0.048936803,-0.021024877,-0.051500518,0.029899143,0.08784913,-0.0029124776,0.007527727,-0.049173094,0.041343257,0.029128853,0.09660651,-0.1468659,-0.04304584,-0.06628934,0.065030396,-0.115511395,-0.061313294,0.06316239,-0.094408736,-0.048404872,0.055124458,0.04744343,-0.13383566,-0.004106355
-0.005370047,-0.07638057,0.08127746,0.113727115,-0.02641417,0.10284104,-0.06287001,0.06486784,-0.11143954,0.03616846,-0.09800005,0.019834494,-0.087039866,-0.10800149,-0.033231437,0.11841658,0.0005407824,0.08900767,0.047691517,-0.0743045,-0.11618005,0.04447446,-0.018340526,-0.11455374,0.04349925,-0.07842207,0.07927865,0.035377372,-0.12027328,0.10855934,0.055864464,-0.087094985,-0.042993933,0.053073462,-0.07608783,0.10773546,0.08404725,-0.028719405,0.039169397,0.11127736,0.008680137,-0.00081270526,0.009656586,0.072704315,-0.0368891,-0.069921784,0.07549556,-0.085288815,0.062058147,0.08312786,0.06975672,0.06554552,-0.029961996,0.11888436,0.08097443,-0.042965088,-0.09477251,0.05121579,-0.062120326,0.058387786,-0.026036028,-0.015790753,-0.08698876,0.015648898
0.07607676,0.09571556,-0.062244102,-0.10469469,-0.061978593,0.031149779,-0.010282577,-0.0063430322,0.07969192,0.003730948,0.095805965,-0.03286462,-0.019315086,0.08144904,-0.02112211,-0.026773183,0.06816823,0.009067981,0.07627157,-0.03700421,-0.01784161,-0.10972516,0.11992653,-0.0120694,-0.11252255,-0.11263914,-0.1299069,-0.058911007,-0.11788333,0.11683055,-0.09448545,-0.09427963,0.025815561,0.05029888,0.018606814,0.0710654,0.031969246,-0.023530778,-0.023572136,0.014772351,-0.13313273,0.08045977,-0.022556245,-0.01816856,-0.08973832,0.060377676,-0.1280708,0.041670933,0.111421,0.038109582,-0.021529943,-0.0010582443,0.071314305,-0.009208298,-0.07993328,0.024924956,-0.09754,0.055815477,-0.029394444,-0.01754516,-0.02425218,-0.1437996,0.101292156,-0.07740167
0.13950385,0.09499486,-0.04817007,-0.12868212,-0.057912424,0.037007358,-0.080234244,-0.059746314,-0.09919463,-0.018794253,0.06410798,-0.038885925,0.05771881,0.07131722,-0.010722489,0.088867866,-0.0882749,-0.052301858,-0.045081634,-0.01973847,0.05131053,-0.06443263,0.0313674,0.10388899,-0.120314695,-0.119841464,-0.030290496,0.05398336,-0.06717524,-0.1282465,-0.00051244296,-0.015668252,0.012935173,0.11233292,0.058261707,-0.08428442,0.07384974,-0.04203399,-0.09450101,0.04324898,-0.0078047495,-0.12768243,-0.1375048,0.03876489,-0.06432454,-0.1069569,0.07717194,0.035413526,-0.043891065,-0.030810157,-0.029691875,-0.04216805,-0.0047948537,0.0805958,0.022996752,0.019680366,-0.049869113,-0.101096235,0.015521341,-0.015047536,-0.043901075,-0.019202098,0.0048202374,0.028775781
-0.033480655,-0.03487379,0.07990336,-0.07622996,0.10098891,-0.10772136,-0.11044424,-0.10750951,-0.0041024676,0.004551864,0.092415676,0.03161961,-0.11129184,-0.006548944,0.03329001,0.03405416,0.103159815,0.08739216,-0.005071459,-0.119102314,-0.10867494,-0.10215152,-0.048434667,-0.019388672,0.07074577,-0.022890376,0.052837573,-0.121671334,0.09135769,0.022488503,-0.09767338,0.14444377,0.057520796,-0.050305843,-0.11196399,0.07528736,0.122093596,0.0019705,0.028009543,-0.028121516,0.05444278,0.019232322,-0.06921973,0.06405138,0.121569335,-0.038156465,-0.05179875,0.017471138,0.049472943,-0.11359539,-0.030341173,0.053286284,0.0369386,0.013675572,-0.042587675,-0.110728286,-0.11258728,-0.07334391,-0.045527305,-0.12072478,0.076026194,-0.04540623,0.1240577,0.016615996
0.0063936566,-0.120445736,0.12346871,-0.035350975,-0.034472685,0.043742217,-0.020115888,-0.108602755,0.052949592,-0.054368258,0.103700474,0.03978932,0.057789255,-0.0519869,-0.11839441,0.08841134,-0.11563151,-0.02045916,-0.1010502,-0.097439766,0.03964077,0.06940246,0.0064211735,0.09481373,0.07429757,0.05807821,-0.04752166,-0.018364541,0.0031459532,-0.08137639,0.09547984,0.04979659,-0.10307476,0.105330594,0.04358621,0.073948056,-0.073505566,-0.109684736,-0.04266421,-0.025373027,-0.018578,0.06666683,-0.1122039,0.09818408,0.07015057,0.031550653,0.02510411,0.044337146,0.10993844,-0.11040768,-0.05286186,-0.04753534,-0.008528148,0.023640992,0.011880054,-0.084656775,-0.112518,0.043505065,0.061446045,0.07027685,0.08112132,0.0066933404,0.04305378,-0.01640725
-0.008506327,0.12872793,0.048981626,-0.056966834,0.13069335,0.05654817,-0.07599455,-0.09899459,0.022036087,-0.090328135,-0.015565436,-0.11798135,0.05163373,0.13606949,-0.07907612,-0.1270071,0.07926573,0.13232598,0.1409596,-0.13489714,0.062109474,-0.112187706,-0.023405682,-0.031041022,-0.1350304,0.019943587,0.08263973,0.02019795,-0.072116435,-0.05503781,-0.07583525,0.12034974,-0.049013644,0.080516845,-0.002200062,-0.021081584,0.020302955,0.049432084,-0.12872417,-0.04807814,0.102815166,-0.09275537,-0.020339996,0.013669976,-0.009041726,0.0040051495,0.09474148,0.12376459,0.03405452,0.06386125,-0.08785127,0.0899253,0.07395561,0.10203589,0.050440125,-0.028444214,-0.05035329,-0.006826838,0.019333448,-0.15247321,0.05820274,-0.14676906,0.15285349,-0.13743454
0.07941515,-0.0055991993,-0.027665542,0.08222997,-0.0222122,0.12893404,-0.054419808,-0.0908797,0.028768316,0.10595702,0.056630213,-0.06820579,0.055467818,0.0014383119,-0.017070292,0.060408268,-0.08509182,-0.04464682,-0.077665254,-0.019413743,0.07119738,0.024487972,-0.112016626,0.04426423,0.046361424,0.053902205,0.09790941,-0.0914716,0.079813994,-0.07408123,-0.10804203,0.12068663,0.12009852,-0.09959275,-0.06055969,0.020234164,-0.033869185,0.0518129,0.109061666,-0.025053395,0.0148349805,-0.08049892,-0.0509453,0.10638479,-0.11004094,-0.040640753,-0.111114636,0.049291354,-0.017977074,-0.042008318,0.09276242,0.037933946,0.11673437,0.07141679,-0.109713726,-0.070001595,0.0152269695,0.085208036,-0.066249795,0.036981903,0.01876476,-0.05267334,-0.06893063,0.0058195214
-0.007931544,-0.008858878,-0.11279112,-0.08505269,0.02792157,0.088847,-0.17309268,0.04912403,0.059101503,-0.0040159584,0.09459081,-0.10998524,-0.001065125,0.1003235,0.0033393118,-0.07528093,0.089300685,0.16732582,0.15997382,-0.11418041,-0.0712172,-0.09246028,0.051753577,-0.12950088,-0.09596894,-0.057095543,-0.045224745,-0.020087626,-0.1464036,-0.04223116,-0.12151157,-0.025059273,0.025130438,-0.12340215,0.062802374,-0.029930305,0.1512729,-0.0060758097,0.0404942,0.04370049,-0.15205236,0.022865985,-0.1411835,0.047838937,-0.08164615,-0.07630119,-0.03140301,0.098668255,0.09038953,0.030975059,0.060357485,-0.04223121,-0.060595613,0.0004676134,0.06439446,0.1424011,0.03461026,-0.16269396,0.09050909,-0.17088607,-0.11304206,-0.060776804,0.057685956,-0.09503913
-0.121911824,-0.06529928,-0.006462889,-0.0062369197,0.10949329,0.029483216,-0.073395975,0.057924427,0.03900626,0.11481882,0.111607485,0.047857903,-0.0232815,0.07501165,0.12090312,-0.121018924,-0.087675706,-0.054752573,-0.10112364,-0.06553049,-0.08171798,-0.023139054,-0.0553187,0.0912426,0.105171874,0.06693591,0.08487293,-0.031587154,0.082375094,0.09581063,-0.11204471,-0.061553888,-0.062242206,-0.10667026,-0.09042382,-0.08684121,-0.016001053,0.083306774,-0.02467973,0.062176738,-0.11402521,-0.0393253,-0.1213452,0.043436356,0.082186095,-0.10310443,-0.061529655,-0.095339864,-0.017952796,-0.00025753054,-0.10770442,0.07435155,-0.030111695,0.10063088,-0.08080718,0.08635729,-0.010140474,0.10675201,0.011289227,0.059198126,-0.10112566,-0.055791683,0.100270286,-0.075381525
0.075303964,-0.04914729,-0.08503622,0.12655418,0.009955295,-0.019761834,0.17094922,-0.049103893,0.07057819,0.093170136,-0.065757394,0.13799426,0.06886901,0.043965116,-0.1366723,0.042389683,0.0672072,-0.113498494,-0.07396592,0.083286695,-0.03020603,0.14676064,0.058053598,0.0710715,0.10330224,0.093872026,0.12190746,-0.10234241,0.02367283,0.08158237,0.07218765,0.027692065,0.009861072,0.062069476,0.07531956,0.07328756,0.07879126,0.017426297,-0.083219975,0.084111944,0.05308642,-0.0009594287,0.08520571,0.005766062,-0.03916574,-0.0686491,-0.10014956,-0.14696673,0.012743396,0.114248194,0.07918102,-0.11686936,-0.09675922,-0.12898916,-0.11910286,-0.075382635,-0.057501253,0.0659687,-0.15861818,-0.041166935,0.084716424,0.004130141,-0.020392533,-0.06640674
0.050031636,-0.06107566,-0.05353478,0.019510832,0.12888716,0.050439384,-0.048652746,0.067723334,0.10658426,-0.061935995,0.023803279,0.010004613,0.03901227,-0.017607352,0.090335995,-0.045059517,0.10049492,0.033111792,-0.09139016,0.09392146,-0.039530862,0.022109158,-0.115837514,-0.017079078,0.067648366,0.0027478496,-0.1278912,0.092250384,0.047138624,0.021150842,-0.088783875,0.08136634,0.10492994,0.015747624,0.11564806,-0.07832333,-0.0016607664,0.017134884,-0.13093501,0.13249807,0.009553904,0.024551816,0.07333426,0.00034816854,0.015429742,-0.0442207,0.10670019,0.06515291,0.08279618,0.05117989,-0.08992421,0.01772434,0.03560424,0.1270416,-0.036371417,0.11804353,0.005698151,-0.061001286,0.026021317,0.08755179,-0.106901415,0.011383698,0.119199306,0.08449719
0.08033961,-0.06046436,-0.0666391,-0.043144897,0.027089221,-0.07563067,0.09224737,0.08632886,0.03822186,0.0554198,0.12993148,-0.10528692,-0.1297976,0.11227382,0.091890365,-0.06790061,-0.030635074,0.047291603,-0.10245576,-0.122490145,0.10549995,-0.029677743,0.07710123,-0.013883363,0.046580307,0.08915884,-0.10207744,0.002361433,-0.03254601,0.031136462,0.040914644,0.07605883,0.1013271,-0.12206813,-0.08436551,0.0011933403,0.04828306,0.04022633,0.035577226,0.109423734,-0.02803559,-0.014430875,0.020299314,-0.10737696,-0.07950791,-0.053578507,0.09115864,-0.10109192,0.027795983,-0.020835286,0.03921863,0.10764935,0.09079708,0.034541804,0.12605967,0.09882426,0.057770215,0.06717911,-0.019062223,-0.13989934,-0.07444927,0.070919335,0.14054091,-0.11614765
0.14365642,0.07837564,-0.14983936,0.020552937,0.098563574,0.12922524,-0.019519275,0.038326178,-0.05041282,0.10183219,0.029800761,-0.033977613,0.056863762,0.1580243,0.008458402,-0.11973408,-0.032616787,0.12724677,0.12995647,-0.103867136,0.06256027,0.071053974,-0.10201058,-0.033692945,-0.13623796,-0.015083019,-0.05088577,0.049753904,0.04944551,0.063711494,0.02783442,0.07900183,-0.05492271,-0.029519672,0.012868146,0.0333233,0.0068760267,0.009494612,0.040224582,0.09503377,0.036449328,0.010490373,-0.04884091,-0.06959041,0.015379161,-0.0065864148,-0.0925751,0.14317466,0.17570367,-0.113646954,0.064659566,-0.06561203,-0.035573166,0.10871882,-0.08239571,0.09229412,-0.00058960996,-0.083680026,-0.032524846,0.002054293,0.062066246,-0.16448845,0.1549626,-0.025586314
-0.08573373,0.10947749,-0.049985208,-0.005684613,-0.042665478,-0.06469683,-0.08330945,-0.07653021,0.112227485,0.043977752,-0.012868853,-0.11000121,-0.011194317,0.10754726,0.010962261,0.12489129,0.03931652,-0.0073723863,-0.05008833,-0.04267078,-0.058793414,-0.04707506,-0.05556078,0.05706392,0.089750536,-0.04748478,0.056361314,0.040158443,-0.0053570243,0.10383388,0.008171366,-0.058540873,-0.05977126,0.1337485,0.085808486,0.087996714,0.027599102,0.017077522,-0.0891218,0.04664983,-0.05391786,0.07603978,-0.02398128,0.01591582,0.1293872,-0.10363963,-0.03602712,-0.11133105,-0.07052616,-0.036850974,-0.01972307,-0.009107101,-0.11463855,0.06908065,-0.083252795,0.055896252,0.08899136,-0.028982187,0.08439167,-0.07466952,0.09842915,0.10190199,-0.014576589,0.0102972975
0.017322252,0.11222767,-0.14668632,0.016533174,-0.049059264,0.01579324,-0.20478256,-0.022495119,-0.085226186,-0.097558625,-0.0063756416,-0.021965977,0.0677259,-0.005650769,0.12247769,-0.07322807,0.061768148,-0.008416791,-0.0076428303,-0.117273755,0.15255715,-0.116744556,0.042737387,-0.012975771,-0.14394791,-0.14377996,-0.05799505,0.047822375,0.06306334,-0.10237018,-0.1242666,0.12774575,-0.03859473,-0.06785683,-0.07622427,0.09720549,-0.023515139,-0.0241859,-0.020199103,0.111141466,0.03952316,-0.008477024,-0.046005446,0.09895209,-0.058488164,-0.005472991,0.11111822,0.028259149,0.17550436,0.023569314,-0.15374693,0.087484516,-0.0488757,0.095184416,-0.03995425,0.13698643,-0.011101159,0.06958529,-0.011783291,-0.21447866,0.059628684,-0.04325878,0.027112972,-0.016712498
0.020225234,0.040756177,0.062016558,-0.13036783,0.053062897,0.110544875,-0.05499579,-0.11137132,0.07897592,-0.11790307,-0.02056218,-0.04635611,0.099583566,0.08414158,0.066822626,0.007576924,0.057326585,0.04148135,0.13146323,-0.11020655,-0.015085541,-0.0027110553,0.08845014,0.0769748,0.07240167,-0.08936551,-0.004491626,-0.04391967,-0.124705516,-0.07969998,-0.07234326,0.11819499,0.0028526247,-0.11777237,0.06394362,0.082539424,-0.0467772,-0.019204373,-0.10683442,0.07221223,-0.049115546,0.0050422223,0.107783794,-0.0075918594,0.013706315,0.11860342,-0.0025840004,-0.005446133,0.092298314,0.08057862,-0.007213273,-0.04922401,-0.09683898,0.09208282,0.113571726,-0.018199112,0.004018491,0.0754292,0.12563506,-0.059462257,0.10341568,0.08635927,-0.0074641495,0.10258005
-0.008328775,-0.015810477,-0.091148496,0.11999985,-0.038418848,0.07338354,0.0987897,-0.027927157,-0.052421257,0.02912273,-0.12939322,-0.110560775,-0.012123625,-0.009971025,-0.065787755,0.09876719,-0.10283,0.10176008,0.105523705,0.10700386,0.04623547,0.10994554,-0.0009790955,0.11980194,-0.07532056,0.07046843,0.03851846,0.11537617,-0.0037009385,-0.1318456,-0.0070560556,0.014910453,-0.09271233,0.061149877,-0.07914694,0.07752406,0.116714224,-0.0007750977,-0.035377152,0.029158253,0.09333398,0.0024889507,0.08789131,0.019611178,-0.017923284,0.076171435,-0.0864372,-0.0012941996,0.036083486,0.017542126,0.07583048,-0.00085068034,0.12380921,0.067621514,0.037525743,-0.014106189,-0.07104437,-0.050507843,-0.026256554,0.04919078,0.066477574,0.08486016,-0.08576662,0.006744365
-0.05438597,-0.09368609,-0.030250672,0.0559864,0.023158463,0.080652095,-0.10297498,0.007954974,-0.051693387,0.113704026,-0.11737639,0.06365493,0.103678584,0.020159287,0.0011783758,0.104507044,-0.04921422,-0.07236985,-0.03170499,0.062339645,0.10186339,0.048178863,-0.120607756,0.11118272,-0.09752701,0.041602287,-0.11471512,-0.052015055,0.12196524,0.040409606,0.025765121,0.11285454,0.09524292,0.08621191,0.0245794,0.07502864,-0.09693253,-0.0523616,0.0102409655,0.07646325,0.04255933,0.12234302,0.013541014,0.11463244,-0.06811973,-0.074075766,0.09586202,-0.003432597,0.10419639,0.09059218,0.04402118,0.06580764,-0.077350326,-0.1020849,-0.078206725,-0.050337248,0.105199605,0.09760491,-0.05539037,0.051549926,0.031810544,-0.0832921,-0.06312953,-0.09293135
-0.098069854,0.045415226,-0.12256913,-0.040722452,-0.06725203,0.04781817,-0.06959839,-0.08933202,0.10834206,-0.016553523,0.025881749,-0.08957751,-0.008222483,-0.044674058,0.014457402,0.097884275,0.102216914,0.12591462,0.13421997,-0.07331206,0.11589187,0.035960577,0.10222158,-0.07599177,0.049060572,-0.10477112,-0.0038065373,0.12165984,0.00584966,-0.08670574,-0.09429635,0.09884736,-0.042872965,0.05001128,0.10280053,0.037045807,0.12875067,-0.04323739,0.05590032,-0.11189003,0.10834497,-0.083143264,0.07094662,-0.042656492,-0.035927597,-0.022149848,-0.011576436,0.1353956,0.004950037,0.11146002,-0.0753278,-0.013024067,0.10663593,0.058511596,0.024206143,0.118331015,-0.08006361,0.027215257,0.07569727,0.056617893,0.027126012,-0.0802288,-0.0252804,0.009009833
-0.04986004,0.020207718,-0.10261346,0.00021718875,-0.12536258,-0.06765503,-0.049975686,-0.025377737,-0.01966389,-0.031007743,-0.07881762,0.011885584,0.035003334,0.053875647,-0.041254956,0.09866324,-0.09864149,-0.018197732,0.1095179,0.038257696,0.03984166,-0.020363577,-0.024805628,-0.07890292,0.019435517,0.0012772208,0.053774487,-0.01496154,-0.004104775,-0.09936294,-0.03908761,-0.11917316,-0.017695528,-0.048365597,0.1121924,0.052444212,-0.022385688,-0.11493276,0.069376774,-0.07983669,0.12848626,0.073935136,-0.04699122,0.11501274,0.064824216,-0.047600307,-0.016122319,0.08554955,0.10981286,0.049713217,-0.0862757,-0.035357703,-0.011628453,-0.06267708,0.0576332,0.06951135,-0.06813237,-0.023519205,-0.059950817,-0.047235828,-0.024839401,-0.10651133,-0.047600333,0.101183385
0.01879055,-0.11601048,0.02615702,-0.029569667,-0.13792974,-0.043189216,0.04862573,-0.10099994,0.024726247,-0.032124065,0.04323313,0.15160477,0.06920935,0.0075336304,-0.13453151,0.12169918,-0.15048903,-0.103767455,-0.005087711,-0.09308363,0.102794886,-0.06621025,-0.05763602,-0.06655732,0.15104987,-0.05402903,-0.03789868,0.043447282,0.09437979,-0.0068971594,0.13906303,-0.022952685,0.020094998,0.08678786,0.031947155,-0.096838355,0.07788789,0.051455505,-0.00023867555,-0.13773428,0.13365607,-0.09527495,0.10857793,-0.0421959,0.10279878,0.12704821,-0.010480966,-0.04181917,0.04240883,0.082060084,0.12986368,0.018950548,-0.08955649,0.028988551,-0.11722917,-0.08144472,-0.06147627,0.11808059,-0.10955274,0.09735489,-0.08985413,0.0074886843,0.070261054,0.1323496
0.10544908,-0.06676428,-0.016876915,0.115462415,0.12558703,-0.08073841,0.041390996,-0.03459306,0.0722285,0.067809485,-0.12322834,-0.0881456,0.0942786,-0.043229833,-0.08980843,-0.04920014,0.11437298,0.013355859,-0.08882525,0.10585764,-0.054499064,-0.057246476,0.12518117,-0.11778732,0.017974399,0.053282574,0.12303958,0.02256879,0.098688714,0.06784516,0.11821403,-0.0842599,-0.0054462184,0.0062982007,0.08348889,0.11276642,-0.12042013,-0.11988423,0.01126826,0.088712774,0.097431734,-0.08072247,0.069452755,-0.03463962,-0.021548567,0.06505153,0.105579816,-0.12139747,0.0052331267,-0.07549931,-0.11781668,-0.11430881,0.10630513,0.09530621,-0.05565048,-0.06102053,0.036136262,-0.10387465,0.03732746,0.08284965,0.12475039,-0.04701548,-0.029880755,0.103475295
-0.0045896154,-0.083560236,0.10831848,0.080214635,0.028320616,-0.095067315,-0.007872155,0.050105408,-0.0021652677,0.038651448,-0.074400224,0.038423136,-0.08853868,0.0734683,-0.10373172,-0.12105502,-0.008981916,0.03597958,-0.08305546,-0.117954284,0.06431755,0.08552165,-0.11812035,0.10686777,-0.0050546858,0.015895393,-0.009714653,-0.03499267,0.08512416,0.008774875,-0.0061806953,0.12623739,-0.026170997,-0.09718594,0.053255532,0.016153226,0.08842732,0.09375625,0.053070616,-0.06011487,-0.0046357694,-0.0015702972,-0.014899408,0.04989699,-0.05183396,-0.04214468,-0.020686686,0.09555964,-0.11366986,-0.118792124,0.11742242,0.037887126,0.10835965,-0.0021260213,0.010237657,0.087665305,-0.07651681,0.10167645,-0.045107644,0.10918014,0.08790973,-0.066318005,-0.09583025,-0.087154254
-0.021645954,-0.04315207,-0.010652895,0.13391645,-0.028579224,0.08728065,0.11582893,-0.048750583,-0.098138265,0.13728149,-0.10461615,-0.0027465313,0.01821743,0.04528641,-0.07815248,-0.08527566,0.04339377,-0.036134414,-0.13435906,-0.06037311,0.025866982,0.12251009,0.012067705,-0.06838304,0.112998225,0.050736926,-0.04001903,0.021282932,0.06739873,0.03537514,0.07952569,-0.07693274,0.04273075,0.104861826,0.109389916,0.08485265,0.09275221,-0.022559289,-0.011853061,-0.057004157,0.020543594,0.094100006,-0.047419805,0.09036559,-0.018489242,-0.09212837,-0.014033027,-0.10947882,0.022247508,-0.030418739,-0.0652558,-0.13911867,0.064618565,0.11102475,-0.043628328,0.051849835,0.02265659,-0.10605374,-0.05262605,0.07914239,-0.04470056,0.02132867,0.046648018,0.11336491
-0.032448977,-0.13952851,0.06401789,-0.078359656,-0.09912645,-0.08337746,0.037865553,0.08824973,-0.0124582015,0.06585578,-0.09663907,-0.04141673,0.063026085,0.04856059,-0.054985475,0.032556638,-0.01971604,-0.1382862,0.0400045,0.035207268,-0.017595956,-0.060577687,0.08490296,0.044309054,-0.027095709,0.07682505,0.033809442,-0.05274432,-0.10081757,-0.07860492,0.019581266,-0.11283022,0.08676146,0.077411644,0.111144334,-0.05017836,0.049419407,0.09283121,0.0032459623,-0.0658594,0.015806668,-0.09343798,-0.02770387,0.12127151,-0.049316477,0.089003,0.08338786,0.043611076,-0.11091089,-0.0045894124,0.074506745,-0.03637901,-0.0007567656,-0.10877212,-0.13930908,-0.024926197,0.008814039,0.14036591,0.072954506,0.15183431,-0.07003994,0.0030328752,0.022677682,0.041793115
0.10238213,0.01564608,-0.039395068,0.049424965,0.09993848,-0.06694687,-0.021626897,0.06938802,0.05271985,-0.015845375,-0.06295586,0.066719465,0.04326807,0.03499684,0.068061,-0.074716225,0.13134629,0.070838146,0.09228374,-0.08326141,-0.034122888,0.048929263,0.05640042,-0.12877004,-0.076481424,-0.052434765,-0.035730686,-0.056758318,0.013791733,-0.079985105,-0.028599523,0.13660774,-0.12772757,-0.11785568,-0.10982663,0.049914517,0.04176049,0.05391086,0.09671381,-0.052717753,-0.11836517,0.088225484,-0.08877388,-0.08655319,-0.096660756,0.0043898392,0.066208795,0.12125477,0.12680387,0.03685865,-0.08768739,-0.10102295,0.030597065,-0.07018813,-0.04260048,0.06008743,0.12472043,0.10760718,-0.01344178,-0.07730913,0.092227176,-0.028248584,0.1379967,0.058370467
-0.05637987,0.038857214,-0.1095192,0.010430172,0.031443905,-0.10254385,0.032572553,-0.036121942,0.06923053,0.050548732,0.1277354,-0.13503234,-0.056913104,0.05792502,0.008874677,-0.08956722,-0.06859564,-0.03379825,0.06461691,-0.05483337,0.011218964,-0.13781038,-0.017524064,-0.05327612,-0.028761597,-0.030104116,-0.13589813,0.03313794,0.08012501,-0.13381743,-0.09214873,0.06838915,-0.14158435,-0.10242026,0.03966099,-0.017775768,0.058310643,0.0769069,-0.09461494,0.13507666,-0.105617456,-0.018470416,0.035252966,-0.13444835,0.0068647107,-0.1403288,0.010800555,0.0005160737,-0.040696334,-0.044789445,-0.04833534,0.15343985,0.001779148,0.02835214,0.14067344,0.12192344,0.018784458,-0.090126574,0.11405969,-0.09221305,-0.063119896,-0.004422444,0.013248533,0.026239306
0.06527583,-0.10074138,-0.099304736,-0.042618006,-0.02836879,-0.06587447,-0.07522449,0.07587394,0.071552955,0.10446957,0.066704586,-0.016466042,0.036471926,0.061114036,0.071657725,-0.08815864,-0.088701785,0.004469396,0.056009695,0.08425141,0.11535423,-0.09344229,-0.010813472,-0.07243797,-0.056029413,0.052007988,-0.10744696,-0.05842084,0.012465838,-0.027854819,-0.013503851,0.010873924,-0.08368128,0.07347469,-0.014007157,-0.053970695,-0.11531835,-0.10956189,-0.0042917808,-0.046772778,0.10828476,-0.101675555,-0.014743415,0.10482445,0.06946483,-0.046713497,-0.011596614,-0.069520205,-0.02761285,-0.09688914,0.069095075,0.09251704,-0.010647511,-0.07691412,-0.021192314,-0.012558147,0.058960386,0.09336613,0.10485812,-0.038610663,0.06676536,-0.04056421,0.118422724,-0.07195405
-0.032663465,0.09381369,-0.019022606,0.046383377,0.064328514,-0.119145654,-0.02585511,0.103362665,-0.060598448,-0.053087696,0.02137925,-0.081298545,-0.015063917,0.09971887,-0.046839003,0.036462102,0.05309387,0.08486717,-0.13101315,0.101083316,-0.027800303,0.07428856,0.053453077,0.007718755,0.0014564131,-0.03678067,-0.0627469,-0.07803645,-0.014542566,-0.046494257,-0.025212841,-0.081128776,0.041583445,0.08638211,-0.012522317,0.020851316,0.021525053,0.10663091,-0.07357104,0.02416841,0.03624381,0.06302458,0.11560342,-0.1074999,-0.0381756,-0.0012613224,0.10814817,0.07570316,0.06837038,-0.042294145,0.059240676,-0.0018465933,-0.064269505,-0.07369763,0.08628349,0.08777947,0.006545934,-0.07977865,0.07032002,-0.003332978,-0.11095873,0.0042750053,0.050211083,0.06943392
-0.058674138,-0.011193488,0.09317507,0.027814098,-0.0182454,0.112483576,-0.048583336,0.019370727,0.055510703,0.0064587677,0.041844696,-0.03624347,0.068029284,0.08799211,-0.091102764,-0.04392725,-0.036141828,-0.12097292,0.02735775,0.09918029,-0.0094189225,0.059279043,-0.05302584,0.05265463,-0.11012325,0.0035165655,-0.061736856,-0.021306628,-0.024389355,-0.05361407,-0.078332834,0.058847908,-0.06071176,0.1147375,0.12563555,0.06110805,-0.05370693,-0.038838718,-0.024981057,-0.0035469285,0.02193183,0.04348525,0.11640179,-0.02879188,-0.012561467,0.08115571,0.05059563,-0.11899835,0.066542074,0.12298374,-0.0648208,0.06811816,-0.048943844,-0.043226823,-0.07673568,-0.051038545,-0.072113454,0.09393851,-0.041773766,-0.021610435,-0.07656225,0.10668168,-0.025667658,0.061605815
0.08874927,-0.09958081,0.022817502,-0.043327063,-0.013599334,-0.015680844,0.16607767,0.13719869,-0.04386001,-0.040444687,-0.03283968,-0.078262135,-0.07839635,-0.15008524,-0.024439713,-0.0854987,0.036580734,-0.11625919,0.04143218,0.14494877,-0.05065258,-0.016191682,0.07362108,0.13816412,0.051935565,0.13859306,-0.008514079,-0.06478026,0.13892302,0.034587484,0.11605066,-0.026272548,0.028016508,-0.070695624,0.15090246,0.0531409,0.0965179,-0.040154744,-0.08664426,-0.013578832,-0.0788068,0.00434527,0.024910586,-0.050522618,0.0005018016,0.022149436,-0.009232028,-0.07174585,-0.15273394,0.08365447,0.022448502,-0.06132894,-0.076382175,-0.07401166,0.06439855,-0.14496401,-0.04515964,0.111163184,-0.13587016,-0.011837934,-0.055464726,0.099792846,0.0064716376,-0.018383121
