2.425000257790088654e-02,1.529849972575902939e-02,-1.796917989850044250e-02,-1.208043247461318970e-01,-7.856464385986328125e-02,-6.353402510285377502e-03,-3.272043913602828979e-02,4.499218985438346863e-02,-9.342162311077117920e-02,9.209855645895004272e-02,4.107771068811416626e-02,-1.018968522548675537e-01,6.201584264636039734e-02,-4.428970813751220703e-02,9.921376407146453857e-02,-1.135875731706619263e-01,-6.001044437289237976e-02,-8.191318064928054810e-02,-1.931720785796642303e-02,-5.048744007945060730e-02,3.701480338349938393e-03,-8.053918927907943726e-02,-1.136157214641571045e-01,-2.458007074892520905e-02,-1.337237469851970673e-02,-1.119929999113082886e-01,3.391616046428680420e-02,4.133547097444534302e-02,-9.512817859649658203e-02,-2.283058688044548035e-02,1.108505427837371826e-01,-1.992369769141077995e-03,9.645847976207733154e-02,-5.244390293955802917e-02,1.142089962959289551e-01,4.396914690732955933e-02,-6.341741979122161865e-02,4.408803954720497131e-02,-2.881884016096591949e-02,-5.654368922114372253e-02,-5.210310965776443481e-02,-8.766558766365051270e-02,5.198737978935241699e-02,1.006420999765396118e-01,-6.272526830434799194e-02,2.098242565989494324e-02,-9.708220511674880981e-02,1.413746643811464310e-02,2.315592207014560699e-02,-7.059589773416519165e-02,-3.738282993435859680e-02,9.972838312387466431e-02,-8.383979648351669312e-02,-1.020467504858970642e-01,1.121586039662361145e-01,7.143051177263259888e-02,-9.559831023216247559e-02,1.006946861743927002e-01,-3.155963495373725891e-02,7.020527869462966919e-02,-1.429818570613861084e-02,-1.232533156871795654e-01,-1.315167639404535294e-02,-6.077714264392852783e-02,-3.773851494770497084e-04,4.803921561688184738e-03,8.721119165420532227e-02,-1.000045314431190491e-01,-5.199696496129035950e-02,1.209827214479446411e-01,-4.413053765892982483e-02,-6.216702982783317566e-02,-1.044458672404289246e-01,7.729659974575042725e-02,8.879635483026504517e-02,-4.974327236413955688e-02,-9.608238935470581055e-02,-4.415453597903251648e-02,4.341485910117626190e-03,-1.053462550044059753e-01,3.679477423429489136e-02,1.031766682863235474e-01,-1.373833417892456055e-02,-9.730594605207443237e-02,-8.048877865076065063e-02,-7.694438844919204712e-02,-9.875962883234024048e-02,5.276129394769668579e-02,5.616959929466247559e-02,-7.881832867860794067e-02,1.205952689051628113e-01,-3.055488131940364838e-02,-5.087206140160560608e-02,4.016417264938354492e-02,-7.579476386308670044e-02,-8.032446203287690878e-05,4.653707891702651978e-02,9.713596850633621216e-02,4.375548660755157471e-02,1.098121181130409241e-01,-4.595262184739112854e-02,-1.337270587682723999e-01,-8.269441872835159302e-02,5.078841745853424072e-02,6.458442658185958862e-02,-3.300683200359344482e-02,8.399830758571624756e-02,-4.411625489592552185e-02,-7.352020591497421265e-02,-1.057296767830848694e-01,-5.127673596143722534e-02,1.324722468852996826e-01,-5.060590431094169617e-02,7.541484385728836060e-02,-3.948073089122772217e-02,-4.158712178468704224e-02,5.934422463178634644e-02,5.753019824624061584e-02,-5.712131410837173462e-02,1.964562386274337769e-02,1.077743992209434509e-02,-1.199602410197257996e-01,-8.249903097748756409e-03,6.998731195926666260e-02,3.816452622413635254e-02,-4.479720816016197205e-02,1.025052890181541443e-01,1.213928014039993286e-01,8.817403763532638550e-02,-6.590921431779861450e-02,-7.708432525396347046e-02,4.724357649683952332e-02,-8.501621335744857788e-02,-1.808501780033111572e-02,-8.782010525465011597e-02,5.475594103336334229e-02,-1.648105098865926266e-03,4.498366639018058777e-02,-1.155444234609603882e-02,-1.932499930262565613e-02,-2.472137287259101868e-02,-9.339840710163116455e-02,-8.881885558366775513e-02,8.146803826093673706e-02,-9.161103516817092896e-02,1.835454255342483521e-02,-5.247985199093818665e-02,-7.295124232769012451e-02,1.098284125328063965e-01,3.823267668485641479e-02,1.223433613777160645e-01,2.529935911297798157e-02,-7.137879729270935059e-02,3.637107834219932556e-02,-7.312640547752380371e-02,8.205937594175338745e-02,-7.056294381618499756e-02,-9.790952503681182861e-02,-2.230591513216495514e-02,-8.241543918848037720e-02,6.448739767074584961e-02,7.570657134056091309e-02,-1.135082915425300598e-01,6.189078837633132935e-02,2.731560356914997101e-02,9.935266524553298950e-02,-8.079677820205688477e-03,-5.657083541154861450e-02,-1.104299426078796387e-01,7.601175457239151001e-02,-1.041994169354438782e-01,6.598377227783203125e-02,5.666349455714225769e-02,-4.913373664021492004e-02,5.591311305761337280e-02,1.916092261672019958e-02,-1.103228926658630371e-01,1.374554038047790527e-01,8.756488561630249023e-02,1.125408057123422623e-02,3.833648934960365295e-02,-1.023788079619407654e-01,1.056874990463256836e-01,1.350976526737213135e-02,1.039211153984069824e-01,4.472875967621803284e-02,8.677671104669570923e-02,-1.079288274049758911e-01,1.070155724883079529e-01,-2.654486149549484253e-02,-6.612940132617950439e-02,-1.232749130576848984e-02,1.138992384076118469e-01,1.040954217314720154e-01,-1.369241531938314438e-02,5.656070634722709656e-02,1.015658453106880188e-01,-5.843348056077957153e-02,-1.128066554665565491e-01,-4.349177703261375427e-02,-5.041557177901268005e-02,-6.737960875034332275e-02,-9.261769801378250122e-02,-1.082435064017772675e-02,5.501145962625741959e-03,-3.077873773872852325e-02,-3.807035833597183228e-02,-4.429911077022552490e-02,1.243126764893531799e-01,-9.841813892126083374e-02,9.674575924873352051e-02,3.882505372166633606e-02,7.217379659414291382e-02,-4.006130993366241455e-02,1.119622737169265747e-01,4.881265014410018921e-02,8.776019513607025146e-02,-6.647238135337829590e-02,-1.409755796194076538e-01,3.888560459017753601e-02,-6.441042572259902954e-02,-7.616537809371948242e-02,5.011010915040969849e-02,2.316806837916374207e-02,-1.365114003419876099e-02,-1.024629622697830200e-01,-8.054856956005096436e-02,1.943897642195224762e-02,-3.155072778463363647e-02,-5.681565403938293457e-02,-8.966847509145736694e-02,5.829787626862525940e-02,-4.274987801909446716e-02,3.319013118743896484e-02,-2.831323305144906044e-03,-1.561681088060140610e-02,-9.391706436872482300e-02,-1.234181150794029236e-01,3.843406960368156433e-02,9.056594222784042358e-02,-3.720117360353469849e-02,-6.055462732911109924e-02,-8.031660318374633789e-02,2.679807506501674652e-02,7.568542659282684326e-02,1.081285625696182251e-01,8.450159430503845215e-02,-7.944386452436447144e-03,6.533685326576232910e-02,-1.323498338460922241e-01,1.048939302563667297e-01,8.264814503490924835e-03,3.046696446835994720e-02,-3.870747610926628113e-02,8.487290889024734497e-02,2.965970337390899658e-02,7.293025404214859009e-02,1.359429061412811279e-01,9.882829338312149048e-02,-1.136404797434806824e-01,6.382293067872524261e-04,1.178146228194236755e-01,4.476313665509223938e-02,-5.139216315001249313e-03,5.635969340801239014e-02,-9.256246685981750488e-02,-1.109079197049140930e-01,2.450173255056142807e-03,1.092213094234466553e-01,-4.249909520149230957e-02,-6.769761443138122559e-02,-1.375419795513153076e-01,-3.476716205477714539e-02,1.425538398325443268e-02,-1.234627142548561096e-01,8.455426432192325592e-03,-7.015433162450790405e-02,-4.536085575819015503e-02,8.409486711025238037e-02,-4.672732576727867126e-02,6.407392024993896484e-02,-9.024095535278320312e-02,8.015263080596923828e-02,-5.859796330332756042e-02,3.902157396078109741e-02,3.171292692422866821e-02,-1.739520207047462463e-02,3.499556705355644226e-02,5.401981994509696960e-02,3.351713344454765320e-02,-8.809918910264968872e-02,1.173750683665275574e-02,-4.102806374430656433e-02,-1.260315328836441040e-01,-6.595963984727859497e-02,2.185693010687828064e-02,-1.161537095904350281e-01,-1.039722412824630737e-01,-7.259727269411087036e-02,-2.152173779904842377e-03,5.482696369290351868e-02,-1.155315414071083069e-01,1.257351934909820557e-01,-1.053048521280288696e-01,-6.455326825380325317e-02,-1.028956100344657898e-02,9.616040438413619995e-02,-8.555270731449127197e-02,-1.089028567075729370e-01,-1.146003380417823792e-01,7.890435308218002319e-02,1.016678512096405029e-01,-5.253537744283676147e-02,6.174802780151367188e-02,-4.264381900429725647e-02,-3.065299056470394135e-02,-1.722246035933494568e-02,1.154172569513320923e-01,-4.481704533100128174e-02,-1.735556498169898987e-02,1.337652951478958130e-01,-9.122815728187561035e-02,1.988359913229942322e-02,5.163960531353950500e-02,1.291928142309188843e-01,-5.671732872724533081e-02,-1.179746165871620178e-01,8.169493824243545532e-02,1.288816183805465698e-01,-1.288433670997619629e-01,-6.439224630594253540e-02,6.140334159135818481e-02,1.045920774340629578e-01,-9.491148591041564941e-02,-5.629187822341918945e-02,4.438558965921401978e-02,3.762875869870185852e-02,-3.957124426960945129e-02,2.769447863101959229e-02,1.145121082663536072e-01,-1.189212799072265625e-01,6.520457565784454346e-02,-3.616800531744956970e-02,-5.680539458990097046e-02,-4.466566815972328186e-02,8.377681672573089600e-02,6.340440362691879272e-02,-3.198746219277381897e-02,-7.250458747148513794e-02,8.221753686666488647e-02,-5.165711045265197754e-02,3.815028071403503418e-02,-5.219357088208198547e-02,7.997150719165802002e-02,8.192440122365951538e-02,9.198125451803207397e-02,2.538508735597133636e-02,1.015270277857780457e-01,2.127388305962085724e-02,-3.701881691813468933e-02,1.049863547086715698e-01,1.512627676129341125e-02,2.108759060502052307e-02,-5.955786630511283875e-02,-3.576829284429550171e-02,9.151513129472732544e-02,1.229472607374191284e-01,-6.948700547218322754e-02,-8.502841740846633911e-02,-3.152821958065032959e-02,5.610726773738861084e-02,6.037218868732452393e-02,-5.153880454599857330e-03,-4.660114273428916931e-02,1.031565815210342407e-01,3.431088104844093323e-02,7.730130106210708618e-02,-1.078218687325716019e-02,3.735327348113059998e-02,-9.719624370336532593e-02,-1.075600534677505493e-01,4.369444027543067932e-02,-1.044571772217750549e-01,-6.121589988470077515e-02,5.066589917987585068e-03,-9.350226074457168579e-02,-8.786171674728393555e-02,-8.696458488702774048e-02,-7.419681549072265625e-02,9.921383112668991089e-02,4.410882294178009033e-02,-5.317930132150650024e-02,-8.061654865741729736e-02,-7.105886191129684448e-02,-6.445074826478958130e-02,4.451163485646247864e-02,-3.047749586403369904e-02,-1.122614592313766479e-01,-7.295277714729309082e-02,7.194095849990844727e-02,8.131988346576690674e-02,7.249332964420318604e-02,-4.536892473697662354e-02,3.724897280335426331e-02,7.819215953350067139e-02,-3.241724148392677307e-02,1.005650758743286133e-01,7.880856841802597046e-02,7.781417667865753174e-02,-7.299975305795669556e-02,1.243742257356643677e-01,-7.252600044012069702e-02,-8.571311086416244507e-02,-1.122773904353380203e-02,-7.953326404094696045e-02,9.668362140655517578e-02,3.608436509966850281e-02,-1.001939252018928528e-01,-8.735854923725128174e-02,2.403115853667259216e-02,-7.396931201219558716e-02,-1.069719642400741577e-01,-9.550969302654266357e-02,-5.957115441560745239e-02,5.411377921700477600e-02,-2.497403696179389954e-02,3.120541386306285858e-02,4.096421599388122559e-02,-2.607718668878078461e-02,-5.646739527583122253e-02,3.105197800323367119e-03,8.469991385936737061e-02,7.018630206584930420e-02,5.608264729380607605e-02,9.628173708915710449e-02,-2.299301559105515480e-03,-5.167955532670021057e-03,-6.207109894603490829e-03,9.020660817623138428e-02,7.607197016477584839e-02,2.453516982495784760e-02,-4.964227974414825439e-02,-8.949777483940124512e-02,8.660312741994857788e-02,-1.210877001285552979e-01,8.674576133489608765e-02,4.139515385031700134e-02,-1.147850975394248962e-01,5.351020768284797668e-02,2.507336810231208801e-02,3.798637306317687035e-03,-3.643727302551269531e-02,1.236841753125190735e-01,4.286328330636024475e-02,7.202674448490142822e-02,-2.616491727530956268e-02,8.490239083766937256e-02,6.160952150821685791e-03,-2.622557431459426880e-02,8.642631024122238159e-02,-4.330400377511978149e-02,-9.798133373260498047e-02,-1.320773959159851074e-01,-5.721360817551612854e-02,-8.221804350614547729e-02,8.453784883022308350e-02,-5.294299125671386719e-02,-2.853529714047908783e-02,-5.360050126910209656e-02,7.368333172053098679e-03,3.020407073199748993e-02,-9.478651732206344604e-02,-1.223463471978902817e-02,5.700219422578811646e-02,9.452120959758758545e-02,3.108769096434116364e-02,7.391722500324249268e-02,-1.132369637489318848e-01,-8.508431725203990936e-03,5.289955437183380127e-02,6.088338792324066162e-02,-9.754775464534759521e-02,-3.586053848266601562e-02,-1.268269270658493042e-01,-1.101073250174522400e-02,-1.000058948993682861e-01,-9.880561381578445435e-02,-1.051312312483787537e-01,1.964676193892955780e-02,9.110670536756515503e-02,1.224762350320816040e-01,-5.558621510863304138e-02,9.914768487215042114e-02,9.820522367954254150e-02,3.078405372798442841e-02,5.553143098950386047e-02,-1.019425541162490845e-01,-4.461796209216117859e-02,1.008145585656166077e-01,1.569213531911373138e-02,-5.305626988410949707e-02,-3.751191869378089905e-02,-5.775736272335052490e-02,6.105966120958328247e-02,-9.102814644575119019e-02,1.052514314651489258e-01,-2.614035457372665405e-02,-2.565457671880722046e-02,-1.191848050802946091e-02,-1.269328780472278595e-02,-3.481981530785560608e-02,7.763569056987762451e-02
