8.530788868665695190e-02,1.079408377408981323e-01,-3.353879973292350769e-02,3.729583695530891418e-02,1.706087402999401093e-02,1.085795909166336060e-01,8.424590528011322021e-02,4.376894980669021606e-02,-2.603635378181934357e-02,-7.709717750549316406e-02,-9.748838841915130615e-03,1.432234942913055420e-01,8.553100377321243286e-02,1.121296510100364685e-01,7.232435792684555054e-02,8.547158539295196533e-02,-1.777635887265205383e-02,8.197031915187835693e-02,1.417938526719808578e-02,-1.136407703161239624e-01,5.579660087823867798e-02,8.114926517009735107e-02,1.430979371070861816e-01,1.409345585852861404e-02,-7.243415713310241699e-02,1.194270444102585316e-03,1.126852557063102722e-01,-3.952323272824287415e-02,4.977749194949865341e-03,-1.056118831038475037e-01,6.446188781410455704e-03,-2.520125918090343475e-02,1.113001406192779541e-01,1.142003536224365234e-01,3.098156116902828217e-02,-6.894727051258087158e-02,1.041049286723136902e-01,-1.309931371361017227e-02,-4.439899697899818420e-02,-6.194814667105674744e-02,2.703140303492546082e-02,-7.876683771610260010e-02,-7.422699779272079468e-02,9.909058362245559692e-02,1.107855886220932007e-01,3.407637774944305420e-02,2.424263395369052887e-02,7.825246453285217285e-02,8.414637297391891479e-02,8.776912838220596313e-02,-6.587143987417221069e-02,1.196377873420715332e-01,-3.274279460310935974e-02,-7.412773557007312775e-03,-8.941094577312469482e-02,-2.940575126558542252e-03,-3.272728621959686279e-02,2.934812754392623901e-02,6.500696390867233276e-02,-1.592545583844184875e-02,1.135925017297267914e-02,-1.122845634818077087e-01,8.725033141672611237e-03,5.603637546300888062e-02,-8.700056374073028564e-02,-2.544771321117877960e-02,-3.598732501268386841e-02,-3.146013244986534119e-02,9.535706043243408203e-02,2.230001613497734070e-02,-4.658329114317893982e-02,9.091689437627792358e-02,6.006472557783126831e-02,4.558294266462326050e-02,-7.289630174636840820e-02,1.905933395028114319e-02,2.476519905030727386e-02,2.024159952998161316e-02,1.371456384658813477e-01,9.924964606761932373e-02,-4.757314547896385193e-02,1.188725158572196960e-01,-3.404755890369415283e-02,-2.529116161167621613e-02,-1.486368384212255478e-02,5.532336607575416565e-02,-9.797399863600730896e-03,4.546530544757843018e-02,9.658673405647277832e-02,6.095600128173828125e-02,-6.764631718397140503e-02,-9.518031030893325806e-02,-4.281312599778175354e-02,-6.269773468375205994e-03,5.505984649062156677e-02,8.978821337223052979e-02,3.440130967646837234e-03,-2.284045144915580750e-02,7.295313477516174316e-02,7.894729822874069214e-02,-4.685293883085250854e-02,-2.269806899130344391e-02,2.080860733985900879e-02,3.357148543000221252e-02,5.787757039070129395e-02,-3.083282709121704102e-02,-6.852065026760101318e-02,-1.229232400655746460e-01,2.282002940773963928e-02,-9.719990193843841553e-02,-6.724788993597030640e-02,-1.036984100937843323e-01,-8.685657382011413574e-02,-6.307639181613922119e-02,6.830468773841857910e-02,1.810624264180660248e-02,3.005377016961574554e-02,1.259509027004241943e-01,3.709014132618904114e-02,9.474538266658782959e-02,-7.510365545749664307e-02,-7.407343387603759766e-02,5.224983021616935730e-02,-1.160426735877990723e-01,-9.358923137187957764e-02,9.718776494264602661e-02,4.595665633678436279e-02,1.200801357626914978e-01,-4.780451208353042603e-02,-2.743417397141456604e-03,2.673143148422241211e-02,-4.533814266324043274e-02,-1.224914193153381348e-02,-8.436378091573715210e-02,-7.840178906917572021e-03,-4.807836934924125671e-02,-8.398827910423278809e-02,-1.283276379108428955e-01,-6.366499513387680054e-02,9.795995056629180908e-02,5.525132641196250916e-02,-1.020247563719749451e-01,9.454770386219024658e-02,5.774971097707748413e-02,-2.645331621170043945e-02,-1.124269366264343262e-01,-1.098222061991691589e-01,1.235266253352165222e-01,8.517266064882278442e-02,3.938781470060348511e-02,6.909029930830001831e-02,-1.034227460622787476e-01,-9.723074734210968018e-02,-4.789640381932258606e-02,5.567082390189170837e-02,-5.759406462311744690e-02,1.239117160439491272e-01,-1.478635426610708237e-02,-6.075189262628555298e-02,7.825955003499984741e-02,-6.746929138898849487e-02,3.760660067200660706e-02,3.966782242059707642e-02,2.322909981012344360e-02,-5.930636078119277954e-02,5.416675284504890442e-02,8.968941867351531982e-02,-3.850049898028373718e-02,-5.115637555718421936e-02,4.337581247091293335e-02,-1.088573411107063293e-01,7.359273731708526611e-02,4.191962257027626038e-02,1.022071391344070435e-01,2.830583788454532623e-02,1.252300888299942017e-01,-1.079313457012176514e-01,-3.645098954439163208e-02,6.138635426759719849e-02,2.329505421221256256e-02,3.412598744034767151e-04,1.371203660964965820e-01,3.108353167772293091e-02,5.113352462649345398e-02,-1.063666343688964844e-01,-1.154042035341262817e-01,-1.815905910916626453e-03,1.005938835442066193e-02,-3.048369102180004120e-02,-7.470622658729553223e-02,1.201541796326637268e-01,8.576283603906631470e-02,-6.752371788024902344e-02,1.232615709304809570e-01,-3.628415614366531372e-02,2.863412350416183472e-02,1.274322122335433960e-01,-4.946273937821388245e-02,4.609972611069679260e-02,1.625820808112621307e-02,-8.408836275339126587e-02,6.521286070346832275e-02,-5.185250565409660339e-02,-7.889416813850402832e-02,-1.047762036323547363e-01,-3.318348526954650879e-02,1.103776041418313980e-02,-1.055343523621559143e-01,3.185526235029101372e-03,1.036928892135620117e-01,8.844288438558578491e-02,9.796144813299179077e-02,6.375877559185028076e-02,-8.629880100488662720e-02,-4.906118288636207581e-02,7.891768962144851685e-02,1.207784190773963928e-01,-1.931014843285083771e-02,1.188287511467933655e-01,-1.085691004991531372e-01,-6.990563124418258667e-02,1.169391348958015442e-01,-1.841530390083789825e-02,-4.523756913840770721e-03,-1.080374717712402344e-01,1.692132502794265747e-01,-9.368921071290969849e-02,2.019469626247882843e-02,-6.664715707302093506e-02,8.251593261957168579e-02,-1.994322426617145538e-02,7.064541336148977280e-03,1.742882654070854187e-02,-9.569524228572845459e-02,5.731547623872756958e-02,2.610715851187705994e-02,1.170271188020706177e-01,-8.396653831005096436e-02,5.772468075156211853e-02,5.800230428576469421e-02,3.138829767704010010e-02,-5.309697985649108887e-02,-1.800913736224174500e-02,-3.366744518280029297e-02,6.615301221609115601e-02,-9.637844748795032501e-03,5.388482287526130676e-02,1.083141341805458069e-01,4.892348498106002808e-02,-7.115235924720764160e-02,-7.830364257097244263e-02,9.520384669303894043e-02,-5.729052796959877014e-02,-1.007085740566253662e-01,-1.655962690711021423e-02,-8.702614903450012207e-02
