shape,"(1, 512)"
-0.11998471,-0.04734204,0.034065135,-0.014351019,-0.05320801,-0.011772855,-0.04175935,0.023693161,-0.054868322,-0.023340771,-0.06179654,-0.045283683,0.031844787,0.07337161,-0.013923418,-0.02699869,-0.012858107,-0.053550452,0.064578734,0.106711686,0.14805613,-0.045243606,0.022269359,-0.030036312,-0.11182671,0.07535901,0.052263945,0.005407019,-0.07442309,-0.03752405,0.04024776,0.032570638,-0.11700523,0.04693351,-0.022889884,-0.09190903,0.10996833,-0.022460498,-0.09816068,-0.031642236,0.114971995,-0.015357614,-0.021406582,0.09563996,-0.02137008,-0.019409627,0.09343867,-0.0772007,0.036348514,-0.029189242,-0.0036664184,0.006871554,0.074954525,-0.060029484,0.018035766,-0.07379095,-0.07066956,0.07686774,0.06402131,0.12058061,-0.0616701,0.028086137,-0.006491036,-0.07678472,-0.05098766,0.05478959,-0.002239782,0.087456495,0.037568938,0.054633703,0.014257316,-0.0029838271,0.05662087,-0.011076256,-0.021132473,-0.11822822,0.010687294,-0.059576835,0.0873939,-0.032471128,-0.020233097,0.031209689,0.06514537,0.042073913,0.027491769,0.05919735,-0.024862515,0.046937387,0.049609642,0.09329305,-0.07521107,0.010279057,-0.030229935,-0.071017765,0.11198897,-0.008682149,0.045275442,-0.08273338,-0.042740006,-0.072358325,0.04968438,0.07778646,0.025856717,0.08278049,0.036006197,0.024152068,0.042162683,-0.049738836,0.013997175,-0.021706166,-0.13153014,0.020740692,-0.051557533,-0.067514524,-0.035413153,0.024376176,-0.084368326,-0.05637033,-0.0908627,0.09281939,0.08381785,0.052325543,0.0076889605,0.073461495,0.0053134146,0.011200115,0.1293986,0.03479696,0.07976051,0.06480757,0.034730747,0.0035007154,-0.049236268,0.042306356,-0.006249223,-0.031446274,0.11061062,0.041789707,0.098307595,-0.020815978,-0.09006256,0.0911908,0.051785417,0.11444276,-0.05309115,-0.04609332,-0.07359188,-0.06314171,-0.03626313,0.042673662,0.0062579396,0.06628484,-0.086819045,-0.04202881,0.047757186,0.02902166,0.0085296435,-0.0916889,0.13029611,0.035822872,-0.10072989,-0.042735133,0.049508337,-0.11085628,0.03031325,-0.01654605,-0.021596847,0.0001086581,-0.0349759,-0.019892585,0.0015938523,0.0691171,0.020394102,-0.006149425,0.0057576615,0.08393001,0.023558972,-0.07528971,-0.011256021,0.039400585,-0.04555062,-0.11179417,-0.023355916,-0.10411946,0.06646679,-0.07462037,0.0449465,0.016874414,0.05314189,-0.023112744,-0.05195159,-0.1250925,0.09713154,-0.08202008,-0.08955791,-0.0071158893,0.029707363,-0.017169248,0.03434695,0.08493181,0.0014540588,-0.0020804182,0.044982858,-0.009014738,0.03737065,-0.03474463,0.022973536,0.02175864,0.0666522,-0.02351405,0.060051814,0.044066343,0.115296945,0.09480037,-0.075698465,0.1188135,-0.052577317,0.081037,0.006371637,-0.10187672,0.11262335,-0.005792133,-0.016025206,-0.034348972,-0.15151379,0.06995362,-0.033305567,0.014656663,-0.008601522,-0.016234407,0.057555534,-0.08108372,-0.0027596368,-0.11017007,0.02443753,-0.02208942,0.0077892356,0.15936406,-0.08113959,0.05250967,-0.09244303,0.023717403,0.030675236,0.0479739,0.055414006,-0.055589516,0.042789377,-0.0731352,0.119605646,0.039570294,0.11123628,-0.006338752,-0.031734794,-0.021864884,0.082375295,0.04313704,-0.0050208536,0.055092037,0.015137323,0.040015526,0.08741812,0.035266887,0.06299326,-0.091427475,-0.05152606,-0.013568355,0.07238234,-0.077066086,0.09606754,0.050638355,0.106785715,0.052445713,0.09459861,0.06794218,-0.0553939,0.006146161,0.018390993,0.011536648,-0.027220286,-0.03681054,0.005965792,-0.052632496,0.0895298,-0.043746658,0.03879099,-0.13525555,-0.11839647,0.05156643,-0.190986,-0.008567619,0.091554195,-0.11323911,0.025922608,0.06724873,-0.030704053,-0.069616236,0.0127016455,0.047640685,0.06373396,0.12345559,-0.021355493,-0.070071355,0.008717093,-0.047934517,0.054256275,0.07712617,-0.13911575,0.018623345,0.04127696,-0.082673416,-0.019511359,-0.06834638,0.007542496,-0.0058476413,-0.03155972,-0.049196538,0.017352797,0.0054722102,-0.0016076873,0.11937155,0.09087892,-0.023542242,0.0076843523,0.106964424,-0.005289023,-0.005430629,-0.0270637,0.0035187735,0.05974123,-0.034182694,0.013108047,0.11111711,0.077579714,0.038862716,-0.012196995,0.0385308,0.037051223,-0.03099079,-0.072076805,0.024715353,-0.057867657,-0.023846759,-0.008013163,0.08191932,-0.052046005,-0.05254535,0.015695008,0.023214951,-0.085733406,-0.10541253,0.06416329,0.0099005485,0.032861978,-0.07118027,-0.03995,-0.08937379,-0.037470825,-0.07355842,0.00692513,-0.06921888,-0.095059596,-0.011541568,0.039315745,0.024610337,-0.020036183,0.078340136,-0.048949048,-0.014159086,-0.09999682,-0.047955707,0.11651315,-0.025720762,0.011004752,0.029636314,0.13525131,-0.020258583,0.0049150926,0.034528714,-0.13398774,-0.04003826,0.07690203,-0.006255095,0.0071088667,-0.05332607,-0.06130086,0.024501244,-0.018100834,0.016866915,0.01822015,0.0012169892,0.01672247,0.045359597,0.0073089185,0.01235392,0.006219542,-0.032910995,-0.039018653,0.026423324,0.05651821,-0.031168384,-0.07319924,-0.08275312,-0.025077758,-0.16191722,0.036906827,0.11528579,-0.002146749,0.034037035,-0.034457244,-0.08287314,-0.09428822,0.009345162,0.01570898,2.1946073e-05,-0.0851465,-0.11515204,-0.012142116,0.02952779,0.028001595,0.026442422,-0.047456726,0.0743122,-0.022662438,-0.021870557,0.05037932,-0.044895943,-0.20298122,-0.08145275,0.020200277,-0.014798144,0.09578008,-0.044202372,0.052114546,-0.042366307,-0.010947101,-0.12019875,-0.03404583,0.100103915,-0.04132248,0.0056800637,-0.03382117,0.03054916,-0.08920977,-0.017532911,-0.019679252,-0.02731649,-0.040278953,0.038125426,0.114009105,0.08717111,0.020274825,0.024410585,0.021969149,0.03532535,-0.08183449,0.084922224,-0.032049306,0.022545919,-0.063793465,-0.109586015,0.021993952,0.05358692,0.028081287,0.010816777,-0.11049332,-0.0077818343,-0.071995325,0.05103295,0.11282661,-0.11331768,0.075823046,-0.102892675,-0.008597183,-0.0011798895,-0.0208104,0.047037646,-0.0074376273,0.013717565,-0.07094363,-0.0034392488,0.061032098,0.03391929,-0.022335514,-0.05015874,0.062512495,-0.08730711,-0.033368047,0.009176439,-0.01975854,0.1526049,-0.027959844,0.07883189,-0.12543425,-0.1516791,0.026655238,0.124694884,-0.043167315,0.13218972,-0.054085497,-0.083465815,0.05695782,-0.060795862,-0.027390236,-0.025228273,-0.060357932,-0.0010579373,-0.030218938,0.0076048826,-0.03052232,-0.004712728,-0.018434163,-0.007839189
