-1.521681249141693115e-01,7.251771166920661926e-03,-3.438403829932212830e-02,-3.002853691577911377e-02,6.215772032737731934e-02,4.499342665076255798e-02,7.716615498065948486e-02,-4.301882535219192505e-02,-1.360058337450027466e-01,-7.979053072631359100e-03,8.160786330699920654e-02,-7.218834012746810913e-02,-2.483732253313064575e-02,9.420922957360744476e-03,-2.252712659537792206e-02,-8.269240707159042358e-02,-8.338306844234466553e-02,-2.402125112712383270e-02,-2.455095946788787842e-02,-2.852272242307662964e-02,-2.929759956896305084e-02,3.958697244524955750e-02,-6.268527358770370483e-02,-2.216831967234611511e-02,-6.278404593467712402e-02,3.830552101135253906e-02,3.080935589969158173e-02,6.621046364307403564e-02,6.118107959628105164e-02,7.871739566326141357e-02,-2.223476395010948181e-02,6.340952962636947632e-02,2.486157231032848358e-02,-3.394120186567306519e-02,6.129447370767593384e-02,1.209151372313499451e-01,4.099682345986366272e-02,2.887963689863681793e-02,1.269132178276777267e-02,1.057825330644845963e-02,1.056863218545913696e-01,1.155508831143379211e-01,-8.000230416655540466e-03,-1.074089035391807556e-01,-1.865961588919162750e-02,-4.172004386782646179e-02,1.231310069561004639e-01,-4.655865952372550964e-02,1.885336078703403473e-02,1.294331508688628674e-03,-1.067343205213546753e-01,-2.960952371358871460e-02,8.678489923477172852e-02,-9.621990472078323364e-02,5.480998381972312927e-02,-3.977116942405700684e-02,8.469442836940288544e-03,3.046535328030586243e-02,3.887764737010002136e-02,9.039791673421859741e-02,9.103299118578433990e-03,-3.852564468979835510e-02,2.688136138021945953e-02,-5.668464675545692444e-02,2.518412098288536072e-02,8.531056344509124756e-02,1.688447892665863037e-01,1.103219911456108093e-01,-3.808116167783737183e-02,-2.986270748078823090e-02,2.018520422279834747e-02,-2.389007247984409332e-02,6.228643655776977539e-02,-6.257940828800201416e-02,4.930019751191139221e-02,-5.451896041631698608e-02,-1.814140193164348602e-02,6.718459725379943848e-02,-6.529541313648223877e-02,1.325804833322763443e-02,-4.905302077531814575e-02,-6.540817767381668091e-02,1.694875769317150116e-02,8.209209889173507690e-02,8.166515082120895386e-02,-3.455603867769241333e-02,3.849176689982414246e-02,6.560899317264556885e-02,-1.651709154248237610e-02,1.073276847600936890e-01,1.341447047889232635e-02,-4.889339208602905273e-02,5.418521165847778320e-02,5.041624978184700012e-02,1.671413332223892212e-02,9.214240126311779022e-03,1.197700388729572296e-02,-9.549300372600555420e-02,2.703260444104671478e-02,-7.365706562995910645e-02,-1.212863251566886902e-02,1.383675262331962585e-02,-4.913455247879028320e-02,-4.742223396897315979e-02,6.196682155132293701e-02,2.242249203845858574e-03,3.961450234055519104e-02,-3.829463943839073181e-02,-9.965015575289726257e-03,8.654732257127761841e-02,3.341112658381462097e-02,-2.728950791060924530e-02,-8.401563018560409546e-02,1.278335750102996826e-01,3.562404587864875793e-02,-5.065676569938659668e-02,-1.867391914129257202e-02,-2.672756835818290710e-02,3.773454809561371803e-03,-5.303327739238739014e-02,4.003161191940307617e-02,-1.240688376128673553e-02,-1.425273157656192780e-02,-4.271472617983818054e-02,3.263938054442405701e-02,1.011712402105331421e-01,-6.544220447540283203e-02,-6.306765973567962646e-02,4.086222872138023376e-02,8.240372687578201294e-02,2.064476534724235535e-02,-4.351348057389259338e-02,6.873808056116104126e-02,-2.498002164065837860e-02,2.617971738800406456e-03,5.991106107831001282e-02,4.364740103483200073e-02,-9.684406965970993042e-02,3.049984946846961975e-02,4.452669247984886169e-02,-7.094503939151763916e-02,-7.652860134840011597e-03,8.529352489858865738e-04,5.753744766116142273e-02,-4.678851459175348282e-03,-1.056723743677139282e-01,4.209420830011367798e-02,2.848637476563453674e-02,3.215072304010391235e-02,9.280350804328918457e-02,4.732524976134300232e-03,-6.498438864946365356e-02,-1.169448867440223694e-01,-2.557052299380302429e-02,8.149825781583786011e-02,1.140559017658233643e-01,3.737709298729896545e-02,-2.672979608178138733e-02,-5.593817308545112610e-02,7.689963560551404953e-03,-3.998281806707382202e-02,1.592684909701347351e-02,-2.933433512225747108e-03,1.089129820466041565e-01,-2.384103648364543915e-02,-5.318660289049148560e-02,9.467748552560806274e-02,6.248780339956283569e-02,4.784974083304405212e-02,4.911467898637056351e-03,-4.868513345718383789e-02,9.162882715463638306e-02,-8.777070045471191406e-02,-5.487986281514167786e-02,-5.008810758590698242e-02,-1.346330344676971436e-02,6.648693978786468506e-02,-6.078852713108062744e-02,-8.229976147413253784e-02,-1.898162066936492920e-02,3.695857524871826172e-02,1.715828292071819305e-02,4.167137295007705688e-02,4.421683773398399353e-02,-2.680889889597892761e-02,4.169682972133159637e-03,6.569170206785202026e-02,5.430674180388450623e-02,2.652006968855857849e-02,9.786240011453628540e-02,1.486710738390684128e-03,-1.236382778733968735e-02,-2.212640456855297089e-02,-3.778720041736960411e-03,-1.017259550280869007e-03,-9.651867300271987915e-02,1.194715201854705811e-01,4.484739527106285095e-02,5.249818786978721619e-02,-7.743229717016220093e-02,6.869714707136154175e-02,8.924239315092563629e-03,-4.615876823663711548e-02,4.649668186902999878e-02,-9.712398052215576172e-02,4.305516369640827179e-03,3.382086008787155151e-02,2.604507841169834137e-02,2.421238459646701813e-02,7.160840183496475220e-02,-4.065688699483871460e-02,4.014379158616065979e-02,1.037581861019134521e-01,-6.126378104090690613e-02,-2.297918125987052917e-02,-4.737738892436027527e-02,2.002049051225185394e-02,1.171958073973655701e-02,-5.906390957534313202e-03,5.673490092158317566e-02,7.928746193647384644e-02,-2.248109318315982819e-02,-3.507446125149726868e-02,-3.068540245294570923e-03,-4.339286684989929199e-02,-5.469225719571113586e-02,-4.252212867140769958e-02,4.812656342983245850e-02,1.094466671347618103e-01,-1.658246852457523346e-02,2.906078100204467773e-02,9.716752171516418457e-02,7.929619401693344116e-02,6.794980913400650024e-02,7.095582783222198486e-02,-6.470040231943130493e-02,2.046895958483219147e-02,-7.480102794943377376e-05,1.166351288557052612e-01,-5.525999516248703003e-02,-6.354614347219467163e-02,5.211650580167770386e-02,-3.539998456835746765e-02,5.108332633972167969e-02,5.052080843597650528e-03,1.451143249869346619e-02,-6.090918555855751038e-02,-8.134046941995620728e-02,-1.518079340457916260e-01,-2.255457267165184021e-02,-1.749837957322597504e-02,-6.024415791034698486e-02,7.049684971570968628e-02,5.490941554307937622e-02,3.346859663724899292e-02,4.216080904006958008e-02,3.988163545727729797e-02,2.379612997174263000e-02,-4.187706112861633301e-02,5.810827016830444336e-03,-4.995363578200340271e-02,8.868531137704849243e-02,2.089169062674045563e-02,-3.286123042926192284e-03,5.384452268481254578e-02,-7.126478850841522217e-02,3.236942738294601440e-02,3.280749171972274780e-02,5.146190151572227478e-02,-7.226701825857162476e-02,7.005122303962707520e-02,-3.251899406313896179e-02,3.366976976394653320e-02,2.052385918796062469e-02,-3.195365518331527710e-02,5.756600946187973022e-02,-3.159359470009803772e-02,-6.774864345788955688e-02,3.600464388728141785e-02,-1.204795539379119873e-01,5.087119527161121368e-03,3.790269792079925537e-02,-1.210930105298757553e-02,-1.088783219456672668e-01,-8.304589986801147461e-02,4.349745810031890869e-02,7.112548337318003178e-04,4.318035021424293518e-02,-2.410802803933620453e-02,-5.386325344443321228e-02,-1.198872849345207214e-01,9.994368255138397217e-02,-1.325510740280151367e-01,-6.378050893545150757e-02,3.683144226670265198e-02,1.219795551151037216e-02,-1.481608604080975056e-03,3.876596689224243164e-02,3.293094411492347717e-02,2.997097745537757874e-02,-1.109576374292373657e-01,9.568585455417633057e-02,-7.472609728574752808e-02,-4.718970879912376404e-02,1.209586020559072495e-02,3.723587840795516968e-02,-5.523061379790306091e-02,8.868407458066940308e-02,2.715487405657768250e-02,-7.946141064167022705e-02,3.282926976680755615e-02,9.917307645082473755e-02,2.769508212804794312e-02,-9.697044640779495239e-02,6.054897606372833252e-02,-1.684228191152215004e-03,-7.165919244289398193e-02,-4.636965692043304443e-02,3.678326308727264404e-02,-4.212135076522827148e-02,4.848322644829750061e-02,4.425032436847686768e-02,4.076362401247024536e-02,-5.714095383882522583e-02,-1.374351140111684799e-02,4.285610839724540710e-02,-7.018132018856704235e-04,-9.257738292217254639e-02,-1.160137914121150970e-02,6.142026185989379883e-02,2.047570608556270599e-02,-8.402983844280242920e-02,-2.995610423386096954e-02,-2.207285724580287933e-02,-2.131665311753749847e-02,1.096606105566024780e-01,5.348151549696922302e-02,7.547878194600343704e-04,1.579207740724086761e-02,4.799317941069602966e-02,-1.134731918573379517e-01,1.296901404857635498e-01,-5.981225892901420593e-02,4.422886669635772705e-02,-2.088187448680400848e-02,2.773740515112876892e-02,-7.432113587856292725e-02,7.258418202400207520e-02,-1.472675651311874390e-01,2.275963686406612396e-02,-8.410169929265975952e-02,1.278856676071882248e-02,-3.541134670376777649e-02,-7.392296940088272095e-02,-7.255797390826046467e-04,1.667639166116714478e-01,1.571274250745773315e-01,-1.187452487647533417e-02,-4.265322908759117126e-02,5.618856102228164673e-02,-2.954850671812891960e-03,4.989046975970268250e-02,-5.516182258725166321e-02,-8.571700006723403931e-02,-2.014214843511581421e-01,3.109975159168243408e-02,-2.093305112794041634e-03,6.942347437143325806e-02,1.652983576059341431e-02,7.325395941734313965e-03,4.100604355335235596e-02,-1.168631669133901596e-02,-6.420928239822387695e-02,-3.991402313113212585e-02,9.312077611684799194e-02,-2.937365137040615082e-02,8.643927425146102905e-02,-1.485447287559509277e-01,-7.815519720315933228e-02,-9.633438289165496826e-02,9.986147051677107811e-04,9.550183266401290894e-02,-1.764063164591789246e-02,1.722139678895473480e-02,-1.992762647569179535e-02,6.914796680212020874e-02,1.007428690791130066e-01,7.294599711894989014e-02,-4.432758782058954239e-03,-1.107424870133399963e-02,3.698379546403884888e-02,5.888005718588829041e-02,8.616438135504722595e-03,-1.987031474709510803e-02,1.298825605772435665e-03,-1.663460023701190948e-02,1.088651269674301147e-02,6.587224453687667847e-02,-6.031883135437965393e-02,-2.237089909613132477e-02,-3.333796560764312744e-02,6.520179659128189087e-02,-2.425719797611236572e-02,-2.833139151334762573e-02,-5.139588192105293274e-02,-3.692370280623435974e-02,2.014497993513941765e-03,4.519422352313995361e-02,-4.136039316654205322e-02,4.839133471250534058e-02,1.835933700203895569e-02,1.109471172094345093e-01,8.554378151893615723e-02,1.383967883884906769e-02,-1.073910444974899292e-01,1.140955090522766113e-01,-3.958723694086074829e-02,-6.146850064396858215e-03,-2.750900015234947205e-02,-7.421487569808959961e-02,-5.450037866830825806e-02,2.712235786020755768e-02,3.987301513552665710e-02,-3.744554473087191582e-03,-3.246465232223272324e-03,5.135844461619853973e-03,-8.455721661448478699e-03,-3.208275884389877319e-03,-9.170484542846679688e-02,5.062374845147132874e-02,-4.665306955575942993e-02,-7.323641330003738403e-03,-6.350697576999664307e-02,-4.377819225192070007e-02,9.868083894252777100e-02,-1.285132300108671188e-02,1.721428823657333851e-03,-2.131183445453643799e-01,2.713148109614849091e-02,-1.269165128469467163e-01,-3.299289569258689880e-02,-8.349005132913589478e-02,-7.126475870609283447e-02,-1.161505132913589478e-01,-3.538484498858451843e-02,-4.355751723051071167e-02,4.176241159439086914e-02,8.450838178396224976e-02,2.434496022760868073e-02,2.357334271073341370e-02,-5.099593102931976318e-02,1.071028187870979309e-01,-7.071623206138610840e-02,-1.583866216242313385e-02,-4.590311646461486816e-02,-3.113056533038616180e-02,6.423168629407882690e-02,-3.744200244545936584e-02,6.885708868503570557e-02,1.434294600039720535e-02,9.002889692783355713e-02,-5.736224725842475891e-02,-9.475602954626083374e-02,5.388094112277030945e-02,-6.826929003000259399e-02,-8.283866196870803833e-02,9.481140971183776855e-02,2.905515022575855255e-02,-3.638169541954994202e-02,-1.083654630929231644e-02,-1.185078620910644531e-01,1.219723969697952271e-01,-4.543178528547286987e-02,7.813066989183425903e-02,8.189414441585540771e-02,1.628694473765790462e-03,1.080296337604522705e-01,-5.067520961165428162e-02,-4.608488827943801880e-02,4.099148884415626526e-02,2.952681481838226318e-02,-8.756123483180999756e-02,-6.636674981564283371e-03,3.511799871921539307e-02,8.283042907714843750e-02,-1.253210306167602539e-01,-9.808784350752830505e-03,2.815017104148864746e-02,-3.187015652656555176e-02,-5.699811130762100220e-02,-7.107920013368129730e-03,2.576631121337413788e-02,-2.397519350051879883e-02,-1.710393093526363373e-02,6.670658290386199951e-02,1.402707695960998535e-01,2.313022315502166748e-02,1.526603102684020996e-01,8.045319467782974243e-02,9.152890183031558990e-03,4.197780415415763855e-02,-1.537314150482416153e-02,1.220505498349666595e-02,4.534598067402839661e-02,7.040130347013473511e-02,1.654389798641204834e-01,5.672611296176910400e-03,-8.883223682641983032e-02,2.342070656595751643e-04,-5.131033831275999546e-04,-3.064513765275478363e-02,-1.104928404092788696e-01
