5.265234783291816711e-02,2.405854128301143646e-02,-1.522112637758255005e-02,-7.427635043859481812e-02,1.866772770881652832e-02,-6.010143458843231201e-02,-2.220858074724674225e-02,-9.292914718389511108e-02,1.539272628724575043e-02,-4.247973486781120300e-02,-7.964566349983215332e-02,3.767403960227966309e-02,2.374341338872909546e-02,9.587729722261428833e-02,-3.578227385878562927e-02,1.276870537549257278e-02,9.563952684402465820e-02,-9.723715484142303467e-02,3.440738841891288757e-02,-6.208825856447219849e-02,4.421597719192504883e-02,-9.328003041446208954e-03,4.756145179271697998e-02,7.919722050428390503e-02,-5.922065302729606628e-02,-1.739245280623435974e-02,-4.256606847047805786e-02,7.162158191204071045e-02,-1.228827610611915588e-02,-1.383213847875595093e-01,9.706237167119979858e-02,8.362697437405586243e-03,1.006035879254341125e-01,-3.199768438935279846e-02,-1.107423193752765656e-02,-1.210075337439775467e-02,6.535206735134124756e-02,1.083652079105377197e-01,6.320985406637191772e-02,-3.113056533038616180e-03,9.150212258100509644e-02,9.034035727381706238e-03,1.170230582356452942e-01,4.903793800622224808e-03,3.579278290271759033e-02,-7.128296792507171631e-02,1.371196843683719635e-02,-3.273125737905502319e-02,9.822673350572586060e-02,-7.655633985996246338e-02,1.126528680324554443e-01,-5.667503550648689270e-02,5.995871126651763916e-02,-6.643724162131547928e-03,-1.415440347045660019e-02,7.295705843716859818e-03,1.710486412048339844e-01,2.651857212185859680e-02,-6.904951483011245728e-02,-5.258550494909286499e-02,1.541545614600181580e-02,4.498387128114700317e-02,3.396891430020332336e-02,-5.932847037911415100e-02,2.622020430862903595e-02,1.093350946903228760e-01,5.617564916610717773e-02,-1.237850263714790344e-01,-4.665042087435722351e-02,4.303532093763351440e-02,7.398721575736999512e-02,7.231751829385757446e-02,-1.411437690258026123e-01,-7.205677032470703125e-02,5.964791029691696167e-02,9.404148906469345093e-03,-2.568644843995571136e-02,-4.159931465983390808e-02,-1.356609351933002472e-02,5.758669972419738770e-02,-3.686732816277071834e-05,5.148826166987419128e-02,1.721301674842834473e-02,7.526286691427230835e-02,5.622128373943269253e-04,-3.245436772704124451e-02,3.842588514089584351e-02,5.915340408682823181e-02,7.309004664421081543e-02,-6.783078610897064209e-02,6.140784174203872681e-02,2.012937562540173531e-03,-3.186857700347900391e-02,9.611549228429794312e-02,-3.063107840716838837e-02,-9.927182644605636597e-02,-4.813462868332862854e-02,-7.360091060400009155e-02,-5.546811968088150024e-02,-2.460042573511600494e-02,2.187256701290607452e-02,-1.047608163207769394e-02,-4.376981034874916077e-02,-1.288567036390304565e-01,-6.072975322604179382e-02,3.432827070355415344e-02,2.840939676389098167e-03,2.022391557693481445e-02,-5.097381770610809326e-02,-4.655419662594795227e-02,-3.645886853337287903e-02,-3.062815964221954346e-02,-1.086883060634136200e-02,-4.975946247577667236e-02,9.780137799680233002e-03,-1.970447227358818054e-02,-9.276178479194641113e-02,8.750475943088531494e-02,-5.623310431838035583e-02,-3.746858239173889160e-02,1.424539741128683090e-02,5.991318076848983765e-02,1.958912005648016930e-03,7.398580759763717651e-02,2.450772561132907867e-02,5.913833528757095337e-02,3.128794953227043152e-02,1.266391128301620483e-01,-5.920747062191367149e-04,-8.197963982820510864e-02,-1.197282001376152039e-01,7.667121291160583496e-02,4.113598540425300598e-02,-1.602378860116004944e-02,-1.175028551369905472e-02,1.108218431472778320e-01,-9.004130214452743530e-02,1.379804611206054688e-01,-1.772661809809505939e-03,-1.274585723876953125e-01,-6.408627331256866455e-02,6.145711056888103485e-03,-5.301889032125473022e-02,6.288240104913711548e-02,-4.566284641623497009e-02,2.815039828419685364e-03,-5.185891315340995789e-02,9.041427820920944214e-02,9.140910208225250244e-02,8.500891923904418945e-02,1.144368797540664673e-01,-9.195503592491149902e-02,-6.116159632802009583e-02,3.494103206321597099e-03,-4.066576063632965088e-02,1.063705012202262878e-01,-2.790470607578754425e-02,2.344849891960620880e-02,-9.668067097663879395e-03,-5.602179840207099915e-02,1.167846173048019409e-01,-3.211839497089385986e-02,-4.335027560591697693e-02,2.630975283682346344e-02,2.400802262127399445e-02,-1.117717381566762924e-02,-6.063644960522651672e-02,-7.109671831130981445e-02,1.067470982670783997e-01,-8.513843268156051636e-02,-2.897052839398384094e-02,-2.848050370812416077e-02,3.398146852850914001e-02,-1.294010318815708160e-03,2.429801598191261292e-02,-4.502057284116744995e-02,-1.044322401285171509e-01,2.014395035803318024e-02,2.143888548016548157e-02,3.968522325158119202e-02,-5.963976029306650162e-03,6.062117964029312134e-02,-2.850965969264507294e-02,4.634761810302734375e-02,2.088809013366699219e-02,-1.977983862161636353e-02,-4.385981708765029907e-02,1.815077103674411774e-02,3.886530548334121704e-02,-6.132131069898605347e-02,2.051129378378391266e-02,-8.015048503875732422e-02,9.131709486246109009e-02,3.048533760011196136e-02,4.968572035431861877e-02,2.904848381876945496e-02,-5.760448053479194641e-02,-7.366655766963958740e-02,-6.642138957977294922e-02,3.274783864617347717e-02,1.362665593624114990e-01,-6.737755984067916870e-02,-5.343867838382720947e-02,6.611615419387817383e-03,-1.079194806516170502e-02,2.949765697121620178e-02,-6.813613325357437134e-02,1.798088550567626953e-01,7.969229668378829956e-02,-4.225838929414749146e-03,-1.336151212453842163e-01,-2.923301234841346741e-02,-8.377876877784729004e-02,2.966510318219661713e-02,2.901193872094154358e-02,8.501656353473663330e-02,-1.173153147101402283e-02,6.171666551381349564e-03,-2.456660941243171692e-02,6.815091706812381744e-03,-5.311775486916303635e-03,9.788990952074527740e-03,-5.769576132297515869e-02,5.799363926053047180e-02,3.528661280870437622e-02,-2.566221542656421661e-02,-7.224434614181518555e-02,-4.190824180841445923e-02,9.499020129442214966e-02,3.428192436695098877e-02,-3.409852460026741028e-02,1.141975373029708862e-01,6.269678939133882523e-03,1.723969914019107819e-02,-4.754336923360824585e-02,-1.009954512119293213e-02,5.413444340229034424e-02,3.322140127420425415e-02,-2.765902131795883179e-02,4.340736940503120422e-02,6.022525578737258911e-02,-4.615144059062004089e-02,8.193428814411163330e-02,-3.600953519344329834e-02,4.918268322944641113e-02,-1.171933766454458237e-02,-2.672334760427474976e-02,1.775894314050674438e-02,3.986292518675327301e-03,3.655168041586875916e-02,5.624576285481452942e-02,-4.563385248184204102e-02,3.198211779817938805e-03,-7.929948717355728149e-02,5.696299485862255096e-03,1.782313687726855278e-03,6.131776794791221619e-02,-3.890059515833854675e-02,1.300935447216033936e-01,5.194580182433128357e-02,-4.516808688640594482e-02,4.502630606293678284e-02,-1.297522932291030884e-01,-5.760769918560981750e-02,6.298537366092205048e-03,-4.041785001754760742e-02,-1.614002697169780731e-02,-4.502417892217636108e-02,1.055035926401615143e-02,2.222967892885208130e-02,-1.588767580687999725e-02,-6.109612807631492615e-02,-1.075045019388198853e-01,-8.519435673952102661e-02,-3.380868956446647644e-02,-4.314722493290901184e-02,-5.073270574212074280e-02,1.397463679313659668e-02,1.938262581825256348e-02,2.731723710894584656e-02,6.485024839639663696e-02,-3.270763158798217773e-02,9.239764511585235596e-02,-1.275270991027355194e-02,2.363246865570545197e-02,5.479076132178306580e-02,4.528630152344703674e-02,2.477763965725898743e-02,2.357641607522964478e-02,-3.682090342044830322e-02,-3.795600496232509613e-03,4.633865877985954285e-02,-3.305552154779434204e-02,6.958639249205589294e-03,1.004425063729286194e-02,-3.251273930072784424e-02,-4.804761148989200592e-03,-4.610189422965049744e-02,-4.793193563818931580e-02,-1.054593175649642944e-02,3.541951254010200500e-02,2.643127553164958954e-02,6.306282430887222290e-02,-7.176587730646133423e-02,3.681943193078041077e-02,1.794716157019138336e-02,-8.002650737762451172e-02,3.175043733790516853e-03,6.290415674448013306e-02,1.283593624830245972e-01,3.994467668235301971e-03,-8.839186280965805054e-03,-1.158732455223798752e-02,-7.167404145002365112e-02,6.932805478572845459e-02,2.125292085111141205e-02,3.831553459167480469e-02,3.055426292121410370e-02,2.678507566452026367e-02,4.750210419297218323e-02,2.554530091583728790e-02,3.813377767801284790e-02,6.134950369596481323e-02,2.472452819347381592e-03,2.474532090127468109e-02,2.666704170405864716e-02,8.958076685667037964e-02,-6.859072297811508179e-02,1.541751772165298462e-01,-3.880375251173973083e-02,6.401962041854858398e-02,1.775287650525569916e-02,-2.166093327105045319e-02,2.933427505195140839e-02,7.875198498368263245e-04,-3.701846580952405930e-04,5.979407206177711487e-02,-6.989027559757232666e-02,5.817630887031555176e-02,2.819130197167396545e-02,5.025234818458557129e-02,5.386959388852119446e-02,3.447508811950683594e-02,3.299048636108636856e-03,4.319508560001850128e-03,2.552646212279796600e-03,-2.026085928082466125e-02,7.431691884994506836e-02,-1.089444011449813843e-01,-5.836243927478790283e-02,7.839483767747879028e-02,-1.936000958085060120e-02,-3.597987815737724304e-03,1.842236220836639404e-01,-3.590547014027833939e-03,1.385006457567214966e-01,-1.120244339108467102e-01,-1.698675192892551422e-02,-2.982651814818382263e-02,1.733125001192092896e-02,-6.874099373817443848e-02,-6.931306421756744385e-02,-5.656897276639938354e-02,-9.061079472303390503e-02,5.920550972223281860e-02,7.900494337081909180e-02,-9.281555563211441040e-02,6.920066662132740021e-03,-9.347476065158843994e-02,7.434688508510589600e-02,-8.471977710723876953e-02,1.469049043953418732e-02,-1.605904777534306049e-03,1.032565254718065262e-02,4.343587532639503479e-02,-1.277268514968454838e-03,9.263903647661209106e-02,8.057405054569244385e-02,6.972001492977142334e-02,5.673224478960037231e-02,1.533953938633203506e-02,3.107702918350696564e-02,9.657204896211624146e-02,-4.928446933627128601e-02,-3.114137612283229828e-02,5.135519313625991344e-04,-2.968430053442716599e-03,2.554013580083847046e-02,-6.487746257334947586e-03,-2.783235162496566772e-03,-8.525563031435012817e-02,-5.092757567763328552e-02,7.836417108774185181e-02,1.468012668192386627e-02,7.976580411195755005e-02,6.186208501458168030e-02,1.980303227901458740e-02,7.279587443917989731e-03,-1.015859842300415039e-01,1.977323740720748901e-02,-1.182521730661392212e-01,9.040203690528869629e-02,2.197350002825260162e-02,-9.051737189292907715e-02,-2.916180156171321869e-02,6.644702702760696411e-02,-2.833288535475730896e-02,4.969837889075279236e-02,5.039009265601634979e-04,-1.009181886911392212e-01,-9.652298875153064728e-03,-3.102471120655536652e-02,-2.332645701244473457e-03,4.225546866655349731e-02,-7.358898408710956573e-03,-3.316698223352432251e-02,3.500358387827873230e-02,-3.991227224469184875e-02,-4.110510926693677902e-03,8.034886419773101807e-02,-3.659845888614654541e-02,5.249753594398498535e-03,-3.979003056883811951e-02,-7.055354863405227661e-02,-9.762796014547348022e-02,-2.244808338582515717e-02,-6.201247498393058777e-02,8.468354493379592896e-02,-4.069810733199119568e-02,-1.266747713088989258e-02,1.086255088448524475e-01,-3.274900466203689575e-02,-7.260549813508987427e-02,3.177548572421073914e-02,5.764534324407577515e-02,1.015675137750804424e-03,7.239574193954467773e-02,-1.678347289562225342e-01,3.476628661155700684e-02,-1.488422900438308716e-01,7.966683804988861084e-02,5.510656163096427917e-02,-2.761994302272796631e-02,3.247946873307228088e-02,3.751030936837196350e-02,-2.703643217682838440e-02,5.480621010065078735e-02,3.449450433254241943e-02,8.558445423841476440e-02,1.038034539669752121e-02,-4.869330674409866333e-03,-8.851728634908795357e-04,-6.442179530858993530e-02,3.763941302895545959e-02,-9.397276490926742554e-02,2.478629909455776215e-02,1.127505488693714142e-02,-2.250770665705204010e-02,-1.043922975659370422e-01,1.234911847859621048e-02,-6.838371604681015015e-02,-4.644476622343063354e-02,-8.222612738609313965e-02,-8.036386221647262573e-02,1.178330089896917343e-02,2.149053849279880524e-02,1.125596277415752411e-02,-1.080262660980224609e-02,4.597282037138938904e-02,6.191616505384445190e-02,-4.292134195566177368e-02,-9.971399791538715363e-03,-3.325471654534339905e-02,4.926839470863342285e-02,-1.069555580615997314e-01,7.656750828027725220e-02,-6.544008851051330566e-02,4.943479225039482117e-02,-5.489891767501831055e-02,7.918792217969894409e-02,-1.568046957254409790e-01,-9.527228772640228271e-02,2.242541639134287834e-03,-3.063950873911380768e-02,-7.610781490802764893e-02,1.564274728298187256e-02,-6.785492599010467529e-02,5.659510940313339233e-02,-6.248222663998603821e-02,-6.842888891696929932e-03,3.708674106746912003e-03,-2.277310751378536224e-02,4.743599891662597656e-02,-5.830224603414535522e-02,2.052535302937030792e-03,-1.355618424713611603e-02,-1.955770887434482574e-02,7.561592757701873779e-02,2.715849131345748901e-02,-1.123224571347236633e-01,-6.547996401786804199e-02,-3.742184117436408997e-02,-3.213425353169441223e-02,-5.864133313298225403e-02,-4.683479666709899902e-02,2.488221414387226105e-02,6.279057124629616737e-04,1.189240161329507828e-02,-2.513321489095687866e-02,7.609762996435165405e-02,3.326740860939025879e-02,9.584850817918777466e-02
-6.407518684864044189e-02,4.270020872354507446e-02,7.129730191081762314e-03,-6.142520532011985779e-02,1.436583139002323151e-02,-5.423286184668540955e-02,1.360193360596895218e-02,-4.061465337872505188e-02,-6.105202808976173401e-02,5.990665778517723083e-02,8.758286014199256897e-03,-8.334628492593765259e-02,8.527768775820732117e-03,-7.628917694091796875e-02,2.208461984992027283e-02,-7.523769885301589966e-02,-5.066454783082008362e-02,5.728259310126304626e-02,5.232970044016838074e-02,7.609559595584869385e-02,-2.724644914269447327e-02,-1.763250306248664856e-02,-5.092760175466537476e-02,1.602019183337688446e-02,-5.202000215649604797e-02,1.744308322668075562e-02,6.379628181457519531e-02,3.615590184926986694e-02,7.222975045442581177e-02,-1.350596845149993896e-01,7.447325438261032104e-02,-3.969333693385124207e-02,3.416680032387375832e-03,4.363482445478439331e-02,1.829811558127403259e-02,6.631796807050704956e-02,2.134864032268524170e-02,-5.462692305445671082e-02,-3.727411851286888123e-02,-1.152209471911191940e-02,2.131434902548789978e-02,3.153485432267189026e-02,-3.922716900706291199e-02,1.290632132440805435e-02,-5.724639818072319031e-02,-4.661141894757747650e-03,-3.980128839612007141e-02,5.536527372896671295e-03,-3.684835508465766907e-02,-1.479865424335002899e-02,1.525380369275808334e-02,-5.796160921454429626e-02,-1.030103415250778198e-01,8.995363861322402954e-02,8.047319017350673676e-03,-1.421861443668603897e-02,1.903121359646320343e-02,-5.511557217687368393e-03,1.207224279642105103e-02,-3.248137980699539185e-02,1.564283110201358795e-02,9.095615823753178120e-04,-6.414486467838287354e-02,5.463346466422080994e-02,3.005367890000343323e-02,1.392642408609390259e-01,-5.128813534975051880e-02,3.728206036612391472e-03,1.174489557743072510e-01,-3.879243135452270508e-02,9.546328336000442505e-02,1.219061948359012604e-02,3.287448734045028687e-02,8.778024464845657349e-02,3.702192381024360657e-02,5.431017838418483734e-03,1.960068754851818085e-02,-1.489466279745101929e-01,-1.114431768655776978e-01,-3.166520595550537109e-02,-9.923833608627319336e-02,1.210333034396171570e-01,-1.506417337805032730e-02,-6.329155713319778442e-02,2.445317059755325317e-02,-6.547982338815927505e-03,6.395620852708816528e-02,1.439361483789980412e-03,7.421118021011352539e-02,6.314847618341445923e-02,2.791116200387477875e-02,-4.850528761744499207e-02,-9.239411912858486176e-03,5.368086695671081543e-02,1.621882990002632141e-02,7.733806967735290527e-02,-2.108718734234571457e-03,6.185564398765563965e-02,-2.585501968860626221e-02,-2.212976571172475815e-03,8.277997374534606934e-02,3.261929005384445190e-02,1.068364307284355164e-01,1.820440520532429218e-03,1.304902583360671997e-01,9.584230184555053711e-02,5.244663357734680176e-02,3.548776358366012573e-02,-2.147054858505725861e-02,1.850675791501998901e-02,1.609915308654308319e-02,-4.179148003458976746e-02,5.195566639304161072e-02,4.185818880796432495e-02,-2.848256565630435944e-02,3.722732421010732651e-03,-4.169769957661628723e-02,6.322647631168365479e-02,5.510370433330535889e-02,-1.170813106000423431e-02,9.082711767405271530e-04,-8.434065431356430054e-02,1.114847958087921143e-01,-4.553027451038360596e-02,1.465286221355199814e-02,-2.916561625897884369e-02,2.079825103282928467e-02,-8.349481038749217987e-03,1.291101872920989990e-01,4.337335005402565002e-02,3.216190636157989502e-02,-8.658145670779049397e-04,1.078235805034637451e-01,9.373316168785095215e-02,-2.588654868304729462e-02,-4.027460515499114990e-02,-3.285723552107810974e-02,3.345287963747978210e-02,1.065735239535570145e-02,4.629883915185928345e-02,-6.359621882438659668e-03,5.667455866932868958e-02,1.007578223943710327e-01,5.227717757225036621e-02,-3.365262597799301147e-02,9.328721463680267334e-02,8.047074079513549805e-04,4.131725803017616272e-02,4.925969243049621582e-02,4.061297327280044556e-02,2.419644966721534729e-03,-5.311154574155807495e-02,3.861407749354839325e-03,-1.219496056437492371e-01,5.003756657242774963e-02,1.400422155857086182e-01,3.297565504908561707e-02,-4.258234053850173950e-02,-5.959863215684890747e-02,7.900983840227127075e-02,-1.615473628044128418e-02,2.851401083171367645e-02,4.784921184182167053e-02,8.642338961362838745e-02,8.411628752946853638e-02,-3.099523298442363739e-02,4.694755375385284424e-02,-5.605577677488327026e-02,2.826878055930137634e-02,-6.522122304886579514e-03,2.235722728073596954e-02,1.271042674779891968e-01,-1.073071733117103577e-02,2.538190037012100220e-02,-1.225421801209449768e-01,6.145910546183586121e-02,1.484537031501531601e-02,-1.816270686686038971e-02,3.537590801715850830e-02,7.166058570146560669e-02,5.019263178110122681e-02,1.900992728769779205e-02,-5.042092502117156982e-02,-2.978802844882011414e-02,2.688252180814743042e-02,5.026691779494285583e-02,-8.235071599483489990e-02,-3.521614149212837219e-02,2.420252002775669098e-02,-2.563495747745037079e-02,-3.922894597053527832e-03,1.572859287261962891e-02,8.669137954711914062e-02,-1.617420911788940430e-01,-8.894622325897216797e-02,-3.878347203135490417e-02,1.839886233210563660e-02,-1.801791228353977203e-02,1.423173490911722183e-02,3.758065775036811829e-02,2.200162969529628754e-02,-4.456414654850959778e-02,3.752110525965690613e-02,-9.025947004556655884e-02,9.307466447353363037e-02,1.029812963679432869e-03,4.834445565938949585e-02,-8.947694301605224609e-02,3.581262379884719849e-02,-3.316406160593032837e-02,-3.776783868670463562e-02,-2.901561371982097626e-02,2.492234483361244202e-02,7.405956834554672241e-02,-1.961116446182131767e-03,6.195959448814392090e-02,8.007494732737541199e-03,-7.025515288114547729e-02,-3.790001943707466125e-02,-4.445277154445648193e-02,5.269314348697662354e-02,1.742658019065856934e-02,-4.719795659184455872e-03,7.155897468328475952e-02,3.536255285143852234e-02,-5.999994277954101562e-02,-2.255001664161682129e-02,-1.094124168157577515e-01,4.452441632747650146e-02,2.326153218746185303e-03,-1.639585793018341064e-01,2.268736064434051514e-02,-5.940039828419685364e-02,3.837435692548751831e-02,4.488419741392135620e-02,-6.038877367973327637e-02,-8.765929937362670898e-02,7.679498195648193359e-02,5.710238963365554810e-02,2.076865546405315399e-02,1.743501052260398865e-02,-6.807397305965423584e-02,7.042646408081054688e-02,-2.364483475685119629e-02,1.473346650600433350e-01,-7.486920803785324097e-02,-6.173219904303550720e-02,3.038647212088108063e-02,-3.920580446720123291e-02,-1.835475303232669830e-02,-1.975824497640132904e-02,-7.273743301630020142e-02,-1.035486347973346710e-03,-9.202677756547927856e-02,-8.605650812387466431e-02,3.842644859105348587e-03,3.432938829064369202e-02,-5.886685103178024292e-02,4.411339759826660156e-02,-5.896065384149551392e-02,-1.268891151994466782e-02,5.607445538043975830e-02,-1.140271276235580444e-01,-5.436775088310241699e-02,-2.459265058860182762e-03,3.499451652169227600e-02,-3.591372072696685791e-02,-1.789857633411884308e-02,-3.924418985843658447e-02,7.142722606658935547e-02,-5.758979023084975779e-05,-5.811318010091781616e-02,-3.537618741393089294e-02,-4.379433766007423401e-02,5.859910976141691208e-03,-2.854989282786846161e-02,5.858805030584335327e-02,-6.430859118700027466e-02,-8.277815580368041992e-02,-4.299825988709926605e-03,-1.721256761811673641e-03,2.019915357232093811e-02,-3.225536644458770752e-02,5.464266985654830933e-02,-4.169118031859397888e-02,9.185957163572311401e-02,4.656518809497356415e-03,2.505756914615631104e-02,-6.339018046855926514e-02,-7.812955230474472046e-02,-7.327438890933990479e-02,5.986099317669868469e-02,4.894978925585746765e-02,6.408528238534927368e-02,-1.473912447690963745e-01,-2.279310114681720734e-02,3.607546386774629354e-04,5.248716566711664200e-03,-4.718244075775146484e-02,-5.137982219457626343e-02,1.585339568555355072e-02,-1.737601682543754578e-02,-1.567305251955986023e-02,-5.871321260929107666e-02,-4.093315079808235168e-02,8.124975115060806274e-02,-2.162826806306838989e-02,2.937218733131885529e-02,1.386769264936447144e-01,-6.298246979713439941e-02,1.073666960000991821e-01,1.559486333280801773e-02,-1.037740930914878845e-01,-1.285978127270936966e-02,-1.145062670111656189e-01,-1.908730342984199524e-02,9.988033026456832886e-02,5.410539451986551285e-03,-6.355921179056167603e-02,3.331172466278076172e-02,-8.118639886379241943e-02,8.546312153339385986e-02,5.886584892868995667e-02,-9.739000350236892700e-03,8.632022887468338013e-03,3.301532007753849030e-03,3.324135020375251770e-02,-1.429272443056106567e-01,1.018183156847953796e-01,6.588722020387649536e-02,6.810233741998672485e-02,-1.855153217911720276e-02,3.938156366348266602e-02,-1.442734617739915848e-02,1.714990101754665375e-02,2.146626263856887817e-02,9.331594407558441162e-02,2.706698887050151825e-02,5.741528049111366272e-02,1.367814186960458755e-02,-4.558571055531501770e-02,1.472981739789247513e-02,8.479440212249755859e-02,9.664882719516754150e-02,-1.590702123939990997e-02,-1.479921396821737289e-02,5.001641437411308289e-02,-7.848221063613891602e-02,4.689831286668777466e-02,7.815513014793395996e-02,-6.391228176653385162e-03,-7.039452437311410904e-03,1.925636678934097290e-01,5.365896970033645630e-02,4.370651021599769592e-02,-1.348734181374311447e-02,-4.800561070442199707e-02,3.883177787065505981e-02,2.211014367640018463e-02,9.466595947742462158e-03,-1.533694416284561157e-01,-3.120774181297747418e-06,-3.649134561419487000e-02,1.621401309967041016e-02,1.719583012163639069e-02,-3.084034100174903870e-02,4.834776744246482849e-02,-2.197600156068801880e-02,8.908767253160476685e-03,8.739806711673736572e-02,-5.453818663954734802e-02,-5.929460376501083374e-02,1.322279404848814011e-02,-5.363355390727519989e-03,-5.250745266675949097e-02,4.159168526530265808e-02,-7.900561206042766571e-03,9.945613890886306763e-02,1.209887191653251648e-01,5.485988408327102661e-02,4.330234602093696594e-02,-1.268916204571723938e-02,6.949395686388015747e-02,2.025056601269170642e-04,-4.462703689932823181e-02,8.505313657224178314e-03,-5.730237439274787903e-02,-8.699827641248703003e-02,-2.669738605618476868e-02,2.401677705347537994e-02,6.090231239795684814e-02,-8.710210211575031281e-03,-3.268557414412498474e-02,5.648493021726608276e-02,-6.023221835494041443e-02,-6.465586274862289429e-02,4.116560891270637512e-02,8.516460657119750977e-02,-6.178159639239311218e-02,4.756946489214897156e-02,-5.785101279616355896e-02,1.060346812009811401e-01,5.341042578220367432e-02,-3.652944788336753845e-02,-1.582734659314155579e-02,-1.739730872213840485e-02,-1.065159812569618225e-01,7.441039197146892548e-03,-1.051022484898567200e-02,-9.769997000694274902e-02,-3.099270537495613098e-02,-4.058932419866323471e-03,-1.797454990446567535e-02,-2.068470232188701630e-02,-1.804800517857074738e-02,-3.028879873454570770e-02,3.669615462422370911e-02,3.712702170014381409e-02,-1.334241684526205063e-02,4.772478342056274414e-02,3.396009281277656555e-02,1.986016705632209778e-02,4.305290803313255310e-02,-2.391822822391986847e-02,-6.890767067670822144e-02,9.907588362693786621e-03,1.679048873484134674e-02,-1.288809720426797867e-02,-2.427026629447937012e-02,-7.243380881845951080e-03,-7.423349469900131226e-02,5.562607571482658386e-02,-1.569375395774841309e-02,1.733192242681980133e-03,-2.967986650764942169e-02,-6.015753746032714844e-02,3.171220421791076660e-02,2.741762064397335052e-02,-7.473244518041610718e-02,5.631832778453826904e-02,-3.235612809658050537e-02,1.196805294603109360e-02,-2.084528803825378418e-01,1.085311640053987503e-02,-5.041725933551788330e-02,-4.850096884183585644e-04,-4.006565362215042114e-02,2.344999089837074280e-02,-8.579907566308975220e-02,-8.150541037321090698e-02,-1.091985590755939484e-02,7.741761859506368637e-03,9.790607145987451077e-05,-1.542217936366796494e-02,6.813185662031173706e-02,7.353200018405914307e-02,-1.124309841543436050e-02,4.103317484259605408e-02,-4.571270570158958435e-02,3.112808056175708771e-02,-5.083172395825386047e-02,-1.865601912140846252e-02,-6.708618253469467163e-02,-4.585594311356544495e-02,5.282688513398170471e-02,-5.721048638224601746e-02,-4.887392744421958923e-02,-3.966611810028553009e-03,-8.148074895143508911e-02,3.067319095134735107e-02,-6.467101047746837139e-04,-1.428664624691009521e-01,-9.133077226579189301e-03,-8.779773116111755371e-02,-1.436055079102516174e-02,9.438823163509368896e-02,5.728149320930242538e-03,-4.050248116254806519e-02,4.882098361849784851e-02,-2.225652337074279785e-02,-5.454228818416595459e-02,-8.248480409383773804e-02,6.195362284779548645e-02,1.898940093815326691e-02,-1.317244023084640503e-01,-4.701046273112297058e-02,-9.386176615953445435e-02,6.652359664440155029e-02,-1.491712927818298340e-01,1.206184774637222290e-01,6.526959687471389771e-02,3.880252689123153687e-02,8.370471186935901642e-03,-5.853702127933502197e-02,-4.171799123287200928e-02,-1.137954834848642349e-02,-6.760254967957735062e-03,2.014291286468505859e-02,4.155075922608375549e-02,7.736295461654663086e-02,-3.086658939719200134e-02,1.498239636421203613e-01,-5.948566645383834839e-02,8.751209825277328491e-03,7.250865548849105835e-02,9.259622544050216675e-03,-2.333367988467216492e-02,-1.910200924612581730e-03,2.808196097612380981e-02,1.877123257145285606e-03,-1.619255868718028069e-03,-9.748226031661033630e-03
5.078941211104393005e-02,-7.281797006726264954e-03,7.403927296400070190e-02,-3.248676657676696777e-03,5.258501693606376648e-02,-9.596144407987594604e-02,5.427317321300506592e-02,-9.317473322153091431e-02,1.741059706546366215e-03,8.061439543962478638e-02,-1.063174456357955933e-01,1.141705643385648727e-02,7.717009633779525757e-02,-9.768635034561157227e-02,-1.887184008955955505e-02,3.813957050442695618e-02,-5.212189257144927979e-02,3.529810160398483276e-02,-5.159523338079452515e-02,3.122060187160968781e-02,-1.421464383602142334e-01,-6.909020990133285522e-02,-6.015947437845170498e-04,-8.659361302852630615e-02,2.405701018869876862e-02,1.405737269669771194e-02,-9.075646847486495972e-02,4.204971715807914734e-02,-9.084220975637435913e-02,-9.612122178077697754e-02,-2.587798982858657837e-02,-1.291256099939346313e-01,-3.819661960005760193e-02,-1.628494076430797577e-02,-1.141643151640892029e-02,6.001447886228561401e-02,1.164220049977302551e-01,-2.631557639688253403e-03,-4.171370342373847961e-02,-2.353730611503124237e-02,8.520412445068359375e-02,5.350065603852272034e-02,-5.460662767291069031e-03,-5.368934944272041321e-02,-1.175684034824371338e-01,1.297358125448226929e-01,-7.279023528099060059e-02,-2.352398633956909180e-02,-5.257963761687278748e-02,4.098558798432350159e-02,8.465518057346343994e-02,8.002187311649322510e-02,-5.475503206253051758e-02,6.611641496419906616e-02,1.465163528919219971e-01,-5.370228737592697144e-02,4.943005368113517761e-02,1.232220903038978577e-01,2.213900722563266754e-02,6.912206858396530151e-02,-2.498226426541805267e-02,-6.138926837593317032e-03,2.764650806784629822e-02,-1.005258262157440186e-01,1.153130922466516495e-02,2.048136480152606964e-02,-6.663028895854949951e-02,-6.400647014379501343e-02,-3.655998781323432922e-02,-8.116750419139862061e-02,8.061829954385757446e-02,-1.032307073473930359e-01,-2.406334690749645233e-02,-7.589700818061828613e-02,-1.217619925737380981e-01,3.319369256496429443e-02,2.963542379438877106e-02,-4.801815375685691833e-02,1.657382771372795105e-02,1.297285556793212891e-01,-4.842804372310638428e-02,4.224053770303726196e-02,5.185212194919586182e-02,8.687806874513626099e-02,1.111476942896842957e-01,-9.820466861128807068e-03,3.749683126807212830e-02,9.724859893321990967e-02,-2.144268341362476349e-02,-4.028735309839248657e-02,1.340960897505283356e-02,5.330386757850646973e-02,5.497701093554496765e-02,-2.615182101726531982e-02,5.273823812603950500e-02,3.376449644565582275e-02,-6.691087502986192703e-03,4.965747147798538208e-02,-8.112051524221897125e-03,3.851214423775672913e-02,4.350040573626756668e-03,1.067904382944107056e-02,8.990237116813659668e-02,4.424219205975532532e-02,-9.203027002513408661e-03,4.920880123972892761e-02,-9.483991190791130066e-03,-4.192373598925769329e-04,-3.530231770128011703e-03,-9.376081824302673340e-02,-8.425780571997165680e-03,-4.034772515296936035e-02,-6.499326974153518677e-02,2.969743311405181885e-02,4.474495723843574524e-02,-1.343188583850860596e-01,-4.615906160324811935e-03,-8.178297430276870728e-02,-8.789035491645336151e-04,8.263352513313293457e-02,1.414553374052047729e-01,5.002456903457641602e-02,7.416540384292602539e-02,-4.399595782160758972e-02,-7.347625680267810822e-03,3.178094699978828430e-02,-3.038426488637924194e-02,9.308721870183944702e-02,-4.629347473382949829e-02,-5.048497021198272705e-02,5.227297917008399963e-02,4.688796401023864746e-02,8.759714663028717041e-02,3.774102777242660522e-02,9.158135950565338135e-02,-1.103920042514801025e-01,-5.355945602059364319e-02,-1.412322092801332474e-02,8.109974861145019531e-02,-4.969633743166923523e-02,-3.883933275938034058e-02,-5.016783624887466431e-02,1.543106697499752045e-02,-5.875377729535102844e-02,-1.403536945581436157e-01,5.277714133262634277e-02,-3.656202554702758789e-02,-8.036624640226364136e-02,-9.244693070650100708e-02,2.591612562537193298e-02,-3.735122084617614746e-02,-6.416258960962295532e-02,2.531620115041732788e-02,4.808467626571655273e-02,-6.459536403417587280e-02,1.138062030076980591e-02,-2.981350384652614594e-02,-8.236648887395858765e-02,-1.600748510099947453e-03,8.932990953326225281e-03,-2.736243233084678650e-02,-6.073952093720436096e-02,8.067786693572998047e-02,-5.774601548910140991e-02,3.368175029754638672e-02,-7.249923050403594971e-02,-5.264478269964456558e-03,1.332447119057178497e-02,-3.953115642070770264e-02,-7.051188498735427856e-02,-5.191173031926155090e-02,-1.271248757839202881e-01,-4.336505010724067688e-02,-3.643052652478218079e-02,2.496860548853874207e-02,2.195916324853897095e-02,1.051997244358062744e-01,-4.797900840640068054e-02,-5.687362700700759888e-02,-4.069710150361061096e-02,5.202922970056533813e-03,-1.436485797166824341e-01,8.815717697143554688e-02,-4.448063671588897705e-02,-8.233418315649032593e-02,-8.824829757213592529e-02,-2.295229816809296608e-03,-3.502250835299491882e-02,8.645494282245635986e-02,-8.701770752668380737e-02,2.341688843443989754e-03,2.546762488782405853e-02,4.212607815861701965e-02,-1.073665544390678406e-02,-5.015674605965614319e-02,1.856789551675319672e-02,5.543710663914680481e-02,-1.141632813960313797e-02,1.437623705714941025e-02,3.549512848258018494e-02,7.566359639167785645e-02,-1.143584251403808594e-01,-8.808025717735290527e-02,9.962452948093414307e-02,-9.827222675085067749e-02,1.215569674968719482e-02,-5.346560105681419373e-02,-1.534848241135478020e-03,4.297027364373207092e-02,5.569181218743324280e-02,3.766285628080368042e-02,-3.234885260462760925e-02,1.126480326056480408e-01,-2.518971450626850128e-03,1.256480216979980469e-01,1.330350618809461594e-02,9.842186421155929565e-02,4.879194125533103943e-02,-6.803932040929794312e-02,6.601432710886001587e-02,4.680040478706359863e-02,4.479779675602912903e-02,2.865941077470779419e-02,1.175146363675594330e-02,-5.674254894256591797e-02,-3.579360619187355042e-02,7.380661368370056152e-02,3.665655851364135742e-02,1.003709509968757629e-01,2.898081392049789429e-02,-4.935197159647941589e-02,-4.645531252026557922e-02,-3.845611587166786194e-02,-4.961333423852920532e-02,-5.563542246818542480e-02,5.212434753775596619e-02,-7.329088449478149414e-02,1.086191553622484207e-02,1.636134982109069824e-01,1.074029281735420227e-01,-1.165910363197326660e-01,-1.401982158422470093e-01,7.664204388856887817e-02,-1.425008475780487061e-01,2.357716485857963562e-02,2.717621251940727234e-02,-2.111460641026496887e-02,3.285380452871322632e-02,-1.341836992651224136e-02,5.930946674197912216e-03,-7.507701963186264038e-02,1.259483844041824341e-01,7.942915707826614380e-02,-5.062711238861083984e-02,3.781161084771156311e-02,1.393837332725524902e-01,-3.009173274040222168e-02,1.825493387877941132e-02,-4.592119902372360229e-02,7.082658261060714722e-02,-6.331875920295715332e-02,-1.158533096313476562e-01,2.924089878797531128e-02,-1.207244396209716797e-01,-4.605548456311225891e-02,1.084614694118499756e-01,-1.446970738470554352e-02,1.111950073391199112e-02,-1.988749578595161438e-02,-8.528862148523330688e-02,9.630888700485229492e-02,1.536404713988304138e-02,8.725105971097946167e-02,3.860048577189445496e-02,-2.814555540680885315e-02,3.936961665749549866e-02,-2.141268691048026085e-03,-2.097720839083194733e-02,6.714839488267898560e-02,-1.078953966498374939e-01,1.886081509292125702e-02,4.619099199771881104e-02,-1.038608700037002563e-01,6.639477610588073730e-02,4.561101272702217102e-02,-2.876752056181430817e-02,5.198366567492485046e-02,2.940617501735687256e-02,-2.616413123905658722e-02,-1.435617730021476746e-02,5.694673210382461548e-02,-1.608069287613034248e-03,-1.805959851481020451e-03,9.318392723798751831e-03,1.827478595077991486e-02,-5.896243825554847717e-02,3.162178769707679749e-02,3.632541745901107788e-02,1.033800169825553894e-01,-1.640141457319259644e-01,-8.539668470621109009e-02,-8.407197147607803345e-02,-2.744444273412227631e-02,-3.307079151272773743e-02,-1.131053417921066284e-01,-3.018045239150524139e-02,2.724905312061309814e-02,-1.320152822881937027e-02,-2.494505792856216431e-02,6.926022469997406006e-02,1.193567644804716110e-02,-5.075729265809059143e-02,-1.156750321388244629e-02,-8.101478964090347290e-02,9.232445620000362396e-03,-5.264567211270332336e-02,-2.068839035928249359e-02,2.523379027843475342e-02,-1.101390048861503601e-01,-2.127348631620407104e-02,4.249862581491470337e-02,2.550113573670387268e-02,4.816509410738945007e-02,1.257224474102258682e-02,3.479721397161483765e-02,2.184344828128814697e-02,-9.373980574309825897e-03,-9.222130291163921356e-03,-7.440385967493057251e-02,1.150790508836507797e-02,3.545424342155456543e-02,-3.669279068708419800e-02,-3.646420687437057495e-02,2.170961163938045502e-02,3.763003647327423096e-02,-4.944970365613698959e-03,-7.242525462061166763e-03,-3.565735369920730591e-02,-7.981166988611221313e-02,-2.262207418680191040e-01,-5.906109884381294250e-02,1.737775653600692749e-02,-4.845181852579116821e-02,4.839965328574180603e-02,3.946803137660026550e-02,1.163935884833335876e-01,2.142397314310073853e-02,1.555349910631775856e-03,-6.488358601927757263e-03,4.812528192996978760e-02,1.003324519842863083e-02,-8.182740956544876099e-02,5.646868050098419189e-02,-1.232663318514823914e-01,-2.313969098031520844e-02,-1.574900932610034943e-02,-7.169998437166213989e-02,3.446639701724052429e-02,-4.244484007358551025e-02,-6.517301080748438835e-04,5.231854971498250961e-03,1.227130531333386898e-03,5.966084077954292297e-02,5.203261971473693848e-03,-3.263686224818229675e-02,6.114700809121131897e-02,-3.171217441558837891e-02,1.048093140125274658e-01,4.034214094281196594e-02,-9.862336516380310059e-02,4.256281629204750061e-02,-4.286043345928192139e-02,-1.928489655256271362e-02,7.171122729778289795e-02,-3.702384606003761292e-02,2.561754174530506134e-02,-9.269994497299194336e-02,-6.419450044631958008e-02,6.795525550842285156e-02,-6.386473029851913452e-02,1.034830138087272644e-02,-5.762026458978652954e-02,-1.316436380147933960e-01,8.390092849731445312e-02,2.087824279442429543e-03,9.044749313034117222e-04,-2.700711414217948914e-02,-5.008791387081146240e-02,-1.381464861333370209e-02,7.581670582294464111e-02,8.643602579832077026e-02,-6.581838242709636688e-03,8.330533653497695923e-02,4.819887876510620117e-02,-5.361809954047203064e-02,-2.694090944714844227e-04,1.394019834697246552e-02,5.498794838786125183e-02,2.124896645545959473e-02,-4.096490330994129181e-03,5.359465628862380981e-02,3.006329759955406189e-02,-6.428689509630203247e-02,1.861909031867980957e-02,3.374070674180984497e-02,7.188761234283447266e-02,5.291692167520523071e-02,-2.523433975875377655e-02,-4.559848085045814514e-02,-7.972294837236404419e-02,-8.014610409736633301e-02,-8.602230250835418701e-02,-4.438863322138786316e-02,-4.286652430891990662e-02,-4.345562309026718140e-02,1.289886422455310822e-02,4.003777727484703064e-02,2.159734070301055908e-02,-1.035529747605323792e-01,8.977815508842468262e-02,-5.551062524318695068e-02,4.092694818973541260e-02,4.559317603707313538e-02,-7.854269444942474365e-02,6.516030523926019669e-03,-6.612921506166458130e-02,-4.432140290737152100e-02,-2.198087051510810852e-03,5.250858142971992493e-03,1.530834659934043884e-02,2.720433659851551056e-02,7.230729330331087112e-03,-6.961870193481445312e-02,4.521698504686355591e-02,-6.344792991876602173e-02,-5.476858001202344894e-03,4.078567773103713989e-02,5.035860463976860046e-02,-4.775000736117362976e-02,-1.183015778660774231e-01,6.523201614618301392e-02,3.750097379088401794e-02,1.151967868208885193e-01,2.545400522649288177e-02,4.147675354033708572e-03,7.965037226676940918e-02,-4.770679771900177002e-02,6.517013162374496460e-02,1.115354299545288086e-01,1.019170042127370834e-02,-2.951687201857566833e-02,1.862968131899833679e-02,-5.082768946886062622e-02,-4.639961197972297668e-02,-3.637095168232917786e-02,-5.760829895734786987e-02,-1.578771024942398071e-01,2.776708919554948807e-03,2.335892803966999054e-02,1.727728731930255890e-02,7.748042792081832886e-02,4.503762722015380859e-02,-5.486438050866127014e-02,-1.716216653585433960e-02,6.581836938858032227e-02,4.972279816865921021e-02,3.807393833994865417e-02,-3.965971991419792175e-02,1.016806960105895996e-01,-5.045258998870849609e-02,-1.752301752567291260e-01,7.132919877767562866e-02,5.518673360347747803e-02,1.180934719741344452e-02,1.448675543069839478e-01,-3.638129681348800659e-02,-4.139314591884613037e-02,-7.314183749258518219e-03,2.947333734482526779e-03,6.617376208305358887e-02,5.834879726171493530e-02,1.626088023185729980e-01,3.124377317726612091e-02,-2.458398230373859406e-02,-8.486172184348106384e-03,-7.022150605916976929e-02,-1.433386467397212982e-02,3.047123365104198456e-02,1.558444648981094360e-02,1.845554262399673462e-02,5.335223302245140076e-02,-5.774402245879173279e-02,-1.399225890636444092e-01,8.626080304384231567e-02,-4.358933866024017334e-02,-1.201393362134695053e-02,-3.644943982362747192e-02,6.320863962173461914e-02,1.163255050778388977e-01,-3.826696798205375671e-02,5.617393925786018372e-02,1.926501095294952393e-02,3.942324593663215637e-02,2.188207954168319702e-02,3.835114836692810059e-02,1.167455762624740601e-01,3.553771972656250000e-02,-7.607339322566986084e-02,-1.412075199186801910e-02,-1.012149304151535034e-01,8.290974795818328857e-02,2.122995257377624512e-02
6.258720159530639648e-02,1.319196727126836777e-02,8.404444903135299683e-02,2.133940532803535461e-02,-1.684910617768764496e-02,3.086964599788188934e-02,9.645814448595046997e-02,7.136232405900955200e-02,-4.439291357994079590e-02,-3.295534104108810425e-02,-1.532509084790945053e-02,-5.922218784689903259e-02,-6.762714684009552002e-02,5.211810022592544556e-02,1.111647561192512512e-01,3.271151706576347351e-02,2.592127397656440735e-02,-1.609705947339534760e-02,2.398219704627990723e-02,-4.359848424792289734e-02,1.038902401924133301e-01,4.708229750394821167e-02,-5.061253905296325684e-02,6.119263172149658203e-02,6.405698135495185852e-03,7.696902751922607422e-02,-1.124578490853309631e-01,2.599888294935226440e-02,-4.259494319558143616e-02,1.328098773956298828e-01,1.322061987593770027e-03,2.512561343610286713e-02,-5.165836587548255920e-02,1.114125829190015793e-02,2.973994426429271698e-02,-2.939063124358654022e-02,-1.411413401365280151e-01,1.130326837301254272e-02,-2.088147774338722229e-02,4.917977377772331238e-02,-1.062942743301391602e-01,3.978492692112922668e-02,-3.972371295094490051e-02,-5.305306520313024521e-03,-1.467054337263107300e-01,-1.782044321298599243e-01,-6.638090312480926514e-02,-1.168080940842628479e-01,1.047732606530189514e-01,1.984221488237380981e-02,-3.090718388557434082e-02,1.797915063798427582e-02,1.088733524084091187e-01,5.864569917321205139e-02,2.330388315021991730e-02,-4.837520793080329895e-02,1.217933148145675659e-01,1.751254312694072723e-02,1.410276349633932114e-02,6.672228872776031494e-02,7.205901667475700378e-03,7.599153369665145874e-02,3.464523702859878540e-02,1.965126208961009979e-02,-1.736576668918132782e-02,2.481241896748542786e-02,2.570868283510208130e-02,1.739791408181190491e-02,4.602272436022758484e-02,1.859973557293415070e-02,6.774156354367733002e-03,3.834821283817291260e-03,-5.376285314559936523e-02,-1.365281939506530762e-01,-2.267126180231571198e-02,6.832791958004236221e-03,-1.027556434273719788e-01,2.557458169758319855e-02,1.130427718162536621e-01,-3.545019403100013733e-02,8.556518703699111938e-03,1.518928539007902145e-02,3.216189891099929810e-02,-1.642917282879352570e-02,-9.298322349786758423e-02,2.348907664418220520e-02,-6.588353216648101807e-02,9.097836911678314209e-02,1.485683396458625793e-02,-9.093164652585983276e-02,-5.561072845011949539e-03,7.507047802209854126e-02,5.761523544788360596e-02,8.322729729115962982e-03,-6.005243398249149323e-03,-4.219005629420280457e-02,4.312805831432342529e-02,3.995447233319282532e-02,-3.012474007846321911e-05,-5.843533575534820557e-02,9.438675642013549805e-02,1.790096610784530640e-02,6.430379301309585571e-02,2.257808670401573181e-02,8.926047384738922119e-02,-5.677933245897293091e-02,-3.232777863740921021e-02,4.184776917099952698e-02,-4.327486827969551086e-02,-6.849752273410558701e-03,4.960202798247337341e-02,-4.325462505221366882e-02,8.094056695699691772e-02,4.154000431299209595e-02,-4.805888049304485321e-03,1.009821519255638123e-01,3.049355000257492065e-02,-7.186328619718551636e-02,1.078328266739845276e-01,-7.172378897666931152e-02,1.959648542106151581e-02,-8.207121863961219788e-03,-6.630951911211013794e-02,9.055441617965698242e-02,-5.863168835639953613e-02,-7.615053653717041016e-02,-5.564802885055541992e-02,-3.286997228860855103e-02,1.096175760030746460e-01,-5.818470381200313568e-03,1.654179766774177551e-02,5.447777733206748962e-02,1.276202052831649780e-01,4.891467094421386719e-02,-7.194803655147552490e-02,7.373091578483581543e-02,1.790325716137886047e-02,5.016381666064262390e-02,5.961737036705017090e-02,-2.992321737110614777e-02,-8.378776162862777710e-02,-1.843397691845893860e-02,-6.730641238391399384e-03,-2.444667927920818329e-02,1.888511236757040024e-03,1.014178693294525146e-01,3.011477366089820862e-02,-5.879830196499824524e-02,-2.525678463280200958e-02,-3.683453798294067383e-02,-2.525291219353675842e-02,-1.827258383855223656e-03,-2.898914366960525513e-02,1.032499689608812332e-02,7.321515679359436035e-02,1.615368761122226715e-02,5.412171781063079834e-02,-2.837205305695533752e-02,-4.601049795746803284e-02,-9.326345287263393402e-03,-4.905881360173225403e-02,1.487621963024139404e-01,1.126532629132270813e-01,1.841519214212894440e-02,6.191118061542510986e-02,6.888228654861450195e-02,-3.075559064745903015e-02,7.351896166801452637e-02,-6.053134333342313766e-03,2.085414715111255646e-02,-4.042990133166313171e-02,-5.012682452797889709e-02,-1.665195263922214508e-02,1.524294167757034302e-02,-2.993207611143589020e-02,-7.844293117523193359e-02,9.386979043483734131e-03,5.284322425723075867e-02,-4.461428523063659668e-02,3.961772471666336060e-02,4.714215639978647232e-03,-3.453347459435462952e-02,-6.105977669358253479e-02,-6.228933855891227722e-02,3.890209272503852844e-02,-5.990771949291229248e-02,-1.132182963192462921e-02,1.199212968349456787e-01,-5.171891301870346069e-03,-4.236358031630516052e-02,7.570675015449523926e-02,-1.323864702135324478e-02,1.842693611979484558e-02,-8.698621392250061035e-02,4.976713098585605621e-03,1.690817028284072876e-01,4.535515978932380676e-02,-4.450696334242820740e-02,1.706670969724655151e-02,6.762348860502243042e-02,4.335261136293411255e-02,1.091525051742792130e-02,-4.496559500694274902e-02,-5.365508142858743668e-03,7.449438422918319702e-02,-4.219120834022760391e-03,9.206324815750122070e-02,-7.676023989915847778e-02,-1.077177003026008606e-01,-3.857046365737915039e-02,7.824991643428802490e-02,2.158978208899497986e-02,-2.761093433946371078e-03,1.066915341652929783e-03,-4.787555336952209473e-02,-6.104527041316032410e-02,-2.698019705712795258e-02,1.575926202349364758e-03,5.100055783987045288e-02,1.522196270525455475e-02,-3.029509261250495911e-02,4.534943029284477234e-02,-2.208778262138366699e-02,-2.885180152952671051e-02,9.614175185561180115e-03,-1.246697828173637390e-02,-1.583412662148475647e-02,6.491361651569604874e-03,-1.508561670780181885e-01,-2.720333263278007507e-02,-5.418414995074272156e-02,2.542115747928619385e-02,6.634140759706497192e-02,3.359904140233993530e-02,-1.262312009930610657e-02,6.115857139229774475e-02,-2.680523134768009186e-02,2.975976280868053436e-02,1.456006150692701340e-02,-1.757223531603813171e-02,-2.083518309518694878e-03,4.446971043944358826e-02,1.864467374980449677e-02,-3.561344370245933533e-02,-5.146310850977897644e-02,-8.304924517869949341e-02,-4.326471686363220215e-02,2.037299424409866333e-02,-7.143042981624603271e-02,1.257621590048074722e-02,1.128175295889377594e-02,-6.588191539049148560e-02,2.887933328747749329e-02,-1.996902748942375183e-02,-3.471525013446807861e-02,3.938150778412818909e-02,-1.915579289197921753e-02,-1.100908443331718445e-01,1.389561444520950317e-01,1.823298982344567776e-03,-6.955580902285873890e-04,-5.172235891222953796e-02,2.233217284083366394e-02,-1.302168369293212891e-01,-5.239992588758468628e-02,4.663987830281257629e-02,-2.805516822263598442e-03,3.090279351454228163e-04,1.342860162258148193e-01,-6.048736348748207092e-02,5.258460529148578644e-03,-5.043897777795791626e-03,-5.462183058261871338e-02,2.377011813223361969e-02,-2.409662492573261261e-02,1.497682300396263599e-03,4.771040380001068115e-02,4.397875443100929260e-02,-2.637525030877441168e-04,-2.574530802667140961e-02,6.063544005155563354e-02,-8.826617896556854248e-02,-3.699865192174911499e-02,-2.388041280210018158e-02,-6.305557489395141602e-02,2.869196236133575439e-02,-2.491559647023677826e-02,2.853808179497718811e-02,-1.034679729491472244e-02,-6.263645738363265991e-02,7.256606966257095337e-02,2.009229362010955811e-02,-8.936101943254470825e-02,1.069377884268760681e-01,3.104800917208194733e-02,-2.776758931577205658e-02,2.510194899514317513e-03,-4.375934600830078125e-02,-7.397330552339553833e-02,7.561579812318086624e-03,-1.062142848968505859e-01,7.844311743974685669e-02,1.417203340679407120e-02,-4.124758392572402954e-02,7.511688768863677979e-02,-8.620617911219596863e-03,6.178402528166770935e-02,3.883298020809888840e-03,4.169090092182159424e-02,3.658222034573554993e-02,5.891148000955581665e-03,6.685978919267654419e-02,6.503392010927200317e-02,-2.474781498312950134e-02,-4.760238155722618103e-02,6.196766719222068787e-02,9.033519774675369263e-02,4.200853407382965088e-02,-1.089120134711265564e-01,6.200087256729602814e-03,-1.786398515105247498e-02,6.550722569227218628e-02,-9.035485237836837769e-02,-4.358920082449913025e-02,-1.221053674817085266e-02,9.371043182909488678e-03,-4.178159404546022415e-03,4.320174455642700195e-02,3.647467866539955139e-02,-2.940348163247108459e-02,1.408770978450775146e-01,-9.974464774131774902e-03,-3.922783583402633667e-02,1.420757472515106201e-01,8.324444293975830078e-02,4.423541575670242310e-02,-3.059281222522258759e-02,1.421414781361818314e-02,3.372952714562416077e-02,3.379752486944198608e-02,-4.370747879147529602e-02,5.846156738698482513e-03,-1.366376876831054688e-01,-1.336059812456369400e-02,1.657695695757865906e-02,2.462630346417427063e-02,7.879608869552612305e-02,1.363927125930786133e-01,4.629924148321151733e-02,3.075705096125602722e-02,5.402690730988979340e-03,2.678067050874233246e-02,-4.516352340579032898e-02,3.115843608975410461e-02,7.063343375921249390e-02,5.546805262565612793e-02,5.672755464911460876e-02,7.816550135612487793e-02,1.544820982962846756e-02,-1.080471556633710861e-02,1.582813560962677002e-01,5.759342759847640991e-02,9.247504919767379761e-02,3.548720106482505798e-02,6.100615486502647400e-02,-7.535324990749359131e-02,5.776210501790046692e-02,-1.300918161869049072e-01,1.831270009279251099e-02,-1.821975409984588623e-02,1.931975223124027252e-02,-5.950492992997169495e-02,-3.702478483319282532e-02,-3.112728521227836609e-02,-8.073461800813674927e-02,4.099462926387786865e-02,2.522136829793453217e-02,-3.737873211503028870e-02,-7.862607389688491821e-02,7.597514986991882324e-02,-2.275035018101334572e-03,-8.151150308549404144e-03,2.953966520726680756e-02,6.405120342969894409e-02,-3.884620219469070435e-02,-1.692448556423187256e-01,9.287215024232864380e-02,-4.920522496104240417e-02,1.508726272732019424e-02,3.652638942003250122e-02,8.208244293928146362e-02,3.358986461535096169e-03,6.137422472238540649e-02,-3.131442144513130188e-02,-4.447827581316232681e-03,-2.107796724885702133e-03,5.777742341160774231e-02,-5.830556154251098633e-02,3.522640466690063477e-02,1.605690270662307739e-02,-7.438259571790695190e-02,6.833277642726898193e-02,-3.851055726408958435e-02,1.087944302707910538e-02,4.220753535628318787e-02,-8.309874683618545532e-02,-7.884110510349273682e-02,1.100947111845016479e-01,-2.959541603922843933e-02,2.700719982385635376e-02,-4.077573120594024658e-02,2.767985686659812927e-03,-8.640877157449722290e-02,5.569751188158988953e-02,-3.856875235214829445e-03,2.457466721534729004e-02,6.952758133411407471e-02,8.865518122911453247e-02,-1.799226365983486176e-02,-5.344385653734207153e-02,1.088413037359714508e-02,8.179339766502380371e-02,-7.020515203475952148e-02,-5.584328994154930115e-02,-5.904960632324218750e-02,4.115922376513481140e-02,7.408363372087478638e-02,-3.635160624980926514e-02,9.330167621374130249e-02,2.062751352787017822e-02,9.742912650108337402e-02,-1.101523265242576599e-01,-4.866504669189453125e-02,6.148331984877586365e-02,2.171695977449417114e-02,7.702074199914932251e-02,3.899812698364257812e-02,4.553749039769172668e-02,-5.627279728651046753e-02,1.098438426852226257e-01,-6.791098415851593018e-02,-1.293465793132781982e-01,3.921221196651458740e-02,-1.037336811423301697e-01,-3.173265606164932251e-03,-7.392814382910728455e-03,3.107262402772903442e-02,-7.929771393537521362e-02,-1.663225889205932617e-01,-6.782057881355285645e-02,1.568249054253101349e-02,5.993036087602376938e-03,-2.427074313163757324e-02,1.608597859740257263e-02,-2.747344411909580231e-02,1.775422133505344391e-02,-3.643277287483215332e-02,-1.087159439921379089e-01,7.994101196527481079e-02,-1.667260564863681793e-02,-1.417287718504667282e-02,4.240513313561677933e-03,1.414602622389793396e-02,8.692649193108081818e-03,1.275214832276105881e-02,-6.180124357342720032e-02,5.469638854265213013e-02,-3.719341382384300232e-02,2.814131788909435272e-02,5.048705730587244034e-03,1.916646398603916168e-02,-1.012819260358810425e-01,-6.672123074531555176e-02,4.955384135246276855e-02,-1.424579881131649017e-02,-2.840184047818183899e-02,-4.713095352053642273e-02,1.030288413166999817e-01,-8.113818615674972534e-02,5.240551009774208069e-02,6.944158673286437988e-02,7.331421226263046265e-02,6.226959172636270523e-03,-3.754779463633894920e-03,-1.047882959246635437e-01,2.023817598819732666e-02,6.544793490320444107e-03,-5.826402828097343445e-02,-8.918024599552154541e-02,-6.731852889060974121e-02,-4.831358790397644043e-02,-6.599606573581695557e-02,-2.059932798147201538e-02,-2.912036702036857605e-02,-2.211074903607368469e-02,3.644276037812232971e-02,-8.425527065992355347e-02,-3.514550253748893738e-02,1.086743175983428955e-01,2.226157858967781067e-02,-1.394399702548980713e-01,-1.619104854762554169e-02,8.858392387628555298e-02,-7.201336324214935303e-02,-6.699695438146591187e-02,-4.290486499667167664e-02,-3.997057303786277771e-02,1.229881346225738525e-01,-8.733653277158737183e-02,-1.366818696260452271e-02,-1.204892620444297791e-01,-1.366889383643865585e-02
1.347550004720687866e-01,3.711831197142601013e-02,-3.898653760552406311e-02,1.273122280836105347e-01,1.131576392799615860e-02,2.178974822163581848e-02,1.491317711770534515e-02,-3.300299122929573059e-02,4.489059373736381531e-02,3.983476758003234863e-02,2.431265451014041901e-02,1.910982839763164520e-02,-7.367216795682907104e-02,4.041975364089012146e-02,-9.803250432014465332e-02,-9.869812987744808197e-03,3.542634099721908569e-02,-1.443297415971755981e-01,-9.419614821672439575e-02,8.259302377700805664e-02,-3.051880933344364166e-02,4.733503330498933792e-03,-1.341084949672222137e-02,1.133927553892135620e-01,-2.348649501800537109e-02,-3.983857110142707825e-02,-5.233421549201011658e-02,-3.918102942407131195e-03,-4.068259894847869873e-02,-4.270840808749198914e-02,6.200087815523147583e-02,3.677406907081604004e-02,3.967907279729843140e-02,7.112705707550048828e-02,5.615811049938201904e-02,-1.832534372806549072e-02,1.902845501899719238e-02,5.112627148628234863e-02,3.669649735093116760e-02,-5.084873642772436142e-03,2.195933647453784943e-02,3.927790001034736633e-02,-1.165902707725763321e-03,1.030780840665102005e-02,5.057679116725921631e-02,1.985798403620719910e-02,-7.944794744253158569e-02,-4.357305541634559631e-02,-6.179169192910194397e-02,-6.834497209638357162e-03,-3.035136312246322632e-02,5.002512410283088684e-02,9.024005383253097534e-03,8.525564521551132202e-02,-2.701186388731002808e-02,-2.822624891996383667e-02,6.406479328870773315e-02,-4.129821434617042542e-02,-1.551633700728416443e-02,-2.627516537904739380e-02,2.886612154543399811e-02,1.245109742740169168e-04,-1.291857212781906128e-01,-1.245036572217941284e-01,-1.945352926850318909e-02,5.664001777768135071e-02,-2.507242187857627869e-02,-3.096937201917171478e-02,2.786801941692829132e-02,6.299583613872528076e-02,-1.912754960358142853e-02,4.634465649724006653e-02,-6.993041187524795532e-02,7.744255475699901581e-03,-1.064312923699617386e-02,-3.898660093545913696e-02,7.925440557301044464e-03,8.092617616057395935e-03,7.802289724349975586e-02,3.751076385378837585e-02,-3.145661577582359314e-02,1.342871934175491333e-01,1.134309470653533936e-01,1.969270780682563782e-02,3.152628894895315170e-03,-5.918794125318527222e-02,5.785789340734481812e-02,6.342767179012298584e-02,-2.302303910255432129e-02,-4.052304476499557495e-02,-6.024924665689468384e-02,-1.775986514985561371e-02,4.596699401736259460e-02,3.678565472364425659e-02,6.968730129301548004e-03,-3.906686231493949890e-02,-2.596359513700008392e-02,1.908937096595764160e-02,6.027964130043983459e-02,-7.798846065998077393e-02,7.078427076339721680e-02,-5.123244598507881165e-02,-5.052154418081045151e-03,2.661357820034027100e-02,1.942610926926136017e-02,4.334605485200881958e-02,7.856811396777629852e-03,-5.262926220893859863e-03,4.494756832718849182e-02,-1.242080982774496078e-02,-4.333548620343208313e-02,-4.342254996299743652e-02,3.842654079198837280e-02,1.979277282953262329e-02,-1.211597099900245667e-01,-9.234385937452316284e-02,-8.021284826099872589e-03,-2.930272929370403290e-02,2.621188573539257050e-02,-9.395064786076545715e-03,4.598360136151313782e-02,-9.692484885454177856e-02,2.644289657473564148e-02,7.699840515851974487e-02,-3.767719119787216187e-02,-9.508921951055526733e-02,4.703384637832641602e-02,-5.022672936320304871e-02,-1.369514912366867065e-01,3.316652774810791016e-02,-2.594967000186443329e-02,-5.643200129270553589e-02,-3.221058286726474762e-04,-7.745210826396942139e-02,-8.907899260520935059e-02,-9.299150109291076660e-02,2.413220470771193504e-03,-9.325703233480453491e-02,9.226989746093750000e-02,-2.565881237387657166e-02,8.528625220060348511e-02,1.349437516182661057e-02,-5.513316020369529724e-02,7.818803936243057251e-02,2.365429652854800224e-03,-1.729612983763217926e-02,2.625020919367671013e-03,8.990986645221710205e-02,6.353446096181869507e-02,-8.398723602294921875e-02,3.089173883199691772e-02,-1.516263559460639954e-02,9.227292612195014954e-03,-1.800004951655864716e-02,8.973886817693710327e-02,-6.809602491557598114e-03,-1.495429035276174545e-02,-5.536058917641639709e-02,5.402303859591484070e-02,2.263598144054412842e-02,-1.643531024456024170e-02,-5.941540375351905823e-02,6.200143322348594666e-02,-4.033723846077919006e-02,3.243680112063884735e-04,8.747873827815055847e-03,-9.657395072281360626e-03,6.170421373099088669e-03,-2.718908153474330902e-02,3.346902318298816681e-03,-7.399751245975494385e-02,-6.864430010318756104e-02,2.020071074366569519e-02,1.477228850126266479e-01,1.196252778172492981e-01,7.867259532213211060e-02,-6.203708425164222717e-02,5.820298567414283752e-02,4.270564019680023193e-02,2.824844792485237122e-02,-5.098246410489082336e-02,-1.323639601469039917e-01,-6.924067437648773193e-02,1.829833164811134338e-02,-4.965475294739007950e-03,1.848006062209606171e-02,1.470781117677688599e-02,-4.333319142460823059e-02,-3.956406936049461365e-02,1.082560569047927856e-01,-3.871463239192962646e-02,-5.998121947050094604e-02,-5.313414335250854492e-02,9.490840137004852295e-02,9.533709846436977386e-03,1.205179933458566666e-02,3.169940039515495300e-02,-6.064996868371963501e-02,7.932515442371368408e-02,-2.764268964529037476e-02,5.389285460114479065e-02,9.584213793277740479e-02,-1.026032790541648865e-01,-4.804261494427919388e-03,-9.888617694377899170e-02,-1.596306264400482178e-02,6.113402172923088074e-02,9.103690832853317261e-02,8.686183718964457512e-04,-1.249344423413276672e-01,1.006059232167899609e-03,1.923321746289730072e-02,2.214256115257740021e-02,1.859233528375625610e-02,-3.020174987614154816e-02,-1.043923757970333099e-02,7.961870171129703522e-03,-4.731585457921028137e-02,-6.529249250888824463e-02,-1.636704988777637482e-02,-3.604135289788246155e-02,-5.638904869556427002e-02,3.000521659851074219e-02,1.489766780287027359e-02,-1.978357322514057159e-02,1.669762283563613892e-02,-1.256280243396759033e-01,-5.447256192564964294e-02,4.589249193668365479e-02,2.727461606264114380e-02,4.738339781761169434e-02,8.832027763128280640e-02,-3.407979011535644531e-02,-2.190846204757690430e-02,-9.753361344337463379e-02,-8.537995070219039917e-02,2.276869677007198334e-02,2.662198850885033607e-03,-3.290012478828430176e-02,-6.954050809144973755e-02,2.480181679129600525e-02,-5.243636295199394226e-02,4.947396740317344666e-02,-1.121443063020706177e-01,7.670233398675918579e-02,-2.776819467544555664e-02,-8.988355845212936401e-02,1.039989758282899857e-02,-8.765540085732936859e-03,1.289971917867660522e-01,-8.012080937623977661e-02,1.507615149021148682e-01,1.702389679849147797e-02,3.640431910753250122e-03,1.195036061108112335e-02,-4.062237963080406189e-02,1.816189661622047424e-02,-5.148595198988914490e-02,-4.446950182318687439e-02,1.096354052424430847e-02,-5.511674657464027405e-02,4.625406116247177124e-02,2.516468986868858337e-02,1.540467143058776855e-01,3.837590292096138000e-02,-9.407203644514083862e-02,9.305047988891601562e-02,-7.617101818323135376e-02,3.162844106554985046e-02,9.664200246334075928e-02,-1.724313572049140930e-02,-5.679417401552200317e-03,2.536689629778265953e-03,-6.423459947109222412e-02,1.136594936251640320e-01,6.719440221786499023e-02,4.839237779378890991e-03,1.362000033259391785e-02,-5.371706932783126831e-02,2.112900093197822571e-02,-5.054598301649093628e-02,-2.533985674381256104e-02,-3.989995270967483521e-02,3.008339367806911469e-02,-4.842009022831916809e-02,1.123656239360570908e-02,-1.730760931968688965e-02,-1.494400668889284134e-02,1.092407777905464172e-01,6.560153514146804810e-02,4.085224494338035583e-02,1.695465743541717529e-01,3.208203986287117004e-02,3.533158451318740845e-02,-3.853688389062881470e-02,5.229917913675308228e-02,-8.627508580684661865e-02,-1.190590858459472656e-01,-1.531263347715139389e-02,4.735028371214866638e-02,-7.953697443008422852e-02,1.431577056646347046e-01,-4.294644668698310852e-02,-1.136083304882049561e-01,-1.767332106828689575e-01,-1.115553919225931168e-02,-5.293229222297668457e-02,1.393854916095733643e-01,3.201458230614662170e-02,-1.036923937499523163e-02,-3.716269880533218384e-02,-3.645798563957214355e-02,6.179183255881071091e-03,2.143147215247154236e-02,3.322837874293327332e-02,-4.168331157416105270e-03,3.333932906389236450e-02,4.835395142436027527e-02,-7.677938044071197510e-02,-1.017829030752182007e-01,3.750478848814964294e-02,-3.029178641736507416e-02,3.734830021858215332e-02,8.146392554044723511e-02,-2.543544769287109375e-02,-6.275052577257156372e-02,1.860827952623367310e-02,3.800614178180694580e-02,9.292387962341308594e-02,-9.393799304962158203e-02,3.484207019209861755e-02,-3.912454098463058472e-02,-1.917386893182992935e-03,-1.748473942279815674e-02,-4.988040402531623840e-02,-1.988961361348628998e-03,-1.109394803643226624e-02,-2.860484831035137177e-02,-4.657870531082153320e-02,-5.911853536963462830e-02,-8.462411910295486450e-02,4.843423515558242798e-02,-9.373845905065536499e-02,3.959772363305091858e-02,-7.907776534557342529e-02,3.873657807707786560e-02,8.323950693011283875e-03,-2.576584462076425552e-03,-1.594928465783596039e-02,-4.982750490307807922e-02,2.878330461680889130e-02,5.335934087634086609e-02,-4.389777407050132751e-02,-5.021745711565017700e-02,-9.048644453287124634e-02,1.148544028401374817e-01,6.977234780788421631e-02,3.071436472237110138e-02,-4.754937440156936646e-02,-1.774126291275024414e-02,-1.133285984396934509e-01,-1.531936414539813995e-02,6.294729560613632202e-02,-4.159084707498550415e-02,-7.961039990186691284e-02,-1.051374375820159912e-01,1.764209866523742676e-01,-1.069004926830530167e-02,-3.006370924413204193e-02,-1.183543261140584946e-02,-4.080760851502418518e-02,-1.286488920450210571e-01,5.837196484208106995e-03,3.697279468178749084e-02,5.179417133331298828e-02,-5.147715285420417786e-02,2.969146147370338440e-02,3.147607669234275818e-02,7.288198173046112061e-02,4.441140964627265930e-02,-7.459781318902969360e-02,4.430589079856872559e-02,2.144355326890945435e-03,5.402119085192680359e-02,-2.527864882722496986e-03,-4.196854680776596069e-02,-8.173352479934692383e-02,-9.398332238197326660e-02,2.639613300561904907e-02,4.511004313826560974e-02,2.942831953987479210e-03,7.487980183213949203e-03,5.306613445281982422e-02,-9.756929427385330200e-02,5.755021795630455017e-02,5.681574344635009766e-02,1.572199165821075439e-02,-4.756820201873779297e-02,3.914188593626022339e-02,1.213505771011114120e-02,4.408591985702514648e-02,-3.588453866541385651e-03,-5.508573353290557861e-02,-8.619320392608642578e-02,-5.426323041319847107e-02,5.167393386363983154e-02,2.564129978418350220e-02,-1.966623403131961823e-02,7.991295307874679565e-02,-3.441581502556800842e-03,-5.295294150710105896e-02,1.957515627145767212e-02,1.099517270922660828e-01,-1.674280874431133270e-02,8.727664500474929810e-02,1.179170981049537659e-01,2.189943008124828339e-02,6.788981705904006958e-02,-4.010419547557830811e-02,-1.508828625082969666e-02,8.933511376380920410e-02,-4.867108538746833801e-02,-1.451813727617263794e-01,-1.193267777562141418e-01,3.597968444228172302e-02,4.217039048671722412e-02,-1.186102479696273804e-01,-9.293287992477416992e-02,-5.460187047719955444e-02,2.233740314841270447e-02,-3.499284386634826660e-02,6.836239248514175415e-02,-5.684106796979904175e-02,3.826605901122093201e-02,3.600585507228970528e-03,6.102702394127845764e-02,1.909299939870834351e-02,-1.098694801330566406e-01,2.891123294830322266e-02,1.392675936222076416e-02,1.090117730200290680e-02,2.308175712823867798e-02,1.596914604306221008e-02,4.186557233333587646e-02,-9.388203732669353485e-03,4.931891453452408314e-04,-1.045961771160364151e-02,-3.095099516212940216e-02,6.115237995982170105e-02,-4.737441986799240112e-02,2.791413851082324982e-02,5.631478130817413330e-02,7.908301427960395813e-03,-6.168713048100471497e-02,7.126280665397644043e-02,1.728479377925395966e-02,-1.273132488131523132e-02,-2.177611365914344788e-02,5.653193220496177673e-04,2.370469830930233002e-02,-1.358957402408123016e-02,1.131207123398780823e-02,-1.999137848615646362e-01,-5.138585343956947327e-02,4.332534223794937134e-02,3.835643827915191650e-02,8.895579725503921509e-02,-3.794111311435699463e-02,1.737023144960403442e-02,-4.907792806625366211e-02,-7.517921179533004761e-02,8.977034129202365875e-03,-3.133593499660491943e-02,-6.353028584271669388e-03,3.394741192460060120e-02,-3.363648429512977600e-02,-3.238717839121818542e-02,5.790025927126407623e-03,-2.216674387454986572e-02,2.679456723853945732e-03,1.760589703917503357e-02,-3.647300601005554199e-02,-1.140031963586807251e-01,-2.646723296493291855e-03,-1.846628263592720032e-02,-4.428956285119056702e-02,-8.061416447162628174e-02,3.182202950119972229e-02,-7.868167757987976074e-02,-2.367326058447360992e-02,3.272926062345504761e-02,3.125696443021297455e-03,3.184061869978904724e-02,-1.518850177526473999e-01,-2.388634160161018372e-02,-7.562304288148880005e-02,-1.029622182250022888e-02,-8.943617343902587891e-02,4.550012573599815369e-02,4.866288974881172180e-02,-6.621138751506805420e-02,-5.440039187669754028e-02,-1.412103623151779175e-01,1.613579504191875458e-02,4.983508260920643806e-04,8.861348778009414673e-02,2.000312507152557373e-01,9.636009484529495239e-02,7.410149276256561279e-02,-5.888648796826601028e-03,-3.360779583454132080e-02,3.835432603955268860e-02
