shape,"(5, 512)"
-0.062076975,-0.047048353,-0.07202082,0.011638707,-0.097397536,-0.03574093,0.0681942,0.038396534,0.042653885,-0.015953263,0.0016590965,0.008228421,-0.07346071,0.0010465174,0.027895048,-0.029399982,0.043239307,-0.035307404,0.049050786,0.030948747,-0.04681901,-0.008296592,-0.030308958,0.060695574,-0.018684257,-0.010911938,-0.053864054,0.09341705,-0.06126773,0.03540067,-0.07474344,-0.12798302,-0.007053891,0.0005556149,-0.020133536,0.06348399,-0.1279457,0.007819727,0.0137125505,0.039007187,-0.021356298,-0.0020144877,0.10810436,-0.011960889,0.018319765,0.015266906,-0.049168255,-0.029715285,-0.014238424,-0.10264939,-0.05614848,-0.027930323,0.019437004,0.041482706,0.059419584,0.07224281,0.086113594,0.07882932,0.023772387,0.05395757,-0.021711454,0.026801016,-0.028112086,0.080900304,-0.009198788,0.078761935,0.0311182,0.03867722,-0.095688,0.044511326,-0.044657532,-0.015318676,-0.029304175,-0.07842816,0.084348276,0.0223488,0.0100080725,0.08651594,-0.014797119,0.0037346466,0.119016,0.072660945,-0.0062300395,-0.023260234,0.035569124,-0.0005426544,0.05455108,-0.076514676,-0.0048153796,0.11067835,-0.056985103,-0.01183405,-0.005453051,0.1124638,-0.026205407,0.028043183,-0.010227868,-0.10329771,-0.03572131,0.049796946,-0.103998244,-0.010372696,-0.022871036,-0.1368121,0.06388174,0.1509571,-0.033192907,0.11641528,-0.05086948,0.044605527,0.14058332,0.014203332,0.109233804,0.027159844,0.13185842,0.058428645,0.08717968,0.049423225,0.0785771,-0.07029132,0.045440126,0.029488474,-0.08967406,0.019017583,0.08619684,0.04628149,-0.024253786,-0.05748623,0.080249324,-0.0879946,-0.03311439,0.0048899264,0.0780539,-0.123762846,-0.037092254,0.06054531,-0.059212346,0.016512528,0.07090941,-0.038262658,0.10003033,-0.0819267,-0.047687486,-0.028785914,-0.058200836,0.08223979,-0.04411909,0.0043988097,0.07080777,0.085499056,-0.025018673,0.011307261,-0.023362279,0.025614789,-0.08287535,-0.04026811,-0.059836537,-0.088131584,0.008625197,-0.010001287,0.12743762,0.023107186,0.008442165,-0.010093662,-0.044998467,0.014670356,0.07499476,0.072859645,0.021277,0.043213863,-0.08663316,-0.0031135995,-0.0102899205,-0.013802518,0.013343727,0.037596177,0.04215082,-0.032321114,0.07294106,0.10086113,-0.032442458,0.14409952,-0.0017015806,0.055517253,0.030613625,-0.015482442,-0.01757767,-0.059845433,-0.060964417,0.0039118566,0.0035330523,-0.034570742,0.07857661,0.005851358,0.003574195,-0.010358669,-0.08026249,-0.0148136625,0.034545314,0.051064927,0.00938261,0.0046272646,0.027690537,-0.114257246,-0.022849131,-0.07935999,-0.015951278,-0.043896254,0.013863684,0.072871394,0.072552554,0.0040564123,0.01370809,-0.022888279,-0.00046318406,0.01650358,0.005386714,0.04429395,0.009836257,-0.0830461,0.08700161,0.077925816,-0.038122028,-0.014643243,0.09653422,-0.034100953,-0.002799001,0.020246318,-0.010846844,0.10030146,0.07030772,-0.02245837,0.036237057,0.025328118,0.16644038,0.0902835,0.037245594,-0.013764193,-0.05317755,-0.028362928,-0.051250283,0.049544416,-0.040557247,-0.04783513,0.03484397,-0.085142426,0.048217453,-0.09353234,0.068260565,-0.058561128,0.003073551,0.07787945,-0.08715163,-0.09891589,-0.038758706,-0.017490169,0.0016942126,0.11262225,0.081412844,-0.089845166,0.005885005,0.06016021,0.0012862599,0.07156867,-0.061579634,-0.034282874,-0.04246338,-0.011687789,0.026875451,-0.020144444,0.0763965,0.08720831,0.044801895,-0.07999194,0.08544324,-0.12497214,0.041583244,-0.015032213,0.07605282,0.0137834735,-0.07191289,0.12904388,0.022136588,0.10810781,-0.018779334,0.001461796,0.016113408,-0.06432289,0.04853523,-0.029026868,-0.018877408,0.056275178,0.014313482,0.033692244,0.034405667,0.0010772195,0.07093444,-0.013824157,-0.059660234,-0.022000352,0.025383664,-0.038961194,-0.009297993,0.09681731,0.08645895,-0.08045593,0.123106815,0.012503841,0.018557847,0.005582439,0.041863948,-0.18817472,-0.050810736,0.00032509613,-0.038644247,0.035122167,0.009603221,-0.058179136,0.036624487,0.051945046,0.030686816,-0.071683116,0.024174163,0.0166055,-0.051167402,0.08388586,-0.11343562,-0.007054195,0.073093735,0.00038770452,0.035366282,-0.024825072,0.0201784,0.024980236,-0.033813927,-0.0433063,0.057635337,0.034716748,-0.017307943,0.042344842,0.006161514,0.008503158,0.023339147,-0.049706727,-0.076019116,0.033941966,-0.03758394,0.061157826,0.07486357,-0.018012661,-0.0032938297,-0.11295474,0.018120198,0.071105376,0.03767574,0.014301105,0.031566128,-0.072543606,0.07708742,-0.048048962,0.06955345,-0.029850801,0.028313464,0.00052253925,0.06328131,-0.14458238,-0.046367656,0.13754301,0.014132355,0.02688541,0.09226409,0.028479122,-0.010688955,0.0316645,0.0361766,-0.0022549406,0.008789063,0.032460097,-0.026146686,-0.023222163,-0.015537103,0.08676315,0.01279375,-0.02115876,0.13267727,0.059431415,0.12934643,-0.010680488,-0.03418133,0.0056057847,-0.03782548,-0.005935272,-0.04421252,0.014434749,0.05471441,-0.09718974,0.005773672,0.045431864,-0.089897096,-0.13178551,0.062548235,-0.06576114,0.05001748,0.094703674,-0.021816796,-0.012820932,-0.064647764,-0.043673467,0.05057822,0.009611999,-0.027674902,0.047864284,0.014169714,-0.0040299166,0.12998769,0.037852358,-0.06280657,-0.001202287,-0.052754488,0.029699044,0.12960108,-0.10181258,0.013648056,-0.04703398,-0.0063867695,-0.068090625,0.065434955,0.089431554,0.02644089,0.050851595,0.03590575,-0.015671773,-0.012462807,-0.09448143,0.090418875,0.10611866,-0.06904219,0.041420512,-0.1284753,0.0154088335,-0.03833425,0.060450934,-0.028836695,-0.041065715,0.070576325,-0.06558962,0.09917402,0.06283861,-0.037913054,-0.020550365,-0.018152848,0.0026309325,-0.11250382,-0.0050853956,0.002865819,0.14582436,-0.05466115,0.05956834,-0.011987407,0.090661064,-0.10924242,0.046224527,-0.0025161756,0.035742164,-0.14461006,-0.100694925,0.02716717,0.12529358,-0.039860327,0.11896948,-0.05372589,0.032711037,0.06782072,0.052897185,-0.026506282,-0.022264192,-0.037591867,0.0143550895,-0.04170042,-0.039150096,-0.037635893,-0.039751858,-0.0015470727,-0.011329311,0.09227286,0.0678058,0.076987885,-0.106981024,-0.06656908,-0.13412899,0.008911253,-0.012074472,0.012339637,-0.047838572,-0.13781966,-0.077913515,-0.050398648,-0.09519775,0.067889616,0.015543198,-0.099425405,0.0440603,-0.028793931,0.044554666,-0.037992764,0.018284656,0.0140232025,-0.023636557,-0.03628229,-0.0934593,0.034533247,0.01155926
-0.058672827,0.066163234,0.022037983,-0.008134319,0.024976566,0.009624207,0.031349517,-0.04072411,-0.053571086,0.13069555,0.07893637,0.08965359,0.051068828,-0.073625706,0.07506394,-0.004166577,-0.13842645,0.10342154,0.007735431,0.031184152,-0.14785196,-0.059187982,0.04909009,-0.041930474,-0.0122772595,-0.1084154,0.09170605,-0.024989642,0.021110035,-0.007131418,-0.0012173027,-0.053659003,0.0029688983,-0.12357947,-0.118273675,0.022522427,0.048040442,0.021997232,-0.0713052,-0.04829253,-0.01663175,0.063099496,0.055224307,-0.05013401,0.07659946,-0.029279893,-0.13980834,-0.06337575,0.014867627,-0.024215674,0.046774182,-0.11407747,-0.01616636,-0.00528437,0.04242152,-0.005322507,-0.046811685,-0.019794077,-0.06460955,0.032593332,-0.18605316,0.10363506,0.002774422,0.029275848,-0.026217142,0.017475912,-0.028114215,0.0050765453,0.11169612,-0.03171948,-0.011455227,-0.058775213,0.019425973,-0.056804236,-0.033714756,-0.005109633,0.010240897,0.07749038,-0.11177862,0.008134542,0.06472754,0.019304667,-0.054292217,-0.010720592,-0.057304148,0.017063685,0.03562579,-0.00696647,-0.10018474,-0.037511706,0.07968359,0.05292921,-0.0654967,0.057626683,0.027464438,0.09320785,-0.040133372,0.09551809,0.04727997,-0.12826952,0.024230652,-0.00070481864,-0.03673201,-0.086562976,0.06501813,-0.07647478,-0.020737296,-0.00889586,-0.0034546177,-0.12682743,0.0144098,-0.012610084,-0.08875955,0.045716587,-0.039389,0.08247828,0.03706037,0.10174332,-0.08294531,0.030042864,0.13655162,0.07310652,-0.15270153,-0.08860439,-0.09969574,0.029108636,-0.10410289,-0.041751314,-0.049630694,0.008301586,0.018036196,-0.06717264,-0.040377114,-0.029624693,0.12808283,0.06838729,0.10845265,-0.10950395,-0.07784612,-0.013641144,0.09116835,-0.005612339,0.054082382,-0.07696289,0.06465388,-0.031514052,0.039858952,-0.0032961927,0.027351193,0.03838379,0.021368807,0.018862408,-0.07962063,0.015429449,-0.02602312,0.082448944,0.015856035,-0.052351575,-0.027752932,0.1391798,-0.1522907,0.056607313,-0.0013798097,-0.06579006,-0.05074077,0.06429055,-0.14167729,0.1440495,-0.050577857,0.023410521,0.0069228355,0.027812092,-0.0009327506,0.08609245,-0.07285542,0.01504567,-0.015185188,-0.045496456,0.012701319,0.040718894,0.0921897,0.022639088,-0.13078722,0.044654652,0.030833855,0.0056180027,-0.0037169394,-0.12151414,0.099674,0.03988231,-0.018809067,0.05438188,-0.026307436,-0.075187996,0.08859681,0.012995354,0.08938556,-0.050443504,0.0042568725,0.04291328,-0.016276767,0.062116757,0.059866577,-0.07196383,-0.02110984,0.0045738216,-0.0056158495,0.011845346,0.060706694,0.08783339,0.0004940138,0.059211716,0.040190868,-0.073248014,-0.14665428,-0.042628285,0.01407277,0.01398596,-0.0061340234,0.009439383,0.061877932,-0.092744105,-0.047061566,0.07475925,0.019850066,-0.011584165,-0.013758199,-0.023666097,-0.06688016,0.022390604,-0.0039183185,-0.12120372,0.03467929,0.018744292,-0.04561745,0.0040387977,0.05301313,0.066323675,-0.0095343,-0.057022244,0.046389192,-0.09749398,0.109881155,0.061398916,-0.052931592,0.007116232,0.11359934,0.036222022,-0.057516918,-0.039418273,-0.030774448,0.0058012875,0.015547097,-0.07529672,0.061851617,0.025731647,0.040258568,-0.07727072,-0.020709164,0.09754526,0.001515853,-0.030543348,0.011714217,0.012185286,0.046369087,0.0075609656,-0.059999794,0.070947886,0.024692103,0.037703786,0.074468784,-0.0034051244,0.09893399,0.12801804,0.09621037,0.04578439,-0.06509132,-0.06481522,0.0042434507,0.0121981595,0.058976453,-0.041145686,0.010330924,-0.032318737,0.02221497,-0.025234016,-0.045533605,-0.0138108535,-0.056280527,-0.030707719,-0.11145108,0.04333681,-0.01649915,0.018494936,0.04975143,0.005093727,0.032925498,-0.11614401,0.04075775,-0.026847836,0.0017437834,-0.014985854,0.09828344,0.063779816,-0.03695936,-0.042998284,-0.08107091,-0.028576357,0.022393182,0.053497683,0.018333843,0.11415256,-0.042961683,0.053285003,-0.061136924,0.019823402,0.105625875,0.0071885716,0.0683854,-0.029512871,0.061858978,-0.0008931169,-0.13226056,-0.01295754,0.029888632,-0.0580107,0.0070334645,-0.06992688,0.070148274,0.0033809177,0.03538682,-0.06601231,-0.009128556,-0.06810832,-0.08011494,-0.03060632,0.06000457,-0.040837258,-0.0046285144,-0.027439503,0.0054983157,0.026724963,0.0058640675,-0.047960054,0.004866024,0.011552693,-0.044937167,0.07023517,-0.038905185,0.12085765,0.04711113,0.039747972,-0.070138864,0.1645316,-0.05587079,0.0052506146,-0.11042151,-0.006459213,0.034784034,-0.03661932,-0.10689697,-0.0054923547,0.07469376,0.04445983,-0.050502744,-0.128423,-0.007494843,0.11594998,-0.148601,0.09608888,-0.0062609776,-0.045838557,0.03835818,-0.023185948,-0.08033725,-0.038171276,-0.03932778,-0.06711926,0.056150086,-0.018898424,0.059335746,0.045219466,-0.013625266,0.085223615,0.10806334,0.09924511,-0.010831529,0.08630618,0.10170874,0.06301236,0.022762494,-0.09117487,0.017483437,-0.07669729,0.013135773,-0.027129,0.116278365,-0.009519054,-0.07853404,-0.048896544,-0.030725613,0.033330288,-0.061085075,-0.059195675,0.030192558,0.05734308,-0.050447658,0.017835112,-0.057562143,-0.0094546415,0.10700974,0.06019949,0.0161261,0.039096456,-0.013685064,0.08793956,0.04688779,-0.0014720976,-0.038491804,0.07562492,0.0413528,-0.06379157,-0.031934228,-0.0051375763,-0.074007794,0.015335744,-0.1127056,-0.0686084,0.08126757,0.04701737,0.09398693,-0.03670101,0.004147193,-0.14954044,-0.016983494,0.032238636,0.008942118,0.01730635,0.0374424,0.071229324,-0.13037094,-0.017214615,-0.025329648,0.062379554,-0.13011043,-0.010570398,-0.05024539,-0.01356453,0.041594088,0.12689453,-0.06973726,-0.06844758,0.012210821,0.05972736,-0.007600261,-0.027435247,0.015375192,-0.017944718,-0.02977822,0.19713733,-0.07835838,0.056076635,0.060924407,-0.10518036,-0.053962115,-0.07557554,-0.020601958,-0.053395823,0.0037596268,0.0037684618,-0.046845563,0.05313221,0.024675572,0.023345472,-0.018811185,0.05932955,-0.106794424,0.00022146526,0.0038787688,0.1408067,0.08161842,-0.060130116,-0.029748453,0.027969353,0.02153675,0.022293597,-0.019701079,-0.07334485,-0.105318956,-0.07747148,-0.01046383,0.010008354,-0.07640742,0.056531996,-0.077723,-0.11349698,-0.09246354,-0.038297918,-0.11434315,0.061421115,0.10647295,0.06399644,0.04857712,-0.056564447,-0.0510905,0.042670816,-0.057137545,0.04757518,0.04604802,0.024627013,0.012968322,-0.0035734975
-0.07570006,0.05113164,-0.026018316,-0.02764638,-0.0011049992,0.012679805,-0.032222826,-0.013107491,0.12433337,0.012789117,-0.03435678,0.004352049,0.0536306,-0.07145963,0.062252548,-0.017982095,-0.09274443,0.008320858,0.09668309,0.020782856,-0.07151,-0.045709446,-0.063380025,0.016711669,-0.09388862,-0.071916215,0.014058652,-0.13581675,0.10475524,0.01012385,0.004888631,-0.011151239,-0.050056286,0.033648793,0.03477171,0.00701766,-0.051012993,-0.001768727,0.0063108546,-0.106193885,-0.10310494,0.019254837,-0.04513913,-0.0065078535,0.00093349535,-0.06673658,0.010458559,0.009840399,-0.008125623,-0.013824465,-0.058647826,0.15073346,0.041278917,0.0008908379,-0.039337143,-0.08395315,0.004999985,-0.0059469934,-0.028153544,-0.009642268,-0.016299507,0.0013432612,-0.054482836,-0.09516088,-0.04778854,-0.013408396,0.044804785,0.01335244,0.07155637,-0.15485132,0.10461139,-0.015432106,0.0094780205,0.053011123,0.043635998,-0.013798696,-0.06723089,-0.057054814,-0.061020005,-0.0119278105,0.05231332,-0.09666972,-0.0053674146,0.018571783,-0.04808817,-0.07151531,-0.070759855,0.006804128,-0.019496653,-0.005920257,0.049107242,0.07713096,0.027624056,0.030585859,0.11480213,0.08163721,0.035001453,0.023746738,-0.005069861,0.06173331,-0.08167894,-0.08168427,-0.012280206,-0.0506481,-0.04637219,0.014276422,0.043868925,0.057321183,0.036362834,0.06937791,-0.07696848,0.09111516,-0.01069227,-0.00995883,-0.04434009,0.12364778,0.0054878476,-0.050762977,0.12367992,-0.004798926,-0.055519868,-0.061721083,-0.037673876,-0.032397922,0.035628792,-0.048250817,-0.058161747,0.04068996,0.005163194,-0.07241901,-0.017383028,-0.02964822,-0.07432555,0.012182305,-0.02066546,0.027570907,0.06511338,0.04082589,-0.12482525,0.015856871,0.043537457,0.076981835,-0.0064171744,-0.09723635,0.016540255,0.020768233,0.006345214,0.1421365,-0.054693755,-0.03435764,0.07759926,-0.040263787,0.042591687,0.212681,-0.015264567,-0.023688978,0.0015630986,-0.030666113,0.04169733,0.00035139013,-0.06469204,-0.01918971,-0.07957764,-0.019479197,-0.022658698,0.002118005,0.011135451,-0.042381264,0.19673736,-0.018620016,-0.047529496,0.035130635,-0.0030736828,-0.08705187,-0.0098376125,0.07292971,-0.09481288,-0.0954715,0.09050594,-0.121079184,0.03407271,0.034547426,-0.07532027,0.061589327,-0.024794096,-0.069520004,-0.003764514,-0.043525036,-0.010376257,0.04368343,-0.047759578,-0.020954793,-0.026268072,-0.023504969,-0.0056287353,0.028631631,0.00012162727,0.0901965,0.124870844,0.049094897,-0.024519771,-0.03379859,0.10229406,-0.0038111343,-0.05167334,-0.103736445,-0.007305529,0.010226848,0.002458185,-9.191011e-05,-0.12529142,0.01340284,0.055094298,0.057875607,-0.022543661,0.05844731,0.017047506,0.051845513,-0.006393722,-0.014254399,-0.0012531911,-0.033337016,-0.014436317,0.09858302,0.058724094,0.039762374,0.0023680448,0.0065854057,-0.08927591,-0.04946299,0.0923265,0.057840224,0.016139638,0.036023784,0.07929267,-0.057741337,-0.06177468,-0.020017382,-0.042756476,0.020883698,-0.029109916,-0.08711698,0.045184992,0.019751718,-0.030771786,0.061195917,0.012493653,0.034616288,0.010729189,-0.024778774,0.14893933,0.044815224,-0.062217575,0.16744368,0.007063627,-0.06635284,0.006293083,0.08635506,-0.060694642,0.056201402,0.0858772,-0.009482505,0.025975723,0.018869456,0.037012897,-0.061200507,0.012180169,-0.08193309,0.107489616,-0.031219792,0.03633076,0.08710769,0.04028408,-0.011332622,0.118560955,0.018639201,-0.010593634,0.029066248,-0.10085418,-0.04885801,0.00134579,0.08169697,-0.012424335,0.10048262,-0.02573219,0.09427155,-0.0009960323,-0.005383436,0.026492812,0.057366546,0.014273103,-0.05736895,0.018355386,0.005755469,0.05297809,-0.0375874,0.09531485,-0.08256619,-0.028208796,-0.14972349,-0.0342003,-0.082981214,0.09479861,-0.063163236,-0.004171437,-0.07465708,0.085122444,-0.04911529,-0.011006402,0.05386447,-0.100748375,0.018795524,0.0686682,-0.025269281,-0.05580964,-0.019192997,0.035406966,-0.057335347,0.0064305854,0.055896048,-0.062269907,0.027814133,-0.011499857,0.0046103373,0.03855614,-0.013610471,-0.008190663,0.0011043464,0.015579422,-0.037092954,-0.22383364,-0.036128134,0.008451485,0.045938905,-0.040922336,0.07920517,-0.020297056,0.0062762043,-0.052150413,0.03848844,-0.040814914,-0.015425091,-0.04521365,-0.022370735,-0.080065526,0.020287303,0.010316849,0.036143977,0.045873005,-0.012393568,-0.029287677,-0.057588458,-0.060402915,0.10985531,-0.013536151,-0.11462041,-0.0040563424,-0.059982993,0.010670541,0.06972268,0.017385101,0.043363854,0.00240159,-0.0053867763,0.19794983,-0.037498754,0.023206513,-0.05926219,0.019339213,-0.08089294,0.09187792,-0.043608967,-0.023885434,0.0140802935,-0.014721441,-0.028625615,0.12546697,0.03763839,0.004884089,0.024201494,0.0358438,0.063185066,-0.02217721,0.02493833,-0.012480546,-0.055616606,0.036037277,-0.06089255,0.025089344,0.12409655,0.030903054,-0.01643863,-0.07075945,-0.038920425,0.04225486,-0.010873438,0.0042366786,-0.056395788,-0.019294303,-0.11582576,-0.06540322,0.060066946,0.044273645,0.06890838,-0.017587477,0.06832523,0.005814641,0.020902123,0.030790612,0.0057603824,5.0691415e-05,0.005245809,0.03100955,-0.013147039,0.075410426,0.028899001,0.038714603,-0.064943634,-0.06008638,-0.017182868,0.14268506,0.086628065,0.013040603,-0.09454292,0.06697641,-0.036643326,-0.04833969,0.028280586,-0.0021958887,-0.07460539,-0.047388002,-0.050743084,0.04770906,-0.04108553,0.0087067615,-0.120358266,0.011620785,0.03086868,-0.023927858,0.097868256,-0.01064127,0.07438742,-0.018953586,0.0024475353,-0.042269036,-0.0692805,0.030903842,-0.008300431,0.03894222,-0.042411808,0.065438315,-0.025321465,-0.0568271,0.021422338,-0.021790478,-0.009377907,0.01712731,-0.09611811,-0.044192154,-0.08809617,0.01456499,-0.09157265,-0.040322673,0.02817598,-0.0016919869,-0.059097294,0.07576245,0.10066549,-0.08503737,0.051531415,-0.06883856,-0.07839364,-0.01637328,0.07082204,0.008463264,-0.038317714,0.09493757,0.004938993,-0.0001941132,0.0243322,0.0045062015,-0.014495242,0.0821514,0.0024534774,0.120477095,-0.0003088093,0.079272285,-0.007605115,-0.10291412,0.011003564,-0.035089582,-0.11674206,0.0957104,0.020192755,-0.035160713,0.015233432,-0.10395031,0.046590623,0.08844897,-0.11633748,-0.040000267,-0.021751892,0.09685103,0.016982561,0.03700353,0.07008409,0.03713412,0.013702649,0.03459849,-0.049691524,-0.004427819,-0.0021836145
-0.018155603,-0.0031386325,-0.047027804,-0.011905789,0.06816913,-0.02413577,0.017969767,0.067693464,-0.0088988375,-0.048667923,0.06343287,0.028119696,0.05380198,-0.0925399,-0.09044396,-0.07157653,0.0533764,-0.033138406,0.03831867,0.0591766,-0.055187415,-0.05362035,0.074774824,0.012488922,-0.006529244,-0.06532579,0.028096987,0.11903133,0.024881147,-0.13926156,-0.033527568,0.0035910928,-0.007336397,-0.06798955,-0.053869586,0.055692904,0.05456467,-0.031750184,-0.0034467846,0.040593646,0.09592174,0.0263018,0.032452647,-0.07902386,0.07618544,0.13093334,-0.037923295,-0.13899043,0.08539858,0.041954067,0.10841746,-0.082356974,-0.11792267,-0.08476969,-0.056895852,-0.04656096,0.057063792,-0.03919562,-0.05593482,-0.04814308,0.04380489,-0.0348442,-0.105781466,0.011141107,0.049248647,-0.001148308,-0.07948981,0.010098942,0.042515658,-0.108113125,0.024749639,-0.044257227,0.0017305603,-0.09684909,-0.043333054,-0.12211516,-0.08491608,0.0130022615,-0.09450946,-0.013213921,-0.027626246,-0.024461867,0.019168425,-0.030529903,0.065699525,0.04978648,-0.010450498,0.037693042,0.072419785,-0.026296234,-0.007834337,-0.014119786,-0.100996636,-0.018679498,0.015116589,0.025034606,0.03834766,-0.025994472,0.030292215,0.101074964,0.02781206,-0.04587132,0.010833839,-0.051084768,-0.043533288,0.11207253,-0.020471722,-0.009313404,-0.067561306,0.05000876,-0.041419838,0.07437903,-0.018231282,-0.0044868453,-0.014917767,-0.056819297,-0.056434304,-0.095891446,0.096922785,0.08568685,-0.04202333,-0.0012274445,-0.05728861,0.06633685,-0.009745828,-0.060600046,-0.0543171,0.06263795,0.022724377,0.013451324,-0.019282108,0.074899815,-0.015776936,0.0011328767,0.016630232,-0.022034978,-0.06572582,-0.020977365,-0.041622385,0.019029096,-0.0014444189,0.016063068,-0.0136428075,-0.04877324,-0.059674136,0.0058778725,-0.05879802,-0.00016920154,0.17755443,0.026795715,0.017353157,0.01671625,-0.07543065,-0.10054983,0.02985898,-0.07479561,0.036204897,-0.00876857,-0.026972912,-0.018645732,-0.03270582,0.0329158,-0.12697874,0.08336913,0.0010824417,0.0072327843,0.117765605,0.0037991914,0.012632924,-0.0023633102,-0.06297261,-0.04930074,0.049304698,0.055769194,-0.074146576,-0.12661932,-0.037271563,0.05876212,0.008377072,-0.010508654,-0.051253095,0.013987117,-0.0009868307,-0.00508231,0.0023696793,-0.08277454,0.0027236335,0.05462217,0.034734353,-0.011715906,0.0058799866,0.09857082,0.030545846,0.039596472,0.041326664,0.0053505925,0.024881274,0.0068385517,0.017651577,0.08446212,-0.08346787,0.082105584,0.12938924,-0.021620072,-0.00100875,0.056033585,-0.030627,0.08441027,-0.07498592,-0.01809166,-0.015003006,-0.061809123,-0.061151512,0.06798916,0.2030983,0.06829893,0.02506405,-0.06969347,-0.11170568,-0.12711899,-0.00022487738,0.03729163,-0.03840121,0.011458937,0.0187634,0.02096743,-0.03863284,0.014909498,-0.025468579,0.08289912,-0.04986806,-0.076347366,0.024608083,0.09580728,-0.0053964388,-0.026431292,-0.06590927,0.09567343,-0.009158683,-0.013062792,0.05743311,-0.06427433,-0.07329918,-0.07237216,-0.03062142,0.055896148,-0.09272542,0.094012946,-0.021762913,0.026470961,-0.12619822,0.05599077,-0.08257527,0.06382516,-0.016996542,-0.0038687412,-0.034933325,0.018847778,0.047234423,-0.032031756,-0.07084517,-0.045270685,-0.10384042,-0.046707552,-0.075469695,-0.084263645,0.041567672,0.033045024,0.04325894,0.033315543,0.06344288,-0.09493751,0.118688725,-0.05707006,-0.02868658,-0.030082291,-0.045113385,0.0018410748,-0.008902358,0.03727069,0.10342441,0.078915276,-0.05226352,-0.08348058,0.025849627,-0.06935207,-0.0038372125,-0.07354603,-0.07655189,0.05940639,0.067068025,0.061025407,0.034228735,-0.012751644,-0.032181226,0.0026259115,0.045434266,-0.045224626,0.069462374,-0.026102336,0.03096422,-0.015471625,0.03711155,0.087101385,-0.038582176,-0.03217937,-0.0910478,-0.06678615,0.03987187,-0.06064171,0.045513067,-0.02786524,-0.0128577035,0.03714836,-0.035913363,-0.074976586,-0.026001573,-0.026613202,-0.018722136,-0.019728929,0.13255945,-0.05328659,0.01442043,0.0027739215,0.08863054,-0.0021688067,0.068556346,0.014763264,0.0405349,0.044234626,0.01268772,0.027865097,-0.12012299,0.0012878188,-0.04273606,-0.12064129,-0.10402725,0.09132452,0.019499639,-0.029488126,0.0012357178,-0.09380599,0.018302968,-0.12671891,0.0101695685,-0.014953225,-0.0119031705,0.033860035,0.0047844695,0.021465736,-0.05746274,0.06635036,-0.019478887,-0.0115050925,-0.0078639835,0.13102293,0.071354926,-0.061252266,-0.004210936,-0.015801292,0.060390107,-0.117068216,0.020376083,0.008849989,-0.023442144,0.06822184,-0.05396851,0.019022167,-0.111781776,0.075008206,-0.11980378,-0.060522478,-0.011051268,-0.14138442,-0.010860014,-0.016501445,0.101930596,0.075250596,-0.021912139,-0.015809465,-0.095559515,0.15612616,0.06920709,-0.028049376,0.108747154,-0.031664245,0.046587516,0.0071609593,0.021180982,0.0027961014,0.12190926,0.09127488,0.07043889,0.08529299,-0.030884618,-0.027146071,-0.044725843,0.04128425,0.028666204,0.012762886,-0.00065626914,-0.022054117,0.05496987,0.009240544,0.035034716,-0.019766781,-0.013872881,0.0055843676,-0.007890842,-0.0528066,0.06992264,0.044778813,0.0060790796,0.08459006,0.03614172,0.056540016,0.057657532,-0.07571873,-0.0390303,0.09891622,-0.019827053,-0.01516456,0.025939269,0.038771164,0.054900583,-0.08744677,-0.05251796,0.08772531,-0.10810803,-0.009749653,0.09990536,-0.043144625,0.050825156,-0.06506436,-0.080932915,0.022797802,0.13633573,0.09842724,0.10219106,0.058725722,-0.030540453,0.008186866,-0.11609572,0.058655366,0.09115126,-0.032923553,-0.0074322363,0.125835,-0.052246455,0.06799171,0.071367845,0.063209794,-0.005545952,0.015705891,0.15998018,-0.016121404,0.08424231,0.024832888,-0.007353495,0.015725302,0.096503295,0.023763051,0.029854538,0.024832595,0.048525684,0.016572988,0.054679036,-0.12207508,-0.02829858,0.035699017,-0.018953124,-0.02986932,0.004107106,0.004683227,-0.08053603,-0.020772094,-0.07097093,0.012738008,-0.063441396,-0.056997083,-0.00053911284,-0.044926,-0.021830227,0.05379659,-0.011779988,-0.01904097,0.07434779,-0.06659173,0.07561833,-0.04926107,-0.0376411,0.09954376,-0.050617907,0.00795174,0.05694945,-0.03908865,-0.05670345,0.084585816,0.0014669105,-0.05329847,-0.07132099,0.0577029,-0.034048073,-0.08359225,-0.086808056,-0.019061688,-0.04389564,-0.010030625,0.11047,-0.009691063,-0.04771239,0.12392706
-0.0798508,0.01521568,0.0241772,0.008679649,0.028615944,-0.08934433,-0.049974404,0.04166191,-0.06325489,-0.013278365,-0.042978123,0.055111304,-0.0129227415,-0.08933838,0.010495548,0.004615796,-0.07042275,-0.17047103,0.042284366,-0.057921313,-0.052707378,-0.111227795,0.038979955,0.019513575,-0.07294433,0.039248385,-0.049609218,0.06939066,-0.11519444,0.11960111,0.15895464,-0.029053329,0.030953284,0.0536825,0.015985284,0.029177755,-0.036750212,-0.09661921,-0.015194482,0.04808971,-0.04102847,-0.005217966,0.029293142,-5.5808032e-05,0.027958417,-0.0032570248,-0.042477764,0.015414565,-0.0012170731,-0.032337196,0.08069587,-0.010747051,-0.15113111,0.117011376,-0.008158596,-0.062731564,-0.019462356,0.016720057,0.061006695,0.018936934,0.016312592,0.0823335,0.0008069944,0.007945724,0.010630086,0.057722554,-0.08334764,-0.0032964959,0.07709526,0.05783288,0.021691736,-0.08444039,-0.07484753,-0.008124815,-0.09243992,-0.025076546,0.031411644,-0.0086405445,0.06381084,0.04080418,0.012167505,0.07699162,0.054593652,0.051216744,0.027382841,0.12915324,0.014818819,0.040685385,0.00035078896,0.025891682,0.02253539,0.08281538,0.030094083,-0.0037682059,-0.014182643,-0.017457757,-0.0042844117,0.06509019,-0.075137705,0.0030865916,-0.070341356,-0.11510017,-0.060246713,0.018968152,0.07634178,-0.043291483,-0.029302035,0.014116033,-0.07045026,-0.037704524,-0.055451415,0.024134154,0.039562173,-0.0003092834,0.13907659,0.10490083,0.06641274,0.06450735,-0.021725703,0.004018254,-0.13298938,-0.03675051,0.06255482,0.05990797,0.086166136,0.021510325,-0.0042402903,0.018621892,0.14247915,0.024992585,-0.08028627,0.08974655,0.06094085,-0.105094194,-0.06756166,0.067397915,0.067213036,-0.048410684,-0.01295718,0.095385976,-0.19964342,-0.011221019,-0.0684171,0.12611489,0.017964242,0.03879506,0.010145191,0.11210945,-0.006348813,0.12859538,-0.06615405,-0.07940353,-0.08228086,0.032184556,0.1025845,-0.10513537,0.0019530137,0.06119551,-0.042902093,-0.028139044,0.07518961,0.0020761576,-0.01755361,-0.052061435,0.026827006,-0.018238794,0.06706087,0.12342533,0.030578053,-0.019870197,-0.059913076,0.024929991,-0.04615821,0.062210314,0.0950782,-0.03914605,-0.05909121,0.0511298,-0.089365445,0.07107959,0.1054195,-0.023102505,-0.0075477925,0.035870932,0.072569475,0.060019556,-0.00047033062,-0.026676377,-0.01178914,-0.10330727,-0.009095051,-0.024280718,0.032874826,0.017713072,0.058559608,0.06474733,-0.0146558825,0.05637015,-0.058516808,-0.06473409,0.0010782433,0.0056876065,0.04684508,-0.043412596,0.010190024,-0.107661,0.082327046,0.05945596,-0.022099929,0.06094112,0.079768464,0.014020117,-0.06692835,-0.06496051,0.017338477,-0.0049693487,-0.016920112,-0.03937409,-0.011114708,-0.005616977,-0.098903835,-0.0721716,-0.021175645,0.05023931,0.060504287,0.013821534,-0.054745078,-0.11717882,-0.029032143,-0.055231318,0.017544119,0.09730482,0.056341965,0.05034816,0.056393355,0.011762189,0.08735785,0.054271422,-0.054056775,0.004944464,0.037333313,-0.093875386,0.11749341,-0.10464847,-0.030285232,-0.015776133,-0.1695572,0.050345857,0.042683244,-0.021207951,-0.071390145,-0.022976244,-0.12492293,-0.011794353,0.0302796,-0.022416614,-0.04533472,-0.09655166,0.0237685,0.11490892,0.056362092,-0.13674913,0.0053054346,0.0077606733,-0.029790424,0.0059907413,-0.026719034,0.06965033,0.0580111,-0.056036852,-0.10368355,-0.008116679,0.06344774,-0.04831867,-0.006266281,0.011223167,0.014427069,-0.0111971265,0.06859278,0.023081578,-0.030243874,-0.12753199,0.010492972,-0.031172765,-0.11279245,0.0956129,-0.0038815713,-0.069031835,-0.038135823,-0.08599589,-0.01315793,0.08430783,0.025053473,-0.011815498,0.11313696,-0.16321084,0.07841358,-0.0019324941,0.094124995,0.016048832,-0.04320108,-0.13204302,-0.00012065785,-0.055153932,-0.019091304,0.0023255856,0.029089002,-0.0075833616,-0.014063344,0.008541602,-0.010566976,-0.022930613,-0.023295013,0.026171545,-0.08194375,0.00032298165,-0.005802332,0.1583771,0.028690282,-0.07254268,0.005252169,-0.02956578,0.07567159,-0.021149378,-0.031382956,0.030733226,0.015738843,0.020429937,0.05221995,0.06714612,0.03176957,-0.0685128,0.04363373,-0.010685869,-0.09973041,0.0061593107,-0.0009905803,-0.04529664,0.08123975,0.006794783,-0.042698916,0.05164719,-0.028921757,-0.040557537,-0.014435826,0.0079849055,0.015701814,-0.16764376,-0.06125926,-0.13321461,0.050395414,0.024955926,-0.06667665,-0.06079072,0.034127478,-0.051382802,0.010714024,-0.0017413282,-0.035189442,0.08403624,-0.00039037978,0.009468746,0.010817331,-0.014654471,0.079983965,0.065497614,-0.15202776,0.065350406,0.12887885,-0.0383919,0.031930134,-0.021509975,-0.12815234,-0.034025345,0.030118706,-0.07589011,0.0053526536,-0.0013018344,-0.06122752,0.009826581,0.055861805,-0.07895228,0.002321798,-0.06335474,-0.0101140365,0.045742325,-0.047610164,0.1075455,0.07441383,-0.030955993,-0.031122385,-0.013286383,0.015096573,-0.01861938,-0.048971124,-0.06657427,-0.015847586,-0.112013154,0.011989139,0.039453182,-0.049983643,-0.024449985,0.041945063,-0.103692524,0.019416725,-0.07740279,-0.0045441766,0.048264995,0.07804229,0.006886964,0.024337968,0.06630836,0.041110825,0.032391846,0.10378311,0.14497648,0.041595228,-0.043906387,-0.029024282,-0.009300807,0.15893252,-0.033116538,0.06956198,-0.045599904,0.063176006,-0.0655659,0.008859023,-0.024498206,0.11262406,0.01912156,-0.025901126,-0.03609702,0.055951543,-0.06364874,-0.03127695,-0.060413256,-0.025106814,-0.037503548,0.11810242,-0.11387466,-0.07087793,0.11463039,0.017725648,0.019024372,0.06998202,-0.048124563,-0.029648105,0.089346126,0.059766248,-0.01610017,0.08096195,-0.028990388,-0.038543787,0.14392887,-0.043034237,0.03793341,0.037323475,0.03060211,-0.017215798,0.013839499,-0.029378917,0.036090583,-0.08409958,0.06374802,0.050394464,-0.035419825,0.08071091,0.06436722,-0.05357832,0.01767208,0.12381724,-0.024967177,0.022795364,0.07259786,0.016138595,0.0074193003,-0.05204377,0.044278916,-0.073633656,0.0475611,0.06533535,-0.04234871,0.026184138,0.10173309,-0.034734383,-0.0061716526,0.06665351,-0.043005314,0.02037127,0.0063479245,-0.055543788,0.0010497771,0.09319779,-0.031664193,-0.01652678,0.029534686,-0.19102468,-0.0032399548,0.0113529945,0.004047157,-0.049946394,-0.007317477,-0.02544439,0.119259335,0.030865964,-0.00739351,0.0493429,0.0016960667,0.052070398,0.032704372,-0.037832938,-0.010078067
